{"layers":[{"0":{},"1":{},"2":{},"3":{},"4":{},"5":{},"6":{},"7":{},"8":{},"9":{},"10":{},"11":{},"12":{},"13":{},"14":{},"15":{},"16":{},"17":{},"18":{},"19":{},"20":{},"21":{},"22":{},"23":{},"24":{},"25":{},"26":{},"27":{},"28":{},"29":{},"30":{},"31":{},"32":{},"33":{},"34":{},"35":{},"36":{},"37":{},"38":{},"39":{},"40":{},"41":{},"42":{},"43":{},"44":{},"45":{},"46":{},"47":{},"48":{},"49":{},"50":{},"51":{},"52":{},"53":{},"54":{},"55":{},"56":{},"57":{},"58":{},"59":{},"60":{},"61":{},"62":{},"63":{},"64":{},"65":{},"66":{},"67":{},"68":{},"69":{},"70":{},"71":{},"72":{},"73":{},"74":{},"75":{},"76":{},"77":{},"78":{},"79":{},"80":{},"81":{},"82":{},"83":{},"84":{},"85":{},"86":{},"87":{},"88":{},"89":{},"90":{},"91":{},"92":{},"93":{},"94":{},"95":{},"96":{},"97":{},"98":{},"99":{},"100":{},"101":{},"102":{},"103":{},"104":{},"105":{},"106":{},"107":{},"108":{},"109":{},"110":{},"111":{},"112":{},"113":{},"114":{},"115":{},"116":{},"117":{},"118":{},"119":{},"120":{},"121":{},"122":{},"123":{},"124":{},"125":{},"126":{},"127":{},"128":{},"129":{},"130":{},"131":{},"132":{},"133":{},"134":{},"135":{},"136":{},"137":{},"138":{},"139":{},"140":{},"141":{},"142":{},"143":{},"144":{},"145":{},"146":{},"147":{},"148":{},"149":{}},{"0":{"bias":0.04536302923656584,"weights":{"0":-0.017172935849888615,"1":0.19465131884812303,"2":0.025924807217678873,"3":0.7072990567699767,"4":-0.01836026364248524,"5":-0.06351852463189556,"6":0.4929478950242229,"7":0.37483230269247386,"8":-0.5696230377496192,"9":-0.16301613356101127,"10":0.02265218957544342,"11":-0.1982083372618056,"12":0.4053726471164845,"13":0.04075238416038295,"14":-0.29663917898352576,"15":0.03910638803456913,"16":0.23511026035051438,"17":-0.014206325978255791,"18":0.2540842245747949,"19":0.5304945829639175,"20":-0.35868684626877395,"21":-0.17825031887655923,"22":0.43356962338792554,"23":0.8228961472967123,"24":-0.008928306603172485,"25":-0.02191332396006855,"26":-0.014277260538175482,"27":0.34599863716290574,"28":-0.22268993024618677,"29":0.41525037906131046,"30":-0.25472103777393595,"31":0.08080245423712783,"32":-0.19418191740023905,"33":-0.435430903164083,"34":-0.35540311179798256,"35":-0.09525043715655458,"36":-0.1927534099477699,"37":-0.18127336380544434,"38":-0.08939051071768095,"39":0.5628741590903664,"40":0.017796427576348105,"41":0.2080803986774317,"42":-0.03370606248766155,"43":0.09791462748108876,"44":-0.02140466615437946,"45":-0.09776747001074856,"46":-0.2762105256872778,"47":0.13019871838894506,"48":-0.1257537367827001,"49":0.2179056800028916,"50":-0.4040235994444958,"51":0.1889709792061234,"52":0.002298583870697896,"53":0.293392924192671,"54":0.2492038604835595,"55":0.4848517423088378,"56":-0.3729590657126161,"57":-0.026491761587460427,"58":-0.593681341111332,"59":0.4861584558063114,"60":-0.17370824953368538,"61":0.18117640916709135,"62":0.43842819475595124,"63":-0.02407650362799394,"64":0.12040943058496051,"65":-0.030131669362283592,"66":-0.17055978402913125,"67":-0.10371806879094422,"68":0.3735498590920619,"69":0.673990125074418,"70":0.048111126761313794,"71":0.39039230747969916,"72":-0.13538606083196175,"73":0.2755376693605814,"74":0.03281227060155789,"75":0.16709628559650933,"76":0.08224086578954445,"77":-0.39631535439332827,"78":0.5311999196797581,"79":0.22683556032692376,"80":0.3160902026923422,"81":0.46421564472974797,"82":0.20186532903992496,"83":-0.01788255823317388,"84":-0.3832840471720715,"85":-0.35270832682345193,"86":-0.2996211440254884,"87":-0.7630448175378202,"88":0.15728540451844186,"89":0.1958929272731116,"90":0.28245551550820786,"91":0.7534399520061036,"92":0.019235308796152414,"93":-0.29638339335682845,"94":-0.14941433884450508,"95":-0.30146708041298714,"96":-0.6919953441639292,"97":-1.0139261149557843,"98":-0.14421065099555544,"99":0.5692894342815167,"100":0.7382375945973968,"101":0.047215457890523345,"102":0.35556625120003976,"103":0.26073768036544054,"104":-0.3387335955387998,"105":0.06155520971446905,"106":-0.3288402234390603,"107":-0.05684572953448392,"108":0.19786628115012156,"109":0.013159121219992381,"110":0.5033042497683043,"111":0.45054333902931265,"112":0.3292961245086178,"113":-0.2915128832034402,"114":-0.4724925803239318,"115":-0.5014250710714055,"116":-0.08417472656430769,"117":-0.09770105570299424,"118":0.08105382089448833,"119":-0.22220195523233036,"120":0.4423237763943699,"121":0.4461130681833382,"122":0.4877008939783541,"123":-0.605756625829736,"124":-0.6444548414417893,"125":-0.2867795749005908,"126":-0.23744225587073323,"127":0.158270517881777,"128":-0.25571439326396783,"129":-0.0698810416246017,"130":-0.285754682961513,"131":-0.06124781561046659,"132":-0.627011203304798,"133":-0.6945603454541612,"134":-0.28077229006856635,"135":-0.04418650733483291,"136":0.5520223556682687,"137":-0.4400492840309317,"138":-0.14137446455044617,"139":0.3433591102662297,"140":-0.1114051456233096,"141":-0.1717446200489992,"142":-0.30767897517302906,"143":-0.11102131384260602,"144":-0.16933741518652545,"145":-0.21157547831968726,"146":0.5899922809764522,"147":0.022859269746621856,"148":-0.24803858506808438,"149":-0.2651427957934437}},"1":{"bias":0.28877953411706114,"weights":{"0":-0.16404633546764213,"1":0.03129111566086073,"2":-0.09964888338067213,"3":0.23956486025737786,"4":0.10864353346806828,"5":-0.03922352954408256,"6":0.08837953604268324,"7":0.16174722156455337,"8":0.08043156069909656,"9":-0.31248848381611083,"10":0.14865029786987144,"11":0.1688336416669664,"12":0.6825978449277919,"13":0.771838117741138,"14":0.42586092826326055,"15":-0.18707195267103838,"16":-0.13799575907059608,"17":0.29686684053229995,"18":0.13514491023171532,"19":0.0025680669506666217,"20":0.3339807121039154,"21":0.05044847314319558,"22":0.31401924479562393,"23":0.18562218015964585,"24":0.16463787581938075,"25":0.8037281441687735,"26":-0.2846306113002566,"27":0.041471796801457635,"28":0.26479538033498284,"29":0.27847154881632785,"30":0.34036053175204967,"31":0.6247402180712851,"32":0.001523261141974419,"33":0.48960101054224264,"34":0.6887951736501815,"35":0.28377988257845144,"36":0.02417519083051999,"37":-0.3120146977078094,"38":0.3523230033839531,"39":0.17549160006323225,"40":-0.11840637141328797,"41":0.40892358743221835,"42":0.4434695448682882,"43":0.743744802360722,"44":-0.14326936852566632,"45":0.08245940645909647,"46":-0.23665894652223285,"47":0.3318799036772261,"48":0.3773822993713959,"49":0.07946788974995848,"50":0.006029746712017108,"51":0.5430101200875672,"52":0.24002426724148676,"53":0.08912477838473172,"54":-0.3567779666680897,"55":-0.32033634835465347,"56":-0.6350259811571777,"57":-0.35957870355106075,"58":-0.07271883799013674,"59":0.21134795682143045,"60":-0.04138317295706985,"61":0.31899752019080974,"62":-0.4380267082058677,"63":-0.21991517068693078,"64":-0.26861092070849646,"65":-0.9432394854127859,"66":-0.0045032671439893404,"67":-0.14754702430832914,"68":-0.060210711344657795,"69":-0.5071329810675609,"70":0.027296458589007543,"71":-0.10439530087854557,"72":-0.20342397597734416,"73":-0.3747075786754349,"74":-0.21000911329232255,"75":-0.38110299444877,"76":-0.3507979403550923,"77":-0.174985236747155,"78":0.2218950295989808,"79":0.1509543687529466,"80":0.15081360597374877,"81":-0.0018987608722236867,"82":0.25949578308844096,"83":-0.5602243018512444,"84":-0.19349655986925454,"85":-0.3977652247230506,"86":-0.5281502775594028,"87":-0.19465088065647185,"88":-0.5279598080691555,"89":-0.10901492526174371,"90":-0.16154055115493168,"91":0.3490251177085636,"92":-0.1262671645090642,"93":-0.7400559974025727,"94":-0.8439035814285957,"95":-0.11827772375782537,"96":-0.41761195056083966,"97":-0.38029185195588966,"98":-0.07611832292012444,"99":-0.09580515127843754,"100":0.7265823841537331,"101":-0.16573076222725558,"102":0.1713565523769136,"103":-0.21003744818811218,"104":-0.5204567375834845,"105":-0.3561684558690945,"106":-0.094916969671362,"107":-0.061593674924592744,"108":0.04483393209731773,"109":0.021187809275288166,"110":0.2954143481142551,"111":0.6747235418184868,"112":0.42192719793821626,"113":-0.6909352897654945,"114":-0.7879983392118933,"115":-0.39308491264293377,"116":0.06720808348061563,"117":0.29963053202923756,"118":-0.32938113774759886,"119":0.21725505388541896,"120":0.5952921780321042,"121":0.52026085155464,"122":0.152541539790911,"123":-0.7085968212511712,"124":-0.41321986860674736,"125":-0.4462503754913292,"126":-0.13967868642156336,"127":0.4716890728866599,"128":-0.5586286068050065,"129":0.11375424536391307,"130":0.7483947915730061,"131":0.6599922658212618,"132":-0.6480953095819975,"133":-0.8609166046442733,"134":-0.8501419864918816,"135":-0.3373007096788836,"136":-0.37370808096552205,"137":0.0027890125681706702,"138":-0.13754288885172047,"139":-0.13325170594733313,"140":0.2416006426776895,"141":-0.07868924746525233,"142":0.24226930557905044,"143":-1.0576800262483605,"144":-0.9684508114469419,"145":-0.0050819501649144545,"146":0.00580436762474233,"147":-0.30170691087616425,"148":-0.05592282170412185,"149":-0.33096126133739845}},"2":{"bias":-0.0576012946328722,"weights":{"0":-0.13783488842184305,"1":-0.4895871533677199,"2":0.07030473451569785,"3":-0.2529683750289694,"4":-0.7652837626798802,"5":-0.17541894357162666,"6":0.15801933458051945,"7":0.06820355375844309,"8":-0.4825869285810201,"9":-0.05543005678186161,"10":-0.50801543249257,"11":-0.20872444394732503,"12":0.2914816193135855,"13":0.18122090154288323,"14":0.3009920770764595,"15":-0.340193587766543,"16":0.4113197511878674,"17":0.6728818714283284,"18":0.2029129226453237,"19":0.5776475207363364,"20":-0.10452132064834564,"21":0.1408540128059246,"22":0.14816996031662275,"23":-0.2814851570557411,"24":-0.233315743825845,"25":-0.24123722623062324,"26":-0.13887525446596405,"27":0.4456179409074408,"28":0.5523201224424539,"29":0.6539151109855098,"30":0.12947860627386845,"31":0.41211821698320106,"32":-0.11123716579564938,"33":-0.6811853043004393,"34":-0.3589741113752329,"35":-0.5099534896379142,"36":0.042280391434759756,"37":0.5136303129712195,"38":0.4367044404847548,"39":0.2924757201085322,"40":0.8017806350768414,"41":0.3784058095351618,"42":-0.07728064574923853,"43":-0.12884287978843714,"44":-0.24183911575094144,"45":0.14868881422379346,"46":0.9195596661143866,"47":0.06460120314473226,"48":0.0011900972649518371,"49":0.3207942615656036,"50":0.6430388846525373,"51":-0.11906979190964921,"52":0.09839292973882113,"53":0.04414880169973379,"54":-0.23698805064636952,"55":-0.18795029786791762,"56":0.06229289289528949,"57":-0.22291751421593753,"58":0.23028647154116502,"59":0.6439402885989841,"60":0.724227219427346,"61":-0.2970091664810792,"62":-0.6109368970090345,"63":0.16795345830661787,"64":-0.030482945287285814,"65":0.5080428111639081,"66":0.33102962978447287,"67":-0.24901216738971524,"68":0.14854066290673454,"69":0.1115251230522363,"70":-0.12960983717846356,"71":-0.40755386097054214,"72":-0.4889511753698948,"73":-0.3250053727591535,"74":-0.34064413447027275,"75":0.6018271764386309,"76":-0.6314953938442529,"77":0.6507644893646953,"78":0.0968128744223555,"79":0.1349699154996918,"80":0.3895461435695904,"81":-0.6087167008089953,"82":-0.3202976269887999,"83":0.12502921447914533,"84":0.0555089859052957,"85":0.32604438752052006,"86":-0.9351494364518627,"87":0.07593792366840482,"88":-0.44598800713786635,"89":-0.4624404436501408,"90":-0.3846475818263909,"91":-1.2421969755565854,"92":0.5645601249042073,"93":-0.0805770003245672,"94":0.49049029805143796,"95":0.26890004906748466,"96":0.12378202928267534,"97":-0.1326202855734238,"98":0.13371674482812299,"99":-0.02900723880141537,"100":-0.2352293979507365,"101":0.01219391842278563,"102":-0.19744996547443128,"103":0.649523781695286,"104":0.35752239847556916,"105":-0.16418068179178583,"106":0.5625073020603852,"107":0.4101428423364337,"108":-0.4284910020204173,"109":0.05224405891372051,"110":-0.21235546156554871,"111":-0.35278698235702566,"112":0.2052296353538144,"113":0.7491426585608735,"114":0.4608719947545828,"115":0.4131354970156868,"116":0.6309131710247309,"117":-0.005109778401643627,"118":-0.17955615277309037,"119":-0.5007713529876564,"120":-0.12278984023409885,"121":-0.16376782543850488,"122":0.6265110085528247,"123":0.787819451461664,"124":0.4440248602683101,"125":-0.25358922615734747,"126":0.045678490369530186,"127":-0.14905269035831487,"128":0.049479224812377216,"129":0.1927757590034234,"130":0.23706542601759917,"131":-0.5772774202258915,"132":-0.7331932541061965,"133":-0.6332911122941046,"134":-0.8558984081534196,"135":-0.6925920250422147,"136":-0.21412912052693395,"137":-0.0027269023361973016,"138":0.04371575298362094,"139":-0.09391756125747852,"140":-0.0777017030452059,"141":-0.16351508755101632,"142":-0.7593469984934809,"143":-0.8357808131934252,"144":-1.214682943098422,"145":-0.8636577236774552,"146":0.3900025995095852,"147":0.5799581418120936,"148":0.20784616318908156,"149":0.1994448200802063}},"3":{"bias":0.5549790033203497,"weights":{"0":0.3283381635524749,"1":0.25070959382409147,"2":0.0753887513221648,"3":0.15723477345835168,"4":0.371801489881355,"5":0.30277775480846364,"6":0.16769208962980878,"7":-0.48871475360679417,"8":0.34285603027179323,"9":0.38451880714712283,"10":0.43476200999633774,"11":0.8964095258644165,"12":-0.09296611308196431,"13":-0.14052535766470206,"14":-0.06385219738030287,"15":0.1751110313622937,"16":0.1393840817061022,"17":0.1710752646351207,"18":0.8723829873610371,"19":0.23953890130523806,"20":0.2601180408350605,"21":1.181528590535502,"22":-0.10874859801962486,"23":0.23085626232285653,"24":-0.29501990648154797,"25":-0.37262907993761557,"26":0.2634782028546124,"27":0.3230558896669922,"28":-0.0453376756946207,"29":-0.6028006631928509,"30":0.45016096786573534,"31":0.43370796699188496,"32":-0.15403914503155258,"33":-0.34415747737076297,"34":-0.37612837548215083,"35":-0.40383397557238937,"36":-0.3195517567450941,"37":-0.3672284129847859,"38":-0.13016649542334294,"39":0.2979863294440629,"40":-0.19174860762119833,"41":0.4001189684987756,"42":-0.33860176050177976,"43":-0.5905065014210918,"44":-0.6588623663216555,"45":-0.2531841265338873,"46":-0.03570510744907649,"47":-0.18724631524693633,"48":-0.7086638104026983,"49":-0.5376652477144853,"50":0.009708867231541407,"51":-0.043542269759651704,"52":0.23765142168337214,"53":-0.2783066119138525,"54":-0.5959344982074865,"55":-0.02402786685144578,"56":0.3560078918751887,"57":0.27032407905180267,"58":-0.5684986138191074,"59":-0.3114102574166494,"60":-0.13021673475443798,"61":-0.11801138888754935,"62":-0.1435571616182596,"63":-0.19234467789157791,"64":-0.7277441194135893,"65":0.3064543757014634,"66":-0.047400089369305794,"67":0.2134460027848293,"68":0.04719911484573353,"69":-0.5778504385248516,"70":-0.032138611613530085,"71":-0.12558916105325418,"72":0.13034015718481354,"73":0.5367226835059474,"74":-0.6324525378914417,"75":-0.35037686719093736,"76":0.031085805783911832,"77":-0.006982744651578487,"78":-0.448009723231954,"79":-0.10459510784466515,"80":-0.19296092002125523,"81":0.37132664442515034,"82":0.38515310803479813,"83":-0.05359598902818745,"84":-0.13915690502253447,"85":-0.6056992955925073,"86":0.10049556801915621,"87":0.4657676962264491,"88":-0.45394914969118183,"89":-0.05721864836268739,"90":-0.43345668183697333,"91":-0.21609053165525574,"92":0.27253034405727056,"93":0.06304771686014007,"94":0.08535011001814946,"95":-0.0939164938424339,"96":-0.692600158417403,"97":-0.02498855258986324,"98":0.07045816602053408,"99":0.4132985745614373,"100":-0.35948900066088035,"101":-0.002794550460319469,"102":-0.3691547135022199,"103":-0.10713474359080236,"104":-0.2518754774541584,"105":0.04698531846630172,"106":-0.10888923502535633,"107":0.0030286552106567033,"108":-0.12988555643586408,"109":-0.04905445366754516,"110":0.4390731869926731,"111":-0.19588832722744207,"112":0.003930425564793214,"113":-0.4088074785194074,"114":-0.3512621258842693,"115":0.37417854392868727,"116":-0.4624583218680126,"117":0.1392238770227303,"118":-0.18938954505677782,"119":0.16851455115164943,"120":-0.02736545044794246,"121":-0.10060930723127552,"122":-0.4680076159430401,"123":0.29686075976818466,"124":0.504801807859966,"125":0.47177753399757805,"126":0.30649831226404967,"127":-0.04105567395970946,"128":0.22040855940918058,"129":0.4447822566934339,"130":-0.12932194576877445,"131":-1.1147455332483036,"132":-0.33725629206412494,"133":0.20885456353878906,"134":0.44203446318270906,"135":0.802868471003342,"136":0.5236899533829836,"137":0.08368904648383856,"138":0.3485857968852523,"139":0.1744554603247082,"140":0.11144320788868206,"141":-0.17203935574736273,"142":0.064687900648975,"143":0.45111136324715434,"144":0.7620084079380635,"145":0.35407326586535787,"146":0.24405695034958974,"147":0.22108136379882395,"148":0.2779786989545926,"149":0.1157884663529775}},"4":{"bias":-0.4034078826962693,"weights":{"0":-0.15417490469877204,"1":-0.6154815578322539,"2":-0.5659953877663779,"3":-0.4378987033328441,"4":0.5182303024257154,"5":-0.32041652969583334,"6":0.3529143372255168,"7":0.3898633412048728,"8":-0.5053632921576872,"9":-0.10234262132001115,"10":-0.3028837183510066,"11":0.21391294362491917,"12":0.1457007697748514,"13":0.6448989828282665,"14":-0.315635728516506,"15":-0.32711110805358007,"16":-0.18746623189926412,"17":0.39012784358815916,"18":0.1453584566708858,"19":0.07739739278803387,"20":0.013756740303711384,"21":0.3330878498307808,"22":-0.004708858788768298,"23":0.3068095249552014,"24":0.17890674157651706,"25":0.6282442463786668,"26":-0.46127793070175066,"27":-0.06992830544399434,"28":0.34262310221845294,"29":0.2308242097001503,"30":0.031504389320954305,"31":0.48980075668118667,"32":0.14853032997079,"33":0.6931119119028933,"34":0.5943527331114761,"35":0.2350093187816231,"36":0.971967644970664,"37":0.1565089742855564,"38":0.104548683817677,"39":-0.402434629009196,"40":-0.4908366445332836,"41":0.3240752231716961,"42":0.03302942088864851,"43":0.25014622010927556,"44":-0.3947903809529369,"45":-0.17371941722801068,"46":-0.405961320627941,"47":0.14801197004580505,"48":0.05477520823047175,"49":-0.5121933091278567,"50":-0.29841566067557007,"51":-0.7029069537639253,"52":0.8911592365373249,"53":0.11472242491246959,"54":-0.5626120034017136,"55":-0.38189004442283925,"56":-0.49503209239510654,"57":-0.16718941930744483,"58":-0.5099846606191754,"59":-0.2975401659020069,"60":-0.5289387129228867,"61":-0.6429079519289773,"62":-0.6510717573037537,"63":-0.42396486029881403,"64":-0.1664345853371636,"65":-1.0950371914461219,"66":-0.4715740433337851,"67":-0.0610057328607205,"68":-0.13495514702036362,"69":-0.34889938109120283,"70":-0.357198869331551,"71":-0.12766426677434253,"72":-0.3861578174952379,"73":-0.2548116463299097,"74":-0.036359544416281135,"75":-0.3464875026826752,"76":-0.3226237926940656,"77":-0.36540656139364414,"78":0.0036560355487736604,"79":0.1067546988982693,"80":-0.5806583334115938,"81":-1.0892283206203575,"82":0.09802835974085497,"83":0.0514330145430125,"84":0.039549109862770486,"85":-0.14310009285599992,"86":-0.41955269650309146,"87":-0.4344891620911376,"88":0.30034019952831437,"89":0.298443811322834,"90":-0.5747595307274266,"91":-0.4012917656973034,"92":0.3427613047194941,"93":-0.10646955148555103,"94":-0.2879529567511054,"95":-0.3506016358802755,"96":-0.43463976785867986,"97":0.39780715525199645,"98":0.8074017090956387,"99":0.23126672439025478,"100":-0.6802229627098504,"101":0.1674542810053621,"102":-0.7532920950901055,"103":-0.6648750881002542,"104":-0.5099685246184004,"105":0.30066666334384085,"106":-0.425052093998164,"107":0.18454341848929398,"108":0.8494466292499995,"109":0.8494895826634318,"110":-0.6826016762757305,"111":0.28041704674610785,"112":0.29535553873626386,"113":-0.2100192495907387,"114":0.23711053465907425,"115":-0.45253154006583424,"116":0.5558123634435228,"117":0.025770354010120688,"118":0.5963446131060105,"119":0.05017326954133883,"120":-0.40540217834326964,"121":0.235544566635068,"122":0.7903721779291936,"123":0.3397190947304472,"124":-0.2082747079843299,"125":-0.23577431354210837,"126":-0.21312994480377587,"127":0.17741471455028673,"128":0.02729299815848235,"129":-0.28694472371690427,"130":0.9236624436560518,"131":0.7968219129042757,"132":1.0596551865009691,"133":-0.6511742482018267,"134":0.049145098862485546,"135":0.029322932584170406,"136":0.9994678539455307,"137":0.5624288956869004,"138":0.016325060425437625,"139":0.29980695239219624,"140":0.609171457709713,"141":0.5155541716912749,"142":-0.12060709495139395,"143":-0.14443140481154243,"144":-1.003699942131455,"145":0.23426631975259268,"146":0.5443821853270757,"147":0.013590195333302964,"148":-0.6834720928228987,"149":-0.31757557603931214}},"5":{"bias":-0.464584512549317,"weights":{"0":0.13632102998082465,"1":0.23846221136697243,"2":0.3612145200576929,"3":0.2067722483207121,"4":-0.409588283324723,"5":0.00430674632216337,"6":0.07442860122490537,"7":-0.17362795888138477,"8":-0.3175771869926105,"9":0.08916186276839673,"10":-0.09089325776427512,"11":0.6704443616335347,"12":0.39133832508338745,"13":0.35092290390308667,"14":-0.025167742537573173,"15":0.24909719900399044,"16":-0.029744730362356746,"17":-0.03322323320975782,"18":-0.34886540387493375,"19":-0.21693020811855532,"20":0.33526039238293437,"21":0.38889873991506024,"22":0.03315541238196609,"23":-0.07619566017428749,"24":0.24518513378764162,"25":-0.12238943938987025,"26":-0.07325424837571595,"27":0.08186783600673835,"28":-0.19582859875941241,"29":-0.15025833568412492,"30":0.35025498759207047,"31":-0.26799955568715306,"32":-0.785240608811924,"33":-0.3728362521963412,"34":-0.21709072855186007,"35":0.02472977641550592,"36":0.018008438007077725,"37":0.25407239966666584,"38":0.6200098490033502,"39":0.8295404732784882,"40":-0.13246997319619602,"41":-0.19696654525649118,"42":-0.28630973373204116,"43":-0.8730160933188381,"44":0.247848177057718,"45":0.42870648972590136,"46":0.19549092990390096,"47":0.2581223331985486,"48":0.7387919284763913,"49":0.21960231371222189,"50":-0.13035304830636646,"51":0.003308846307707469,"52":-0.4520761173635206,"53":0.11389611423340659,"54":0.40795546686331463,"55":-0.307543677817311,"56":-0.39846168582116787,"57":0.22788385946581732,"58":1.1781691066993676,"59":0.38062466958973606,"60":0.4151495760437326,"61":0.1596698003868455,"62":-0.06645385191162254,"63":-0.17569171933532673,"64":-0.26223844477828223,"65":0.14448042247264384,"66":-0.23797637493803245,"67":0.40223673729276715,"68":0.8196874133534129,"69":1.076512245851554,"70":0.22537062528060217,"71":0.7142078578900805,"72":-0.13636970532997506,"73":0.033809188309762477,"74":-0.03734392712084505,"75":0.1623701338196549,"76":-0.7274384033725873,"77":0.0751455810377972,"78":0.2458700800131247,"79":0.7965780417037036,"80":0.17939590778491463,"81":0.8331462137961242,"82":0.22026045893540022,"83":0.20230310507568403,"84":-0.3606621724604135,"85":-0.1575957714740723,"86":0.17970093045841715,"87":0.7852233661655671,"88":0.31509296911295875,"89":0.8533977750097407,"90":-0.18559549580463558,"91":0.2616912027641901,"92":0.7557434695514764,"93":-0.21439201570755012,"94":-0.12191915574666247,"95":-0.5612508241444842,"96":0.4286280860680647,"97":-0.3255165250783854,"98":0.04626914129451631,"99":0.025056514359114938,"100":-0.11796407632507078,"101":0.390174066520998,"102":0.6514194645911263,"103":0.7433008810520654,"104":-0.44417708375407805,"105":-0.7311854491678396,"106":-0.5321514732207523,"107":-0.4778313152806941,"108":-0.3511183300841992,"109":-0.12597712416741616,"110":-0.7888002042935814,"111":0.17172397587135346,"112":0.41844664945567467,"113":0.06561442613585701,"114":-0.4438488799139707,"115":-0.24183367640612233,"116":-0.41594706150770533,"117":-0.11624410992929794,"118":-0.4023389465362778,"119":-0.3477385060534383,"120":-0.7593733380413603,"121":-0.21298258487983296,"122":0.1520861684673096,"123":0.49740195588891206,"124":0.10873678351323984,"125":0.4247747502292118,"126":0.022240969794894896,"127":0.10527177854938384,"128":-0.6048151696207302,"129":-0.43079969103367505,"130":-0.37556760217970725,"131":-1.122127997760251,"132":-1.0134346173845212,"133":-0.4128669418803843,"134":0.14021101432339395,"135":-0.19958707157559388,"136":0.5010202241222326,"137":0.356243476387367,"138":-0.33897395327878305,"139":-0.9658569217613984,"140":-0.42810463357208495,"141":-0.043931131185021795,"142":-0.034362435086715055,"143":-0.19084639436225206,"144":-0.5659015136500628,"145":0.0860732202858667,"146":0.2864333785030612,"147":0.41635778105735394,"148":-0.2699160401146415,"149":-0.12483787342581232}},"6":{"bias":0.2915318161980598,"weights":{"0":0.12144960780390879,"1":-0.22211411538989906,"2":0.5238721994372779,"3":0.19758653740503948,"4":0.46184823632673994,"5":0.4312608183780815,"6":-0.20624051422711362,"7":-0.4127760706884051,"8":0.0981870843337434,"9":0.10857421835421911,"10":0.2521618663164406,"11":-0.37084669243924806,"12":-0.07561803655028992,"13":0.09250225525357542,"14":0.40597467974779355,"15":0.05490528104260522,"16":-0.44454971859273384,"17":-0.3326214445690334,"18":0.004000941328680967,"19":-0.06866442587805566,"20":-0.6407036686288494,"21":-0.4940522812398071,"22":-0.19431425361841687,"23":0.2680732980460793,"24":-0.20250699183754814,"25":-0.29117392622809235,"26":-0.1226781920822334,"27":-0.11957639946239466,"28":-0.174120958488399,"29":-0.3006862794243968,"30":-0.47161504992580344,"31":-0.9493115574637727,"32":0.10982828722207715,"33":-0.5395277022526429,"34":-0.5732109578636593,"35":-0.43038452134030863,"36":-0.44022598874493896,"37":-0.6677236183649659,"38":-0.02356287932648696,"39":0.36199830484987894,"40":-0.28273893201361755,"41":-0.5942307807374597,"42":0.18364598947418959,"43":-0.7246695007644527,"44":-0.6460939227527253,"45":-0.41392706767884707,"46":-0.5153534101461187,"47":-0.9728771901084526,"48":-0.14215090907668157,"49":0.39995378796441894,"50":-0.18380206517212125,"51":-0.21612776568075964,"52":-0.08105570853616949,"53":-0.2571947142074113,"54":-0.022245614431796817,"55":-0.4778348028271052,"56":0.11728652933290917,"57":-0.4812168344225343,"58":0.13364328687294627,"59":0.5922471112464209,"60":-0.7406536903619785,"61":-0.5371462868274502,"62":-0.19613193682999622,"63":0.41757707913629677,"64":0.43525627399318706,"65":-0.4022900647976308,"66":0.17392180068347363,"67":0.16502420724208805,"68":0.5711172787513987,"69":0.17261378826659504,"70":-0.31673464103544274,"71":-0.2294377022506488,"72":0.6528110341896579,"73":1.1151462447494394,"74":0.3119106486150382,"75":0.013465734770266961,"76":0.3110943933876821,"77":-0.668254110543978,"78":-0.11555170089636463,"79":0.04284764094900223,"80":-0.3387244935651839,"81":-0.44601883585272356,"82":0.5170475437680689,"83":0.48194777037897635,"84":0.13975580171072247,"85":-0.06180528128242282,"86":0.2943926096975106,"87":0.08867613275538508,"88":0.12644079058021393,"89":-0.01628143051827164,"90":0.044020858462902664,"91":0.0330282341667612,"92":0.23906261949606597,"93":0.4214712408799913,"94":0.17351739320604967,"95":-0.021590894813246067,"96":-0.35227367272805077,"97":0.1212481330759548,"98":0.2940303175321922,"99":-0.04184795157631443,"100":0.07999661356648152,"101":0.7280134856665572,"102":-0.07105967659258365,"103":0.23440224046089497,"104":-0.19466550263569773,"105":-0.1917797608319113,"106":0.18957191761518247,"107":0.08902397474177894,"108":0.4259132627657606,"109":0.10134918851455663,"110":-0.2184867338733295,"111":0.7608311267538369,"112":-0.022482439364036183,"113":0.24261759405911487,"114":-0.24587840134452968,"115":-0.4760723959487076,"116":0.04750314529279964,"117":0.07404198821723376,"118":-0.018726336518805193,"119":0.028997089575290867,"120":0.49546783417627654,"121":0.2454865402195336,"122":-0.14955881586355024,"123":0.04643944161295296,"124":-0.15559157446599814,"125":-0.17694924978090013,"126":0.08356023711028177,"127":0.09826370259366726,"128":0.09438702460453757,"129":-0.04181190671344895,"130":0.8162278821874301,"131":-0.254285176938172,"132":0.07009992460113293,"133":0.09801614052923281,"134":-0.07119284638999854,"135":-0.09849891668963312,"136":0.3916535137355875,"137":0.07330907936594092,"138":-0.022347781655209648,"139":0.25499135816666507,"140":-0.029826467525110437,"141":0.09553668636879792,"142":0.09829653268147416,"143":0.3852142165771582,"144":0.04366428324975103,"145":-0.2379068657635025,"146":0.17110434140612907,"147":0.21374078208789593,"148":-0.22030310723362162,"149":0.15817449030554712}},"7":{"bias":-0.16844320739435947,"weights":{"0":-0.5436391949340171,"1":-0.4266821917196692,"2":-0.08572500973167413,"3":-0.16894399908171762,"4":0.3237811610660305,"5":0.7067264885705137,"6":0.4152267970261039,"7":0.6003362260693262,"8":0.26031557598551025,"9":0.23698401425522486,"10":-0.15174731910306063,"11":0.1897734420523598,"12":0.30395168904991204,"13":0.753232967865722,"14":0.9860167609934866,"15":0.9517391877896635,"16":0.8029926844849467,"17":0.27186421791955123,"18":0.10341749371063177,"19":1.070267487215192,"20":-0.12881282431033145,"21":0.08626114374493153,"22":0.21644226312214399,"23":0.3096249197023846,"24":0.23589369500971677,"25":0.097773666356831,"26":0.26673168538247943,"27":0.193690904298468,"28":0.1855687641850652,"29":0.2936997635530915,"30":-0.17036926207384812,"31":0.04246637874815308,"32":-0.2072132228345634,"33":0.20397067757428378,"34":-0.37118953244818464,"35":-0.5621796940118934,"36":-0.3570265128173261,"37":-0.08712736483804183,"38":0.1481220265565386,"39":-0.32536408066839584,"40":0.14776082164945464,"41":0.07806254592879734,"42":-0.08549141614595197,"43":0.01716036529736296,"44":-0.6938650958072916,"45":-0.5289680661697831,"46":0.07200700216141459,"47":-0.4588131288444194,"48":-0.0617905905770331,"49":0.029068238565574597,"50":-0.23345121297970778,"51":0.12432430758124069,"52":0.6638278988456858,"53":-0.17620027571232033,"54":-0.008889403999892548,"55":-0.18970983919799198,"56":0.10073525707921553,"57":-0.02648975835964661,"58":0.644172486100364,"59":-0.2725704165493958,"60":-0.342079539262461,"61":-0.0668606288680163,"62":-0.41323500962260135,"63":0.37925063467833936,"64":0.41043829732703596,"65":0.5717415635223134,"66":0.20907561514695286,"67":-0.32028977109330586,"68":0.05206044183351744,"69":-0.35507869860513375,"70":-0.3706319670693377,"71":-0.7822938125121136,"72":0.0016379662348282606,"73":-0.0035118854498451717,"74":0.34948008239456446,"75":0.32739683855180507,"76":-0.175696250153336,"77":0.23664204393153795,"78":-0.4497431207002332,"79":-0.6574743874809339,"80":-0.3135129998274441,"81":-0.2336718072012309,"82":-0.31592381293291716,"83":0.3872364310194106,"84":0.45893283645530775,"85":0.3106059030586581,"86":0.2892434495523858,"87":-0.1389996846477584,"88":-0.7106655064550156,"89":-0.3859417123772885,"90":-0.17841626315534986,"91":-1.1559233433804643,"92":0.849422855067953,"93":0.38801868189029665,"94":0.06031983019236167,"95":0.009427196569978735,"96":0.2974092998355726,"97":0.3857675663506144,"98":-0.4062411838095236,"99":-0.4398001838872586,"100":-0.473228388198651,"101":-0.4614777118581384,"102":0.5924463364563828,"103":0.009706022384804194,"104":0.3158893035315247,"105":0.5009508407494042,"106":-0.10035399458542252,"107":-0.25182148554250805,"108":-0.28291111911632194,"109":-0.8877715907499464,"110":-0.6290779997644381,"111":-0.7357727082311732,"112":0.6605234049890453,"113":-0.3536337940919509,"114":0.17107608691529574,"115":0.026451466353740297,"116":-0.2011903696877739,"117":-0.48610668732007445,"118":-0.4206815376559097,"119":-0.27682753587142056,"120":-1.3350500253066222,"121":-0.0695030756633365,"122":0.43671501950579383,"123":0.367796992885283,"124":-0.3382094811446093,"125":0.11354211100889343,"126":0.41528790137013116,"127":0.16397552686991945,"128":0.04350313870291527,"129":0.08777909157634939,"130":0.021682809729429302,"131":-0.44064403910703026,"132":-0.2835991944732851,"133":-0.05291828930455168,"134":-0.4924602575382136,"135":-0.3336325947076907,"136":-0.02396594803143198,"137":-0.05158237821403448,"138":-0.3278948810388483,"139":0.2925003325199142,"140":0.6766310822364102,"141":0.15313372941096678,"142":-0.31317595793726216,"143":-0.1520373961626603,"144":-0.20000269770855605,"145":0.42488948265282916,"146":-0.38613739438166317,"147":-0.03341290880043304,"148":0.025848425209243943,"149":-0.12919623331853905}},"8":{"bias":0.4006818417608736,"weights":{"0":0.5963630819957672,"1":0.6470851610687217,"2":-0.22534686346406393,"3":-0.5556549964019388,"4":-0.3413270905335037,"5":-0.285654498096816,"6":0.3451769815524807,"7":-0.14814359948910258,"8":-0.14474352125580603,"9":0.07992624829772174,"10":0.38866282759074533,"11":-0.19085321858435814,"12":-1.0514242591259209,"13":-1.1724250429559986,"14":-0.6440805208127554,"15":-0.028314211706667806,"16":-0.12518872270162354,"17":-0.06497628660060178,"18":-0.032350723514855136,"19":0.18116151733916297,"20":0.29635680490055144,"21":-0.05570979117130075,"22":-0.24212229676549568,"23":-0.33923314161249296,"24":-0.1835366192328396,"25":0.13024392042591837,"26":0.2588348827954285,"27":-0.1583462552296419,"28":0.22454998952189872,"29":-0.00800884772389798,"30":-0.00862315100046609,"31":0.9002559136936724,"32":-0.37601153675943233,"33":-0.518279788829616,"34":-0.058910193077271085,"35":0.006477311146859704,"36":0.44449624129330245,"37":-0.061596929797441226,"38":-0.20150667171531822,"39":0.14156795006001885,"40":-0.19651976363102414,"41":0.8217121083574871,"42":-0.1954756383869539,"43":0.3329730025780907,"44":0.40686543580889756,"45":-0.16609484175881298,"46":-0.09461850450271046,"47":-0.10906225982278105,"48":0.5181342176091602,"49":-0.06501284786176839,"50":-0.1071753339731856,"51":0.8795509369864891,"52":-0.09085169011622961,"53":0.3700604415916575,"54":0.3829284185142775,"55":-0.1300791181682571,"56":-0.5878461591190517,"57":0.005232764548439167,"58":-0.21922176675123378,"59":-0.22532576075694638,"60":-0.16122644203506353,"61":0.30346405121530184,"62":0.3505333232476922,"63":-0.06668759180152975,"64":-0.2226322587284229,"65":0.14546585234434822,"66":-0.42464439944252586,"67":-0.08407324941983568,"68":-0.005759934820834605,"69":0.0215289483326133,"70":0.5909004850636126,"71":0.6359712248858765,"72":0.43880205833812735,"73":0.05059802919779709,"74":-0.1239818036654312,"75":0.011146949917278388,"76":-0.7187944242849145,"77":-0.5780685233078602,"78":-0.3336537702502418,"79":-0.09533966143256445,"80":0.46264006070745245,"81":0.5117565631708487,"82":0.04497940453233315,"83":-0.13016585724968005,"84":-0.8285917715221401,"85":-0.06964608767049019,"86":-0.1682676604222061,"87":-0.19392150291424048,"88":-0.47865985710709147,"89":-0.0484466941751853,"90":0.07643981319458985,"91":0.4300114913849834,"92":0.08455036435409634,"93":0.22313147838897196,"94":-0.08216479359134143,"95":-0.06772117088443216,"96":-0.7005054331646344,"97":-0.43973706991702566,"98":-0.981680716219721,"99":-0.10210295251183793,"100":-0.005759216766066203,"101":0.4173736443613758,"102":0.7192800252064894,"103":0.3378528494013861,"104":0.0958563063698687,"105":-0.537533335044071,"106":-0.3091913984029555,"107":-0.4776931550099029,"108":-0.8089038141284337,"109":-0.5243817104030832,"110":0.1552019193712052,"111":0.6466127436239018,"112":0.6176096052164891,"113":0.4246097954816985,"114":0.3677118370658721,"115":0.12525111973047726,"116":-0.32394060326162116,"117":-0.013566574511664948,"118":0.3481714640091055,"119":-0.05449430777673792,"120":-0.44180560016258497,"121":0.5980454830748809,"122":0.554360308791073,"123":0.657332441432587,"124":0.29090147697760643,"125":-0.003663499802555336,"126":0.6123191691670081,"127":0.4561145621399091,"128":0.31655919248121533,"129":0.3920823716681359,"130":-0.1061997525467197,"131":0.26891543708155896,"132":-0.33107197846393666,"133":-0.6731157705151104,"134":-0.31208244292618814,"135":-0.13829883363115697,"136":-0.22770972060198374,"137":0.5447194954223155,"138":0.27182374617530747,"139":0.2476801151449417,"140":-0.042828292554210085,"141":0.06026316110966598,"142":-0.21439489490200017,"143":-0.44016172444295387,"144":0.06168758914506929,"145":0.6197893295735298,"146":-0.020023895711664467,"147":0.40257475516799013,"148":0.07859492499420863,"149":0.2896399189878772}},"9":{"bias":0.151655555023081,"weights":{"0":0.664435224507954,"1":0.36181954606040284,"2":0.1758014850160448,"3":-0.264549857577921,"4":-0.24628472291113557,"5":-0.14046300807059064,"6":0.1496989725287027,"7":0.4417980269139332,"8":-0.6805349231367025,"9":0.007162356947344109,"10":0.12306321725821048,"11":-0.1181746368995806,"12":0.5990796301428747,"13":0.4523610479286055,"14":-0.5016786195186297,"15":-0.3721812734320984,"16":-0.28224238671481866,"17":-0.3178393649212368,"18":-0.6615654834633032,"19":0.23016890258956707,"20":-0.21557673201530825,"21":0.37108835135565515,"22":-0.11199289230252395,"23":0.4301790254102876,"24":0.38753261587183496,"25":-0.014107702164665437,"26":-1.122866019343347,"27":-0.9303151266156171,"28":-0.18620177944929237,"29":0.7264636569264382,"30":0.12750650128457508,"31":0.07762353356440226,"32":-0.020926806338887896,"33":0.9839606182630964,"34":1.022075714811867,"35":0.5874615724086634,"36":-0.7756848440849458,"37":-0.6843526271969119,"38":-0.2755789513503322,"39":-0.47253770117833777,"40":0.08626845749486985,"41":0.27144501738064125,"42":-0.007440610908333371,"43":0.24679505202690152,"44":0.7228180979397946,"45":-0.13863844365922956,"46":-0.6359781024875698,"47":-0.08909685243770964,"48":0.2654669534223406,"49":-0.5252561096986489,"50":0.09071674309128422,"51":0.15093616302637092,"52":-0.09826107958779039,"53":-0.49975151484919433,"54":0.8380438071953407,"55":0.684606466799576,"56":-0.38525555266858097,"57":-0.6485024517752045,"58":-0.423461333373729,"59":-0.1796961846074668,"60":-0.10201248103852531,"61":0.03847005569888839,"62":-0.14951965528648722,"63":0.04176084603916735,"64":0.794723866628542,"65":0.45819245077268106,"66":-0.4016915819166937,"67":-0.05542769703918302,"68":-0.3060455440567328,"69":-0.24673043546693899,"70":-0.22431180227752912,"71":-0.2167154544632731,"72":-0.27866960642474103,"73":-0.3462462728813982,"74":0.7830657082599229,"75":0.19159574391983372,"76":-0.35309942214742507,"77":-0.15958906401519196,"78":0.12611649653297466,"79":-0.00967050741152598,"80":-0.44549900885845306,"81":-0.34853738862122813,"82":-0.12905285747115944,"83":0.20009539066605772,"84":1.0489458772809819,"85":-0.21028492590283476,"86":-0.5511337977162651,"87":-0.9713499337900444,"88":-0.08070949464310602,"89":-0.14172306457416023,"90":-0.37477597628421533,"91":-0.234038130951094,"92":-0.555903334045056,"93":0.18416476711597363,"94":0.6036499966129831,"95":0.35332982608094454,"96":-0.46930447508995116,"97":0.010678297776489895,"98":-0.0223057612095821,"99":-0.13980171214557893,"100":-0.307362319845724,"101":-0.33141820254032034,"102":0.029491047971999005,"103":-0.0341963246249918,"104":0.3685947843166001,"105":0.1795992924051837,"106":0.7370428898413252,"107":-0.14981251184482047,"108":-0.020894542083808067,"109":-0.12002129171595961,"110":-0.19334209872939784,"111":0.12304662419909031,"112":-0.0017000777150702894,"113":-0.28804122097988855,"114":0.3768082183558632,"115":0.5652627949075211,"116":0.2403273249494608,"117":0.16052004969942138,"118":-0.16186319228807844,"119":0.6056821364745009,"120":0.2931524003441715,"121":0.12302961638532908,"122":0.11738896703311141,"123":-0.47021073389642415,"124":-0.13374396813694486,"125":-0.4886479204465021,"126":0.2777162649954242,"127":0.40955002217609227,"128":0.224792785420843,"129":-0.006612088698791929,"130":1.1082789333477259,"131":0.5478973690530466,"132":0.6316312115084481,"133":0.018974496258462346,"134":-0.11495462458550725,"135":-0.2692147697721495,"136":0.00988478807952333,"137":0.9971266479311011,"138":0.07974794559204862,"139":0.2337731163423168,"140":0.6865255422438349,"141":0.3683913173889332,"142":0.02837229235296791,"143":-0.33886745093402065,"144":0.21406370941363978,"145":0.5242630899414613,"146":0.44458063206563614,"147":0.05242415658796337,"148":-0.09103245159625113,"149":0.09542672534753383}},"10":{"bias":0.14233910997898175,"weights":{"0":0.39821980303824106,"1":0.4089750706398102,"2":0.09654552961530596,"3":0.5000964788540334,"4":-0.1664877948998964,"5":-0.28115960502952986,"6":0.05528337437177452,"7":0.3676346732352997,"8":0.14329915321743453,"9":0.021839522888751604,"10":0.06325021543191492,"11":0.18804852791266147,"12":0.025035796695337124,"13":0.14589322522739623,"14":0.21460408326799518,"15":0.17053022746116006,"16":0.4022492091225228,"17":0.43639210066977846,"18":0.049439050801862595,"19":0.1080057023633464,"20":0.07664151834533953,"21":0.4695971352598073,"22":-0.14857412251083688,"23":-0.8148438930868778,"24":-0.5759764546238504,"25":-0.1600585613175781,"26":-0.36803236212233265,"27":0.5578748148508207,"28":0.21089181642076765,"29":-0.10994450949736667,"30":0.5043074711456045,"31":0.1598594748165879,"32":-0.28329795277475806,"33":-0.740080722625724,"34":-0.15304881955962432,"35":-0.42899652340544897,"36":-0.22181431000480462,"37":0.007365399616869855,"38":0.3795409247041925,"39":0.5914883029131952,"40":0.41325775647250723,"41":-0.11175997628936196,"42":-0.03460879640576729,"43":-0.24984348270143583,"44":0.0887642341138773,"45":-0.4704118567503418,"46":0.08057495387408224,"47":0.2787422676430538,"48":0.6867031116327229,"49":0.6895069937837418,"50":0.24168557338804977,"51":0.15858320023285147,"52":-0.41588362348825886,"53":-0.17460014801285095,"54":-0.015470040852885277,"55":-0.1412238473197926,"56":0.159484951471941,"57":0.28750164603980133,"58":0.33999246618572204,"59":0.22008176415511094,"60":-0.4640670809872834,"61":-0.14514741392048586,"62":-0.030438178578668675,"63":-0.3506263691248486,"64":0.22069064467983648,"65":0.5107989328863635,"66":0.8842507974123774,"67":0.2255009372366405,"68":0.5787877347422896,"69":0.1350603831398401,"70":-0.3346464698451738,"71":-0.12211910462648987,"72":-0.22426307918375957,"73":0.20673131980638176,"74":-0.1249495138330294,"75":0.30874089027047835,"76":0.1654377730098799,"77":0.40645893368438596,"78":0.4078647863988098,"79":0.002900194230884665,"80":-0.4858319529996025,"81":-0.2577448366119457,"82":-0.2510859933838034,"83":0.0877112800167578,"84":-0.08757122574414745,"85":0.12352181017774176,"86":0.20289787352559335,"87":-0.03728830871462161,"88":-0.28485655564412565,"89":-0.018435695942262686,"90":-0.3232554503434745,"91":-0.17823590112769064,"92":-0.3486305192786901,"93":-0.2283127019590662,"94":0.19388282651073574,"95":0.4062345604455039,"96":-0.050172039283849675,"97":-0.13492613669008657,"98":-0.5455930015394062,"99":0.07204618071401157,"100":-0.05895279167755157,"101":0.3379750890346158,"102":0.272846377953199,"103":-0.2281026285798521,"104":0.15963419708515497,"105":0.08510626512074404,"106":-0.4660545398114328,"107":-0.5003426334218023,"108":-0.7501666231516539,"109":-0.3060744231301542,"110":0.1021184746825792,"111":0.07746479971380009,"112":-0.2944354459116503,"113":-0.0019074532481717906,"114":-0.014329089056399758,"115":-0.08820536817527791,"116":-0.25444601222530255,"117":-0.11186644341227296,"118":-0.3886696770515503,"119":-0.04141757322809956,"120":-0.020594217241951394,"121":-0.5002488629725103,"122":-0.08061046898262078,"123":0.1332019972217882,"124":-0.12849213937462572,"125":-0.19126115508366812,"126":-0.5986096930757265,"127":-0.5475505407944699,"128":0.11032332170996444,"129":-0.005271748761789288,"130":0.5679846727917874,"131":-0.17241067305556318,"132":-0.29082095373450884,"133":-0.29843744147629175,"134":-0.16321086747559688,"135":0.1752285993355753,"136":-0.6416469899305752,"137":-0.6335038376693058,"138":-0.47060329388679506,"139":-0.1323263293990024,"140":-0.03719969301335335,"141":0.1407660413782112,"142":-0.22907288515162208,"143":-0.1637217511687651,"144":0.1901201677408308,"145":-0.02027402460445699,"146":-0.11198397153461316,"147":0.03293113366376942,"148":0.37263566510787804,"149":0.1840323134189302}},"11":{"bias":0.05907838148131448,"weights":{"0":0.3903143822092305,"1":-0.19576986627819307,"2":0.11682426813860344,"3":0.6078481143952407,"4":0.09645332731549042,"5":0.23075368339204796,"6":-0.05757765231117429,"7":-0.5987536278517215,"8":-0.21017206259574348,"9":0.5016177895266121,"10":0.12564360046200623,"11":0.4495453875486929,"12":0.23590939401080419,"13":-0.17963087097908104,"14":0.5828178560135969,"15":-0.10940105093352002,"16":0.4159863814790591,"17":-0.5676374009695976,"18":-0.22045058785336794,"19":0.655513349816764,"20":0.37022571061544923,"21":0.24429274572498033,"22":0.7499726661100917,"23":-0.04278938284386992,"24":-0.0887767240687976,"25":0.02424053540565872,"26":0.5888544061118969,"27":-0.05360125827618587,"28":-0.04388338332397161,"29":0.11797213064025314,"30":-0.11997347500579023,"31":-0.1111822775245027,"32":-0.6987756034727859,"33":0.25528724929666774,"34":-0.4114292895767008,"35":-0.5126475048195999,"36":-0.002109197675621193,"37":0.32849875431257547,"38":-0.06888320987943618,"39":0.7492947941058284,"40":-0.7038689547677806,"41":-0.14758312936691972,"42":0.4039963402086226,"43":-0.2150994655690032,"44":-0.30053884800642494,"45":0.07794425378069524,"46":0.08872979180881345,"47":-0.16971879960388125,"48":0.22651261330701525,"49":0.5312756519511169,"50":-0.3522321753435122,"51":0.32724601600622977,"52":-0.2060396671291432,"53":-0.15231418224369989,"54":0.09156081650532034,"55":0.1018710665847989,"56":-0.7691268980308785,"57":-0.032230933876319076,"58":0.22108269737613223,"59":0.23175675412589816,"60":-0.37771545513938964,"61":0.33199927361964177,"62":0.34963081794395745,"63":0.36421932887681496,"64":0.44039425296821094,"65":-0.7409612752289484,"66":-0.20620379446695192,"67":-0.6934779127054927,"68":0.032343026932638276,"69":-0.31913330699727777,"70":-0.25087935008419054,"71":0.08812496901909997,"72":0.39568543214759816,"73":0.912471394076397,"74":0.10686571547127505,"75":-0.3025437259085886,"76":0.19436548185570435,"77":-0.1475316450850472,"78":-0.5577439123397097,"79":-0.622244302845037,"80":0.7995695336825995,"81":0.6586178532908173,"82":0.028171532029288158,"83":-0.07472210000336463,"84":-0.2121495855353514,"85":-0.5791191624375346,"86":0.13913592691528964,"87":0.1635310917017603,"88":-1.2797124072415773,"89":-0.44620023668429937,"90":0.28902548793189387,"91":0.6984092674212791,"92":-0.49064951019857117,"93":0.4767386672145931,"94":0.2804873823598989,"95":0.2663159564428363,"96":-0.5044886663997967,"97":-0.12359147449470653,"98":-0.953720515805416,"99":-0.13754543281012085,"100":-0.4096187905459341,"101":0.004596699035370748,"102":-0.1718589945410259,"103":0.11515490609041612,"104":0.09964759984385826,"105":-0.44193070150021463,"106":0.4179299819877819,"107":0.265270256816585,"108":-0.8417169772543053,"109":-0.7499161408318669,"110":-0.13378367331834118,"111":-0.28475570794959204,"112":-0.27212062141940596,"113":-0.5176373605514505,"114":-0.2956232019292015,"115":0.29484701523600787,"116":-0.24408079323558182,"117":0.28926685088739496,"118":-0.7576296306024267,"119":-0.37417130003827065,"120":-0.08091336987578149,"121":-0.19939770632388867,"122":-0.2950151667390734,"123":0.22135195562259674,"124":0.27894524139460875,"125":0.4253755809996612,"126":0.1778071633631628,"127":0.3645337642077596,"128":-0.16887475878581668,"129":0.0891905551728152,"130":-0.24322658124274793,"131":-0.761728608114435,"132":-0.7958467882704339,"133":0.3918594187071694,"134":0.8983264706508826,"135":0.3912369275636191,"136":0.03445565421692074,"137":-0.11476693270051296,"138":0.4139561059780456,"139":-0.28627709355941666,"140":-0.29640241186282384,"141":0.11697002541339158,"142":0.7720666506478046,"143":0.13894256797772225,"144":-0.33652713528403155,"145":-0.6337944233826106,"146":-0.6059631987128743,"147":-0.6732369252554701,"148":0.000528490383073508,"149":-0.5473747431495513}},"12":{"bias":-1.277989742076755,"weights":{"0":-0.10548345651595041,"1":0.2164493491469131,"2":-0.6021156649686895,"3":0.19863469077301438,"4":-0.8389376248981959,"5":0.024244064007870856,"6":0.5389607877494329,"7":-0.11700919679457623,"8":-1.058016368653857,"9":0.010179200232187706,"10":-0.15509071458947188,"11":-0.4639322644606341,"12":-0.22576337271906172,"13":0.22337827144586797,"14":-0.30956418758510557,"15":-0.8257453890282407,"16":0.8187707416456402,"17":-0.17885203835595964,"18":-0.8699661411471004,"19":0.3487955128416349,"20":0.23759236143139917,"21":0.39498441773374954,"22":0.19154191456407252,"23":0.3040042769516253,"24":0.3366905358552145,"25":0.15154611555606304,"26":-0.1054428166480778,"27":0.51164262224693,"28":0.2542201940635342,"29":0.7111551590531974,"30":0.3508801585836794,"31":0.510142831986916,"32":-0.04274633425542388,"33":0.048954748046390814,"34":0.3319901787319831,"35":0.046276073238467365,"36":0.15448384916764618,"37":0.44581050553114865,"38":0.2869806457064666,"39":0.06271114965048492,"40":0.8498956618038778,"41":0.237486572699669,"42":-0.12848473468088034,"43":-0.1130044700881794,"44":0.2977964038352558,"45":-0.22697165399467178,"46":0.16754639521940112,"47":-0.12184755419734317,"48":0.31517409145321185,"49":0.681479861474967,"50":0.582523454931524,"51":-0.3090777506310399,"52":-0.13619376321518523,"53":0.26996481453428406,"54":0.2024658131183002,"55":0.12718827817166686,"56":-0.5761675566795329,"57":-0.2446057192117651,"58":0.313439647905037,"59":0.40785764331449775,"60":0.5103022845741322,"61":-0.17023611906587882,"62":0.37545104949807423,"63":0.09476199267929633,"64":0.5627160573933846,"65":-0.0016454266561826839,"66":-0.4940380448165805,"67":-0.719698117391661,"68":-0.26921318766257424,"69":0.5848143030286163,"70":0.29787548751298015,"71":-0.07700977333353796,"72":0.22776035221807123,"73":0.5401857269720084,"74":0.6033528406967754,"75":-0.12245879451308285,"76":-0.08140129683708446,"77":-0.23883663239741998,"78":0.281859705536643,"79":-0.43059461410935307,"80":-0.5204472434953517,"81":-0.19775560828745778,"82":-0.07516163981500303,"83":0.352879060980119,"84":0.623390674576356,"85":-0.11761905536125866,"86":-0.1018011307213053,"87":-0.588382836364428,"88":-0.13046117364961188,"89":0.1710381322324305,"90":-0.051029908463828696,"91":-0.24718457604566968,"92":-0.11408943149321765,"93":-0.09596030566619493,"94":-0.03940068446316015,"95":0.6694610500320296,"96":0.15313459749306735,"97":0.09110440976533177,"98":0.20645978898411377,"99":-0.014715972305566274,"100":0.02225419746908422,"101":0.1436394568020064,"102":0.19899995410291682,"103":-0.08883859766944333,"104":0.07380725307072396,"105":-0.30746890779090463,"106":-0.38584247839323893,"107":-0.17734248314736312,"108":-0.2153116695361185,"109":-0.21086914488831018,"110":0.09595300523556169,"111":0.16489786184700775,"112":-0.08482752315184953,"113":-0.5312527524766482,"114":0.11628151726169153,"115":-0.09482120708293205,"116":-0.06554803824686929,"117":0.09228698245434486,"118":-0.363092811611718,"119":0.1222410186419049,"120":0.08948217676710384,"121":-0.14377439902632366,"122":0.2186826348683497,"123":0.3921046562912516,"124":-0.4648493751665436,"125":-0.4624800384323257,"126":0.2420655270468518,"127":-0.11949135055300447,"128":-0.42947051247051765,"129":-0.39025632590716597,"130":0.09087350093580797,"131":0.2585574219306928,"132":0.6822796587053727,"133":0.22138103261306324,"134":0.40818600659028986,"135":0.17191079917285312,"136":-0.4035910503420589,"137":-0.2260420610786989,"138":-0.9252668500334705,"139":-0.023401605526880465,"140":0.16420691970037643,"141":-0.5203831832286417,"142":-0.051202552662306736,"143":0.430077247452271,"144":0.3924344319075281,"145":-0.30077159855436086,"146":-1.1052683469483484,"147":-1.0009506122758296,"148":-0.585767710860047,"149":-0.4005789901881914}},"13":{"bias":0.6564949963955413,"weights":{"0":0.17729956223282453,"1":0.39024315415852456,"2":0.028543474658043265,"3":-0.3081306220617035,"4":0.07988450701517402,"5":0.021410620932329153,"6":0.06415009024925591,"7":-0.15503576028373636,"8":0.5224838937331466,"9":0.7240732387460598,"10":-0.11878590058618446,"11":-0.11402373388439142,"12":-0.3767541775453779,"13":0.031894856913593825,"14":-0.5245529343011054,"15":-0.3267564109129186,"16":-0.5815436177533961,"17":-0.3280119540011636,"18":-0.0075382484041428685,"19":1.3297666879768284,"20":-0.20922101353520436,"21":0.16983225063636057,"22":-0.7405001221878805,"23":0.14224822646182791,"24":0.06530592474206322,"25":-0.2745104847781957,"26":0.05761690658253751,"27":-0.058246226440087666,"28":-0.06363043501506661,"29":0.4562463110419649,"30":0.28406358750591115,"31":0.29337787102297436,"32":-0.6553749572423956,"33":-0.15448930228340738,"34":-0.2282179684853728,"35":-0.03826701440070115,"36":-0.5131969357684114,"37":-0.024651212504128404,"38":-0.005053420612041932,"39":-0.46213332934382534,"40":0.2632603398865557,"41":-0.4172988870056159,"42":-0.46347519997743153,"43":-0.3355567715594626,"44":-0.3082448349438194,"45":-0.46778687867420976,"46":-0.009447482837565361,"47":0.3660803279171092,"48":0.5327237521152809,"49":0.1618840745044367,"50":-0.09538898025208495,"51":-0.5842915112858487,"52":-0.5486923871357348,"53":-0.08422266642480498,"54":0.16940680441256156,"55":-0.1395133554876676,"56":0.530449069554832,"57":0.2338247980999766,"58":-0.2903485902883152,"59":0.28043113255266344,"60":0.27778824744289154,"61":-0.48058643867732576,"62":-0.3488041062941877,"63":-0.34614666133329464,"64":0.04972924228213656,"65":0.2388392830322039,"66":0.11730659551228544,"67":0.3947454470802176,"68":-0.21910975785811568,"69":0.08245238459086858,"70":-0.46349367699537825,"71":0.032691855313635394,"72":-0.16578628229929884,"73":0.05878787436552949,"74":0.9640800965922616,"75":0.7586959735330873,"76":-0.3380439284176928,"77":-0.02170681753744031,"78":0.2533236347571317,"79":-0.1722013139289262,"80":0.10137050679740621,"81":-0.37964167844169705,"82":0.13727442416395996,"83":0.23002069716796192,"84":0.4099927597698691,"85":0.22833210340538115,"86":0.05036394105953333,"87":0.29172041664169596,"88":0.7915986337696371,"89":-0.2530164885458005,"90":-1.2132061034924992,"91":-0.42850537984566406,"92":0.02988361241457678,"93":-0.6787925151145596,"94":0.5212810680913295,"95":0.29760889310035876,"96":0.2703237854048406,"97":0.05560557726161404,"98":0.018172959102573584,"99":-0.4663432436126214,"100":-0.21251098455561818,"101":-0.1976850370995392,"102":-0.41045450789456545,"103":-0.43643848784596784,"104":-0.21155998911871096,"105":0.14314756038546542,"106":-0.12925478356078154,"107":-0.2859076445563483,"108":-0.3816403912136126,"109":-0.4095488733036632,"110":0.05626192992451318,"111":-0.1719212937227018,"112":-0.5383533023019432,"113":0.34590620927460014,"114":-0.2502395990188214,"115":-0.016632679169367292,"116":-0.26995033506935573,"117":-0.020671936420275285,"118":-0.001954920020804727,"119":-0.8439114318512271,"120":-0.5758539188950534,"121":0.2997313286047046,"122":-0.4348100189826716,"123":0.5161307140353594,"124":-0.19309643786626382,"125":0.15190233696896407,"126":0.36901401147147517,"127":-0.057333853557613106,"128":-0.04407239579141636,"129":-0.9076544094943292,"130":-0.3396913910140906,"131":0.522771424246211,"132":0.46417174861118204,"133":0.26034334681133786,"134":0.4571501348106253,"135":1.0082033683642733,"136":0.924965973763654,"137":0.40776051607986424,"138":-0.580666286103158,"139":-1.1138319632595843,"140":-0.3361188221883751,"141":0.500399143684282,"142":-0.2541071276411552,"143":0.2638260682512297,"144":0.2905826156634132,"145":1.5353874724171026,"146":0.9911049477573085,"147":0.5335851904413764,"148":0.5716396503816761,"149":0.211165698283297}},"14":{"bias":0.3651889041897853,"weights":{"0":-0.33198567084219305,"1":0.27815568226191956,"2":-0.029088837587425094,"3":0.32515776868070934,"4":0.5178147563090854,"5":0.3699087282623793,"6":0.39408522736313645,"7":0.3697721559511299,"8":0.6369192022766905,"9":0.09846978512455674,"10":-0.27989025773524706,"11":-0.15094458865940158,"12":-0.3907352975151305,"13":0.007173324567654411,"14":0.007200294854472253,"15":0.046742701333698955,"16":-0.32162521953660084,"17":0.15616135007645104,"18":0.3658285886124507,"19":-0.6013814836739801,"20":-0.4362555817345772,"21":-0.5982307731363622,"22":-0.7446140020223824,"23":0.3976397806430404,"24":0.04027714517055555,"25":-0.1374933955063749,"26":0.38572020651670386,"27":-0.0030512764869839947,"28":-0.41380646108793734,"29":-0.2890579791068973,"30":-0.651766869240077,"31":-0.6305365881232825,"32":-0.08910555067860264,"33":0.4032213275949436,"34":0.5924323681028599,"35":0.1869869998556117,"36":-0.1774010334836894,"37":-0.20405683443498082,"38":-0.23806379078480505,"39":-0.5441115694145257,"40":-0.7557960190150143,"41":-0.42553788305269596,"42":0.37342675745173726,"43":0.25654949863016907,"44":0.07126171149254505,"45":0.05214153433053505,"46":-0.46288095217193204,"47":0.3196709164232934,"48":-0.14499321396986728,"49":-0.4318090469743458,"50":-0.755085857573491,"51":-0.0998339818297687,"52":0.5060767736942473,"53":0.07960217275670779,"54":-0.0003988248945649652,"55":-0.1487566725944295,"56":-0.19645377207407566,"57":-0.035695457178547954,"58":-0.07567593917253286,"59":-0.2647223032148156,"60":-0.4298570557318938,"61":0.2817283695230453,"62":0.2637637652937077,"63":0.0090352175521523,"64":-0.3293421443439405,"65":-1.018931092850718,"66":-0.31001438978647683,"67":0.23510204652684952,"68":-0.2600282790400975,"69":-0.43026695518815483,"70":-0.16340007555968308,"71":0.7497104972652882,"72":-0.058336420664922596,"73":-0.15475032417201923,"74":-0.4241687842262476,"75":-0.39526260940152497,"76":-0.3993718246243276,"77":-0.5445739795025684,"78":-0.09660960411220683,"79":0.13019973515467478,"80":-0.41365388869200054,"81":0.1240481363262794,"82":-0.10000542653952063,"83":-0.258356193161276,"84":-0.44905691159567773,"85":-0.27822180427836163,"86":0.21095703469795984,"87":-0.29773436008549076,"88":0.2732876053371569,"89":0.2310325786373462,"90":-0.0020007694840270527,"91":0.38767865284445224,"92":0.10869900395038407,"93":-0.28404014514489007,"94":-0.1041762926097062,"95":-0.5568634690945369,"96":-0.5578567795867638,"97":0.10789831678403962,"98":0.7761204537576715,"99":-0.1597196514317591,"100":0.13981099723646928,"101":-0.33650452336768216,"102":0.2924333730163368,"103":-0.08788651192269206,"104":-0.2477158041607803,"105":0.3103642093745512,"106":-0.07960673595769262,"107":0.03938935528811967,"108":1.1349833519578787,"109":-0.14652740577131362,"110":0.042851447947562786,"111":-0.504258571374795,"112":0.0539216414160693,"113":0.4379526336049445,"114":-0.0809022582144618,"115":-0.012194399221253496,"116":0.2947981968757152,"117":0.451452667457676,"118":0.7323524719163488,"119":0.06396807865137556,"120":0.08024383239730694,"121":0.39910247783654706,"122":0.10007298927979322,"123":-0.11414628157308042,"124":-0.5335182548652786,"125":-0.2588621536320923,"126":-0.2946954087509034,"127":-0.04826892021345057,"128":-0.17756474861044352,"129":-0.26030199955426847,"130":0.1627085169101401,"131":0.3639771638826676,"132":0.4833516154598744,"133":0.4331581926000002,"134":-0.230624940632823,"135":0.15148506686904625,"136":0.22007535038740692,"137":-0.29495740350609106,"138":0.13664961941628356,"139":-0.06201324555394881,"140":0.12193004143389001,"141":0.525124630916254,"142":0.4069223606746862,"143":0.3511370733932711,"144":0.03919092997772457,"145":0.676801621447943,"146":0.11704709825655184,"147":-0.02754499326256028,"148":-0.1651655895915053,"149":-0.08280084539354168}},"15":{"bias":0.23273916338113781,"weights":{"0":-0.29610092014119055,"1":-0.21974940215851047,"2":-0.1663946767992543,"3":0.5851787891245022,"4":0.3053158560333677,"5":-0.05633239916755063,"6":0.3095714827032949,"7":0.12263754612847357,"8":0.23913986451153374,"9":-0.035283865621005946,"10":-0.4562167610786916,"11":0.13418350167717824,"12":0.2657455538337684,"13":0.6836450420566266,"14":-0.40677061573719714,"15":-0.021266162884022298,"16":-0.5774932193643826,"17":-0.3302021967211234,"18":-0.037123411070609326,"19":-0.29735037493211514,"20":-0.2842093446095499,"21":-0.2570270742515606,"22":0.14388259048659363,"23":0.3052162269002862,"24":-0.006480276257007416,"25":-0.0808660193981466,"26":-0.006494096318764461,"27":-0.4277481314989875,"28":-0.41473910398687275,"29":-0.7152562719220239,"30":-0.6880312570880157,"31":-0.7430492169657547,"32":0.18888187572098086,"33":-0.14670343041048758,"34":0.10558884458918359,"35":0.14837342041257057,"36":-0.16953885170620972,"37":0.46347896111066883,"38":-0.6290852161538458,"39":-0.47648699746445444,"40":-1.0463285035825474,"41":-0.7371567930415578,"42":-0.628088191593095,"43":-0.4782343967384293,"44":-0.32047160152311904,"45":-0.13123582431122505,"46":0.3637857481735787,"47":-0.11384578258336672,"48":-0.24486160483064207,"49":-0.1984185227609152,"50":-0.8194576189957031,"51":-1.1026854664971124,"52":-0.2240377633171501,"53":-0.00897017815463378,"54":0.06009560451769862,"55":-0.10997540001019,"56":0.7692201709625525,"57":0.013206160323622389,"58":0.07311420155710106,"59":-0.04479167911500851,"60":-0.7182455320044021,"61":-0.1707987100994379,"62":0.4269231198324139,"63":-0.32101512309732544,"64":-0.19292457651828235,"65":0.04739031997802558,"66":0.3914461763954334,"67":0.3914574982509223,"68":-0.38906703823233274,"69":-0.012559805146395852,"70":-0.2802468311585612,"71":-0.24680256783797816,"72":0.6652203907276388,"73":0.5764499894887962,"74":0.5384084290077059,"75":0.0689982878021428,"76":-0.6017874096054108,"77":-0.18426415196718657,"78":-0.024182620044695225,"79":0.04148114000733313,"80":-0.11022323946364072,"81":-0.12409351620091379,"82":0.5955996579551728,"83":0.31674928634364063,"84":-0.25415502882315155,"85":-0.15319368636007435,"86":-0.3799954132247236,"87":-0.03363038626406124,"88":0.39211818272849996,"89":0.35418431016991797,"90":-0.19279790431478455,"91":0.2607891588661259,"92":0.08433052337476828,"93":-0.2305492201489807,"94":-0.6207465412630825,"95":-0.3947719465020673,"96":0.3202620235259866,"97":-0.3358979042417235,"98":0.15749610703274694,"99":0.15819718683665374,"100":0.3476016561783141,"101":0.5555911274078422,"102":0.22233426202552165,"103":0.1284410590164937,"104":-0.8772465130503885,"105":-0.29265491322266546,"106":-0.4967459381685863,"107":-0.544885488912045,"108":-0.10224112567955927,"109":0.2917884247173451,"110":-0.0008588697928019062,"111":0.5540805148640141,"112":0.4792017479342967,"113":0.14281372612544263,"114":-1.0369977804746389,"115":-0.241562905180922,"116":-0.2125341734076129,"117":-0.3475327301764285,"118":-0.11515915530825759,"119":-0.3147730104750507,"120":-0.009732512332694582,"121":0.11322851416818071,"122":-0.10113171428732905,"123":0.14584184209696055,"124":0.09581692395633241,"125":0.34378416606297313,"126":0.15734104562353718,"127":0.39637432469722056,"128":-0.0984515123021975,"129":-0.3245168572595371,"130":-0.021741902923963,"131":-0.4139067732934813,"132":0.09717052012519992,"133":0.317584630128837,"134":1.0805975602307214,"135":0.7120948261808957,"136":0.8376062310105219,"137":0.1055317065424533,"138":-0.36460644470004194,"139":-0.5459821323380768,"140":0.07944412936938476,"141":-0.04966949603839451,"142":-0.016508871901199432,"143":0.6042561849273682,"144":0.9265893182180334,"145":0.681095814249765,"146":0.3841981167445855,"147":-0.10081110376260116,"148":-0.28768345197188083,"149":-0.2654451951348627}},"16":{"bias":-0.26462255166624776,"weights":{"0":-0.1616626855601342,"1":-0.27308501129029383,"2":0.12848917375129823,"3":1.247794616585691,"4":0.17251377499787662,"5":0.8892550871808151,"6":0.6960901613940563,"7":0.22468332717460518,"8":-0.8137183207135109,"9":0.3091726270040899,"10":0.12673448527728393,"11":-0.4058784727282313,"12":-0.07149781667884439,"13":0.5004846999865366,"14":0.46355271752255134,"15":0.6449687023112495,"16":0.33852756564119896,"17":0.2751393153534193,"18":0.21452744720471248,"19":0.8957860717558038,"20":0.14477830909428502,"21":-0.13598227605951274,"22":-0.41159528193379974,"23":-0.3694304468979864,"24":-0.36589012233123225,"25":-0.42765049317310017,"26":-0.16299301065610894,"27":0.022372420512041323,"28":0.5371273511967695,"29":0.6232112256144898,"30":-0.16315807885950834,"31":-0.3426627849862917,"32":-0.6398503144880919,"33":-0.44165642207041533,"34":-0.25857139017447833,"35":-0.29597970737064266,"36":-0.5339143737489179,"37":-0.6847198140438454,"38":-0.1008823975399851,"39":0.373385288187365,"40":-0.053518386654058926,"41":-0.5084079595818318,"42":-0.16744446010296438,"43":-0.36661380498779256,"44":-0.5202065128900395,"45":-0.12619687814748262,"46":-0.6560910403285798,"47":-0.6330913835866135,"48":0.2882759776588025,"49":0.2833693787008632,"50":-0.3917662616337119,"51":-0.2756046756048731,"52":-0.5713985316871057,"53":-0.7728746290897758,"54":-0.03890858540667735,"55":0.6505678727555058,"56":-0.4257176200801779,"57":-0.1987645257997096,"58":-0.027338290879203284,"59":0.5141350724590025,"60":-0.38428284522462874,"61":-0.47973773769413797,"62":-0.43479541594797294,"63":-0.2946009832459301,"64":1.055664231959191,"65":0.22083545321312675,"66":0.28592498220928364,"67":0.1660467892655768,"68":0.1674861794630496,"69":0.5273910336947931,"70":-0.9751895043076896,"71":0.22431036846065885,"72":-0.21837614102122407,"73":0.45093238490723486,"74":0.5583303297423372,"75":0.3130475254936189,"76":0.014918139171206195,"77":-0.17724866303726994,"78":0.18422919696156922,"79":-0.14699370138494766,"80":-0.06576133464886921,"81":-0.28165626327525595,"82":0.19896103795996192,"83":-0.005939313955100221,"84":0.0760713011127438,"85":0.15253850116793624,"86":-0.3957000233586695,"87":0.12656050876242783,"88":0.8103459910764627,"89":0.09904924546054124,"90":-0.26582417257491614,"91":0.0350844360637128,"92":0.07478242208274301,"93":-0.040055200718069506,"94":0.006912382649532445,"95":-0.3801952939031563,"96":0.3521529566588447,"97":0.3973182889659621,"98":0.03624309864821149,"99":0.23082019543094925,"100":0.03360092776925618,"101":-0.053068833504319464,"102":-0.18410503342968326,"103":-0.11339355880064343,"104":-0.22763412322193036,"105":0.07684061890201709,"106":0.045045962170621213,"107":0.7866362479500099,"108":-0.06443887642685345,"109":-0.10877838517073052,"110":0.1335196778987854,"111":0.09906157772717909,"112":-0.39453898497615714,"113":-0.3301894651537555,"114":-0.3147503627697492,"115":-0.07357682285029048,"116":0.8681715012048206,"117":0.7169271235357013,"118":-0.0761778704584774,"119":-0.9210340433841709,"120":0.10628664669981766,"121":0.07988986917688144,"122":0.5112719473741311,"123":0.2582100814112917,"124":-0.1308850691788516,"125":-0.2122497284052609,"126":0.0004156451118131552,"127":0.08697575289157564,"128":-0.7226043516695723,"129":-0.6484954140777707,"130":-0.01880877907973678,"131":-0.012804801247256022,"132":0.2670892158028291,"133":-0.4966448473688098,"134":-0.1474041257790399,"135":0.0643857246275298,"136":0.1511011500909367,"137":-0.8755654425792364,"138":-0.9614761955185853,"139":0.07816270732327704,"140":-0.02916932418674664,"141":-0.024483241603681347,"142":0.12021469385515525,"143":0.4208722742914732,"144":-0.23994924430574488,"145":-0.4919385683181469,"146":-0.04182331062862669,"147":0.16406751538847497,"148":-0.6357486672509912,"149":-0.49599036598626417}},"17":{"bias":-0.1814624042929703,"weights":{"0":-0.04402402193769166,"1":0.8927692510016264,"2":-0.3317369997374727,"3":-0.13296741614610746,"4":0.06950806307969819,"5":-0.2626699642387038,"6":-0.2541884425069406,"7":-0.2588414200387749,"8":0.2426269464653997,"9":0.3372070104396193,"10":0.71330020760337,"11":1.7865143911603574,"12":-0.27854545287791693,"13":-0.4779152409067627,"14":-0.3822079207944511,"15":-0.2841310235749129,"16":0.14597902570230167,"17":0.3141760706863581,"18":0.2676617638300625,"19":-0.26966301924819236,"20":0.7584839047091511,"21":1.532726658116935,"22":-0.5972323356088424,"23":-0.5901058429518188,"24":-0.393596671922512,"25":0.15990145923508534,"26":0.18025539095100798,"27":0.09934554319446529,"28":0.0024981376751922794,"29":-0.829581885467642,"30":0.5086379494477977,"31":0.4593260558751526,"32":-0.4203553867432314,"33":-0.036916292540078256,"34":-0.2735260879224017,"35":-1.3014982857312374,"36":-0.3930298529543755,"37":-0.4869318700519254,"38":-0.38218949370596283,"39":-0.9180434311973156,"40":0.7183523479239525,"41":0.635775801571497,"42":-0.3739539370141332,"43":-0.3645693208766708,"44":-0.8321374236350232,"45":0.030583617845326958,"46":0.13802504430013918,"47":-0.4171178609488886,"48":-0.33052183074329033,"49":-0.42755514063173244,"50":0.5363523404680232,"51":-0.038035782670054426,"52":0.08106555541572873,"53":-0.4518104133103629,"54":-0.6854227704618552,"55":0.28591836270177234,"56":0.3011680909484075,"57":-0.1348670158070365,"58":-0.5466379028347277,"59":-0.4475758733268346,"60":0.18076434208248285,"61":-0.12439252721869576,"62":0.2655130086181519,"63":0.11002405774910329,"64":0.2987584831495425,"65":0.3304675905464581,"66":0.031847954595337666,"67":0.11348886756754151,"68":-1.0724331019671804,"69":-0.7277816132440285,"70":0.08725392614599531,"71":0.2030881480865903,"72":0.6373696051768495,"73":-0.2510309804444136,"74":-0.08319503131325144,"75":-0.2572136795566895,"76":-0.014457495078888237,"77":0.008461341670108188,"78":-0.4422922103092512,"79":-0.4828295477705939,"80":0.1178239605853391,"81":0.16746605735953815,"82":0.7580416114418146,"83":0.018527527315879977,"84":0.07382512277743017,"85":0.09169426080230836,"86":0.10035924876830461,"87":-0.09058468883598207,"88":-0.1113966208878419,"89":-0.07686592018442966,"90":-0.2918106779311489,"91":-0.5060266546973312,"92":0.3361071298260117,"93":0.254958001373738,"94":-0.15721586718907776,"95":-0.08272560636197852,"96":0.2191133896272889,"97":0.14489246196464525,"98":0.39723368172935947,"99":0.2768038672548454,"100":-0.8502435733553285,"101":0.16207419825932795,"102":-0.509425223100913,"103":0.06631591611837169,"104":-0.027458166023377646,"105":0.1794312856800284,"106":0.3356393589300358,"107":0.2495960421380783,"108":0.1272183350400756,"109":0.122804797463165,"110":0.036295907309321064,"111":0.051644318583358335,"112":0.4212651282625982,"113":0.002771190353286318,"114":-0.11189783955132246,"115":-0.08269092898119627,"116":-0.12203341678880371,"117":0.10524880281782469,"118":0.033999475315175644,"119":-0.28041541112851565,"120":-0.597401970457688,"121":-0.4366215511784521,"122":0.03495272150953387,"123":0.29066657352223285,"124":0.43421681063019674,"125":0.4847491670643053,"126":0.2214946826156984,"127":0.04325942488690017,"128":-0.19722759769638876,"129":0.2697441018649474,"130":-0.07265240512518764,"131":0.3891053499056872,"132":0.211304688080008,"133":0.26606107096882814,"134":0.32442555192623124,"135":0.8337553252812064,"136":0.11375638525401838,"137":0.3089819576733712,"138":0.1857487115013332,"139":-0.46217291333583,"140":0.04989325312248312,"141":0.517490357068554,"142":0.17549981354495794,"143":0.14483571900795786,"144":0.5091237912451324,"145":0.31372458424783506,"146":-0.4165735737247543,"147":0.2490955002170384,"148":0.3153928079653833,"149":-0.2335355414276074}},"18":{"bias":-0.554207607806134,"weights":{"0":-0.2710131442931027,"1":-0.560391360035492,"2":0.06810129476966226,"3":0.7489792281159662,"4":-0.13147870417287127,"5":-0.2715588875737604,"6":0.1835739923191003,"7":0.7095642735783568,"8":0.29574842756204,"9":-0.9006283613725474,"10":0.05268447766919713,"11":0.1834702844698804,"12":0.9500811003618894,"13":0.5755706675003779,"14":0.19582701804821884,"15":0.6767760852399961,"16":0.2850450156058821,"17":0.6918558988917148,"18":-0.16872687771868058,"19":-0.8305502343642286,"20":-0.18002705327196433,"21":-0.07958871612795425,"22":0.40503118501419094,"23":0.523532986673427,"24":-0.08884589011897547,"25":-0.00635588161002606,"26":-0.14835612514031954,"27":-0.2048191458767608,"28":-0.4730017906226515,"29":0.054263953462491764,"30":-0.6060332548933024,"31":-0.23641595430913395,"32":0.6789612886171733,"33":0.22636440700976923,"34":-0.18830780963439664,"35":0.2112562934810401,"36":-0.8021629465165365,"37":-0.37541959808825437,"38":-0.6467576814237876,"39":-1.027712985131596,"40":-0.2647847149012281,"41":-0.13169928088089772,"42":-0.22482687434687018,"43":0.3984856986303324,"44":0.18680388029394146,"45":-0.40321117009549223,"46":-0.0393251880403468,"47":-0.5891935166955152,"48":-0.7218347496671241,"49":-0.2583270600901472,"50":-0.47737042308487293,"51":-0.7193989674706978,"52":-0.6939588377871979,"53":-0.649330518711863,"54":0.48809122120876586,"55":-0.09880230866831259,"56":0.4811438155806435,"57":0.5249801679713829,"58":-0.15323130462440648,"59":-0.7808458772203847,"60":0.10839627388057015,"61":-0.08436207823129133,"62":-0.8960807223167372,"63":-0.3294677236720384,"64":-0.48664733358339574,"65":0.24160130365743318,"66":0.05903402116606092,"67":0.7910665212271265,"68":-0.3143718502798882,"69":-0.12221851247659068,"70":0.42289210177686565,"71":-0.8006414765062583,"72":-0.33007682223778256,"73":-0.2857394798820792,"74":-0.3798954340036435,"75":-0.4682651856825041,"76":0.6165700891468556,"77":0.6349638445144014,"78":-0.9463310098973807,"79":-0.3782406211761757,"80":-0.23439679196587007,"81":0.2303196956556908,"82":-0.8261298845380812,"83":0.08720544275982865,"84":-0.6104588594687179,"85":-0.3335697342320395,"86":0.616835065895125,"87":0.03453645692376964,"88":-0.8258487655723911,"89":-0.8321963745604466,"90":0.4089648074032664,"91":-0.04847266130851424,"92":-0.39899981709814225,"93":-0.308078952629893,"94":-0.16787394928456695,"95":-0.044819930379299926,"96":-0.023021716028075335,"97":-0.09865180836510039,"98":-0.8336044531746816,"99":-0.05535455247973434,"100":0.5643734379593178,"101":-0.1370640811684018,"102":0.34799184770736163,"103":0.034161990042871994,"104":0.18146628090229838,"105":0.20554486202111466,"106":0.3224953713737393,"107":0.3017391033532261,"108":-0.2561136971300744,"109":0.261387722175895,"110":0.6875625299637904,"111":-0.1797489014684903,"112":-0.2649668453187314,"113":-0.21680908486688882,"114":0.1558405949339293,"115":0.7464149926833051,"116":-0.7421366595664969,"117":-0.6289948357577895,"118":0.43789004161389994,"119":0.4131103401209664,"120":0.47008553443735474,"121":0.4676396128361774,"122":0.5334599589078207,"123":0.2747050861289093,"124":0.15083999602094117,"125":0.1782537942004242,"126":-0.07540906291075884,"127":0.2742678186037502,"128":1.1098987544569032,"129":1.2772645370496905,"130":0.4131027994582723,"131":0.7798419836120962,"132":0.36913109488071394,"133":0.6841829611112594,"134":0.6776454989225609,"135":0.7533340242923349,"136":0.0027674613910021605,"137":0.885304405052278,"138":1.161812567688264,"139":0.22735030526181754,"140":-0.04745460379284016,"141":0.329939357102902,"142":0.08902415645616382,"143":-0.31110115896294577,"144":0.3516988909680114,"145":0.24332948410790242,"146":-0.3206897763513132,"147":-0.16154312532878334,"148":0.09996596261067944,"149":0.6421611310540387}},"19":{"bias":-0.37668098789321025,"weights":{"0":-0.09169445794590655,"1":0.2628978218440943,"2":-0.1335432686127922,"3":0.4726641351569525,"4":0.25223020840191956,"5":-0.40375981878069567,"6":-0.019446951828182287,"7":-0.6643496444379561,"8":0.30819248665056226,"9":0.14897978923290273,"10":-0.148885803956463,"11":0.2737291281698998,"12":-0.4820560158282963,"13":0.4714055782155625,"14":0.13984092236657047,"15":-0.6802944028605562,"16":-0.6033905428757366,"17":-0.5578812906455974,"18":-0.5256985516604064,"19":-0.10062997855652488,"20":0.1025350589410362,"21":0.48472524802016503,"22":-0.671487814030158,"23":0.41417882773987014,"24":0.056503825552848955,"25":-0.24583914531692222,"26":-0.3041713173488039,"27":-0.5680263446770504,"28":-0.5908434420726806,"29":-0.08029691665513941,"30":0.2975244866315687,"31":-0.14371116372418524,"32":-0.13249869306900405,"33":0.8215771600259367,"34":0.34035743326697593,"35":-0.04858349138472357,"36":-0.6513015808121237,"37":-0.11824117400443904,"38":-0.5909819677820439,"39":-0.8669261797854568,"40":-0.5727947992310846,"41":-0.10690761044755079,"42":-0.22199551889050403,"43":0.29671943605405743,"44":0.047275930228596524,"45":0.9243738996108153,"46":0.3337579828179202,"47":-0.27507379067310067,"48":-0.3624395350178365,"49":-0.40533332002374034,"50":-0.19191630979538948,"51":0.181685020295974,"52":-0.07434360293423878,"53":-0.20815780379832946,"54":0.43949920289742006,"55":0.5781583131083746,"56":0.18770371028905322,"57":0.09421070695852778,"58":0.08153069320810093,"59":-0.39174611769517076,"60":0.6609389000835112,"61":0.41348997933245724,"62":-0.3142199178092855,"63":-0.40096361067741443,"64":0.36238197943627026,"65":0.18324609463338992,"66":0.13965389266865424,"67":0.6412024896556507,"68":-0.11532182014745507,"69":0.3216921880446479,"70":0.24725745944038846,"71":0.15729662560159563,"72":-0.20502589686119968,"73":-0.1574856740839016,"74":0.5451146767631969,"75":0.21764746331405005,"76":0.25004970567666296,"77":0.12758239901769455,"78":-0.32702018986587583,"79":-0.3860539600555254,"80":0.03690670180148098,"81":0.4411450527712547,"82":0.062178292605887524,"83":0.18859407883205254,"84":0.33993033214664514,"85":0.36025753185507664,"86":1.065137809601127,"87":0.6931506007669027,"88":-0.2535881789436012,"89":-0.21960769067027583,"90":0.016421095878749185,"91":-0.1845815477973941,"92":-0.04188604005442317,"93":0.07790542238211659,"94":0.06485731819630408,"95":0.6219777434061214,"96":0.6613283982645949,"97":-0.19760367583157765,"98":-1.1174801166540405,"99":-0.7003549063388038,"100":0.242229398841126,"101":-0.5712185584474481,"102":0.49953980271838744,"103":0.2097877141943932,"104":0.5364081278003865,"105":0.3179739887477368,"106":-0.22674704340982174,"107":-0.33360387836739375,"108":-0.8368101996066829,"109":-0.9434229635232557,"110":0.39674203709828615,"111":-0.3268304467812317,"112":-0.46532057514263353,"113":-0.7252909373485938,"114":0.05291168174757969,"115":0.2895352780748859,"116":-0.15166882242014335,"117":-0.3230536118230673,"118":-0.8627310830459762,"119":-0.8358337543343488,"120":-0.08394982559648474,"121":-0.3013640489736879,"122":-0.35791789825506787,"123":-0.5249683652296029,"124":-0.7390602119065707,"125":-0.47610059039287145,"126":-0.18292638199631653,"127":-0.46416445804818085,"128":-1.1788971574366565,"129":-0.7202858217696723,"130":-0.5981141201273273,"131":-0.1039953345392719,"132":0.235735458843169,"133":0.5645305371646573,"134":0.8105256414650108,"135":0.5555026057671796,"136":-0.28976176519980623,"137":-0.43906875068832885,"138":-0.7961472940841616,"139":-0.6963958745450305,"140":-0.21969031665653782,"141":-0.2787666397004748,"142":0.534623174377538,"143":0.6522307199525956,"144":0.6088762545926248,"145":0.7403067932684122,"146":-0.6108497005324983,"147":-0.9866467584289308,"148":-0.8871002723002133,"149":-0.22562493068952288}},"20":{"bias":0.12565527220630504,"weights":{"0":-0.12083644330681381,"1":0.5564701533150787,"2":-0.2942576185634021,"3":-0.9669164307260553,"4":-0.4751754694103502,"5":-0.589468466821167,"6":-0.22373724208902926,"7":-0.4386818457438623,"8":-0.740829509517681,"9":0.440014196088832,"10":0.6452312494856777,"11":0.6725381069790357,"12":-0.4497921246864538,"13":-1.328488913206865,"14":-0.8047969206251903,"15":-0.9471893447500686,"16":-0.6887238202232562,"17":0.289567725136319,"18":-0.07197959883454724,"19":0.2928134997674833,"20":0.47579865497121754,"21":0.8005339815482204,"22":-0.418772167357594,"23":-0.1431486612479454,"24":-0.19852788962513482,"25":-0.04115198043342932,"26":0.006426412723934364,"27":-0.3382721797842088,"28":0.07916240192086621,"29":-0.2716319762529897,"30":0.07068344815374035,"31":0.6399386604498254,"32":-0.3184213046306579,"33":-0.10958696412525433,"34":-0.5124647146443206,"35":-0.4862914721109388,"36":0.2512551200144679,"37":-0.11611797627533552,"38":-0.0633444888577192,"39":-0.39110153916286017,"40":0.29840034934877696,"41":0.4204541181200529,"42":-0.05695032253643044,"43":0.14420371140627872,"44":-0.9373011602933056,"45":-0.22728464729236614,"46":-0.3374024152759924,"47":-0.49448913737921973,"48":-0.11028042863962034,"49":-0.11351084898483915,"50":0.4368860573428987,"51":0.47317689670541796,"52":0.5733852071647375,"53":0.20558910438933295,"54":-0.22401716406222638,"55":-0.4261493155653804,"56":-0.6043199351591605,"57":-0.6307448891626007,"58":-0.8342993867082795,"59":-0.2013607154154046,"60":0.4783102756901218,"61":0.17261254531985432,"62":-0.0718068130051665,"63":0.4400582883466967,"64":0.012170323024646474,"65":-0.4106492128276235,"66":-0.39865654349279106,"67":-0.24839378785705693,"68":-1.202234363945801,"69":-0.5184686452441419,"70":-0.06122559440149788,"71":0.4146430592076552,"72":0.6989852133682606,"73":0.5210080863807666,"74":0.28770228807989506,"75":-0.2843101572003673,"76":-0.1803255357554537,"77":-0.2750100016025615,"78":-0.2871984382289014,"79":-0.6454756912631706,"80":0.4121451356688629,"81":0.42488267727660495,"82":0.5079842840269974,"83":0.6765794545946151,"84":-0.24512063293090858,"85":0.1348676731307149,"86":0.24324890535183974,"87":0.538355831047804,"88":-0.312028103361812,"89":-0.11882711277181313,"90":-0.4820731101995318,"91":0.281410030914259,"92":0.1820597897114334,"93":0.07075658881767342,"94":-0.4907853521517753,"95":0.25025604377059973,"96":-0.18907255005932566,"97":-0.0034815190821970527,"98":-0.06159993468539104,"99":-0.2235320078846739,"100":-0.16096451013811747,"101":0.4595483089245461,"102":0.10962640093762717,"103":0.5190078977727066,"104":0.38368511831443197,"105":-0.051406544282397194,"106":-0.14104144601002325,"107":-0.42588212834022104,"108":0.06500544157039222,"109":0.1331775344201521,"110":-0.24832432526313694,"111":0.6944695494771831,"112":0.8283586219391965,"113":0.3357704321063226,"114":-0.20013662182700875,"115":0.00025887389370831255,"116":0.0469151192491173,"117":-0.18223284815709978,"118":0.2896238190678225,"119":-0.1276423563809969,"120":-0.5913007451275752,"121":-0.2411616336140543,"122":0.38304117739156973,"123":0.5796379690341643,"124":-0.00318977067036678,"125":0.14520552856406324,"126":0.3254631008026333,"127":0.6889330535610545,"128":0.1785867854858165,"129":-0.09168762140951721,"130":-0.2360852148263718,"131":-0.09874248328185603,"132":0.10951956602594858,"133":0.32964553643450134,"134":0.4436177070091505,"135":0.3164682416570865,"136":0.11931828803286743,"137":0.8872605603715079,"138":-0.20843581204867995,"139":-0.19795241350320855,"140":0.408758278398697,"141":-0.1731718186207594,"142":0.20927216582094604,"143":0.26994822607898994,"144":0.48588463674836935,"145":-0.1712466894033197,"146":-0.3434637500782082,"147":-0.11056240185511211,"148":-0.13586878690093857,"149":-0.28082601005983954}},"21":{"bias":-0.8536858329659992,"weights":{"0":0.20175925392682534,"1":0.19318996634820587,"2":0.038887430438556726,"3":0.1038450175858032,"4":-0.6701305434679259,"5":-0.5307126275307537,"6":0.11661187030959753,"7":-0.17493748643462398,"8":-0.660804920429116,"9":-0.6222070594534629,"10":-0.336698450817471,"11":0.40565525977875866,"12":0.41151982022288974,"13":-0.33686456423150396,"14":-0.16529861691290182,"15":-0.41519838919029695,"16":0.3063028312859381,"17":-0.06370376080665656,"18":-0.5056209827340895,"19":-1.0744755307841836,"20":-0.49725526025998096,"21":0.3378066232545754,"22":0.01743633532937451,"23":0.24134274925973198,"24":0.5480638923619917,"25":0.5027577030979886,"26":0.07151361220003737,"27":-0.2504091735263203,"28":-0.4403624841196066,"29":-0.34498092248797385,"30":0.003734031143173697,"31":0.11165491594829315,"32":0.04888179897426249,"33":0.3830891896880513,"34":0.9019051194299031,"35":0.6370207937286528,"36":-0.2634549836251119,"37":-0.002998520569887502,"38":-0.647152454803442,"39":-0.22180142429205266,"40":-0.06317196452150331,"41":0.2754241001030155,"42":0.26210480225869853,"43":-0.049081144409431676,"44":0.22874531708873,"45":0.09450375626353248,"46":-0.34328261250775083,"47":-0.18364042339220135,"48":-0.10463030823799215,"49":0.11525579884185652,"50":0.19966902979263407,"51":-0.3640801791554882,"52":-0.228503558027172,"53":0.02386751220710167,"54":0.2196579504761815,"55":0.12445016810648388,"56":-0.018277638191138767,"57":0.052430169571002404,"58":-0.1702807223198803,"59":0.0826504678766776,"60":0.3780599953188131,"61":0.1515181148925056,"62":0.4689514105809239,"63":0.18946689746109366,"64":0.1594809126951613,"65":0.13803559787055164,"66":0.14069104328340673,"67":0.2127355210175866,"68":-0.2657749306893768,"69":0.12410018535627931,"70":0.6265890495246793,"71":0.0816070384928794,"72":0.27659916822977065,"73":0.7242408601284964,"74":0.528442141272961,"75":-0.35102259741990616,"76":-0.078346706341773,"77":-0.1396259123516091,"78":0.13908535470093455,"79":0.46274826150571774,"80":0.21941158950747494,"81":0.002676795167866655,"82":-0.060451327019764405,"83":0.42663959974665633,"84":0.2434674675132382,"85":-0.1474629496361339,"86":-0.5300751794261379,"87":-0.06550429829791286,"88":0.2421619689309687,"89":0.9032194999690698,"90":0.039679455121413625,"91":0.06907234283203956,"92":-0.202260162045697,"93":-0.5515274301180939,"94":-0.06750285023331781,"95":-0.07765868151983556,"96":0.3518039822782378,"97":-0.3855875321029881,"98":-0.1923859785164612,"99":0.24641716023756827,"100":0.004935890252036029,"101":-0.27593834515672755,"102":-0.39109428005308156,"103":-0.3475691772560085,"104":-0.09980844283164679,"105":-0.1065515429596514,"106":-0.2791463197355284,"107":-0.17928858636967449,"108":-0.18899435363167794,"109":0.33042748672649885,"110":-0.0522830273736574,"111":-0.2310063174742968,"112":0.22867558001874058,"113":0.02700579916705711,"114":0.18474662071893405,"115":-0.15755693888312322,"116":-0.08475791913073395,"117":-0.042145798576376584,"118":-0.6281388304770462,"119":0.16445147882839292,"120":-0.26752059024656083,"121":-0.37935379900660343,"122":-0.2718331848702745,"123":0.13401115484301251,"124":0.06214477963290506,"125":-0.4925099840076005,"126":-0.34254193474217925,"127":-0.3528100793458404,"128":-0.10135698066308672,"129":-0.1463872380762401,"130":-0.10567637397824071,"131":-0.14746815869172153,"132":0.6907393815420864,"133":0.7184787816117212,"134":0.8120181251774184,"135":0.09881574009633426,"136":0.1283284352849507,"137":-0.04205896787820013,"138":-0.3899761733540061,"139":-0.2988730662018379,"140":-0.3204314291387171,"141":-0.10209613527733674,"142":0.16910242451288712,"143":0.2298101056724164,"144":0.1771607338343632,"145":0.7355030759107288,"146":-0.42629260466989766,"147":-0.7048220299216077,"148":-0.4690863614091015,"149":-0.40288428612688626}},"22":{"bias":-0.5409420212276121,"weights":{"0":0.2513333901523942,"1":0.17827488372648337,"2":-0.04628402722859004,"3":0.050315277245295435,"4":0.06341290776633883,"5":0.43875668010049573,"6":0.1270707427971596,"7":0.25971483077519497,"8":0.6521895013553058,"9":-0.357674075375805,"10":0.4021700890805351,"11":0.38032066258675357,"12":0.3671073527570694,"13":0.02651016726347969,"14":-0.4158867163125525,"15":0.7901390722474196,"16":0.04601677406172537,"17":0.37969539542966646,"18":-0.061991557205876076,"19":-0.9695959869276836,"20":0.02748987299784794,"21":0.20328017572409224,"22":-0.46694109771702413,"23":-0.22631430187462784,"24":0.30736882673859667,"25":0.016167574377378965,"26":-0.2990381556796828,"27":-0.467506174879064,"28":-0.3604055875430233,"29":-0.23993444979984593,"30":0.1822999384893047,"31":-0.18214138075903008,"32":0.477448849207532,"33":0.7951031506216806,"34":0.1139858000966042,"35":0.3355687675795665,"36":0.49286123243158775,"37":-0.07228513973727432,"38":-0.34113004626665194,"39":-0.36228610195511146,"40":-0.19313257799296366,"41":-0.009004663292757342,"42":-0.8497140360039974,"43":0.20791421982700764,"44":-0.15517778292810253,"45":0.18876034558955365,"46":0.02344117556807029,"47":-0.013456597765639332,"48":0.05038372232228041,"49":-0.8531881165552777,"50":-0.3583003259877934,"51":-0.34343033228415,"52":-0.10818695091115746,"53":-0.3345521204226866,"54":-0.3331206525172871,"55":0.3157591413832956,"56":0.1304584065338972,"57":0.3482358681300093,"58":-0.652303278098057,"59":-0.04712963820029602,"60":-0.2856604527992588,"61":-0.38817688149390467,"62":-0.467980452802327,"63":-0.23744463225399534,"64":-0.37915239556133085,"65":0.21161178492960905,"66":0.07737520795662685,"67":0.1808463313049083,"68":-0.35068637317828705,"69":-0.09513481744268953,"70":-0.13477447409044338,"71":-0.8517744780001633,"72":0.2504130196329505,"73":-0.13617418233155296,"74":-0.16745050569971615,"75":-0.13270780313183622,"76":0.47577206908934205,"77":0.00031525021889476683,"78":-0.16298604681068882,"79":0.3044814159948478,"80":-0.5591531306816805,"81":-0.28540097974803064,"82":0.24615711372627758,"83":-0.20174901798349124,"84":-0.29043363800810484,"85":0.3365801851359237,"86":0.13498869085593182,"87":-0.3371673310080898,"88":-0.44780171779579947,"89":-0.035132445270491856,"90":0.10240612568508967,"91":-0.12934328275802195,"92":-0.46539917847762113,"93":-0.19340810974743924,"94":0.09008611393601874,"95":-0.08184317650705153,"96":0.01888519412761023,"97":0.15450722694198307,"98":0.22017302118178192,"99":-0.08529861396275397,"100":0.14908303731177777,"101":-0.05392033337461931,"102":0.020572784326928613,"103":0.4505073368273917,"104":-0.39676168937950357,"105":0.5973530371315493,"106":-0.019075837457410403,"107":0.4500998842085806,"108":0.5276295435172352,"109":0.06153438948146607,"110":0.5100544767519511,"111":-0.25210129028047656,"112":-0.2591090909696562,"113":0.2628698343888148,"114":0.6396971576624525,"115":0.2489942058745812,"116":-0.07628109946111057,"117":0.3964780501217848,"118":0.5894299500658056,"119":0.016233407373867647,"120":0.5298349118195957,"121":0.48789129926372815,"122":0.058778807241055,"123":0.10357826512607266,"124":-0.0836725319203453,"125":0.10330504289511898,"126":-0.08331443143288192,"127":0.024030984360995638,"128":0.3465455462067738,"129":0.43180917956597575,"130":0.5064645919398415,"131":1.0180211793988496,"132":0.7683957090828298,"133":-0.06470116319299593,"134":0.2592031120644538,"135":0.3435631948369896,"136":-0.10991151865737203,"137":0.2095649974725572,"138":0.7106923880895569,"139":0.5126408341351788,"140":-0.0025245511761916323,"141":0.7005671701210425,"142":0.3608987764458387,"143":-0.11335717507604173,"144":-0.05581763490162028,"145":0.5150288816290437,"146":0.30940722414701916,"147":0.2453428579141512,"148":-0.1353679109115864,"149":0.5400015499066801}},"23":{"bias":0.7342107460869304,"weights":{"0":0.3954061522572776,"1":0.6817448986697433,"2":0.06700759961185015,"3":0.1982538392766393,"4":0.49601375446208457,"5":0.45036436715778383,"6":-0.23423290456550924,"7":-0.2066565073598033,"8":0.6054632381493777,"9":-0.14225229571061496,"10":0.08744200888177456,"11":-0.9118110551175854,"12":-0.5234530560013954,"13":-0.723154290432186,"14":0.06105519344538954,"15":0.11845175400252693,"16":-0.07578148871099838,"17":-0.6424091206775597,"18":-0.2995329134901219,"19":0.4626962685020557,"20":-0.8961980644464094,"21":-0.9039117633462005,"22":0.18928739703562772,"23":0.19943284266833644,"24":-0.23169526167326218,"25":-0.39047193813605824,"26":-0.07338531986209448,"27":-0.6054448778326491,"28":-0.5921429705687786,"29":0.07433276989740911,"30":-0.9780886954511754,"31":-0.666344112410958,"32":0.32702568002696775,"33":-0.9644899627494133,"34":-0.45552851505346387,"35":-0.09430816808693024,"36":-0.7983335935960024,"37":-0.8475634651270456,"38":-0.3775675595653684,"39":0.16593477560818337,"40":-1.162140295274086,"41":-0.6598246144460513,"42":-0.249879361089537,"43":-0.0027089933649503146,"44":0.15481791678964155,"45":-0.6243001564768609,"46":-0.6213046502189918,"47":-0.2728600014271799,"48":-0.11775107969002042,"49":0.07841989675961196,"50":-0.32705631768059895,"51":0.11835301480340552,"52":-0.41861514363417196,"53":0.3048652650502241,"54":0.2497567427594948,"55":-0.3825973267391631,"56":0.7150135377477724,"57":0.5880185742668211,"58":-0.05948800763523608,"59":-0.4995609743187787,"60":-0.020503303475126453,"61":0.17221388075427196,"62":0.06302199092767052,"63":0.17454202988208387,"64":0.033437751238840414,"65":-0.18746964874267188,"66":-0.02950146525904411,"67":0.6862729794261978,"68":-0.26000978047702833,"69":-0.636502122638996,"70":0.5340868332134978,"71":-0.30865366516553294,"72":-0.24409019251215824,"73":-0.08131807152062723,"74":-0.10095116677778589,"75":-0.28630697997949495,"76":0.05424401201972927,"77":-0.4257078636269278,"78":-0.41658790844509835,"79":-0.7162606419540152,"80":-0.24906202859298568,"81":0.07785079580110045,"82":-0.4783153970204261,"83":0.012478856356827502,"84":-0.7613898177081853,"85":-0.23938595112377126,"86":0.19849098601212634,"87":0.07089878388823034,"88":-0.1722903761253955,"89":-0.21286228170414392,"90":0.3536823847111444,"91":0.390328745128046,"92":-0.3936207617856407,"93":-0.14891259712972083,"94":-0.2688966728118299,"95":0.45770951066237253,"96":-0.28606823619911437,"97":0.1811131791001426,"98":0.19816252487626826,"99":-0.17711679799694727,"100":0.6763830683189688,"101":0.7603878043506829,"102":0.38982025014227767,"103":0.6536725450263211,"104":-0.1256494687187845,"105":-0.16315486501346496,"106":0.3085065131201404,"107":-0.009099169164886418,"108":-0.4013515410168698,"109":-0.29898513825060763,"110":-0.23869483029830085,"111":0.6112483798306406,"112":0.38027634155741424,"113":0.5805448419221999,"114":0.15086566680020236,"115":1.0428973735020437,"116":-0.2369986123378315,"117":-0.3959985750926239,"118":-0.12255220031816838,"119":-0.19790718637844362,"120":-0.3792421527713225,"121":0.38309822439405655,"122":0.562675513579375,"123":0.3644906202693152,"124":-0.058798768960833254,"125":-0.027064468680035994,"126":0.3351878037159917,"127":0.6525565195315336,"128":0.37486303573280955,"129":0.7149930839273446,"130":-0.7934372916531814,"131":-0.3512186636129497,"132":-0.04740159653421311,"133":0.580655192662738,"134":0.5630251809506912,"135":0.31528752923875886,"136":0.06584660070756206,"137":0.19074808100091797,"138":0.10385024945977461,"139":0.1736541093924683,"140":0.07454245818039354,"141":0.15663082310700813,"142":0.26733004439345953,"143":0.7840965779834116,"144":0.7858757386880497,"145":0.319261922535763,"146":0.30684437802199516,"147":0.17603421955138157,"148":0.4548154452767085,"149":0.2206499270583247}},"24":{"bias":0.20672375803335988,"weights":{"0":-0.11777919683368608,"1":0.33911601330169755,"2":0.15862749162097534,"3":0.0670045565662314,"4":-0.4938736894049753,"5":-0.24896230381051146,"6":0.07970703599953181,"7":0.17625199726373864,"8":-0.532109927385324,"9":-0.3878513943763375,"10":-0.1385273886152317,"11":0.29298077960265106,"12":0.21814836804491286,"13":-0.13735811052183455,"14":0.3989303806793762,"15":0.013774569219036059,"16":-0.09987525135191264,"17":0.05948359127435702,"18":-0.3014915873745713,"19":-0.7836952232234123,"20":0.03289542020226261,"21":-0.02752193756867367,"22":0.2820210490367995,"23":-0.3706304922824426,"24":-0.3609264816035011,"25":-0.007890450991815595,"26":-0.24321232961122297,"27":0.14439589177414858,"28":-0.028642320391255537,"29":-0.4268252734496951,"30":0.25471377861680156,"31":-0.03692455562875487,"32":-0.26184068736927696,"33":0.10990273671212843,"34":0.3631580158755855,"35":0.22645513259843375,"36":0.271748091220334,"37":-0.07104401095893598,"38":-0.13716582679108047,"39":0.0844457531815114,"40":-0.40465683314781137,"41":0.14299468811244342,"42":-0.09681621840425736,"43":0.12837817684028277,"44":0.49174867533572514,"45":0.6307240915726569,"46":0.15211239152688666,"47":-0.6473382165128057,"48":0.04012076334203961,"49":0.10526132004000376,"50":0.012559750620418211,"51":-0.1920566300677684,"52":-0.11267841668702125,"53":-0.15017232209008677,"54":0.48894538220235956,"55":0.34651269324677875,"56":-0.1280376895717508,"57":-0.1909238323476452,"58":0.23303734288118277,"59":0.29177164561924507,"60":-0.2444181571994346,"61":-0.25893552021741734,"62":-0.24599103676917428,"63":0.18126664897257685,"64":0.5287031069386832,"65":0.7215180382395768,"66":0.07591518881544741,"67":0.08924743248315811,"68":0.19798603034177453,"69":0.025933747225172287,"70":-0.25390860082126204,"71":-0.5925825322667465,"72":0.2583980055645894,"73":0.5475618969942027,"74":0.6190341551528816,"75":-0.41555154901630026,"76":-0.021631703208107627,"77":0.0002948840082453032,"78":-0.3253247354925326,"79":0.04088153624766624,"80":-0.35109812564757253,"81":0.16590137187418103,"82":0.5484895421476201,"83":0.6489125369498397,"84":0.5887313048805402,"85":0.03116904420965328,"86":-0.14689849369206182,"87":-0.7335264639531651,"88":-0.48528325805507444,"89":0.28947027251790447,"90":-0.3258175685689143,"91":0.2451386218789405,"92":0.0713166731526872,"93":0.7680367252814647,"94":0.16114250713422754,"95":0.027890780161703956,"96":-0.3372615941495398,"97":-0.7360725858368208,"98":-0.8230974822777354,"99":0.08855823888714609,"100":0.011962188349057589,"101":0.2957652360571975,"102":-0.21634795481537206,"103":0.6802563575380441,"104":0.35411069505479825,"105":-0.4003887248325592,"106":-0.7203230369892324,"107":-0.8119015400284175,"108":-0.6835836376776856,"109":0.12893025641954048,"110":0.1680280154120076,"111":0.7137914549564592,"112":0.3402655987275965,"113":0.2775339179984572,"114":0.10023336601371721,"115":-0.9055009746443821,"116":-0.4956678314749153,"117":-0.5261659286842885,"118":-0.6346641546843838,"119":0.3512046658279206,"120":0.5358083165409773,"121":0.05167931366852556,"122":0.10306811131512075,"123":0.3639733877205354,"124":-0.4431888515421087,"125":-1.1553714185751858,"126":-0.49087096057880764,"127":-0.6175342912042229,"128":-0.2518555685258826,"129":-0.12414427496288692,"130":0.6731273862493727,"131":0.17016902766683287,"132":0.1721865871695261,"133":0.11310142984408761,"134":-0.34230871234668064,"135":-1.2032895130101178,"136":-1.058743475375189,"137":0.18034068273793724,"138":-0.20559252331094865,"139":-0.20350444691390002,"140":-0.18077044509007317,"141":0.038084078239752565,"142":0.544407686750582,"143":0.3602912360129937,"144":-0.44812201611905783,"145":-0.4855955211507955,"146":-0.5988511933429705,"147":-0.03159899048267249,"148":0.06977701398828355,"149":0.15056776885843046}},"25":{"bias":0.4442479687901344,"weights":{"0":0.07983259097966118,"1":-0.03147158788483241,"2":-0.028573917782462446,"3":-0.1798343931694119,"4":-0.13469618347940085,"5":-0.006625198870983457,"6":0.2523682322220693,"7":0.20039815974829364,"8":-0.5321992883553671,"9":-0.40348520136136895,"10":-0.01913184047786324,"11":-0.7497459144888929,"12":-0.4933102937712959,"13":-0.7662769566912455,"14":-0.2705592666698513,"15":-0.46405309912235027,"16":0.07187097563174054,"17":0.12446098177195118,"18":-0.16808149316850185,"19":-0.6561298808097377,"20":-0.1436038020691846,"21":-0.4718828296092967,"22":-0.3642313291438881,"23":0.023487922025518006,"24":-0.37415270906379,"25":-0.219799436597785,"26":-0.10221955850388707,"27":0.07716197760584374,"28":-0.0793988853538557,"29":-0.45596946749540856,"30":-0.08952868098429384,"31":-0.07299417728027904,"32":-0.6333725712733518,"33":-0.11177500568613728,"34":0.10171488504117007,"35":-0.48229956331576607,"36":-0.2738256798730781,"37":-0.4669253078093482,"38":-0.5063466672921373,"39":-0.18013414040934114,"40":0.2846280202947563,"41":-0.3944750439946588,"42":-0.33029290187171706,"43":0.02448860196739878,"44":-0.13414435275691416,"45":-0.180216967429522,"46":-0.7453991058668924,"47":-0.6640448820996125,"48":-0.5768297492802469,"49":-0.6348120974717005,"50":0.17740545640457311,"51":-0.28164768848582133,"52":0.1493904006920268,"53":-0.1903966680455125,"54":-0.04355743652898747,"55":-0.022487430911011155,"56":-0.891287029582757,"57":-0.3262935851581838,"58":-0.6644344582362215,"59":0.04075583399279833,"60":0.11669823219790414,"61":-0.12468479976160908,"62":0.37995589579231237,"63":0.4428354916243979,"64":0.9634930144316659,"65":0.5357636914787706,"66":-0.10174203303191813,"67":-0.13202802910394573,"68":-0.7486047258914961,"69":-0.32343387821645625,"70":-0.005607672070270422,"71":0.1433360008174496,"72":0.9382412230996625,"73":0.4417716680020053,"74":0.49544379347186196,"75":0.5848505964612574,"76":0.1693545405347052,"77":-0.6606570848591647,"78":-0.21467594561429573,"79":-0.3234392801272712,"80":0.0626354213757276,"81":-0.07791555124547601,"82":0.40327328255217554,"83":0.5438628663935123,"84":-0.10694405931779526,"85":0.5714104697145516,"86":0.06819309174327352,"87":-0.12512159237487375,"88":-0.3528788074532955,"89":-0.13508424201327374,"90":-0.35637779436601835,"91":0.02797639484855804,"92":-0.4444904664299528,"93":-0.20227485599774853,"94":-0.3558017962718428,"95":0.6253965191065133,"96":0.04810511694578102,"97":0.09350744985541237,"98":-0.5714493916977936,"99":-0.3158134552097275,"100":-0.41055586866150856,"101":-0.07723037002364005,"102":-0.10479574483256637,"103":0.08127814107860049,