{"layers":[{"0":{},"1":{},"2":{},"3":{},"4":{},"5":{},"6":{},"7":{},"8":{},"9":{},"10":{},"11":{},"12":{},"13":{},"14":{},"15":{},"16":{},"17":{},"18":{},"19":{},"20":{},"21":{},"22":{},"23":{},"24":{},"25":{},"26":{},"27":{},"28":{},"29":{},"30":{},"31":{},"32":{},"33":{},"34":{},"35":{},"36":{},"37":{},"38":{},"39":{},"40":{},"41":{},"42":{},"43":{},"44":{},"45":{},"46":{},"47":{},"48":{},"49":{},"50":{},"51":{},"52":{},"53":{},"54":{},"55":{},"56":{},"57":{},"58":{},"59":{},"60":{},"61":{},"62":{},"63":{},"64":{},"65":{},"66":{},"67":{},"68":{},"69":{},"70":{},"71":{},"72":{},"73":{},"74":{},"75":{},"76":{},"77":{},"78":{},"79":{},"80":{},"81":{},"82":{},"83":{},"84":{},"85":{},"86":{},"87":{},"88":{},"89":{},"90":{},"91":{},"92":{},"93":{},"94":{},"95":{},"96":{},"97":{},"98":{},"99":{},"100":{},"101":{},"102":{},"103":{},"104":{},"105":{},"106":{},"107":{},"108":{},"109":{},"110":{},"111":{},"112":{},"113":{},"114":{},"115":{},"116":{},"117":{},"118":{},"119":{},"120":{},"121":{},"122":{},"123":{},"124":{},"125":{},"126":{},"127":{},"128":{},"129":{},"130":{},"131":{},"132":{},"133":{},"134":{},"135":{},"136":{},"137":{},"138":{},"139":{},"140":{},"141":{},"142":{},"143":{},"144":{},"145":{},"146":{},"147":{},"148":{},"149":{}},{"0":{"bias":0.15813279828299298,"weights":{"0":0.4325716658844821,"1":0.48096741076844124,"2":0.05054823216948856,"3":0.12860041051877094,"4":-0.2328988123960974,"5":-0.023425662360826296,"6":0.25640082590736357,"7":-0.03206415464715906,"8":0.31049400441733527,"9":0.17905945901279594,"10":0.29763845830512475,"11":0.015772128474816783,"12":-0.12898502244880486,"13":-0.6682678686503447,"14":0.023027247501633364,"15":0.14826001933933017,"16":-0.3359228824567878,"17":0.13436796007948423,"18":-0.05185520493016564,"19":-0.0009761140853707953,"20":0.029778171413074133,"21":-0.04212644508004533,"22":-0.169711572820557,"23":-0.11983429724009496,"24":0.10590812457239468,"25":0.10599708939963808,"26":0.1485334433461699,"27":-0.21198480897286218,"28":-0.5513142064557306,"29":0.08652314061462527,"30":0.15913090330474108,"31":-0.02038288477810708,"32":0.37812705401884383,"33":-0.15785487080340702,"34":0.3653012143930493,"35":0.32457798066020027,"36":-0.6486327022536714,"37":-0.48692096928711964,"38":-0.601941884773154,"39":-0.4418829844030382,"40":-0.07370125381907165,"41":0.413057572005428,"42":-0.18635980554400547,"43":0.3476217286841709,"44":0.09769101610408666,"45":-0.3195587634724662,"46":-0.4584622476517933,"47":-0.016713015090798745,"48":-0.17899149392444152,"49":-0.02024728741091435,"50":-0.09537902855188772,"51":0.11074518884345898,"52":-0.22345471685125382,"53":-0.10217144453777709,"54":0.12556136483052363,"55":-0.3511090631258755,"56":-0.06958498379167119,"57":0.1104542402695586,"58":0.3046847639711603,"59":-0.29064663011903297,"60":0.13916246413042233,"61":0.32617127879886254,"62":-0.0547129491595345,"63":-0.005737030193697011,"64":0.1260638079838537,"65":0.19959636137729433,"66":0.012757390316432957,"67":-0.0348786713584523,"68":-0.28224985468806785,"69":-0.177654196603193,"70":0.5452213260160462,"71":0.14542190206467076,"72":-0.5471690489492549,"73":-0.005953307126524143,"74":0.3647824604521347,"75":0.21601042892284808,"76":-0.0036826572359227754,"77":-0.1185505523079092,"78":0.09428203118337874,"79":-0.002397003521731886,"80":0.3689685616286523,"81":-0.2641001416692166,"82":-0.47631567277515074,"83":0.146487468721314,"84":0.4479470519585953,"85":-0.08869208497557836,"86":0.3087751789564146,"87":-0.2543856096511962,"88":0.04441537426034306,"89":-0.02535865874426708,"90":0.2284148637495469,"91":-0.10784662973835712,"92":0.07769434205103518,"93":-0.2794699292036707,"94":0.2967334354986549,"95":-0.2670813947146679,"96":-0.2615303323579849,"97":-0.5274358236537549,"98":0.22937759345558847,"99":-0.18414895396019879,"100":0.21413273399582738,"101":0.21052675735739435,"102":-0.1899481123020513,"103":0.2881395332796925,"104":-0.0826786922101697,"105":-0.3704559401843988,"106":-0.0033193584914333434,"107":0.08547841339624809,"108":-0.07591037818514626,"109":0.1257770180757998,"110":-0.36194766578495746,"111":0.237114577431257,"112":-0.07754163844601364,"113":0.10087147348993519,"114":0.16392161651534054,"115":-0.08921856361242221,"116":-0.02846222694215717,"117":0.13023138524506273,"118":0.22273424237194428,"119":-0.059138178507703996,"120":-0.04889680497736953,"121":0.22862509486306362,"122":-0.4044206063341905,"123":-0.28818527636914054,"124":-0.03354427430738781,"125":-0.18006004239260814,"126":-0.30852087616067014,"127":-0.40330067581452655,"128":0.11811579455228564,"129":0.4381351433128905,"130":-0.21583908720191228,"131":0.026754160611145477,"132":-0.05365065858139384,"133":0.050238573970828974,"134":0.4494246257720994,"135":-0.08663207210345898,"136":-0.35070674053115786,"137":0.03238222024836189,"138":0.014618292060775336,"139":0.18431860813820505,"140":-0.3096271071938547,"141":-0.320091251368454,"142":0.12160376302197103,"143":0.1429636553329611,"144":0.4657089901445929,"145":0.6684463620610509,"146":0.17307768355946335,"147":0.3404945422870748,"148":0.1513426562964798,"149":0.46213878566360517}},"1":{"bias":-0.09429558456508354,"weights":{"0":-0.047809117130835764,"1":0.5288585016375705,"2":-0.1095156996047311,"3":0.31387385608426666,"4":0.09291093094392308,"5":-0.21987975046349081,"6":-0.2245766160805065,"7":0.1715112468480734,"8":0.003301280404700088,"9":-0.19105684394525344,"10":0.08856808378828276,"11":0.16285311577963069,"12":-0.17793381763991517,"13":-0.5974431824154532,"14":-0.1466021751942915,"15":-0.20036886890932204,"16":-0.0687584147104973,"17":0.007014386681244613,"18":-0.44881649216042746,"19":-0.21246603131425412,"20":0.5651316848030628,"21":0.2603268652425613,"22":-0.433493918120717,"23":-0.018397500406963835,"24":0.37186043533419105,"25":0.009405172072690534,"26":-0.2809676321923547,"27":-0.29004366376074514,"28":-0.29632981167578876,"29":0.3470601649846792,"30":0.00019961473734098482,"31":-0.07545138300797141,"32":-0.4315367878343753,"33":-0.30096420279581787,"34":0.3551788464817976,"35":-0.1214814712845513,"36":-0.6409125692248115,"37":-0.42000381714318036,"38":0.06930642891719618,"39":-0.12180384419261892,"40":-0.17019347585303907,"41":0.19783276208693443,"42":-0.1881638407133131,"43":0.34620232781174454,"44":-0.46741836699873374,"45":-0.3718938624509136,"46":-0.19322052635901035,"47":-0.5579176636344487,"48":0.04976066599555648,"49":0.07631776248471835,"50":-0.223627951365012,"51":-0.003939962894780159,"52":0.19733649220311306,"53":0.2690462507713743,"54":-0.6086506338275663,"55":-0.21962488421343648,"56":-0.48679780411751844,"57":-0.011166191443527974,"58":0.16552048974315478,"59":0.432624660017852,"60":-0.24820950603699451,"61":0.008627691763260415,"62":0.2924671222846844,"63":-0.026553254319115333,"64":-0.31493661377390525,"65":-0.3204363485547691,"66":-0.2640601207042792,"67":-0.09324599616815075,"68":-0.045139309330446666,"69":0.21879831668062838,"70":0.16585165971520674,"71":0.3995593312272035,"72":0.301433872067892,"73":0.38492015134403107,"74":-0.009679094639898621,"75":-0.10147026780744074,"76":0.07429070108270573,"77":0.19452402384037543,"78":0.21169870848654404,"79":-0.19660827128290573,"80":0.19741501890658236,"81":0.6526326520353719,"82":0.20126290617677045,"83":-0.05847818491274083,"84":0.058868254860037064,"85":-0.3132726814664102,"86":0.005560887368257185,"87":0.20398297790047742,"88":0.4214748112157628,"89":-0.23359326306160877,"90":0.2507491551021963,"91":0.5455415576686432,"92":-0.035715282299476896,"93":-0.22895854029499701,"94":-0.36450500752760484,"95":-0.1017559920815234,"96":0.036499527607431886,"97":-0.04148278899165583,"98":0.18437727692226363,"99":0.016912474477658597,"100":0.0456785153680606,"101":0.038689025925744844,"102":0.3130373902329182,"103":-0.3623296536673541,"104":-0.14633333813355978,"105":-0.09626824103063487,"106":-0.12038656579268937,"107":0.2331042841248814,"108":0.03257733883206419,"109":-0.14792244591263484,"110":0.21997984749743407,"111":-0.17062379155299304,"112":0.30535774544367833,"113":0.21256712182632898,"114":-0.4614393659695529,"115":-0.1385453218402174,"116":0.13624523892433596,"117":0.19710267193561065,"118":0.1788855113070599,"119":-0.16676240774036477,"120":-0.0631103456783269,"121":0.2421317388639449,"122":0.29722903143123236,"123":-0.35349374539140305,"124":0.008947216671426705,"125":0.02272182685603346,"126":0.5092822493917141,"127":0.48607245132493687,"128":0.11257684732189177,"129":0.22795468507581074,"130":-0.27064883539053464,"131":0.3002294747773192,"132":0.4301137544157014,"133":0.05762229115421611,"134":0.9583746650236149,"135":0.5737248612908598,"136":0.2760300728828915,"137":0.07104957690431098,"138":0.31862344768218515,"139":0.023825723203282533,"140":0.17431068327006446,"141":-0.1717555366566559,"142":0.2848431208430479,"143":0.4648932098032806,"144":0.76396567252929,"145":0.49528516049865723,"146":-0.2201598674083235,"147":-0.007446016193492074,"148":-0.17783719962199912,"149":-0.2329007693049806}},"2":{"bias":-0.6677891113160059,"weights":{"0":0.14507230249800265,"1":0.4509140307981348,"2":-0.016996090738955805,"3":0.029006689553066192,"4":0.02513347613393531,"5":-0.2740173123220137,"6":-0.11436639875140123,"7":-0.3456212090572644,"8":-0.1301991643190535,"9":-0.21606384992670039,"10":0.5050028647497855,"11":0.4092794340869494,"12":-0.006568620761449079,"13":-1.151815961689803,"14":-0.19725107388587226,"15":-0.30553523108260816,"16":-0.14993405462758905,"17":-0.08542012906000697,"18":-0.6713947972181906,"19":-0.5990924033808858,"20":0.42350437062873575,"21":0.5921973702451935,"22":-0.2815016610022024,"23":-0.4224583712560569,"24":-0.25368936196790304,"25":0.05997898727773228,"26":-0.31901887322633693,"27":-0.06327031139465485,"28":-0.2360340222108347,"29":0.000518376726213037,"30":0.2598854417812734,"31":0.46295132143850365,"32":-0.1874808429651286,"33":-0.19059417264682751,"34":0.3517815510518085,"35":0.00855366339181356,"36":0.1571297337783412,"37":0.01364878045034676,"38":0.17624828004931706,"39":0.07622454003990192,"40":-0.27381165508707583,"41":0.25683739445150494,"42":0.18313520568577385,"43":-0.4843571755550667,"44":-0.081670419656363,"45":0.19175351359734671,"46":-0.21793440433892936,"47":-0.3965557832028017,"48":0.10930552689592693,"49":0.11537641519195861,"50":-0.31194322845546313,"51":-0.10514363570016293,"52":0.3742120315050984,"53":-0.09668401317083213,"54":0.31453976891256435,"55":0.19154515427252503,"56":0.11206973032847596,"57":0.19344352141033966,"58":-0.34067933584952403,"59":0.08277038342082924,"60":-0.19167911662747303,"61":0.07895895898113497,"62":-0.04107212069419617,"63":-0.06252582120585033,"64":0.38118487382758715,"65":0.23831469975327618,"66":0.283489424671601,"67":0.19595239979320067,"68":0.16383836688550063,"69":-0.07241003883212396,"70":-0.062248155750037046,"71":-0.12163621295284241,"72":0.32582222052803606,"73":0.31203183907908866,"74":0.21507351000792108,"75":-0.4602013337300429,"76":0.3782584277384504,"77":0.4071089496625321,"78":0.4220880026921379,"79":0.4061363556747991,"80":-0.2840235828353134,"81":0.13006191791417196,"82":0.6199283143717363,"83":0.44962275262605517,"84":0.05427254520940997,"85":-0.22225685495593958,"86":0.48865934304284037,"87":0.4020460642374574,"88":0.5156331652630486,"89":0.3364283308239534,"90":-0.22892569662267764,"91":0.15349367211857148,"92":0.4699667548443027,"93":0.7812953787049793,"94":-0.19130957325171685,"95":0.007111036441674933,"96":-0.36049632296618356,"97":0.43470247241741505,"98":0.10439741197562906,"99":-0.09376866441805318,"100":0.002197834953586616,"101":0.07048569821996636,"102":0.1546348899485593,"103":0.5420996894456875,"104":-0.09158754695185678,"105":-0.394697337854426,"106":-0.6179901604791511,"107":-0.1764619375194345,"108":0.35184431183196285,"109":0.13897219420327714,"110":-0.00951208408231057,"111":0.3712113012051037,"112":0.004262650247731801,"113":0.44192560993774277,"114":0.13311250019840742,"115":-0.8298786842308522,"116":-0.04533757673969318,"117":0.4250009776661113,"118":0.08675585151831545,"119":0.10159069321901927,"120":0.2612600180355493,"121":-0.5166603833134119,"122":-0.5034546338039949,"123":-0.08314268751513282,"124":-0.1600933963007422,"125":-0.496135098320086,"126":-0.10229707511684617,"127":0.20694973154604282,"128":-0.12996871370894017,"129":0.12474288867585982,"130":0.36762416870987863,"131":-0.004520795933354149,"132":0.20626898734063887,"133":-0.11471068016690131,"134":-0.5994345678836541,"135":-0.5484435121117129,"136":-0.3015091929899799,"137":0.0799629073871924,"138":0.3712338505656673,"139":0.2081752758654291,"140":-0.25885891663022376,"141":0.43133097066919546,"142":0.2610773408383549,"143":0.10464416445556002,"144":0.25361371556559764,"145":-0.7283751900138836,"146":-0.0024914835121215757,"147":-0.24164093383471377,"148":0.09879260369060675,"149":0.28531001624375485}},"3":{"bias":-0.45993038385579016,"weights":{"0":-0.02002981004475306,"1":0.07859873344355338,"2":0.19210416542516945,"3":0.10826191221071965,"4":-0.514221589045842,"5":-0.4198000965649634,"6":-0.18400142765162283,"7":0.18376711122873637,"8":0.2553819899003385,"9":0.22794481013820223,"10":0.20811201574129404,"11":0.056611159773247856,"12":-0.4734844867510964,"13":-0.5449480062411397,"14":-0.13151871387160818,"15":-0.260042610474597,"16":0.19133391033464126,"17":0.030382632154300773,"18":0.6731419230525143,"19":0.5465931602279961,"20":0.15084141374891527,"21":0.03655072042530224,"22":-0.39222543177821045,"23":-0.21194967393443867,"24":-0.23983130403409778,"25":-0.01765308185333729,"26":0.4941168051914313,"27":0.06267892045254728,"28":0.44400659111314933,"29":0.324403410519358,"30":0.1399336708726702,"31":0.1604436611773911,"32":0.02214146122512209,"33":-0.392881387928733,"34":0.2801678641677168,"35":0.25162804280683126,"36":0.16858705514590128,"37":0.4540728501568097,"38":0.6132516064654406,"39":0.507430020271208,"40":-0.1868262977476726,"41":-0.34187459237271534,"42":0.3613716673075541,"43":-0.4707157639837993,"44":0.0985483981482555,"45":-0.05388158178378768,"46":0.30775120604917194,"47":0.4187258955664604,"48":0.8702203828930076,"49":0.8293666890524337,"50":0.1134917516770804,"51":-0.2577448716005721,"52":-0.10201547755503669,"53":0.4533075780309319,"54":0.006063549857879831,"55":-0.3081322299759812,"56":0.296525147931254,"57":0.20937031377588525,"58":0.43356485497392155,"59":0.19845536083555784,"60":0.03791092530908907,"61":-0.013873036177504142,"62":0.22145844360781905,"63":-0.1635526531112087,"64":0.031039294854398342,"65":-0.019270566493181967,"66":0.12609998562114888,"67":0.2830892405528122,"68":0.2797820379200279,"69":0.3502184692557039,"70":0.0868391765094259,"71":0.042403713184306385,"72":0.06465554651417213,"73":-0.1796735769403495,"74":0.05959405111794886,"75":0.38417104472841535,"76":0.2709468445923383,"77":-0.1310232682960255,"78":0.20486370223724584,"79":0.09262555139831162,"80":0.1676271118456796,"81":0.10064132125431029,"82":-0.3540644414253011,"83":-0.04003145915518763,"84":0.2683626349689643,"85":0.23914869132067695,"86":0.29155757637794744,"87":0.46068283130447396,"88":0.31403670249471655,"89":0.3375104281292715,"90":0.358659294447699,"91":0.32550352248332975,"92":-0.34853065212310497,"93":0.20661366794720246,"94":0.1366665162467075,"95":-0.2454568588375642,"96":0.2556569461729479,"97":-0.3365784013317783,"98":-0.18647703330291243,"99":-0.07872624850629203,"100":0.15772850770321467,"101":0.3548759702409772,"102":0.10179203878551034,"103":0.43308019227172323,"104":-0.3596434867982811,"105":-0.19581599209328576,"106":-0.4407850874762261,"107":0.040393892014462564,"108":-0.340203776968735,"109":0.02886656357002328,"110":-0.29434050228917685,"111":-0.11288392131420467,"112":0.114800675071741,"113":-0.21233461220194416,"114":-0.10026427902414403,"115":-0.1786256158443457,"116":0.06429382341927699,"117":0.1432506914942889,"118":-0.2819055170978671,"119":-0.6315551472084975,"120":-0.5760081109383317,"121":-0.17639353508381336,"122":-0.247247398163933,"123":-0.30965490209357344,"124":-0.0038536491000430344,"125":-0.038662678399900306,"126":0.25074052842960975,"127":0.08725727141211506,"128":-0.038595300314816644,"129":-0.4405330524393708,"130":-0.44164231315294455,"131":-0.4011919524727386,"132":-0.32864550278513893,"133":-0.1435409706086122,"134":0.05804192267148637,"135":-0.0778315180863295,"136":0.2787590752375502,"137":0.13673906307325398,"138":-0.31219554658258647,"139":-0.4307200554176941,"140":-0.4265152411383019,"141":-0.02013352990412484,"142":-0.3447118834018258,"143":0.12097686316490316,"144":0.3578459526211097,"145":0.3686170884779456,"146":0.2652288627006777,"147":-0.04236505428623447,"148":0.10506474520481077,"149":0.02357930509221567}},"4":{"bias":-0.7830003662513475,"weights":{"0":0.27023067538558543,"1":-0.0003518288509291691,"2":-0.7723970107026809,"3":0.02342934915803031,"4":-0.5168138787326391,"5":-0.08007197933937896,"6":-0.023490983482179748,"7":-0.4849757576001063,"8":-0.2695710943206501,"9":-0.1076133358784756,"10":0.14750829820746003,"11":-0.19102381153818052,"12":-0.2616474373793251,"13":-0.7876327515406352,"14":-0.8289252285417307,"15":0.046385632539207744,"16":-0.12781408630626503,"17":-0.09785468634802835,"18":-0.7043775402602148,"19":0.36242162984834303,"20":0.5205139557614267,"21":-0.2593360119323024,"22":-0.3970629454544067,"23":-0.42850777353429076,"24":-0.2024841819757225,"25":-0.011975573482284719,"26":0.1278010846897891,"27":-0.09950572980402332,"28":0.16150396164777472,"29":0.18547373598813732,"30":-0.15430640893898537,"31":0.02373491294004188,"32":-0.06714721745480055,"33":0.43898695688769535,"34":0.3457767686507513,"35":0.27264512822327946,"36":-0.1278706807868656,"37":-0.0317258833281192,"38":-0.1508683639479698,"39":-0.18471601658044218,"40":-0.3888464394821753,"41":-0.127415828617609,"42":0.024415921065163302,"43":0.13013715730557185,"44":0.4069824534386093,"45":0.025568074688431457,"46":-0.41147170169052477,"47":-0.48663663251736666,"48":-0.15278073598209851,"49":-0.37723634291200087,"50":-0.5039681339205976,"51":-0.22642273774638152,"52":0.19197744556278343,"53":0.2515094617055397,"54":0.04389749068293672,"55":0.28495860200519385,"56":-0.2796607262234924,"57":0.16555988194078208,"58":-0.0007010749798451058,"59":-0.1988164727440318,"60":-0.3324397399445187,"61":-0.0018246988651711403,"62":0.051742437449493806,"63":0.08288799557975447,"64":0.17678745339732518,"65":0.17746298162327653,"66":-0.31677898321631603,"67":0.22629452573969125,"68":-0.18816038162225668,"69":-0.02043299410829404,"70":-0.257794990372083,"71":0.3146776224631837,"72":0.132489312497973,"73":0.5244005526062595,"74":0.45645911004408,"75":-0.2852819382407587,"76":0.17075761403187117,"77":0.14171065848462333,"78":0.16441895039549528,"79":0.4365635945056049,"80":0.17597943134126467,"81":0.6532221881790756,"82":0.1375175081599116,"83":0.33574733849305693,"84":-0.15211801293264082,"85":-0.15614772677469005,"86":-0.20782306225605446,"87":-0.05157405394513861,"88":-0.14038464577996945,"89":0.18599111377163677,"90":-0.21017651985732963,"91":0.4619172703639638,"92":0.2027055297924172,"93":0.38806392886295726,"94":-0.20418120542867516,"95":0.14673378333734027,"96":-0.15203297766962606,"97":0.03466444162316722,"98":-0.301915625672336,"99":0.010932479749822878,"100":-0.11393536687434846,"101":-0.08734183791552542,"102":0.21705030587936927,"103":0.5693621496504596,"104":0.19482031470917793,"105":-0.35850587189247923,"106":-0.4553143280779332,"107":-0.4842525108837368,"108":-0.23087416415197687,"109":-0.4472786126161149,"110":0.23846822945160714,"111":0.02932333857375896,"112":0.15007160982228285,"113":0.3831027720812875,"114":0.48876927343944426,"115":-0.3018280439784284,"116":-0.26945667267541906,"117":-0.05940335462905401,"118":-0.35097622051810007,"119":-0.20401500951944673,"120":0.024442916900327672,"121":-0.03314238568503812,"122":0.30383405219528814,"123":0.3714947423467574,"124":0.22725880974464271,"125":-0.09561014999457933,"126":0.007225888274848829,"127":-0.16581632172237207,"128":-0.23347761045627063,"129":-0.13576654660066853,"130":-0.027909092785833953,"131":0.27557978998254784,"132":0.13131780067167845,"133":0.7236173993493954,"134":0.5887112644643905,"135":0.14086788046290846,"136":0.2608191907254458,"137":0.2236303490652475,"138":0.019982131719415385,"139":-0.509203377070028,"140":-0.14196212142975304,"141":0.5303794965649261,"142":-0.20649508724900667,"143":0.1962600886561061,"144":0.023760595622132986,"145":-0.1283648126619714,"146":-0.15651308405042755,"147":-0.4239803413957608,"148":-0.33408924015084585,"149":-0.10319065941269126}},"5":{"bias":-0.5969256118538951,"weights":{"0":-0.21119417327887585,"1":0.3246360145415359,"2":-0.5238440618557698,"3":-0.2099328347583713,"4":-0.14514955563325319,"5":-0.3417058232310578,"6":-0.3048332233552225,"7":-0.44783987531171887,"8":0.28779047158994553,"9":-0.28932626118371235,"10":0.44835395183968807,"11":0.010767135667253711,"12":-0.39502755281073426,"13":-0.14370376109027178,"14":0.05231023289525107,"15":-0.49243298399737506,"16":-0.7285948101302884,"17":-0.38040972901451797,"18":-0.7889180923869329,"19":-0.5253025328993906,"20":0.7755628421180001,"21":0.2998371179041512,"22":-0.6240506767057044,"23":-0.5774853413249879,"24":0.05513823275945706,"25":-0.15551472668622737,"26":-0.6953680259831514,"27":-0.5643360434129088,"28":-0.27370669501430994,"29":0.047507383774585285,"30":0.6027908450910882,"31":0.26191149941678504,"32":0.04119112733817531,"33":-0.04659232517933023,"34":-0.1202948304304728,"35":-0.10590721600494007,"36":-0.06313755485394396,"37":-0.1528403230823172,"38":-0.09619790819818284,"39":-0.4597997370893241,"40":0.2398438528635546,"41":0.3065314536077566,"42":0.10889873749115396,"43":0.2385304648844089,"44":0.09489320618136576,"45":0.26542229733730327,"46":0.002188681372260933,"47":-0.23712062800175956,"48":-0.4279680560526179,"49":-0.6206529232638641,"50":-0.09381436131368268,"51":-0.13848851719337335,"52":-0.21720461387445641,"53":-0.21172324472035267,"54":0.1634989804050553,"55":0.6254286092062774,"56":0.020460730609398493,"57":0.36045396801596846,"58":0.34603530608351657,"59":-0.38245159393943107,"60":0.5364460420473686,"61":0.4303923089794477,"62":-0.15083994798532083,"63":0.14121635186041556,"64":0.2325250471878191,"65":0.28533684080097843,"66":0.39353073147857875,"67":0.7855089343558378,"68":0.07431209399726066,"69":-0.00020541561188214223,"70":0.38180622818823245,"71":0.4665463745417814,"72":-0.19219335737420187,"73":0.12694259766747248,"74":0.20552668628764587,"75":0.021787692231215273,"76":0.18003940468937626,"77":0.5900529106679113,"78":0.335011984162817,"79":0.03989748095246131,"80":0.3312638395823363,"81":0.7015994125590426,"82":0.1834816456745953,"83":0.19604128549070685,"84":0.22276773172539585,"85":0.636823969956378,"86":0.5565521637056571,"87":0.36168669094805983,"88":0.15781532140992835,"89":0.11820785877918537,"90":0.4657918818672821,"91":0.23953787346738437,"92":-0.35107201122329534,"93":0.17772299795811214,"94":-0.49489848424033117,"95":0.7170981734064718,"96":1.0432004812724769,"97":-0.08297225813157437,"98":-0.6996137150264358,"99":-0.5111435754319892,"100":0.4646108287696678,"101":0.15451118945531458,"102":-0.04394476719867914,"103":0.3473765246993673,"104":0.20507635606738572,"105":0.6646804421838466,"106":-0.3371659634692416,"107":-0.3285494091034441,"108":-0.7436701869866765,"109":-0.3046827482011122,"110":0.4236363144267131,"111":-0.15156334862989115,"112":-0.40302495195817784,"113":-0.1643103158744107,"114":0.419891651201712,"115":0.2998301473515607,"116":-0.28331973808109406,"117":-0.09720262608290113,"118":-0.6482452083958752,"119":0.009937280252993714,"120":0.48187738264613145,"121":-0.35680906428022696,"122":-0.7719147410857228,"123":0.0071175945698418305,"124":-0.16454398928782485,"125":-0.4285024204364039,"126":-0.21439927587911678,"127":-0.4299436339657029,"128":-0.6837532673196532,"129":-0.2808463993506241,"130":-0.20600280460778883,"131":0.21898975468676404,"132":0.036684176146866386,"133":0.6695723550197368,"134":0.7788679484641834,"135":-0.03202167298477091,"136":-0.4089577806071606,"137":-0.5914379053713741,"138":-0.5902848709125557,"139":-0.28166449691516526,"140":-0.33777591493130604,"141":-0.6993450028916477,"142":0.1932357176240512,"143":0.16917785832794804,"144":0.5530339135805291,"145":0.09289683913159452,"146":-0.3058169778164736,"147":-0.7874577939159263,"148":-0.5616971614910103,"149":-0.1238584980165105}},"6":{"bias":0.25491526191501673,"weights":{"0":0.11313753400513604,"1":0.007224897955402847,"2":0.3030477169067604,"3":-0.28450633432047223,"4":-0.33830064259635445,"5":0.15768133063246476,"6":-0.41060026106425435,"7":-0.1253788757117547,"8":0.47170517537342616,"9":-0.16473799384045498,"10":-0.04203241428479945,"11":0.46604342065673116,"12":-0.0014629452501491163,"13":-0.27205020244062256,"14":0.1352139179582218,"15":-0.2640725550953661,"16":-0.2420490666014982,"17":-0.19471166652856972,"18":-0.015581344385625853,"19":-0.3095205536938854,"20":-0.4338466253643886,"21":0.09965376286013418,"22":-0.10182846194798209,"23":-0.7006863690042204,"24":0.02580074172839814,"25":-0.23890300541091494,"26":0.043755640129483506,"27":0.24780657290023383,"28":0.027586436599308206,"29":-0.3547119418714461,"30":-0.0307846316289958,"31":0.2197882601589654,"32":0.2111076078282432,"33":0.03151609240592344,"34":0.009919553462666198,"35":0.4064282210990149,"36":-0.010340615498209306,"37":0.697364452058744,"38":0.5414806465381587,"39":0.1014019955021179,"40":-0.14716213192311978,"41":0.17887557196590778,"42":0.46045624123815054,"43":0.07425626682431044,"44":0.3558950864138418,"45":-0.1587744849402414,"46":-0.15076376435447575,"47":0.36398279962102,"48":0.4017221603783585,"49":0.38120285039641044,"50":0.26669197462686506,"51":0.15327599343878273,"52":-0.14166948085707812,"53":0.09484552285143695,"54":-0.19947223446109708,"55":-1.061188251623097,"56":0.17959774530112393,"57":0.19330237438279047,"58":0.5023799322564833,"59":0.10571582464705007,"60":-0.17454888327815352,"61":-0.3283399772944565,"62":0.0822279450477014,"63":0.09075523810197338,"64":-0.6459293291588427,"65":-0.1626987370146799,"66":-0.08296662335450561,"67":0.08418722024969319,"68":0.7018699285046013,"69":-0.2858274083667332,"70":-0.4308185709137212,"71":-0.09612811785253883,"72":-0.25608486289761034,"73":-0.15004977892025828,"74":-0.21104951982527262,"75":0.09528157458529656,"76":-0.23032152589333574,"77":-0.18811404985749858,"78":-0.059001896726390585,"79":-0.4930815309054047,"80":-0.26644058353243044,"81":-0.4782373299296078,"82":-0.021231712136675997,"83":-0.11054359496449183,"84":0.20381363435994573,"85":0.208857056137785,"86":-0.11751300786480602,"87":-0.16157334869721393,"88":-0.4265889184667934,"89":0.09282674122329787,"90":-0.2455887878737778,"91":-0.3789672932141401,"92":-0.3102879930974089,"93":-0.05481150123241521,"94":0.5876330841982962,"95":-0.24947723109975029,"96":0.37676763302862837,"97":-0.09617476224029259,"98":-0.10745914254174856,"99":-0.13524709574672095,"100":-0.6737844407376016,"101":-0.49116418785178473,"102":0.20730992518608435,"103":-0.21444519272341647,"104":0.08558757532869092,"105":0.17815654098429431,"106":0.23793732146023205,"107":0.34535828817827124,"108":-0.17060906689591668,"109":-0.14236433710631965,"110":-0.9646486019602657,"111":-0.5745234154826773,"112":-0.35588973076394864,"113":-0.12798062198195553,"114":0.3470439448706956,"115":0.38926294360178487,"116":-0.10704775064003175,"117":-0.23246325450556324,"118":-0.05002850039781914,"119":0.22613511558616844,"120":-0.043684557275314444,"121":-0.24827068194214835,"122":-0.29383702859364136,"123":0.2915592586580036,"124":0.5316127844484756,"125":0.07940326907157047,"126":-0.31102263511770684,"127":-0.618041126609641,"128":-0.19176331120341536,"129":-0.07373491301568183,"130":0.23111482337308623,"131":-0.05429725733765136,"132":-0.08325926627089084,"133":0.8342881481929062,"134":0.6559188739625771,"135":-0.12155121524462101,"136":-0.08396287810290248,"137":-0.2769244931822989,"138":-0.12027651929400164,"139":-0.1896551658167134,"140":0.1154542409440039,"141":0.2785533654885582,"142":-0.0010130714608792637,"143":0.14912287608013466,"144":0.16160467783027677,"145":0.42860939214512056,"146":-0.10178921756051403,"147":0.04951805799593368,"148":0.28071820602723174,"149":0.2752777210003943}},"7":{"bias":-0.3318077502956048,"weights":{"0":0.38823391405721075,"1":0.09676226847662697,"2":0.026605874196953923,"3":0.34084541281082636,"4":0.331273938845388,"5":-0.017211548230808553,"6":-0.1425509867001301,"7":0.31247162696089925,"8":0.4084420663920297,"9":-0.10619446478471738,"10":-0.15255555193351125,"11":0.40038967553440924,"12":0.4346912477403979,"13":0.4691705107883151,"14":0.25619702324172094,"15":0.39590461138716043,"16":-0.20462914344347738,"17":0.335677654532857,"18":0.4285844690159069,"19":0.051174926147660886,"20":0.12331818873493314,"21":0.24451539448099374,"22":0.11394654913413868,"23":0.17850583374577939,"24":-0.167548321761031,"25":0.011005138306756746,"26":0.16157353443964184,"27":-0.054776493531668004,"28":0.0824945013480481,"29":-0.125611886599217,"30":-0.3415566510684471,"31":-0.38236023750521236,"32":-0.3588381241823978,"33":0.12016275334935392,"34":0.672642857753939,"35":0.3293240025752038,"36":0.33554299301688484,"37":-0.13218566280523222,"38":0.08314969143584229,"39":0.09006215261007398,"40":-0.591695069327304,"41":-0.4274296236331134,"42":0.10916148182570462,"43":-0.053203467181433546,"44":0.23152896120250993,"45":0.27447105109531866,"46":-0.0007698617918984826,"47":0.06392579204207709,"48":0.06495285727380765,"49":0.2331980624211616,"50":-0.6574532830150327,"51":-0.3717838571481179,"52":0.03985056639348624,"53":0.12121949404594648,"54":-0.4571186814540399,"55":0.2368375450544774,"56":0.2016650083571772,"57":-0.32001403137267637,"58":-0.014047453974622396,"59":0.12324876806104602,"60":-0.6356619488815851,"61":-0.3932589565528936,"62":-0.3503453007004204,"63":-0.5086367668657202,"64":0.42388181883426224,"65":-0.34448548140288265,"66":-0.041650970591059225,"67":-0.27842806945039733,"68":0.06255284704989526,"69":0.1198831986266637,"70":-0.5761867756175771,"71":-0.42884614821722844,"72":-0.10911319940879334,"73":0.1729571986873848,"74":-0.11727575180664626,"75":0.02756655923849156,"76":0.062286149810161735,"77":-0.023321594463160226,"78":-0.03280925217704291,"79":0.016760336800339296,"80":-0.6469402805788835,"81":-0.2545356045698502,"82":0.307455889215239,"83":0.20951542914911142,"84":-0.10077004416097686,"85":-0.4341855935701397,"86":0.13558428096944716,"87":0.2032672340590534,"88":0.23623317146364675,"89":0.0644978192375994,"90":-0.10767602668931364,"91":0.14485246831743495,"92":-0.19196582869242035,"93":0.06885364403262914,"94":-0.4073404839208857,"95":-0.3234531104068173,"96":-0.16681230911388,"97":-0.1404273033909055,"98":0.5038995724031327,"99":0.13374042806860345,"100":-0.47749963113175625,"101":-0.1695203233895545,"102":-0.025771865447311713,"103":-0.2292675090080105,"104":-0.7414616248719041,"105":-0.14923779632854844,"106":-0.21235505072814148,"107":-0.23969623060735132,"108":0.19322555204450967,"109":0.5308486212282254,"110":-0.3040986805362139,"111":-0.22771174591753043,"112":-0.44124623974114374,"113":-0.7190969345276907,"114":-0.5999235373863171,"115":-0.4254589380178505,"116":0.3395305219389239,"117":0.37453442578987134,"118":-0.058642696215958454,"119":0.14954517437746484,"120":0.07450447055146188,"121":-0.307492333515778,"122":-0.16952068666231473,"123":-0.41263047969035,"124":-0.012967549639812191,"125":0.022858779861608006,"126":-0.14489267101873105,"127":0.08534942229519071,"128":-0.11962925839605594,"129":-0.21407999250233456,"130":0.2100612622298748,"131":0.06228225010397808,"132":0.8540745554401634,"133":0.4423905769061685,"134":0.7143928178746479,"135":-0.3311472066378893,"136":0.6757267086080021,"137":-0.14977776507914042,"138":0.03034694747452816,"139":-0.3839765906762256,"140":-0.09383204073870234,"141":0.42001991912653047,"142":0.30484213711236435,"143":0.5513834092256964,"144":0.0858041763111019,"145":0.31678185929992647,"146":0.180235215550634,"147":-0.20428477384525062,"148":-0.06349649714575788,"149":-0.26385757438387203}},"8":{"bias":-0.5296076190863459,"weights":{"0":-0.2581478559587113,"1":-0.04321244253476868,"2":-0.18078574699543343,"3":0.4274410733331087,"4":-0.062167788723101046,"5":0.34383708917572037,"6":-0.0010355670944740454,"7":0.5072714727697778,"8":0.017972793308008855,"9":-0.300950639097833,"10":0.009359670812760673,"11":-0.02634058602364506,"12":0.059501762037734496,"13":-0.1253980882766389,"14":-0.18316720886648158,"15":-0.2642411961225114,"16":0.2740141659491479,"17":0.15116501264339882,"18":-0.30518429989883133,"19":0.15860561519716343,"20":-0.04815036342365808,"21":-0.25460711289637444,"22":0.05885889299436719,"23":0.2739595433903209,"24":-0.5634991579790198,"25":0.22126577913163856,"26":-0.24582396938356899,"27":0.16020606564817277,"28":0.19517293880561903,"29":0.5966797748268183,"30":-0.039301706323850334,"31":0.01849984481411967,"32":0.6654981872107884,"33":-0.2207269504278797,"34":-0.17147075834172326,"35":0.14122784626453058,"36":0.2568310089416282,"37":0.22312294159297766,"38":-0.2674778971863489,"39":0.0116145290574528,"40":-0.2124097580559749,"41":-0.12534996685787542,"42":0.480548617328565,"43":0.30921023485122545,"44":0.08795392946782052,"45":-0.12285486948186969,"46":-0.28230918322740356,"47":0.03015087946463675,"48":0.18442375432593403,"49":0.13481805660715399,"50":-0.40792506086750446,"51":0.05626434159330959,"52":0.2877948414954789,"53":-0.2424163191577089,"54":-0.2558690690847504,"55":0.006360751593392638,"56":-0.7241763227019388,"57":0.1514911941027865,"58":0.2528970952827719,"59":-0.032206904685017405,"60":-0.284958626410244,"61":0.1119380822823259,"62":-0.39681924290715603,"63":-1.076669404928153,"64":-0.2166049206115397,"65":-0.4275371462844821,"66":-0.10282976333363579,"67":0.10948616733718528,"68":0.06162940756012185,"69":0.09216163373615525,"70":-0.2543928328742541,"71":0.00842607370289754,"72":-0.4321460399808722,"73":-0.33971023162521113,"74":-0.12625968845761892,"75":-0.26972168368024685,"76":-0.7008308757148147,"77":-0.14462472117020345,"78":0.3613654977577749,"79":0.7554575372896158,"80":-0.5376233491036766,"81":-0.5200410451017025,"82":-0.45108128099482403,"83":0.19227502211700123,"84":-0.4546570597595163,"85":-0.262850597686755,"86":-0.15712354122333994,"87":0.18261655165255503,"88":0.5617338328858885,"89":0.36295672810950536,"90":-0.5621802951302841,"91":0.4034852604573758,"92":-0.48912590678662166,"93":-0.7487384196198602,"94":-0.0679733528697189,"95":0.08004024216411865,"96":-0.39739811849062995,"97":-0.4129856742618276,"98":0.12255506189011138,"99":0.07599916971592861,"100":0.12348050454734309,"101":0.30826288953746245,"102":0.1548853897979724,"103":0.49211293257275,"104":-0.04672288325663333,"105":-0.12431776965258898,"106":-0.5733239655621928,"107":-0.07107425820374526,"108":0.31999175226506993,"109":0.27080234385859986,"110":0.10224382744920361,"111":0.12583341772471665,"112":0.07261200724898055,"113":0.5900349083180101,"114":-0.11057220989537218,"115":-0.20068649369491434,"116":-0.062240880923561503,"117":-0.05066708992915304,"118":0.17306077853589313,"119":-0.08861070492858278,"120":-0.11210896771261435,"121":0.42082902751534595,"122":0.6286937813609846,"123":0.6273301692391986,"124":-0.1954247297157607,"125":-0.38218265041684146,"126":-0.4278714900422333,"127":-0.2678148163078249,"128":-0.2860571102451264,"129":-0.06035577658200589,"130":0.10538708007656827,"131":0.9676757013521848,"132":0.9668639388916375,"133":0.5930766925120683,"134":0.40258311047094647,"135":0.11140046876483471,"136":0.06278189335427349,"137":0.018794916909350912,"138":-0.03611302299140729,"139":-0.14232719261277715,"140":-0.3035432360825007,"141":0.3478895491617855,"142":0.7095753822484583,"143":0.0662873450182298,"144":-0.3648485794765858,"145":0.628608070753912,"146":-0.15676039598056246,"147":-0.04576195987879905,"148":-0.18527490761456208,"149":-0.0475155146964193}},"9":{"bias":-0.22936443120935496,"weights":{"0":-0.45687195208277764,"1":0.2897748342727814,"2":-0.17785350533537542,"3":-0.14007231093217173,"4":-0.03707446006457137,"5":-0.17208411651157107,"6":-0.12398006503764065,"7":0.05092391612939198,"8":0.22850495781844848,"9":0.06336529530781715,"10":-0.14380116694043144,"11":0.09669518613382794,"12":-0.6366468044149327,"13":-0.19023935589690644,"14":-0.4312692269692601,"15":-0.1893500342282513,"16":-0.1220233711358843,"17":0.47639044490346216,"18":0.3170594454499461,"19":-0.22515354993562223,"20":0.2996221049085727,"21":-0.26305392878759787,"22":-0.4349052732628266,"23":0.12463115730919286,"24":-0.37396654760705494,"25":0.008779745197469713,"26":0.05637237345240584,"27":-0.06634175924547452,"28":-0.1849937193454966,"29":-0.12356413848386522,"30":-0.12012261625199584,"31":0.13783823762866015,"32":0.22109609676427885,"33":0.10927746626600258,"34":0.07304495128606665,"35":-0.10609382272185991,"36":-0.02649630737400518,"37":0.04891784710089964,"38":-0.24999540575612147,"39":-0.35462242451132975,"40":0.18369776165183163,"41":0.45597354553207203,"42":-0.032894284136692445,"43":0.2113383645469101,"44":0.060994305629066506,"45":0.0009672807554280496,"46":-0.05388971659313439,"47":-0.06808383405064464,"48":0.11710332322394973,"49":-0.48209101118960435,"50":0.09609301217806275,"51":0.3214249785692599,"52":0.3284352399205901,"53":0.10363408679568306,"54":0.06144490170048258,"55":-0.09960310082905376,"56":-0.3184989703669602,"57":-0.13989334091163333,"58":-0.3852960980076144,"59":-0.46990325753658424,"60":0.10658847624320521,"61":0.26996857311852535,"62":-0.1412388564246863,"63":-0.09810646572077203,"64":0.09222466393052658,"65":-0.7012861760333177,"66":-0.4911330672964946,"67":0.0806467165172878,"68":-0.6074633830413002,"69":-0.062442733491825934,"70":0.9948851168663859,"71":0.1133759017953602,"72":0.4159025140403581,"73":-0.24839214817123187,"74":-0.030346789387663314,"75":-0.4785552509349283,"76":-0.03888485623153287,"77":-0.436465563745265,"78":-0.16616952372069954,"79":0.2197077233317325,"80":0.13635053330103852,"81":0.6681555874227839,"82":0.05919144742164121,"83":-0.06854334645283722,"84":-0.21123328766344698,"85":-0.019871613293785124,"86":-0.11385254363531287,"87":0.0021999779812857776,"88":-0.0020165719562157277,"89":0.021794806560514787,"90":0.25094973662615755,"91":0.46828804550170294,"92":-0.023359362915877653,"93":0.0009212058208442922,"94":-0.21428628503671465,"95":0.03681064385033036,"96":-0.16955326493148914,"97":-0.1709048774197716,"98":-0.33251456246721356,"99":-0.05561287248362754,"100":0.6097765939304283,"101":0.4420058452477635,"102":0.12170473461247061,"103":0.29177046923789496,"104":0.2402293554166082,"105":0.04438083160811227,"106":-0.11002392204316037,"107":-0.3040009255018409,"108":0.040377011252423,"109":-0.0869959203598154,"110":0.32990036435011644,"111":0.4295016266647915,"112":0.5477400523843019,"113":0.2182547868708808,"114":0.009891678108335862,"115":-0.09111596903233764,"116":0.09077396753629373,"117":-0.041793541714285114,"118":0.5055784573054908,"119":0.1935808309238765,"120":-0.024589346842347964,"121":0.2856657925634354,"122":0.10311069123820564,"123":-0.08998563305482184,"124":-0.3349883549532183,"125":-0.3306100928531139,"126":0.18051985702729928,"127":0.28646247557232485,"128":0.2638895668840902,"129":0.12153827978057422,"130":0.011686230487058497,"131":0.6693564834890132,"132":0.28498378108906225,"133":-0.2903715939388049,"134":-0.9694235813800111,"135":-0.6328285184079225,"136":-0.6807778327357275,"137":-0.1154780700694777,"138":0.12725738059228697,"139":0.15121197595697303,"140":-0.013701198539081487,"141":0.20444023164069272,"142":0.009413627494757994,"143":-0.07170316899934284,"144":-0.4601934971901627,"145":-0.3739574890417392,"146":-0.5752684319249152,"147":0.12387802631739826,"148":-0.440662350061931,"149":0.18061512538518457}},"10":{"bias":0.16904611159703756,"weights":{"0":-0.21404060865810243,"1":-0.04512650845396117,"2":-0.050774133169302106,"3":0.31859647916994505,"4":-0.6617283705432403,"5":0.12367065971671362,"6":-0.10129601451233482,"7":0.37755896993057303,"8":-0.23777665517763813,"9":0.017163460163377605,"10":-0.15435537527700446,"11":-0.6240082497287928,"12":-0.4626353116742042,"13":0.23286840612925222,"14":0.018667429931828225,"15":-0.3414137677511175,"16":0.3743804608162621,"17":0.18964272694332956,"18":-0.5464869577829897,"19":0.35869051558493636,"20":-0.14113604699880794,"21":-0.3991281768916745,"22":-0.32894996489160044,"23":-0.3917548283284301,"24":-0.24579858077684863,"25":0.02483312490178187,"26":-0.605729178244259,"27":-0.2019358220178897,"28":-0.22835018940773022,"29":0.7855378646272193,"30":0.11118470601025171,"31":-0.10413696030568644,"32":0.19720738170879634,"33":-0.040996236949713154,"34":-0.0038285480162003446,"35":0.38022022518644294,"36":0.10441361076229967,"37":-0.07246766350268519,"38":0.34840925867792394,"39":-0.009637434745375035,"40":0.5723948284633221,"41":-0.1251310199847805,"42":0.40993071634465034,"43":0.6377484021672898,"44":0.576841927237974,"45":0.12846895061525587,"46":-0.04379365519289519,"47":0.5212048202215183,"48":0.3969422327101464,"49":0.1379420582900743,"50":0.33815297957882456,"51":0.5781746375037223,"52":-0.206977390109459,"53":0.12655280114508544,"54":-0.3258046772906817,"55":-0.2271929928745086,"56":-0.279566551862982,"57":0.3052763979742443,"58":0.2874255616164562,"59":0.11363768247615118,"60":0.6535835217818533,"61":0.23589191417869632,"62":-0.19685743589603197,"63":-0.47311760256502783,"64":-0.5256295893569509,"65":0.1328354184544996,"66":-0.2764931028106095,"67":0.013513032643032066,"68":-0.21962016562749534,"69":-0.0029604435595307283,"70":0.6803771768647288,"71":0.360756263184982,"72":-0.25964689625711473,"73":-0.35376828420279527,"74":-0.30165502818052037,"75":0.13988591999006492,"76":-0.48939609054087074,"77":-0.10170186301911713,"78":0.33833239363500334,"79":-0.3710896542956588,"80":0.5928171326168837,"81":0.46860152460510657,"82":-0.5006724112640082,"83":-0.07972949280796299,"84":-0.021447247920348245,"85":-0.12533921072851323,"86":-0.4205789516552901,"87":-0.8100065700290211,"88":-0.4579730535534398,"89":-0.44401572179356213,"90":0.7686109983438986,"91":0.19548645409540527,"92":0.1037137705765648,"93":-0.31916227676321957,"94":0.5398553457400928,"95":0.32815358795092503,"96":0.3735951936231894,"97":-0.7294165921911449,"98":-0.5578442754621139,"99":-0.41438321765571023,"100":0.7837470150715936,"101":0.21769608002426236,"102":0.3014492501402164,"103":0.36364096669113627,"104":0.6880401571250133,"105":0.2722977181271962,"106":0.3275741691809097,"107":-0.00436699615403834,"108":-0.5078293397962274,"109":-0.09085542360645012,"110":0.44134501479295496,"111":-0.023916552976034136,"112":0.20068526969363187,"113":0.8534873500591545,"114":0.5203395750840207,"115":0.500608365114071,"116":0.2729201305048377,"117":-0.21714227298022848,"118":0.15325485051094404,"119":0.12758769140129295,"120":0.09767600489522657,"121":0.4554214130515862,"122":0.18967023320409349,"123":0.18685594159838542,"124":0.07404346010688403,"125":-0.3368733905988235,"126":-0.2730172381245275,"127":-0.5087830002801592,"128":-0.05784421455169747,"129":0.4574100993234047,"130":-0.08837943659714871,"131":-0.15112813210691728,"132":0.14133206265474094,"133":0.29555529375932693,"134":-0.33775242220169727,"135":-0.654895280644638,"136":-1.4170583226383595,"137":-0.7228632294218761,"138":-0.14077033985385343,"139":0.22945110757103365,"140":-0.13312252056021526,"141":-0.36864498260436096,"142":0.142738134359074,"143":0.0943259105737965,"144":-0.2843641807683549,"145":-0.3531815580885359,"146":-1.0506626228662808,"147":0.036913440310803576,"148":-0.12966145026114081,"149":0.26023095257868095}},"11":{"bias":-0.5779847114159121,"weights":{"0":-0.13112514184147342,"1":0.24769676611742042,"2":0.13020408343209092,"3":0.045503418853247345,"4":-0.06569637211405135,"5":-0.1258176061063672,"6":-0.1416000146340609,"7":0.3557395591496265,"8":-0.3739275054138008,"9":-0.5086969054330832,"10":-0.29140461173766996,"11":0.11908865940478724,"12":0.3010631670624031,"13":0.07906184665003071,"14":0.23566311006824123,"15":0.04696894419435197,"16":0.7285009743030384,"17":0.3403333982067024,"18":-0.11360558351755831,"19":-0.5852455321688309,"20":0.1826290198227426,"21":0.18654473755160825,"22":0.16786250964553168,"23":0.02508855435467521,"24":0.48919690991485726,"25":0.6097733129783833,"26":0.28155663176560597,"27":0.04967713829824599,"28":-0.10145030808067622,"29":0.054074750008791105,"30":-0.12602687969520085,"31":-0.23525751097674794,"32":0.11335985047382448,"33":0.4292270328302935,"34":0.43986177008740707,"35":0.42746309785848857,"36":0.5243904480912945,"37":0.35095530485198606,"38":-0.0662454542871197,"39":-0.24267834571327782,"40":0.48229511538173075,"41":0.1791498110766597,"42":0.47440286169543155,"43":0.34803789694855974,"44":0.4734179037178608,"45":-0.04479774247477914,"46":0.0444796169196476,"47":0.629712461060582,"48":-0.07697347846898697,"49":-0.04871383880102108,"50":0.47025625290047623,"51":-0.02970141557323253,"52":0.02842493482357221,"53":-0.1533586903148818,"54":-0.6911704299464242,"55":-0.2644203446062262,"56":-0.20658584002652236,"57":-0.15337224032730765,"58":0.03444791835370707,"59":0.21085102962849217,"60":0.42739478984115886,"61":-0.052077683792077716,"62":-0.11669310604664744,"63":-0.25725772169614636,"64":-0.4397932888013616,"65":-0.025485473747688028,"66":-0.25429408286867883,"67":-0.2956271721891706,"68":-0.00944323691241859,"69":0.3918106032655706,"70":0.10628946703863788,"71":0.023713003972824574,"72":-0.2929506663908957,"73":-0.29255350258879353,"74":-0.270463138566343,"75":-0.1270855670862394,"76":-0.2255597483407928,"77":-0.27019713705032733,"78":-0.10607559994462938,"79":0.2596557832723872,"80":0.15981458327235085,"81":-0.35670720679195406,"82":-0.32374473884099025,"83":-0.698555780562797,"84":-0.17038859890178573,"85":-0.3215249977399912,"86":-0.2427154373512042,"87":-0.24674414009672294,"88":-0.07827864669979039,"89":0.03981487046121082,"90":0.05203733295391553,"91":-0.14394943666391838,"92":-0.11057536622914518,"93":-0.5367998201395356,"94":-0.30326082011160566,"95":-0.2411770276866026,"96":0.4516913186225078,"97":0.1826663644977448,"98":0.5270119319808169,"99":0.03820962102019256,"100":0.49817139317526216,"101":-0.2943036382189935,"102":-0.4635035922137088,"103":-0.2851887515573665,"104":0.0452665166054422,"105":0.4661912653548199,"106":0.311999375717973,"107":0.6510165166423354,"108":0.33473721156133174,"109":0.7042880423130963,"110":0.028210264252881787,"111":-0.05521927024790632,"112":0.08522643054499608,"113":-0.015698685809393747,"114":0.04306392545128155,"115":0.5585698870158535,"116":0.27982762665886945,"117":0.5095959754254004,"118":0.5761132048456478,"119":0.8120913251095092,"120":0.045200444960530814,"121":-0.2753040459524114,"122":-0.22425646114466605,"123":0.06316308746744054,"124":0.36799435334179303,"125":0.3142409910310225,"126":-0.5692198865896172,"127":-0.18149062173543917,"128":0.43099749366912304,"129":0.8494789189188076,"130":-0.5585174661755654,"131":-0.5148716710379748,"132":0.029344805789004946,"133":-0.44926686471003413,"134":-0.5620402195774937,"135":-0.6707912145496261,"136":-0.4269353544709653,"137":0.11644154151956167,"138":0.8872034940381838,"139":0.8083616574383315,"140":-0.21519451535701503,"141":-1.024784668832736,"142":-0.09104596189126181,"143":-0.43084417278224457,"144":-0.5558526671379327,"145":-0.3451848372186289,"146":0.18896586637025048,"147":0.4127811449661653,"148":0.3622543808551943,"149":0.24612852887177214}},"12":{"bias":0.43947049996343124,"weights":{"0":0.38431968102189734,"1":-0.048683979164567855,"2":-0.1277193689827549,"3":0.13886848842030952,"4":-0.12168013191966827,"5":-0.3206248500315135,"6":0.288393664939415,"7":-0.4710333301860819,"8":0.14782313967510777,"9":0.3157347820625831,"10":0.4245855814952321,"11":0.34701815449895784,"12":0.06999044959499573,"13":-0.310554000902772,"14":-0.4852032804314128,"15":-0.4636595437176026,"16":-0.2673905241810212,"17":-0.15651795829213047,"18":0.43091754777013985,"19":0.5358080176939194,"20":-0.11327859794421023,"21":0.40242754680748705,"22":0.1399815907818442,"23":-0.08908244207301971,"24":-0.3091825529075535,"25":-0.3188400613997665,"26":-0.43527031448577913,"27":-0.1927688026170467,"28":0.26113259410247264,"29":0.10016867571950916,"30":0.3945187285650383,"31":0.37270352837412746,"32":0.06065312808681057,"33":-0.41413712474229336,"34":-0.04575460648468587,"35":-0.31774873607477,"36":-0.6480211778392041,"37":-0.021213103625103525,"38":-0.367215967901551,"39":0.09269116915570547,"40":0.01924326415403029,"41":0.3546618294507078,"42":-0.04391413372728844,"43":-0.038426038712847395,"44":0.16661171079201856,"45":-0.39852877514095414,"46":-0.1439700422967807,"47":0.01798503192033791,"48":0.06146868834913545,"49":-0.20587912845656703,"50":-0.061236688019342345,"51":0.016356317818828004,"52":-0.2398845282846381,"53":-0.007229278691030155,"54":0.2884091239190598,"55":-0.22278327653772353,"56":0.20057038095374827,"57":0.07421592125484847,"58":-0.290069050637832,"59":-0.0769234690532453,"60":-0.010763909201204139,"61":0.08729749306297972,"62":-0.3066033964047054,"63":-0.08704042436960227,"64":-0.3875729557169917,"65":0.03981800602663681,"66":0.5963451547981748,"67":0.16073132976902593,"68":-0.05594421454978593,"69":-0.0645883777925362,"70":0.048465443541103506,"71":-0.1891630890082743,"72":0.02012254508484866,"73":-0.30388975594705164,"74":-0.14103875205141184,"75":0.18120365685635567,"76":0.5874254419984055,"77":-0.2027486193928475,"78":0.0016024158227007656,"79":0.09785397901271646,"80":-0.18626095556628516,"81":-0.5422109716444788,"82":0.11542084792472442,"83":0.06700306617500434,"84":-0.42043998101660524,"85":0.15617417531545405,"86":0.3579867551925088,"87":0.03981391036602005,"88":-0.13795969628869123,"89":-0.037531917498871234,"90":-0.7041508250247493,"91":-0.3913530633601423,"92":0.18451122501028255,"93":-0.3583060047366435,"94":-0.2613755577397022,"95":0.2661035640465029,"96":-0.0755218909460863,"97":-0.6191541874928241,"98":-0.25832518611125244,"99":0.09869727811890527,"100":-0.3613726955228932,"101":-0.4908710054206735,"102":-0.09074640666874212,"103":0.12236547050660843,"104":0.26587237331142366,"105":0.33291524599735167,"106":-0.28450452150012157,"107":-0.20546155612217734,"108":-0.1135168496495021,"109":0.01943693369530325,"110":-0.25897307861781316,"111":-0.25949881402470015,"112":0.22325284467701575,"113":0.10115710694149228,"114":-0.057245879539899236,"115":-0.06932996706861183,"116":-0.1102649560791615,"117":-0.1289143888915115,"118":-0.08567540854614467,"119":-0.24103192900831144,"120":-0.17301904433247733,"121":-0.2196636901784993,"122":0.1944169526115666,"123":0.1381410633047856,"124":0.07361290056650162,"125":0.16902682745067368,"126":-0.01704895001488459,"127":-0.00901714570134438,"128":-0.07201638476591667,"129":-0.4570090937791565,"130":0.259946464639501,"131":0.06844212025185825,"132":-0.5867319662170668,"133":-0.17031268791227358,"134":-0.1366670105796461,"135":0.6707957046894731,"136":0.8435750385888487,"137":0.3564542106629704,"138":-0.3898982311086224,"139":-0.7224683807669786,"140":-0.054321966974445614,"141":0.5500388700421698,"142":-0.14043372083866973,"143":-0.1630478931807684,"144":0.1810813509729038,"145":0.1817929008574754,"146":0.4435911584445641,"147":0.07401288874113293,"148":-0.04003684563262254,"149":0.097038448451386}},"13":{"bias":-0.24336549286197484,"weights":{"0":-0.05136950122888622,"1":0.0486977108751112,"2":-0.001564023997102818,"3":-0.3581590962815793,"4":-0.042077631073458244,"5":-0.13073457272784064,"6":0.029406639450079604,"7":0.11649015994716753,"8":0.5130963745179872,"9":0.07271760740091103,"10":-0.2932425696308062,"11":0.33885056535295266,"12":-0.02965767371049804,"13":-0.1250783066343225,"14":-0.1723674239871121,"15":0.3004046611163116,"16":-0.26775468101889904,"17":0.17106155017911145,"18":-0.06318730519676016,"19":-0.36648322844276526,"20":-0.16357143239741245,"21":-0.21043030786924607,"22":-0.3762959878464586,"23":0.3003155551276092,"24":0.2741440052884052,"25":0.30917360811608496,"26":0.15277158244936914,"27":-0.3277065654263375,"28":-0.5013174243757065,"29":-0.37897423440869155,"30":-0.11016043371430634,"31":-0.3571120269171668,"32":0.008383931914015158,"33":0.34512839542576185,"34":0.3041729785970005,"35":0.16879455478748825,"36":0.0741041934076212,"37":-0.31165188335893806,"38":-0.5156975312655929,"39":-0.7476069831204963,"40":-0.2611375795655584,"41":-0.18984286482585022,"42":-0.017697929329792753,"43":0.15304887577387313,"44":-0.5145736253078075,"45":-0.27675293589789485,"46":-0.4179074976380483,"47":-0.49185287962459395,"48":-0.1961933006419772,"49":-0.35251705918097453,"50":-0.16266032985934686,"51":-0.15554197494952723,"52":0.3075249303867699,"53":0.18703449881428122,"54":-0.2192539697814997,"55":-0.30859177079682826,"56":0.3545820916680784,"57":-0.2874842320637895,"58":-0.42519813989722444,"59":-0.4155161513516037,"60":0.08663947434076505,"61":0.07175368331281871,"62":-0.3235583878235717,"63":-0.10050584615281717,"64":0.21350420382689414,"65":-0.2370477139725472,"66":-0.1387957765884338,"67":0.3174970737979178,"68":-0.2989121391004252,"69":-0.4210010413647346,"70":0.590807248364687,"71":0.40420888958179657,"72":0.13630650928041807,"73":-0.02959728006420479,"74":0.28662210067837973,"75":0.38905876707926046,"76":0.28557018486798696,"77":-0.284728122851989,"78":0.03272822295462877,"79":0.3611821451641514,"80":0.3097628888057566,"81":-0.11667739922945165,"82":-0.025743998805877383,"83":0.15473838772707416,"84":0.1554787024908795,"85":0.44551492935083864,"86":0.43182314977305175,"87":0.28781342591554404,"88":0.47766872822524925,"89":0.5282316133461418,"90":-0.16719210917531024,"91":-0.17075993212446247,"92":0.0764665201634443,"93":-0.3881757741161534,"94":-0.11792642978123713,"95":0.2528380860574549,"96":0.2620226487894632,"97":0.31606605478285427,"98":0.582997004996726,"99":-0.12225590692399295,"100":-0.4265350749955656,"101":-0.23938907540724397,"102":-0.18333203101611928,"103":0.19436308662054994,"104":0.18255646870980183,"105":0.24701654984705393,"106":-0.06441812277847668,"107":-0.15657591139235838,"108":0.23149676703931066,"109":-0.15306621650794192,"110":-0.5861891820967984,"111":-0.22004213096177674,"112":0.1805064490862066,"113":0.5923186172419467,"114":0.24678674765950764,"115":0.07510826103317086,"116":-0.19257377188465252,"117":-0.037029870926573054,"118":0.17748528716826584,"119":-0.2663323900851995,"120":-0.6321548563351952,"121":0.045572439059121846,"122":0.24596318833402953,"123":-0.2858604651683022,"124":-0.023626170539368014,"125":-0.3163261901600706,"126":0.022542026462150522,"127":0.12145180151934991,"128":-0.2514920753049515,"129":-0.11740378161881954,"130":0.03266768837053028,"131":0.4390590700707743,"132":0.07722700781840712,"133":-0.15398898962075827,"134":-0.022842991979472094,"135":-0.17129403069397414,"136":0.17067376032045575,"137":-0.056782833704774376,"138":-0.3077983368624056,"139":-0.4053379435599276,"140":-0.24994266026949322,"141":0.6066340517733857,"142":-0.13796437507521703,"143":-0.29967313149394276,"144":-0.17972562778943432,"145":0.6162813513614528,"146":0.01270020023987813,"147":0.16580919807012748,"148":0.00944526615994231,"149":0.2979511820254848}},"14":{"bias":-0.03092185847610072,"weights":{"0":-0.2815027121562187,"1":-0.10316467445463223,"2":0.3113437499912173,"3":0.22457515098092695,"4":0.25124993060574935,"5":0.3607193246262693,"6":0.19256365085813817,"7":0.24314554231928984,"8":-0.11815013475382623,"9":0.05048089675291097,"10":-0.3000065200409573,"11":0.1236233011217482,"12":0.3808560794578593,"13":0.6138934525898034,"14":0.35504547948571963,"15":0.08438679381624735,"16":-0.006228200745048681,"17":-0.08233323336723293,"18":-0.07041252329459613,"19":0.5029270183520838,"20":-0.45785793750044784,"21":0.16600031425916223,"22":0.3279831455744311,"23":0.15056582945542063,"24":-0.1329648708750884,"25":-0.21130849645094768,"26":0.33390254611397513,"27":0.3516348652658306,"28":0.20489371578909474,"29":0.3254142581174431,"30":0.03979349005387168,"31":-0.16438274911228448,"32":-0.07146852211766037,"33":0.029014775018701235,"34":-0.24587190761673478,"35":-0.04928012106647351,"36":-0.10865872110352598,"37":-0.15288271199173764,"38":0.7099797596183565,"39":0.630867133147899,"40":0.3814911168402322,"41":-0.07435786614715043,"42":0.33288961995392874,"43":-0.18765960434273382,"44":-0.14201288616733881,"45":0.3405913011396178,"46":-0.13226341652274146,"47":0.07132246998635425,"48":0.2513207412036438,"49":0.13616499659434445,"50":0.9215693836789137,"51":0.8134607268356758,"52":-0.18435601043539054,"53":-0.3111181487471032,"54":-0.3978833603361386,"55":-0.08747623535562392,"56":0.23058088101076224,"57":0.2306346735103002,"58":0.16560171823139153,"59":0.3417449413121347,"60":0.654952676851951,"61":0.276444215527031,"62":0.22008320479835114,"63":-0.24461561520509864,"64":-0.07612490748990676,"65":-0.012902997303909772,"66":-0.1650419368866725,"67":-0.14702351593149487,"68":0.5238304060684525,"69":-0.023377531473732997,"70":0.10826213242157856,"71":0.27163512799929684,"72":-0.6772232555395323,"73":-0.04520849760246742,"74":-0.27848453581544547,"75":0.11976366431512385,"76":-0.7105207674667247,"77":0.17872993300495946,"78":0.12522219770009066,"79":-0.19033701687850776,"80":0.49998762782632433,"81":0.27069359627098777,"82":-0.42487916847140184,"83":-0.21243336730041928,"84":-0.5056620420162042,"85":-0.34215832647957134,"86":-0.18487476315681,"87":0.25973455349444,"88":0.03921300808924003,"89":0.13173243182891248,"90":0.20848772353610603,"91":-0.08837914338846305,"92":0.3491525895472645,"93":-0.7328475321051275,"94":-0.045799787506316726,"95":-0.5162972568913254,"96":0.002681190935024459,"97":0.1285773533376647,"98":0.05097001915486757,"99":-0.11067066544301704,"100":0.34385856741946014,"101":-0.0563117932304861,"102":-0.15950385595029418,"103":-0.19266205757690283,"104":-0.2586990713489686,"105":-0.1556273377224372,"106":0.2274587023074965,"107":-0.03446747746277953,"108":-0.18390828779612373,"109":-0.22060502704455864,"110":-0.2756983688447495,"111":0.11184400201648342,"112":-0.3106762773021237,"113":-0.11400618180008161,"114":-0.618971490207134,"115":-0.01845122341983125,"116":0.4662595405221187,"117":-0.12461279048681127,"118":-0.33966628944493454,"119":-0.05221400398635771,"120":-0.3816199328392166,"121":0.2719609938447189,"122":-0.12577567230389758,"123":0.01637350645502096,"124":0.13030583781662775,"125":-0.5018715431545453,"126":-0.15997218583949452,"127":-0.12351244995987458,"128":-0.10352474070731922,"129":-0.20830012211484794,"130":-0.6257564229272644,"131":-0.31362784060191784,"132":-0.507023904163038,"133":0.18523228306381057,"134":-0.21067034895335796,"135":-0.04492375624454296,"136":-0.262749247800809,"137":-0.693222600873569,"138":-0.21756436575373228,"139":-0.43753501498543573,"140":-0.4285981718018233,"141":-0.4639722716221582,"142":0.032065325952950426,"143":0.19181520587537307,"144":0.3407321406956267,"145":0.30024306045252586,"146":0.16281580541960655,"147":0.34738368285910154,"148":0.11684680809750596,"149":-0.2149434336536509}},"15":{"bias":-0.2182031632920982,"weights":{"0":0.007039259477941893,"1":-0.15212600201394796,"2":-0.10065205455549008,"3":0.17642584596176733,"4":0.004867812320837355,"5":-0.2507831296097564,"6":0.3447478089896349,"7":-0.25360360074992777,"8":0.40107862044672715,"9":0.3515158346699263,"10":-0.14241739172115936,"11":0.33355523348025146,"12":0.16897307657590796,"13":-0.3685134398955443,"14":-0.13001674934886284,"15":-0.12937214653550053,"16":-0.014456323052409058,"17":0.0648491885921346,"18":0.27458066016155075,"19":0.2054793690739368,"20":0.025417224039068948,"21":0.3066150046760726,"22":0.11162458665410242,"23":0.12737697053010139,"24":-0.0906887208422827,"25":0.3829894626843317,"26":0.9203371239989558,"27":0.11943725536989673,"28":-0.26319326639490204,"29":-0.681449956891103,"30":0.24455802733577786,"31":0.14547267543251147,"32":-0.2690379213067706,"33":0.14756396136866998,"34":0.37137940619614035,"35":-0.010773791967110912,"36":0.029988714402644202,"37":0.16354921148904392,"38":-0.15938943532021566,"39":-0.11399587222019952,"40":-0.21329864889871392,"41":-0.10743820006145183,"42":0.2240342068927339,"43":0.1319229451481179,"44":0.09972270051279214,"45":0.5964495890193091,"46":-0.061033306286497495,"47":-0.09981479637451923,"48":-0.09806110052482954,"49":0.07296868454807688,"50":0.024564004767665223,"51":-0.0817186771915954,"52":0.2409193092745081,"53":0.39036321857462963,"54":0.03876229412395711,"55":-0.05353250882255598,"56":0.1601411601109193,"57":-0.3706212951990462,"58":0.0724566922703991,"59":-0.14717548553775406,"60":0.16878340569830944,"61":0.11785533364467794,"62":0.2836677835414108,"63":0.04470905463243833,"64":0.17320797096673518,"65":-0.06720594557327443,"66":-0.35486955803672277,"67":-0.043095778813424974,"68":-0.03628847121455088,"69":0.28106648849552757,"70":0.11982095090784985,"71":0.07860199729013338,"72":0.2550799758520069,"73":0.46553637812248133,"74":0.022710494641813506,"75":-0.11710033242730175,"76":-0.036001651209427186,"77":-0.05897220436387281,"78":0.22579703492079017,"79":0.13859342688102624,"80":0.5187366350540454,"81":0.16500960091417793,"82":0.22453301257010036,"83":-0.014386907092171922,"84":0.4935183591606374,"85":-0.26420427439507876,"86":0.0788101731717937,"87":0.2838819680320151,"88":-0.01474848349035026,"89":0.2758824975840174,"90":0.030221340246905256,"91":0.02513914306002861,"92":-0.19379994462657707,"93":-0.1919306895881818,"94":0.16719341509110322,"95":0.1717668087265181,"96":0.21615146156767998,"97":0.15396498908278544,"98":-0.4347555553748245,"99":0.09281421174309146,"100":-0.030913396323427815,"101":-0.010966639070138581,"102":0.21248271372137265,"103":-0.19498392631341033,"104":0.11879061093584627,"105":-0.10266129989423448,"106":-0.32766586034107353,"107":-0.11593849308836927,"108":-0.10816104063731463,"109":0.06253132916712813,"110":-0.1646933498950556,"111":-0.34696976346993497,"112":0.09060014841346106,"113":-0.5138155499497418,"114":-0.2091444070086454,"115":0.15370825765038082,"116":-0.369522910559251,"117":-0.23690762358189943,"118":-0.33149798606782277,"119":-0.10009028179431145,"120":-0.6371123503323488,"121":-0.4122168053449731,"122":-0.40937786516829094,"123":-0.1933932741595202,"124":-0.024915310281739683,"125":0.5075663685551488,"126":-0.2372797204234,"127":-0.26523391531315516,"128":-0.15921757889284652,"129":-0.28979055143946514,"130":-0.43730479169688896,"131":-0.6815810930696881,"132":-0.3618034621625784,"133":0.23232254127371196,"134":0.1442856254583483,"135":0.20712448778900722,"136":0.21587039781599432,"137":-0.19209734533525324,"138":-0.4678917570221729,"139":-0.14457526641819032,"140":-0.1870703166067665,"141":-0.04444941502078944,"142":-0.07022405040899155,"143":0.10350524231718995,"144":0.1881389721638743,"145":0.2356505180277897,"146":-0.457781701058694,"147":-0.3651887047613118,"148":-0.0652281886504977,"149":-0.05698072442984528}},"16":{"bias":0.14235226847155855,"weights":{"0":-0.1802109199240621,"1":0.3490586499513752,"2":0.3826933751590618,"3":0.2298122357607649,"4":-0.10322441207590853,"5":-0.1867341160254408,"6":0.4012911609264798,"7":-0.0022749435235779364,"8":-0.1340782146505523,"9":0.012144972764655787,"10":-0.2125175167476226,"11":-0.38936878812028997,"12":0.19346693674601984,"13":-0.1434541462239109,"14":-0.08182568688543194,"15":-0.3358440242240895,"16":0.1549235132740055,"17":0.009391883438336171,"18":-0.030148146294894568,"19":0.2568788797380191,"20":-0.22311326997101857,"21":0.179881009396493,"22":0.17452962484239629,"23":0.3115147882359267,"24":-0.5592190447579556,"25":-0.011859809333492073,"26":-0.3584923548302388,"27":-0.07684689547886556,"28":0.10494277323375358,"29":0.07467907673654949,"30":-0.031672386467764706,"31":-0.06525425799048928,"32":-0.34933247700260867,"33":-0.029777845915325334,"34":0.10721920093410107,"35":-0.25428083722400907,"36":-0.5080594267957433,"37":-0.22052964951878984,"38":-0.006269069007999343,"39":-0.053672229153386146,"40":-0.09577312471325958,"41":0.1302923210445244,"42":-0.10033515715191399,"43":-0.2262150954091734,"44":-0.31738660058417684,"45":-0.3070584167012963,"46":-0.1919932275161631,"47":0.1444683487474669,"48":-0.0680601132100929,"49":-0.08700858199477789,"50":-0.2860119456866359,"51":0.05127726144987014,"52":-0.5283210894144635,"53":-0.09769612799812387,"54":-0.023752144176339526,"55":0.06434404468241793,"56":0.0026635129067617155,"57":-0.06650856207132178,"58":-0.1982409507029668,"59":0.13885012442551797,"60":-0.06426314679541578,"61":0.20203885992918744,"62":-0.5856617062045897,"63":0.0326651097553483,"64":0.07406522970991984,"65":-0.4167594084431334,"66":0.25531865911001006,"67":0.0002272663175242561,"68":0.036866974410190004,"69":0.2887962077959717,"70":0.022229141400234905,"71":-0.30026460125036464,"72":0.2630410529309738,"73":0.313803026767999,"74":-0.006787664052762552,"75":0.32889920215938423,"76":0.24392657224669917,"77":-0.3311774099321157,"78":0.09004492622898287,"79":0.4082175108303627,"80":0.3010440253392395,"81":0.5778263459104219,"82":0.1479942607216234,"83":-0.03460275682988069,"84":0.15733961069201174,"85":0.020324640739988784,"86":0.18011304740496958,"87":0.09406799709230959,"88":0.04298955401816713,"89":0.2053476311271101,"90":0.047937868111974855,"91":0.33137530435432894,"92":0.18466191941200527,"93":-0.18013849769045526,"94":-0.10088507946261913,"95":0.1616774141415637,"96":0.22415742999328364,"97":-0.26141289753649005,"98":0.060292622715480304,"99":-0.05352286605954466,"100":0.28716534530578036,"101":0.04322165655984623,"102":-0.024252903008120705,"103":0.27216630322721724,"104":-0.05239655423729447,"105":0.03939539305665574,"106":-0.00035296502506421774,"107":-0.3036649224705764,"108":0.08329554406551244,"109":-0.023835990226312255,"110":0.2225377653677328,"111":0.5160605005619762,"112":0.444141201438425,"113":0.09166478290535114,"114":-0.4144482482673199,"115":0.03903460697430407,"116":-0.05312792061838508,"117":-0.06905511829804409,"118":-0.15667260418152357,"119":-0.13905652455103806,"120":-0.0008404809707915349,"121":0.04262732110035858,"122":0.28449299150531365,"123":-0.16556943741336522,"124":-0.273940976178089,"125":-0.1946076349834006,"126":-0.04523753847822743,"127":-0.06206123875684514,"128":-0.2018865527924506,"129":-0.47635859041202805,"130":0.14732406980720014,"131":0.1230569054782057,"132":-0.08348052767203319,"133":-0.659713809328412,"134":-0.38168889599528755,"135":-0.06269393708811904,"136":0.010262723042162173,"137":-0.2885861888887703,"138":-0.1651429164610167,"139":-0.15764712604360148,"140":0.131907920510297,"141":-0.29093760254570106,"142":0.23868764100681356,"143":-0.10484737582734632,"144":-0.3489682192326661,"145":-0.2183857696318245,"146":0.07818337350246662,"147":0.04023912683975489,"148":-0.04280464349959865,"149":-0.3213900134868192}},"17":{"bias":0.40568178680712186,"weights":{"0":0.29866521259759565,"1":0.5908222008296286,"2":0.03439774841176501,"3":-0.6141069024042316,"4":-0.1326550482408417,"5":0.3456148660708136,"6":0.17608496337309976,"7":-0.3010692245428312,"8":-0.12119805092156376,"9":0.02872002670345138,"10":0.4977588746448922,"11":0.12633109366870818,"12":-0.40381718650039067,"13":-0.4938884873775138,"14":0.048981470869677864,"15":0.02516663721850259,"16":0.044736556111815456,"17":0.11618699591270541,"18":-0.01907237618400492,"19":0.12077333382493877,"20":0.29332200410121356,"21":0.5517950266062783,"22":-0.005205468185778419,"23":-0.400187167863172,"24":-0.1283132402842956,"25":-0.024679490540946987,"26":-0.17303278325710417,"27":0.008317266667882909,"28":0.28830545474605795,"29":-0.09191795603373928,"30":0.5123874079693368,"31":0.8743600468590229,"32":-0.1357628276292967,"33":0.04087189963792135,"34":-0.2641119572970756,"35":-0.5948713052186039,"36":0.20377551876290403,"37":-0.11042962311054895,"38":0.2500553360894855,"39":-0.1376718141814307,"40":0.42431895600617964,"41":0.7650423677738757,"42":-0.021023355039226015,"43":-0.20397787085490748,"44":-0.1990190893195681,"45":-0.19286579286839386,"46":-0.27144906019859216,"47":-0.0204988629235293,"48":-0.16432520796924285,"49":0.09051183776936296,"50":0.26200371081041823,"51":0.4604837354164327,"52":0.422809118597998,"53":-0.08930058906218383,"54":-0.18153226794103222,"55":0.10000574909965072,"56":-0.37042970671872666,"57":0.08399146686660225,"58":-0.3534242134235468,"59":-0.2503391508441167,"60":-0.08527561412950897,"61":-0.36743851494446583,"62":0.191899730576228,"63":0.02607564782628154,"64":0.43363807080833844,"65":0.29612908054023995,"66":-0.28887652987728313,"67":-0.553069129753756,"68":-0.459486636894352,"69":-0.5697341651327885,"70":-0.1580869901547509,"71":-0.203529063931788,"72":0.15345264680211823,"73":0.32148973681116444,"74":0.031572835850956646,"75":-0.019331934320885414,"76":0.060424534009872986,"77":-0.004698770753210001,"78":-0.3474370649106969,"79":-0.48309408336519477,"80":-0.3853782918566732,"81":-0.27681736945287033,"82":0.5751006489549615,"83":0.03100450338316619,"84":0.10598927222731379,"85":-0.22469203410562485,"86":0.003594260467654795,"87":-0.31203604210986424,"88":-0.4144569511907734,"89":-0.045118187068327056,"90":-0.2645677475205693,"91":-0.5716142639427035,"92":0.18859270821163296,"93":0.030919071001459995,"94":0.09831386635279878,"95":0.2327661177773338,"96":-0.4676709740503664,"97":-0.034142787436552906,"98":-0.48571302448649084,"99":-0.16181292979453132,"100":-0.06730627294175438,"101":-0.07293651918245878,"102":0.2118928110774096,"103":-0.19386970101037387,"104":-0.026247424773654507,"105":0.23432062554970767,"106":-0.008886418124042969,"107":-0.0779280857475743,"108":-0.2700891251374981,"109":-0.08669640462145413,"110":0.22661707120417063,"111":-0.017470959415008883,"112":-0.28371536336451797,"113":-0.1742752360839507,"114":0.4435940456456234,"115":-0.406853402484995,"116":-0.13765906811836978,"117":-0.2078229554034551,"118":-0.36045881717587447,"119":-0.17227817075287627,"120":0.10562058591496434,"121":-0.1117921403146246,"122":-0.10156973787128805,"123":0.15095984368866464,"124":0.12656433955958532,"125":0.39003883693104835,"126":0.07479813476949396,"127":-0.1317338075752598,"128":-0.510418389692735,"129":-0.06744473165795517,"130":0.668746477893601,"131":0.05922868333481708,"132":-0.2883123196246134,"133":-0.5871255868780726,"134":-0.0029463736373190864,"135":-0.2624232612778905,"136":-0.3408985405435794,"137":0.12529992763258757,"138":0.06885916193991433,"139":0.17786621237532615,"140":0.397733673088353,"141":0.5310133238343596,"142":-0.2552132491774371,"143":-0.4965165731409363,"144":-0.09212142350562873,"145":0.11576948701899432,"146":0.442810025210981,"147":0.22519810539223245,"148":0.36575161486521435,"149":-0.019470082298747894}},"18":{"bias":0.3481174669477045,"weights":{"0":0.08854205338858633,"1":0.04073380695861699,"2":-0.24665594321282241,"3":-0.05816121390605685,"4":-0.2857480134162975,"5":-0.007916030168774407,"6":-0.13351250948271098,"7":0.03730897712374333,"8":-0.4458550588361672,"9":-0.005708583594757262,"10":0.1162597279322992,"11":-0.8432256507462459,"12":-0.45093424674027377,"13":-0.31163288279712914,"14":-0.40955808734204613,"15":-0.2926345876434639,"16":0.06232787719125505,"17":-0.3108781757707144,"18":-0.36364488064201916,"19":-0.2398229254544112,"20":-0.10000122528643168,"21":-0.429824756391818,"22":-0.15541647039710485,"23":-0.30290487715940656,"24":-0.32525549830891826,"25":-0.3182423394467185,"26":-0.43544751363184697,"27":-0.15938566912644916,"28":0.013674539988924587,"29":-0.03492195943944364,"30":-0.03336439877164781,"31":-0.1137697140814022,"32":-0.14221571398547717,"33":-0.3215065332388363,"34":-0.16594703120956492,"35":-0.24247513662545894,"36":0.010815187367060507,"37":-0.025848987003778863,"38":0.15777265568549056,"39":0.025200101049064786,"40":0.01854162245469334,"41":0.1655671631716677,"42":0.1451856258385359,"43":-0.2368185480508864,"44":-0.1877405532708515,"45":-0.24077464237103033,"46":-0.12716457880541715,"47":0.06216316852640698,"48":0.13931509541857895,"49":-0.0001963074824381836,"50":0.006031151688203943,"51":0.13264859738762827,"52":-0.30679019751563524,"53":-0.25420695965260875,"54":-0.007627326913736152,"55":0.15853721654936656,"56":0.040402824327872844,"57":0.24184016727574018,"58":0.07948233423786075,"59":-0.17970149831627566,"60":0.18398478385377207,"61":0.3152518296086002,"62":-0.2627226221772614,"63":-0.23763024327259813,"64":-0.06589976562770132,"65":0.5080637186874573,"66":0.2934797625779657,"67":0.4533604648741983,"68":-0.1803900150213634,"69":-0.1197245138031832,"70":0.18974297510868499,"71":0.3251118698181111,"72":-0.2834607006875408,"73":0.14603247350878384,"74":-0.009959257657917596,"75":0.2194771890447097,"76":0.2296625561348971,"77":0.191492740102202,"78":-0.04535968034927568,"79":-0.29121891482865525,"80":0.6870207722665095,"81":0.2080160926652577,"82":-0.16713951120936033,"83":-0.32238986155467353,"84":-0.16826895339826894,"85":0.6594366777369677,"86":0.08257258254610948,"87":0.012248967943423783,"88":-0.3455184509773578,"89":-0.49128265369946633,"90":0.36049906236723317,"91":0.4416986657092913,"92":-0.15412439721971716,"93":0.05849960302574267,"94":-0.040005502726799945,"95":0.6419707484483896,"96":0.21766522580978845,"97":-0.11938863272104573,"98":-0.7175713365381169,"99":-0.47435366456508904,"100":0.4646831695252371,"101":0.5264348123603689,"102":-0.06728535060963894,"103":0.07292178937344261,"104":0.22941698022736318,"105":0.417757634819282,"106":0.30222534532292905,"107":0.04428324872422877,"108":-0.3249735532303401,"109":-0.6245555945231315,"110":0.5223356849699481,"111":0.19777323618519319,"112":-0.10414022715508336,"113":0.22692821125039483,"114":0.18698861553409635,"115":-0.01699664780138832,"116":0.29606147432386115,"117":-0.10054220076288173,"118":-0.14121019529145742,"119":-0.1682407818668062,"120":0.14775682655244401,"121":0.36829565768627665,"122":-0.2679570711205352,"123":0.5421519857399859,"124":-0.061552997362707515,"125":-0.015905153196891966,"126":0.07075233735150313,"127":-0.24511792188757278,"128":-0.25858991974945267,"129":-0.1014719744068244,"130":-0.08337068123542313,"131":0.304632303026325,"132":-0.43171179988410807,"133":-0.07153028922126893,"134":0.17167957442956366,"135":0.45213743596765427,"136":-0.5168396257667005,"137":-0.13647431532639104,"138":0.14039797560080106,"139":0.09394689286080408,"140":0.239172794889146,"141":-0.028002659841561927,"142":0.536208041084329,"143":0.14810400921289182,"144":0.12371796530002169,"145":-0.5346468466386909,"146":0.10342687787269059,"147":0.03207156892208614,"148":0.24555206862095533,"149":0.26691456949887427}},"19":{"bias":-0.3285424303694419,"weights":{"0":-0.18490171822747992,"1":0.1929752203112375,"2":-0.3403368769603128,"3":-0.01733222813237415,"4":-0.33040192272494273,"5":0.13852851521907594,"6":0.2930531394197967,"7":0.07517541247334943,"8":-0.23326389095307273,"9":0.1700213356390681,"10":0.2738813419885616,"11":-0.25614328367669714,"12":-0.3825996350409955,"13":-0.3658160887115876,"14":-0.27669989687938834,"15":-0.030278476460071327,"16":0.7293008678413905,"17":0.3914871148576681,"18":0.03355988711040351,"19":0.182007324626583,"20":-0.23063889572687082,"21":-0.02870591213751562,"22":-0.6845382290933996,"23":-0.44699217131239405,"24":-0.3831788105802568,"25":0.3017110008659691,"26":0.09115538905572235,"27":0.653447821665889,"28":0.35525164146918725,"29":0.14641105623679926,"30":0.2812932755160755,"31":0.45593883554959586,"32":0.18383242513614786,"33":0.0020028210889749816,"34":0.24049311767395368,"35":0.03328535161627533,"36":-0.09618590696669234,"37":-0.05231861752024893,"38":0.5897976294620069,"39":-0.09381175426091698,"40":0.534759792104363,"41":-0.015964187109086238,"42":0.3092425039129269,"43":0.27489393466745804,"44":0.25776668185368495,"45":-0.3129232650795786,"46":-0.11632972980887513,"47":0.01614893568452882,"48":0.6803581608905526,"49":0.4604287318143092,"50":0.48500510951498826,"51":-0.08519513334164076,"52":0.4774287677248476,"53":0.6555937334449554,"54":-0.01600152086265092,"55":-0.2833570646043594,"56":-0.20747961602356543,"57":0.011181418509874993,"58":-0.154706684489628,"59":0.3965219767326259,"60":0.01591875868788878,"61":-0.4943245900646312,"62":0.0745902402295285,"63":0.14606465885967082,"64":0.37480393148073016,"65":0.3269817267132301,"66":-0.22690972671375617,"67":-0.47476788030025785,"68":0.10581961277763287,"69":-0.010636151206154586,"70":-0.021389697038568117,"71":-0.1250803498984668,"72":-0.2413367377611188,"73":0.13346057865225974,"74":0.4310553947634576,"75":0.06152164661511268,"76":-0.18409137873578305,"77":0.1371283151179046,"78":-0.1692163480312206,"79":-0.7180898095390762,"80":-0.39232925716055417,"81":-0.5902919926813021,"82":-0.09559563374790137,"83":0.394722611107946,"84":0.6694412894866218,"85":0.11007429083014825,"86":-0.2728700374323783,"87":-0.7384537125559075,"88":-0.5094468304668225,"89":-0.016406389884582984,"90":-0.18192277179488006,"91":-0.32412575163084173,"92":0.30673615259486486,"93":-0.012405687808365906,"94":1.0853940788900454,"95":0.680970616450144,"96":0.14501228901298294,"97":-0.2759718326198839,"98":-0.2669072281373524,"99":-0.09722424375483806,"100":0.048730684075708706,"101":0.002191747476311715,"102":0.07019964706311277,"103":0.00802179235573189,"104":0.8655250721332657,"105":0.300434787357292,"106":-0.0059360848092478245,"107":-0.3691744658319125,"108":-0.7670035904172374,"109":-0.3493972425520362,"110":0.17514594418729468,"111":-0.06257293935907636,"112":-0.4221818142591665,"113":0.052106288789257334,"114":0.49693242210547856,"115":0.3458644295899617,"116":0.2371186537237065,"117":-0.5397042625976188,"118":-0.7364039125201226,"119":0.13137701361931445,"120":-0.18973229247676132,"121":0.12085544009568733,"122":0.052040550139243025,"123":-0.10198746830868881,"124":-0.3123864014151716,"125":-0.2544297633150717,"126":-0.18648218722837046,"127":-0.8538250235191965,"128":-0.4826476472808887,"129":-0.3506517240423666,"130":0.2647831070035885,"131":0.4901633076800296,"132":0.18642607421608923,"133":-0.45625387802859685,"134":-0.527727046301953,"135":0.30185793688226065,"136":-0.8792338436241772,"137":-1.1465186821913937,"138":-0.6704324868056895,"139":-0.2251753166153918,"140":0.23426657352896635,"141":-0.046268231031347036,"142":-0.4210901733107486,"143":0.2763955664259383,"144":0.19181879084038225,"145":0.014117938416302551,"146":-0.7642815640873803,"147":-0.6877869463951823,"148":0.22540504581403067,"149":0.09787704687856998}},"20":{"bias":-0.47103613120087356,"weights":{"0":-0.15743657885995246,"1":-0.10531141027139952,"2":0.5344874580761387,"3":0.35207225357323213,"4":0.19427935826239162,"5":0.5588716625484107,"6":0.16983613794983657,"7":0.3504749931413117,"8":0.31300290840163986,"9":0.37700262560357234,"10":0.017819956574202073,"11":0.05050994871174321,"12":0.11192429557678273,"13":0.9168191429227517,"14":0.4616703114832138,"15":0.4146425097199416,"16":0.2840721438790339,"17":0.06170392939350366,"18":-0.10946588614804169,"19":0.014178820078210265,"20":0.1361458087746099,"21":0.14468995274985852,"22":0.1165503731476344,"23":0.748780398496586,"24":-0.441285538463076,"25":-0.051195891408423545,"26":-0.11475029077369583,"27":-0.14607518469864383,"28":0.07299179489404746,"29":-0.1895760168308312,"30":-0.0035037843781031714,"31":-0.28950653597020676,"32":0.24549360720577915,"33":-0.021980388445835306,"34":-0.5243450902281802,"35":-0.7929642137458798,"36":-1.2843294403672456,"37":-0.5635215237027004,"38":-0.6177354619763505,"39":-0.19345781888835284,"40":0.2638372533119902,"41":-0.29244924867269173,"42":0.2469040682569712,"43":-0.182798996765408,"44":-0.5943147782969355,"45":-0.39676102686252596,"46":0.10904154894203824,"47":-0.5456650751453268,"48":-0.5183828988943268,"49":0.19679117220501985,"50":0.17734854892946597,"51":-0.47205426105721976,"52":-0.461249601677025,"53":-0.510017678783358,"54":-0.42170801656644924,"55":0.04257441418500113,"56":0.5649114595416841,"57":0.3020464163747578,"58":0.39382387501898525,"59":-0.012372909971927585,"60":0.29015243974015054,"61":-0.2297621762633093,"62":-0.09302369510910675,"63":-0.3074643892389089,"64":-0.11838802592295014,"65":0.04887343649155834,"66":0.017686692246223868,"67":0.042782341022452375,"68":0.2667947972411649,"69":0.2900234579699311,"70":0.3968599491403227,"71":-0.2361926056513444,"72":-0.16384510195019694,"73":-0.0839060404666463,"74":-0.011101384393413353,"75":-0.006052044468863524,"76":-0.09496757029041543,"77":0.2961137848714953,"78":-0.012886027441639945,"79":-0.4720064701884283,"80":0.7224098162266895,"81":-0.10511329495108979,"82":-0.34577639637174745,"83":-0.134245711184407,"84":-0.2178123239711187,"85":-0.40240948145119776,"86":0.38582277877000737,"87":0.0892917084786712,"88":-0.30389205999761376,"89":0.08706875472989772,"90":0.25624585413007867,"91":-0.24628748302224665,"92":-0.08336324800979845,"93":-0.11709233020163207,"94":-0.15999888552926303,"95":-0.19867721358262136,"96":0.008056583967585471,"97":0.0502414671474172,"98":-0.31227447345153725,"99":0.09296672810501184,"100":-0.22716535770392612,"101":0.1534642901302144,"102":0.11466170673757342,"103":0.07425784657567415,"104":0.2589332333996066,"105":-0.15422083927049413,"106":-0.26990193625679115,"107":-0.2500227627596771,"108":-0.4901039534419906,"109":-0.2937140385834167,"110":-0.04848975352949399,"111":0.43341565327625914,"112":0.25748690080508524,"113":-0.06784103765816742,"114":-0.048196379699226875,"115":0.28616039944443,"116":-0.3833276452946923,"117":-0.40093345760529114,"118":-0.45301617663613186,"119":-0.23464794962632612,"120":-0.4052019020161722,"121":0.09871542261549313,"122":0.6370788171048312,"123":0.5618293400143365,"124":0.0863747137638353,"125":0.2011735608589137,"126":0.18376538947131477,"127":0.026926757518111924,"128":0.11004574853312447,"129":0.21636218033157403,"130":-0.2794320971949283,"131":-0.29166052239161366,"132":0.24411989715349056,"133":0.658932628971019,"134":0.47231962700212204,"135":0.5408836051550899,"136":-0.043707820487094096,"137":0.3246684401035184,"138":-0.2937642095775336,"139":-0.23307204481502786,"140":-0.01895414870283441,"141":0.03988617757909051,"142":-0.022424516628162052,"143":0.3502766275079187,"144":0.3256466929971228,"145":0.03476024296555741,"146":-0.3178561001768628,"147":0.17907360277945192,"148":0.2064255790619223,"149":-0.15646486834340745}},"21":{"bias":-0.6765940427716787,"weights":{"0":-0.031986502339836714,"1":-0.19091988505798868,"2":0.14127144996151847,"3":0.379264675364067,"4":0.4204587472909913,"5":0.426925424384628,"6":-0.044407842599604785,"7":-0.387113768440614,"8":-0.5192131688593069,"9":0.18614841656094577,"10":0.14286385735954252,"11":0.624042407865493,"12":0.6220323669031468,"13":0.7552049807480602,"14":0.6637099578576591,"15":0.3925230177664527,"16":0.23626654050995008,"17":-0.5441777099632324,"18":0.05547393026384733,"19":-0.9535296922326637,"20":0.3475233119083846,"21":0.011814390366796169,"22":0.36958316670146873,"23":0.12557774082928158,"24":0.01970275443629251,"25":-0.13933389546765435,"26":-0.41955958702562995,"27":-0.5997158555506162,"28":-0.6904071692339059,"29":-0.2575241304872588,"30":0.0703192099444907,"31":-0.1980619260189866,"32":-0.17064326915794573,"33":-0.09116298933136094,"34":0.06874267886614109,"35":-0.024671599907406177,"36":-0.10601669690121424,"37":-0.2933257252918199,"38":-0.5959154375584494,"39":0.2193249339672289,"40":0.08282638958272157,"41":-0.46215845221614565,"42":-0.6923977967312736,"43":-0.5177815254348549,"44":0.19466887214697537,"45":0.01940449618791095,"46":0.289019703866246,"47":-0.10800232666243159,"48":-0.5372967976808162,"49":-0.15666079246101366,"50":0.3147572805929206,"51":-0.24227022871105486,"52":-0.6883776090673039,"53":-0.30978722673471476,"54":-0.0873344664066406,"55":0.12424058260378296,"56":0.41348397828034444,"57":0.4397187905583446,"58":0.4561978602976106,"59":-0.06360353186629228,"60":0.44602673833275036,"61":-0.31143976204099594,"62":-0.10271240419848691,"63":-0.20314442170440133,"64":-0.4480796548322776,"65":0.1896110698040338,"66":0.4849954100939558,"67":-0.07408552500579123,"68":-0.1815018141744845,"69":0.7202349728624853,"70":0.11403607857076989,"71":0.10951641453105211,"72":0.018450899085650622,"73":0.1235045060524258,"74":-0.5749643335711282,"75":0.04622296050224268,"76":0.4059996849036295,"77":-0.0002870512860251389,"78":0.2080010446331325,"79":0.8971693985265005,"80":0.3277295436124378,"81":0.15502367181694687,"82":-0.04185977267119495,"83":-0.4025435612832313,"84":-0.7798922202185772,"85":-0.4537713378596869,"86":0.2615796527708824,"87":0.047345474537763894,"88":0.12483349673319827,"89":0.26799798789884643,"90":0.5803463720101277,"91":-0.18203761784834604,"92":0.19038176166765333,"93":-0.19485755295369867,"94":-0.5841502008181881,"95":-0.7068191977049535,"96":0.6028075506789505,"97":0.3614312294697213,"98":1.0015591679638072,"99":0.4198638379028325,"100":0.3010525192907942,"101":-0.21213120893235712,"102":-0.3003164327418558,"103":-0.14632469966177342,"104":-0.182715719749499,"105":0.042586534843516925,"106":0.045442161827786605,"107":0.6512985657065079,"108":1.3059490315593265,"109":0.6824298913204645,"110":0.11238683473231764,"111":-0.32166514506325855,"112":0.39638870222349604,"113":-0.5492055718395186,"114":-0.36354805527945605,"115":0.3047410779752854,"116":0.24526711787240796,"117":0.6655382228350787,"118":0.6835449456697179,"119":0.10684206970347714,"120":0.23918171675192013,"121":0.19123858051855477,"122":0.13292102522192797,"123":0.1618768348402761,"124":0.37294816273269366,"125":0.30140491151045706,"126":-0.22461156977759594,"127":0.23522988022810187,"128":0.5966715573295361,"129":0.5253396938514602,"130":-0.4277373979556089,"131":-0.4663966000680006,"132":0.19916204381926092,"133":-0.021839152914096015,"134":0.037505256000470756,"135":-0.09400874905139894,"136":0.42984470137605857,"137":0.49379802144848556,"138":0.8653470766668718,"139":0.548503233832275,"140":-0.21389260234009758,"141":-0.23693827045429558,"142":0.12157579716922022,"143":0.09926577197301942,"144":-0.2820567225972295,"145":-0.1909319749299252,"146":-0.32775645273921755,"147":-0.2184987177160246,"148":-0.2582424586621299,"149":0.18567012455000373}},"22":{"bias":0.3086351750546991,"weights":{"0":0.2513681363781083,"1":0.13207426415666149,"2":-0.1673141301918276,"3":0.12516715398365488,"4":0.10101956425383797,"5":-0.15283102734354734,"6":-0.05231465388893158,"7":0.06476709131106144,"8":0.24566798557278344,"9":-0.16549410041409443,"10":-0.24288846787083626,"11":-0.13390952713254728,"12":0.17145851299966847,"13":-0.2361616586581095,"14":-0.6355353216191386,"15":-0.42868904276208525,"16":-0.5968388840216324,"17":0.15361147975113731,"18":-0.3163617685111535,"19":-0.15753660561879163,"20":-0.028061194781460207,"21":-0.09783996261206472,"22":-0.37285156355762306,"23":-0.20654677739547597,"24":-0.4434693503005012,"25":-0.22551375990157047,"26":-0.44508489948835195,"27":-0.49794414262719255,"28":-0.0537284554964372,"29":0.15080802620746916,"30":-0.2756203121615119,"31":-0.24160341786659112,"32":0.1326698559333843,"33":-0.2961909829702558,"34":-0.019189141400785193,"35":0.036735326475023276,"36":-0.10245641245642774,"37":-0.4050351423763676,"38":-0.33997961839440566,"39":-0.3756584828404783,"40":-0.33816039910270596,"41":-0.332652979643804,"42":0.08244530835720398,"43":0.29179137865161225,"44":-0.360484591927466,"45":-0.12767748395251474,"46":-0.02265858766692622,"47":-0.5116449245571173,"48":-0.3786541887426638,"49":0.02603082655605901,"50":-0.3046039666979538,"51":-0.32577261806532326,"52":0.061371300792828966,"53":-0.17520265442501345,"54":-0.1728319957990107,"55":-0.3112260460849668,"56":0.17803939909087732,"57":0.1746980238992938,"58":-0.24228855635048469,"59":-0.30818767177479006,"60":0.027503327181313632,"61":0.32337529251975294,"62":-0.404962233907069,"63":-0.4553769957002576,"64":-0.06400079104476189,"65":-0.5639615488484775,"66":0.4123266780728677,"67":0.3169845561003086,"68":0.06101008179924528,"69":-0.2895973501711529,"70":-0.10387841014866572,"71":-0.2691894022454559,"72":-0.6456592439211907,"73":-0.4513521822791518,"74":-0.24725699837123677,"75":-0.601242617940324,"76":-0.0938751306345477,"77":0.30490237780760776,"78":-0.06227484471021637,"79":-0.07541247285318402,"80":-0.20990518548990356,"81":-0.5279770992644132,"82":-0.055685833095432194,"83":0.150980191429089,"84":-0.6809208244999887,"85":-0.4004883453760157,"86":-0.3210921230029586,"87":0.1668305317155059,"88":0.0013135721188871107,"89":-0.0632935316060983,"90":-0.3036977542632375,"91":0.24125045022137653,"92":-0.3661823033218724,"93":-0.2610668859412127,"94":-0.6015421553816968,"95":-0.330903410077743,"96":-0.27372479094287805,"97":0.331447616802682,"98":0.2057377724222973,"99":0.05449452674989897,"100":0.17933195714936595,"101":0.33424636518161266,"102":0.02973372111507715,"103":0.2792774762054286,"104":-0.31756068677726546,"105":-0.6848368346337643,"106":-0.4465257123267348,"107":-0.11295213851883512,"108":0.251256955985736,"109":-0.06600960964990779,"110":0.29197992168886105,"111":0.6377550027999821,"112":-0.01625487208402294,"113":0.6587230273866572,"114":-0.08845982678140824,"115":-0.25977790857876915,"116":-0.0771394810493545,"117":0.09841233817938949,"118":0.2457102704706847,"119":-0.1913099111782293,"120":0.41565554827548096,"121":0.3379460538194985,"122":0.7447374168227545,"123":0.5498193177352646,"124":0.33535734444392146,"125":-0.42508512072045873,"126":-0.17827037292993633,"127":0.033010141656569326,"128":0.2252864795357885,"129":-0.19165510537537456,"130":0.5208017473930548,"131":0.9897641243517312,"132":0.5824653918013017,"133":0.3939569463466375,"134":0.4856194481533672,"135":0.26139387569653466,"136":0.3030761027151807,"137":0.6413669911478477,"138":0.20208417496027983,"139":-0.17664764400622734,"140":-0.31280222709936056,"141":0.5421435239300533,"142":0.32170061865199745,"143":0.16183288396796605,"144":0.09396719346795002,"145":0.40307145890196083,"146":0.4110469735967475,"147":0.11677994450314613,"148":-0.23786541509421655,"149":-0.0520769939684391}},"23":{"bias":-0.264123807718412,"weights":{"0":-0.44770091919797345,"1":-0.12257333955310099,"2":-0.6625322107630742,"3":-0.010406238197423286,"4":0.3023092672047994,"5":0.3820348467150099,"6":0.060287481936765336,"7":0.13736762881350484,"8":-0.1259780277193446,"9":-0.1797461856120541,"10":-0.06667959954706668,"11":0.2548560762763809,"12":-0.048906839487714994,"13":0.3979106492672521,"14":0.000244531225434565,"15":-0.02049822502462859,"16":0.11465394945286578,"17":-0.04891183000931638,"18":-0.12741548576988,"19":0.14507479040846938,"20":0.15907003899411776,"21":-0.11739768791379426,"22":0.34710487344168806,"23":-0.2868721472352107,"24":0.11118234604460375,"25":0.16062469399935383,"26":-0.310486184230172,"27":-0.23893212620013882,"28":-0.04838031220382032,"29":0.30001346586438443,"30":0.13107630565062012,"31":0.16446703666417886,"32":0.4720237854975974,"33":0.6324495403881242,"34":0.13369352914646723,"35":0.02763378877338802,"36":0.3188624560543331,"37":0.4309015603925427,"38":0.4828686979009548,"39":-0.22314309381321332,"40":0.27825178608179735,"41":0.02570052363918909,"42":-0.3972550158289375,"43":0.00648143281814838,"44":0.06641448305364536,"45":0.2801098704950678,"46":0.5467699122082491,"47":0.34520849992176345,"48":-0.37573089711772617,"49":-0.10891763697422235,"50":0.06641478955426212,"51":-0.46915937423154,"52":0.38439873744974445,"53":-0.45115944362205695,"54":0.20020595030807908,"55":0.3255973838024251,"56":0.4419258390646881,"57":0.48442366694342576,"58":-0.20850175492638945,"59":-0.4400995999625983,"60":-0.21488034153677923,"61":-0.25699216810873315,"62":-0.11760167431297844,"63":0.0729005103729436,"64":0.026541310938944514,"65":0.6631617450516851,"66":0.33853678396508896,"67":0.23390284467890637,"68":-0.15095917965125125,"69":-0.4119633177470885,"70":0.1478741397265776,"71":0.31352484003646586,"72":0.24579269632864292,"73":-0.08717338926785492,"74":0.27941123746838964,"75":0.3127776211674706,"76":0.04837111414950098,"77":0.36259806779184967,"78":-0.2371084490136811,"79":-0.4496478569609694,"80":-0.131872190168758,"81":0.3478929326879353,"82":0.236321770255213,"83":-0.2518995479556388,"84":0.3049001525689975,"85":0.6446253762236409,"86":-0.0943477613278807,"87":0.33249001434814957,"88":-0.26990677871784685,"89":-0.4989094286263269,"90":-0.0629128741144543,"91":-0.10602045972736111,"92":0.27197453426667195,"93":-0.18607445917288495,"94":0.11872189839188375,"95":0.38723621051358226,"96":0.22711887449786186,"97":0.07216115139973277,"98":-0.5653176955822807,"99":-0.5464644462977478,"100":0.14563731183314368,"101":0.21622866097304824,"102":0.14323042563866478,"103":0.0026552672279211973,"104":0.5947298990709832,"105":0.10475125126461497,"106":-0.038213141787362945,"107":-0.38954035873978105,"108":-0.4984006145645605,"109":-0.5621503184413162,"110":0.04911770219670164,"111":-0.03787824409424418,"112":-0.01701156228746755,"113":-0.3621372503702791,"114":0.21251384625483552,"115":0.2128835563990025,"116":0.18904311753285655,"117":-0.1653621331143028,"118":-0.2252250222224217,"119":-0.48642652317727936,"120":0.5399656781314486,"121":0.24788595778292583,"122":-0.6388850945115734,"123":-0.616438689368567,"124":-0.2989211712725061,"125":-0.04532263579126121,"126":-0.029536698169834816,"127":-0.2848739127016815,"128":-0.3136805660584326,"129":-0.3109383915407315,"130":0.03721219266506466,"131":0.2629230785055388,"132":-0.09245451793686739,"133":-0.3432346651154135,"134":-0.6588765950778092,"135":-0.35926896868328373,"136":-0.22693425049340923,"137":0.21903840272710456,"138":0.15353247576566412,"139":-0.2748841010295637,"140":0.23375530329127525,"141":-0.38769907844024293,"142":-0.44321417404149144,"143":-0.607045361865103,"144":-0.6330781636798696,"145":-0.6122274606805753,"146":0.002413910457064109,"147":-0.07049982851939017,"148":0.13005881358512267,"149":-0.011805777705941174}},"24":{"bias":-0.04889797036416431,"weights":{"0":0.19966164750872153,"1":0.2045145496640254,"2":0.06553795548145902,"3":-0.3350270449449139,"4":-0.10246603836514935,"5":0.1247455631658018,"6":0.26171717391649374,"7":0.6019971347363893,"8":0.4603332689523857,"9":-0.08497557006496889,"10":0.21925436685914493,"11":0.377866760042629,"12":0.050120126846633924,"13":-0.5731528830382635,"14":-0.2888079344934283,"15":0.06836110210052623,"16":-0.006142403817395002,"17":0.35471806307379383,"18":0.8523981942839314,"19":0.1255741858545231,"20":-0.045290238306544085,"21":0.575629879885797,"22":0.07737048260260036,"23":0.06523768033585405,"24":-0.12712442844321437,"25":0.5389589525408138,"26":0.3908304531707137,"27":0.5939507034108179,"28":0.3000652450845693,"29":-0.4104028611203626,"30":0.2949928142076184,"31":0.5231306684904466,"32":-0.11382420833018063,"33":0.039716904109143476,"34":-0.266993824251419,"35":-0.28003527440923504,"36":0.12210130021138217,"37":0.07755034541865649,"38":-0.10781515142328499,"39":-0.41269599326990436,"40":0.9317586978848806,"41":0.38558904205968514,"42":0.021222911884828093,"43":0.12094022659330758,"44":-0.3528395634530552,"45":-0.31882979767152375,"46":-0.033531788196902425,"47":-0.3403462444700714,"48":0.10585484924050877,"49":-0.08367294943939456,"50":1.0541818095067317,"51":-0.13142162755553538,"52":0.3535684610617065,"53":-0.14197244157829902,"54":-0.3927653344033404,"55":-0.4282274896466651,"56":-0.1463893682267166,"57":-0.45553004821826293,"58":-0.7659160677686706,"59":-0.3769892424458265,"60":0.4385247427937186,"61":-0.3228135409343749,"62":-0.09863843520352376,"63":0.20665181379181155,"64":-0.057178564632852785,"65":0.5771860046400823,"66":-0.3291858425624625,"67":-0.5405418406642557,"68":-0.11404142180136735,"69":-0.3763571594977381,"70":0.08600165187656254,"71":-0.17304147715691132,"72":-0.04359146613436972,"73":-0.23510747001059923,"74":0.07650890821877182,"75":0.052364683494072084,"76":-0.15729370042610344,"77":-0.19342345337450279,"78":-0.19840406256457557,"79":0.1646534620883857,"80":0.10818859345347687,"81":-0.78451091487645,"82":0.3921108378876417,"83":-0.2500589644331149,"84":0.3886526742006976,"85":0.023187896083455332,"86":-0.4251437138848681,"87":-0.3627201428596344,"88":-0.47264368717590244,"89":0.06618108994828727,"90":-0.7375118360893788,"91":-0.7833212165678695,"92":0.21134866781548817,"93":-0.2913441784482387,"94":0.2856439106846492,"95":-0.09138409233018877,"96":-0.5287470916852114,"97":-0.34260839974387003,"98":-0.42241487213675416,"99":0.37380644294235654,"100":-0.27415869945136584,"101":-0.24163156200586067,"102":0.0699214124772349,"103":0.16397106327655986,"104":0.06145154916395226,"105":-0.34879797713330385,"106":-0.5474206825721568,"107":-0.22169655706042893,"108":-0.17173511993544593,"109":0.2416173222836662,"110":-0.3745700355626781,"111":0.17917899060766765,"112":0.277293564420979,"113":0.6019388581498848,"114":0.13219971899917873,"115":-0.2778043995569263,"116":-0.14638286439455186,"117":0.05077308684055078,"118":0.16131142564889203,"119":0.3119846038417079,"120":-0.8523864053577987,"121":-0.16360448184418577,"122":0.17996394613453187,"123":0.32143960313124936,"124":-0.09905108569382279,"125":0.06695646591949023,"126":0.004921174422178892,"127":-0.1913533118220399,"128":0.37633744697112503,"129":0.16850725681778536,"130":0.23536631086688697,"131":0.12801759775814572,"132":-0.3635584329708303,"133":-0.39571737918569155,"134":-0.25561687086112533,"135":0.45508255974962925,"136":0.03866410209435071,"137":0.6449786627631573,"138":0.17749414705597122,"139":-0.46964454074831763,"140":-0.08299066329302981,"141":0.26962230755684063,"142":-0.21878669128918676,"143":-0.37080272844969325,"144":0.17376661522431047,"145":1.1383104828677064,"146":0.3586061478309095,"147":0.778336851172418,"148":0.19800110786476674,"149":0.30512570654203036}},"25":{"bias":0.35717756675546425,"weights":{"0":0.21902557918438895,"1":-0.04778458525759357,"2":0.30734900385447067,"3":-0.29690383853414554,"4":-0.20194352164020665,"5":-0.33964162705082934,"6":-0.35275747865422347,"7":0.2981941232099332,"8":0.21422957531618908,"9":0.01885229759740112,"10":0.04140779829924272,"11":0.18760368114042925,"12":0.013266099877542764,"13":0.3275555791024506,"14":-0.27197682643951904,"15":-0.34062488175362987,"16":-0.1528403505306206,"17":-0.23214135534481303,"18":-0.08560104644083442,"19":0.025427589110462334,"20":-0.016520177344163316,"21":-0.45091280678546936,"22":0.15027355018189062,"23":0.33506185033834157,"24":0.35204658958312435,"25":-0.03784915695658209,"26":-0.29244818337682393,"27":0.21240406281733729,"28":-0.3240432867004816,"29":-0.002627983964117167,"30":-0.02454648609888694,"31":-0.11981683239003713,"32":-0.003588553603760642,"33":0.2399015610046323,"34":0.6071274573924289,"35":-0.01155182217062614,"36":-0.2651342932337535,"37":-0.391426599504565,"38":-0.23412197933226442,"39":-0.20670503534327114,"40":0.13761322590228045,"41":0.11486327297916794,"42":0.0018747102963502704,"43":0.026212955204097877,"44":0.09708994920601594,"45":-0.0737227534979228,"46":-0.29507389893651503,"47":-0.05375701964371265,"48":-0.2439781692896688,"49":-0.16440105659361462,"50":0.1332402333198298,"51":0.20307269106775794,"52":-0.12440710679798263,"53":0.24216900647673206,"54":0.1083534652299081,"55":0.08980047603430227,"56":0.2557676078114571,"57":0.0675845451800236,"58":0.03469927325972352,"59":0.09841396793785902,"60":0.4127737023035617,"61":-0.07306552598475748,"62":-0.27218999237514263,"63":0.13034117832458197,"64":0.03662055872090545,"65":0.01104083067056879,"66":0.20538301034128645,"67":-0.1467441117512103,"68":-0.0165087328613162,"69":-0.17403188759550084,"70":0.4511224653990955,"71":0.05006876628106344,"72":-0.27604815435328756,"73":-0.19180690066438894,"74":-0.3117512364263058,"75":0.01810719229523962,"76":-0.004728382259786048,"77":0.39518895815719984,"78":0.02024201530200165,"79":0.0282334823380147,"80":0.38544564036804524,"81":0.1770269614656264,"82":0.4220031411955686,"83":-0.5650869566790033,"84":-0.290852743483752,"85":-0.19913766758125886,"86":0.305415891473639,"87":0.27910756448364943,