{"test":{"test_case":967,"pass":865,"percent_recognition":89.45191313340227,"detail":[{"charecter":"a","percent":86.11111111111111},{"charecter":"b","percent":100},{"charecter":"c","percent":87.09677419354838},{"charecter":"d","percent":91.8918918918919},{"charecter":"e","percent":78.78787878787878},{"charecter":"f","percent":78.57142857142857},{"charecter":"g","percent":91.42857142857143},{"charecter":"h","percent":85.71428571428571},{"charecter":"i","percent":97.05882352941177},{"charecter":"j","percent":97.5},{"charecter":"l","percent":86.8421052631579},{"charecter":"k","percent":79.16666666666666},{"charecter":"m","percent":93.33333333333333},{"charecter":"n","percent":93.54838709677419},{"charecter":"o","percent":92.5},{"charecter":"p","percent":88.09523809523809},{"charecter":"q","percent":91.17647058823529},{"charecter":"r","percent":96.42857142857143},{"charecter":"s","percent":94.73684210526315},{"charecter":"t","percent":76.59574468085107},{"charecter":"u","percent":94.44444444444444},{"charecter":"v","percent":92.85714285714286},{"charecter":"w","percent":95.23809523809523},{"charecter":"x","percent":88.09523809523809},{"charecter":"y","percent":92.3076923076923},{"charecter":"z","percent":85.36585365853658}]},"net":{"layers":[{"0":{},"1":{},"2":{},"3":{},"4":{},"5":{},"6":{},"7":{},"8":{},"9":{},"10":{},"11":{},"12":{},"13":{},"14":{},"15":{},"16":{},"17":{},"18":{},"19":{},"20":{},"21":{},"22":{},"23":{},"24":{},"25":{},"26":{},"27":{},"28":{},"29":{},"30":{},"31":{},"32":{},"33":{},"34":{},"35":{},"36":{},"37":{},"38":{},"39":{},"40":{},"41":{},"42":{},"43":{},"44":{},"45":{},"46":{},"47":{},"48":{},"49":{},"50":{},"51":{},"52":{},"53":{},"54":{},"55":{},"56":{},"57":{},"58":{},"59":{},"60":{},"61":{},"62":{},"63":{},"64":{},"65":{},"66":{},"67":{},"68":{},"69":{},"70":{},"71":{},"72":{},"73":{},"74":{},"75":{},"76":{},"77":{},"78":{},"79":{},"80":{},"81":{},"82":{},"83":{},"84":{},"85":{},"86":{},"87":{},"88":{},"89":{},"90":{},"91":{},"92":{},"93":{},"94":{},"95":{},"96":{},"97":{},"98":{},"99":{},"100":{},"101":{},"102":{},"103":{},"104":{},"105":{},"106":{},"107":{},"108":{},"109":{},"110":{},"111":{},"112":{},"113":{},"114":{},"115":{},"116":{},"117":{},"118":{},"119":{},"120":{},"121":{},"122":{},"123":{},"124":{},"125":{},"126":{},"127":{},"128":{},"129":{},"130":{},"131":{},"132":{},"133":{},"134":{},"135":{},"136":{},"137":{},"138":{},"139":{},"140":{},"141":{},"142":{},"143":{},"144":{},"145":{},"146":{},"147":{},"148":{},"149":{}},{"0":{"bias":-0.22319375572978892,"weights":{"0":0.35211948294914613,"1":-0.0466170219857886,"2":-0.31405569055920185,"3":-0.29764102698742734,"4":-0.1960892982417619,"5":-0.09191908047813749,"6":0.446979618072222,"7":0.30837204587901035,"8":0.008351159525335878,"9":0.05533347083700794,"10":0.16567780524909814,"11":0.14979198516204636,"12":0.17099833977752463,"13":0.2488106160385784,"14":-0.11206607512506743,"15":-0.08396192519596658,"16":-0.11862001066091303,"17":0.17564073863645682,"18":0.24957804870530326,"19":-0.029057510858335252,"20":-0.07333129173509116,"21":0.0685801944998191,"22":0.25722155143410913,"23":0.5677918558330264,"24":0.15236400970950603,"25":0.44248296724311864,"26":0.4896629303081849,"27":0.23128875097540175,"28":0.4638033993601673,"29":0.03122419764082574,"30":-0.10149151384317583,"31":0.0765434416521624,"32":0.10956531006452111,"33":1.0089160804869557,"34":0.6155945633566794,"35":0.07808568018717914,"36":0.7991726263069928,"37":0.40581357614512015,"38":0.25712392604320017,"39":0.6607801793431611,"40":-0.10964082943139944,"41":0.12827462862685332,"42":0.44700003763368723,"43":0.6024853678368766,"44":0.19222667369141652,"45":0.5876539254397732,"46":0.007036026203296015,"47":0.20717676125839532,"48":0.7021048426595344,"49":0.16608167518909933,"50":-0.10262265747273758,"51":-0.02390777513238907,"52":0.5318165516725228,"53":0.2184533568033364,"54":-0.05284062679939947,"55":-0.4574502836079736,"56":-0.0757333306883238,"57":-0.26531294215242424,"58":0.3523418729629629,"59":0.5360833831512319,"60":-0.2306967599501471,"61":-0.12451202684411034,"62":0.046802746397961136,"63":0.19900444342795498,"64":0.017503281475078753,"65":-0.8358120948722966,"66":-0.17753625348807725,"67":-0.5366483854599959,"68":-0.26551531614271884,"69":0.2282008141036359,"70":-0.19802855713711884,"71":-0.3460681313990612,"72":0.03611462881118959,"73":0.33439087538124723,"74":0.10509983385097951,"75":-0.34109796296441847,"76":0.01811227290860163,"77":-0.29945975948320036,"78":0.11107705601563593,"79":0.4839739163450635,"80":-0.18545177545260846,"81":-0.955895745191088,"82":0.07887196026066544,"83":-0.1621427286151642,"84":0.27218892022724345,"85":-0.7207808901775055,"86":-0.21106512958680407,"87":0.10043367586124174,"88":0.37507706678544633,"89":0.6730537326127207,"90":-1.1572708184517768,"91":-0.4248701343940503,"92":-0.24911300833993788,"93":-0.4000171494325866,"94":-0.19268494766221955,"95":-0.34067170083065257,"96":-0.20585209872150445,"97":-0.2529457849245824,"98":0.7234294900391627,"99":0.593999710846985,"100":-0.06188438272393435,"101":-0.5217674424649806,"102":-0.47169199728855904,"103":-0.6072601652278538,"104":-0.8460273309681139,"105":-0.3660183109907639,"106":-0.5334114765427387,"107":0.1468519125123299,"108":0.21286274379799336,"109":0.5902894623591566,"110":-0.2973888734583574,"111":-0.0015155104710649434,"112":0.3126401517907502,"113":-0.5833166491942406,"114":-0.39880265617920524,"115":-0.6085067764755925,"116":0.6112085985659903,"117":0.27539090147755224,"118":-0.1208761849991614,"119":0.26111948808876045,"120":0.08148698079253489,"121":0.19871436937118225,"122":-0.2054817438826315,"123":-0.9415200728561927,"124":-0.6001900906781696,"125":0.0810231851291448,"126":0.14590751556818127,"127":0.20854956239885666,"128":0.16170728301776852,"129":-0.2489070666787102,"130":0.7670809187512447,"131":0.02298768367101909,"132":-0.32881052845380204,"133":-1.249076149461703,"134":-0.9600816391582359,"135":-0.020319123716304746,"136":1.0068366203896195,"137":-0.022317469818277327,"138":0.3229590462113803,"139":-0.10121002239366014,"140":0.07352270415137895,"141":0.4404520686027499,"142":-0.18170624494018217,"143":-0.6975774235303157,"144":-0.9186260711133594,"145":0.1928235417483911,"146":0.9975605187475183,"147":0.2868688450211161,"148":0.12857450155863212,"149":-0.23423767041224636}},"1":{"bias":-0.11243269604776486,"weights":{"0":0.09235892066165903,"1":0.1541053715633181,"2":0.3531435353440667,"3":0.12058135175482798,"4":-0.20852342163372245,"5":-0.08035989887181172,"6":-0.05710467952356384,"7":0.28609384498800766,"8":-0.19842915537510344,"9":-0.35332041617672194,"10":-0.23782230811510682,"11":0.53800111137029,"12":0.41874521887177196,"13":0.5734295579473904,"14":-0.3843360287695671,"15":-0.5428958794823886,"16":-0.48218209058017497,"17":-0.08615842184579035,"18":-0.13339478977933505,"19":-1.3946134755434894,"20":-0.04886409013590339,"21":0.48604203464765755,"22":0.3624861379622234,"23":0.8401843884609884,"24":-0.1203278719496882,"25":0.39916307480387514,"26":-0.09493658139664729,"27":-0.7356901642020949,"28":-1.0099829239603406,"29":-0.7565126831609488,"30":0.32494220188956396,"31":-0.4390179076680286,"32":0.26911468235856834,"33":0.684842153640753,"34":0.3056744301876272,"35":0.3107156390095084,"36":-0.35007748350688334,"37":0.05701887442142594,"38":-0.8378175535866981,"39":-0.5457105847905734,"40":0.48226625435826204,"41":0.11197330971332602,"42":-0.21489310932646868,"43":0.598976619112526,"44":-0.18828184092927178,"45":0.2080267040441605,"46":0.2889879908025046,"47":0.4403843688242341,"48":-0.09942535905722358,"49":-0.34957778492227076,"50":1.109996242330189,"51":0.3440729491277947,"52":-0.17803254993860543,"53":-0.327038060032056,"54":-0.07645946256419368,"55":-0.05239644397684074,"56":0.3216473268996473,"57":0.3526236269681127,"58":0.5853004212317982,"59":0.15302240686966345,"60":1.2921964052054775,"61":0.3160586781015438,"62":0.14159021835689725,"63":-0.385539071020546,"64":0.23052959701469267,"65":-0.5475811137855922,"66":0.196802538181344,"67":0.09548121683946528,"68":0.326613321049085,"69":0.28134487006873954,"70":0.3901638300204572,"71":0.2884279619831757,"72":0.028635493323271196,"73":-0.5221828302749019,"74":0.012782940702364257,"75":0.04731261024960546,"76":0.27316041539459374,"77":-0.1568037164449382,"78":0.35250059787883103,"79":0.7952986512209383,"80":0.623730765837648,"81":0.2774751844759934,"82":-0.1634742715766815,"83":-0.543029097320433,"84":-0.06764722201498863,"85":-0.5437372840847562,"86":0.32194488416735567,"87":0.10884428373297401,"88":0.12798941228577002,"89":0.9132075698881941,"90":0.01638501139920075,"91":0.01740889651762845,"92":-0.08641570897928356,"93":-0.2321187313343266,"94":-0.17779997613538673,"95":-0.32912188660133024,"96":-0.14531394887784205,"97":-0.08917126407443035,"98":-0.2609189167882784,"99":0.6160781013435879,"100":-0.6673459982590062,"101":-0.6311249298478468,"102":-0.31929079753317,"103":0.27158195999587487,"104":0.1292233878748621,"105":-0.3919337817064405,"106":-0.11276669065580605,"107":-0.5183659297454177,"108":-0.24814345375232275,"109":0.43175029229909173,"110":-0.8134720994746114,"111":-0.4417904494485302,"112":-0.27540796849469473,"113":-0.3210591158779068,"114":-0.4232948758304347,"115":-0.26770274907934843,"116":-0.7127237865293071,"117":-0.31888753729648833,"118":0.09360242324147733,"119":0.28768428988098854,"120":-0.5055896359577798,"121":-0.37702636584851784,"122":-0.22987623300867582,"123":-0.32446858057806016,"124":-0.115594381658809,"125":-0.02439430158300182,"126":-0.19589561412717857,"127":0.6329938207478123,"128":0.8628762068671761,"129":0.3313814338488555,"130":-0.6629088897252854,"131":-0.9427434017453291,"132":-0.2187696007394751,"133":0.37060369679960686,"134":0.4589329084692321,"135":0.08729892446407303,"136":0.35664677197709516,"137":0.5275482267292009,"138":0.30498801097225436,"139":-0.2586782371565761,"140":-0.4111291539598602,"141":-0.6518097316959318,"142":0.18640450806080128,"143":0.09320926967326551,"144":0.232214817264796,"145":0.7033563199263183,"146":-0.051357966304714675,"147":0.09000311812147702,"148":-0.017533210689096225,"149":-0.13645349494817607}},"2":{"bias":-0.21459604875242666,"weights":{"0":-0.4425384618648258,"1":-0.46824207407587776,"2":-0.04006739736583295,"3":0.4896697977996056,"4":0.4663756064018864,"5":0.3207918502599375,"6":-0.24903038014579576,"7":0.24820772635797517,"8":0.03395233732249444,"9":-0.2617429849439353,"10":-0.3895173301897364,"11":0.0580509182768744,"12":0.21077516101770263,"13":0.6055685549030201,"14":0.34645211178638435,"15":0.05494227753820589,"16":-0.006885793719357214,"17":-0.05068956647080828,"18":-0.037916520165037895,"19":0.03244049514234719,"20":-0.3039381736619353,"21":-0.03216945902704445,"22":0.04651713371185043,"23":-0.25455280288635684,"24":-0.44461731851305447,"25":-0.3951841615928266,"26":-0.2405236787110617,"27":0.266061308936703,"28":0.11880254444473554,"29":0.27915272661707774,"30":-0.027915518195258195,"31":-0.7830057817762367,"32":-0.036214702245438296,"33":-0.16409288836457192,"34":-0.4742309916399501,"35":-0.48737440117359615,"36":0.02138483101985974,"37":0.1842944685891115,"38":0.1242835148570183,"39":0.19544889223085815,"40":0.506762575234846,"41":-0.9098754861037158,"42":0.3706330383771234,"43":-0.4771467235926386,"44":-0.3364587732902589,"45":-0.2422293023031575,"46":0.6482952139637765,"47":-0.04001137265632529,"48":0.17214283260610946,"49":0.2668905471509325,"50":0.08322410761624538,"51":-0.48592405821718354,"52":-0.13133214830292092,"53":-0.22652605409735774,"54":-0.2683243801679881,"55":-0.11957474871023019,"56":1.1815752177429246,"57":0.20778546522548208,"58":0.6067856081538697,"59":0.42094916890801565,"60":0.03126174202860726,"61":0.12828460329287683,"62":-0.12639685356899708,"63":0.00740813378015735,"64":0.04197055383653479,"65":0.28218925806017836,"66":0.8340098506496403,"67":0.3296616897595824,"68":0.6793153956681612,"69":-0.051551477190916475,"70":-0.7497171679377705,"71":0.164196255851021,"72":-0.15596445632196462,"73":0.05101488229071695,"74":0.20563332763037717,"75":0.5237081905329333,"76":0.12651859453424583,"77":0.8671377110419856,"78":-0.06475291629454102,"79":-0.23653549759213618,"80":-0.27210884712241107,"81":-0.22629222494237664,"82":-0.16733288774368388,"83":0.11031314293795622,"84":0.2857411736268799,"85":0.1496322237255389,"86":0.4585989951456212,"87":0.2182962866795531,"88":-0.37943494751077483,"89":-0.3304541142024321,"90":-0.5256796880716215,"91":-0.5355744002964137,"92":0.5677143596254547,"93":0.341804443051024,"94":0.003014372139542819,"95":0.23001992944437633,"96":0.6456810310833977,"97":0.19913345655477505,"98":0.3300670242283261,"99":-0.033621890833644745,"100":-0.002693893761944945,"101":-0.01859266172653616,"102":0.09953665220168663,"103":0.5543019228098016,"104":0.22031236933801512,"105":0.10901457936928104,"106":0.47792530297640956,"107":0.05508474542155975,"108":0.16346562793638947,"109":0.02050705445859536,"110":-0.4208377385024619,"111":-0.011217710710074743,"112":0.03634980177846969,"113":-0.3046457178247009,"114":-0.7307569728562499,"115":-0.1782708536700049,"116":0.3984551721418388,"117":0.11193886966938507,"118":-0.045460384326085214,"119":-0.15057606353801484,"120":0.4853250060653681,"121":0.22560051768036163,"122":-0.6227766815323902,"123":-0.6913363283813834,"124":-0.3906313760269671,"125":-0.6191242214572916,"126":-0.4285850084517219,"127":-0.7127199195952977,"128":-0.25803377750946555,"129":-0.529721117599564,"130":0.06289972402855079,"131":-0.28061351527264966,"132":-0.7299579779917965,"133":-0.38118672540780424,"134":-0.08595246535569952,"135":-0.48477347102504165,"136":-0.8962403505525417,"137":-0.8721900462755506,"138":-0.09495284567946317,"139":-0.09056578232118039,"140":-0.11047245196069952,"141":-0.35663650907049343,"142":0.1461005027741481,"143":0.5656416231644901,"144":-0.22948578726780103,"145":-0.7024835789112586,"146":0.08542786964008865,"147":0.16668273926257685,"148":0.12054006566450362,"149":0.26508269090910325}},"3":{"bias":-0.12245091027958965,"weights":{"0":-0.21685579818837641,"1":-0.26227826463530285,"2":-0.34526221992749223,"3":-0.1812678279524674,"4":0.1713859244260047,"5":0.3832118444253168,"6":-0.04920846675814758,"7":-0.3562971095675807,"8":0.08098603273462322,"9":-0.6434752604511632,"10":-0.06698117881144351,"11":-0.19095062780940905,"12":-0.526297570732367,"13":-0.36235394184419556,"14":0.2256428078575375,"15":0.44341149239189404,"16":0.16002100060951335,"17":-0.09909061294290597,"18":0.060964046956359895,"19":-1.0250875156398382,"20":0.08304488891122379,"21":-0.20145561759519948,"22":-0.17884082774484805,"23":-0.7452357131226481,"24":-0.1947986110937642,"25":-0.308101860773565,"26":-0.4439404548384984,"27":0.028586418064910617,"28":0.3208439344155943,"29":-0.29808728028740983,"30":0.1366646612325848,"31":-0.18727719827961484,"32":0.12211419409563902,"33":0.050516227761250906,"34":-0.2582593262537439,"35":-0.1292125113540419,"36":0.7600966998844402,"37":0.0656214809695909,"38":0.04313529476621899,"39":0.28862794608030506,"40":0.17215910150436267,"41":0.31162250453598395,"42":-0.023037664887062173,"43":-0.23826813825286045,"44":0.19180191187437834,"45":-0.09179517330668753,"46":0.5789105320062413,"47":-0.45642747970245107,"48":0.041105578554072784,"49":0.310072506629074,"50":-0.2459774475648172,"51":-0.2532152276869619,"52":-0.1931977563224125,"53":0.1966325571280437,"54":-0.3872764276363453,"55":0.061397763277873475,"56":0.024007449745184064,"57":-0.08539695580048132,"58":0.15173696003573606,"59":-0.2988113179774802,"60":-0.42769674829279825,"61":-0.4174990805331306,"62":-0.17810428115167706,"63":0.2811632150496768,"64":-0.043862750652745405,"65":0.27372372479621127,"66":-0.3608124653185248,"67":-0.3045034495658425,"68":-0.04306474920156714,"69":-0.3344821759741498,"70":-0.1752588232363981,"71":-0.6164796353707972,"72":0.030869349183266916,"73":-0.019119552259210387,"74":-0.056347222656425534,"75":-0.2825975838835461,"76":0.574495734130437,"77":0.19496231740875308,"78":-0.4556770031009764,"79":-0.2640020160206844,"80":-0.22776820581188828,"81":-0.3075720908569796,"82":0.45162407748655137,"83":-0.13418570078547468,"84":0.2506524892215135,"85":0.35330760155579977,"86":-0.12208194898013625,"87":-0.36140408779201216,"88":-0.4689919801310598,"89":-0.16630389027416445,"90":0.2576259112530921,"91":-0.22651535605442455,"92":0.8029108324482699,"93":0.8294196504164304,"94":-0.046950613467930745,"95":0.22250072097343693,"96":0.28160372393203337,"97":-0.11111218583805571,"98":-0.28209940221977214,"99":0.03431899629444907,"100":1.089432261471801,"101":0.509828275043415,"102":0.282823067838181,"103":0.2740703515344038,"104":0.01764670064832454,"105":0.32012543520582293,"106":-0.19845524052186286,"107":-0.05616142748273575,"108":0.05644475511697569,"109":0.048494494049461254,"110":1.2809276236341964,"111":0.6661256091316636,"112":0.1850783810520554,"113":0.19674843387801516,"114":0.009330936249758904,"115":0.2646861086925543,"116":-0.2789868925656981,"117":-0.09133023248869186,"118":0.5092911424428193,"119":0.4321371855476938,"120":0.8425580436055018,"121":0.49390748853486793,"122":-0.2650348095259375,"123":-0.3572494035743626,"124":-0.1808588009788196,"125":-0.20413149814682988,"126":-0.29776912369714087,"127":-0.34991508448299635,"128":0.6143435471818505,"129":0.47915769956721327,"130":0.5626303856771834,"131":0.3090081223422716,"132":-0.4996685696523448,"133":-0.26111172020806495,"134":-0.6940734043176551,"135":-1.0692490474310177,"136":-0.957841576750164,"137":-0.05649101502637587,"138":0.6114141629357831,"139":1.1065755334428804,"140":0.4106330156052739,"141":0.24946055937274492,"142":0.014247751274057047,"143":-0.3303576854824769,"144":-0.5788457783437059,"145":-1.0525913022855078,"146":-0.420758578365729,"147":-0.044202674899231874,"148":-0.003785720704643102,"149":0.3936870895096391}},"4":{"bias":0.4140230332131877,"weights":{"0":-0.148504901840412,"1":-0.07054385645842084,"2":-0.1424198373724181,"3":0.1687352550950807,"4":0.2198935774897842,"5":-0.1577413102698678,"6":0.37399390891369905,"7":0.0025160282821863568,"8":-0.3292007743707587,"9":-0.21583979008258122,"10":0.4722868989969862,"11":-0.21683172457945593,"12":-0.6333370714648752,"13":0.09020329411923388,"14":-0.38341411407578985,"15":-0.23116869165858495,"16":-0.3947332829522433,"17":0.3933411029300708,"18":-0.31814185930719785,"19":0.066858330063969,"20":0.5931865259287796,"21":-0.15414563050332242,"22":-0.488330999433837,"23":-0.24411192738487916,"24":-0.14637602692990545,"25":-0.33950255506750393,"26":-0.6437815417071265,"27":-0.5581916773452584,"28":-0.019782914957352227,"29":0.07690441631326199,"30":0.3940944256767281,"31":0.19092409172685984,"32":-0.09300826435762874,"33":-0.12313465686568369,"34":-0.09311413074890085,"35":-0.7393287762922013,"36":-0.46883827347365525,"37":-0.2684222285375125,"38":-0.33768836958139736,"39":-0.44791888170561567,"40":0.6215098649526517,"41":0.750393828933597,"42":0.5198977126181886,"43":0.36313098165632807,"44":-0.164431680698497,"45":-0.2389141723726915,"46":-0.22300110042020901,"47":-0.14851830348977438,"48":-0.18398243371901443,"49":-0.3975098012618082,"50":-0.07597422747934827,"51":0.43187461724621534,"52":0.125534115361205,"53":-0.26079809570600365,"54":0.09438377581803213,"55":-0.2040283920668582,"56":-0.6053130637430304,"57":0.2824703953923808,"58":0.14449477900604962,"59":-0.3166951690603302,"60":0.12866298690772462,"61":0.1895924313789061,"62":-0.4826398329864145,"63":-0.5817098355634226,"64":-0.03668531450490815,"65":-0.27445871986066483,"66":-0.21237278789296746,"67":0.559737699446835,"68":-0.23271143541451056,"69":-0.5970073704584438,"70":0.29532604171647964,"71":0.15290066575406633,"72":-0.22518842965313923,"73":-0.32635679718225535,"74":-0.22473923667579196,"75":-0.5705085177459968,"76":-0.46121766152340354,"77":0.16847805641780314,"78":-0.10912215064835135,"79":-0.1717132643220681,"80":-0.12343639175376378,"81":0.5746351780063588,"82":0.10403202269780229,"83":-0.06212144235853003,"84":-0.31301131663192544,"85":0.029118481750867238,"86":-0.490403557180625,"87":-0.7808814224570478,"88":-0.42529233301677577,"89":-0.4005948039978764,"90":-0.03758190389219071,"91":0.3340657001961918,"92":0.07084725284335998,"93":-0.04661578296404335,"94":-0.056695436800811135,"95":-0.23867803801616447,"96":0.002831542592268057,"97":-0.44324378521307867,"98":-0.48094093583481534,"99":0.0889268385655648,"100":-0.015158058292210038,"101":0.5352234778505148,"102":0.4301213902329293,"103":0.19735531330055153,"104":0.23479355290037635,"105":0.17297908532699308,"106":-0.32703464522538345,"107":-0.05472026381042653,"108":-0.2450231640172416,"109":-0.061754293504504405,"110":0.81959100682526,"111":0.8045355034677227,"112":0.3484689673896167,"113":0.1316161638678805,"114":0.012627861303911409,"115":-0.0019004428407769244,"116":0.2896413074116404,"117":0.100953823837526,"118":0.4404027461761961,"119":0.17297372308470452,"120":0.40212990684540467,"121":0.8065778324320799,"122":0.5979879003626327,"123":0.515548282214983,"124":-0.47523620459795324,"125":-0.7582446334666479,"126":0.01158828956166403,"127":0.3391158981730763,"128":0.3219920956909903,"129":0.8528825665597127,"130":0.2570868186557784,"131":0.817842453200535,"132":0.16992234615843518,"133":-0.5484229728309951,"134":-0.7945373666200417,"135":-0.13318345763720943,"136":-0.9094151655070161,"137":0.162407909920633,"138":-0.12005167718667034,"139":0.0108085708736668,"140":0.03011382067656984,"141":0.28167272739477617,"142":0.5624068526109075,"143":-0.5488927175889026,"144":-0.31842573651833217,"145":-0.32249867707389435,"146":-0.29452043022127106,"147":-0.03926409828957152,"148":-0.6558811934869192,"149":-0.03499487281117404}},"5":{"bias":-0.4990916505803931,"weights":{"0":0.5439758513245861,"1":0.6986968365469332,"2":-0.1362534502016891,"3":-0.10055493251123844,"4":0.05048810820832777,"5":0.2598225969324639,"6":-0.11974741892798837,"7":0.1414488938562519,"8":-0.2619542765180924,"9":-0.5015177900860498,"10":0.4185662065445067,"11":0.47464598169953115,"12":-0.45035861066377475,"13":-0.4184949292752817,"14":-0.7328487735032688,"15":0.4320561106159401,"16":0.07676110075022331,"17":0.2567171280050261,"18":-0.6149195242689048,"19":-1.1170206980294075,"20":0.04437383709784428,"21":0.24929046545308958,"22":-0.43147541408588663,"23":0.1298361384255183,"24":0.2764029301905014,"25":0.06788259774473583,"26":-0.19706243743892132,"27":-0.27003207407691576,"28":-0.4079484114177551,"29":-0.3945755764313051,"30":0.032075729544562066,"31":0.09779817068642707,"32":0.09529976841474966,"33":0.059085615772444394,"34":-0.21924772684480387,"35":-0.7090706940358387,"36":-0.6302047860323103,"37":-0.6420702027185441,"38":-0.5365521802814927,"39":-0.1621908414430513,"40":0.26630495522514697,"41":0.48733394259107327,"42":-0.49519985434297925,"43":0.13956104289714238,"44":-0.24857378338673072,"45":-0.7532904678782133,"46":-0.3370249431093593,"47":-0.8436490128995056,"48":-0.8475110663098283,"49":-0.2610055370409857,"50":0.06288169808571162,"51":0.1409845544661031,"52":-0.26084128885849583,"53":-0.6054147617368273,"54":-0.40093836216529677,"55":-0.13242215604471178,"56":0.04439088811065762,"57":0.09047609998294834,"58":-1.1975028234754101,"59":-0.06475895423055428,"60":-0.148875507909842,"61":-0.18312259001601114,"62":0.3034211120132658,"63":0.17723917644699602,"64":-0.13568120167509284,"65":0.5115386764277099,"66":-0.0921981357640045,"67":0.11692522093673464,"68":-0.6035189982104399,"69":-0.15959263359287415,"70":0.12851890921304995,"71":-0.5207324866495858,"72":0.28531204839967206,"73":0.3477230016211733,"74":-0.06087832308813312,"75":-0.11529198573055158,"76":0.44235481498901713,"77":-0.06674190160414047,"78":-0.35731728504276733,"79":-0.35079169985538,"80":-0.3361050084005007,"81":-0.6864988463407011,"82":0.27262166959197964,"83":0.04371744767789742,"84":-0.11521147456049,"85":0.4511886214342336,"86":0.16518217546845884,"87":-0.3211687463260213,"88":-0.4448875562992118,"89":-0.6092015716860574,"90":-0.8194097001451549,"91":-0.146399231027077,"92":-0.17807653463805412,"93":-0.022624402536877305,"94":-0.13710080597182658,"95":0.4804381444355793,"96":-0.6026277917433718,"97":0.07304744886356791,"98":0.06176512122627359,"99":0.07132531299342969,"100":-0.07766704773938221,"101":0.6111127252454162,"102":-0.11618303968711699,"103":-0.14477058672655974,"104":-0.40727171035353127,"105":0.28163188267919037,"106":0.314320916613164,"107":0.19238786921900172,"108":0.23373408388605266,"109":0.20889269849354072,"110":0.6569187544691231,"111":0.6108546719670682,"112":0.044455386695972876,"113":0.23733772778132317,"114":-0.34152642191388705,"115":-0.36217957795603417,"116":0.16411275014540722,"117":0.24667648938594602,"118":0.036114130940011535,"119":0.33821524602581543,"120":0.5924503795721473,"121":0.39605277875520273,"122":0.38483860642556533,"123":0.3385633652785147,"124":-0.04620301269584885,"125":0.3389986276235869,"126":0.5224919752325979,"127":-0.1586680698564018,"128":0.809320191177699,"129":0.848634947590788,"130":0.4848644503648622,"131":0.5210240714671887,"132":0.5791635885866021,"133":0.1923535112136932,"134":0.7695748170671668,"135":1.0893616602631209,"136":0.11396684795748574,"137":0.39568873905238566,"138":0.5536995861247487,"139":0.4765159640386442,"140":0.000085735685344466,"141":0.6266814211235838,"142":-0.3656263806405938,"143":0.5473402686742126,"144":0.6726432158026155,"145":0.4685931049884781,"146":0.24660930025957678,"147":0.43900199154172337,"148":0.18670033856788282,"149":0.42038907529640884}},"6":{"bias":0.793122205637282,"weights":{"0":-0.021895237717731466,"1":-0.31934930249045795,"2":-0.2410301493858146,"3":0.07179481732384561,"4":-0.15581530773448432,"5":0.03271680525221393,"6":0.05892586513298231,"7":0.24858583937088205,"8":0.4696141281471462,"9":0.5138786240004957,"10":-0.13543639608079935,"11":-0.14878594148826868,"12":-0.08576450059341541,"13":-0.285955054249822,"14":-0.5150421569990148,"15":-0.7280615684469195,"16":-0.8080765250539729,"17":-0.14512105158890332,"18":0.25972064270213324,"19":0.7044011012224723,"20":0.05723436889280613,"21":-0.2794811965356137,"22":-0.176889594145922,"23":-0.13415243859965972,"24":-0.4363722505063486,"25":-0.0371174005605906,"26":-0.036425522493235066,"27":-0.44829007941434185,"28":-0.7251648182166508,"29":-0.0691320459874669,"30":0.013354399039004058,"31":-0.24191965097031842,"32":0.10411377852043363,"33":0.25950389388923634,"34":0.17381906875450137,"35":-0.40649589519488477,"36":-0.014566852289048368,"37":-0.16877741950460376,"38":-0.5617699263699604,"39":0.08127898477667267,"40":-0.20651522948764284,"41":0.008810298020700687,"42":0.20840788498040405,"43":0.6053416471912652,"44":-0.5643101150893343,"45":-0.11650673181540268,"46":-0.11237729522869515,"47":-0.178707315139391,"48":-0.08249883201039217,"49":-0.09036439891236281,"50":0.10721572260667428,"51":0.3824574442959009,"52":0.2426794609478979,"53":-0.31843938123758875,"54":-0.652327175685517,"55":-0.5520809320130982,"56":-0.1578883507590301,"57":0.1674460251819225,"58":-0.1727835982192534,"59":-0.11280963587832574,"60":0.40774986782965905,"61":-0.018774549428283913,"62":-0.29089257205262886,"63":-0.23087825376239718,"64":-0.34290947557443896,"65":-0.6627282008526952,"66":-0.2577329898337215,"67":0.041860047960197364,"68":-0.04928997918460395,"69":-0.3653240244506538,"70":0.358376602523405,"71":-0.5873376932723136,"72":-0.5410214247813585,"73":-0.17013433991125215,"74":-0.06705471772029423,"75":-0.6325811888217766,"76":-0.3664651924502061,"77":0.14098734401393428,"78":-0.21230222804841928,"79":-0.5098984310881491,"80":0.36791176920994534,"81":-0.35772123410619205,"82":-0.4111754894486341,"83":0.021453240605735092,"84":-0.6303010447502131,"85":-0.4938514350156206,"86":0.03475995034436657,"87":0.10550528253075962,"88":-0.08675893568818405,"89":0.12110551575882476,"90":0.33032943597718867,"91":-0.19793469062362795,"92":0.31506709516475784,"93":0.02571736561073743,"94":-0.6982037945792742,"95":-0.3052062839216462,"96":-0.14722964416829767,"97":-0.236611371244487,"98":-0.26200478891523393,"99":-0.14999695024467533,"100":0.22617947038663902,"101":-0.14717827187731045,"102":0.07165000626158743,"103":0.4108304520646061,"104":-0.46906135013070355,"105":-0.4447909289444037,"106":0.1324010591315361,"107":-0.005090468963048959,"108":-0.16573358097740412,"109":-0.2139889353840674,"110":-0.5790521771673236,"111":0.4090351305645563,"112":0.4613847989461671,"113":0.8881107920878917,"114":-0.36584614044963654,"115":0.04782152520968341,"116":0.3247279070495644,"117":-0.3287517174350381,"118":-0.07296076847553187,"119":0.04560539814623431,"120":0.24327732332590246,"121":0.5453253013312092,"122":0.13122791892414862,"123":0.38574794776189547,"124":0.2330716750798445,"125":0.024941681305463533,"126":-0.04695643523108398,"127":0.39423120813916335,"128":0.0977956983288008,"129":-0.21727619780046395,"130":-0.2473122815687607,"131":-0.041945192159652055,"132":0.07271864677020355,"133":0.608454433551309,"134":0.9080149543198291,"135":0.2655389746611593,"136":-0.38307170209830227,"137":0.30748018329327,"138":0.14270341067386152,"139":-0.4267430915583241,"140":-0.0029531678680328683,"141":-0.08164738844440259,"142":0.4419171694847071,"143":0.3010273717887644,"144":0.2191621409126326,"145":0.3631023121617192,"146":-0.04588148334995771,"147":0.21206071836078258,"148":-0.019610601247461043,"149":-0.21217397500805868}},"7":{"bias":0.09635568856401108,"weights":{"0":0.05784956907233445,"1":0.3635542571023149,"2":0.43984255884249346,"3":-0.01145426770034655,"4":0.05801917014667227,"5":-0.18227215523775045,"6":-0.5701406358725989,"7":0.15590712552237557,"8":0.31960990846111476,"9":-0.16658452936615992,"10":0.14840060611105174,"11":-0.3100463592539979,"12":-0.2307857525701054,"13":-0.47759515995074886,"14":0.11944614544750225,"15":0.02776073712417131,"16":-0.7716653334571408,"17":-0.5291401204793382,"18":0.10221039383301646,"19":-0.15242475542208533,"20":-0.41649293117063485,"21":-0.27588669650731107,"22":-0.3022872989388657,"23":-0.13628754856498249,"24":-0.3978694796654995,"25":-0.15389658701255807,"26":-0.32676026785148954,"27":-0.46656023236861577,"28":-0.4001107152889763,"29":-0.20622207637674986,"30":-0.3484086184245335,"31":-0.49025216312467634,"32":-0.03565067393597068,"33":-0.49241157063123664,"34":-0.33307704713117053,"35":0.1679858991352005,"36":-0.20962144748624398,"37":-0.02539812082852824,"38":-0.12992172760123985,"39":0.007877580101093087,"40":-0.331318031850222,"41":-0.8733352925890512,"42":-0.17214853009212713,"43":-0.5504142563220676,"44":-0.4233802511186944,"45":-0.06459870697789648,"46":-0.2434329971817239,"47":0.17905871616229402,"48":0.5465066824042379,"49":-0.07663030129562656,"50":-0.5315377377179019,"51":-0.5321713253277149,"52":-0.6362670891668135,"53":0.008429537090047732,"54":-0.044187942638598814,"55":-0.549715267765863,"56":0.09352877765924414,"57":-0.6249689972825183,"58":0.6176954627552003,"59":0.6676727136104871,"60":0.3523645986481451,"61":0.03284518007603647,"62":-0.3822657682613901,"63":-0.3412627443037036,"64":-0.11656521815188073,"65":-0.21981174145059337,"66":0.049948637150177375,"67":-0.04498360638499416,"68":0.8635710986518966,"69":0.29643313045366815,"70":0.059442555717401604,"71":0.5748047372805272,"72":0.021554646577768823,"73":0.27603121638098554,"74":0.7763988023226156,"75":0.37886863204353205,"76":-0.18935099252223306,"77":-0.2944535811253895,"78":0.2482720649322868,"79":0.8895289167080659,"80":-0.2813322081930786,"81":0.3353310102308982,"82":0.08120145085315575,"83":0.36232122419417456,"84":0.18619648533213654,"85":0.22575668114873604,"86":0.7052180798421857,"87":-0.04954460024970353,"88":0.43062772648487835,"89":0.6125963220917419,"90":-0.5073922273015463,"91":-0.10110032732654035,"92":0.31686050752828765,"93":0.29554232427231414,"94":0.2799378788759457,"95":-0.3285634285869762,"96":0.00010009402947383575,"97":-0.07437371364333487,"98":0.8750427324272431,"99":-0.03730969798827739,"100":-0.05557473249589414,"101":0.2292143130196957,"102":0.19180618508026717,"103":0.5624075503915391,"104":0.02271035061698645,"105":-0.08579384879284592,"106":0.4212637158196997,"107":0.571485650447978,"108":0.6958691656896192,"109":0.17678751701003934,"110":-0.3377346452704825,"111":-0.2858373200684068,"112":-0.4176940793027804,"113":0.5511639473732215,"114":-0.2295861014939608,"115":-0.1625048543246703,"116":0.3597191889243296,"117":0.3816884412457733,"118":0.6926522224233829,"119":0.31020755485086426,"120":0.16380615399354148,"121":-0.05567905779442543,"122":-0.5430894004063561,"123":0.15171113793633953,"124":0.35102329463611937,"125":0.17548975117603838,"126":0.1154930068118572,"127":-0.13408980029285059,"128":0.3927314440577442,"129":0.26510157981240484,"130":-0.1836146068262811,"131":-0.9052615534282347,"132":-0.5351478641271816,"133":-0.32868482989342745,"134":0.3960675299715543,"135":-0.36201540860675147,"136":0.007304002354099167,"137":-0.5606027692519608,"138":-0.06881326770700447,"139":0.4797327038942685,"140":-0.5281869949946288,"141":-0.29978136348310064,"142":0.035166242149130056,"143":0.5587948271583656,"144":-0.10252834537435446,"145":0.16658714904385374,"146":0.5941937190892874,"147":0.5885736876597243,"148":0.18892759089793967,"149":0.4721822802506776}},"8":{"bias":-0.6780869888153263,"weights":{"0":-0.29159397120369207,"1":-0.3439613916044262,"2":-0.18656425390425352,"3":-0.24726001258619543,"4":-0.24595646581993522,"5":-0.024823675961926864,"6":-0.5272579203258765,"7":-0.4425176205045299,"8":-0.32200375829000377,"9":0.35704223533531104,"10":-0.3256302838234028,"11":-0.32674856632919086,"12":-0.6088676050315467,"13":-0.003838424164854375,"14":0.4605916367163157,"15":0.12028155891458958,"16":0.574174966667287,"17":0.38162385987276026,"18":0.1789721727094962,"19":-0.09039726149184951,"20":-0.12059019410466101,"21":-0.16501487252391062,"22":-0.1951507883377767,"23":-0.31989379781266447,"24":0.8007129562388685,"25":0.21311946229148568,"26":0.42863195539405907,"27":0.5499965294412048,"28":0.2491774449854419,"29":0.16110729435029805,"30":0.45959235875660176,"31":0.1831086921727545,"32":-0.39498858499043726,"33":-0.25812757215134374,"34":0.13034151579519138,"35":0.11928567750759171,"36":0.04596762139142871,"37":0.3662468323436063,"38":0.35151791813662164,"39":0.04733252853861493,"40":0.9041062477026122,"41":0.15916982332780397,"42":0.11490382994961679,"43":0.023577039589046094,"44":-0.22175176206655878,"45":0.18376429516610443,"46":0.08698348835887404,"47":-0.0060795648565128025,"48":-0.1349273830095452,"49":0.10593564870150614,"50":0.8069876441218419,"51":0.24553506667760197,"52":0.49632132067282214,"53":0.3118044522853378,"54":-0.6365023496739475,"55":0.03619994252616389,"56":-0.013565775529274439,"57":-0.16935190435198413,"58":0.08793164897439176,"59":0.041547844251505976,"60":0.7078686405743118,"61":-0.02892180906418475,"62":0.532152959609272,"63":0.2994760991030659,"64":-0.10502479402648958,"65":0.055374608407040435,"66":-0.23084376286660355,"67":-0.38657104681712506,"68":-0.29711550249926433,"69":0.4106828764330397,"70":0.327021179578729,"71":0.40152817463836804,"72":0.5655897034087638,"73":-0.08438343468281656,"74":-0.37944302562698673,"75":0.6817349887812236,"76":0.046691898759229175,"77":-0.15594666935968107,"78":-0.006313593849192817,"79":-0.00441624221747488,"80":0.1908726825249166,"81":0.2854473914564597,"82":-0.09352818718981708,"83":-0.14349324889616275,"84":-0.07886127382297228,"85":0.2988420959941557,"86":0.3546532097037837,"87":0.23805824511509774,"88":-0.1855112007104245,"89":-0.2712512786633052,"90":0.5885747357209193,"91":-0.16598017523379094,"92":0.4307450830671831,"93":-0.020742651504511128,"94":-0.2110466072825275,"95":0.1583591843645503,"96":0.4664891388400203,"97":0.8754665358147842,"98":0.20380913418339833,"99":-0.2076974043693764,"100":-0.39538147690382475,"101":0.36360119116423295,"102":-0.07304815925201594,"103":-0.2901808246840246,"104":0.12421680855449332,"105":-0.013618011103103895,"106":0.2269257853164446,"107":0.37746833545738095,"108":0.2740414733056404,"109":-0.18238667305571454,"110":-0.30434186048840506,"111":-0.26092849082995384,"112":0.14346979275933075,"113":-0.2604036671742144,"114":-0.270219706165551,"115":0.1864797013853695,"116":-0.2569809433924775,"117":-0.0665539542811686,"118":-0.12855274726131938,"119":-0.1330742765243351,"120":-0.4698878050325452,"121":-0.24380698241694687,"122":-0.5591826256741282,"123":-0.02884002066819322,"124":0.2385886355269844,"125":0.0383809018461887,"126":-0.37944164743725023,"127":-0.43512682976003453,"128":0.08630761448085994,"129":0.25571263738554006,"130":-0.5837772786175464,"131":-0.7232743241549151,"132":-0.36633856295356415,"133":-0.0036125476018517523,"134":-0.25007169282875263,"135":-0.2975637306162724,"136":-0.5418678023161644,"137":-1.0019638428972655,"138":0.13603557410617537,"139":0.6675140031951897,"140":0.21297115027772992,"141":-0.76897314442006,"142":-0.778626179013149,"143":0.26688177415402586,"144":-0.0341220723856124,"145":-0.7361858383953425,"146":-0.7235597445619133,"147":-0.5902855762365169,"148":-0.37638396776333505,"149":-0.030770947337800773}},"9":{"bias":0.4127086655596334,"weights":{"0":0.38870935018441943,"1":0.4703984503133742,"2":0.5302606837914723,"3":-0.6309563383665449,"4":-0.09645306274645477,"5":0.24697254245524183,"6":-0.15802754671746785,"7":-0.11702243567715051,"8":-0.27910009480754844,"9":0.11682544826293427,"10":0.4091420570805213,"11":0.07740066897984132,"12":-0.3200316561067417,"13":-0.3395053056490497,"14":0.26334628792742515,"15":-0.08101878168903029,"16":-0.3620041146257361,"17":-0.4569278763267419,"18":-0.35997532007998695,"19":0.22776075980012125,"20":-0.4498611708512702,"21":0.5352410752922471,"22":-0.15612719907799008,"23":0.0896497267060945,"24":-0.37919644959874377,"25":0.18067857815273164,"26":0.0519294103784802,"27":0.2300661047247686,"28":0.03625249353090142,"29":-0.10411405087534167,"30":-0.01398866239748727,"31":0.5583607651999231,"32":0.08016853682744945,"33":-0.48881319204997814,"34":-0.12016760554202853,"35":0.2620603351668834,"36":0.5439972382693671,"37":0.3712647522650366,"38":0.4375856614021099,"39":0.49425228145516964,"40":-0.04637282555724337,"41":0.4634996683303701,"42":0.13478136570914526,"43":-0.13829496760748142,"44":0.0871453871599932,"45":0.4333590792768303,"46":0.13079143637793325,"47":0.343704406882431,"48":0.5567122857576909,"49":0.34788291354992296,"50":0.6271601367751308,"51":1.015206343886628,"52":0.19738614327728757,"53":-0.11322983116711534,"54":0.6569450595672425,"55":0.11931351982920255,"56":0.43226695702295853,"57":-0.4462745792003757,"58":0.0512089488064494,"59":0.22142615825057638,"60":0.20072260380091403,"61":0.519767807383876,"62":-0.10946513588832374,"63":0.3016026520572477,"64":0.3776656085152095,"65":0.055132328934642254,"66":0.3946076652727821,"67":0.08629793036510934,"68":0.0826494836803638,"69":-0.28076775784650204,"70":-0.4663516310578199,"71":0.22813162223455138,"72":-0.3309006105517267,"73":0.2958394469954565,"74":0.41314187366465294,"75":0.3974784635035171,"76":0.4849325969237294,"77":0.05956828982836322,"78":0.0005687950924126347,"79":-0.05609057898786051,"80":0.1473326643840762,"81":-0.2949830931689895,"82":0.21790494479053163,"83":0.17592229030337114,"84":0.22498030306109515,"85":-0.22479548730124763,"86":0.5341065169045299,"87":0.18340868334569743,"88":-0.3599605811153458,"89":0.21271905602521973,"90":-0.9240198349490824,"91":-0.4309635401010041,"92":-0.021659405281502835,"93":-0.10795604540418494,"94":0.027205460121253047,"95":-0.1389161572274808,"96":-0.3276618331695832,"97":-0.47635924128493196,"98":-0.9634030377964777,"99":-0.5169705623678691,"100":-0.066749523733665,"101":0.16888966406316386,"102":-0.010330538220248297,"103":0.35309442495085114,"104":0.27140659081501867,"105":-0.07141165154327221,"106":-0.35647625587706616,"107":-0.4298874170496732,"108":-0.9088848405322015,"109":-0.46204639863458435,"110":-0.5455192723192415,"111":0.3595777207367746,"112":-0.007752814886772574,"113":0.1759524392386368,"114":0.035775462321673196,"115":-0.4323488727531475,"116":-0.6999781612242724,"117":-0.7107712253883485,"118":-0.3217182713485311,"119":0.22568548080981995,"120":-0.5474804545579185,"121":0.11235030282881567,"122":-0.5027783431909953,"123":-0.009928891010510104,"124":-0.650801464488059,"125":-0.16927330983745104,"126":-0.2813537811902538,"127":-0.42709790280793525,"128":0.07937325392305843,"129":-0.20073831253260763,"130":0.3451991239707144,"131":-0.7787254313654527,"132":-1.4419351424547857,"133":-0.40594241614326415,"134":-0.6217656366611678,"135":-0.4863709135715604,"136":-0.43794306430303626,"137":-0.058992036234233276,"138":-0.32454578934640366,"139":-0.0010744756330629936,"140":-0.10955496555131276,"141":0.14668305953456406,"142":-0.4778012274447707,"143":-0.12524472124823213,"144":-0.6400589210220736,"145":0.013670643364543593,"146":0.07802287422120943,"147":0.3131217267819408,"148":0.2561887944354026,"149":-0.011622300230693097}},"10":{"bias":-1.187891860139334,"weights":{"0":-0.31875837312787664,"1":-0.1387186544966862,"2":-0.5411420456730691,"3":-0.12086483142479547,"4":-0.5054292375981004,"5":-0.38051905251235074,"6":0.050225864128284,"7":-0.636831001644752,"8":-0.5670571744980191,"9":0.057868472752091706,"10":0.13841296333628902,"11":-0.12237620962573816,"12":-0.2825769045450177,"13":-0.3873122641284895,"14":-0.7438317293815012,"15":-0.13568842605183326,"16":0.08906047910238801,"17":0.22280648368814154,"18":-0.027163379055427372,"19":0.15775060478953348,"20":0.7310799016141566,"21":-0.4693566029758906,"22":-0.039405165036392645,"23":-0.19366934222896717,"24":-0.5098647417268287,"25":0.16303743664913378,"26":-0.0894482189244607,"27":0.5293599067231872,"28":0.6648261690432973,"29":0.26510524180158573,"30":0.32670918525659565,"31":0.7968756570225931,"32":0.5684168210116031,"33":0.4597916117466253,"34":-0.010607282308057828,"35":-0.19686802220583532,"36":-0.012201699946988446,"37":0.30007931600340665,"38":0.02539020349000213,"39":0.07100069172980515,"40":-0.5504940233284541,"41":0.0727644388018163,"42":0.2256882502944371,"43":0.004161602886768537,"44":0.02152213067310991,"45":0.017727893419399527,"46":-0.3397628053247771,"47":-0.2703551946446069,"48":0.3573703286157523,"49":0.04454561994522112,"50":-0.4334445510973212,"51":-0.5721219788188261,"52":0.3709869422097006,"53":-0.34228133131782973,"54":0.14826934738114964,"55":0.26724050508284075,"56":-0.10176378800861349,"57":-0.13609312804577692,"58":-0.13309550428949446,"59":0.029987634847643774,"60":-0.1395748078230848,"61":0.11779334575409212,"62":0.5298352407164741,"63":-0.48309303524574193,"64":0.5465981815087526,"65":-0.15813864791386478,"66":-0.14146567977039984,"67":0.1329609566690974,"68":-0.3332912082786977,"69":0.3271717785796228,"70":0.05434712741621882,"71":-0.1265074140274283,"72":0.2547662794395667,"73":0.13018089687203765,"74":0.2349449529363414,"75":-0.2700244753668055,"76":0.45455752852493614,"77":0.3061506658453967,"78":0.07326953991401855,"79":0.16781375619019023,"80":0.29547893496187677,"81":0.40820596014090266,"82":0.017410049641588224,"83":-0.06736529863676585,"84":-0.21291147155454698,"85":0.23879122600625544,"86":0.9225520774556253,"87":0.4576888046644103,"88":0.31898650805837253,"89":0.24957860031119497,"90":0.032725949916125284,"91":0.3888915188258458,"92":-0.3147293587579499,"93":0.27563710953995785,"94":-0.33390944067571565,"95":0.6486258799463518,"96":0.554967857942326,"97":0.4985343997047526,"98":-0.4648638800913539,"99":-0.004312465668675526,"100":0.39975358874685524,"101":0.21416226191319837,"102":-0.48210470792573035,"103":0.31839963764693746,"104":0.43318827680951294,"105":-0.11958767125132169,"106":-0.40859832641338184,"107":0.033899296776379165,"108":0.09097162841297653,"109":-0.045815462884845636,"110":0.2473412871623829,"111":0.026834658169053442,"112":-0.16764992998518113,"113":0.1549286539019114,"114":0.6294868695114013,"115":0.0866438680010954,"116":0.01921161248139407,"117":-0.307251375826988,"118":0.2150819158156356,"119":-0.11162653286085984,"120":0.4805783208440994,"121":-0.17970489786809304,"122":0.27028617335220434,"123":0.9313757532187539,"124":0.0017678372552435012,"125":-0.10797111972010824,"126":0.3098125247642481,"127":0.1322268212513131,"128":-0.23069832080196254,"129":-0.14943560210538717,"130":0.2270755124915078,"131":0.7489118320607123,"132":1.0380484739221156,"133":0.48496622758726654,"134":-0.36157840196991187,"135":-0.06682125980573998,"136":0.19503190091252096,"137":0.2271577315531751,"138":-0.00802234626511307,"139":-0.17601830537006372,"140":-0.03851485219536974,"141":0.3522728045475561,"142":0.010709666848617364,"143":-0.04346005310940133,"144":-0.6845293364194499,"145":-0.5279212204089408,"146":-1.0034354352971988,"147":-0.4731281638009647,"148":-0.6833063641127392,"149":-0.014948721770775527}},"11":{"bias":0.026429311906613972,"weights":{"0":-0.011012437306575036,"1":-0.15736873669093077,"2":-0.3660693913341719,"3":0.33800864474928244,"4":0.12070291257453783,"5":0.19457444192208992,"6":0.13719735816989923,"7":0.15852168150108933,"8":-0.8536464365356841,"9":-0.13174829762669762,"10":-0.030431692944687772,"11":0.00934011875538453,"12":0.2303644287237604,"13":0.12771813429896,"14":0.0774399333716667,"15":-0.17842128283368028,"16":-0.07236591865655283,"17":-0.6368308246030883,"18":-0.12271357015429468,"19":-0.08731723786247826,"20":-0.3954116395078116,"21":-0.14034955234401233,"22":0.5893829586294315,"23":0.23420470289913348,"24":1.1351891146303361,"25":0.37156753016821464,"26":-0.15072987892363665,"27":-0.13124566458155576,"28":-0.3631891931524207,"29":-0.07085973350067365,"30":-0.3905431239216233,"31":0.2553114713721792,"32":-0.2187774475435219,"33":0.425134908074663,"34":0.49589861144442404,"35":0.41411241421316225,"36":0.3160560553645282,"37":0.15808703648790676,"38":-0.009099341106643616,"39":0.1145788555853416,"40":-0.24007786370626238,"41":0.32902297855590834,"42":-0.0486094801169319,"43":-0.15605696228937074,"44":0.07045338019932337,"45":0.46490299873050245,"46":-0.47010833211275954,"47":-0.48386275341320445,"48":-0.2362098683380728,"49":0.16949891706274328,"50":-0.13762171361808942,"51":0.16867717337898044,"52":0.22788019522529804,"53":-0.034397963929137174,"54":0.023494212624035407,"55":-0.4267642774856473,"56":-0.2970155043166046,"57":-0.5824061435806872,"58":-0.5461420534978598,"59":0.5264532474718787,"60":0.038041039714558994,"61":0.41691764134914755,"62":-0.06677626407162363,"63":0.4720761019856802,"64":-0.10417542027944925,"65":-0.7015688206994805,"66":-0.05182054536311257,"67":-0.29126263318025636,"68":-0.09735344526801411,"69":0.44268843244100886,"70":0.23150448288026695,"71":0.3907195139948158,"72":0.7599667739470679,"73":0.4272064281996802,"74":-0.17338043869349207,"75":-0.5025986666285552,"76":-0.5837297338106685,"77":-0.32016787600782937,"78":0.17642279271164774,"79":0.10950184158175419,"80":0.1461517486769413,"81":0.6282031627106079,"82":0.38863508196005053,"83":-0.03510955711216671,"84":-0.0655410777109279,"85":-0.6196631975634276,"86":-1.1177418273836541,"87":-0.6309578998338011,"88":0.31877561790619596,"89":0.5179998709114674,"90":0.2054560520494323,"91":0.3129440735451014,"92":0.5976764566700155,"93":-0.5650623559379332,"94":-0.6230846433827015,"95":-0.961651663756111,"96":-0.2705227568910873,"97":-0.2988795001058401,"98":-0.18673111181446075,"99":0.5007800062927623,"100":0.08163483187495571,"101":0.016467568343601555,"102":0.46292618473461355,"103":-0.3017278730133211,"104":-0.9188431697042955,"105":-0.6145909505969223,"106":-0.2116313021414527,"107":-0.12021074549243813,"108":-0.04323274672578136,"109":0.4022181344334776,"110":-0.18924523810897315,"111":0.4213579977776854,"112":0.8195780598892283,"113":-0.1474837447229795,"114":-0.4505372257445087,"115":-0.6264554501896348,"116":0.11831323649627179,"117":-0.38432284679861567,"118":-0.2577621706988903,"119":-0.06229892464426728,"120":0.5053472302666578,"121":0.5308622620932492,"122":0.43254503716174836,"123":-0.30889347332203937,"124":-0.18808501785578965,"125":-0.4332266988621347,"126":-0.16084558361377166,"127":0.8600970502720268,"128":-0.20717797267549581,"129":-0.18033008727336938,"130":0.7359892074357697,"131":-0.06437199675630373,"132":-0.8790187787020887,"133":-0.5829754477392656,"134":-0.28909994025141283,"135":-0.2958672370515786,"136":-0.1796866139843481,"137":0.22909345536814282,"138":-0.6615828568812656,"139":-0.23838951940342126,"140":0.15936192331185084,"141":0.012454485717352857,"142":0.4279623426621994,"143":-0.37784125482138325,"144":-0.15617277456858253,"145":-0.14329095047304163,"146":-0.14983770189646825,"147":-0.29838914948291684,"148":-0.6978890466843385,"149":-1.1407027179492635}},"12":{"bias":0.3109801430365637,"weights":{"0":-0.10611308767111921,"1":-0.04340205305669722,"2":-0.2267207861260349,"3":-0.07762774328015802,"4":0.35709315329292757,"5":0.049084900715887086,"6":-0.07123224610740177,"7":-0.34655959138358,"8":0.11000253089506351,"9":0.07405753228549129,"10":-0.25496092779527907,"11":-0.956202593105637,"12":-0.3037382643490159,"13":-0.5292257154255681,"14":0.09172188253590075,"15":-0.20157837477079868,"16":-0.2913591226475166,"17":-0.5006965703715842,"18":-0.4405797060944383,"19":0.3191891207584529,"20":-0.7114777637063381,"21":-0.8910867708284794,"22":-0.4253286013435513,"23":0.5415901478785432,"24":-0.4657641323731771,"25":0.09252877751671607,"26":-0.33191206980250576,"27":-0.42029621413353585,"28":-0.355171863221035,"29":0.30958302353216904,"30":-0.7468935251685538,"31":-0.17683558033560912,"32":0.3059467045307799,"33":-0.4985875066304772,"34":-0.4094628608565552,"35":-0.016619789806726716,"36":-0.676576081859352,"37":-0.8696308850164943,"38":-0.4371206055548258,"39":-0.18156934717721662,"40":-0.6975033143218063,"41":-0.07406391991269529,"42":-0.25946521050532617,"43":-0.20193404261931264,"44":-0.6323966739273787,"45":-0.1446443764011752,"46":-0.4822952646715709,"47":-0.3026413345906376,"48":-0.39617680762118657,"49":-0.10211571514787814,"50":-0.30657174942966314,"51":0.08110977930006089,"52":-0.685793936709193,"53":-0.6456152654834012,"54":0.27043202747047573,"55":0.1677626327726287,"56":0.15897769431276537,"57":0.16106038474515608,"58":-0.4753662214971796,"59":-0.25788091176305344,"60":0.06072023189289907,"61":0.264254969905209,"62":0.13357118394224263,"63":-0.2435626693923689,"64":0.35491928856169225,"65":-0.5235329527171999,"66":0.21118866872242198,"67":0.5047448426089342,"68":-0.3736419223949322,"69":-0.2829955662371145,"70":0.9652319296554956,"71":0.3142446674570664,"72":0.0805319240708975,"73":0.19765344742116267,"74":0.22483745858310145,"75":-0.07274369827587707,"76":0.1873491569016618,"77":-0.1544451424614118,"78":-0.3587119347709315,"79":-0.8054573799055939,"80":0.45145695163398986,"81":0.6896498170118657,"82":0.3503904093383909,"83":-0.41580597202931496,"84":-0.5347689439136158,"85":0.1817944927616298,"86":0.3929351805763642,"87":0.2361528016098727,"88":-0.4550148461265678,"89":-0.42335111580241475,"90":0.6989886339682616,"91":0.6106622581709282,"92":-0.07523977957576114,"93":-0.45193208107218996,"94":-0.3573795585588229,"95":0.8438095154876257,"96":0.3365991777544071,"97":0.1839125695811434,"98":-1.0752387945424629,"99":-0.6070789348566267,"100":0.7033492259390066,"101":0.6262273148036323,"102":0.3075484398170342,"103":-0.2676058196538349,"104":0.2130216343597888,"105":-0.006944064490257116,"106":0.15056359494005175,"107":-0.33699658514478353,"108":-0.9224281755383104,"109":-0.8562386685811025,"110":1.0506053710063892,"111":0.9733588264065786,"112":0.2197224301993502,"113":0.01846715434232132,"114":0.19551082205715006,"115":0.39115804141744515,"116":-0.3168220330804311,"117":-0.5063907354932049,"118":-0.3887844702611279,"119":-0.5735093850291079,"120":-0.28771466344627666,"121":0.6188057624506518,"122":0.20748192377326874,"123":0.03559272058668965,"124":-0.42201558201541045,"125":-0.250206288835535,"126":0.34455840210001515,"127":0.039842172510236716,"128":0.11919778575384306,"129":0.01662468303654807,"130":-0.6470355331710573,"131":0.43431341969213344,"132":-0.04162950519658615,"133":0.1489257266219898,"134":0.13610445528127518,"135":1.7650993731356028,"136":0.44440135324477464,"137":-0.35993287562225734,"138":-0.4215653927706283,"139":-0.28301665844100793,"140":0.10835729685320412,"141":-0.027905271081359314,"142":0.42833887504233964,"143":0.6729276809548642,"144":0.48007451147799024,"145":-0.14093577603629823,"146":0.0978071843809688,"147":-0.5170891368774501,"148":-0.5103208204719867,"149":0.12749949101283095}},"13":{"bias":0.01808836992596345,"weights":{"0":-0.15654564078044528,"1":0.018441826080561313,"2":-0.29362694158937014,"3":0.365245642497428,"4":-0.3530162710595752,"5":0.10455684643922511,"6":0.06094765603126839,"7":0.2109244995599551,"8":-0.39953729891850537,"9":-0.5221525508165462,"10":-0.6911189508749858,"11":-0.844391499137072,"12":-0.365856306770093,"13":0.10473391735049656,"14":0.10218949282948073,"15":-0.34872684185869285,"16":0.33264801164088653,"17":-0.22632158332316227,"18":-1.0874863594471529,"19":-0.035563354911427765,"20":-0.7326612385490872,"21":-0.30062617872723246,"22":-0.01132654047254306,"23":-0.41441921322465614,"24":0.3526426897997223,"25":-0.7056320962022904,"26":-0.6433107188344636,"27":0.23853006103465674,"28":-0.3262007350194061,"29":0.3497980353893782,"30":-0.25719656222256615,"31":-0.6126500992403918,"32":0.41834589483580475,"33":-0.408179749425751,"34":0.3104768520756588,"35":-0.006694458400191656,"36":-0.199729628963756,"37":-0.02514311607627263,"38":0.8115850383024229,"39":0.6103960012823518,"40":0.24988605282536802,"41":-0.026542649150050945,"42":0.28906006681723556,"43":0.43763796472439487,"44":0.16198081405533016,"45":-0.27529557860449455,"46":0.1948408072513518,"47":-0.13890078226853464,"48":0.7091623120999699,"49":0.6065368925615033,"50":0.13837308776088625,"51":0.3037054086145283,"52":0.2691181934545693,"53":0.06321016482587984,"54":0.48137989708062773,"55":-0.17637076173767263,"56":0.4037924236866264,"57":0.28828181634192124,"58":0.669662416269492,"59":0.2520914262308973,"60":-0.09048836943424293,"61":0.24170677735681526,"62":-0.002719441955597827,"63":0.22026570426503878,"64":0.07570903472507744,"65":0.16129551356200714,"66":0.42726701625135627,"67":0.1496290671747194,"68":0.8645547079533924,"69":-0.27282435756070106,"70":-0.134652357989109,"71":0.0791679244937506,"72":-0.016537686613807508,"73":0.7440907194304305,"74":0.42532411827811567,"75":0.4351423137020915,"76":-0.5495677637140491,"77":0.460971818688213,"78":0.5193613300823494,"79":-0.7464262907748455,"80":-0.027229552234278913,"81":-0.3695519960998666,"82":-0.25777714329229007,"83":0.5883718262475499,"84":0.5101120552940231,"85":0.29516886504768014,"86":-0.6340831312031432,"87":-0.15546593765273756,"88":0.11746312633735294,"89":-0.01194295973791152,"90":-0.03196795243884202,"91":-0.25445593787868825,"92":0.2875197922486604,"93":0.06648406419299384,"94":0.4260133271011137,"95":0.519956433871872,"96":-0.09718672449910437,"97":-0.3163076778122104,"98":-0.3641204522265994,"99":-0.29371896990490526,"100":0.24633612905287927,"101":0.12102976164028256,"102":0.2485173106411973,"103":0.03424425107948956,"104":0.1276861959252667,"105":-0.0862928631801321,"106":0.22502209502691636,"107":-0.5199044560474563,"108":-0.8229332384041759,"109":-0.4932469636339713,"110":-0.7120410559976215,"111":-0.0021573500938480575,"112":-0.2707916902379992,"113":-0.05901284903752104,"114":-0.531261064692807,"115":-0.09934205754073155,"116":0.35898524771336343,"117":-0.06658428546183401,"118":-0.9060168686340018,"119":-0.22690281222464176,"120":-0.2432657102608625,"121":0.2718795930091206,"122":-0.518913543302903,"123":-0.3379712665671044,"124":-0.915687125065264,"125":-1.2106447328699548,"126":0.11182887911052365,"127":-0.7562285058018691,"128":-0.6283617482388157,"129":-0.7258253707131095,"130":-0.08591827720294529,"131":0.12140652831657714,"132":-0.16473106537754628,"133":0.07342620343425187,"134":-0.35291384299000605,"135":-0.36326261091866135,"136":-1.075451449513537,"137":-0.7354626525986117,"138":-0.6537029080942811,"139":-0.3600078841500679,"140":-0.3120276943250347,"141":-0.7193985692924243,"142":-0.6875303271431376,"143":-0.03448922315481764,"144":0.43811337255698696,"145":-0.06614262387035846,"146":0.129290110735658,"147":-0.06129405602524428,"148":0.7757209345225399,"149":0.1495106489602358}},"14":{"bias":1.0066580960257447,"weights":{"0":-0.3040441069775899,"1":0.44974973499341553,"2":0.43137399040780683,"3":0.11723546760481685,"4":0.4969207117144174,"5":0.3508879435965843,"6":0.38553569456500986,"7":0.8184162571770179,"8":0.7364199770491635,"9":0.07445272473851375,"10":0.2899417001769134,"11":-0.16764912471321108,"12":0.04125569352949267,"13":0.08423076295993549,"14":0.5972847097557031,"15":0.5061263423798166,"16":0.019626119064742088,"17":0.8647266731286068,"18":0.4210901967961981,"19":-0.04545505462447586,"20":0.13843531656437807,"21":-0.07720269208921816,"22":-0.2567250487629182,"23":-0.12966526782417404,"24":-0.8355912593165041,"25":-0.03406557757536401,"26":0.1946977527228091,"27":-0.1991184671252923,"28":-0.1700513001798795,"29":-0.22071606175242758,"30":-0.22806071856411855,"31":-0.5388067853040085,"32":0.23076546967859984,"33":-0.23150671797591366,"34":-0.09657200915642432,"35":-0.3952020599015485,"36":-0.3268149983673194,"37":-0.4082423626382459,"38":-0.46451315579604036,"39":-0.08410185795419285,"40":-0.2282475833488741,"41":-0.0469669296004296,"42":0.46365708107721526,"43":-0.07435623730060535,"44":-0.9199448608045496,"45":-0.25702890556575975,"46":-0.2015453421153982,"47":-0.08487979319324838,"48":-0.8434016667036085,"49":-0.5879321150158212,"50":-0.1412456365094505,"51":0.7452504504080308,"52":0.46183326434751115,"53":-0.031337475990555246,"54":-0.630075389320133,"55":-0.4922851694571001,"56":-0.07365023231336215,"57":0.1255659301311999,"58":-0.4315035761658587,"59":-0.26507575166158404,"60":-0.2111383584640791,"61":0.5037271447328883,"62":-0.25497963406205254,"63":-0.28860739309093164,"64":0.03976910938475591,"65":-0.0154332458968623,"66":0.3650559374451293,"67":-0.37410778408561324,"68":-0.23525242818034256,"69":-0.5781561130507518,"70":0.022512100703248886,"71":0.10096715953582973,"72":-0.8420874202500694,"73":-0.40348202117231236,"74":0.1542960404152092,"75":-0.10070882544151352,"76":-0.1029166844334592,"77":-0.18052506864395623,"78":-0.4032022555146369,"79":-0.20697000327157322,"80":-0.009515920513502193,"81":0.4123504165925158,"82":-0.40037488818713285,"83":-0.49308038156468864,"84":-0.3653271692879744,"85":0.1348692497151169,"86":-0.04581191121477067,"87":0.14681124491545539,"88":-0.349902435608897,"89":-0.8690916685106076,"90":0.9788496425979414,"91":0.0019277254448092052,"92":-0.740327965061834,"93":-0.4020940428375474,"94":-0.22013921871066444,"95":-0.23664606513744715,"96":-0.34913016644856004,"97":0.06904149014047986,"98":-0.2979637987473623,"99":-0.3906562829586821,"100":0.1544006831468079,"101":0.21763421925232504,"102":-0.14943000920708485,"103":0.1203935928072465,"104":-0.041151722712008,"105":0.6573501345657141,"106":0.222732202660218,"107":0.563961654897301,"108":0.06930658115931758,"109":-0.19876972122079634,"110":0.11258899044077492,"111":-0.496724266247054,"112":-0.24698717338617987,"113":-0.03475691251207164,"114":-0.13127787343826716,"115":0.6536815224526047,"116":0.27878236452995947,"117":0.3701355458727821,"118":0.4917266305966142,"119":0.041482209134906634,"120":-0.6312963995039018,"121":-0.11265848225911317,"122":0.18962912664476556,"123":0.025262553530443075,"124":0.17810242613208885,"125":0.11479703481720963,"126":-0.05374496469514871,"127":-0.09257188682018522,"128":0.045193571747703935,"129":0.27173898812598374,"130":-0.6063864164373417,"131":0.1480521486805013,"132":-0.1029992392123343,"133":-0.5819771341808277,"134":-0.5194134603575027,"135":-0.581592266752701,"136":-0.8606787858047863,"137":-0.5691351911082795,"138":0.1678653116603779,"139":-0.042038163082804475,"140":-0.4763245460629723,"141":0.036655860488219706,"142":0.6058793702601094,"143":0.3320095227148113,"144":0.36445633862606686,"145":0.2445234106820013,"146":0.048511129243785464,"147":0.27372122951240585,"148":0.2621772747279129,"149":0.6424160381038009}},"15":{"bias":0.3808574479487464,"weights":{"0":0.40003069028551835,"1":0.19481796266122173,"2":-0.22228475622422697,"3":0.1256520018201947,"4":-0.1777164302532674,"5":-0.11631411704972162,"6":-0.1019943048861667,"7":-0.28292141319291236,"8":-0.1270445322988202,"9":0.16774959974966475,"10":0.2729469010651915,"11":-0.36537957872709137,"12":-0.46298129327561344,"13":-1.03260519822473,"14":-0.8176902188528069,"15":-0.6924713003538461,"16":-0.58582684675603,"17":-0.6812791601195314,"18":-0.47271434359769426,"19":0.07260971443295312,"20":-0.13349357931224873,"21":-0.6221133902828156,"22":-0.2153175880396838,"23":-0.18470364295343186,"24":-0.15489346138258492,"25":-1.1945272796037059,"26":-0.5308963433207008,"27":-0.3389047669513236,"28":-0.42827402740419035,"29":-0.18897888360778223,"30":-0.0325198285854084,"31":-0.25890415719233545,"32":0.17294079421942304,"33":-0.3890819561634629,"34":-0.5059221976583275,"35":-0.3036656531913387,"36":-0.7681600404199135,"37":-0.27659938105101767,"38":-0.6287951581533456,"39":-0.4866187338668142,"40":-0.38692528553052147,"41":-0.21449936332065397,"42":-0.09984153000782095,"43":0.18086851067840087,"44":-0.5768758840429222,"45":0.09475120652021028,"46":-0.5173751589702715,"47":0.12469993436996879,"48":-0.33617745129567567,"49":-0.4702276838932355,"50":-0.0421096991481985,"51":0.038510424019145784,"52":-0.3528285180169039,"53":-0.03312895352018286,"54":0.25326486496191886,"55":0.10154130657122071,"56":0.0259944163720284,"57":0.5735682752549771,"58":-0.6277434671836511,"59":-0.3933077884896462,"60":-0.36042978866448094,"61":0.002193609397788974,"62":0.32017941867484645,"63":0.16759095020788384,"64":-0.21039522526921642,"65":0.025271621539999983,"66":-0.0695147869266784,"67":0.11314822135855987,"68":-0.3852366317034256,"69":-0.3192433575201792,"70":-0.48192757176547274,"71":0.1789449936507511,"72":0.010862598041032042,"73":0.30254148092288774,"74":-0.05682322935080907,"75":-0.12271367043316458,"76":0.05356868087954309,"77":-0.04504405742649385,"78":-0.08660353270022264,"79":-0.5247363672092462,"80":-0.5116340743910776,"81":0.002511153650714681,"82":-0.2513007490972022,"83":0.35297490944100546,"84":0.16971402771310223,"85":-0.042688531897282375,"86":-0.004998314483332417,"87":-0.19235180664679238,"88":-0.10047189219286419,"89":-0.16555878443181238,"90":0.2185590354946592,"91":0.5674259894396365,"92":0.004210349865717186,"93":0.5687013630701149,"94":0.4567672516768005,"95":-0.10858341209369671,"96":-0.2782661719273468,"97":-0.1668344463541397,"98":-0.2501060595555363,"99":0.3012112937183577,"100":0.496746552551356,"101":0.08776949210849282,"102":0.6030415483671732,"103":0.3282442940778577,"104":0.23443532909193138,"105":0.10908034026290303,"106":0.07899771261689281,"107":-0.2699508295376416,"108":-0.1255038472923911,"109":-0.3583867736937222,"110":0.2919605771895281,"111":0.22791076269551203,"112":0.00462864692112151,"113":0.5881139769808966,"114":0.17691157409743175,"115":-0.15064781316411088,"116":-0.8316466753744487,"117":-0.01039999079972292,"118":-0.1429983639816534,"119":-0.2843118310106383,"120":0.046151744123511335,"121":0.50668140949558,"122":-0.206427244988105,"123":0.1649920776933315,"124":0.060909613617991645,"125":-0.4279785114014871,"126":-0.11592912808420705,"127":0.15677602149540654,"128":0.20141139017154452,"129":0.019648835426819614,"130":-0.020080181986169995,"131":0.2623712750873737,"132":0.09394833380652777,"133":0.5604683396741237,"134":0.7833451120383476,"135":0.7155041365856807,"136":0.1282121524976,"137":-0.19216239123268544,"138":-0.281485079503317,"139":0.07354553058049508,"140":-0.0840982477479431,"141":0.4337465836187724,"142":0.1632741339298395,"143":0.5098705430647857,"144":1.1345433606786164,"145":1.274309232413478,"146":-0.02355470627300375,"147":-0.11489929156308418,"148":-0.23181137119079867,"149":0.2167314561342805}},"16":{"bias":-0.0647268460998979,"weights":{"0":0.6319026324568029,"1":0.22619283499856338,"2":0.21806159981173148,"3":-0.02618375282883402,"4":0.07805134413794368,"5":-0.04054461797780746,"6":-0.03707868206267448,"7":-0.14567224929518743,"8":0.8130362470688886,"9":0.14390121133761502,"10":0.17917649288165788,"11":0.43982324798975536,"12":0.1867563995992152,"13":0.5494212811499247,"14":-0.33772525279683147,"15":-0.2944806477394403,"16":-0.4916866281857998,"17":-0.07956266624655181,"18":0.4514144785384193,"19":-0.3021482101016937,"20":-0.394058556448812,"21":0.016606969252466016,"22":-0.12201578277178386,"23":0.21488122887430372,"24":-0.0812887024635377,"25":-0.19315211284188233,"26":-0.21124778078370238,"27":-0.2610468945026148,"28":0.019898162046176653,"29":-0.09541745856250561,"30":0.10607688318392931,"31":-0.7067608223158328,"32":0.0100833995803748,"33":0.18192188540600548,"34":-0.0909875000467946,"35":0.26774382420054293,"36":0.15783900492525813,"37":-0.04476307760437033,"38":-0.3192281742226011,"39":-0.17327094335413773,"40":-0.17090482492481174,"41":-0.6414279165032145,"42":-0.06992277393270088,"43":-0.5106257457586845,"44":-0.5018963632881298,"45":0.06018390669867498,"46":-0.09842177314860749,"47":0.24287950601443795,"48":-0.1513575033242329,"49":0.13758382734827068,"50":-0.08423930864572673,"51":-0.1932814323682025,"52":-0.1772883168344469,"53":-0.1695316239936564,"54":-0.02346248860159676,"55":0.09929917560540698,"56":0.35408577833396276,"57":-0.49992649065157696,"58":-0.7488487774813568,"59":-0.26165400400916616,"60":-0.04773675512820193,"61":-0.3263188121943064,"62":-0.24305100896748746,"63":-0.05181456665579442,"64":0.29479878936032844,"65":-0.6039085410430233,"66":0.14674324819900214,"67":-0.208040612007176,"68":-0.1871158278832191,"69":-0.22118176584750074,"70":-0.8378836266381685,"71":-0.6410882719615467,"72":-0.30390925619403614,"73":0.14074964392092934,"74":0.22556889414169579,"75":0.30889328678393396,"76":0.3447355406730976,"77":0.02442002484757111,"78":0.11326733459641246,"79":0.14976816103398177,"80":-0.7512582470902882,"81":-0.81411425157833,"82":0.2722410357696365,"83":0.07409190568142944,"84":0.2976344769813625,"85":-0.05926657272031757,"86":0.3629565967127283,"87":-0.018781978073910494,"88":0.6583861509086187,"89":0.09218413901241765,"90":-0.0029118459004455343,"91":-0.34993182689666996,"92":-0.019916197493166442,"93":-0.28895717908365737,"94":-0.6641830960940698,"95":-0.4074834287564249,"96":-0.08474820375789834,"97":0.43089789326584915,"98":0.9202675480618149,"99":0.5145074518845628,"100":-0.05099541664990239,"101":-0.2891385303629419,"102":-0.3619040655763626,"103":-0.8242273682586528,"104":-1.2543768759811784,"105":-0.20070399665095381,"106":0.07345386868187419,"107":0.1629858678120459,"108":0.6731939733655877,"109":0.3353370599803956,"110":-0.22692959071460472,"111":0.06910570360807927,"112":-0.4215350090547977,"113":-0.9203882182527525,"114":-0.8385573405583203,"115":-0.1464066019658805,"116":0.003586899110608046,"117":0.428708039204506,"118":0.40473521900419984,"119":0.14181000503199082,"120":0.4095712284049554,"121":0.0005281964841555235,"122":-0.5863005274506472,"123":-1.4613347774640046,"124":-0.6249840556730069,"125":0.15379262608424743,"126":0.24844107671799434,"127":0.30236370142271196,"128":0.016582677388331336,"129":-0.2443048840076801,"130":0.6415780930482078,"131":0.2550235073134554,"132":-0.009526085750486015,"133":-0.5254952005510406,"134":0.08375100935930066,"135":0.40080171243577856,"136":0.8587852728601747,"137":0.4168356335504047,"138":-0.06636970514707291,"139":-0.19448559898254433,"140":0.41341905473423063,"141":0.6003464747105404,"142":0.07014840933231696,"143":0.044635769373226664,"144":0.2002067121848533,"145":0.16166899703954304,"146":1.0039127548791973,"147":-0.06752003602323474,"148":0.3614547538441542,"149":-0.45293389547806917}},"17":{"bias":0.6046252698690997,"weights":{"0":-0.4035063849268181,"1":0.046337649097396696,"2":0.2119563541735459,"3":0.36395599232525766,"4":0.32702367351427153,"5":0.20124069210576728,"6":-0.032234116306290236,"7":0.2736302565268847,"8":0.3991565744373899,"9":-0.2260800958419189,"10":-0.04594167783496886,"11":-0.07765280315122541,"12":0.19286753494893139,"13":-0.001610251288426269,"14":0.12234097727158624,"15":0.2680667737159587,"16":-0.5439499453316592,"17":-0.44236464487747135,"18":0.13118431824370366,"19":0.09719835284036075,"20":0.07930194677840124,"21":-0.09367196267734386,"22":-0.028477526778717385,"23":-0.10671181854697917,"24":-0.09336587658330929,"25":-0.0722119895853212,"26":0.11551653440838706,"27":-0.2610642093202525,"28":-0.3514452930746128,"29":-0.09675350687291909,"30":-0.1315023973915721,"31":-0.48898722502344544,"32":-0.17097447695635803,"33":-0.11663229285114525,"34":-0.05076858572283818,"35":-0.20066119476437502,"36":0.23249576685311,"37":-0.05559347273746162,"38":-0.11517413014827277,"39":-0.016965578275438528,"40":-0.36270667986731636,"41":-0.39144511625706674,"42":-0.3967392851711949,"43":-0.06866993447760845,"44":-0.6351621685726384,"45":0.037243207712175916,"46":0.1941962045814876,"47":0.41607040450541505,"48":0.06642492953821373,"49":-0.16024628433197036,"50":-0.27702694797982746,"51":0.25728707544343393,"52":0.03538246619731057,"53":-0.05587353582846982,"54":-0.7305359482933433,"55":0.3796430304939964,"56":0.026682536832191784,"57":0.6138036392457344,"58":0.17014147833514487,"59":0.042518899853915215,"60":-0.004967591723019481,"61":0.21766641249233207,"62":-0.27697608155357134,"63":-0.591680289529293,"64":-0.8282905682284958,"65":0.10800185138835623,"66":0.17678080977995742,"67":0.3452639154951146,"68":-0.1520835110834337,"69":-0.011333162204683236,"70":0.05485722343966183,"71":-0.039444537312114475,"72":-0.029106872874921894,"73":-0.4510371404181859,"74":-0.7352319163209535,"75":0.10797813004179291,"76":0.005128156738580545,"77":0.43354212083246224,"78":0.0024505733956248182,"79":-0.1523010693947072,"80":-0.2876508301278865,"81":0.3280553358567692,"82":0.6056027217648373,"83":-0.6446203644731454,"84":-0.5375007463499695,"85":-0.14492698307001112,"86":0.280093209522372,"87":0.3131727244737971,"88":0.13124922909350134,"89":-0.1688132139297729,"90":-0.04009965297831775,"91":-0.2622194738830837,"92":0.3583931960329458,"93":-0.6150342516770682,"94":-1.0888608578580679,"95":-0.2896485205664996,"96":-0.15695507399566147,"97":0.2137136453191288,"98":0.3045719664855668,"99":-0.23050354885762048,"100":0.4773591703444304,"101":0.3273336555983162,"102":0.35329773891350125,"103":-0.14993144669496158,"104":-1.0982619983295792,"105":0.014790583538338333,"106":0.07300776669295266,"107":0.423907703177501,"108":0.15173047783778976,"109":-0.1662124854267347,"110":-0.40505671552371636,"111":0.49414582905368476,"112":0.31245759031777914,"113":-0.4204663748575775,"114":-0.7578275224336007,"115":-0.5343753797108536,"116":0.486458102852136,"117":0.22703090661517453,"118":-0.20989924627645756,"119":-0.640567027885694,"120":0.07720635387761883,"121":0.7244550360672215,"122":0.05518907328308197,"123":-0.44515459663757956,"124":-0.5810532157128423,"125":-0.9142330027592815,"126":0.4447946594740278,"127":0.37946078536410865,"128":-0.10565182566968691,"129":0.02449071827588827,"130":-0.1793177910647404,"131":-0.113377571827371,"132":-0.16067040533161914,"133":-0.8000749490489676,"134":-0.6782758250700659,"135":-0.7368496051981384,"136":0.21061340992746086,"137":-0.10157379482671405,"138":0.5815285592108352,"139":0.4144750356025007,"140":-0.10176596719670461,"141":-0.05514373601118746,"142":0.07580067701014766,"143":-0.20719493913076542,"144":-0.5250559947544042,"145":-0.25503578126092563,"146":0.8371941064659265,"147":0.6084514799110663,"148":0.0734542819416388,"149":0.1642060217641709}},"18":{"bias":-0.006768328466618187,"weights":{"0":-0.10095073216813934,"1":-0.394680671573076,"2":0.42302805763845974,"3":0.41935459825302007,"4":-0.4212056506998841,"5":0.10711847966898756,"6":0.07672503572203551,"7":0.09324591613727574,"8":0.0727679406273885,"9":-0.2703132587052015,"10":-0.1892083226948888,"11":-0.7823718276821994,"12":0.5973034973184121,"13":0.930368203767952,"14":0.23804108885711317,"15":-0.2567852042240476,"16":-0.049656386386063255,"17":-0.2951757134422669,"18":-0.6853979686811534,"19":-0.560901473994067,"20":-0.5069968724161342,"21":-0.7662641247242197,"22":0.534034740811177,"23":0.6438600552294459,"24":0.24679736114280187,"25":0.46302713404442514,"26":0.2482212386441666,"27":-0.2179188163599614,"28":-0.523670104969959,"29":0.05018145711549895,"30":-0.0801879617481623,"31":-0.5283100727661925,"32":0.5989329885467187,"33":0.587550310225918,"34":0.1431063082146249,"35":0.35963407092964894,"36":-0.05658683188493335,"37":-0.1629084407334932,"38":-0.6524328963223327,"39":-0.28670870199982806,"40":-0.266632595928783,"41":-0.18971438417035366,"42":0.18995021319476654,"43":0.3508924490553082,"44":0.06487603177945886,"45":-0.019191357552644416,"46":-0.10955339399782787,"47":0.08411411230479514,"48":-0.24079353664505304,"49":0.14480684554883475,"50":0.025783280963307564,"51":-0.13024323580128358,"52":-0.014013842834171883,"53":-0.3547321338047906,"54":0.0167388139183378,"55":-0.2974256596435745,"56":0.4090295149247256,"57":0.3042435362258425,"58":0.24032442664495748,"59":-0.03391653126979474,"60":0.8798021650935125,"61":-0.0681315764934499,"62":-0.4699401172251845,"63":-0.32517220785822754,"64":-0.09770683331235573,"65":-0.6627087340999211,"66":-0.08554174818741725,"67":0.3871728197207462,"68":-0.04721607899474889,"69":-0.08120390919115392,"70":0.48392683534656067,"71":-0.4569431658283247,"72":-0.8646972652549028,"73":-0.1680822351923252,"74":-0.1519590306786081,"75":0.025059831356548583,"76":0.25176657064560864,"77":-0.2832991086220377,"78":-0.09384847193633758,"79":-0.09774301956089562,"80":0.552286273553085,"81":-0.6675366394481296,"82":-0.7688732126230517,"83":0.018003381250136376,"84":-0.0972173900128941,"85":0.14674360608425396,"86":0.5400376536250177,"87":-0.33167352741881595,"88":0.012465217031581727,"89":0.40215982851598353,"90":0.3289595528146954,"91":-0.5819247197932947,"92":-0.5392393694215467,"93":-0.29998865183620016,"94":0.45330054718337753,"95":0.40415614656693494,"96":0.45738846161493185,"97":-0.42294617639330345,"98":-0.2841192726833728,"99":-0.21655283810459855,"100":0.3205638409021684,"101":-0.20807216269994322,"102":-0.2055925885006089,"103":0.1260488771317443,"104":0.3272604622626168,"105":0.002054008182671284,"106":-0.06012342453104949,"107":-0.03184546075078225,"108":-0.14442796833636276,"109":0.23803737979539172,"110":0.01603536795763041,"111":0.43195522567700934,"112":-0.34955264907527783,"113":0.14630799157750807,"114":0.1341438479197708,"115":-0.17050646773274317,"116":-0.27186990244590165,"117":-0.9201355702108156,"118":-0.23419980841451904,"119":0.06712994322220825,"120":0.13100464843136658,"121":0.5148423645864013,"122":-0.2698350979946056,"123":0.057696690451423865,"124":-0.2462452208730461,"125":-0.13751262835988515,"126":-0.768199360754696,"127":-0.7935648026005309,"128":-0.393839394453453,"129":0.05976721988996169,"130":-0.4080043032104054,"131":0.13396386399176508,"132":-0.40147441970278797,"133":0.020054866805941516,"134":0.11892291146341796,"135":0.26410660796790675,"136":-0.4030817360882822,"137":-0.6150394041653899,"138":-0.4591114116312419,"139":-0.16931930953397348,"140":0.04538874671310076,"141":-0.31072530574145424,"142":-0.19819583767946775,"143":0.2106943927432878,"144":0.28560503661358916,"145":0.029199125941235946,"146":-0.44362190320706635,"147":-0.2579047337580028,"148":-0.5504608344684949,"149":0.01019934605604676}},"19":{"bias":-0.5357680183439918,"weights":{"0":-0.21249307782535726,"1":-0.4076501771222099,"2":-0.0023363571418659546,"3":-0.3134829777682416,"4":0.17299209934410945,"5":-0.17933807799575083,"6":0.5026951581672603,"7":0.40986741564769513,"8":-0.2534092974029179,"9":-0.13731517902241822,"10":-0.14732213860294396,"11":0.3768746615937652,"12":0.34594046154262587,"13":0.6376376330669256,"14":0.2621024175792165,"15":0.05487842118528123,"16":0.6824950672200184,"17":0.5716735922269746,"18":0.22451894355880062,"19":-0.8544197860225877,"20":-0.27181352733587316,"21":0.49689462241594334,"22":0.3284984432600789,"23":0.3201919178249475,"24":0.5334092256545809,"25":0.570559895819443,"26":0.5935587376280383,"27":0.34115138757644325,"28":0.28381136233173654,"29":-0.29564358239468064,"30":0.5545145921248654,"31":0.38120977109070453,"32":-0.13240840230938183,"33":0.35409384924733267,"34":0.267053040590803,"35":-0.16326994010889512,"36":0.4115786632735879,"37":0.035051690781128714,"38":0.08656555142510047,"39":-0.09769161803546487,"40":1.0575157109681002,"41":0.7550843033243545,"42":0.30759328760253507,"43":-0.2736580857679999,"44":-0.16811681333471898,"45":0.11844328565116168,"46":0.20141740124016538,"47":0.4148912095112656,"48":-0.26248897722934883,"49":-0.2526347114018471,"50":0.8899991883575262,"51":0.26985987763524016,"52":0.5422115113712992,"53":-0.47781984551572637,"54":-0.5510607744872635,"55":-0.04845299428305748,"56":-0.17884125813601814,"57":-0.24276260381820808,"58":-0.42694436607325703,"59":-0.25625292791886245,"60":0.6940216098005995,"61":-0.15085611532749113,"62":0.34748739140336626,"63":-0.06437145718253216,"64":-0.03224137159834201,"65":0.05588318764017829,"66":0.029794290848396163,"67":-0.3843974089084801,"68":-0.5198648147029402,"69":-0.4322870982899288,"70":0.33501377089894135,"71":-0.349340718095187,"72":-0.14364108199753334,"73":-0.5461902840585013,"74":-0.2946015075955731,"75":0.7333161262556772,"76":0.24707773896848603,"77":0.19599792243300557,"78":-0.1244734150755932,"79":-0.6799881277598455,"80":0.2869161039865024,"81":-0.6542053549258338,"82":0.2823025200847362,"83":-0.7646311619265984,"84":0.47276718377838073,"85":0.36471835179802004,"86":-0.21782972164815434,"87":-0.18648660659739347,"88":-0.3264922646645889,"89":-0.13003601884003815,"90":-0.41736229250378315,"91":-0.7715871423979,"92":0.20094720670761904,"93":-0.23536831667361843,"94":0.11542639250801304,"95":0.19686701938478265,"96":0.3208217859974494,"97":0.47115488560447716,"98":0.1995739767137951,"99":0.041117432294087,"100":-0.17715567705394905,"101":-0.30964351343048263,"102":-0.46409931364081,"103":-0.7650571675513292,"104":0.6061600965097099,"105":-0.11097964129642543,"106":-0.13980404763980842,"107":0.07403289457857237,"108":0.07319039770262821,"109":0.303411986301909,"110":-0.23991702778911214,"111":-0.23205380514558643,"112":0.07285638605444462,"113":-0.19424995711929727,"114":0.28453010404214707,"115":-0.06923492223239829,"116":-0.00552780336304897,"117":-0.10866156781605174,"118":0.012924329505025334,"119":0.3779044394966161,"120":-0.14108185812363505,"121":-0.35397116792186095,"122":-0.2086031643141024,"123":0.1330748072620063,"124":-0.16915084222563995,"125":-0.1956006571278893,"126":-0.48623158810827316,"127":0.02446313111640059,"128":0.3548261841755235,"129":0.2866419473584281,"130":0.34568828943865354,"131":0.39554989224565473,"132":-0.5469318175215014,"133":-0.2074908082027498,"134":-1.10649608679621,"135":-0.35219034945307226,"136":-0.7446330637841804,"137":-0.02274580722003908,"138":0.167722723652865,"139":0.9006690514709959,"140":0.46434156509519414,"141":-0.14411461970573575,"142":-0.47446119155737126,"143":-0.7932135551342486,"144":-0.9649679249087597,"145":-0.263882746761493,"146":-0.5138332324415309,"147":-0.17224056394052056,"148":-0.029480639100134005,"149":0.0697376631341759}},"20":{"bias":-0.7356489174765324,"weights":{"0":-0.004627526358459689,"1":-0.5837765760748304,"2":-0.22751577220621624,"3":0.22087736270271358,"4":-0.3272249071089456,"5":-0.2536109813889755,"6":0.5380371690935949,"7":0.05978302529238237,"8":-0.5256661618517284,"9":-0.36006790314865084,"10":-0.23727888537483963,"11":-0.05028672410078018,"12":0.7797822139728957,"13":0.052964579081269114,"14":-0.43818490345679545,"15":0.34442361607716504,"16":0.2770229517297054,"17":0.42464071973755474,"18":-0.49826963707395044,"19":-0.4812606357340933,"20":-0.07518139854839746,"21":0.12506817464718661,"22":0.09902750037987679,"23":0.4027778085966716,"24":0.2838910254645525,"25":0.7635458173990971,"26":-0.10895637573551273,"27":0.007946779730255175,"28":0.10149726902668632,"29":0.023416749326599658,"30":0.7503659410311228,"31":-0.1135655323166556,"32":-0.06349686645263838,"33":0.665815582931714,"34":0.8109672530412436,"35":0.8296918146795637,"36":0.5723369079729772,"37":0.23447355503444722,"38":-0.06472923226107802,"39":-0.10374176814111254,"40":0.24233747021053167,"41":-0.3581132189771226,"42":0.08702080441313749,"43":0.6443315236433916,"44":0.6596371159773607,"45":0.44437506299132434,"46":0.35837093582812923,"47":-0.289653387097489,"48":-0.08708291388340458,"49":0.11406752069806815,"50":0.17496355167250785,"51":-0.891186934611961,"52":0.16775710833506124,"53":0.10917097183852825,"54":0.3686344478900139,"55":-0.10034833481833418,"56":0.3031601505304955,"57":-0.49123201131713223,"58":0.15558216721369839,"59":0.3389685640241952,"60":-0.4445500132515793,"61":-0.3291190007615869,"62":-0.07690573355294142,"63":-0.06945558447564322,"64":0.36179753805072296,"65":0.3290340806266914,"66":0.42591423228975706,"67":0.23100089413704505,"68":0.07221473767146884,"69":0.38346697382565387,"70":-0.8939252241163426,"71":-0.24696776402696544,"72":-0.07075917095746793,"73":0.4671411221346219,"74":0.40027428695766787,"75":0.1942001176220197,"76":0.12393369948519148,"77":0.06956995388024485,"78":0.42164282343535053,"79":0.7263037657384905,"80":-0.40341636768080213,"81":-1.0863730144941988,"82":-0.32303432490540296,"83":0.5914187760454763,"84":0.6131772253316925,"85":-0.13113607421404996,"86":-0.06722446419720475,"87":-0.18696336362255297,"88":-0.07024204591923894,"89":0.6188393914031102,"90":-0.5077060735148646,"91":-1.44896168176012,"92":0.1258160318915149,"93":0.4524027106149269,"94":0.5164428177683172,"95":0.5137686735154114,"96":0.6111046759724511,"97":-0.13862333359988402,"98":-0.37922575385132645,"99":0.09822856560625233,"100":-0.6434199542275602,"101":-0.194243217292841,"102":-0.3931044615341444,"103":-0.1583922251735476,"104":0.46699313453001573,"105":-0.08093882520865907,"106":-0.6754961605862679,"107":-0.0956381746627356,"108":0.0020207987551467215,"109":0.8567944623377192,"110":-0.3701416978147143,"111":0.09672986916667556,"112":-0.563874756244432,"113":-0.28494976394728483,"114":0.4490445055028995,"115":-0.22761311615331245,"116":-0.2516030706564369,"117":-0.2867519095996135,"118":-0.5530804531008944,"119":-0.03108611129063927,"120":0.07206934589902901,"121":-0.7104245558330334,"122":-0.15483838714502962,"123":0.32833137039471777,"124":0.522310603837642,"125":0.5600160127080493,"126":-0.6597435114450451,"127":-0.37612490592048575,"128":-0.6241564149942986,"129":-0.5209726913895923,"130":0.6178201806056068,"131":-0.007827493379823714,"132":0.3074405381280022,"133":0.1696154231981685,"134":0.47212431425890955,"135":0.5925211559753066,"136":0.17920866058870852,"137":0.1691561295728144,"138":-0.21011705398937555,"139":-0.14343409573293386,"140":0.3426941468932287,"141":-0.19542416547805228,"142":-0.40753683437562105,"143":0.02134437142606482,"144":-0.2178306876411159,"145":-0.09944003051721921,"146":0.09289962452522023,"147":-0.3429658001712735,"148":0.1616876079207349,"149":0.008738984488591735}},"21":{"bias":-0.49626631492864914,"weights":{"0":0.5798054134554279,"1":0.11749727341058958,"2":0.29853104601023306,"3":1.2663193746991286,"4":-0.44768323745368943,"5":0.46208105342700495,"6":-0.4545003769876766,"7":-0.04410785044598526,"8":0.17147402725959332,"9":0.029030996467316002,"10":0.5019114954076789,"11":0.7766692341885006,"12":0.8378963450132041,"13":0.5263479720075426,"14":0.25175941524777773,"15":-0.3214278171006573,"16":-0.16962343545618988,"17":-0.3039981377006398,"18":-0.13884949295462118,"19":0.1244773068131159,"20":0.42983695768325986,"21":0.2968192814611923,"22":-0.2380974574794107,"23":-0.3181292429636294,"24":-0.0805329829958457,"25":-0.4306984474645994,"26":-0.8577453696796253,"27":-0.4639379001468394,"28":-0.45587371014256095,"29":0.3031969115431881,"30":0.4372573432538524,"31":-0.29276083350959037,"32":0.3307586513775834,"33":-0.33362414213542313,"34":-0.36415018666511895,"35":0.5788434207095775,"36":0.02736595272323805,"37":-0.10693584811754718,"38":0.010972066774776024,"39":-0.18248061355394818,"40":0.07189475080790651,"41":-0.35353837628128437,"42":0.41240520221738003,"43":0.16462522024383658,"44":0.17699709749114625,"45":-0.10365559294909898,"46":0.2588057479279286,"47":0.6293376128126937,"48":0.3494464698952455,"49":-0.13926384248504778,"50":-0.0029193882798744775,"51":-0.24256301392576898,"52":-0.3853387555430935,"53":0.054911129080893704,"54":-0.2161663902100916,"55":0.3654673150224267,"56":0.8776598546856024,"57":0.7579855560384201,"58":0.6211753482257462,"59":-0.06444542405056446,"60":0.661347770737894,"61":0.12655759203481626,"62":-0.1934095995206361,"63":-0.3799967266525378,"64":-0.5323338355689714,"65":-0.07446112938070149,"66":0.2621020484180751,"67":0.4082591931899483,"68":0.830425198704807,"69":0.41680628961867233,"70":0.0017547547962816165,"71":0.45836338252835845,"72":-0.5664769701061606,"73":-0.26799851020990084,"74":0.09761063167576958,"75":-0.007672847124588251,"76":-0.05258438423419293,"77":0.9067385188802635,"78":0.8128819262880321,"79":0.7460686751284611,"80":-0.39860818380769963,"81":0.2678094936340959,"82":-0.22583179719660712,"83":0.3121711355641761,"84":0.018432403384447366,"85":-0.06437330887756396,"86":0.10912553722999505,"87":0.1752285008445564,"88":0.6856122651554969,"89":0.009485669601820932,"90":0.6618600159237442,"91":0.11188420376795127,"92":-0.153706618770684,"93":0.06502495495643403,"94":-0.22801559853620637,"95":0.38449356626298126,"96":0.48132910272442125,"97":-0.09347131283280308,"98":0.350744496540721,"99":0.5314112721876155,"100":0.0883181822806805,"101":-0.36926061758544176,"102":-0.6342268838292782,"103":0.04466461352930462,"104":-0.37955908391246346,"105":0.6787446443895963,"106":0.7939761409647189,"107":0.9049413132121524,"108":0.40669407148735726,"109":0.3012517580584569,"110":0.36636029028631917,"111":-0.27521258303494495,"112":-0.7173638759249669,"113":-0.45765744509760076,"114":-0.10055759217478878,"115":0.13658292985316794,"116":0.5230267659243462,"117":0.5281543492713706,"118":0.765464412869654,"119":0.04345448964054617,"120":0.995960325073176,"121":0.49469973914540205,"122":-0.7463638020222274,"123":-0.48534514502128406,"124":0.3921799908487576,"125":-0.6002001232947161,"126":-0.5939560373672388,"127":-0.17408135086840065,"128":-0.0523452061812123,"129":0.0378107020699609,"130":-0.2669315655298736,"131":0.48199221648537105,"132":0.2533094723798126,"133":0.12349739803108681,"134":0.3121429852308906,"135":-0.5321515752864063,"136":-0.23668787432591654,"137":-0.48822251783603454,"138":-0.10393508821764341,"139":-0.039762497529147844,"140":-0.4892084681401312,"141":-0.37171734807837525,"142":0.4084590316560811,"143":0.7786565310897596,"144":0.5446574964151526,"145":-0.3535019052666549,"146":-0.1955556282364292,"147":-0.3843672145298135,"148":-0.5701854431977205,"149":0.009613570842488777}},"22":{"bias":-1.0582101570924358,"weights":{"0":-0.1277428746804786,"1":0.33206523888592476,"2":-0.13188430445333718,"3":-0.06416960064088756,"4":-0.3407943674596078,"5":-0.24409021781336324,"6":-0.031845910194719766,"7":-0.3186939048443219,"8":0.6629652973474313,"9":0.22497697758888807,"10":0.20595190752217477,"11":0.5405187819699055,"12":-0.17657458581777047,"13":-0.4120348614523997,"14":-0.46560942106848113,"15":-0.25527654389444093,"16":0.09997705186431191,"17":-0.062425806591755596,"18":0.6117473606683606,"19":-0.3603602663364652,"20":0.12654979157984855,"21":0.10312195655499397,"22":-0.01584774187697816,"23":0.12817100283310945,"24":0.3320411998316591,"25":0.19775399946350242,"26":0.8034410969370446,"27":-0.06833588112645045,"28":0.12633878925493816,"29":-0.4098261208840667,"30":0.5225465826821072,"31":0.43066658858203316,"32":0.05927764666762577,"33":0.2962363603331443,"34":0.4015607540222611,"35":0.7943032467555183,"36":0.7493433777921865,"37":0.6477165293724632,"38":-0.23831829017022238,"39":-0.30953176272169375,"40":0.35753942523502097,"41":0.4650773904362076,"42":-0.35439690393390927,"43":0.03239193459250108,"44":0.6930693386915205,"45":0.214276281254682,"46":0.2702382141646813,"47":0.39796924286530505,"48":0.01033150079554405,"49":-0.22166646824933586,"50":0.6098302507286208,"51":-0.033797463987171844,"52":0.28339240557983275,"53":0.23508169547494498,"54":-0.2626707693037074,"55":-0.4617348286159071,"56":0.1638326164886882,"57":0.09661274143668912,"58":-0.42568350497978025,"59":0.13629861558583672,"60":0.40968939781697666,"61":-0.11960024206672135,"62":0.43271592629516564,"63":0.21228088594967134,"64":-0.2836260016019812,"65":0.22290993126977648,"66":-0.5089758641880406,"67":-0.2523621180260572,"68":-0.45705510452760745,"69":-0.2922012046874698,"70":0.47251193153512155,"71":-0.1346724304911289,"72":-0.03130780913213066,"73":-0.1543960421836752,"74":-0.15055017960055944,"75":-0.40857499401526515,"76":0.12847036984664018,"77":-0.13216583647550528,"78":-0.3218933537296043,"79":-0.01753504555182809,"80":0.25063261819406163,"81":-0.2905028084850153,"82":-0.11956546161305516,"83":-0.27703946405731966,"84":0.1405202691129348,"85":-0.2704945951772595,"86":0.230972908539072,"87":0.3049795448111565,"88":-0.20987088764991438,"89":0.34794397762416435,"90":0.005640641241988311,"91":-0.6859265470343996,"92":0.13793434350478034,"93":-0.049196216067662925,"94":0.3960223211546939,"95":0.4169246918452133,"96":0.16911133079560545,"97":0.04664799417893184,"98":0.0436416650054763,"99":-0.09521913059462471,"100":0.2608029891700895,"101":0.040864460729299605,"102":-0.2728097625363989,"103":0.14208410276020988,"104":0.05694963044762204,"105":-0.14590869248361835,"106":0.26811629354837047,"107":0.235659423647009,"108":0.06393206530823144,"109":0.15841674431525374,"110":0.2319604162951012,"111":-0.6488228573590209,"112":-0.24908090564913377,"113":-0.11497510664324999,"114":0.44532802917400516,"115":0.1656614575351338,"116":-0.13917563649228676,"117":-0.18731006851085244,"118":-0.03174982643158696,"119":0.5756527148413674,"120":-0.23987932365404593,"121":0.1624815414723426,"122":-0.7005112152372377,"123":-0.49518742667766386,"124":0.17474528316921326,"125":0.33014733928391643,"126":0.23675785477682765,"127":-0.5571374725275943,"128":0.17638470408242157,"129":0.03816203534422688,"130":-0.3100823996284734,"131":-0.1578424017060231,"132":0.2823906397215405,"133":0.3689788964126515,"134":0.5459324487065774,"135":0.3382109897401812,"136":0.2143782334124786,"137":0.28004655564518477,"138":0.21184510041143356,"139":0.4487645878968115,"140":-0.11519369546112505,"141":-0.14228632395580681,"142":0.158581090270896,"143":0.5421586628809967,"144":0.6981569400940612,"145":0.44288467013201827,"146":0.09193650565794265,"147":-0.06665427563802555,"148":0.7179209404012663,"149":0.17269074034218013}},"23":{"bias":-0.2346115717509791,"weights":{"0":-0.24058838893207296,"1":0.06650547062610934,"2":0.21663834136135887,"3":0.18442087147629088,"4":-0.0899323806188767,"5":0.044183497327815104,"6":0.8457616208375069,"7":0.18025315882147747,"8":0.09855790729070078,"9":-0.22082243280054004,"10":-0.44532230070137185,"11":-0.27801539455511726,"12":-0.06363556360582259,"13":0.41476231940100095,"14":0.3120075244106657,"15":0.059420578813683,"16":0.6172495652319525,"17":-0.3262765726186861,"18":-0.06579039017374051,"19":-0.15866515409228893,"20":-0.333581689358636,"21":-0.7029383074124729,"22":0.43260698865725217,"23":0.23200057065406215,"24":0.5403053677044287,"25":0.6666802357332671,"26":0.7518447294540481,"27":0.21789469337018666,"28":-0.17776083672298945,"29":0.15720213000478683,"30":-0.4668555613342695,"31":-0.5495778459170307,"32":0.3186751459408072,"33":-0.1322423659461477,"34":0.5322464691983205,"35":0.37791818503796165,"36":0.3766974461363226,"37":1.1113237960358755,"38":0.06025863511233472,"39":0.09020947086950892,"40":-1.055643122602199,"41":-0.7940036262500945,"42":-0.5281331085670095,"43":-0.35878445032894185,"44":0.4691461292494894,"45":-0.06048231170193561,"46":0.9726756500305723,"47":0.7395002112842071,"48":0.7408768384042409,"49":0.24292625750043076,"50":-1.223177543680824,"51":-0.8007641118158334,"52":-0.20016471409176684,"53":0.1462672075795513,"54":-0.14641306854626843,"55":-0.24469642818062945,"56":0.7122474608547278,"57":0.6335016850176171,"58":1.1369400852366196,"59":0.5020357627000483,"60":-0.8600502743918136,"61":-0.1639668367339675,"62":-0.12429489007453516,"63":-0.23001896786333748,"64":-0.9201788604329423,"65":-0.2400016917741302,"66":-0.19337825429786226,"67":0.5228308393561407,"68":0.1815667714488566,"69":0.9134692859489385,"70":0.30478054372499586,"71":-0.3649205835130606,"72":-0.3076512072018531,"73":0.03374521338218697,"74":-0.24287522315471693,"75":-0.054954357104768065,"76":-0.14032873987538863,"77":0.08506301797160887,"78":-0.017119709972988048,"79":0.3190186400869599,"80":0.2595999749941544,"81":0.37036971134531727,"82":-0.18407757177533868,"83":-0.12741191392379264,"84":-0.8227345281261249,"85":-0.23979696492563726,"86":-0.5793654011875503,"87":-0.07898109272249203,"88":0.023540416063150268,"89":0.3054865215861271,"90":0.9648006347564848,"91":0.7588888815868232,"92":0.057363060082376405,"93":-0.4495171605887017,"94":-0.2777842041838374,"95":-0.07906341376310215,"96":0.018155014178001933,"97":-0.7436455617892928,"98":-0.47328828540386364,"99":-0.5105208446508769,"100":0.5469956648672621,"101":0.6596246540988167,"102":0.7913001761079408,"103":0.11508228255075653,"104":-0.027648121716268813,"105":-0.3744616210513334,"106":-0.6146580460291595,"107":-0.8149244427598618,"108":-0.5915914303671156,"109":-0.17400781865801634,"110":-0.3311467108593639,"111":0.6681611766914143,"112":0.43252753984708714,"113":0.14710331718282627,"114":-0.2254858167906012,"115":0.022123933031613186,"116":-0.6108646252366537,"117":-1.1470898877199007,"118":-0.4443085298387363,"119":-0.06810181591409847,"120":-0.1318175079141152,"121":0.27294972157885583,"122":0.41844343257284283,"123":-0.16752815543837016,"124":-0.006613480492874495,"125":0.3489984937457287,"126":-0.5078134747362905,"127":-0.7255005376958121,"128":-0.27462636891645914,"129":-0.04625201659937909,"130":-0.5456776048299953,"131":-0.32097233991022905,"132":0.6839614711804434,"133":-0.16676252245831974,"134":0.46587719529664534,"135":0.21213388459478288,"136":0.07461443588598472,"137":-0.5279661884459983,"138":-0.3789131712765457,"139":-0.3082961765606769,"140":-0.15082553776378949,"141":-0.3459429591247878,"142":0.35303169459496164,"143":0.5945183344121642,"144":-0.05012320830506258,"145":0.22767115484453743,"146":0.049591128921316285,"147":-0.3319281008740239,"148":-0.09830722103125587,"149":0.06447388921454057}},"24":{"bias":0.28801031689837014,"weights":{"0":-0.033870586572571144,"1":0.2175435522868168,"2":-0.2273148585134079,"3":0.2014367866652122,"4":-0.1366794646754671,"5":-0.029914442488091435,"6":-0.05255551473163035,"7":-0.41033650120474224,"8":-0.45626122466751406,"9":-0.021762076779205154,"10":-0.15936364152665713,"11":-0.6353575518638128,"12":-0.5648879617293341,"13":-0.4343546140526822,"14":0.34250729580085315,"15":-0.887586416266418,"16":-0.1122861431054082,"17":-0.40810531790667814,"18":-0.7376797772756621,"19":0.40369381470461935,"20":-0.2379719037779623,"21":-0.1632876190887014,"22":-0.17473849880649317,"23":-0.033067788528420544,"24":0.39444647710542,"25":0.36751811098806636,"26":0.31676500271780095,"27":0.06251937575377015,"28":-0.30045169385132797,"29":0.3894184814002617,"30":-0.31765248946937585,"31":0.5405912039092147,"32":-0.5002522327065816,"33":0.23007114511012655,"34":0.913824543367673,"35":0.7153674394421006,"36":-0.08631710778293052,"37":0.1099490650682966,"38":0.01920617661582338,"39":0.7459203050784093,"40":-0.196248053671509,"41":-0.037076113517668284,"42":0.5424370225378112,"43":0.2542222522484266,"44":0.5852626294057578,"45":0.22284978811619618,"46":-0.549933321031535,"47":0.038819205126479996,"48":0.19260585764590685,"49":0.4869587088737751,"50":0.2624239274899496,"51":0.7508105142348184,"52":0.25654898009142985,"53":0.011115440560820715,"54":0.2561948092804235,"55":-0.4730202858227849,"56":-0.8331401078128092,"57":-0.3158182534152254,"58":-0.0027032414336137134,"59":0.7681840574362715,"60":0.2389310793411147,"61":0.5104162448675066,"62":0.6538030439197502,"63":-0.03427749971873667,"64":-0.13228907103946091,"65":-0.738671648631258,"66":-0.5105473938424129,"67":-0.23343594101337722,"68":0.3482278095950001,"69":0.3041830872105644,"70":0.6018370643612942,"71":1.0930829734832763,"72":0.03168992160763865,"73":0.14654924883747297,"74":0.08940270081214498,"75":-0.08009348187608978,"76":-0.3618964175738201,"77":-0.30042018253432456,"78":0.2686865694820932,"79":0.055822867013470216,"80":0.8543020129455549,"81":0.6881957042435293,"82":0.016040074490787072,"83":-0.3885400071271249,"84":-0.21449623237372337,"85":-0.5227486259044064,"86":-0.45613529643492623,"87":-0.4690020887570247,"88":0.062210135458179217,"89":0.5470359331946788,"90":0.05732675936338466,"91":0.6164350356586914,"92":0.046225521322509094,"93":-0.1183115706960246,"94":-0.05552782791566629,"95":0.021102603792429703,"96":-0.46075145106773696,"97":-0.45722782054364397,"98":0.05856723598023319,"99":0.10313399359211389,"100":-0.05287424499330519,"101":0.29300004985113276,"102":-0.015324778430138858,"103":-0.2647923370020957,"104":0.10040381786747464,"105":-0.4671179080133351,"106":-0.25262600363767324,"107":-0.0691295223015572,"108":-0.19872930617853776,"109":-0.06467778583099898,"110":0.4246232409237372,"111":0.07412146674963249,"112":-0.1474239734453491,"113":0.14493609571963564,"114":-0.49416190375272057,"115":-0.6690386924763895,"116":-0.35914177688199306,"117":-0.25246176719033275,"118":-0.5839230784460101,"119":-0.40031986663551766,"120":0.0939652894941323,"121":0.16200625336370483,"122":-0.34489400405010023,"123":-0.10509948112260362,"124":-0.4686911294410612,"125":-0.7146761440425285,"126":-0.31306852551874853,"127":-0.026049403682173466,"128":-0.3080322742890033,"129":-0.23798229657081377,"130":-0.21626477427172672,"131":-0.3937362466565197,"132":-0.4259370975824403,"133":-0.3637874085682893,"134":-0.17517049879308583,"135":-0.42151083206724504,"136":-0.009375172834485017,"137":-0.3335436414644734,"138":-0.4631350556403668,"139":-0.40804637622900797,"140":-0.17626772694817852,"141":-0.5055238627219173,"142":-0.24990657619697243,"143":0.0897894067302783,"144":-0.026124185337053907,"145":0.17758338298964527,"146":-0.1250811064922188,"147":-0.4799296456177077,"148":-0.07329215727571678,"149":-0.26698002939209514}},"25":{"bias":-0.3996776923626966,"weights":{"0":-0.080591966834313,"1":-0.435558569432486,"2":0.46123105406379833,"3":0.24112982293792276,"4":0.02582807838331292,"5":-0.26726187166599025,"6":0.019888898418046308,"7":0.3111369072366399,"8":-0.6515752475925468,"9":-0.2542804331679518,"10":0.4296653168151094,"11":0.10716079582180094,"12":0.3222749725546056,"13":0.7974529603442481,"14":0.5432190697167995,"15":0.02996804560016936,"16":-0.1654690890351265,"17":0.08385432777334571,"18":0.28458730404817506,"19":-0.05938180574102469,"20":0.08713473101527233,"21":0.45775427733126345,"22":0.7125241132479445,"23":0.15304485583682612,"24":-0.2971282283498603,"25":-0.6876036730035093,"26":-0.3386758783856114,"27":0.0926454663661071,"28":-0.12488220166209842,"29":0.2693532085490432,"30":0.14342501844069053,"31":-0.06380636419498434,"32":0.21168423418868482,"33":-0.21319730797823433,"34":-0.143001011417967,"35":-0.3366259990925269,"36":0.004204333800829816,"37":-0.29273984065063435,"38":-0.2161996927865952,"39":0.06622899134312035,"40":0.18046069530170675,"41":-0.0178521827984934,"42":-0.011200791595858765,"43":-0.4922163257678376,"44":0.6671832714112872,"45":0.43958535475722255,"46":0.010281031170430143,"47":0.09015983968702651,"48":-0.5350089479157607,"49":-0.2742072529732108,"50":-0.013978026576242912,"51":0.060332737291322186,