{"layers":[{"0":{},"1":{},"2":{},"3":{},"4":{},"5":{},"6":{},"7":{},"8":{},"9":{},"10":{},"11":{},"12":{},"13":{},"14":{},"15":{},"16":{},"17":{},"18":{},"19":{},"20":{},"21":{},"22":{},"23":{},"24":{},"25":{},"26":{},"27":{},"28":{},"29":{},"30":{},"31":{},"32":{},"33":{},"34":{},"35":{},"36":{},"37":{},"38":{},"39":{},"40":{},"41":{},"42":{},"43":{},"44":{},"45":{},"46":{},"47":{},"48":{},"49":{},"50":{},"51":{},"52":{},"53":{},"54":{},"55":{},"56":{},"57":{},"58":{},"59":{},"60":{},"61":{},"62":{},"63":{},"64":{},"65":{},"66":{},"67":{},"68":{},"69":{},"70":{},"71":{},"72":{},"73":{},"74":{},"75":{},"76":{},"77":{},"78":{},"79":{},"80":{},"81":{},"82":{},"83":{},"84":{},"85":{},"86":{},"87":{},"88":{},"89":{},"90":{},"91":{},"92":{},"93":{},"94":{},"95":{},"96":{},"97":{},"98":{},"99":{},"100":{},"101":{},"102":{},"103":{},"104":{},"105":{},"106":{},"107":{},"108":{},"109":{},"110":{},"111":{},"112":{},"113":{},"114":{},"115":{},"116":{},"117":{},"118":{},"119":{},"120":{},"121":{},"122":{},"123":{},"124":{},"125":{},"126":{},"127":{},"128":{},"129":{},"130":{},"131":{},"132":{},"133":{},"134":{},"135":{},"136":{},"137":{},"138":{},"139":{},"140":{},"141":{},"142":{},"143":{},"144":{},"145":{},"146":{},"147":{},"148":{},"149":{}},{"0":{"bias":-0.1019056861039538,"weights":{"0":-0.39982277134368194,"1":0.33021087015627554,"2":-0.3809201460702831,"3":0.2395690128158986,"4":0.33352719199485503,"5":0.33712568760605827,"6":-0.26584600319832474,"7":-0.2108647511831012,"8":-0.07877456556727574,"9":0.3184815873277271,"10":-0.1894148636198163,"11":-0.2751224348556832,"12":-0.5029210589303525,"13":0.12374674829841334,"14":0.5136580981308554,"15":-0.7272366782330538,"16":0.2525525937112419,"17":-0.44898386065016005,"18":-0.22627140525781209,"19":0.510500857662063,"20":-0.3913693984787531,"21":-0.3372709615643352,"22":-0.31088332371591637,"23":-0.4233411059459149,"24":0.4682612501008908,"25":-0.3585349063905075,"26":-0.23700500985953044,"27":-0.1658397874252564,"28":-0.4265012234863723,"29":0.10486120401971669,"30":-0.10954580387480985,"31":-0.2855385716411971,"32":0.01264597824104702,"33":-0.05904952687581174,"34":0.3728501334439924,"35":-0.10999714270329868,"36":-0.04921333105958534,"37":0.14743169203096398,"38":0.49114979290764643,"39":0.003317444852146061,"40":0.06862563576209031,"41":0.04666216311205826,"42":0.2781430503943946,"43":0.19869609725270077,"44":-0.24603808040924405,"45":-0.08674173947678272,"46":0.15942945364079733,"47":0.15596818909037757,"48":0.015932825072988394,"49":-0.05156752649192612,"50":0.1708499132166717,"51":0.014537314228796531,"52":0.520874963122117,"53":-0.003483873123041193,"54":0.08600917983846217,"55":0.7061847106042439,"56":0.5449165811841452,"57":0.503267390176803,"58":0.17965027774837156,"59":-0.14376256185875558,"60":-0.010066157449465877,"61":0.14501264057713031,"62":0.1890477766560232,"63":0.2432665085286573,"64":0.45097853135562155,"65":-0.03240853180068018,"66":0.3496908951433316,"67":0.055193579384095255,"68":-0.14278428754961695,"69":-0.1141771230848085,"70":-0.2896143840803486,"71":0.18824961764816595,"72":-0.20480491821134927,"73":0.16807872019700418,"74":0.397777648739725,"75":0.38978042360419485,"76":0.4377288533474172,"77":0.23688365609706974,"78":-0.25040238046532914,"79":-0.6407095810280976,"80":-0.0310486640081568,"81":0.16414127135605566,"82":0.013316239777917148,"83":0.508212719628133,"84":0.5432172458453668,"85":0.5084532762014806,"86":0.0530992001602697,"87":0.12915317304469406,"88":-0.1250424752683475,"89":-0.3481111649234577,"90":0.08840792447805727,"91":0.16676476146783797,"92":-0.026829536182557297,"93":0.203423954902479,"94":0.0902272093656972,"95":0.6473893723210263,"96":0.3245462749497271,"97":0.4959520351582,"98":-0.15478215072697205,"99":-0.8001843024398964,"100":0.16633417147189009,"101":0.2414776945582052,"102":0.21168699039086716,"103":-0.2832788106535987,"104":0.2529233511167555,"105":0.5251866092658153,"106":0.3170858648932568,"107":-0.03613976391309624,"108":0.1626596427149749,"109":-0.8355967675328093,"110":0.025988679329887614,"111":-0.14073687048922157,"112":-0.6071299882862385,"113":-0.35354637896374996,"114":0.29839554155580783,"115":-0.20478301883425723,"116":0.052315660186681205,"117":-0.17683313712853532,"118":-0.36264322741939425,"119":-0.5316425064906275,"120":0.2633613730149533,"121":0.08903216191558296,"122":-0.6403639507210958,"123":-1.0022724708911144,"124":-0.5687527064528775,"125":-0.9279245295728947,"126":-0.12714067914834026,"127":-0.6539598737339376,"128":-0.6778575837489247,"129":-0.3257670611187399,"130":-0.003577641638858997,"131":0.10354424207488652,"132":-0.4364964297101256,"133":-0.00748936653975658,"134":-0.6687364206686867,"135":-0.3296481521696171,"136":-0.8866424902460717,"137":-0.9180905953209528,"138":-0.4300019860934471,"139":0.3234845591196696,"140":0.16897963538099658,"141":-0.6133828423642167,"142":-0.06169609184789484,"143":0.4194940166343926,"144":0.16732136341630122,"145":-0.34835910387450475,"146":-0.32908698181795193,"147":-0.8484029957888551,"148":-0.1912302293292523,"149":-0.19518602465378992}},"1":{"bias":-0.08823132739223065,"weights":{"0":-0.5683362814722539,"1":-0.5577657426373057,"2":-0.18590770427301379,"3":0.7194234861981806,"4":0.15381166180379052,"5":-0.02211164493926848,"6":-0.11970660360943126,"7":0.2552492361870265,"8":0.29979874807964413,"9":0.4964924978368821,"10":0.15644611906051548,"11":0.3292893792410672,"12":0.23275714111602577,"13":0.8008776401737023,"14":0.35362559606726834,"15":0.2086594540617597,"16":0.2272444726172645,"17":0.28352416587053253,"18":0.8597139039979056,"19":0.20104988880970925,"20":0.20269565556270652,"21":0.3238447100816457,"22":0.2454607660880766,"23":0.3991744916466689,"24":0.05767273479451107,"25":0.07200902062595688,"26":0.44092339154962,"27":0.09385281985703711,"28":0.2351491404511709,"29":-0.06602172149945265,"30":0.03517781168648072,"31":0.2949883191829994,"32":-0.16266312065497193,"33":-0.029845839323898282,"34":0.08012137039371937,"35":-0.28133048162068597,"36":-0.5848226374430184,"37":-0.4684659539052577,"38":-0.2326466193706822,"39":0.06424343900425548,"40":0.3669616252206928,"41":0.05680162060298742,"42":0.04211179530939485,"43":0.15598331862828718,"44":-0.31941837328270917,"45":0.070650292520525,"46":-0.3958756444256757,"47":-0.1801276626382117,"48":-0.6573699034270047,"49":-0.16606084780538885,"50":0.3131657480166277,"51":-0.13053752890192785,"52":-0.0638018506635762,"53":-0.49959605363480675,"54":-0.49094230780042913,"55":-0.18987308287940732,"56":-0.030723985040180004,"57":-0.3427739114199479,"58":-0.47063196816241587,"59":0.38880847814128683,"60":0.10672571317140815,"61":-0.32497787597992706,"62":0.08665017023509737,"63":-0.03241700257213003,"64":-0.34722026172007253,"65":-0.4248480483007761,"66":0.031346510382569075,"67":-0.381636065968333,"68":-0.22964754440605925,"69":0.4569255846191526,"70":-0.13633614467134603,"71":-0.07194175069646026,"72":-0.3573232631778579,"73":-0.02466271943039728,"74":-0.3483165887857313,"75":-0.3168227617629691,"76":0.002808805523953384,"77":-0.07226669633011061,"78":-0.1981919208174358,"79":0.1755785470177366,"80":0.262920345002928,"81":-0.25859088665528435,"82":0.05047806737674208,"83":-0.37970778615625483,"84":0.1271515824040777,"85":-0.31154720988949414,"86":-0.058805459408056655,"87":-0.20266191115216436,"88":0.1232073242964185,"89":-0.12459759923356817,"90":0.04420064858413312,"91":-0.1441673225530973,"92":0.3044971282069416,"93":-0.15839533385293555,"94":-0.01018427928927589,"95":-0.5969384216459565,"96":-0.20734164579371828,"97":0.3092518755711335,"98":0.5539026012286494,"99":0.5283052105105505,"100":-0.12075759604128908,"101":0.015724577256860647,"102":-0.11122059996756524,"103":-0.10701275201264876,"104":0.22741991589174929,"105":0.23685358774999388,"106":0.27499156488321724,"107":0.5012776446578454,"108":0.607725608395621,"109":0.7996478560658973,"110":0.07829906439122816,"111":-0.1185223774599968,"112":0.45779715888885736,"113":-0.5874184774033234,"114":-0.46064706265720207,"115":0.3088605851247914,"116":0.3908958432750759,"117":0.4466698381988732,"118":0.6405025573328764,"119":0.2707261124266098,"120":-0.20570208581988095,"121":-0.06567682703297092,"122":0.3226540109111172,"123":0.2741421755363176,"124":0.23788679444982594,"125":0.4229167584864722,"126":0.29700585876663316,"127":0.13951858824345653,"128":0.5910082679608115,"129":0.26863378116872116,"130":-0.1300636116558684,"131":-0.2698524575546597,"132":-0.19489443721991367,"133":-0.09530272074525023,"134":0.18808255354582473,"135":0.7767071634807039,"136":0.37949504937270223,"137":-0.2173879128228188,"138":0.6408494974166579,"139":0.41522408425524243,"140":0.0025860175177169734,"141":0.07049259402570104,"142":-0.038690279575363626,"143":0.06705523477810355,"144":-0.4512486363446908,"145":-0.0906644881798905,"146":-0.314152323927245,"147":-0.06402149839266368,"148":0.09753652072742257,"149":-0.18647815471208193}},"2":{"bias":-0.33486007127609474,"weights":{"0":0.010509395003660138,"1":-0.5519309041105026,"2":-0.1432655053861429,"3":-0.18467572791005055,"4":-0.05957476688054787,"5":-0.113338477397597,"6":0.14003228389383193,"7":-0.3289983654164069,"8":-0.22215169804981064,"9":0.25543025856273494,"10":-0.20595543608952596,"11":-0.6062450977283882,"12":0.1814754823535274,"13":0.7083465111157732,"14":0.05316988212829829,"15":0.0573108423040734,"16":-0.44779746373669976,"17":-0.39494235016426615,"18":-0.07149826880599605,"19":0.8564220253208664,"20":-0.14414336120235877,"21":-0.12443366812628781,"22":0.15291482677435292,"23":0.5276759225687819,"24":-0.019168288859245264,"25":0.15806368137574656,"26":0.2183702482742359,"27":0.2904680049947222,"28":0.22437255576056006,"29":0.48776174241297154,"30":-0.19188961559991957,"31":0.02354492316149666,"32":-0.23180781665651776,"33":0.2991750984420927,"34":0.24638270223488581,"35":0.14625986066983115,"36":0.3767823212095342,"37":0.5169761978018276,"38":0.5951649659251486,"39":0.4170622329134101,"40":0.09551163699983417,"41":-0.15499827285110537,"42":-0.13724030494950504,"43":-0.029037460207336534,"44":0.02858080237843931,"45":0.3868720962714765,"46":0.39075236457049856,"47":0.4943556298675607,"48":0.4006852862629336,"49":0.310167797180794,"50":-0.16103974675169272,"51":0.16776742502388783,"52":0.17382742100684226,"53":0.1917201984713769,"54":0.32585965564121055,"55":-0.08104100151184948,"56":0.10990104112687223,"57":-0.03097942764599928,"58":0.48210521977182386,"59":0.18762064500931885,"60":0.06559105070268303,"61":0.15318845132207673,"62":-0.36039052654079906,"63":-0.1833863202087049,"64":0.19632887197644838,"65":0.11114888146338928,"66":0.17622258408942507,"67":0.2220744986234976,"68":0.7488119506868498,"69":0.7627468002305622,"70":0.01713547506192328,"71":0.0404123497821027,"72":-0.22030827506868828,"73":0.3091816799862451,"74":0.20647081350242555,"75":0.4883513454856427,"76":-0.10383700716726212,"77":-0.2805364641100549,"78":0.30151600119061117,"79":0.6160748021195541,"80":0.3185286159455951,"81":-0.0039745063477792,"82":-0.1878377789434328,"83":-0.25942044003331727,"84":0.171581446333904,"85":0.2510569476692987,"86":-0.26929346444119817,"87":-0.5088796004930561,"88":0.1538117637489077,"89":0.5130966251280296,"90":-0.44257030252193286,"91":-0.4646559707190786,"92":0.023113483264547874,"93":-0.570165133459158,"94":-0.18457985101210017,"95":0.1814318677413586,"96":0.3314544701235322,"97":-0.2771340843553577,"98":-0.07850448200098888,"99":-0.09876660451178791,"100":0.42697091460682196,"101":0.05815401794423168,"102":0.08702163418100499,"103":-0.10920373018728947,"104":0.07904828702942318,"105":-0.09218915271752164,"106":-0.38247081833656027,"107":0.1647829940782726,"108":-0.18850310804560708,"109":0.06035337933721463,"110":-0.31750476271001793,"111":-0.02025573577734565,"112":0.09134420243869697,"113":-0.16838230974481871,"114":-0.1031401362027191,"115":-0.12480746096159462,"116":0.019897357731034054,"117":-0.22532315375114229,"118":0.11475713584072675,"119":-0.03278890303406536,"120":-0.20771644595794891,"121":0.3331200506598759,"122":-0.0014986744720999483,"123":-0.02133322489784826,"124":-0.3204588982298704,"125":-0.12877924631557505,"126":-0.1598898679256264,"127":-0.3037311755709685,"128":-0.33049582637720304,"129":-0.5646748027319661,"130":-0.23496402322849275,"131":-0.4748754836551044,"132":-0.5235934205089016,"133":-0.5185596053779232,"134":-0.7968017359207729,"135":-0.3226773047629916,"136":0.3767306545101082,"137":-0.26873140396897277,"138":-0.5642508235987496,"139":-0.6388007586859135,"140":-0.292441082539334,"141":-0.1701482090764264,"142":-0.5761769097246647,"143":-0.6338566229270144,"144":-0.8408576583125905,"145":0.10221235161324842,"146":0.9325492669586791,"147":-0.046975079288029346,"148":0.1920805729965732,"149":-0.029716527324047625}},"3":{"bias":0.3166265068976559,"weights":{"0":-0.19242103462446344,"1":-0.21501917511427246,"2":0.004143925165493989,"3":0.033408430320116075,"4":0.07563377232364013,"5":0.17111325990404416,"6":0.18974410661862964,"7":0.0560185261081043,"8":-0.08383033897931662,"9":0.2679148830364678,"10":0.05718494054029124,"11":0.2020488573169916,"12":0.18915955719076138,"13":0.41418736337874745,"14":0.2672899747061301,"15":0.0925456473267272,"16":-0.43504644146955745,"17":-0.26720815021135075,"18":0.1253293562185685,"19":0.1051669157476941,"20":0.2487667090730782,"21":-0.06739430661442107,"22":0.3635612837817582,"23":0.17719095815782088,"24":-0.1905593371726859,"25":0.040162781608978376,"26":-0.2132190190614752,"27":0.06216135894420323,"28":-0.5467510695731601,"29":-0.40263066029181804,"30":0.000029496212830130103,"31":-0.38100675370342324,"32":-0.040213168457061126,"33":-0.0030164781101524787,"34":-0.14340905480902622,"35":-0.15820236444641267,"36":0.37873408481799026,"37":0.21670238432291677,"38":-0.3406956536134744,"39":-0.2718414666059508,"40":-0.18016362958217827,"41":-0.06086313950708055,"42":-0.20210578695179698,"43":-0.02835094826709922,"44":-0.5821975605498343,"45":-0.023021401875503233,"46":0.3816347577190778,"47":0.415975539090365,"48":-0.10863294925018044,"49":-0.4687649333818211,"50":-0.08768546837806265,"51":0.10599193533911387,"52":-0.2471664509789888,"53":-0.2683524873060378,"54":-0.15780127305266795,"55":0.26970510971537764,"56":0.13313965999863664,"57":0.03230001688144523,"58":-0.2139046495627534,"59":-0.2785332833823767,"60":0.12142702252427105,"61":0.14609525827034486,"62":-0.42934114745602425,"63":0.1785177208101141,"64":-0.540648004176051,"65":-0.09743106647709819,"66":0.3516721370241167,"67":0.22255576372046962,"68":-0.2985728807957086,"69":-0.4060599472824254,"70":0.18211784078930246,"71":-0.07901887196334613,"72":0.38948809507310844,"73":0.23906299048946078,"74":-0.4899293297914901,"75":-0.2714277143614065,"76":-0.014224614051257155,"77":0.09587845025385111,"78":0.0331146262085322,"79":0.17490411485420068,"80":-0.3285640204575462,"81":0.2441309717335426,"82":0.2341152420927988,"83":-0.16384977123393368,"84":-0.4014229280520113,"85":0.13314876764583458,"86":-0.04492607761528952,"87":0.17808331131986285,"88":-0.0282554606262245,"89":0.07456559759513481,"90":-0.04326122232211908,"91":0.380639648846719,"92":0.4049313006317791,"93":-0.2329186279153339,"94":-0.6261617500133273,"95":-0.11311567365169906,"96":-0.25849441058351746,"97":-0.36195417671118,"98":0.07597440376284492,"99":-0.024836308868613804,"100":-0.09728931388992756,"101":0.1928808208441432,"102":0.27966596842962643,"103":-0.20715631985890692,"104":-0.376922217908153,"105":0.31491755880550326,"106":0.07354479750236426,"107":-0.1676861682282852,"108":0.11711742046069752,"109":-0.08337348942544534,"110":-0.30558223116404326,"111":0.5155806237517351,"112":0.43547580558446597,"113":-0.36564685503931704,"114":-0.6959990413259459,"115":-0.038647527550428995,"116":0.09307984322529612,"117":-0.31540451334023245,"118":-0.09180993685446943,"119":-0.5421135368652341,"120":0.10712206698111416,"121":0.4017233985120114,"122":0.36395213763338,"123":-0.40756914595247373,"124":-0.3094755435639258,"125":-0.2511339150205744,"126":-0.22803633859976927,"127":0.24172212486058808,"128":-0.47369024929014597,"129":-0.09618766317803512,"130":0.4387078350694001,"131":-0.10770562606747135,"132":-0.2012602520423796,"133":-0.3732873877663273,"134":-0.598782107047563,"135":-0.030692529377346133,"136":-0.11981252703666438,"137":-0.05383300002121156,"138":0.056392587691327704,"139":-0.17858892667755785,"140":0.1798536478576077,"141":0.0028603644723820295,"142":0.06585342971448598,"143":-0.6907715490058288,"144":-0.6901460012196469,"145":-0.4047929825763837,"146":-0.10519556298185966,"147":0.148304785572306,"148":-0.16617487065672717,"149":0.22464975518602137}},"4":{"bias":0.13981197952414579,"weights":{"0":0.03190728546107702,"1":-0.1353355318664089,"2":0.33297410384149595,"3":0.19333226745629453,"4":0.3192436469510524,"5":0.3568101408794906,"6":-0.08757756233930923,"7":0.09186277961453965,"8":0.7262691997169393,"9":-0.09105618799187036,"10":-0.23667617774642535,"11":0.22903211111598884,"12":0.2133179390293802,"13":0.2374182511837712,"14":0.09414831061465358,"15":0.5318565900377988,"16":-0.012438852260866325,"17":-0.1755125834787674,"18":0.33412129971324606,"19":-0.37124385217696443,"20":-0.24873652296515647,"21":-0.1878749292244947,"22":-0.15072608922178263,"23":-0.06338029975515543,"24":-0.22887095290825102,"25":-0.19358436900345216,"26":0.04535930703002608,"27":-0.00048258659937370493,"28":-0.004491107214802732,"29":-0.23505940611568477,"30":-0.20960551745935027,"31":-0.7433790028043186,"32":-0.07249638175136826,"33":-0.0042390028810524285,"34":0.036936799841863724,"35":0.1353240719440599,"36":0.07275022623095363,"37":-0.16269685779478882,"38":-0.07870377290873184,"39":0.06787991929887462,"40":-0.33585340355843263,"41":-0.5707914413457519,"42":-0.14407715319959094,"43":-0.6522002750687196,"44":-0.636532965927448,"45":-0.20224738308601442,"46":0.14227938057339662,"47":-0.07727452228141928,"48":-0.021828615453668113,"49":0.30046416555792355,"50":-0.3863706956668914,"51":-0.6379830677359519,"52":-0.6338965426100106,"53":-0.44596977639809804,"54":-0.20739352931129562,"55":-0.29653164200726206,"56":0.45959073883488477,"57":-0.03333668016809595,"58":0.2733662463363446,"59":0.12725857747868016,"60":-0.4485737535691319,"61":-0.4968790785067499,"62":-0.12586809562952683,"63":-0.11664227095433014,"64":-0.14173199155495986,"65":0.13656401677646327,"66":0.19468535252706337,"67":-0.06773344147002681,"68":0.02700311580080763,"69":-0.2460731984352883,"70":-0.43876520962634,"71":-0.5575420157525373,"72":-0.16560361006914004,"73":-0.14791878304783357,"74":0.1313977751675707,"75":0.16577333174183054,"76":0.5618104246639767,"77":0.05388018980928973,"78":-0.3844745953597328,"79":0.017912011367116218,"80":-0.4441553039233248,"81":-0.3392568231518432,"82":0.029852994466479797,"83":-0.15173775737121384,"84":0.4615377758740125,"85":0.14643095012249793,"86":0.19569504472606136,"87":0.1358323301704746,"88":0.14073616121492688,"89":-0.24953950391421723,"90":-0.1055238155148846,"91":-0.09585039886096575,"92":0.2749256844035415,"93":-0.014114835556436571,"94":0.24590044384376125,"95":0.15702068538679295,"96":-0.00232189455162135,"97":-0.13889996524548082,"98":0.18425787391337334,"99":-0.013336569328383162,"100":0.2842090101425793,"101":0.2981821413021405,"102":-0.24335996092889492,"103":-0.23731690631581043,"104":-0.5134585716985293,"105":0.18209763195007247,"106":0.17182529668735536,"107":-0.02752670105612927,"108":0.17232885403646342,"109":0.17886821967588104,"110":0.35351791821565787,"111":-0.02000042831486758,"112":-0.2121020570278875,"113":-0.4849200703968141,"114":-0.603869456768869,"115":-0.025359444145495635,"116":0.380090909472229,"117":0.19271107239245855,"118":0.1903095373227187,"119":0.115215258122689,"120":0.3920008498540493,"121":-0.015137999207254837,"122":-0.5803492942806358,"123":-0.7786297040373537,"124":-0.44338860674498015,"125":0.013935639332763459,"126":-0.03726740075379157,"127":-0.14810942598451518,"128":0.045812496006693196,"129":-0.24334053699581493,"130":-0.00495880884872676,"131":-0.22567604935960714,"132":-0.37383082796212214,"133":-0.1820766794306157,"134":-0.008379545943871705,"135":-0.02097275036257949,"136":0.09754728756948093,"137":-0.4823403075545919,"138":-0.00003350911884820824,"139":-0.019110322575400948,"140":0.12327936539286788,"141":-0.1051954094782131,"142":-0.07064229791452112,"143":0.1988601007749656,"144":0.2796265619497029,"145":-0.1299719084045907,"146":0.0048474616403337304,"147":-0.05978946213755334,"148":0.4737152729165432,"149":0.3644214216334657}},"5":{"bias":0.33210793170251257,"weights":{"0":0.19099592595390946,"1":0.1311720335423424,"2":0.23177824136081462,"3":0.14056686122269993,"4":0.2491284319150693,"5":0.615428352704457,"6":0.21114921405432702,"7":0.3989918956814355,"8":0.22913927538744444,"9":-0.3287055845275188,"10":-0.2691606742946824,"11":0.24414836976744791,"12":0.1272950979487696,"13":0.41698209128114105,"14":0.24870040122267453,"15":0.5036907709517925,"16":0.5871397707723274,"17":0.4305257038206565,"18":0.12711865215672882,"19":-0.4114328866886159,"20":-0.40365370907738857,"21":0.24511143579882583,"22":0.3016531733001877,"23":0.17572572447231777,"24":0.29371653368657225,"25":-0.26248787743806984,"26":-0.2371829635642854,"27":0.20119119606054683,"28":0.5284463476608162,"29":-0.11373481084450193,"30":-0.21373858819442026,"31":-0.381254923676803,"32":-0.35446636448509805,"33":-0.07091159159620096,"34":-0.019515242000373703,"35":-0.4836595839194887,"36":-0.5675039923973476,"37":-0.6329043578318246,"38":0.1945434692733089,"39":0.519382286112112,"40":-0.40399982682812097,"41":-0.1513795192132936,"42":-0.11250630157781882,"43":-0.22899862268930277,"44":0.2779202406136677,"45":-0.6189562699658014,"46":0.10283658593194016,"47":-0.012138539572305625,"48":0.12190064280247648,"49":-0.06922090557540335,"50":-0.7710000253208479,"51":-0.26524193482391256,"52":-0.029921480262299543,"53":-0.47883761760942,"54":-0.31294653311899795,"55":0.1184018923418744,"56":0.33531238897771026,"57":0.09449978868576628,"58":0.10132423512657619,"59":-0.10060506569505986,"60":-0.976387335333398,"61":-0.44536123867295996,"62":0.10234722179782488,"63":-0.3865615483495824,"64":0.3591139535064963,"65":0.4126917468363392,"66":0.38285366367291296,"67":0.2259480739352675,"68":0.21091315896222873,"69":-0.01732515689591629,"70":-0.505743958000976,"71":-0.3787912068976797,"72":-0.0028166152817396136,"73":0.02929137377973896,"74":0.23887375163957317,"75":-0.0739657481949734,"76":0.2006164287416828,"77":0.2914981313493104,"78":0.12105031350852487,"79":-0.11928800237492782,"80":-0.36773022275835593,"81":-0.31876770962971734,"82":0.056972513211343306,"83":-0.15943954363032065,"84":-0.07205542053640926,"85":0.008704844915764629,"86":0.026702709350076664,"87":0.10351281553607483,"88":-0.5319201379427153,"89":-0.5476448974641406,"90":0.06396853745894666,"91":0.08688069207406166,"92":0.1360560016835756,"93":-0.1162624310721224,"94":-0.09295260423613354,"95":-0.08457992693394357,"96":-0.5324655365599796,"97":-0.2799681970145659,"98":-0.9956029079858768,"99":-0.7300291481561653,"100":0.24762053116060534,"101":0.17533039102362855,"102":0.5202651361430182,"103":-0.17280893970992744,"104":-0.1566241472728976,"105":-0.27116250985129065,"106":-0.42306962058392084,"107":-0.581942163149563,"108":-0.9338747706946785,"109":-0.7100505052580157,"110":0.48821704696363377,"111":-0.13330585097887582,"112":0.003549045280663998,"113":-0.09437542633336403,"114":-0.24952958206494444,"115":-0.1716120397090645,"116":-0.45424651412600164,"117":-0.4493651203461718,"118":-0.39199202313665055,"119":0.02184811347922931,"120":-0.045807120388082725,"121":0.05272991092277417,"122":0.11131762165171108,"123":-0.1359698896031483,"124":-0.15578860134182865,"125":-0.3477133491687793,"126":0.348620832205583,"127":0.47058736897882053,"128":0.04171348162218201,"129":0.1726758165303469,"130":0.48056179699197354,"131":0.29637466391594025,"132":-0.15027593709071269,"133":-0.5853708068280568,"134":-0.2871430350871851,"135":0.3830811003015136,"136":-0.17920024533691895,"137":0.4604795169174031,"138":-0.3178813766125167,"139":-0.12469480646107442,"140":0.2531834248046728,"141":0.4129035811129317,"142":-0.11042899723982642,"143":0.06821297308180112,"144":0.15814125857710815,"145":0.16954843536182737,"146":0.3120493476763214,"147":0.2224908327092375,"148":0.02627080844031839,"149":0.28484960291513933}},"6":{"bias":0.41673590069747285,"weights":{"0":0.2055976435492814,"1":-0.09478738592747749,"2":0.014288805943939678,"3":0.7492359044157885,"4":0.1512882398642492,"5":0.41406620562634155,"6":0.28834924104134446,"7":0.1930643169516423,"8":0.1054902261087616,"9":-0.16035001858932119,"10":-0.06203710608387341,"11":0.35142917707923466,"12":0.6596548160297063,"13":0.6946077254149341,"14":0.02852601184329977,"15":0.21809350343153783,"16":-0.601741949280654,"17":-0.20677268875818505,"18":-0.02615562874946463,"19":-0.20030087230773913,"20":-0.03703698534908564,"21":0.16261602496731997,"22":-0.24369295627068507,"23":-0.26505967651934864,"24":-0.7804535692151726,"25":-0.6510954950615133,"26":-0.6726547370300874,"27":-0.06721176183955578,"28":-0.4280508517995979,"29":-0.2104183363913786,"30":0.11331789887985105,"31":-0.3815206017554456,"32":-0.21808304326555236,"33":-0.24849432433186075,"34":-0.19727958086363845,"35":-0.4395146902541163,"36":-0.24958425680385538,"37":-0.304681813525035,"38":-0.22956442842534927,"39":-0.5101803182457701,"40":-0.3045863063123127,"41":-0.40454611664004425,"42":-0.2518145961030937,"43":-0.0973538080121756,"44":-0.1691102757932481,"45":0.38218534573630286,"46":0.029430326974012974,"47":-0.202553804431203,"48":-0.5770216814420163,"49":-0.38654319569752005,"50":-0.4479425851804834,"51":-0.5988956905309933,"52":-0.40704970575766974,"53":-0.15854183043795583,"54":0.06311335068038161,"55":-0.13669576049580398,"56":0.3160477132772745,"57":0.3379738409601762,"58":-0.006025542967572505,"59":-0.07826820887662737,"60":-0.3067632429369098,"61":-0.5287534199213528,"62":-0.26577807495096406,"63":-0.27586453472726735,"64":0.3014382447116064,"65":0.43704896495749695,"66":0.34083431677002046,"67":0.18752712762290244,"68":0.16055031221377072,"69":-0.29066923361288566,"70":-0.590088707485941,"71":-0.057403426723931714,"72":-0.006930670597972501,"73":0.37784938693916953,"74":0.4404263593419388,"75":-0.1565153603343804,"76":0.03469535821185905,"77":0.5308868017601722,"78":-0.043901007383336535,"79":-0.03363672299456512,"80":-0.5373800772170362,"81":-0.26583292916034046,"82":0.5715831666078949,"83":0.11501588896681529,"84":0.21467522448248888,"85":0.23378752659088498,"86":0.2733027038936135,"87":0.41702161736798465,"88":-0.07669252968900198,"89":0.057749703945799966,"90":-0.6165760146958892,"91":-0.29505766383025916,"92":0.5487187992685688,"93":-0.12792410314198688,"94":0.1255726039699948,"95":0.010310849042139072,"96":0.01696277005061107,"97":-0.22249362035960557,"98":-0.07163895246373558,"99":-0.23683395418654066,"100":-0.4191829443341382,"101":0.033837306489631874,"102":-0.003181513000892398,"103":0.5410195750861921,"104":0.3742700464337364,"105":-0.11202690436757845,"106":0.03411480941528712,"107":-0.09161836771604769,"108":-0.3310475400951556,"109":-0.15218070554852514,"110":0.14057027881137268,"111":0.009199929978494963,"112":-0.21767498691136603,"113":0.17245906935911962,"114":0.25019337570183114,"115":0.08618243835267901,"116":-0.02331425078296031,"117":-0.24499377230088262,"118":-0.2993173441777403,"119":-0.20468060182059264,"120":0.2977976857234881,"121":0.30501388509705624,"122":-0.07575594431977313,"123":0.06500858276668642,"124":-0.24343519658382273,"125":0.11834679414766638,"126":0.12519935685190786,"127":-0.30551422889498264,"128":-0.3249103560293931,"129":-0.6380694113635369,"130":0.33113137215678573,"131":0.5032634700744139,"132":0.3094276410435786,"133":-0.3359884295096416,"134":0.24819803614995323,"135":0.40148371137959626,"136":0.04798742346595503,"137":-0.06328805437939923,"138":0.0034077730563520712,"139":-0.6108728797696348,"140":0.1077935791033139,"141":0.2868167851204688,"142":0.36586457362236524,"143":0.00946508482840435,"144":-0.02314500816491739,"145":0.14038702453281898,"146":0.3626465028093954,"147":-0.02090165943781439,"148":0.2902023542314472,"149":0.4002132642330408}},"7":{"bias":-0.16865940546518193,"weights":{"0":0.28436030958682484,"1":0.18682412508169768,"2":-0.3324628999250498,"3":-0.3785436277556622,"4":-0.1182607063086138,"5":-0.5635600602118932,"6":-0.5661542190559591,"7":-0.12125912823070811,"8":-0.1896967459170633,"9":0.07665584328560034,"10":0.2144771501520849,"11":-0.20335319855988096,"12":-0.14860287086832658,"13":-0.5003260131000946,"14":-0.58802762250415,"15":-0.4732324194520048,"16":-0.4608451240131024,"17":0.18926830228538477,"18":0.27480394418173854,"19":0.16040483823683038,"20":0.45062605332999256,"21":-0.20317951146362462,"22":-0.26069076206489145,"23":-0.43448967132636135,"24":-0.7832862257901705,"25":-0.05253250283035662,"26":-0.0006255223540409184,"27":-0.012211957193576506,"28":0.34037466033275215,"29":0.3466037005559632,"30":0.27445402202421604,"31":0.2617293665174791,"32":0.25216751637423407,"33":-0.5516866507739879,"34":-0.11573354856219471,"35":0.05654857876228455,"36":0.23815052615258336,"37":0.060434821026296714,"38":0.22215677335295608,"39":-0.0458623505245727,"40":0.3522743152711152,"41":0.5958516627666713,"42":0.41516315908162793,"43":-0.10473019168590778,"44":0.14980418686182045,"45":-0.08225366087402955,"46":-0.2252407042748516,"47":0.22378567298706012,"48":0.262803699502336,"49":-0.37013619068747616,"50":0.11538311189902103,"51":0.32426881525828305,"52":0.09143571377301102,"53":-0.061409607801224404,"54":0.11201433322291576,"55":0.01957859298109423,"56":-0.36872115154406204,"57":-0.04834041718778434,"58":-0.5395963483546833,"59":0.10123188249337801,"60":0.2001096999730158,"61":0.014885952998185632,"62":-0.10040731868646299,"63":-0.3243263490859464,"64":-0.016299519723027713,"65":0.18710820936473427,"66":0.17011333422160457,"67":0.1398857798278725,"68":0.20580597698083355,"69":0.13233765264786612,"70":0.10124307660304935,"71":0.12999065928839595,"72":-0.2885203077810211,"73":-0.380210375326688,"74":-0.05019494715351029,"75":0.28191387305682164,"76":0.2058942059335779,"77":0.17966842757068516,"78":0.12097741980888425,"79":0.257332727207554,"80":0.16293411225325288,"81":0.013140559353960923,"82":-0.47131136823928765,"83":-0.15751231226114326,"84":-0.27343060445010914,"85":0.1731729905807423,"86":0.2588422794351924,"87":-0.2360415649053466,"88":0.2205157030284349,"89":0.09157025041703781,"90":-0.10658597182605935,"91":0.2305315554242972,"92":-0.34293776294306827,"93":0.25893163871713865,"94":0.11665020156205164,"95":0.23107309701244233,"96":0.010658039812958124,"97":-0.12451385696340399,"98":0.21095395569358996,"99":0.413830028655978,"100":-0.12175515499959341,"101":0.14026063818171697,"102":-0.49666632591393234,"103":0.35428581610199633,"104":0.10937927912423821,"105":0.4508354699012449,"106":0.2769454331670421,"107":0.31490738841240434,"108":0.4331979493592348,"109":0.5542339618157297,"110":-0.14831842969209552,"111":0.06982621841373673,"112":-0.18509148670413259,"113":0.07559416017622288,"114":0.3545203326327134,"115":0.15458190068415398,"116":0.19421390516788142,"117":0.34736331540172327,"118":0.7848886640139447,"119":0.4639864803221919,"120":0.07202928788008818,"121":-0.20676411748422902,"122":-0.35212608237600146,"123":0.020208495959048268,"124":0.001629639969034153,"125":0.35069859933123704,"126":0.34384822501568063,"127":0.43514780264450015,"128":0.4997088025153274,"129":-0.1354083775567099,"130":0.39212384907941467,"131":0.2988980933552117,"132":-0.21829763364219504,"133":-0.3135812989307268,"134":-0.7786963459502405,"135":-0.6412388028471938,"136":-0.2243436619391639,"137":0.27052189520328,"138":0.21415808267977243,"139":0.15083396817537872,"140":0.07002119917485049,"141":0.33736727284974705,"142":-0.23008082296870888,"143":-0.21423884122855233,"144":-0.5186207052371486,"145":-0.6219262959575583,"146":-0.02288236006110641,"147":0.014160047903997516,"148":-0.005242810676651505,"149":0.620782398774433}},"8":{"bias":-0.43427202829180345,"weights":{"0":0.0844717436589432,"1":-0.10035601521647006,"2":-0.22119249242493463,"3":0.26379185893357493,"4":0.3190061107328437,"5":0.22798338355519635,"6":-0.2993734844167519,"7":-0.5644676270004234,"8":-0.13389240252324525,"9":0.26113662009988103,"10":0.1838252994806691,"11":-0.18414749162686517,"12":-0.3736292686770217,"13":-0.2768651999257943,"14":0.082144454358111,"15":0.40639691809347095,"16":-0.11709383863121446,"17":0.038724327026538864,"18":0.5440843952231674,"19":0.10904345460036118,"20":-0.08337758837693368,"21":0.23034566716716784,"22":0.18759961376825895,"23":-0.19753961157791378,"24":-0.2910223184742163,"25":-0.329251155511538,"26":0.22637721896417576,"27":-0.07009702541996077,"28":0.23183293108549105,"29":0.1121319081614412,"30":-0.2152821466462407,"31":0.18394511926882665,"32":-0.034056165269366785,"33":-0.5293233114594891,"34":-1.0441054745127902,"35":0.06405804062260294,"36":0.06394730025977063,"37":-0.22850098817420184,"38":-0.08675251314622937,"39":0.19573217839375948,"40":0.20202939390785263,"41":0.2008097936327795,"42":0.2550370607635785,"43":-0.19324143289549478,"44":-0.5609126189982899,"45":-0.06836264726898761,"46":-0.13465103640922868,"47":-0.5941824266790561,"48":0.3037217897007071,"49":0.2160447059263191,"50":0.0010588484776427856,"51":0.09824288128431459,"52":0.18624270752349523,"53":-0.2327258863687496,"54":-0.6112623707993398,"55":0.14991467059835006,"56":-0.19008312558028834,"57":-0.025297390778549676,"58":-0.1422560302543489,"59":0.2422656290619478,"60":-0.14559790399368716,"61":0.14373625531829926,"62":-0.05149976461005964,"63":-0.06138427807605835,"64":-0.6772879796247032,"65":0.24430037942740668,"66":0.17510069959945104,"67":-0.23991222742050555,"68":-0.057954457907839416,"69":-0.08831484787422413,"70":-0.5376255687917054,"71":0.3109019702089052,"72":-0.3006346713659457,"73":-0.05553089933251938,"74":-0.3188612566884513,"75":-0.08830579366537927,"76":0.25232616204760316,"77":-0.14668177249658243,"78":-0.24433830699852147,"79":-0.24965255893156113,"80":-0.12366323894553116,"81":0.017261234903291813,"82":-0.47073213922199475,"83":-0.312749641580882,"84":-0.265196451422912,"85":0.068456743812588,"86":0.6036986670157506,"87":-0.16104661939556306,"88":-0.40883564446749854,"89":-0.3645865188928405,"90":-0.166548924908273,"91":0.2170367158399377,"92":-0.25658645835704497,"93":0.3626371863908499,"94":0.08072321398042148,"95":0.012010935064399238,"96":-0.3968222374378046,"97":0.3505706435508357,"98":0.1785951094220563,"99":0.4664187309735937,"100":-0.07454115191747818,"101":0.14254468079084054,"102":-0.4335833957194189,"103":0.20339458238781394,"104":0.2818186089441772,"105":0.19550354589968513,"106":0.27826149332407046,"107":0.8012766376930264,"108":0.8301820804779946,"109":0.1928650911577609,"110":0.26288931302980045,"111":-0.3218509850878328,"112":-0.4150723791228421,"113":0.08782208758037915,"114":0.605253373164742,"115":0.16086850308429368,"116":0.23750938926381893,"117":0.8222821156917901,"118":1.1315641288768674,"119":0.25988653914247994,"120":0.431265950800665,"121":-0.045360661491199585,"122":-0.1377272577818817,"123":0.518644451337528,"124":0.8215901101200731,"125":0.2727110320305032,"126":0.37097059859242243,"127":0.46857332771338206,"128":0.8769195941262582,"129":0.7281877733829886,"130":-0.20633368566597565,"131":-0.3607275952878409,"132":-0.046156034371754084,"133":0.25578831303373223,"134":0.33100741977132603,"135":0.28836603249425924,"136":0.3711753884180493,"137":-0.08778488644371901,"138":0.3432230906013095,"139":0.8471070142318258,"140":-0.07438807331487415,"141":0.11761383273680359,"142":0.10943108078341462,"143":-0.030806533333929517,"144":-0.1792966193464435,"145":-0.45549661953901865,"146":0.24027881018901787,"147":0.14197022014525368,"148":-0.08609204202403214,"149":0.013649371681227698}},"9":{"bias":0.4122888395665987,"weights":{"0":0.13090159695589126,"1":0.4132412304091707,"2":0.005648100868658945,"3":0.3101853753725186,"4":0.1187067964872489,"5":-0.1306379379391396,"6":0.012317384954965482,"7":-0.35982719804706625,"8":0.4883965869462343,"9":0.4030834616400805,"10":0.3696177733942526,"11":0.11742740464740135,"12":-0.4225055329680546,"13":-0.4649054934117971,"14":-0.3558459786098464,"15":-0.3128777382688222,"16":-0.5136413068758526,"17":-0.1546654990912179,"18":0.2825181643991227,"19":0.5830687223005313,"20":0.09783348631387312,"21":-0.13171437449845338,"22":-0.4596026445035542,"23":-0.419797855314208,"24":-0.5141839608272973,"25":-0.5818250571531114,"26":-0.5879651069128525,"27":-0.24886102045043335,"28":-0.3490096540339317,"29":-0.3011521452920355,"30":-0.0004081769517991077,"31":-0.0040892423607171375,"32":-0.3048282284778548,"33":-0.7449666769117175,"34":-0.5014679808547431,"35":-0.8903382188202964,"36":-0.7720800928320122,"37":-0.4799443633051529,"38":-0.2672235390087416,"39":-0.36407888749091316,"40":-0.0806494105658134,"41":-0.20152275314621154,"42":0.16538449373196112,"43":-0.2337547330461164,"44":-0.5565688608428482,"45":-0.13973123370627427,"46":-0.4409942438207004,"47":-0.6602280044754558,"48":-0.5020003149167114,"49":-0.31221493750469226,"50":-0.38244251952722713,"51":-0.44426100916150507,"52":-0.3714598219045777,"53":-0.12959539095492417,"54":-0.2897936100178844,"55":-0.047537411583200906,"56":0.13210101495145204,"57":0.10049777086923375,"58":-0.08823021351775905,"59":-0.04128294755555552,"60":-0.1584288485280053,"61":-0.16859701950046077,"62":-0.039838068947806025,"63":0.07955563820175196,"64":0.15487732092936987,"65":-0.08548760716400304,"66":0.44821051185555477,"67":0.7012616018164008,"68":-0.0048472971818763,"69":-0.18841567733230313,"70":0.09918430058228032,"71":0.3089004629184402,"72":0.09556428930674599,"73":-0.08834664826804217,"74":0.12341145129593602,"75":0.22569831982630223,"76":-0.09725476228721486,"77":-0.018195351070532693,"78":0.05697320064907125,"79":-0.02204118462035408,"80":-0.1966158146042465,"81":0.1348721882851572,"82":0.25412250800647557,"83":0.06185468744459667,"84":0.10903515036899604,"85":0.34888758060155006,"86":0.21211205174216294,"87":0.24006966888275866,"88":0.32985050654333586,"89":-0.23116074222774732,"90":-0.42865932133810186,"91":0.12621497657993846,"92":0.14958951241777632,"93":0.09514812298332448,"94":0.11074248204733911,"95":-0.007302994227558167,"96":-0.01614209061776255,"97":-0.03688477683186848,"98":0.12481923363835398,"99":-0.23397232928317185,"100":-0.3271900503161614,"101":-0.012538181256483233,"102":0.14959216012330798,"103":0.14422971339364504,"104":0.18467077631511625,"105":0.16414208776506292,"106":0.05981684421284056,"107":-0.15030159017109368,"108":-0.11696777848102317,"109":-0.2688010619952542,"110":0.16701213451971242,"111":0.08165840896410359,"112":0.18164562817458735,"113":0.18642073959431213,"114":0.018668218605728093,"115":-0.03879084964493092,"116":0.2864657891268517,"117":0.2293849435902463,"118":0.27478292552355776,"119":-0.30546731932611304,"120":-0.16639914794721172,"121":0.13471253033630712,"122":0.14672364155638443,"123":-0.04941789445154726,"124":-0.1796126092324473,"125":-0.13584257186088713,"126":0.11822980041352453,"127":-0.057036193365117074,"128":0.016868368280459047,"129":-0.5872511314981023,"130":-0.14232990743525098,"131":0.4569717186205134,"132":0.4406695416719863,"133":-0.17171438772119718,"134":0.1831843677987132,"135":0.5003069657947944,"136":0.4493594441709707,"137":0.1310560091685886,"138":-0.45794910265946676,"139":-0.3215040024574531,"140":-0.10217094592350297,"141":0.13997333406149765,"142":0.1257316746764368,"143":0.0827423454653944,"144":0.30917411233712466,"145":0.5986529275172326,"146":0.4617866228707032,"147":0.47899844735679586,"148":-0.001613868119264821,"149":-0.11975483805141773}},"10":{"bias":-0.4740968228857117,"weights":{"0":-0.28986386373366296,"1":-0.027433676149523967,"2":-0.7017170908848741,"3":-0.3429586580011055,"4":-0.06079451316029312,"5":0.1225491353332576,"6":0.08563142344616875,"7":-0.23493173531569772,"8":-0.21350567102945184,"9":-0.16611910518943765,"10":0.04880849399454091,"11":-0.6071828133795093,"12":-1.029490266408782,"13":-0.3466108775813373,"14":-0.05977529872492721,"15":0.21332905209072933,"16":0.3625863696588766,"17":0.17040403952245556,"18":-0.25070932579496386,"19":0.3520830084631493,"20":-0.16158681610767997,"21":-0.4554819205331948,"22":-0.5627553864191753,"23":-0.16482611236249117,"24":-0.026391347208770285,"25":-0.23244912427791,"26":-0.2093488627610082,"27":0.11873677102017823,"28":0.2794844873000536,"29":0.05533312937731908,"30":-0.1166776478507692,"31":-0.1930958839949925,"32":0.17128878978986034,"33":0.20601791044450157,"34":0.0009584930945185606,"35":0.03025264549479146,"36":0.10670918344108005,"37":-0.05974149428774804,"38":0.12433220861975876,"39":-0.23110521925671434,"40":-0.11069867299490174,"41":0.13702706529119596,"42":0.7621335499359475,"43":0.028171788007673285,"44":-0.09375465580515509,"45":-0.043738977010692126,"46":-0.12276796079524675,"47":-0.5056771276656198,"48":0.1914083812932744,"49":-0.09627664898252683,"50":-0.4273846404899725,"51":0.34282559085292713,"52":0.5953798115146168,"53":0.23496230877509305,"54":-0.2237491487054789,"55":-0.14641726864839968,"56":-0.5356434953084448,"57":-0.29026926389387125,"58":-0.2681011982748978,"59":-0.5466692787162125,"60":-0.5457226490798784,"61":-0.11145649933321185,"62":0.08337592934978247,"63":0.1730945857475651,"64":0.22453202603766803,"65":-0.3008449246379037,"66":-0.4647311243515943,"67":-0.17553700210568074,"68":-0.35830379816411184,"69":-0.3650506631818202,"70":-0.13157780348466314,"71":0.32911044823667607,"72":0.058188323632968254,"73":0.14609297355415704,"74":-0.10714510256566588,"75":-0.3658237344584348,"76":-0.005619673143961143,"77":-0.4253302707467691,"78":0.010075396342508605,"79":-0.140085231551903,"80":-0.5207798403777357,"81":0.14792547331033074,"82":0.3088226936548573,"83":0.1338236634259539,"84":-0.4745826467568456,"85":0.01366266768619525,"86":-0.06700683001189908,"87":-0.29180571846205755,"88":0.007829229592996869,"89":-0.1192636969131642,"90":0.011282109487379241,"91":0.38772191775902975,"92":0.031036353847407865,"93":0.2500442574861202,"94":-0.1056226329902474,"95":-0.12992089288034375,"96":-0.07145114747787894,"97":0.32414737934306775,"98":0.28861458462484957,"99":0.31718236783113024,"100":0.14954988057657156,"101":-0.009908201293308166,"102":0.16924210178791924,"103":0.40594304569856615,"104":0.0671952181904815,"105":0.05928749523543397,"106":0.30901217539926606,"107":0.35545965717498235,"108":0.5984888945823176,"109":0.16308876037451153,"110":0.42817005304940714,"111":-0.00959890136382916,"112":0.08585088800135603,"113":0.2129311537739456,"114":0.5423528475021904,"115":-0.04838144056118275,"116":0.24563943518835285,"117":0.30780718676008284,"118":0.6074985800205365,"119":-0.21926881839213,"120":0.28290901787990785,"121":0.11221727751265298,"122":0.17099165024877291,"123":0.15056278522674119,"124":-0.08887004560347359,"125":-0.3790970363035511,"126":-0.11114770544231896,"127":-0.08802855359552327,"128":-0.11988289075204735,"129":0.1350589461236735,"130":0.12997186015290396,"131":0.7396910553747089,"132":0.7635242090467795,"133":0.017493330469766925,"134":-0.29839152111965966,"135":-0.21204570498871791,"136":0.027207507013953223,"137":-0.35885621794824163,"138":-0.061050166438847385,"139":0.7161157274117612,"140":0.299045899313454,"141":0.46086646938056736,"142":0.25689838079061944,"143":0.3757785363280422,"144":0.16946189257952599,"145":-0.011517335324090692,"146":-0.32803658593130625,"147":-0.20375245951031914,"148":-0.4218030191800826,"149":0.02461752991682685}},"11":{"bias":-0.28247693508118893,"weights":{"0":0.21303328344047598,"1":-0.12045958744114685,"2":0.22159520386451112,"3":0.3871424835614003,"4":-0.2813092124576158,"5":0.13917993000928966,"6":0.12323134958856839,"7":-0.19767365846777543,"8":-0.1990687416569406,"9":-0.3080069708971402,"10":0.4373146619593467,"11":0.11195265917468943,"12":0.14590510381774888,"13":0.2652349890871476,"14":-0.2452441758710856,"15":-0.20805796799972745,"16":-0.13851413942049953,"17":0.15672801003248304,"18":-0.3869967902753459,"19":-0.33550818245614766,"20":0.5974474978067138,"21":0.13774988028672508,"22":0.07034994112969012,"23":-0.15486475998221522,"24":-0.2247172514265431,"25":-0.4442198014803924,"26":-0.3091394859744504,"27":0.2059471305013484,"28":-0.03579643912780796,"29":-0.1327388848019268,"30":0.39579660517157667,"31":-0.15997301879846004,"32":0.2752549454454385,"33":0.12886833014102236,"34":0.007887937893500396,"35":0.41251876620517763,"36":0.5636384787636771,"37":0.33817695707832146,"38":0.07964014746795126,"39":0.28181292718565976,"40":-0.12259790637577524,"41":-0.001832823789012738,"42":0.18474095460723347,"43":0.20277753029870238,"44":0.4227671755586889,"45":0.3294034941218652,"46":0.049632192326756384,"47":0.6986798826870247,"48":0.24187542866888007,"49":0.1586696838931789,"50":-0.33161629020105926,"51":-0.07455012220177203,"52":-0.4869898969266539,"53":-0.0025469328644485544,"54":0.03255521021621971,"55":0.22457695239527187,"56":-0.11011462273391787,"57":0.4666419090238335,"58":0.5919153175600036,"59":0.2033166184004314,"60":0.0930269128453606,"61":0.21610269413533262,"62":-0.07019051487322528,"63":-0.2530893135159736,"64":-0.24633279918587625,"65":0.3487700079469712,"66":0.19459314415722137,"67":0.0007146390415662602,"68":0.43591434840869187,"69":0.42516383741404673,"70":0.08166687531338189,"71":0.23061253342768753,"72":-0.4370213372363672,"73":0.10457918510319067,"74":-0.16040417162742182,"75":-0.015846912383487042,"76":0.18098207293529778,"77":0.4496732765860142,"78":0.6389849036477225,"79":0.26149485992549537,"80":0.24798132404332615,"81":0.5195293282470363,"82":-0.02779178492523286,"83":-0.15305033683660524,"84":-0.10958917862897613,"85":-0.30018130599633175,"86":-0.12773009167890065,"87":0.04330179353639515,"88":0.36337705104268014,"89":-0.05799223192367023,"90":0.035541072393711924,"91":0.37258881552411904,"92":0.07932978446751558,"93":0.04445119892111615,"94":-0.213022117730405,"95":-0.16838963715931016,"96":0.07942209558578033,"97":-0.7579981361583333,"98":-0.30758826742204476,"99":-0.028000480404175212,"100":0.34658147346060125,"101":0.05048498831954658,"102":0.017703400064900426,"103":0.13021549750378775,"104":-0.35672562303814037,"105":-0.01993691969070082,"106":-0.14326094981185064,"107":0.012645003443682063,"108":-0.18721930982131005,"109":-0.0685813571909879,"110":0.5806948935212645,"111":-0.22514979964420298,"112":-0.19882502921031234,"113":-0.09649736478154482,"114":-0.35405372946356534,"115":0.11677490879826781,"116":0.033654309489796794,"117":0.1909514776099118,"118":-0.07811101911481254,"119":0.005781196254730222,"120":0.6183694930396082,"121":0.10735855068832316,"122":-0.338374376420602,"123":-0.45008017812812606,"124":-0.1478593800985731,"125":-0.0742330556527661,"126":-0.25904869258202673,"127":-0.14945244227346105,"128":-0.35280598176429495,"129":0.025880763641372925,"130":-0.209039174808355,"131":0.010743485953072453,"132":-0.37904761087040983,"133":-0.5279653701329018,"134":0.046161481848501315,"135":-0.2408765761456328,"136":-0.45706602153436277,"137":-0.18124182781286466,"138":0.2138758426725228,"139":-0.3822460260960384,"140":-0.30035111795133423,"141":-0.2590727790624779,"142":0.11122258910692763,"143":-0.42103921517412407,"144":0.0228476411764455,"145":0.14140385948093778,"146":-0.0332955935403045,"147":-0.13453197834723302,"148":-0.23078434909318005,"149":0.0848467680766167}},"12":{"bias":-0.34234319890279247,"weights":{"0":-0.3744615027287746,"1":0.07310918138640067,"2":0.13104407331691334,"3":0.514178371188357,"4":0.200995849708196,"5":0.6120341963671028,"6":-0.22045932691376613,"7":-0.0804533269015636,"8":0.20097106860939953,"9":0.06751663778751857,"10":-0.30649440403179223,"11":0.0001049478271751959,"12":-0.12624696084510847,"13":0.924056133247029,"14":0.7856186655218161,"15":0.7266840934538347,"16":0.2425077801251825,"17":0.11836317262805578,"18":0.2615617855693028,"19":-0.22110204099502181,"20":0.3229038102126686,"21":-0.012014589950853138,"22":-0.32175537816742605,"23":-0.4925384230594453,"24":-0.2200139781735602,"25":0.22497427734797848,"26":-0.2166467204892536,"27":-0.2625262349222409,"28":0.11660069660700789,"29":0.04241714436778581,"30":-0.17563386789667546,"31":-0.3761997700297924,"32":-0.310646321072937,"33":-0.3918274440943758,"34":-0.24588438557705664,"35":-0.22510105793299157,"36":-0.2953335158516804,"37":0.14854567631344798,"38":0.5454728825146559,"39":0.3218035301363613,"40":0.323957647212831,"41":-0.5287240825361623,"42":-0.32116196918052603,"43":-0.40926768615776815,"44":-0.18241724137133797,"45":-0.06293624026173474,"46":0.45835943373879046,"47":0.4976229208182201,"48":0.3831492327811915,"49":0.4260801128649076,"50":0.23253139061987493,"51":-0.28121350299085984,"52":-0.6128529550418946,"53":0.002836144601608487,"54":-0.6164281378072171,"55":-0.5238152652336021,"56":0.4322420520303169,"57":0.6442483333309356,"58":0.7597474066885335,"59":0.28424228188719874,"60":0.25508111512862386,"61":-0.3045145106812989,"62":-0.40245050800972304,"63":-0.3950919914703319,"64":-0.24522629493610332,"65":0.31434068980939706,"66":0.32812509503548176,"67":0.15805355542786628,"68":0.27648829506638306,"69":0.14087240446041535,"70":-0.14116709902534597,"71":-0.20118302508188132,"72":-0.30292727967783084,"73":-0.49983389041347187,"74":-0.4612327419488523,"75":0.3881401218075685,"76":0.33243027897904126,"77":0.3168924240894931,"78":0.17887054667313143,"79":-0.19657789734273054,"80":-0.013025275984510372,"81":0.5069039414251951,"82":0.055141695233545444,"83":-0.528106211133155,"84":-0.5618698997168712,"85":0.2936104650927832,"86":0.5965138115525938,"87":-0.027194720685393095,"88":-0.17148708097847545,"89":-0.46889893611969974,"90":0.4441440733012239,"91":-0.20878650532634932,"92":0.4987411414746788,"93":-0.03347455178018603,"94":-0.2249224926383267,"95":-0.004925394326197045,"96":0.5789832937540865,"97":0.13040340891339716,"98":0.3333117552564315,"99":-0.45187081678561897,"100":-0.03399884294893276,"101":0.11152916837149852,"102":0.125203616039556,"103":0.0559385479286292,"104":0.19061750701436558,"105":-0.28156124250100356,"106":0.015203738436764718,"107":0.6235233501468163,"108":0.1897425713822578,"109":-0.3268584580432677,"110":-0.01786291683318814,"111":-0.3991991648242699,"112":0.03086988161297485,"113":-0.11887564493267042,"114":-0.48436935664792996,"115":-0.11517385622976696,"116":0.49014166290493977,"117":0.3120882469451901,"118":0.47276637826150575,"119":-0.4057170694435565,"120":-0.047931511626045684,"121":0.584671477528454,"122":0.15205502403608434,"123":-0.3784626330348785,"124":0.16361402776859466,"125":-0.36282833103930895,"126":-0.004894631590977879,"127":-0.17604580971358988,"128":-0.2745300235741757,"129":-0.2030966847795655,"130":-0.19420651181387988,"131":0.09830152171617398,"132":-0.02568812289645362,"133":-0.15195580097670736,"134":-0.05026941225932303,"135":-0.6785574917592654,"136":-0.6958904546110004,"137":-0.3831285851186168,"138":0.34440886776355667,"139":0.27867365339483546,"140":-0.15239445605362098,"141":-0.2223133183864419,"142":0.18622566518467903,"143":0.10503700469922371,"144":0.051948294335835164,"145":-0.7308354002450834,"146":-0.6699237554246172,"147":0.08160955418421144,"148":0.32371002790581455,"149":0.467747924893929}},"13":{"bias":-0.38016999177168737,"weights":{"0":-0.19159395112999292,"1":-0.24435610039152622,"2":-0.17614438721118642,"3":0.15366173656268792,"4":-0.23731100272844757,"5":-0.372676159935514,"6":-0.13738877436642463,"7":0.11076833161187136,"8":-0.3467985144606329,"9":-0.15161773660242298,"10":-0.22887541278709986,"11":-0.49703705991492736,"12":-0.05918487159462269,"13":0.1966457035751461,"14":0.35210151658105904,"15":-0.5208371937187037,"16":0.04933751783279607,"17":0.041744738436414505,"18":-0.28692134017872645,"19":0.37652587748738287,"20":-0.11227224983245411,"21":0.04563801186952536,"22":-0.09626148681795892,"23":0.04653974112324855,"24":0.08025001189032012,"25":-0.04207857309967587,"26":0.3544873102214449,"27":0.08508599830829705,"28":0.5846250826831891,"29":0.5520408952700228,"30":-0.018064116375736915,"31":0.11397218659096511,"32":-0.19477209471207638,"33":-0.4020803742543117,"34":0.49880576028731227,"35":0.2985334294708143,"36":-0.06595113458521297,"37":-0.1610706147680824,"38":0.7110026915788032,"39":0.6662749964979598,"40":0.2837869071052403,"41":-0.21823743785978772,"42":0.010343380895742882,"43":0.3019845645184375,"44":0.5897438411116505,"45":0.08417074153583343,"46":0.05797881150149658,"47":0.26467799248315005,"48":0.2051079661006169,"49":0.7018809549370597,"50":0.2567971515860393,"51":0.005010249224789412,"52":0.32847076376898854,"53":0.21271219571594732,"54":0.03906474120385896,"55":0.19664222079989105,"56":-0.4299804329356406,"57":-0.13515393856768598,"58":-0.17113576774852413,"59":0.539643376747678,"60":0.03016728243266964,"61":0.020752944031370606,"62":-0.09289620670154042,"63":0.049437527072392434,"64":0.632962058619472,"65":0.24551360157263655,"66":0.19106724714615156,"67":-0.2893650181877479,"68":0.2919903489734031,"69":0.6709896610301779,"70":-0.024182482727249,"71":-0.5236466007914052,"72":-0.3584495008585609,"73":0.4601166785073595,"74":0.5016561123786993,"75":0.18589653475315587,"76":0.10189050644680027,"77":0.017498037047529866,"78":0.4683637168945408,"79":0.16581500881249386,"80":0.255549634437601,"81":-0.3323287401492348,"82":-0.23694560776551352,"83":0.13943691331844887,"84":0.4357630807906417,"85":-0.43297099180927756,"86":-0.07434226346670667,"87":0.03320963612175203,"88":0.5768830247528046,"89":-0.004313459199685583,"90":-0.13738852927455292,"91":-0.13069338727347998,"92":-0.27340067816257435,"93":-0.20793469327834174,"94":-0.20417336409919148,"95":0.004246560161593808,"96":-0.029695758309915544,"97":0.20460087104349553,"98":0.2669677117423702,"99":-0.06949890686846599,"100":0.5444053146828143,"101":0.06711464988988755,"102":-0.250590047946625,"103":-0.31593434518364,"104":-0.43577395680839076,"105":-0.4736784358960649,"106":-0.029250910448103736,"107":0.12794496047017573,"108":0.17827942661444357,"109":0.382140201835007,"110":-0.05988445413570032,"111":0.21272694296905537,"112":-0.27877427212433264,"113":-0.31375470020369484,"114":-0.7013970036054382,"115":-0.33358511039923455,"116":0.16067198781429282,"117":0.007036016520233013,"118":-0.3408228527258438,"119":0.00407681238429446,"120":0.10902491332801473,"121":0.34405153175186076,"122":0.1397693187897128,"123":-0.23316488700936278,"124":-0.4197267319750513,"125":-1.0057637883596209,"126":-0.15197632825596455,"127":0.05818035405086548,"128":-0.13667539873502185,"129":-0.19487733999354387,"130":-0.11540430807507966,"131":0.15779762105360592,"132":0.6012681027642633,"133":0.043565506372395216,"134":-0.1223700740021799,"135":-0.5110524725443524,"136":-0.47205901374098874,"137":-0.2471088252771163,"138":-0.5947824519809788,"139":-0.16924914239190555,"140":0.13902749472358422,"141":-0.7452405580841697,"142":-0.06159415654037467,"143":0.3394427010359807,"144":-0.24591848090273222,"145":-0.5512392260023924,"146":-0.16508393517400696,"147":-0.6142790659809767,"148":-0.1616994414558717,"149":-0.2630871505649604}},"14":{"bias":-0.14719675281436162,"weights":{"0":0.07449634050328191,"1":-0.08648920993407229,"2":-0.2505379519379516,"3":0.07063938511833218,"4":0.2107349345072564,"5":-0.06428671441208192,"6":0.3607250185659381,"7":0.42337571681783476,"8":0.10389802798390092,"9":-0.2928363528483952,"10":-0.249436603603288,"11":-0.16049361715888674,"12":0.28659762902966873,"13":-0.03321698555397372,"14":-0.09421067075592207,"15":0.0965027680532772,"16":-0.20904727486260974,"17":-0.06473937682497634,"18":-0.21472223126598944,"19":-0.1432351996715455,"20":-0.10100483252414376,"21":-0.03682873160894825,"22":-0.45088530250818853,"23":0.07446829543559218,"24":-0.11719178735954143,"25":-0.20472549385941982,"26":-0.09226316236597842,"27":-0.5474410945981776,"28":0.010673875162148402,"29":0.14238627463242706,"30":0.11779565554618898,"31":-0.07136949909761472,"32":0.2043010698153454,"33":0.3167763804200714,"34":0.21861904720399156,"35":0.14005258350055738,"36":-0.06649172534184312,"37":-0.33143735451054757,"38":-0.39283859037110724,"39":-0.2704877919105473,"40":-0.36626558054495795,"41":-0.1297601806632776,"42":0.09671335948081049,"43":0.131574882954434,"44":-0.3468010449465939,"45":-0.012004896873095328,"46":-0.029792303581682816,"47":-0.5067281861246149,"48":-0.37500841643924143,"49":-0.5336329954215053,"50":-0.6566309875556393,"51":-0.37340684128499707,"52":0.2816629945438787,"53":-0.3169289915975487,"54":-0.16436297256666194,"55":0.1575105732206692,"56":0.0509031593995817,"57":-0.25925300660960093,"58":-0.41088455397760193,"59":0.03793407932082148,"60":-0.7269969605055701,"61":0.06969395616328825,"62":-0.3397051039565797,"63":0.033502313623513615,"64":0.36994890013395587,"65":-0.516230200336825,"66":0.1521156106436855,"67":0.24389390753163134,"68":-0.0842127561071406,"69":-0.06639383938457007,"70":-0.6334377990049497,"71":-0.2768369653011151,"72":-0.17820395057856353,"73":0.17854007108811287,"74":0.14250670411612018,"75":-0.4653855670909967,"76":-0.15895510136568652,"77":-0.1198431030188909,"78":-0.0850233105493617,"79":-0.10468992117250571,"80":-0.6129309830634245,"81":-0.6514564171439822,"82":0.2036222794097573,"83":0.619684898672045,"84":-0.1088894468853757,"85":0.06129433459936046,"86":-0.3111468459564326,"87":-0.18104293961306553,"88":0.08822583741070593,"89":-0.2231153458227377,"90":-0.4809615932885524,"91":-0.02028036166779958,"92":-0.2795315559969611,"93":0.11090442136681682,"94":-0.2666608821745826,"95":-0.20155443191852251,"96":-0.07320874261136665,"97":0.06398019310465942,"98":0.15636313288402454,"99":-0.2440804133260371,"100":0.08419430162520522,"101":0.0706786373539571,"102":-0.3551158711218581,"103":-0.16524813862226245,"104":-0.21460038706837029,"105":0.11892743180112769,"106":0.09475017377830479,"107":0.23961981349872608,"108":0.23419145734839666,"109":0.1736276636901695,"110":0.15121320435494287,"111":0.27671454912132604,"112":-0.28774910381029084,"113":-0.0641715453406098,"114":-0.18908424039727456,"115":-0.23113385472440418,"116":-0.07484474301209534,"117":0.14865313215748086,"118":-0.3577268764982676,"119":-0.3607990210853256,"120":0.32697360753833293,"121":0.12258171720491699,"122":0.2442263063883764,"123":0.18247877271290341,"124":-0.32013021273654435,"125":0.022892040309372468,"126":-0.36582140730646734,"127":0.10332190889172549,"128":0.05730094091198758,"129":-0.33145099192510247,"130":0.1985088706746288,"131":0.8108743613597273,"132":0.9448311462994667,"133":0.5319967898176257,"134":0.6007884251181806,"135":0.4254396455700306,"136":0.38261161518275943,"137":0.33500667673863094,"138":0.025152346281582614,"139":-0.00410343865379061,"140":0.08750087673218081,"141":0.7211892040010638,"142":0.5557952142997404,"143":0.1624268497285601,"144":-0.07764422097766767,"145":0.4757681936171064,"146":0.2710311398612079,"147":0.14189330226395158,"148":0.06986046429008543,"149":0.13845763243998105}},"15":{"bias":-0.04033346691840838,"weights":{"0":0.1483141115040821,"1":0.34755972481859543,"2":0.2957196222426992,"3":0.29126904471969833,"4":-0.07330148979436112,"5":-0.04355960350944714,"6":0.0952131475246038,"7":0.2846080338913518,"8":0.2067541867768909,"9":0.4787431245732769,"10":0.0965841540499259,"11":0.12883353086571395,"12":-0.04736426871077328,"13":0.27341718000820264,"14":0.07770941943310618,"15":-0.40527543520312875,"16":-0.2923190724841795,"17":0.19267156175941075,"18":0.195528427913484,"19":0.8464382739996656,"20":0.28235297217998767,"21":0.27929900699550964,"22":-0.3383704834738296,"23":0.047501000839505446,"24":0.16628791609654855,"25":-0.15780472110653787,"26":-0.11028673002169095,"27":-0.3139074301941494,"28":-0.27874920449748536,"29":0.5598411061644784,"30":0.4538018937025742,"31":0.03937946780548518,"32":-0.13269418882146947,"33":0.28025341217428906,"34":0.44153507652894547,"35":0.4349809757008595,"36":-0.2022667553525303,"37":-0.19210730940910678,"38":0.010949877078136274,"39":-0.03212711462168935,"40":0.46032525211650005,"41":0.07043619357441538,"42":0.468473581049797,"43":0.639466693860533,"44":0.3584994999902379,"45":0.1811796915212224,"46":-0.10338856671653361,"47":0.5352360729842196,"48":0.5331583923085002,"49":-0.34635032161005214,"50":0.06275503721948804,"51":0.377825700034111,"52":0.21035158335385037,"53":0.23991133261264663,"54":-0.33751824030242866,"55":-0.11958163736765484,"56":-0.32650215977448716,"57":0.26780325227973234,"58":0.35153596539791326,"59":-0.05764704378419999,"60":0.7495594188290492,"61":0.5559114629449349,"62":0.19045790129481438,"63":0.04496763775657558,"64":-0.1533712545159472,"65":-0.23171842834395545,"66":-0.033648972892769524,"67":0.13201163880845226,"68":0.1098068614579986,"69":-0.04337585154513122,"70":-0.035193455131665254,"71":0.6752067152908069,"72":-0.36939182917870694,"73":-0.29803733208657385,"74":-0.11361304949979247,"75":-0.16400466212504933,"76":-0.27840953524633455,"77":-0.6555706156091551,"78":0.05131595117418498,"79":-0.18284002386680362,"80":0.08167076379561815,"81":-0.031212839974850366,"82":-0.35682932625036223,"83":-0.3267848790328542,"84":0.0199249989930151,"85":-0.6026529913671208,"86":-0.16029071683844234,"87":-0.03304711726983334,"88":0.3683079432224942,"89":0.04418721654480441,"90":-0.27141719836457745,"91":-0.02864232616961582,"92":-0.6734982905127977,"93":-0.22769476180507778,"94":-0.0736150745800321,"95":-0.19524323927010265,"96":-0.290413517477442,"97":0.2335480787931558,"98":0.40762512681325774,"99":0.16359934884205737,"100":-0.42284971810119937,"101":-0.8900823098229086,"102":-0.18943485921929798,"103":0.02279264032029121,"104":-0.2752670444355125,"105":-0.20211691910945398,"106":0.2504577880395925,"107":0.25503288798896595,"108":0.29389088900010696,"109":0.10527270016091664,"110":-0.48050452687051937,"111":-0.45374865143502363,"112":-0.24024301553725777,"113":-0.4220535298758315,"114":-0.5713613165124958,"115":0.05357306021696382,"116":0.43762690655348113,"117":0.47846334666375323,"118":0.041358286907158176,"119":-0.2671372881184817,"120":-0.4906166474205642,"121":0.2041005140201613,"122":0.024003592287978347,"123":-0.024358104908210318,"124":0.06011119076182539,"125":-0.14115842711505422,"126":0.5062060396239163,"127":0.3989272627573654,"128":-0.2747147531077912,"129":0.2551582820960325,"130":-0.08535293818070949,"131":-0.06345805114672833,"132":0.11022818626775255,"133":0.28591257158739086,"134":0.40248461742361313,"135":0.02721216664253095,"136":-0.202403170218875,"137":0.15928909442824832,"138":-0.23423876783781877,"139":-0.3575127771267446,"140":-0.07627923110635632,"141":-0.13092235141793335,"142":0.14440569440111165,"143":0.2538230092142829,"144":0.3638951490838807,"145":0.7207050309895695,"146":-0.08232716301508468,"147":0.05115560714917529,"148":0.1451252226432323,"149":-0.19262323382626056}},"16":{"bias":-0.5031728717212466,"weights":{"0":-0.3962649771344519,"1":0.45330776891260743,"2":-0.5327393111607475,"3":-0.14751400701701953,"4":0.25349583625035693,"5":-0.18700934192425497,"6":-0.35907739196895194,"7":-0.30252423192558675,"8":0.139081772475108,"9":-0.01103611141196945,"10":0.21767408767846197,"11":0.12401734079558287,"12":-0.05755645157499393,"13":-0.6122229337843568,"14":-0.5300113858539376,"15":-0.3250051485844527,"16":0.03455412397420719,"17":0.3105699844494874,"18":0.3273272862432123,"19":-0.019206330995684726,"20":0.27642620955663777,"21":0.2015535352255348,"22":-0.06628863804157963,"23":-0.12476755681827642,"24":-0.11020998011659497,"25":-0.05102838120771075,"26":0.045569343307594636,"27":0.36861422581855546,"28":-0.10883050056076186,"29":-0.47766039858352927,"30":-0.1469518987047295,"31":0.6653583412305905,"32":0.25928794612559686,"33":0.23989064683352576,"34":0.15873351501566788,"35":-0.2053379082053354,"36":0.7037783506821721,"37":0.08692114385706556,"38":0.2074064926181493,"39":-0.47325823250120497,"40":-0.28853029943015984,"41":0.5610529227740707,"42":0.3375303559466328,"43":0.07852357885644373,"44":-0.2773271636241333,"45":0.22800374354189507,"46":-0.25401433053059874,"47":-0.180221694475903,"48":-0.03106268752134474,"49":-0.20119202704610858,"50":-0.22408167762183334,"51":0.09848953444157775,"52":0.8430823534293622,"53":0.1330673754645813,"54":-0.01687826971555139,"55":0.17599118199281127,"56":-0.7141584913400248,"57":0.08046841417606557,"58":-0.6041493921382334,"59":-0.09505640383987551,"60":-0.48977098988121237,"61":-0.1772739875830357,"62":0.3884780668920574,"63":-0.012771182904317177,"64":0.06071877129800566,"65":-0.6113835535134193,"66":-0.5601728814179943,"67":0.18430519932072456,"68":-0.08503193891316185,"69":-0.03596861196403116,"70":0.09150271480967839,"71":0.2330583973260572,"72":0.5865309000129731,"73":0.3450026021229263,"74":-0.09397932704774475,"75":-0.03307677585375997,"76":-0.19615771938250762,"77":-0.009211528299801533,"78":-0.3157685390431579,"79":0.10009755266738544,"80":-0.37951850098570195,"81":0.274840433206938,"82":0.636579393679194,"83":0.3429022761762163,"84":-0.02403940865079469,"85":-0.3741294066414517,"86":-0.4388178872585858,"87":0.12313007111371864,"88":-0.2502702753339882,"89":0.027365930556971268,"90":-0.17130861154573856,"91":0.2622953199378265,"92":-0.29670818019592965,"93":0.10609837101736247,"94":0.13789523282120983,"95":-0.5278113044865603,"96":-0.42684379998388894,"97":0.08950003292479612,"98":0.3113089891631642,"99":-0.1948618318824637,"100":-0.4750623828624314,"101":-0.04844340397041375,"102":0.0327292242065998,"103":-0.2077718787642704,"104":0.2639559524631653,"105":-0.1476791911723399,"106":-0.025882509860086344,"107":0.044165685032326825,"108":0.43440565435394946,"109":-0.24274414882543777,"110":0.2913948121519887,"111":-0.5318204496219814,"112":0.04060040881735941,"113":0.10385359879152926,"114":0.5057843330887601,"115":-0.4212873345635121,"116":-0.13726887056078702,"117":0.29002177293203907,"118":-0.09368355096235083,"119":0.12475846827891338,"120":-0.109158551344778,"121":-0.5313814980956613,"122":-0.4083009247636371,"123":0.11268254863796483,"124":-0.10130617003504691,"125":-0.34918172819822896,"126":-0.2330799210821342,"127":-0.3595806254641092,"128":-0.0350606961158766,"129":-0.23570443438652078,"130":0.4191338659738941,"131":0.6056542640308197,"132":0.5262477364568302,"133":0.29214351493129354,"134":-0.09061677469604587,"135":-0.06770685882179005,"136":-0.21353307402892735,"137":-0.16383629168916616,"138":0.23923236386420013,"139":0.17853338942148772,"140":0.16465913977454769,"141":0.653446038494169,"142":0.32983452905731125,"143":0.12158035829180418,"144":-0.08776048697621132,"145":-0.3072146555905297,"146":-0.5908030867466736,"147":-0.6653698918115496,"148":-0.20141733408140902,"149":-0.3685384150390135}},"17":{"bias":0.15283956655411554,"weights":{"0":-0.21720651228443652,"1":0.18986344731360194,"2":-0.029868903804852444,"3":-0.37260065243976476,"4":0.313533007979211,"5":-0.011474299302864154,"6":-0.23174539672853903,"7":0.5182528091303262,"8":0.08659226415846054,"9":-0.040561617816843525,"10":0.14855195304372876,"11":0.3139216390881677,"12":-0.07053357925694194,"13":-0.1725694297221311,"14":-0.27078592919389344,"15":-0.12281269729603002,"16":-0.04451797454103282,"17":0.6797345422012991,"18":0.35565628325648024,"19":-0.5516037606693558,"20":0.261505519397484,"21":0.5444400689499769,"22":-0.30918636626981827,"23":-0.4333046596802513,"24":-0.46615480058135705,"25":-0.08927319417699131,"26":0.1458581289976247,"27":0.24141260353247537,"28":0.2304275901011085,"29":-0.2547897207022777,"30":-0.049400143141176404,"31":0.145986065832733,"32":-0.04780044692878366,"33":-0.28698595628469936,"34":-0.15925215957150402,"35":-0.4306895671475651,"36":-0.05392067788965715,"37":-0.382916566104887,"38":0.07637126103552758,"39":-0.3031710685775642,"40":0.5935078622508025,"41":0.2240357063937994,"42":0.3796479231577689,"43":0.23091413692049725,"44":-0.6421437643446746,"45":-0.28765228982785324,"46":-0.22804641620139568,"47":0.10027012220752683,"48":-0.5387568649952391,"49":-0.15329444002012957,"50":0.7240771174911546,"51":0.2514258449408131,"52":0.4740155437860536,"53":-0.24240325084098913,"54":-0.6807046725417826,"55":-0.1329747739665154,"56":-0.23757354153471377,"57":-0.14996522008431387,"58":-0.601347404509324,"59":0.1557522770647251,"60":0.3620301087094841,"61":0.039894569609039816,"62":0.3569717100373624,"63":-0.1490951435292405,"64":0.16277804600892223,"65":0.6382683922722762,"66":0.3028901434242676,"67":-0.157248343803066,"68":-0.09866867076690589,"69":-0.5142072433799777,"70":-0.45741354739167045,"71":0.21558443985458814,"72":-0.06522876414232838,"73":-0.029644839666347764,"74":-0.008415175061004584,"75":0.5306970128914104,"76":-0.3650672519256238,"77":0.3507360046611944,"78":-0.058611894754791845,"79":-0.6157730596055679,"80":-0.4387230938026457,"81":-0.46307246888844883,"82":0.02384149614694387,"83":0.09255564339596764,"84":0.3925613864143039,"85":0.2467643592906235,"86":-0.4254459903063231,"87":0.1699918142409221,"88":-0.3265419087284321,"89":-0.24768109022227505,"90":-0.289975636922357,"91":-0.8649389510700299,"92":-0.20351134263919451,"93":0.10301987892481615,"94":0.27251656901140325,"95":-0.10419092134070317,"96":0.0231528512458901,"97":0.19539535318725487,"98":0.04923992318431739,"99":-0.03645769468976074,"100":-0.43471915509248044,"101":-0.25778550876569434,"102":-0.0971504943757573,"103":0.09668660612407341,"104":0.4498007393108981,"105":0.656575694735614,"106":0.6791632719776158,"107":0.7035862379402251,"108":0.017887646069870554,"109":-0.1944600557299408,"110":-0.525364176024124,"111":-0.6474846452368996,"112":-0.16864336992767526,"113":0.09480888741365742,"114":-0.28262422018748257,"115":-0.09375124825268284,"116":0.6656207535329409,"117":0.23506875969830412,"118":-0.02097724086852625,"119":0.14714560104382782,"120":-0.5130421266898113,"121":-0.17959270622723783,"122":-0.4122172548536976,"123":0.32680200447200436,"124":0.25926233695155637,"125":-0.11596752978900753,"126":-0.12857645108883559,"127":-0.17669082666709615,"128":-0.10114331472876861,"129":-0.17305323471078363,"130":-0.10991793559270668,"131":0.14022991638388776,"132":0.07903913891721871,"133":0.20426475172003977,"134":-0.3316800030520354,"135":-0.0599687054742516,"136":-0.4547790341214724,"137":-0.15403183874236348,"138":0.23920165150299352,"139":-0.1600025880968933,"140":0.06274436538046171,"141":-0.12607146338683356,"142":0.09905530454641176,"143":-0.16998645927532027,"144":0.12613440179470223,"145":-0.10576052850519449,"146":0.037504637980053816,"147":0.6564154127160907,"148":0.6477325314749929,"149":0.014675539402027878}},"18":{"bias":-0.22895969659490714,"weights":{"0":0.2501267983633727,"1":-0.4566909804111996,"2":-0.018222771363312896,"3":0.41384258677987634,"4":0.08342734057611652,"5":-0.11087701395017636,"6":-0.1827125554740311,"7":0.2159770510991356,"8":0.09103396276850838,"9":0.2576792719322797,"10":0.28386923797843827,"11":0.3002113816198097,"12":0.7028543950981974,"13":0.6065096684316906,"14":-0.112822633106313,"15":-0.06209888613180754,"16":-0.32379739311331895,"17":-0.06808939341350692,"18":0.11282257918511358,"19":0.47450564418983876,"20":0.318154200167382,"21":0.24695743326739752,"22":0.13433665671788986,"23":0.028799823252719667,"24":0.1706497905321303,"25":0.01233472070562434,"26":-0.05697942122044328,"27":-0.01648651905821443,"28":-0.021655414825728466,"29":0.17598508604031748,"30":0.03593377562904968,"31":0.01900265723361276,"32":0.13545171464311917,"33":0.28999514228117595,"34":0.22232150941605006,"35":0.4939259144945058,"36":-0.16033544219508816,"37":-0.14347847780324555,"38":-0.19746690006083775,"39":0.11300859558741806,"40":-0.1267236991517984,"41":-0.16807544652273268,"42":0.5449871242237984,"43":0.1748242221101579,"44":-0.007549556659524157,"45":0.11359444771663336,"46":-0.3287389436915428,"47":-0.15225224288095768,"48":0.040524403091735536,"49":-0.10393088928126487,"50":-0.3903333942704007,"51":-0.5279826031178889,"52":-0.09762223957973463,"53":-0.43524516651202816,"54":-0.09180422344164187,"55":-0.4728313018515962,"56":-0.11574930954628478,"57":-0.004173666434963048,"58":0.4281376969106523,"59":0.06291775476969796,"60":-0.34423297998811014,"61":-0.22016946943803134,"62":-0.31555586887513815,"63":-0.443140818267104,"64":-0.0913880836824507,"65":-0.5275270163440663,"66":0.09009170581133578,"67":-0.3100461257176703,"68":0.4520119698299857,"69":0.021142252298856756,"70":-0.5268996485050084,"71":-0.22727323944048258,"72":-0.8086045099977924,"73":0.09038940913625493,"74":-0.046904588588751545,"75":-0.1236509447293277,"76":-0.5944777669100478,"77":-0.28478181183587636,"78":-0.0968733738895585,"79":0.02383382278715846,"80":-0.3138735157086424,"81":-0.5330885235665833,"82":-0.6884852842776633,"83":0.17973307402988656,"84":0.4713167675364768,"85":-0.34279038943301476,"86":-0.44822048797686037,"87":-0.5887187381576302,"88":-0.05449017212090458,"89":0.14305329359011998,"90":0.04241322020178308,"91":-0.019287484109578465,"92":-0.12703573894860462,"93":0.28923267183233325,"94":0.3076150608841139,"95":-0.4215444790591661,"96":-0.23850146874062134,"97":-0.3555220583699324,"98":0.5495756170470057,"99":0.5007909958637867,"100":-0.40779249090320774,"101":-0.04953703639053479,"102":-0.2769394987725546,"103":-0.09389324746249793,"104":0.01156506308588861,"105":0.043878856460608795,"106":0.16466029863020945,"107":0.3348788776453899,"108":0.7477719313999361,"109":0.3835992637723385,"110":0.10560752592475517,"111":0.3609546025820801,"112":-0.0937797897670375,"113":-0.15049153921784725,"114":0.1728930419287502,"115":-0.08630001422265023,"116":0.24554244721309412,"117":0.32242995431634824,"118":0.3398369733284254,"119":0.5012813440463315,"120":0.5608072277834519,"121":0.06590920574519614,"122":-0.030962777759199672,"123":-0.15101433767749364,"124":0.15141370309325913,"125":-0.3719867862229063,"126":-0.2860066080471322,"127":0.2651507863457966,"128":-0.050221881254930024,"129":0.19589138417108645,"130":0.39190682381535724,"131":0.48095945080115976,"132":0.7336351869439047,"133":0.33371187949642145,"134":0.7004373471096527,"135":-0.24862492436888883,"136":0.08725503081736473,"137":0.16478622281695662,"138":-0.03400709833348515,"139":-0.09689424468618875,"140":0.16200735938104102,"141":0.037108050403454725,"142":0.4560724746514275,"143":0.2132690615901604,"144":-0.10181304640670151,"145":0.32683810621550474,"146":-0.1611658371700185,"147":-0.25434093862743323,"148":-0.1790557102611786,"149":-0.2628538387258221}},"19":{"bias":0.4319526377326314,"weights":{"0":0.09074912765543786,"1":-0.12051849949280974,"2":0.044082819705947414,"3":0.4288382667104718,"4":-0.030095776782572553,"5":0.14083026307005844,"6":0.25235581735526047,"7":0.6791949712169167,"8":0.44814243255666375,"9":-0.48426097710806176,"10":-0.11888856331663115,"11":-0.8207775003457739,"12":0.5540853355031278,"13":0.7400595293140761,"14":0.3641624977865355,"15":0.7275410062815013,"16":0.05278846596467247,"17":0.1608935565972904,"18":0.10285675965030248,"19":0.036507307013289074,"20":-0.4239476114868613,"21":-0.6477320558684069,"22":0.28225631575567794,"23":0.28706051566612156,"24":0.18649846234064943,"25":0.08906008789735419,"26":0.3915258207779272,"27":-0.023750328220048418,"28":-0.2787271129353144,"29":0.1099855269145005,"30":-0.1476196364120498,"31":-0.4748612073999705,"32":-0.054256923385409404,"33":0.09412824342082801,"34":0.6822578330505192,"35":0.6201132776297905,"36":0.18900912921949387,"37":0.2916535966623389,"38":0.11862049050602828,"39":0.40226447050812053,"40":-0.30374549596819495,"41":-0.13607875162609454,"42":0.08642894850011962,"43":0.1472250249166869,"44":0.5166536432369961,"45":0.3198025794789663,"46":0.37271732124631274,"47":0.7112264030241725,"48":0.07535787504986606,"49":-0.13160222305847136,"50":-0.4519114292025635,"51":-0.04064187952325821,"52":0.05806566921179582,"53":-0.04324425603244473,"54":0.06530608675992343,"55":-0.07476400774687446,"56":0.13515166257548064,"57":0.5444181119552185,"58":0.36097643881398395,"59":-0.07425895713299338,"60":-0.4553499970402316,"61":-0.3074298468474685,"62":-0.31079425259681404,"63":-0.18829607777962015,"64":-0.6955016054942639,"65":0.19431739920353983,"66":-0.07825992671566563,"67":-0.3262093917969887,"68":0.27188483943976893,"69":-0.2954971289521099,"70":-0.12684774172868185,"71":-0.7264087938176412,"72":-0.7886103050594457,"73":-0.2385451007015686,"74":-0.49992149851308587,"75":0.08442395583768045,"76":-0.24973080318558308,"77":0.04505682042294673,"78":-0.14881124257476255,"79":-0.1467491787762021,"80":0.003518187868306293,"81":-0.4541457717775111,"82":-0.4784853638315299,"83":-0.43330210978414924,"84":0.007269106696465323,"85":-0.3552974847515089,"86":-0.2503876570140439,"87":-0.18972405798016378,"88":-0.06672384677587354,"89":0.12569856802962284,"90":-0.19589709405762315,"91":-0.46378704204442206,"92":-0.11655853250950886,"93":-0.48145570775848606,"94":0.11244713699190655,"95":-0.7091407397275087,"96":-0.3844215138190966,"97":-0.2630502572096411,"98":-0.1808930956990587,"99":0.20018780964715974,"100":0.464707944376889,"101":-0.21233339738222223,"102":-0.30758558272262065,"103":-0.0936630827765951,"104":-0.3839815574981709,"105":-0.1457279374174408,"106":0.328846802394264,"107":0.24334633351954102,"108":-0.03659244827452584,"109":0.21329326107043825,"110":-0.29528834016943084,"111":-0.19219635551548353,"112":-0.25619866704918065,"113":-0.005134460062530424,"114":-0.1315634751737646,"115":-0.028006184492998177,"116":-0.13568447951682955,"117":-0.07616759547793676,"118":0.3141852142175667,"119":0.8253097142250726,"120":0.26512586608209726,"121":0.44277670813184355,"122":0.22224476831010762,"123":-0.3865590775791959,"124":-0.0672057664008808,"125":-0.1537770461688914,"126":-0.45261122529812065,"127":-0.034588361602171526,"128":0.3705354206668025,"129":0.5726688931258517,"130":0.3224011118731135,"131":-0.3010997653110874,"132":-0.036412978059272814,"133":-0.22403112363615052,"134":-0.5214175833885815,"135":-0.48150320978320127,"136":-0.7300239120711538,"137":0.10454473446543808,"138":0.46890540134410896,"139":0.18455579160643007,"140":0.09654203627747249,"141":-0.2231787458985633,"142":-0.3171661783890415,"143":-0.1719326372836797,"144":-0.21776504707022087,"145":0.5689190594525281,"146":0.679806286302318,"147":0.4997660314457385,"148":0.8633870448222117,"149":0.5324270767549434}},"20":{"bias":-0.3568314618443951,"weights":{"0":0.22972466586556117,"1":-0.2631767396718236,"2":-0.4019033118881048,"3":0.0469323953381311,"4":-0.7092430213874783,"5":-0.3595854854579796,"6":-0.22064916382101143,"7":-0.03366606476019864,"8":-0.6854220575957933,"9":-0.26231715966310576,"10":-0.09666700473018935,"11":-0.24715694105102498,"12":-0.2147954160922961,"13":-0.3096508701384734,"14":-0.16008801837051706,"15":-0.013606823667576795,"16":0.2048536945448256,"17":-0.2510910274550656,"18":-0.6074797873745535,"19":-0.4928957392304763,"20":-0.12381793221753609,"21":0.1648839275826111,"22":-0.21888738010650005,"23":0.26823956981732144,"24":0.08476201973810772,"25":0.26467265241609017,"26":-0.0711897444616729,"27":-0.008556990313146749,"28":-0.03145877664112057,"29":0.31114637162707703,"30":0.0738991046091668,"31":0.10168524215493456,"32":-0.2475385402751204,"33":0.24689383242980267,"34":0.3295741098635486,"35":0.19987635077159702,"36":-0.34519411353400115,"37":-0.024673124081893802,"38":-0.26950522852924375,"39":-0.2965634765431444,"40":0.1438895458088209,"41":-0.07629334150401086,"42":0.25807214923284433,"43":0.07090929923334754,"44":0.45314133277804586,"45":-0.2531409407063378,"46":-0.02497138740785849,"47":-0.4115542916340698,"48":-0.023908819369496608,"49":0.39266167410073705,"50":0.4265985778135871,"51":-0.5927730453284444,"52":-0.26993424386931103,"53":0.13874659464525224,"54":0.33495449709302677,"55":-0.0735115342212585,"56":0.16401019844768847,"57":-0.24505581036475285,"58":0.14097548913211982,"59":-0.16768107385562073,"60":0.5906868832069521,"61":0.12494648912154888,"62":-0.22267604592949275,"63":0.021925645657303056,"64":0.2755226931387412,"65":0.618801890420206,"66":0.017506315354736252,"67":0.5265468186025378,"68":-0.01261024743452045,"69":0.4230348544756692,"70":0.3612903233478516,"71":0.03255490218086578,"72":0.1580892292076575,"73":0.6157774751481299,"74":0.37299803924997343,"75":0.15553896937609593,"76":-0.04404139516301155,"77":-0.15274800951742057,"78":0.14819759034625435,"79":0.3262197152887476,"80":0.335315480627245,"81":-0.3855310875255571,"82":0.010792461057573052,"83":0.40571101389527325,"84":0.27154184933243225,"85":0.41360793244051425,"86":-0.05611473540600519,"87":-0.23830846583421048,"88":-0.16210847665631656,"89":0.48711583132090547,"90":-0.4366027173428612,"91":-0.5012246965592027,"92":0.19008653428446487,"93":0.2559210067162876,"94":0.4657203573186997,"95":0.19533641860230605,"96":0.47634675586060277,"97":-0.33940692849825616,"98":-0.45219380142267035,"99":0.231933891370789,"100":-0.07046342927388778,"101":-0.056797837917295445,"102":-0.029973422198818593,"103":0.49882910181067275,"104":0.48556674177554593,"105":-0.073505034562761,"106":-0.13056207396790162,"107":0.012509079371105241,"108":-0.30749335989378385,"109":0.2949907273502502,"110":-0.07827692806356108,"111":-0.02592562739659529,"112":0.5260619956112227,"113":0.6838393937202467,"114":0.24580115775473604,"115":-0.41427838825790425,"116":-0.21603862403803553,"117":-0.2772098471797764,"118":-0.3488927555256906,"119":0.07694414715259039,"120":-0.18550091612561168,"121":-0.001517034779968617,"122":0.5512900731978928,"123":0.796147857822412,"124":0.154090563742088,"125":-0.5971225353829096,"126":-0.5886463359229248,"127":-0.3316106761298451,"128":-0.38968314675839716,"129":-0.008841661659554594,"130":0.1798736946572342,"131":0.1456115944575031,"132":0.19763038543576866,"133":0.3612036161120058,"134":0.3016688304295362,"135":0.29787267835198306,"136":-0.2822573886081495,"137":-0.04575852653942297,"138":-0.2533037396050203,"139":0.11000620785382179,"140":-0.03269747002667124,"141":-0.10926712046679515,"142":-0.6270208446379403,"143":-0.0845854465898887,"144":0.03869504716747947,"145":0.08479846737577251,"146":-0.2459812738907202,"147":-0.04063358115713685,"148":-0.3656680172750193,"149":-0.02045218907240348}},"21":{"bias":0.5983800145204693,"weights":{"0":-0.23237203526895903,"1":0.15019430845214002,"2":-0.0345082324153775,"3":-0.22735975617171708,"4":-0.1518236517042719,"5":-0.32011898951878537,"6":0.06099916602934145,"7":0.2999654478926911,"8":-0.00664590427360833,"9":0.09931434983781337,"10":-0.1642876781790046,"11":0.11059181020879487,"12":0.09547464093878419,"13":0.2383306333303984,"14":-0.4801416601619028,"15":-0.21367805095522643,"16":-0.06708036058480836,"17":0.40030729318088126,"18":0.4829967744606476,"19":0.09105097293843319,"20":0.17641502879573057,"21":0.18732964658081946,"22":0.1659179886510714,"23":0.1576522747914602,"24":-0.09906189569486722,"25":0.2054425108079168,"26":0.14842640888350686,"27":-0.0036989414484563444,"28":0.17552355345124063,"29":-0.15400181550116188,"30":-0.19194457268530252,"31":0.14543562552398695,"32":0.13573352916220074,"33":0.16703805779869277,"34":-0.0006604915982173196,"35":-0.30930446048152055,"36":0.18618546264096905,"37":0.39648737910625426,"38":0.337606621030778,"39":-0.31870502928053207,"40":-0.21220947513995927,"41":-0.05057313373476811,"42":0.5918909209153711,"43":0.1899745576511507,"44":-0.4439664249633308,"45":-0.31256316267636475,"46":0.10893287893407427,"47":0.5429280922489274,"48":0.48219954043956614,"49":0.05001768397693818,"50":-0.06692403979169914,"51":-0.182561764220775,"52":-0.045048667847574976,"53":-0.5103934267731948,"54":-0.9591657873917129,"55":-0.8693148794547644,"56":0.17258880049449873,"57":0.2097000638085397,"58":-0.09061541399211881,"59":0.2174850397876343,"60":-0.2019914744810776,"61":0.24107509871672053,"62":-0.3330404660126032,"63":-0.5825772854636173,"64":-0.5037374650035531,"65":-0.7390084256862579,"66":0.18310088560337578,"67":0.3087564080102212,"68":0.035713121347964484,"69":-0.23173917184326479,"70":-0.2892950764401545,"71":-0.3042910664183983,"72":-0.42607279222562566,"73":-0.1965576435195947,"74":-0.34062150764592936,"75":-0.17576563785733954,"76":0.1245254900418647,"77":0.17911913440725274,"78":-0.26508043049809715,"79":-0.6333037246489537,"80":0.17868063043167082,"81":-0.7148939593951049,"82":-0.2667065616695633,"83":-0.590985567183761,"84":-0.45439956850498675,"85":-0.28392763523675196,"86":0.16788216283669896,"87":0.4490663583984152,"88":0.0025708101173371376,"89":-0.26643343688080895,"90":-0.3597764320111358,"91":-0.5082007146439615,"92":-0.6482308980805374,"93":-0.7733156191367364,"94":-0.3683449418444036,"95":-0.2482150461284203,"96":-0.08505577030676616,"97":0.13684143747754052,"98":0.16516780383659904,"99":0.1947476539219526,"100":-0.18690708394163721,"101":-0.3455515422395703,"102":-0.44112228177614804,"103":-0.6835164777720452,"104":-0.4864310520308896,"105":0.18558806371858785,"106":0.21798160958470048,"107":0.3641206169948952,"108":0.01318898345845527,"109":0.3314881673956138,"110":-0.24249408067615236,"111":-0.3336667378055258,"112":-0.48657220467528717,"113":-0.16844635570177627,"114":-0.03219076979892455,"115":0.21080712513723507,"116":0.5751074356153866,"117":0.16005877305446856,"118":-0.054964872863979636,"119":0.1554395765200731,"120":-0.39157509968076226,"121":0.24688363097372515,"122":0.021813082593956326,"123":0.7183861298105977,"124":0.44628738643688787,"125":0.592021829883173,"126":0.30325175169380447,"127":0.09359924033756338,"128":0.08881846881557216,"129":0.22520496186859615,"130":0.28880729586617737,"131":-0.16414364637480958,"132":0.09870026339158416,"133":0.1785026754308339,"134":0.42015660441151603,"135":0.5782553961410825,"136":0.1513806963838047,"137":0.4644862786013548,"138":-0.10738693909500793,"139":-0.41536393923215764,"140":0.12233379692869013,"141":-0.05254597003557578,"142":0.434147476637396,"143":0.079722626140323,"144":0.0631221563198776,"145":0.5265937438271368,"146":0.13222821518314953,"147":0.35328073509252134,"148":-0.06435769505842599,"149":-0.22797208873566166}},"22":{"bias":-0.38148957875549805,"weights":{"0":0.23509864719349058,"1":-0.026553389770025162,"2":0.13657962151045305,"3":0.13646102293018225,"4":-0.19305731449021257,"5":-0.6279506328844408,"6":-0.15470324192507115,"7":-0.18606809189836684,"8":0.009564323135374931,"9":0.12305961399276061,"10":0.24170201737629432,"11":-0.10819864671061254,"12":0.10463835384616317,"13":-0.26642969042072895,"14":-0.5502940769706349,"15":-0.48895288116818564,"16":-0.5069976438620887,"17":-0.4365919762679483,"18":-0.03774573285428585,"19":0.15142087502811327,"20":0.3518467780252842,"21":0.04345275723350554,"22":-0.5243389854705093,"23":0.05306924887112604,"24":-0.035850320609214566,"25":-0.3821395342428691,"26":-0.20265062514953883,"27":-0.4145385260817338,"28":-0.38136010201921133,"29":0.24716772172199736,"30":-0.1859254350090269,"31":-0.12058375298910555,"32":0.056599816409350766,"33":-0.3290241072409576,"34":-0.08390904487320854,"35":0.008655964100689025,"36":-0.6997528366333979,"37":-0.36459246593437783,"38":-0.31600960601297,"39":-0.0805978606627795,"40":-0.09916091629828135,"41":0.19068298046521087,"42":-0.16381509720574122,"43":-0.16207812832149163,"44":-0.08012655083888819,"45":-0.40518903014696495,"46":-0.18960111242116828,"47":-0.17927512372577994,"48":-0.21927974664806407,"49":-0.3134714354159821,"50":-0.13584200501309288,"51":0.1762385834202343,"52":0.1626609124020327,"53":-0.1915589942033119,"54":0.1894358961438612,"55":0.13471579502414963,"56":0.0130325568848398,"57":0.3778568535488512,"58":-0.35360959827131844,"59":-0.34350325587658925,"60":0.37138320827499377,"61":0.03611591061678594,"62":0.20775704980824578,"63":-0.17621998470167616,"64":0.1856924924718489,"65":0.16289897832028186,"66":0.4218176932218386,"67":0.6277912565621723,"68":-0.6504111280991702,"69":0.30061477681746024,"70":0.6676169664970569,"71":0.2325114744959248,"72":-0.0150116705070327,"73":-0.3739522685952969,"74":-0.19144816946346216,"75":0.15346718530555753,"76":0.6023669689313077,"77":0.0873828151294985,"78":-0.27142393869491943,"79":-0.11920597790202651,"80":0.4412509265596498,"81":0.4603972680081675,"82":-0.338981704674265,"83":-0.1070571661607916,"84":-0.2948588984300819,"85":0.09856872085262625,"86":0.8823647064790379,"87":0.39986120813393444,"88":-0.0676161544235208,"89":-0.2302842310076946,"90":0.25308277896637016,"91":0.8210999389399004,"92":-0.3877113239954787,"93":0.26921215367891654,"94":-0.320723560039626,"95":0.30849244026920425,"96":0.2952108416753712,"97":-0.006306650752796697,"98":-0.1398491896447071,"99":0.16218941731202827,"100":0.7947420418411317,"101":0.2099183770792825,"102":0.14478759271723757,"103":0.2250975681508795,"104":-0.10181310865706292,"105":0.26909497752636813,"106":-0.2459744818920063,"107":-0.09554097811477244,"108":-0.10985971856018274,"109":0.18751325857635756,"110":0.5202259580885161,"111":0.16243664995629062,"112":-0.17616273743833402,"113":0.003913483621183712,"114":-0.16338324291567524,"115":0.17379610001087242,"116":-0.3008291516353696,"117":-0.20905513223236447,"118":0.4260371117068146,"119":0.04914553999650357,"120":0.31102208601585907,"121":0.3950097965293248,"122":0.144012050037854,"123":-0.027581550401041502,"124":0.1066090022016183,"125":-0.2688877208072123,"126":0.24689282337211227,"127":0.5853887095993497,"128":0.45562806218926266,"129":0.6239636652577514,"130":-0.4044920106052339,"131":0.1674635002452223,"132":0.29034746521499205,"133":0.2582283664349461,"134":0.258831296606481,"135":0.30857589814989644,"136":0.09333026699970177,"137":0.49033885350728856,"138":0.346984403794895,"139":0.3207002395029399,"140":-0.3635388919180981,"141":-0.019668946202450004,"142":0.03289097655042486,"143":0.12772388376033364,"144":0.360833016304005,"145":0.017550037154317667,"146":0.5131204952844869,"147":0.027816409276181987,"148":-0.3059116621934627,"149":0.07385063772816561}},"23":{"bias":-0.4298083219236974,"weights":{"0":-0.44188623273245864,"1":-0.03341041230042117,"2":-0.09306454698782093,"3":-0.09663096559441471,"4":-0.405159856453521,"5":-0.11465850937014875,"6":-0.03378421398657692,"7":0.42897109898371116,"8":0.1462559422946489,"9":-0.5355573280703665,"10":-0.40570858393439957,"11":-0.21745056871987317,"12":-0.13991177918698655,"13":0.18048114054352812,"14":0.34420090565516087,"15":0.47000160185478607,"16":0.3114154530204698,"17":0.2621900639347005,"18":0.022588915177994617,"19":-0.7670713338205992,"20":-0.49479456421041124,"21":-0.024205771392511993,"22":0.22215721501139069,"23":0.11290317850598139,"24":0.13970514805557072,"25":0.38919890892369274,"26":0.41670719994994654,"27":0.12211472257696052,"28":0.14093009898810027,"29":-0.2196015241341121,"30":-0.3259572713371307,"31":-0.16942822565789617,"32":0.5867328769669824,"33":-0.03908363883862211,"34":0.4042751718481199,"35":0.5780673911388665,"36":0.25671128335223875,"37":0.1862228382520123,"38":0.056682135701016975,"39":0.10192329942568917,"40":0.09639674125393775,"41":0.008693257531027999,"42":0.41841330307227975,"43":0.4010760858203162,"44":0.23550584923830048,"45":-0.37253795254977534,"46":-0.0754945790969068,"47":0.348815437253927,"48":0.10026281332033879,"49":0.220845434102487,"50":-0.03446022036944789,"51":-0.3429370323566494,"52":-0.15450937278057156,"53":0.198914026377412,"54":-0.5607333834622333,"55":-0.40400917834667466,"56":0.2921124691433566,"57":-0.16937709273025137,"58":0.34687369178527183,"59":0.4250155562550403,"60":-0.16704609683479554,"61":-0.29627812448540575,"62":-0.04463098833436549,"63":-0.2092290607938986,"64":-0.6470686083066808,"65":-0.47250575995395677,"66":0.07136844593729111,"67":0.14348686248900064,"68":0.49898645749266196,"69":0.4235103856779267,"70":0.11633569693708347,"71":0.042076459442479605,"72":-0.09649057640535957,"73":0.20010190347901471,"74":-0.2768920683925037,"75":-0.3875117318638837,"76":-0.19004576055836525,"77":-0.14844031282361683,"78":0.16430223892336446,"79":0.193150874156849,"80":0.28140794948573905,"81":-0.45099081571409105,"82":-0.15666603722194564,"83":-0.3869065750725385,"84":-0.4918172536996537,"85":-0.16190031604958074,"86":0.1290360559216614,"87":-0.4300636985797498,"88":0.2572828047442365,"89":0.3169165328857207,"90":0.1997809529817818,"91":-0.1880305378537227,"92":0.23627094769025445,"93":-0.018436622126985033,"94":0.09403379118351447,"95":-0.2960024520150268,"96":0.18937646371807926,"97":-0.30954154568552567,"98":0.24125187963561479,"99":0.39694476652802363,"100":0.22330999015038608,"101":0.029755163361615586,"102":0.4273045813607114,"103":-0.21561644574450606,"104":-0.3694762657239169,"105":-0.5459334020640632,"106":0.11452891558835572,"107":0.3367295411639399,"108":0.5506988905746428,"109":0.4743639802878204,"110":0.047748063295453134,"111":0.30450936913341675,"112":0.0957551583254082,"113":0.420357800247413,"114":-0.37136802626536025,"115":-0.28137254667712813,"116":0.0031549529243319707,"117":0.13972546763380897,"118":0.4302628192315837,"119":0.3526278277903481,"120":0.32767870345564787,"121":0.5225264391658441,"122":0.28081366236638255,"123":-0.23583012499694994,"124":0.16632129770332327,"125":-0.6385684715236941,"126":-0.41621485512789774,"127":-0.29392527746416075,"128":0.7626073009280193,"129":1.0260310517900941,"130":0.03424363084787964,"131":0.054537496311641544,"132":0.1717010000656918,"133":0.12598741565875343,"134":0.08292403106366383,"135":-0.41956215830834653,"136":-0.4826465700381868,"137":-0.2280021310541095,"138":0.6779698492949345,"139":0.6810508171468307,"140":0.21536181332718665,"141":-0.34992774126632914,"142":0.2238440123965706,"143":0.26645517958584647,"144":-0.13275613547030937,"145":0.11339233909447463,"146":-0.5794789625241725,"147":0.0770098556159451,"148":-0.08769635030370189,"149":0.34771190777967176}},"24":{"bias":0.3224426555279037,"weights":{"0":0.13726617982306633,"1":0.33288232100376225,"2":0.16521378574661752,"3":-0.08256513818214553,"4":0.3144593841120536,"5":0.0542345277805635,"6":-0.4694484416041159,"7":0.27787750051510784,"8":0.3780881208242829,"9":-0.3046853127935643,"10":0.35851987920711537,"11":0.1874517125230927,"12":0.27983781655490314,"13":-0.5965468906834637,"14":-0.5357879124184832,"15":-0.21289033738750252,"16":-0.5197726202742293,"17":-0.3044797528216638,"18":-0.028308132107927438,"19":-0.5102766184904137,"20":0.1546665881656328,"21":0.49642959659325026,"22":-0.4036729238112603,"23":-0.6967477308603585,"24":-0.37656025410716487,"25":-0.1958349776701251,"26":-0.11646039915163194,"27":-0.5418278472007868,"28":-0.2277062318136197,"29":0.20692246917667564,"30":0.06630844442462505,"31":-0.5181631931672195,"32":-0.24215567421459439,"33":-0.5049621389058155,"34":-0.56278475337076,"35":-0.11684877841494695,"36":-0.0704638759752965,"37":-0.48279066491976724,"38":0.1262995679167583,"39":-0.13471649953852988,"40":-0.035487645193249505,"41":-0.1364048449500975,"42":-0.18848742801481858,"43":-0.5494700065991128,"44":-0.5051999988310543,"45":0.22501864833013788,"46":0.30016958766447277,"47":0.3117295782838706,"48":0.03894823818056038,"49":-0.20800576043740876,"50":0.2154431923467932,"51":0.569085455556632,"52":-0.464567854648366,"53":-0.2630369276729059,"54":-0.07954814855704632,"55":0.10472740337079388,"56":0.17315525199506493,"57":0.30897479090996627,"58":0.29377637471064194,"59":0.6107946977894234,"60":0.2904154656281867,"61":0.16528721717153075,"62":-0.5418158958721633,"63":-0.22461841130313506,"64":0.23729458830040648,"65":0.5674270082541046,"66":0.21148258021083735,"67":0.40028110991670673,"68":0.3479412085772252,"69":0.35778329883223603,"70":-0.49095226061140973,"71":0.2101302038256126,"72":-0.7348448134343123,"73":-0.4355736430718326,"74":-0.3727124756962952,"75":-0.01567232298133069,"76":0.10691618526576198,"77":0.5263357799110705,"78":0.06495254283055864,"79":-0.11680151052091575,"80":0.13418657941269363,"81":0.2668731733909321,"82":-0.027437759718883785,"83":-0.3668357219256086,"84":-0.39455124236954797,"85":-0.1371833664586906,"86":-0.2194264772327822,"87":0.2583328104788935,"88":0.051560514720777606,"89":-0.06274212009721002,"90":0.09030915040172627,"91":0.0016679362865667732,"92":-0.16607809015291375,"93":0.0025459113880605126,"94":-0.07244755104132948,"95":-0.4294476419498962,"96":0.1156151840990333,"97":0.21842378304707005,"98":0.082537653097493,"99":-0.15723543653109578,"100":0.07286488543579289,"101":0.3063596186562373,"102":0.00881914255600423,"103":-0.05717517545605682,"104":0.1885450870705796,"105":0.013531172226709347,"106":0.06415806367199638,"107":0.8238803399724921,"108":-0.13745055148771274,"109":0.1230066917294101,"110":-0.11060388955125479,"111":0.017387386478861996,"112":-0.29221280573104924,"113":-0.35304629121544995,"114":-0.6588364932430913,"115":-0.07043684009213694,"116":0.6549533013095854,"117":0.8204060695057852,"118":-0.03222199906492041,"119":0.26765998567201177,"120":0.12771562597146288,"121":0.2505336343446567,"122":-0.31223027812067017,"123":-0.6639126846627863,"124":-0.7253555493432143,"125":-0.5763105877756798,"126":0.1798441450672553,"127":0.00906141984461458,"128":0.4479519369178149,"129":0.3489507306604099,"130":-0.07991571929473235,"131":0.02166037076534307,"132":-0.03996720195768701,"133":-0.6891631397063971,"134":-0.3950042257525085,"135":-0.6330282067502088,"136":-0.2295975409801873,"137":-0.041873175381832974,"138":0.22927509560029197,"139":0.02838729539048087,"140":-0.4218024627421172,"141":-0.24696739474052834,"142":0.7171672122694055,"143":-0.11094903749558294,"144":-0.27876147558199316,"145":-0.3078071502341752,"146":0.3357331776987751,"147":0.21380457431789435,"148":0.3666842946315912,"149":0.2471249563549532}},"25":{"bias":0.5545520680789926,"weights":{"0":-0.010275537964328802,"1":0.011225614991273369,"2":0.07079083276446058,"3":0.11768824581719071,"4":-0.11137166739380888,"5":0.4578723732914573,"6":0.9035244880291424,"7":-0.06355629776693625,"8":0.6537537205209216,"9":0.4982709577105261,"10":0.4296342968725891,"11":0.0821814667346159,"12":-0.08593909430603035,"13":-0.08506746808431423,"14":-0.4526695003930958,"15":0.2477583066432477,"16":0.3461462006543756,"17":0.5958928497862788,"18":0.9843178678003432,"19":0.677786622661697,"20":0.20084186656202008,"21":0.04769222936559235,"22":0.026768757729997896,"23":-0.1591792179341357,"24":-0.23820381162543103,"25":0.17126446793563582,"26":0.20495569587016008,"27":0.2541207630682381,"28":0.8096836520093065,"29":-0.38302528739477065,"30":-0.06932223061213773,"31":0.21740426592146572,"32":-0.2546934696317239,"33":-0.015578750431077853,"34":-0.5016594390180483,"35":-0.07964108146473246,"36":-0.12477435671838163,"37":0.053180761219254226,"38":-0.09957532820351556,"39":0.17354261233663082,"40":-0.37067520724382474,"41":-0.05180559727182789,"42":0.3327657535191994,"43":0.14714764152615442,"44":-0.08463977308904919,"45":-0.06788262085988742,"46":-0.21586408623326236,"47":-0.022698633620745964,"48":0.07240312118437436,"49":0.09938095262995639,"50":-0.2874827891211742,"51":-0.07310688657492419,"52":-0.07808697774844009,"53":-0.18874493023695274,"54":-0.5834864081894888,"55":-0.33992669428962163,"56":-0.21873939678917995,"57":-0.033742668276766724,"58":0.07975727590583154,"59":0.040962696702738166,"60":-0.21880015148708326,"61":0.08076006842405482,"62":-0.31930626592784345,"63":-0.3189764591821678,"64":-0.4499856228768581,"65":0.09310345171867028,"66":-0.3378574124827996,"67":-0.36049557042580843,"68":-0.44150452554253217,"69":-0.07812579017074602,"70":-0.11615647720166129,"71":-0.14782582655071685,"72":-0.22469333959483886,"73":-0.2820150765371969,"74":-0.457825114927209,"75":-0.5218911017892188,"76":-0.14857658511827063,"77":-0.5284580027484926,"78":-0.24881161499556786,"79":-0.3998709569785515,"80":-0.09976840628919287,"81":-0.48671199845036717,"82":0.2139572149602879,"83":-0.13789803060694852,"84":-0.40871931569134895,"85":-0.4256523287445859,"86":-0.289732275151202,"87":-0.2823055432890813,"88":-0.642499304070071,"89":-0.041636823804674074,"90":-0.3121785025290609,