{"test":{"test_case":967,"pass":872,"percent_recognition":90.17580144777662,"detail":[{"charecter":"a","percent":87.87878787878788},{"charecter":"b","percent":89.74358974358975},{"charecter":"c","percent":90},{"charecter":"d","percent":87.5},{"charecter":"e","percent":86.66666666666667},{"charecter":"f","percent":78.57142857142857},{"charecter":"g","percent":94.11764705882352},{"charecter":"h","percent":88.88888888888889},{"charecter":"i","percent":97.22222222222221},{"charecter":"j","percent":97.43589743589743},{"charecter":"l","percent":91.42857142857143},{"charecter":"k","percent":79.16666666666666},{"charecter":"m","percent":96.7741935483871},{"charecter":"n","percent":88.23529411764706},{"charecter":"o","percent":92.5},{"charecter":"p","percent":97.36842105263158},{"charecter":"q","percent":89.1891891891892},{"charecter":"r","percent":93.10344827586206},{"charecter":"s","percent":97.22222222222221},{"charecter":"t","percent":79.54545454545455},{"charecter":"u","percent":87.5},{"charecter":"v","percent":95},{"charecter":"w","percent":95.23809523809523},{"charecter":"x","percent":92.6829268292683},{"charecter":"y","percent":90.2439024390244},{"charecter":"z","percent":87.8048780487805}]},"net":{"layers":[{"0":{},"1":{},"2":{},"3":{},"4":{},"5":{},"6":{},"7":{},"8":{},"9":{},"10":{},"11":{},"12":{},"13":{},"14":{},"15":{},"16":{},"17":{},"18":{},"19":{},"20":{},"21":{},"22":{},"23":{},"24":{},"25":{},"26":{},"27":{},"28":{},"29":{},"30":{},"31":{},"32":{},"33":{},"34":{},"35":{},"36":{},"37":{},"38":{},"39":{},"40":{},"41":{},"42":{},"43":{},"44":{},"45":{},"46":{},"47":{},"48":{},"49":{},"50":{},"51":{},"52":{},"53":{},"54":{},"55":{},"56":{},"57":{},"58":{},"59":{},"60":{},"61":{},"62":{},"63":{},"64":{},"65":{},"66":{},"67":{},"68":{},"69":{},"70":{},"71":{},"72":{},"73":{},"74":{},"75":{},"76":{},"77":{},"78":{},"79":{},"80":{},"81":{},"82":{},"83":{},"84":{},"85":{},"86":{},"87":{},"88":{},"89":{},"90":{},"91":{},"92":{},"93":{},"94":{},"95":{},"96":{},"97":{},"98":{},"99":{},"100":{},"101":{},"102":{},"103":{},"104":{},"105":{},"106":{},"107":{},"108":{},"109":{},"110":{},"111":{},"112":{},"113":{},"114":{},"115":{},"116":{},"117":{},"118":{},"119":{},"120":{},"121":{},"122":{},"123":{},"124":{},"125":{},"126":{},"127":{},"128":{},"129":{},"130":{},"131":{},"132":{},"133":{},"134":{},"135":{},"136":{},"137":{},"138":{},"139":{},"140":{},"141":{},"142":{},"143":{},"144":{},"145":{},"146":{},"147":{},"148":{},"149":{}},{"0":{"bias":0.5704514917813529,"weights":{"0":-0.013108487159504446,"1":-0.04356965708058893,"2":0.05882416776473187,"3":0.2602339121811318,"4":0.43332514003622885,"5":-0.2301959403275267,"6":-0.919767621465084,"7":-0.3315545899456219,"8":1.2149905537175822,"9":0.47308424078744105,"10":-0.4341656915647279,"11":0.016018952338144946,"12":0.716473936927443,"13":0.44165563470099817,"14":0.2182187106601361,"15":-0.6808950080996049,"16":-1.4070775554325643,"17":-0.4540818436948297,"18":-0.16879975412566173,"19":-0.04740950306043047,"20":-0.7695018267850874,"21":0.06866888543716387,"22":0.41677037087256014,"23":0.633036315473472,"24":-0.3908465271501315,"25":-0.6113622209772934,"26":0.27954968517655493,"27":-0.4097477210212883,"28":-0.37256151744767985,"29":-0.7280166683062061,"30":-0.7023798884846143,"31":-0.5975115542882815,"32":0.639956916487237,"33":-0.28689084165633727,"34":0.001492136202662345,"35":0.12137896874144666,"36":-0.7256376416029595,"37":-0.5034825696149207,"38":-0.19690735761852016,"39":-0.21664126201900244,"40":0.0006651446350975248,"41":-0.32614909345600257,"42":0.7644353371306167,"43":0.08281403228998432,"44":-0.4603920573010479,"45":0.4896986516605072,"46":0.18124116973717538,"47":0.4790553232576873,"48":0.19410460659611944,"49":-0.30477460061598216,"50":0.610915177134769,"51":0.371760103933057,"52":0.8213668682830868,"53":0.4647036856604098,"54":-0.29977973150877657,"55":0.1928065230735559,"56":0.6395115495679642,"57":0.4895426326142283,"58":0.6127662650338542,"59":0.055943056247718476,"60":0.12059188025358758,"61":0.30408903591817094,"62":0.6034546304822646,"63":0.4521336346642792,"64":0.5202057389834297,"65":-0.6407565721568345,"66":0.2079595619545512,"67":0.25549219619255814,"68":0.8264993718422592,"69":-0.2147904612989654,"70":-0.4269511548788173,"71":0.08077355392911481,"72":-0.21475185748555806,"73":0.06934513032789223,"74":-0.33569325193780997,"75":0.08165085615462613,"76":-0.006751418080909912,"77":-0.17796441324509177,"78":-0.4885306110429734,"79":-0.5684296620181928,"80":-0.22657457395018699,"81":-0.6054467180617494,"82":0.1132850553598337,"83":0.4827759014312691,"84":0.12789419643547775,"85":-0.7788092958778665,"86":-0.46872907182220425,"87":0.7472188513244689,"88":-0.3135737401449701,"89":-0.020018256682712343,"90":-0.5363277676021176,"91":-0.24564588517386807,"92":0.40880006842892724,"93":-0.11470564687236745,"94":-0.04971199212325261,"95":-0.22303043046083174,"96":-0.24840364064975518,"97":0.0997075371701537,"98":0.4876981285029188,"99":0.14084007215860234,"100":-1.3526499257622695,"101":-0.5633910124134041,"102":0.19261796074628718,"103":-0.8320062296783651,"104":-0.26327705039557714,"105":0.34392998121781915,"106":1.1942523760696666,"107":-0.19073899011654968,"108":-0.024347899302298536,"109":0.20729584705128187,"110":-1.0578084607121165,"111":-1.2526582210269976,"112":-0.027857749692356226,"113":-0.6199482044361498,"114":-0.5877722554206036,"115":0.7314023237263724,"116":-0.1413854506465087,"117":-0.3829885442105556,"118":-0.17959842576030302,"119":0.19520710653225587,"120":-0.18106145367882542,"121":-0.4350040909100845,"122":-0.573026307248808,"123":-1.360656972766358,"124":-0.037942952864948955,"125":0.2763862249036401,"126":0.027144935245455228,"127":-0.14993987438664982,"128":0.5102920828087048,"129":0.3457232379773781,"130":0.28373884895907553,"131":-1.1011746745435391,"132":-0.15516761797570436,"133":0.32458663760710793,"134":0.19429862072921383,"135":-0.10931529483408046,"136":1.0674887033000877,"137":0.12346531510333249,"138":-0.33951988749047773,"139":0.37919048483976425,"140":0.0929031374626155,"141":0.43421717697285356,"142":-0.0871449989191658,"143":0.2494254589140357,"144":1.1179892435466092,"145":0.09089070653650005,"146":0.008553826086162081,"147":0.6345962572485747,"148":0.4142405734948779,"149":-0.33207802386896934}},"1":{"bias":-1.40033983887068,"weights":{"0":-0.23833239774325227,"1":0.5147909409826529,"2":-0.3591568682838343,"3":0.2235208913739619,"4":-0.40785779724630233,"5":-0.5017072198606405,"6":-0.5793122581408853,"7":-0.7996127544334976,"8":-0.25767911472298943,"9":0.3252282518860232,"10":0.41691459243022383,"11":0.2265921255121909,"12":-0.828166290011301,"13":-1.1409619980480024,"14":-0.4431064127452531,"15":-0.6453529567178212,"16":-0.20694355125409578,"17":-0.4420032506986465,"18":-0.4798780225682342,"19":0.02575206499977085,"20":0.9562926965039498,"21":0.3203816406472536,"22":-0.6734705261411819,"23":-0.4100404513282229,"24":0.6325361617637123,"25":-0.3413088543707479,"26":-0.04437245678045804,"27":-0.009205184169182524,"28":-0.3528034945659368,"29":-0.3289760648690434,"30":0.3161040401370694,"31":0.4280022384303071,"32":0.24237517049808324,"33":-0.2133927574179772,"34":0.036832836491810905,"35":-0.08550702039833746,"36":0.18348406188936284,"37":0.319482665788676,"38":-0.03971918290679526,"39":-0.471656240554152,"40":-0.45405758740150776,"41":0.13958971677447626,"42":-0.5182892082449402,"43":-0.17869850066396983,"44":-0.44389306901091236,"45":-0.00009518168301105697,"46":-0.24984180882504348,"47":0.02145613754185528,"48":0.26892148896894585,"49":-0.4837491525785494,"50":-0.6727353665591381,"51":-0.19692461621869425,"52":0.4694223428393562,"53":0.45139483347022574,"54":-0.04185511826943467,"55":0.4435584012135387,"56":-0.2687193311045006,"57":-0.04118566285675244,"58":-0.08873054964803553,"59":0.042287477607226565,"60":-0.3409760841777083,"61":-0.0907295948049067,"62":0.17910231602392782,"63":0.27102288067517283,"64":-0.2186842886178348,"65":0.2552245427086827,"66":-0.5745139138796264,"67":0.14871145904824698,"68":-0.5230628791150755,"69":0.6379813831913324,"70":0.2137557914004438,"71":0.36478658380766676,"72":0.5173563538212347,"73":0.27010289703183615,"74":0.16023326195853688,"75":0.08919633065389362,"76":0.27057760017899396,"77":0.2034141783719852,"78":0.2611545631414652,"79":0.3195705822748684,"80":0.5069643104845046,"81":1.2317829721059068,"82":0.3306233043345482,"83":0.009860689021636468,"84":0.6476191431141127,"85":0.2144949236865207,"86":0.21251884036333304,"87":0.39439541982400217,"88":0.4986041406960542,"89":0.3186049327438896,"90":0.22031479734145118,"91":0.5469609054359255,"92":0.2355295278432571,"93":0.5595964748630688,"94":0.22540420596905159,"95":0.5791347046563432,"96":0.5394172568790512,"97":0.5269488298067222,"98":0.3541435919022059,"99":0.011028709282807308,"100":-0.0033952592393487776,"101":0.6323756756905572,"102":0.534634289430066,"103":0.2665301179958736,"104":0.038535124163320895,"105":0.09978992961916358,"106":-0.595566179837446,"107":0.08279876442104994,"108":0.39985690735420387,"109":-0.17619334716326826,"110":0.4002629385336706,"111":-0.3031197058848907,"112":0.008547219316600565,"113":-0.10398967871007546,"114":0.48712358916985893,"115":0.10532769839056157,"116":-0.27507354631108016,"117":0.9004626328076312,"118":0.34877628344215117,"119":-0.6865515238208446,"120":-0.3996333693238825,"121":-0.31914103630820967,"122":-0.5883142727396812,"123":-0.20206017483984484,"124":-0.16069721792725555,"125":0.004642922872554004,"126":0.6060026313054517,"127":0.5646520117402103,"128":-0.05304440885886389,"129":-0.12248017186060159,"130":-0.8140265200893282,"131":0.14994708731352835,"132":0.4225332214419455,"133":-0.1520875205259309,"134":0.2827677355512316,"135":-0.29526867450133154,"136":-0.007866735085004685,"137":-0.3976110711294137,"138":0.055083860357685685,"139":-0.09677228447336773,"140":-0.28374302753364045,"141":-0.08358892143945601,"142":-0.10771382708749692,"143":0.4706979315952649,"144":0.1722224986818422,"145":-0.450318714356076,"146":-0.42542444733541457,"147":-0.46105017653663194,"148":-0.6395104326668887,"149":-0.16849550556117937}},"2":{"bias":-1.6474550461554678,"weights":{"0":-0.16123556256782812,"1":-0.03466178800667881,"2":-0.35594730448506595,"3":0.27427926334799196,"4":0.6908009706982687,"5":1.0465891502908171,"6":-0.17651811106803722,"7":-0.5443895931802881,"8":-0.8032884830482555,"9":0.37418480359899253,"10":-0.4014117555010685,"11":0.38415365601908436,"12":0.5367638674330005,"13":0.6313559865880761,"14":0.2952531961496151,"15":0.6393233993882618,"16":0.6287767903404125,"17":-0.18243799125359647,"18":-0.26708224555038557,"19":1.1185345106215945,"20":0.11554277001597976,"21":0.7561750777752453,"22":0.2845077443046327,"23":-0.26547209067979105,"24":0.5057337807404327,"25":-0.22773531804111627,"26":-0.1326689791799958,"27":0.12523020701255388,"28":0.5002934707086636,"29":0.651565379781362,"30":0.47955422785324936,"31":0.3910426623746548,"32":-0.46443696220286573,"33":0.3970725610081308,"34":-0.4130793137310083,"35":-0.4790697776543336,"36":-0.27812566840577063,"37":-0.44173243214364144,"38":0.3821111605531486,"39":0.2519757445336243,"40":0.12553709811676458,"41":-0.3264122692024245,"42":-0.8261563857961359,"43":-0.26306599598561825,"44":-0.16001002106323806,"45":-0.3714816322879351,"46":0.13383012049279197,"47":-0.6680382444677474,"48":0.7256153136082841,"49":0.7906125261406499,"50":0.12655890658243754,"51":-0.40132251700921906,"52":-0.3627227079646969,"53":-0.35021353201035305,"54":-0.3544091727542179,"55":0.06179562206280396,"56":0.10219848600671842,"57":0.3438810911688578,"58":-0.047770674844518815,"59":0.1579608170986756,"60":-0.12143187914082741,"61":-0.6652642767855653,"62":0.024612697878737724,"63":-0.12971533623005202,"64":0.2330717587450999,"65":-0.10942669319687263,"66":0.134822739447925,"67":0.017990379612759323,"68":0.2607109339978558,"69":0.7205210499054242,"70":-0.40671645800762485,"71":-0.47283086409060854,"72":-0.15088137054078768,"73":0.23660704994636048,"74":0.39849998327342256,"75":0.7486388371605286,"76":-0.00748542554858558,"77":0.4419659501308798,"78":0.3062648321592429,"79":-0.1259140384435506,"80":-0.5458331932170919,"81":-0.515126535030444,"82":0.1745379386628735,"83":0.4081964671592637,"84":0.2884515838123337,"85":0.7640004539146832,"86":-0.2080574883932964,"87":0.3889563549879182,"88":0.3153474146949373,"89":-0.11829447235178962,"90":-0.22277374812473436,"91":-0.4204257103195545,"92":0.029256883549911177,"93":-0.30211477754845883,"94":-0.11354386223287963,"95":-0.39330212728097663,"96":0.31172190201725536,"97":0.3505185324524813,"98":0.5356137357815905,"99":0.32308137296122097,"100":-0.5957904956134497,"101":-0.49752301451827524,"102":0.21792888377416358,"103":-0.5311098998110193,"104":-0.4756977537421549,"105":0.05740466691903426,"106":0.11923656962333604,"107":0.3518365250746434,"108":0.2080257573136758,"109":0.3277975220026308,"110":-0.24678236515748164,"111":0.11536009339426492,"112":-0.16018661679250965,"113":-0.495421354685929,"114":-0.38379608640448004,"115":-0.1783567191358642,"116":0.2850394908182103,"117":0.3456254635865034,"118":-0.4079829828254759,"119":-0.7825175194981295,"120":-0.3289601884575775,"121":0.39709208738055596,"122":0.2876482518143141,"123":0.22437801468886723,"124":0.40207144800841166,"125":-0.2697250559851349,"126":-0.03370906392862899,"127":-0.007080155925129356,"128":-0.5289165442265414,"129":-0.6741695169748381,"130":0.22765211104148733,"131":0.5426052936933571,"132":0.9543748182361801,"133":0.3405477789964184,"134":0.47540063717891484,"135":0.7097592603133159,"136":1.1047692135448328,"137":-0.0025444144091544725,"138":-0.38257636284312785,"139":-0.8934834485916051,"140":-0.11805184494702098,"141":0.33116150177139997,"142":-0.35827145646436553,"143":-0.042302172224164866,"144":-0.1959223208294337,"145":0.40680135556936947,"146":0.01576758098032632,"147":-0.6017707600416847,"148":-0.8742574748012489,"149":-0.3675121828999536}},"3":{"bias":1.3576115362165337,"weights":{"0":-0.153135892608438,"1":0.4152577734276211,"2":-0.07243654223747635,"3":0.05093798492162649,"4":-0.23600012640112258,"5":0.18437604126573517,"6":0.19693742440390724,"7":0.6602670363865676,"8":0.5731137827085724,"9":-0.1056393039740337,"10":-0.6071397181661073,"11":-0.9529641042526883,"12":-0.2569442777925721,"13":-0.5652160205320679,"14":-0.20049789319337072,"15":-0.708938056028887,"16":-0.13498008114967558,"17":-0.06939488769170711,"18":-0.6417162947373116,"19":-0.28826847047189286,"20":-0.8775385606445618,"21":-0.9244591610644268,"22":-0.4300154497059521,"23":-0.10105959042037542,"24":0.09691158449946007,"25":-0.06532811056970546,"26":-0.10433629943630196,"27":-0.7413197117484717,"28":-0.8854205311659014,"29":0.0047474621070469816,"30":-0.7730210500483388,"31":-0.45342529636047296,"32":-0.023453295888080553,"33":-0.23414097622945113,"34":0.5031641612443758,"35":0.6312118033370959,"36":-0.6862247644777048,"37":-0.18268504218294138,"38":-0.18811536683612895,"39":-0.1608224254360599,"40":-0.8741240961083597,"41":-0.056119980567640754,"42":0.31886403290408116,"43":0.2838157725105907,"44":-0.233506692102923,"45":-0.165895535531579,"46":-0.4626878626342882,"47":0.13158659275271506,"48":-0.5996630161093414,"49":-0.31367996421745237,"50":-0.3542433673665223,"51":0.29208466902792135,"52":0.011969632255024537,"53":0.12157415140188493,"54":-0.21687011247222124,"55":-0.427689196558216,"56":0.46959656619091983,"57":0.30326615413262326,"58":-0.05570475939577929,"59":-0.28923735084381813,"60":-0.0014842716506435385,"61":0.46228212958023385,"62":-0.27044232215935854,"63":-0.20978644388016943,"64":0.0215383933111948,"65":-0.6688015294342667,"66":0.09862391366697572,"67":0.5549586741954163,"68":-0.2186939575628713,"69":-0.6898326900319497,"70":0.4279629920789961,"71":0.5577972920256972,"72":0.16208758764541104,"73":0.21818617329679438,"74":0.43404872930549815,"75":-0.40501312946729695,"76":-0.13224464856323181,"77":0.026048068935904584,"78":0.28123987515483984,"79":-0.45572965233950424,"80":0.33023926252259117,"81":-0.4951467767173363,"82":-0.385663139547845,"83":0.041398889703868166,"84":-0.10170780264981992,"85":-0.49390143961975014,"86":-0.656679887979251,"87":0.11795105200347367,"88":0.5889766792215098,"89":0.013086348035735882,"90":0.17071029011684719,"91":-0.3402376943819525,"92":-0.3084763208873733,"93":0.09641129512928302,"94":0.24321865495093317,"95":-0.10784999567106439,"96":-0.0625233236565047,"97":-0.31981665281432436,"98":-0.47706834109196444,"99":-0.6689146786180407,"100":0.38070227051958117,"101":-0.03236432180758274,"102":-0.06273672731790692,"103":-0.1644302999443622,"104":-0.15193984740010158,"105":-0.4044414324608153,"106":-0.44987972034673385,"107":-0.30687923872479117,"108":-0.4686784589397954,"109":-0.37031176536244353,"110":-0.42528351839784573,"111":0.35009958917897416,"112":-0.051268072917985415,"113":0.06830028907984453,"114":-0.0838361357701417,"115":0.11936225607679013,"116":-0.697597111688759,"117":-0.6086034190193034,"118":-0.451214939453118,"119":-0.3268439626216376,"120":-0.34283772339617524,"121":0.38964327590732484,"122":0.22476668300664046,"123":-0.38849151614477967,"124":-0.2775677552884625,"125":-0.0872782860161576,"126":-0.41300902516363236,"127":-0.44837642317187093,"128":-0.3210832282252163,"129":-0.40855435287575037,"130":-0.3574419830486631,"131":0.9039362833944478,"132":0.6686589782137651,"133":0.6333873209883419,"134":0.3017608624056964,"135":0.5271991452009837,"136":-0.437362830745694,"137":-0.4880707291604282,"138":-0.5422587551244747,"139":-0.543886149541963,"140":-0.20767381233287258,"141":-0.3294256274374794,"142":0.5418960809014194,"143":0.8112207593828025,"144":0.8659533274834841,"145":1.1621341220619656,"146":0.21550449092964982,"147":0.061340978027695434,"148":0.026190618077440348,"149":0.16259603306251044}},"4":{"bias":-0.932392845800516,"weights":{"0":-0.17315130201296292,"1":0.04859931006490071,"2":0.07975834132364887,"3":-0.5386729086617257,"4":-0.18009142894503902,"5":-0.2924794960929438,"6":-0.771461424260752,"7":-0.25521109117653495,"8":-0.1924074928099017,"9":0.14628629193295783,"10":-0.44131796995141426,"11":0.21838067719330892,"12":0.12861787895845947,"13":0.5817290994319484,"14":0.471902762845526,"15":-0.08516428205462888,"16":-0.3017236348608554,"17":-0.5026068779377415,"18":-0.10726327209609424,"19":0.4880689950239906,"20":-0.12230195986893694,"21":0.30569631412638526,"22":0.11264459746638318,"23":0.6839753207149081,"24":0.34779010575479596,"25":0.5943775551025849,"26":0.015940458952381543,"27":-0.5149050454105031,"28":-0.5809781049501531,"29":0.07329161320204199,"30":0.11191726934373705,"31":0.22898055446091045,"32":0.17323518121685116,"33":0.7207655915826255,"34":1.0442530220311153,"35":0.6257881841705417,"36":-0.17875246317053847,"37":-0.10142261353651673,"38":-0.2593720645841183,"39":-0.14523519539592653,"40":0.40181417972229677,"41":0.2567417712565796,"42":0.021183314575800638,"43":0.06062677609119306,"44":0.13805970891006242,"45":0.777794224132442,"46":-0.3954996712434632,"47":0.4026683135042206,"48":-0.1074936907049678,"49":-0.3918571432854428,"50":0.9801890119681727,"51":0.7743213416633135,"52":0.29078548201233184,"53":-0.3240086226048849,"54":0.3900047087755088,"55":-0.07152177346222058,"56":0.19682036566111058,"57":0.0037063319952929234,"58":0.44868307834710636,"59":0.15596582382234203,"60":0.9060927137915838,"61":0.2714095694550928,"62":-0.12490853660357411,"63":-0.27158743654978057,"64":0.3578744210843744,"65":-0.758338968446381,"66":-0.08654210324642995,"67":0.04133239377541389,"68":0.3897929826487002,"69":-0.03377870578747822,"70":0.306661508042653,"71":0.24907372279724976,"72":-0.09419135064084405,"73":-0.17894035016965767,"74":0.22787087332584854,"75":0.08475950174025165,"76":-0.2914035227554578,"77":0.27433094448911177,"78":0.7431629021644628,"79":0.4168037474864466,"80":0.2847003304410855,"81":-0.13416645906196836,"82":0.2946686618712949,"83":-0.12841994323001824,"84":0.24997898315582864,"85":-1.000579422755646,"86":-0.23715435233559437,"87":0.6848238605323289,"88":0.9150775077887006,"89":0.8708747174462415,"90":-0.5983289925805707,"91":-0.13983933726552147,"92":0.7190619935648499,"93":-0.3552346325521004,"94":0.2128669538267152,"95":-0.5034908767202382,"96":0.03402207083496136,"97":0.6111390456303907,"98":0.7767097322081066,"99":0.14193489381671387,"100":-1.1416858993740813,"101":-0.6934188284529396,"102":0.2712325971053883,"103":-0.10151421295819534,"104":0.010978395289475822,"105":-0.8369400154685418,"106":-0.31593883156534763,"107":0.35564587288674854,"108":0.7509885399885362,"109":0.28068207679695006,"110":-1.2344578405351991,"111":-0.5577639211859116,"112":0.23496935059428842,"113":-0.03645164231537157,"114":-0.6340891581560457,"115":-0.6379230836515017,"116":-0.40761088661244177,"117":0.2760241857048755,"118":0.5294658390639836,"119":-0.12092608665272123,"120":-0.7224408794145352,"121":-0.6301278516670107,"122":0.280712950295936,"123":0.13584001667554907,"124":-0.3452869074292747,"125":-0.6857018152700031,"126":0.03239319582450734,"127":0.4755159749829977,"128":0.2044682395441956,"129":-0.20614509540611728,"130":-0.17720121559456853,"131":-0.20670045486321081,"132":0.12923192211674933,"133":0.10424427830952147,"134":0.0021835984821619737,"135":-0.0967150345876371,"136":0.730172782238575,"137":0.29650709677412246,"138":0.007124938866367817,"139":-0.1822486121086292,"140":-0.23144279646334237,"141":-0.2587835572933256,"142":-0.6524289883163288,"143":-0.4249199463593853,"144":0.07353335396284012,"145":0.17713299006242308,"146":0.09358974598158584,"147":-0.08163032484264877,"148":-0.31652178315907153,"149":-0.41915601659181295}},"5":{"bias":0.6336427918823887,"weights":{"0":0.7824750373343299,"1":0.6368206591734041,"2":-0.09323506420820357,"3":-0.5187584734501057,"4":-0.3199428551516322,"5":-0.08703336785118564,"6":0.012212972445940634,"7":-0.09216103885474854,"8":0.5598657421388153,"9":0.4106289262844653,"10":0.7818529864466525,"11":0.7809671912557776,"12":-0.38255991421195357,"13":-0.5593358611115212,"14":-0.9056522296822378,"15":-0.7238377577184169,"16":-0.2396088874182892,"17":0.19263400041173112,"18":0.22850906694325657,"19":0.5068829021317387,"20":0.4500062966151917,"21":0.577007538828192,"22":0.2088630737676106,"23":-0.7484700507529061,"24":-0.94023458040391,"25":-0.391176742675109,"26":0.1915036472433515,"27":0.33886095716674447,"28":0.2607218034527866,"29":-0.5659386544238603,"30":0.6182440327062921,"31":0.909169636512133,"32":0.5818501806886703,"33":-0.6145536046142784,"34":-0.41581221583824596,"35":-0.13005123576951505,"36":0.6879164676130669,"37":0.3861337622736125,"38":0.03257873781987382,"39":-0.20563795303645147,"40":-0.17306132336572724,"41":0.42631480361783475,"42":0.5559887608075883,"43":-0.290959197822888,"44":-0.6192046604950237,"45":0.44054902874224444,"46":0.38165114291684976,"47":0.4858473721723178,"48":-0.09216010199235794,"49":-0.03260892474534697,"50":0.14973864243034574,"51":1.1406023956596008,"52":-0.10537361072875286,"53":-0.4014207941167995,"54":-0.20109683789394384,"55":0.11630160643179496,"56":-0.10234883184117398,"57":-0.020506566267803877,"58":-0.16805911801820161,"59":-0.10482535522522624,"60":0.07455137429289453,"61":0.4642802291036693,"62":-0.3708265563343149,"63":-0.6477752889661567,"64":-0.74340182265609,"65":0.11709734030845083,"66":-0.0537034898220576,"67":0.07469348679614397,"68":-0.17249843540199658,"69":-0.36596403840023417,"70":0.2709408286309257,"71":0.6133054301201938,"72":-0.3630513099837036,"73":-0.5474118693050464,"74":-0.595506949006399,"75":0.11870064281250134,"76":-0.157722642839958,"77":0.09570782314453027,"78":-0.19422057606983342,"79":-0.2673320846889587,"80":-0.252376638060135,"81":0.11205395093359011,"82":-0.19287793946569912,"83":-0.46482176530040203,"84":-0.5127131221635249,"85":-0.595548604199599,"86":-0.2456606859163825,"87":0.03823451262842179,"88":0.08573230984858411,"89":0.00668959873904409,"90":-0.023510639088938672,"91":0.18866610475196116,"92":-0.1210966908966129,"93":-0.24837927987952318,"94":-0.30503287864394424,"95":-0.3143828746979985,"96":-0.277251096621703,"97":-0.32003843051038283,"98":-0.4674820121605699,"99":0.251274540336931,"100":-0.4317099424112605,"101":-0.032760488132316974,"102":-0.36586145377616075,"103":-0.5189419066456726,"104":-0.2169254690775279,"105":-0.05041693674194001,"106":0.1539672109065135,"107":0.0969811845514555,"108":-0.06252832238797362,"109":-0.14770933783621248,"110":0.0857764501931632,"111":0.010025262401875738,"112":-0.02486089988302963,"113":-0.10038672130064545,"114":-0.24786341673233336,"115":0.22197217314108952,"116":-0.33993537773157306,"117":-0.14687322954057175,"118":0.16503964657918752,"119":-0.0261898940707908,"120":-0.17398237804326244,"121":-0.13573599119554264,"122":0.06621477310567114,"123":-0.6439504208309699,"124":-0.07358913960458244,"125":-0.0257697218186942,"126":-0.04044404358133219,"127":-0.15355837870800587,"128":-0.17185410988208702,"129":0.35277857734168044,"130":-0.30423447482780847,"131":-0.4576974966396161,"132":-0.07177975628339418,"133":-0.15417182631969467,"134":0.38454839440707916,"135":0.4635128345200482,"136":-0.11477044223235582,"137":-0.29278738846276514,"138":0.1916738799050651,"139":-0.03709405644415613,"140":-0.29080592021578905,"141":0.12660288681798845,"142":0.10101924047997748,"143":0.057070193171677455,"144":0.39849152384011466,"145":0.5922726291360749,"146":0.11533656810348901,"147":-0.06867057103266298,"148":-0.1267330162870406,"149":-0.17445895784713458}},"6":{"bias":1.1603335415520915,"weights":{"0":0.10297697317676797,"1":-0.05471814459668615,"2":-0.33302402394031716,"3":0.38702632198482817,"4":-0.06207805670479114,"5":-0.9450681175429965,"6":0.18554462234731656,"7":0.47097198512072963,"8":0.40330695908753056,"9":-0.01203804823439444,"10":-0.23404090109062817,"11":-0.5214712917133253,"12":-0.34233062332487474,"13":0.2373511673446223,"14":0.056272435845771206,"15":-0.47058873562026166,"16":-1.257148812099042,"17":-0.35477060647005754,"18":-0.5073681758829288,"19":-0.5994281922662023,"20":-0.4247916522016146,"21":-0.6020504937956638,"22":-0.391686573762218,"23":-0.32279681986206243,"24":0.4690457496785508,"25":0.15045178241001572,"26":-0.578945362896789,"27":-0.8534715214144913,"28":-0.9519414197922428,"29":-0.7685976328820383,"30":-0.28485818679888714,"31":-0.7895756315522979,"32":-0.4945991086206249,"33":0.09134191092046637,"34":0.757931362785818,"35":0.9117301700808274,"36":0.5249834904647832,"37":0.6057126985819614,"38":-0.022313544483865324,"39":0.053956388944237085,"40":-0.04207543143111456,"41":-0.4650895354301981,"42":-0.6282438889279902,"43":0.11035492000662463,"44":0.07632387447051477,"45":0.176649008051306,"46":0.641010321524306,"47":0.35994468061697715,"48":0.016395426564392395,"49":-0.18109522485885926,"50":0.05067661552563981,"51":-0.52873783643416,"52":-0.2855431515673487,"53":0.7339321687077124,"54":0.22558895980000734,"55":-0.46944472285299027,"56":0.3755315014193398,"57":-0.04045312253977845,"58":0.4207485249734835,"59":-0.11229401931706387,"60":-0.21061023798433431,"61":-0.19611024193951446,"62":-0.7765964243941006,"63":0.6001975793976796,"64":-0.25997881967690095,"65":-0.010073452299977708,"66":0.31944596000681125,"67":0.7809528844884062,"68":0.43309595516544097,"69":-0.3053762357304695,"70":-0.09347830293338795,"71":-0.42237541142254165,"72":-0.44041815750185637,"73":0.3956962627690958,"74":-0.1897765618241145,"75":0.20682823706556383,"76":0.2720435542213812,"77":-0.22558218057349208,"78":-0.04683470644122167,"79":-0.33091162413421144,"80":-0.23108936949183567,"81":-0.6387086674483002,"82":-0.18459170656642107,"83":0.4457398105964312,"84":0.14950941000520246,"85":-0.030722939690050917,"86":0.1442436466174808,"87":-0.14810578064633215,"88":-0.5919527764265656,"89":0.06094046704638192,"90":-0.614806207044784,"91":-0.31402350412331126,"92":0.16542600457877113,"93":-0.09923862867898808,"94":0.2291626553046327,"95":-0.038176196111395465,"96":0.031523479953765914,"97":-0.9311647843644462,"98":-0.7864289698006888,"99":-0.057945516193401166,"100":-0.35179889496182626,"101":-0.1558708849733953,"102":0.056858861873751734,"103":-0.0048320568181266736,"104":-0.37701988464380376,"105":0.41031007248944884,"106":0.31543151925102364,"107":-0.5698362422022728,"108":-0.5458083969652485,"109":-0.3565001555582378,"110":-0.8956170568242373,"111":-0.4806228455730872,"112":-0.48838111468964873,"113":0.9894880100409387,"114":-0.01720196814109614,"115":0.12492639992968531,"116":0.04622578310518051,"117":-0.7623224506039555,"118":-0.070257710178945,"119":-0.007326785824826047,"120":-0.05347298464042898,"121":0.29774675807580536,"122":-0.40560806873648814,"123":-0.23009802180427105,"124":-0.29856530003951304,"125":0.17608956922859184,"126":-0.539531453936553,"127":-0.4616292781536936,"128":0.2706634854796529,"129":-0.45697351235651723,"130":0.6560904534485669,"131":-0.4000844409395001,"132":-1.1262447445797452,"133":-0.5982896992704376,"134":-0.09562770544484928,"135":-0.44120089497228293,"136":-0.12642895346574734,"137":0.06112520065507908,"138":-0.0025810496535487084,"139":-0.4803995363043436,"140":-0.14733430562664182,"141":0.10903581333627509,"142":-0.2826038950661946,"143":0.16344315252730401,"144":0.19215656725418426,"145":0.39188616572573615,"146":0.24234745816134665,"147":0.15885252699426303,"148":0.29117019602957195,"149":0.5865205788479161}},"7":{"bias":0.7153589187156303,"weights":{"0":0.23556602865961976,"1":0.07151882910322904,"2":-0.12271331812617543,"3":-0.802844745843837,"4":0.12978577875054292,"5":-0.41608733586887214,"6":0.1476847213849922,"7":-0.11276017955537763,"8":-0.11997946788854641,"9":0.21857846215296334,"10":0.7039162680726347,"11":-0.14831543800156774,"12":-0.4803819097858023,"13":-0.7641339667345481,"14":-0.1359256489678459,"15":-0.09859215613356527,"16":0.11671301902574976,"17":0.012292898591196358,"18":0.514268678869381,"19":0.7784870784252296,"20":0.17417104080291787,"21":0.312355749479793,"22":0.21186923023137566,"23":0.2944098115149443,"24":-0.1357534979105965,"25":0.11241071321210959,"26":0.5348047345549272,"27":0.6072879380406976,"28":0.7708901827448926,"29":-0.4528005407139227,"30":0.5500892037024633,"31":-0.07018580013690297,"32":-0.671965947721418,"33":0.13266387420517833,"34":0.45354478410927257,"35":-0.5139671628194183,"36":-0.3974822795768394,"37":0.10820740344446096,"38":0.7246247668013637,"39":0.36223282422057423,"40":0.3488626947122872,"41":-0.14846696755269584,"42":-0.5671196845049706,"43":-0.09445245917410934,"44":-0.06889909317983443,"45":-0.4061743186025848,"46":-0.5046466001443715,"47":-1.0244281444478347,"48":-0.143899191750973,"49":0.005410013376485567,"50":0.012846906092563505,"51":0.20537285506370254,"52":0.3293103599143734,"53":0.37555152764972316,"54":0.07681521661188954,"55":-0.14113477569429853,"56":-0.2709290489027515,"57":-0.8532737667784202,"58":-0.6929432098810674,"59":0.349497131844117,"60":-0.09981467016019209,"61":0.334391282650231,"62":0.5130088330047412,"63":0.4279021164504877,"64":0.4540726842962255,"65":-0.07202194849454076,"66":-0.044360893053917196,"67":-0.49943701658933326,"68":-0.8996960401034677,"69":-0.3032701431314189,"70":0.211654063529654,"71":-0.21373420926167544,"72":0.9713993513178795,"73":0.33585044668953434,"74":0.5298254820172961,"75":-0.018317219021056777,"76":-0.21390418401037056,"77":-0.7212857465629645,"78":-0.8444753288220391,"79":-0.3965423886764684,"80":0.03038065883123657,"81":-0.018396200190618276,"82":0.39759792214241463,"83":0.008720121439891579,"84":0.051880258065958196,"85":-0.4760465662238102,"86":-0.09747089595714818,"87":0.42086250075879184,"88":-0.9385154280262024,"89":-0.25492050770510394,"90":-0.6266627043206549,"91":-0.2899788251395753,"92":0.26175639516654176,"93":-0.1311065136358789,"94":0.11889789696524758,"95":0.1332896174319285,"96":-0.3680072913487855,"97":0.07322682073741109,"98":-0.09546890026813366,"99":0.019250839386340098,"100":-0.8499649623878253,"101":0.2515425634040847,"102":0.4148878144780126,"103":0.5014514618357192,"104":0.34423869319962175,"105":-0.2959809433102139,"106":-0.24713170864661882,"107":-0.5157336454564602,"108":-0.705267145661719,"109":-0.42827977906678744,"110":-0.749579515867921,"111":0.3689034945210745,"112":0.9858775405515874,"113":0.3504296808149619,"114":-0.3473944626345403,"115":-0.1747445033184292,"116":-0.5040962911738156,"117":-0.40893802820004493,"118":-0.4348579194018657,"119":0.0785455034739474,"120":-1.2445684875522869,"121":-0.029712323012943465,"122":0.8388231885839386,"123":0.8772159033368927,"124":-0.24884654556243765,"125":0.3801736465592253,"126":0.5550265763155491,"127":-0.08597908204663367,"128":-0.36009259692660506,"129":-0.1870009227190955,"130":-0.18725080206521322,"131":-0.8388924068193995,"132":-0.7806460287859684,"133":-0.3786173138436478,"134":0.038206870558789234,"135":0.3224171861396241,"136":-0.20575970137624372,"137":-0.05845043030906959,"138":0.28312669996109174,"139":-0.007459240756606405,"140":0.42056855640569846,"141":-0.3823345884601074,"142":-0.6448644986983281,"143":-0.0028374629701329915,"144":-0.15298101521842722,"145":0.13987301284724862,"146":0.22915203364992978,"147":0.25875798528275984,"148":1.0112820851898974,"149":-0.015878843450358997}},"8":{"bias":0.40490730247915757,"weights":{"0":0.22125442327001354,"1":0.14166817413635605,"2":-0.10448138323893871,"3":-0.34052748662504057,"4":0.2996712889056371,"5":-0.14399670407373813,"6":0.2505147307499826,"7":0.38812823774853855,"8":0.7842701353352239,"9":0.2972710290084568,"10":0.07377723924565492,"11":0.028830123025080964,"12":0.20288821567709767,"13":0.16255916472291074,"14":-0.19512823112384967,"15":0.352494603870095,"16":-0.0652585009908492,"17":-0.1386953849513025,"18":0.35623790244848563,"19":-0.08802124704723976,"20":0.002974055515734585,"21":-0.24121843492523543,"22":-0.04434595527157372,"23":0.15211053455914733,"24":-0.20575708182460592,"25":0.0897828108701307,"26":0.712135410300552,"27":0.13057080144403832,"28":0.08734646025271992,"29":0.017796389497313513,"30":0.23098507348368102,"31":-0.19805998113987358,"32":0.13329522733184657,"33":-0.22271574680120546,"34":-0.29084526653557724,"35":-0.42891885600476115,"36":0.19000722077904875,"37":0.2591108086204329,"38":0.35896438824957044,"39":-0.05108926299168836,"40":-0.03333048007537981,"41":-0.3355253815554535,"42":-0.3990092956495596,"43":-0.3876292480799502,"44":-0.4310914999709994,"45":-0.2695222553590304,"46":0.3617086464063935,"47":0.3864863271603688,"48":0.16874563638128798,"49":0.04048192829513815,"50":0.08862127319797024,"51":-0.12407855439719387,"52":-0.024792515876600776,"53":-0.17273731302195025,"54":0.03409206293997578,"55":0.2511685327109254,"56":0.2165564562864122,"57":-0.26742051248865334,"58":-0.10666119356669707,"59":-0.07298102759255778,"60":-0.4185810125409009,"61":-0.3112689649526117,"62":-0.22106518148265164,"63":-0.09765027925610899,"64":0.05412433427702965,"65":0.020516381099112992,"66":0.1542674598028291,"67":0.07500465016908335,"68":-0.2532619044496703,"69":-0.12821606345876813,"70":-0.35131048206484733,"71":-0.8515031997061124,"72":-0.050243505545468005,"73":0.42519154004816545,"74":0.14922473645969694,"75":0.009857424643071789,"76":0.19906953155625107,"77":0.018750875220346474,"78":-0.17944657278935064,"79":-0.36488410905170077,"80":-0.362021443891886,"81":-0.5023715724223512,"82":0.19498122849846133,"83":0.07955707331433222,"84":0.32155142973954254,"85":-0.14480000893685718,"86":-0.20886002677861468,"87":0.051365344546830664,"88":-0.017968040168328883,"89":-0.35145203749477555,"90":-0.014902458090899967,"91":-0.6540072321430188,"92":-0.274925525224135,"93":-0.3254115038971794,"94":-0.34145770712500184,"95":-0.07950820384567812,"96":-0.16056883147448564,"97":-0.1662234312214667,"98":0.30179970149831853,"99":-0.019108826357464297,"100":0.05597148675029194,"101":0.16076629789490327,"102":-0.6463582797984193,"103":-0.6993208817003155,"104":-1.159898682720493,"105":-0.0866374109293109,"106":0.14311702476082155,"107":0.32083333674812164,"108":0.09062018768666331,"109":0.500108009747773,"110":-0.1509155333859721,"111":0.32302979129741477,"112":-0.025730261595415367,"113":-0.7951214179636807,"114":-1.0136964032768456,"115":-0.19450616443756505,"116":0.56017688801209,"117":0.4119994965092213,"118":0.3107138284704986,"119":0.11710418400134136,"120":-0.3018781148062828,"121":0.017634204110025063,"122":-0.18166735498929862,"123":-0.8603824792798072,"124":-0.5473942117766816,"125":-0.07395162007198579,"126":0.47727054004913166,"127":0.8988589084618699,"128":0.4656951983169004,"129":0.09208625682155215,"130":0.364795934996323,"131":-0.5661102389484354,"132":-0.5010510338831696,"133":-0.9058375521226337,"134":-0.10161274918006201,"135":0.2961254088366913,"136":0.9124648059089674,"137":0.49164474658293655,"138":-0.100373805493238,"139":-0.24985747345940537,"140":0.3188438901777841,"141":0.1283256971624087,"142":-0.45856619087943856,"143":-0.47506226969158916,"144":-0.09680953978128072,"145":0.18354329229025323,"146":0.7323941073002679,"147":0.2491516732286099,"148":0.6924610191809671,"149":0.39795602482977077}},"9":{"bias":0.2059913618379121,"weights":{"0":-0.28301390324210607,"1":0.009512445482955685,"2":0.24760358683452163,"3":0.35453104660795165,"4":0.2988399422868589,"5":-0.22186861340468753,"6":-0.28591587180726774,"7":-0.5011938314044739,"8":-0.49085581166084596,"9":0.0095059106190305,"10":-0.15650462107315807,"11":-0.3964420180078049,"12":-0.2740936712723961,"13":0.11918579265026437,"14":0.2604539868276767,"15":-0.9030480312415881,"16":-0.17046461629037712,"17":-0.7071919474986906,"18":-1.063014259248043,"19":0.5025656116485636,"20":0.025224580218238774,"21":0.01715136796601807,"22":-0.13001265529969858,"23":-0.4070489990205826,"24":-0.0122197871382254,"25":0.06526385137885196,"26":-0.19846162362731376,"27":-0.41588576637413055,"28":-0.502976502678079,"29":0.6076876403487581,"30":-0.09823433651271583,"31":0.0815866570143943,"32":-0.22814019567055102,"33":0.09655780577371764,"34":0.6191645285797545,"35":0.26782797343185244,"36":-0.26293661732305174,"37":-0.22381615355690998,"38":0.22597299981930274,"39":0.2525333954743937,"40":-0.025272833957726747,"41":0.1962389138596863,"42":0.8071415427619887,"43":0.5487448412296373,"44":-0.05212920145235667,"45":-0.19452454367521307,"46":-0.5893501784077531,"47":0.1362558067650487,"48":0.4593696911521179,"49":0.40835400968060054,"50":-0.10457514263407985,"51":0.5689648151834938,"52":0.47637554508226615,"53":0.13834563768831834,"54":0.45253074626528467,"55":0.1355584269960514,"56":-0.7794801753597623,"57":0.032381906402923634,"58":0.946228699777532,"59":0.4807591138161437,"60":0.16501107441985616,"61":0.4116384884831873,"62":0.4980933369611199,"63":-0.14718183919570765,"64":0.4355705920518639,"65":-0.44704448241281963,"66":-0.4495084590755134,"67":-0.3948521591290805,"68":0.5140159784440397,"69":0.42291630265306535,"70":0.15615429353279667,"71":0.842039697143636,"72":0.04036240148411075,"73":0.43653460113565334,"74":0.31132061415727375,"75":0.395218106788466,"76":-0.30351186522898677,"77":-0.6996367736561692,"78":0.050996022533149325,"79":-0.4494057621670485,"80":0.7416214380810264,"81":0.5981281080046006,"82":0.20757144008115652,"83":0.6355026463545821,"84":0.5615080670278031,"85":-0.07013575326354382,"86":-0.19706892688362268,"87":-0.3909527217078356,"88":-0.13547900925708034,"89":-0.12489641634717251,"90":0.7180288204259595,"91":0.551122510138574,"92":-0.291471981535583,"93":0.37038522442056426,"94":0.45008482997865484,"95":0.3410425471816999,"96":0.1549569059689608,"97":-0.4040426525616816,"98":-0.39914954540315917,"99":-0.5438702123947132,"100":0.4647651155484751,"101":-0.06831694388667746,"102":-0.16871746131383705,"103":0.3301595699319845,"104":0.6137294158507115,"105":-0.1480447307465204,"106":-0.27632622261212225,"107":-0.7680615881906289,"108":-0.4248129987933837,"109":-0.3415924074321845,"110":0.019580180686692816,"111":-0.03905450757476598,"112":-0.16017540952785841,"113":-0.055516240589095565,"114":-0.07447707953484903,"115":-0.13627045494586165,"116":-0.2914136621247134,"117":-0.131657794638137,"118":-0.3504789020874235,"119":0.053756505840329726,"120":0.11702187651574729,"121":0.3151061144015575,"122":-0.5259570383710203,"123":-0.423871879569537,"124":-0.8272574495853608,"125":-1.2251987667853006,"126":-0.5346230433545616,"127":-0.06328867666597965,"128":-0.6282322487209873,"129":-0.12790020242894096,"130":-0.2252629779896981,"131":-0.29129941707073537,"132":-0.17863856040742088,"133":-0.5117701486991021,"134":-0.609888853351629,"135":-1.0021063788337425,"136":-0.5155499476617025,"137":-0.41704958296046446,"138":-0.968625984516695,"139":-0.4151481166230286,"140":-0.2047415006916607,"141":-0.6208916146924945,"142":0.26036336922860037,"143":-0.06732403987065452,"144":-0.5054859363317473,"145":-0.385319398890127,"146":-0.44817530820029416,"147":-0.8324842856306417,"148":-0.3382622495455247,"149":-0.4008300643068451}},"10":{"bias":-0.3584320649784695,"weights":{"0":0.0012837206878397371,"1":0.08824133774917566,"2":0.12036959728134382,"3":0.5164102383227759,"4":0.14931017746502676,"5":0.06112787303014951,"6":-0.12771324797362554,"7":-0.2628936254500238,"8":-0.7123652477937508,"9":-0.13502198598299353,"10":0.05007229672127024,"11":-0.662368409926092,"12":-0.23949375812140808,"13":0.2704745519071528,"14":0.007950771364942223,"15":-0.515469939716843,"16":-0.1498606225981862,"17":-0.2891499294922986,"18":-0.5926164134056452,"19":0.2548465071353259,"20":-0.37997506451214164,"21":-0.04709115537732524,"22":-0.14018514038444907,"23":-0.4046050538973453,"24":-0.745620089767801,"25":-0.6297402488380507,"26":-0.9955620175778228,"27":-0.27063759273853494,"28":-0.03452926302697507,"29":0.5139667630408171,"30":-0.24703405326129405,"31":-0.5629523379163509,"32":0.09768790683838652,"33":-0.344070551006077,"34":-0.368410471366304,"35":-0.3479431269026564,"36":-0.5855649316163254,"37":-0.5468016197175862,"38":0.20013029676109712,"39":0.11634872253442156,"40":-0.25239860880601733,"41":0.1932823557999635,"42":0.3368995627653481,"43":0.031013020722370388,"44":-0.14530662154765,"45":-0.2511508113022278,"46":-0.599168133998144,"47":-0.591609650846424,"48":0.0357962901816199,"49":0.13321404291753935,"50":-0.09710009504896346,"51":0.25142722837583525,"52":0.10211364515383776,"53":-0.17257430226915035,"54":0.04130354619879103,"55":0.35248413770015147,"56":0.2562729320248074,"57":-0.15603642055811287,"58":0.05799599392640514,"59":-0.10591413577602421,"60":-0.656860143472654,"61":-0.565242602703987,"62":-0.2329272734879056,"63":0.259745559792857,"64":0.2869106988899077,"65":-0.46600018371628826,"66":0.6820270803839815,"67":0.8010316867074232,"68":0.46997213319490155,"69":-0.03886588683107396,"70":-0.5798319780609509,"71":-0.13385318851696407,"72":0.45063766235496083,"73":1.4042566179354337,"74":0.5596966094388042,"75":0.1826237369906141,"76":0.54673914166902,"77":0.06606450714123228,"78":0.3626033268147994,"79":0.2164982998019573,"80":-0.28407167286493495,"81":0.030086741011719733,"82":0.4522398614770343,"83":0.7930798516693666,"84":0.2040679114312651,"85":0.10420353771685001,"86":0.07278254548054029,"87":0.05858124627925169,"88":0.21237017514033968,"89":0.0941583429644474,"90":-0.4179497284169697,"91":0.3074360750742796,"92":0.8919279303094682,"93":0.7139647026013894,"94":0.025722712432508416,"95":-0.30011367150369106,"96":0.15251161351280473,"97":0.44910766250521256,"98":0.3982996863909158,"99":0.009362845306090235,"100":-0.3818288383586445,"101":0.554866297465019,"102":0.21578586125461155,"103":0.5356898667718544,"104":0.34251664762820977,"105":-0.21083175967343132,"106":0.005649218664088153,"107":0.07802826997441739,"108":0.41803454361943226,"109":0.23228423303683726,"110":-0.3670955467490826,"111":0.5241847575212795,"112":0.013590907080468702,"113":0.1752835613692558,"114":-0.4022582658344331,"115":-0.6358146000866639,"116":-0.2216531951947588,"117":-0.008916585506923062,"118":0.49090253900339137,"119":0.0048263756030418456,"120":0.9357072612568172,"121":0.44484515422469356,"122":-0.04965854526131187,"123":-0.3122649625334845,"124":-0.8296249351822694,"125":-0.920544371387593,"126":-0.7179548463771456,"127":0.11333572465287088,"128":-0.14698831622239603,"129":-0.13189646425405638,"130":1.2505154635173097,"131":0.5007474535454448,"132":0.32312874347800674,"133":-0.53736780254814,"134":-0.7076600757124829,"135":-0.46757982982121765,"136":-0.2603802203407615,"137":-0.4559728046256036,"138":-0.6746448113230504,"139":-0.07401107276524972,"140":0.30707270278198323,"141":-0.025464338890471293,"142":0.020554376104938318,"143":0.2967060210216452,"144":-0.5531791106530334,"145":-1.0535196237032058,"146":-0.557426211833471,"147":-0.5226895268612948,"148":-0.4509691118112939,"149":-0.41395147240618113}},"11":{"bias":-0.11959489306422925,"weights":{"0":0.15752990749881263,"1":0.8152155910917297,"2":-1.0503054716753657,"3":-0.7241793382984585,"4":-0.029933788169135875,"5":-0.6880489468020955,"6":-0.25563669256000476,"7":-0.33995992542109027,"8":-0.2736607260262042,"9":0.5067256309446191,"10":0.24537698800092406,"11":-0.21709777767272948,"12":-0.9010558898161315,"13":-1.6560131477712787,"14":-0.908824882250742,"15":-0.2765716059455769,"16":-0.5812707854696618,"17":-0.20881556840443546,"18":-0.435033060176554,"19":0.7664649016046795,"20":0.3086761899638139,"21":0.07280416620885187,"22":-0.5418521119740317,"23":-0.26487698317357905,"24":-0.18290545091334368,"25":-0.2655844810141109,"26":-0.09149181320594345,"27":-0.0787005538641607,"28":-0.5046188310376554,"29":0.15796899293068986,"30":0.03166384357191963,"31":0.36391003041812,"32":-0.24723109706992322,"33":0.05935006351683407,"34":0.15266590926104684,"35":0.07181530106585006,"36":0.011125134529192008,"37":-0.19361837139228466,"38":-0.3320647939548555,"39":-0.7076793801053594,"40":-0.34376136641424093,"41":0.36791218282329463,"42":-0.42722069058937695,"43":-0.21506500966989073,"44":-0.48970632842845213,"45":-0.24650896538410885,"46":-0.32804621682578516,"47":-0.2636624273354414,"48":-0.3705066324631631,"49":-0.7114144626560079,"50":-0.45623561331216766,"51":-0.08964039626634951,"52":0.8831304954648684,"53":0.5868958053496859,"54":0.3456467493809696,"55":0.40646892676090196,"56":-0.09105637973471213,"57":-0.2105018268594975,"58":-0.9207285572664806,"59":-0.3445819811111734,"60":-0.3946363538697363,"61":-0.2071026920681844,"62":0.49529100889454586,"63":0.4690872707771815,"64":0.4463503393376604,"65":0.03835788748202829,"66":0.05527619992925532,"67":0.3032492238352729,"68":-0.7663484436049262,"69":-0.3140378541479689,"70":0.48784246135658094,"71":0.454357074171998,"72":0.6703295847170807,"73":0.23171920786158748,"74":1.1738485528799816,"75":-0.25535155666976367,"76":-0.29190370290805484,"77":-0.3626720102935851,"78":0.08310534177373909,"79":0.021332406518684895,"80":0.22384656714886558,"81":0.32704497392378684,"82":0.3748662860135259,"83":0.5968269098685258,"84":0.5800026780583748,"85":0.017753860445003985,"86":-0.4202641201871364,"87":0.026883435824103002,"88":0.6228806164670784,"89":0.6372044757039546,"90":-0.6969094187752035,"91":0.22999681929325577,"92":0.28095961624308424,"93":0.33144268150422773,"94":0.09637014023734179,"95":0.2166108625096762,"96":-0.4508571023391489,"97":0.36112486959543,"98":0.29545879134132846,"99":-0.0499241895590754,"100":-0.8524074842783912,"101":0.24634256076754318,"102":0.7168930562158683,"103":0.2956677783983525,"104":-0.15676896934094456,"105":-0.10769175568964481,"106":-0.3510767766871833,"107":-0.7015049515003909,"108":0.09351792219956594,"109":-0.47230951466367227,"110":-0.4133407033950691,"111":0.05690357291380884,"112":0.27650028939527715,"113":0.40391201884075967,"114":0.3385179737211309,"115":-0.1922374861877056,"116":0.1683530089588693,"117":0.21312418376763706,"118":-0.28138758960342664,"119":-0.3183221025409658,"120":-0.7755176940746193,"121":-0.4561691072198457,"122":-0.48290344456021606,"123":0.08589061991638498,"124":-0.20923407200200864,"125":-0.1170287792061577,"126":0.41970799398119196,"127":0.2489614650160119,"128":-0.4255555354442825,"129":-1.3390321181629155,"130":-0.36979932652721687,"131":0.30664005730747534,"132":0.2819459078776108,"133":0.0008810308151677135,"134":0.46151566941196315,"135":0.003537062234909017,"136":0.5313461779155446,"137":0.659947787486339,"138":-0.39700656862436745,"139":-0.9769750614496214,"140":-0.1910673861606443,"141":0.47731208971106615,"142":0.1687243182483843,"143":-0.07899507639620373,"144":-0.019546313709869787,"145":0.8232757042238498,"146":0.8466415768011745,"147":0.03678696944785878,"148":-0.1614131853879169,"149":-0.3310929505045727}},"12":{"bias":0.6543946634268785,"weights":{"0":0.07952407793693331,"1":0.08666165182178688,"2":-0.0264527147658797,"3":0.08245545268211758,"4":0.15086052601874927,"5":-0.29227162727971145,"6":-0.35874601141599105,"7":0.0027228659072060847,"8":0.2883550931569433,"9":0.4566352922299765,"10":0.4244129709490697,"11":-0.07723183243781713,"12":0.019988052149979913,"13":-0.21709289345918767,"14":-0.016820048610472815,"15":-0.7781367248704325,"16":-0.5676932687261455,"17":-0.29886175851892655,"18":0.2386876215325035,"19":0.4981172442052487,"20":0.03517248242363218,"21":0.07895912977463178,"22":0.3319701183865469,"23":-0.9506341630729608,"24":-0.18918970665909265,"25":-0.642883755862454,"26":0.1260484723914804,"27":-0.3932579236901907,"28":0.1658121630163779,"29":-0.16715831032366824,"30":-0.13858086811237166,"31":0.5379581682093991,"32":0.20615668001293802,"33":-0.6467999463691005,"34":-0.41457749463338184,"35":-0.4668815786427997,"36":0.5624897741880022,"37":0.11347747984284438,"38":0.3858569465453407,"39":0.46699304782256684,"40":-0.18090268561415296,"41":0.3734488760556116,"42":0.5576907122869251,"43":-0.4132700203328618,"44":-0.8048982498004972,"45":0.16739917151037267,"46":0.3562586818092623,"47":0.6429190803837641,"48":-0.014632470414231264,"49":0.18905920568998655,"50":-0.22242796286059338,"51":1.2672018348720584,"52":0.7750987320666035,"53":-0.7423195580616851,"54":-0.8058743812954082,"55":0.6225022916769338,"56":0.2804898674746514,"57":0.5106954896333149,"58":-0.17971086444166715,"59":0.3822745010393673,"60":-0.15184955255874666,"61":0.8174598255680984,"62":0.3766207816311802,"63":0.02598520642860858,"64":-0.4576816379307215,"65":0.056204046584631843,"66":0.23436781198248094,"67":0.06755231010975062,"68":0.262197273113569,"69":-0.44054231393882015,"70":-0.0007560463731878645,"71":0.5184401896231222,"72":0.2139489196077794,"73":0.5927853306991174,"74":-0.3249841401746735,"75":0.2864134857818048,"76":-0.23828323518884703,"77":-0.3064999971158046,"78":-0.027715886593871017,"79":-0.48723404431072526,"80":0.48162128191583714,"81":0.8548719253064047,"82":0.6328175210657841,"83":-0.3152521399741704,"84":-0.5640989408077113,"85":-0.6614446304880092,"86":-0.4688296582891637,"87":-0.12835844038468944,"88":-0.24905118043213745,"89":-0.37195903403747754,"90":0.05593418018646069,"91":0.39308259299793297,"92":-0.03427568907040616,"93":-0.5213280516297106,"94":-0.5626673537645748,"95":-0.3196927142079017,"96":-0.5055940744320854,"97":-0.20571072607989763,"98":0.05698310684735529,"99":-0.23101115486632934,"100":0.16937236837460837,"101":0.3693391039711005,"102":0.459646611793171,"103":-0.3520019534398725,"104":-0.254185728378092,"105":-0.5121620717130154,"106":0.2335008558830499,"107":0.2395011022338771,"108":-0.5583637864100206,"109":-0.6732861669112363,"110":0.07618933264202288,"111":-0.11593344425307187,"112":-0.028882313697687314,"113":-0.3469330197850478,"114":-0.6446302942636266,"115":-0.2902764653964067,"116":0.14821631355744716,"117":0.2663785238530971,"118":-0.6710356949346773,"119":-0.6018487714897729,"120":-0.3397796492193999,"121":-0.10301807453457361,"122":-0.4039464661349,"123":-0.5601416716573115,"124":-0.29082582456380246,"125":-0.5193715709976777,"126":0.09509108641053012,"127":-0.19137336051436676,"128":-0.37554217631631837,"129":-0.359211003377622,"130":-0.019044485983783686,"131":-0.32413803049737283,"132":-0.49959324320683196,"133":-0.9000167586064891,"134":-0.9100167008641449,"135":-0.8342924626079686,"136":-0.15791839897793958,"137":-0.6548590590817545,"138":-0.25516921911628193,"139":-0.28053529587329723,"140":-0.1508108832949897,"141":0.16856452789422371,"142":0.4117447246607888,"143":-0.061493310897869094,"144":-0.007442094991007471,"145":-0.045605079007407553,"146":0.08145376921239401,"147":-0.33456592971488336,"148":0.46694302729409753,"149":-0.1839361957054041}},"13":{"bias":-0.9341653385641572,"weights":{"0":-0.3396556656494989,"1":0.33330415712786327,"2":-0.275075777628927,"3":0.12088428754252725,"4":-0.0015150785887662718,"5":0.061528947086818164,"6":0.38895468198715033,"7":-0.38199293879162977,"8":-0.610114714422038,"9":-0.1425256096316625,"10":0.2881977256515454,"11":0.3557251256608364,"12":0.028882630213049768,"13":-0.0692066447857387,"14":-0.21826194579467653,"15":0.1600420212123831,"16":-0.11957023232365448,"17":-0.11801820736967687,"18":-0.2778093971497871,"19":-0.988863501447862,"20":0.026384079423934812,"21":-0.3935914053281939,"22":0.48436976411472327,"23":0.38333765929703917,"24":-0.07118796155828665,"25":-0.07114257671020313,"26":0.00230604779631602,"27":-0.0565394717663758,"28":0.002793958482555301,"29":0.12788155248488725,"30":-0.0924311711497364,"31":0.7079463753318723,"32":0.7722804900184133,"33":-0.1774955118061225,"34":-0.36024220856508665,"35":-0.21250029441298043,"36":-0.14854283718013916,"37":0.8482433144328536,"38":-0.4805991194723012,"39":-0.3598106079417005,"40":-0.5148862110537458,"41":0.2739726240027387,"42":0.07830190982265837,"43":-0.7554387867671111,"44":0.2717842035897972,"45":-0.33649779291780124,"46":0.29388099533785617,"47":0.10042815285644652,"48":-0.2527543867364156,"49":-0.14759229421561354,"50":-0.23058440688462195,"51":-0.3994745264761078,"52":0.3553911417060818,"53":-0.4317637177470087,"54":0.6648984626506428,"55":-0.008049547290557145,"56":-0.07592128167039193,"57":0.3177715979498581,"58":-0.09603286564787779,"59":-0.20586650028336917,"60":0.23652858722181147,"61":-0.3496617940834401,"62":0.5571598054490797,"63":-0.2736342070600532,"64":-0.20035249169838218,"65":-0.4082439283201824,"66":-0.20059659109701933,"67":0.942125039813245,"68":-0.48340344851638767,"69":0.19697680123677233,"70":0.5253411536453435,"71":0.041057378062713944,"72":0.44042705588270514,"73":-0.37496842356097565,"74":0.04338819078424123,"75":-0.861397238712018,"76":0.06523768029598231,"77":0.15648705648234998,"78":0.3087080419682789,"79":0.1036384954572905,"80":-0.08227229645105834,"81":0.0757674874556384,"82":0.1267657973850644,"83":-0.16480794991449124,"84":-0.6210780401654257,"85":-0.21325491046878003,"86":-0.04798668953120516,"87":0.4106033226754219,"88":0.2864374072285929,"89":-0.010155697244617127,"90":0.38077268640047723,"91":0.55825366335355,"92":0.14635310371205124,"93":-0.27480980764508234,"94":-0.6195028031950919,"95":0.17935189390068934,"96":0.06732405521513157,"97":-0.32774299543017543,"98":-0.7180548318567849,"99":0.16668362549786045,"100":0.6500820178849066,"101":0.5363862188155428,"102":0.10660237831839486,"103":0.04490446801523898,"104":0.026646934977534145,"105":-0.45504146152088576,"106":-0.9299296312740929,"107":-0.5136361177393663,"108":-0.20529428655295928,"109":-0.07231552416038069,"110":1.1047991387612317,"111":0.7657369994530723,"112":0.6788242413839649,"113":0.000682900626444489,"114":0.2070436080087838,"115":0.12421982713983301,"116":-0.343374925014769,"117":-0.36062445050793385,"118":0.18694593895373218,"119":-0.6170645097310659,"120":0.09756571260388593,"121":0.6354394484358448,"122":0.5649453565721164,"123":0.24276935337951763,"124":0.584525388646252,"125":1.0644403196884398,"126":0.6309024311151771,"127":0.32618530360046144,"128":0.18966876406529873,"129":-0.07208040603453843,"130":0.033514858915433876,"131":0.69084163948133,"132":-0.03886251562942871,"133":-0.585513658655633,"134":0.1449072369859353,"135":1.1627596050236628,"136":0.9090839542834173,"137":0.3297514202048509,"138":0.49582013975407124,"139":-0.5323964938911503,"140":0.08202653421528991,"141":0.7808916834993986,"142":-0.033731562707218804,"143":-0.2552117986536522,"144":-0.40942383107349195,"145":-0.11665427249083361,"146":-0.20639501044072273,"147":-0.28707481571458376,"148":-0.2629822064896258,"149":0.18344271686896627}},"14":{"bias":0.6484859335348202,"weights":{"0":0.12844776848330272,"1":-0.21383814723990557,"2":-0.1948378997291703,"3":0.13492506846907354,"4":0.007092166066903805,"5":-0.05911591518531515,"6":0.464963002410382,"7":0.5495094728697312,"8":0.18714557213298022,"9":0.05686116692485254,"10":-0.11782340381809749,"11":-0.9603307805735218,"12":-0.30279968824318915,"13":-0.07774408546039392,"14":-0.21744275198109866,"15":-0.714066958815762,"16":0.24818579550922712,"17":0.3693427798707771,"18":0.030710256159998117,"19":0.24377615471938308,"20":-0.4318189377317787,"21":-0.8350697324232782,"22":-0.2527510002656277,"23":0.5404453440489251,"24":0.2678725186975078,"25":-0.4386298159205623,"26":-0.10761317347730932,"27":-0.5452683633229218,"28":-0.570092140437624,"29":0.009209151772027885,"30":-0.2614286657361894,"31":-0.4810327932504674,"32":-0.19956143760212677,"33":-0.11298950344331422,"34":0.11784420355323313,"35":-0.615345672045855,"36":-0.8101512181311479,"37":-1.1061468884180412,"38":-0.8689344511895682,"39":-0.5393448835998584,"40":-0.05113524579062621,"41":-0.30483033803774506,"42":-0.2338756300836473,"43":0.4303891068290082,"44":-0.46997012484549894,"45":-0.7219440723880544,"46":-0.9137605659399982,"47":-1.0271390542626964,"48":-0.4494458468504378,"49":-0.35746350703380025,"50":-0.2903400970938066,"51":-0.4524442073229941,"52":-0.014437314569918203,"53":-0.0803374714686872,"54":-0.5491124431786393,"55":-0.20458468165936533,"56":-0.2627653839144809,"57":-0.46314230817324936,"58":-0.9243139619352296,"59":-0.014866270474731975,"60":-0.2714659887161033,"61":-0.21277587115868551,"62":0.15193516281024383,"63":0.30304507249246987,"64":0.39762405466932726,"65":0.009174710843924105,"66":-0.3296333437717032,"67":-0.21348469389933664,"68":-0.8321495723854818,"69":-0.35925469791784786,"70":0.2662373139184928,"71":-0.5875289729603169,"72":0.011419729453577575,"73":-0.027403370803338382,"74":0.12492811566042562,"75":-0.20362464915534315,"76":0.5216416965227475,"77":-0.5717838771881001,"78":-0.23277208708686165,"79":-0.7789221743465087,"80":-0.06921105512989335,"81":-0.30284347791426747,"82":-0.2635838115627626,"83":-0.555533134096417,"84":-0.00943218579816614,"85":0.21514019251178174,"86":-0.13803380069957155,"87":-0.3618904913221158,"88":-0.29486073156677445,"89":-0.1874573681130467,"90":-0.10787003684207537,"91":0.21560433217370278,"92":-0.45230130544078934,"93":-0.2471337186544649,"94":-0.44674932224740366,"95":0.3410249742729789,"96":-0.0982933868561019,"97":0.2798951144234587,"98":-0.4440244496003735,"99":0.024378421294042937,"100":0.3659589359009464,"101":0.148570650577326,"102":-0.2811609108570422,"103":-0.3776281587944391,"104":-0.26079452360799754,"105":-0.30607984160827695,"106":0.32221307839289176,"107":0.16251559845737346,"108":-0.6952575293293595,"109":-0.2503348059611979,"110":0.7710233013419823,"111":0.07943632948803316,"112":0.06884161116582073,"113":-0.033580749211552526,"114":-0.0792648215151617,"115":0.6435693035943594,"116":-0.0038399264816685857,"117":-0.4197839127911331,"118":-0.5435594253848884,"119":-0.5249203609845219,"120":-0.33974244447853175,"121":0.07514309468829526,"122":0.7161399390712013,"123":0.6198827210179824,"124":-0.2619850868259619,"125":0.6808236202425977,"126":0.49276801016730987,"127":0.09810199132088604,"128":-0.06905003062692139,"129":0.13735630886772468,"130":-0.3205575137298474,"131":0.6839415712102042,"132":0.15064752171252882,"133":0.6982781838011375,"134":0.9330882796727842,"135":1.3030227688714582,"136":0.3052379134256447,"137":-0.20398019481902468,"138":-0.23198538852846678,"139":0.06190035990797569,"140":0.43099626596869633,"141":-0.29051524793436995,"142":0.30214496672031654,"143":1.0221710779255984,"144":1.1290355351897885,"145":0.4519767036749059,"146":0.06446942583203082,"147":-0.25721765291414206,"148":-0.09560431979497018,"149":-0.34284148355864874}},"15":{"bias":0.2633738576060892,"weights":{"0":0.8339150767903434,"1":0.09456920306333336,"2":0.6752152082547729,"3":-0.3104122352448056,"4":-0.7019080822471262,"5":-0.023404677149602253,"6":0.33624307100068435,"7":0.10292901772274607,"8":-0.13453070116169366,"9":-0.2045922241379475,"10":0.2563695718547518,"11":-0.006402570638783398,"12":0.5031449694972302,"13":-0.1771306721326552,"14":-0.2631243562161185,"15":-0.4243407740748185,"16":0.2005028301524948,"17":-0.07197070230265186,"18":-0.29776080785154113,"19":-0.2899326030657384,"20":-0.3840108396253135,"21":0.5301522053244788,"22":0.18642126307896031,"23":-0.035106160304606816,"24":-0.33653171536176235,"25":0.37097853407724146,"26":0.14797370481325473,"27":0.4581640999810993,"28":0.018475551324840068,"29":-0.09571426946045797,"30":0.4168661081049906,"31":0.4817019658483364,"32":0.01752579919209067,"33":-0.5624146385436357,"34":-0.37805721484602717,"35":-0.222777992407052,"36":0.5073106627854274,"37":0.34445125343757776,"38":0.5626461162425591,"39":0.5018199536849979,"40":0.7328911252303097,"41":0.651074890711053,"42":0.25928255328457483,"43":-0.044134955346801896,"44":0.2986981170393393,"45":-0.07700385951668524,"46":0.2796664960868532,"47":0.19167866642096293,"48":0.8281727227530342,"49":0.5198369273742092,"50":0.9599151394634359,"51":0.7047503161120923,"52":-0.427365681894889,"53":0.18521612818801036,"54":0.6935131880174656,"55":-0.5069513615712103,"56":0.6305976669947935,"57":0.1083161275886576,"58":0.4044019307564916,"59":0.398842643454147,"60":0.4670424396527734,"61":0.1385994313687235,"62":-0.25471647970182437,"63":0.10008855465684922,"64":-0.09260417312450352,"65":0.03472064764776565,"66":0.8210622716615444,"67":0.22416716144685755,"68":0.39452910466717644,"69":0.11572724545862885,"70":-0.3497458237060852,"71":0.10959647916393597,"72":-0.20869244167423928,"73":-0.031044307594576784,"74":0.21487778282881137,"75":0.33839066987906014,"76":0.3907783855313975,"77":0.1433570780869837,"78":0.2240565513894553,"79":0.10806137143053794,"80":0.21887555741679526,"81":-0.3681859072840991,"82":-0.0666865586223482,"83":-0.20409188387872443,"84":-0.2554172551597051,"85":-0.2830419664285074,"86":0.2644390289772307,"87":0.12703593335363553,"88":-0.2795013515932238,"89":0.03973832061551093,"90":-0.38386364286922775,"91":-0.7815292196562894,"92":-0.46836518990939424,"93":-0.11394145545677016,"94":0.3061186168867433,"95":0.07378436973116725,"96":-0.31558801470397757,"97":-1.0657554406436798,"98":-1.0621768367041964,"99":-0.03955656754664603,"100":0.0971823267419178,"101":-0.18524817378306901,"102":-0.2680874382223354,"103":-0.12162825564659181,"104":-0.29662806547249326,"105":-0.24426001971411823,"106":-0.4746969219482081,"107":-0.6299573190816689,"108":-0.9388549718767053,"109":-0.11675933304411563,"110":-0.4854922281136428,"111":-0.2953791574629969,"112":-0.14887218806348823,"113":0.2850036707941834,"114":-0.2510761910103929,"115":-0.2153066477743501,"116":-0.6072817181326893,"117":-0.23455408731417865,"118":-0.514765926777371,"119":0.20577012916648257,"120":-0.572954723467243,"121":-0.23211098489822052,"122":-0.43073614533154736,"123":-0.1834954105188488,"124":-0.00952848321228653,"125":-0.5831944740257806,"126":-0.7080734624466692,"127":-0.4560676609887341,"128":-0.053394326896577075,"129":-0.15043366673184574,"130":0.19361444855452806,"131":-0.313760534825182,"132":-0.8610557988785612,"133":-0.6474322508929734,"134":-0.3759691269424534,"135":-0.6699043478897474,"136":-0.41167276578272943,"137":-0.08377050222611797,"138":-0.5963777912160835,"139":-0.3034236510411716,"140":-0.16026359864996534,"141":-0.018884098712881443,"142":-0.26293718892323653,"143":-0.527517817059915,"144":0.08988989546191865,"145":0.6065325638021892,"146":0.7076694829364741,"147":0.7517675025658402,"148":0.7800768905464212,"149":0.17148049298000095}},"16":{"bias":-0.26849733576820656,"weights":{"0":-0.050842879613563575,"1":0.4000020696166608,"2":0.1573704785874265,"3":0.38652607263321526,"4":0.43751463113927164,"5":0.1862241711095097,"6":0.2801265465079061,"7":0.40268475946586824,"8":0.7844855959782983,"9":-0.184380928453289,"10":0.2430326086756868,"11":0.942356959643493,"12":0.7906058431054304,"13":0.2921393992773699,"14":0.24168979065236024,"15":0.5607854238314076,"16":-0.03757694047883933,"17":-0.2658724077840214,"18":-0.3139644195992549,"19":-0.24572148565598884,"20":-0.07971793528058756,"21":0.386928150918281,"22":-0.11337545265572108,"23":-0.3866258282112827,"24":-0.16404146809567272,"25":-0.03712895461268846,"26":-0.5574949187016672,"27":-0.14006093952582657,"28":-0.3645318573607177,"29":-0.09569951109641799,"30":0.05143448383377494,"31":-0.4803754895578602,"32":0.08627008017073157,"33":0.0735391276118549,"34":0.234013782321708,"35":-0.17660936716878947,"36":0.058199468943653423,"37":0.09778156859871324,"38":0.4072213152236873,"39":0.48986310588701454,"40":-0.4578897759476905,"41":-0.5036973479857881,"42":-0.08186782836055628,"43":-0.38404666709360963,"44":0.031139350071462974,"45":0.17837966733889618,"46":0.9955538435159292,"47":0.13410977010151462,"48":-0.10486285714998286,"49":-0.0370902597796664,"50":-1.058119928931869,"51":-0.6639194346673515,"52":0.5553733197332734,"53":-0.1488285637501803,"54":-0.005730962910038629,"55":0.9401669508332381,"56":0.8904877369947275,"57":0.6520538985383024,"58":0.36707691908744233,"59":-0.07767013733327814,"60":-0.16482031988437862,"61":-0.053235155283412446,"62":0.06080446783967286,"63":-0.5203888544808619,"64":0.32624432264409675,"65":0.9596865087405957,"66":1.1691881037688865,"67":0.05920669306094346,"68":0.12832038422962438,"69":-0.31478288836172685,"70":-0.6126105820957677,"71":-0.18895959733346876,"72":-0.4828543615428626,"73":0.3801595898771647,"74":0.3934959261354395,"75":0.15171156998043825,"76":0.8124715758551118,"77":0.9231437200908695,"78":0.3979195775884618,"79":-0.03863014901002061,"80":-0.37381315977588303,"81":0.01932698694141377,"82":0.735797126090216,"83":-0.24290227549115898,"84":0.7291109208401847,"85":0.5519804163707102,"86":0.4924006829282646,"87":0.7084353205266685,"88":-0.14903492603992638,"89":-0.24801839497183656,"90":-0.398033293418888,"91":-0.02655278062803505,"92":0.8472781032125217,"93":0.081853539450039,"94":-0.5674772471838292,"95":0.5958240804800032,"96":0.2131340708680222,"97":-0.2822093746545341,"98":-1.1129455892913829,"99":-1.0132310074185737,"100":0.38751119818546476,"101":-0.38377761181237,"102":-0.5474303720204435,"103":-0.3362473872680174,"104":-0.03476786069713336,"105":-0.049957830052268205,"106":-0.18689477012854383,"107":-0.35807197155082826,"108":-0.9435171890503349,"109":-0.5361572174590848,"110":-0.05907677046399491,"111":-0.20883550529256337,"112":-0.6481084600720692,"113":-0.7217984888649099,"114":-0.9363933727489756,"115":-0.4078085208608545,"116":-0.05441429912951714,"117":-0.015341541366738605,"118":-0.6033469609446138,"119":-0.7627252471668569,"120":0.2406825706246316,"121":0.32512812506849137,"122":-1.1093028666259965,"123":-0.6804481543408766,"124":-0.7698690246860322,"125":0.016467851674478468,"126":0.08378545164595554,"127":-0.004826454151373028,"128":-0.2862774267238922,"129":-0.7348401916942053,"130":0.5361274863631537,"131":0.006983332220124942,"132":-0.4868914563337119,"133":-0.5846554105096018,"134":-0.4397538236902534,"135":0.06208062709035801,"136":-0.3607678747429834,"137":0.10510593641875923,"138":0.24156269261969388,"139":-0.9131096488942844,"140":-0.11309519052524711,"141":-0.041985251042383105,"142":0.11295872538180786,"143":-0.11949187292505,"144":-0.26119799381057784,"145":-0.057852252076831485,"146":0.3374776318626776,"147":-0.21014820338318077,"148":0.5297772900691406,"149":0.1385502090549972}},"17":{"bias":0.5671627974138335,"weights":{"0":0.5350691197567223,"1":-0.019708689019677917,"2":0.3400931688717943,"3":0.03175452169748208,"4":-0.2157773237983143,"5":0.5678258443463634,"6":0.6146010203410888,"7":0.23287691458180917,"8":-0.41407198619148544,"9":0.2258828220300969,"10":0.038956243639020935,"11":-0.23515741438100543,"12":0.4857525469143199,"13":0.5008751484584386,"14":0.011650852652095834,"15":0.47458823552562346,"16":0.17495950735446406,"17":0.4415997633074539,"18":-0.04353897960404864,"19":0.2983423044492552,"20":-0.49057012692502044,"21":0.1816780049948007,"22":-0.15292130560065914,"23":0.19366736866138454,"24":-0.4099794726181198,"25":0.22506126783609115,"26":0.41032327522190865,"27":0.05852496050930042,"28":0.2350302865842812,"29":0.10737224488248107,"30":-0.2778403672489715,"31":-0.016486503796460193,"32":-0.21151431955326486,"33":-0.2919162938241681,"34":-0.031891055556152834,"35":-0.006233688984433901,"36":0.017807649012271748,"37":-0.47656922268473084,"38":-0.39255785973483054,"39":-0.011503221172845165,"40":-0.3402879598194937,"41":-0.37543114806409533,"42":0.01715323761569974,"43":0.05508306598834149,"44":-0.216619224047078,"45":-0.24032465480094356,"46":0.057306902742213346,"47":0.23625092803155426,"48":0.04621290255900496,"49":-0.33477100544827076,"50":-0.4576590803076929,"51":-0.42789373812872394,"52":0.44232444508834323,"53":-0.49873065488386054,"54":-0.33929887094491007,"55":-0.5021381807229712,"56":-0.4365891947509065,"57":-0.37260005858099876,"58":-0.5183366807391997,"59":0.19459163824546505,"60":-0.5007913209071315,"61":-0.2822648093848078,"62":-0.46082747506785915,"63":-0.7980335239734064,"64":-0.07248810417720633,"65":0.09287090592736219,"66":-0.5220837697498283,"67":-0.4754493691750428,"68":-0.7319436128965028,"69":-0.5452890432951465,"70":-0.8516915918467861,"71":-0.4757688780999968,"72":-0.5456060879861718,"73":-0.3467479896949897,"74":-0.016843437417235017,"75":-0.31846429776519575,"76":-0.34668850599194556,"77":-0.624333680281228,"78":-1.023606368590623,"79":-0.5568737187517896,"80":-0.43062661221246307,"81":-1.1850606816996059,"82":-0.2942972982275288,"83":0.2152208840371175,"84":-0.10891793947361586,"85":-0.10464332481302732,"86":-0.3642084388876,"87":-0.7574219433235663,"88":-0.44146917291646376,"89":-0.5442314705099577,"90":-0.4543651951702456,"91":-0.34760668382228255,"92":-0.28411317178767115,"93":-0.39658654878238153,"94":0.1483257163322606,"95":-0.7836581959921899,"96":-0.4970169465430067,"97":-0.03583826013726828,"98":0.3254694860994595,"99":0.033629879956640824,"100":-0.6700844413592805,"101":0.050922623317952366,"102":-0.44580604939839424,"103":-0.39906628353031837,"104":-0.10566407492805627,"105":-0.14940601245993249,"106":0.07185959588982152,"107":0.16337793669156403,"108":0.6889814683718659,"109":0.2795881265517954,"110":-0.029316314746168484,"111":0.40881958078049807,"112":-0.132114417707466,"113":-0.15992689321229106,"114":-0.14308004533661206,"115":-0.2019578811465272,"116":0.14157685355249736,"117":-0.137130656941305,"118":0.6696545802322622,"119":0.33074743392563516,"120":-0.2682652492789519,"121":0.18049220932432686,"122":0.8814610963950923,"123":0.9823396096522103,"124":0.020425726779841613,"125":0.11923542492117295,"126":-0.3466370286742451,"127":0.26623561477979263,"128":0.5007223987470315,"129":0.2171889717718649,"130":0.3505273299800014,"131":0.15638197817630398,"132":0.97331012210592,"133":0.0406064149713542,"134":0.010162127827547796,"135":0.5047414347614568,"136":0.5268378924278884,"137":0.2528945559629965,"138":0.07026984841157217,"139":0.016675768820590502,"140":0.267498201271765,"141":0.4553740268439438,"142":0.14749059058365713,"143":0.14366582968594777,"144":-0.02366111794279597,"145":0.6962846432858235,"146":0.35532621732795794,"147":0.3839382674696293,"148":0.14934370191444152,"149":-0.03433141957346358}},"18":{"bias":0.9166014414919634,"weights":{"0":0.6986598185924957,"1":0.7289546624422093,"2":0.46342903444789907,"3":0.31569058840756736,"4":0.13736842654582382,"5":0.5108264495863485,"6":0.46151985974815174,"7":0.2801106139821161,"8":0.5707123606519656,"9":0.5676914341536369,"10":0.341705953239934,"11":0.2902289128643175,"12":0.36170889261435507,"13":-0.42869039571233597,"14":-0.21517121497642558,"15":0.2933802500260761,"16":-0.76506074285402,"17":0.23465879482254876,"18":0.24164086422919437,"19":-0.18015734056204208,"20":-0.26092744340171875,"21":0.3458799906385588,"22":-0.17512087568478893,"23":-0.3136339497396658,"24":-0.754674883700505,"25":-0.8206088086529445,"26":-0.8428511615911012,"27":-0.0549334379076021,"28":-0.10488796008880241,"29":-0.8076622034070898,"30":0.05601119779837163,"31":0.1835826288752198,"32":-0.32620347204737676,"33":-1.010845977390046,"34":-0.5416372131430948,"35":-0.016731362134229856,"36":-0.7635940830175937,"37":-0.6414599406929246,"38":-0.7672220791428458,"39":-0.7207192631010417,"40":-0.3186718291148497,"41":0.324964195099861,"42":-0.16333970676380102,"43":-0.10607026879943511,"44":-0.37476035556918985,"45":0.10118028335452162,"46":-0.47544659928999866,"47":-0.24581462574150156,"48":-0.6077410085529669,"49":-0.8379904792295125,"50":-0.20107510744975476,"51":0.4762875527730005,"52":-0.5317347907294188,"53":0.21202598251059057,"54":0.39764427550726456,"55":-0.11871056050371989,"56":-0.30992657865014056,"57":0.16004780056274917,"58":-0.5658367699470224,"59":-0.44747442817011385,"60":-0.36869556072379317,"61":-0.21566449442158686,"62":-0.21983456264958995,"63":0.1294420879444534,"64":0.27166026073290683,"65":0.17108152260583015,"66":0.2345422833981845,"67":0.39381658778281015,"68":-0.14477577019529658,"69":-0.706330131739985,"70":-0.6309133806479037,"71":-0.1560078628076396,"72":0.18984425921407388,"73":0.015666880196972932,"74":0.14202849214339236,"75":0.17935284866522844,"76":0.19203756811940595,"77":0.43249655928150765,"78":-0.02325656416466832,"79":0.078976934519346,"80":-0.4991718346524319,"81":-0.6309588559759892,"82":0.42270201087410325,"83":0.161317133299108,"84":-0.0037196698668710837,"85":-0.4292534892157726,"86":-0.16520900741942765,"87":-0.26212999518395846,"88":-0.1993375231765248,"89":-0.20251746733852463,"90":-0.1632807218819654,"91":-0.126435470327654,"92":-0.20732815437335944,"93":-0.028173950715840473,"94":0.15319354134239727,"95":-0.5572459715184894,"96":-0.8192571151914884,"97":-0.7341351093018421,"98":-0.04315243555386477,"99":0.09757552503426864,"100":-0.4252895226348139,"101":-0.27718693394968585,"102":-0.00472023310380039,"103":-0.019946259081026076,"104":0.40116466296835024,"105":0.27444640529054093,"106":-0.2090399611560539,"107":-0.326310900585618,"108":0.04271529392772239,"109":-0.0739071520426798,"110":-0.41053232000314904,"111":0.07666711671315532,"112":0.17103408401442874,"113":0.5999283869006016,"114":0.4920463229470396,"115":0.003130291394646174,"116":0.14316036898569792,"117":-0.16562860846926153,"118":0.027311472074626596,"119":-0.38740635552872865,"120":-0.32646927659133607,"121":0.15648715614745845,"122":0.37250470018531856,"123":0.0737194604907391,"124":-0.06874536949887337,"125":0.3265458232350467,"126":-0.09961550721531302,"127":-0.2601470352820551,"128":0.07326614296134296,"129":-0.7089132664283487,"130":0.6028168930278149,"131":0.05670732329231714,"132":-0.7884771173833318,"133":-0.7682487281232238,"134":0.10650360303753494,"135":0.44087033835748485,"136":0.43439253303273795,"137":0.47159667014111206,"138":0.00873436067672738,"139":-0.2701241663917043,"140":-0.12973538832210726,"141":0.9414470591613382,"142":-0.14330877907142203,"143":-0.3672966518477567,"144":0.47739363314315625,"145":1.0791969970916828,"146":0.5151812428304097,"147":1.0332669822975333,"148":0.5870151943741871,"149":0.2390277038207045}},"19":{"bias":0.11087031826255016,"weights":{"0":0.7343803542068907,"1":0.07769692495135816,"2":0.4077449419214663,"3":-0.4057894758744404,"4":-0.1123214052209006,"5":0.3545417396488315,"6":-0.11023333106099013,"7":0.12037107733515588,"8":0.7351265410995582,"9":0.7157884005753966,"10":0.7179334111220965,"11":0.625347512802302,"12":-0.06474558791734453,"13":-0.38309870198127083,"14":0.4569546413304053,"15":0.46843501885522626,"16":0.6167665478800682,"17":-0.003015972736049079,"18":0.783106038467491,"19":0.44718651780013424,"20":-0.12318792939000986,"21":0.3911245033191523,"22":-0.08646722136695703,"23":-0.2811516111558181,"24":-0.309611596657812,"25":-0.2917640217289343,"26":0.26688992605963235,"27":0.5760822764568585,"28":0.2941624905186315,"29":-0.53157159715744,"30":0.34104155476382425,"31":0.8762739985074189,"32":-0.3586626615563901,"33":-0.2994738820725372,"34":-0.7447311279957369,"35":-0.7033391923051028,"36":-0.41872897459603226,"37":-0.01623674848348277,"38":0.5403590045919184,"39":0.2652130628875326,"40":0.7952394334359574,"41":0.09319853465047598,"42":0.3247174181902794,"43":0.22056856117619078,"44":-0.5712193239750687,"45":-1.2502668774586623,"46":-0.08740017761655486,"47":0.01576855773885889,"48":0.8040352378759591,"49":0.8843492232728634,"50":0.6473961536892032,"51":0.35825976231856715,"52":0.8595114641250741,"53":0.6540203616087974,"54":-0.5522945959614866,"55":-0.8948147499647324,"56":0.16739804928890223,"57":-0.5495687431330076,"58":-0.289771209926891,"59":0.02804194558862681,"60":-0.1009759946216256,"61":-0.4858920809118255,"62":0.5664427978032315,"63":0.1273015850647856,"64":0.006216636008758336,"65":0.3221381679357148,"66":0.29055392090972043,"67":-0.7368001237196203,"68":-0.267897003739974,"69":-0.5014730845319151,"70":-0.6011997067738304,"71":-0.2985755777892089,"72":-0.07163110605952563,"73":0.1636069346695278,"74":-0.17180835870554412,"75":0.34196075087555783,"76":0.05414374190212072,"77":0.02729067139348,"78":-0.06794188883597134,"79":-0.4190455484821703,"80":-0.36022297811399323,"81":-0.9813662012145253,"82":0.18963646446986057,"83":-0.25449267803149506,"84":-0.05585057298420967,"85":-0.4031856567396659,"86":0.6907524194079374,"87":0.2540463619886947,"88":-0.576838951224553,"89":-0.4570133831447949,"90":-0.4314106046633831,"91":-1.2671389749946127,"92":0.18381752159558032,"93":-0.10166664364224158,"94":0.6091325210315403,"95":0.18568983716128698,"96":-0.7262838034551138,"97":-0.44353028309913645,"98":-0.14266084882777166,"99":-0.33308276295906036,"100":-0.45545291051853004,"101":-0.1751192076791562,"102":0.1921718611633663,"103":-0.15935806866659355,"104":-0.14848651609763064,"105":-0.11184121193251872,"106":-0.2591709269950975,"107":-0.5607975881052308,"108":-0.8928875708091545,"109":-0.26513262630213175,"110":-0.5008665167607277,"111":-0.02233813001336546,"112":-0.23955227204760948,"113":0.2646125813581025,"114":-0.007980243068450842,"115":0.07971706727190579,"116":-0.29275283004763486,"117":0.02530335959882369,"118":-0.39424547869272253,"119":-0.31657686497558885,"120":-0.7225839485293536,"121":-0.09670806367787058,"122":-0.2199173020328055,"123":0.0986950361464232,"124":0.28388644166279353,"125":0.03886836174752646,"126":0.09341270958230637,"127":0.3526596933635834,"128":0.4504908284297788,"129":0.20443155078788902,"130":0.5908765249301547,"131":0.21775729381840253,"132":-0.9652239030661663,"133":-0.29501172483560667,"134":0.40440999949539463,"135":0.21451871087249522,"136":0.372909258599872,"137":0.46044942235110675,"138":0.08732340647587859,"139":-0.18866475289014056,"140":0.10511997074204747,"141":0.6123742381756675,"142":-0.7273934215252257,"143":-0.5868157178969645,"144":0.2941036239064995,"145":0.40568390217844613,"146":0.3438764236074083,"147":0.6432975460435831,"148":1.0185964374909193,"149":-0.3734746928795744}},"20":{"bias":0.23803936162081007,"weights":{"0":0.3506138726754539,"1":0.7520513371076043,"2":0.28592551286694007,"3":-0.11944914176070338,"4":0.34858622938562317,"5":-0.27800704209514604,"6":0.049513883985295985,"7":0.13282773488712282,"8":0.18880102063412676,"9":-0.19730525569907942,"10":0.16899924574774186,"11":0.31958424103165245,"12":0.2803722978440837,"13":-0.588847717319151,"14":-0.5318738795770027,"15":-0.1537506216228324,"16":-0.4434843704340504,"17":0.18689289125150116,"18":0.2012666759561234,"19":-0.8915859566970794,"20":0.14928189244078358,"21":0.41700385249873745,"22":-0.16455314692470868,"23":0.1329088477673866,"24":-0.18964161928912227,"25":-0.36263212422448593,"26":-0.13019925107945593,"27":-0.5945316441271465,"28":-0.7720011636474274,"29":-0.928646967546484,"30":-0.20570586989255665,"31":0.16159554128233952,"32":-0.2376795743379591,"33":0.6319178000021475,"34":0.4110071452611598,"35":0.024040500011523726,"36":0.3170813854739884,"37":-0.5602948346590929,"38":-0.6879806031820372,"39":-0.4609023758684261,"40":0.07547904162089292,"41":0.4016206781571031,"42":0.14711161212533605,"43":0.21364250241060034,"44":-0.40221316585909356,"45":0.6436824319378668,"46":0.2948708241863876,"47":-0.6714866337637587,"48":-0.8854367986433238,"49":-0.738704254962279,"50":0.6765763822169213,"51":0.7762943333762793,"52":1.0238376367269004,"53":0.10167927570053148,"54":0.46062581367566907,"55":0.566616784733304,"56":-0.24423310734656556,"57":-0.3924682957777809,"58":-0.7725019980870782,"59":-0.4315601313254174,"60":0.2444549105693654,"61":0.4445000272486621,"62":0.17693781661176666,"63":0.6554586804958067,"64":0.446219861845055,"65":0.25525163952091506,"66":0.33759607175106054,"67":-0.4325806870836532,"68":-0.908993660856228,"69":-0.26961533005403315,"70":0.5454010281147178,"71":0.352235208114587,"72":0.4753560420910282,"73":0.43571185167698123,"74":-0.014830108067441318,"75":0.5456293753944064,"76":0.4319753839540904,"77":0.004566068581029334,"78":-0.2383131219394774,"79":-0.08606960637598436,"80":0.6353829944075879,"81":0.21872139346283073,"82":0.7256882748692505,"83":-0.16150134642109387,"84":0.9505252754171781,"85":0.453960683816277,"86":0.05045940518905268,"87":0.47204473671003233,"88":-0.2177556756123394,"89":-0.09613650032873866,"90":-0.08554762667294652,"91":-0.2541718752595261,"92":0.15087934658753097,"93":0.7031232797473312,"94":-0.11342143971881695,"95":-0.21289917266927894,"96":-0.35726486745380553,"97":0.30934639668130115,"98":-0.44576397659851474,"99":-0.5061454315342259,"100":-0.24701278419586323,"101":-0.18344944109805678,"102":-0.058097478579666115,"103":0.04853482317653109,"104":-0.28333665697394245,"105":-0.024019839702885303,"106":-0.5676343484439033,"107":-0.3260852141867763,"108":-0.17671430158007156,"109":-0.32113629939338145,"110":-0.4281546113959792,"111":-0.5209863568628181,"112":-0.6082477005000353,"113":-0.8237390905821719,"114":-0.003043600001369608,"115":0.17975797379256378,"116":-0.14527078368580576,"117":-0.049824592114364574,"118":-0.05855614111557345,"119":0.26415137594006377,"120":-0.12782824252098135,"121":-0.30204434450740764,"122":-1.0095739678751348,"123":-0.5074566420465398,"124":-0.6043018392168013,"125":0.12085182697363994,"126":0.11750740194698941,"127":0.4464130905007834,"128":0.31327842780009396,"129":-0.16088912306736944,"130":-0.4705423841873708,"131":-0.4377600362629962,"132":-1.0774687939703511,"133":-0.7258873512554526,"134":-0.3931692795037495,"135":-0.6280864524244488,"136":-0.20265420839569973,"137":0.08151739485754889,"138":0.35679136672618905,"139":0.0730070819965572,"140":-0.12541357373731374,"141":0.17034554201177096,"142":0.5497040385269796,"143":0.17718491213890003,"144":0.06672344397168009,"145":0.5375333826217968,"146":0.1413396910792883,"147":-0.5708910034921605,"148":0.5292382337822313,"149":-0.25082249337432666}},"21":{"bias":-0.7062461631970365,"weights":{"0":-0.4311006118233433,"1":-0.6895442457079113,"2":-0.35156279932942136,"3":0.1708648166559065,"4":0.17546090244850784,"5":0.02745278382554824,"6":0.45575781388991465,"7":-0.24012028920410453,"8":-0.397333972623941,"9":0.7314301820910122,"10":-0.2970863536564556,"11":-0.3681680710456243,"12":-0.17789850729954568,"13":0.891583882748103,"14":-0.02125878410454467,"15":0.09171577779405321,"16":-0.3135164273955698,"17":-0.12659337499100784,"18":-0.015140537356509592,"19":1.0390944344085415,"20":0.03697895391874571,"21":-0.3810343923388401,"22":0.23420205230069693,"23":1.1818710801803731,"24":0.25709417225310727,"25":-0.06167226022180487,"26":0.06909884766891505,"27":0.005385563466462383,"28":0.269362096054421,"29":0.40528084637357803,"30":-0.2332608696485359,"31":0.42212149301197166,"32":0.6164351374836068,"33":0.42726582666558854,"34":0.10199407146108111,"35":0.3740121868176671,"36":0.09421046438588576,"37":0.468598533511023,"38":0.2691860567011914,"39":-0.02275429239947884,"40":-0.5306681147189369,"41":0.07197835916767759,"42":-0.032927532727351466,"43":0.2036380455995238,"44":0.6892256650980362,"45":0.3993198464601589,"46":-0.4178784164119381,"47":0.22896243709473169,"48":0.3300958559926851,"49":0.13843695078149887,"50":-0.7707061523616958,"51":-0.2884960979327103,"52":0.3171313919138842,"53":0.020747738355348294,"54":0.33675936557594144,"55":-0.40711152574777637,"56":-0.2917347836163404,"57":0.12136361197151702,"58":0.05133166349292132,"59":-0.39636481922144606,"60":-0.01813316793144976,"61":-0.42376851765738605,"62":-0.05535151472433061,"63":-0.2281283863368695,"64":-0.7813783917826216,"65":-0.5073251152456612,"66":-0.3505674862795147,"67":0.17171761446868086,"68":-0.37102857766312974,"69":-0.051800803168315646,"70":0.15392365032955435,"71":-0.3388839382760986,"72":0.4034856701308917,"73":-0.13401627095881066,"74":-0.34601960895764,"75":-0.7082867675959578,"76":-0.14989776305619143,"77":-0.8356862985341786,"78":-0.08880132871266773,"79":-0.019527394140245714,"80":-0.4194391666004582,"81":-0.44834149121884725,"82":-0.061020534446176,"83":0.12543608239105572,"84":-0.025481208405506835,"85":-0.5715081193794119,"86":0.1296191140292774,"87":-0.5264490373531632,"88":-0.48600904885587365,"89":-0.06458710815810961,"90":-0.19230503691381282,"91":-0.28465771085262853,"92":0.24997127169306765,"93":0.30418782526703453,"94":0.006217788704274361,"95":-0.5400279332685957,"96":-0.30167185391359824,"97":-0.2865425167168296,"98":-0.45456643593149715,"99":0.12894197739385954,"100":-0.015038218256506398,"101":0.010764676164767832,"102":0.02866192107810982,"103":0.7198560102830505,"104":-0.014480360947297615,"105":-0.07570755586824826,"106":0.3005623169335005,"107":-0.15258757408753237,"108":0.011513051493351247,"109":-0.1301138112893548,"110":-0.05549276490794351,"111":0.26422482164674715,"112":0.47282111855472303,"113":0.7878512064668416,"114":0.1503088420236117,"115":0.24733963135737955,"116":-0.3562044366326902,"117":-0.06703798050532234,"118":0.41060555289160405,"119":-0.10499594310958166,"120":-0.5020831903500167,"121":0.458182556441336,"122":0.7977581933338435,"123":1.2619889445987709,"124":-0.010744175863518694,"125":0.6747295629783316,"126":0.34123416495759445,"127":0.62776563559928,"128":0.2546814569084779,"129":0.09809089136185171,"130":0.1763274751756968,"131":0.019640991702423963,"132":0.42949950766093287,"133":0.4354324802121462,"134":-0.037196741870087965,"135":0.23026742527459104,"136":0.19611952307405306,"137":0.35472648731507456,"138":0.431162052538089,"139":0.135511986092624,"140":0.6662102770332289,"141":0.19240025273453698,"142":-0.40009468678052407,"143":-0.25189329895808754,"144":-0.44996708412742176,"145":0.03340478308437875,"146":-0.5590120855002246,"147":-0.04575796721714036,"148":-0.3504713759304833,"149":-0.137264235745577}},"22":{"bias":-0.1550455778432094,"weights":{"0":0.36970306761045185,"1":0.21401557972596366,"2":0.31455242597425925,"3":0.39317501286419776,"4":-0.5499789828243672,"5":-0.23099616568204986,"6":0.661287151745837,"7":0.3915896470254459,"8":0.14595362946592336,"9":-0.08143166692932563,"10":-0.23001058747273562,"11":0.4795498140747619,"12":0.1999634449105858,"13":-0.4234869307402869,"14":-0.5871132141873967,"15":0.16256967369047023,"16":0.20677724360703367,"17":0.42139866830976447,"18":0.13388705012123941,"19":-0.5728760847998983,"20":-0.27723871036253017,"21":0.00756956856918143,"22":-0.0017138610715576009,"23":0.4113830474538374,"24":0.03891258675960597,"25":0.30404441622633477,"26":0.31551424814046086,"27":0.23545334370658882,"28":0.4408362100116901,"29":-0.022661029329918987,"30":-0.4807067112410515,"31":-0.5316480093007044,"32":-0.2918056365135937,"33":-0.3560550318406957,"34":0.09122948007805759,"35":0.2522395567309829,"36":-0.7530727593881955,"37":0.14023369504252606,"38":0.0009567462728911327,"39":0.18237773236607205,"40":-0.883423928094415,"41":-0.44460042234118746,"42":-0.5174460755481196,"43":-0.4026291340147829,"44":0.15349086727344954,"45":0.003779142615080169,"46":-0.4690479541006297,"47":0.017666927644219975,"48":0.2866582028327776,"49":0.5097177836470599,"50":-0.524761712805598,"51":-0.25759243243636415,"52":-0.5637576675403273,"53":0.253236190169419,"54":0.3779647472549693,"55":0.2439852866858323,"56":-0.038966385349746,"57":-0.05483642497489716,"58":0.07570196795543307,"59":0.5107690599658673,"60":-0.18990246459522023,"61":-0.312670760067414,"62":0.31231141468784795,"63":0.29992431074003567,"64":0.02928785388957231,"65":0.11084578375514065,"66":-0.26697814326007957,"67":0.3268924965337128,"68":0.09187350062658378,"69":0.47412276224706573,"70":-0.49397118273055385,"71":0.1060814383024451,"72":0.3530923689487454,"73":0.6105447888280493,"74":-0.09845280984960933,"75":0.39670545160267023,"76":-0.3556516344722967,"77":-0.42835254999463285,"78":-0.15282784963351095,"79":0.5022286954030771,"80":-0.4872369479205484,"81":0.052752455305527,"82":0.8860450689388036,"83":0.08847183233351191,"84":-0.3015020232929482,"85":-0.5095010922688986,"86":0.21928374663506162,"87":0.31412252896703974,"88":0.14491180258892927,"89":0.8305106192080521,"90":-0.2116069574290108,"91":0.285111125426064,"92":-0.2071218415652563,"93":-0.2311857110766548,"94":-0.05986234534921772,"95":-0.5943351078891732,"96":-0.29307280733410274,"97":-0.4160387520982959,"98":-0.1533251295420346,"99":0.45514896619399886,"100":0.0602995878221264,"101":-0.046766236521445285,"102":-0.24583886810838923,"103":-0.18752055524360484,"104":-0.7965165447255532,"105":0.12302451293122639,"106":-0.47142942217017725,"107":-0.5472977717010599,"108":-0.09889687096169719,"109":0.4695255337805763,"110":0.07782862188145301,"111":-0.27227869253933057,"112":-0.02329918015585735,"113":-0.3225824272780627,"114":-0.49737626656447176,"115":-0.44014725207676303,"116":-0.17677272113501238,"117":-0.39352308146630366,"118":-0.45052978381852476,"119":0.5073316504259171,"120":-0.34448319104167596,"121":-0.059960207149949867,"122":0.1980113777674834,"123":-0.20834946433978213,"124":-0.35340688870941783,"125":0.4032057644923534,"126":-0.08040050540584641,"127":0.13995687147625446,"128":-0.2776996035515092,"129":0.0392521101825832,"130":-0.022997130252446447,"131":-0.06902025874631357,"132":0.6919989071355503,"133":0.15182540472495773,"134":0.9679916535269405,"135":0.2664514061445338,"136":1.06304416175655,"137":0.2557977836520024,"138":-0.5012292977213568,"139":-0.6715441123829547,"140":-0.2291820898567243,"141":0.16163684883429033,"142":0.22381919245563428,"143":0.21430074204601757,"144":0.5361314292320432,"145":1.29007542450508,"146":0.49555396604178864,"147":0.23815431062447578,"148":0.38900006031860107,"149":0.047736258963810216}},"23":{"bias":0.32740294276968646,"weights":{"0":-0.3439817681850009,"1":-0.3775831169470586,"2":-0.19856353078732938,"3":0.39326748663943456,"4":0.44506540450066967,"5":0.41237107894991515,"6":0.1763654465794071,"7":0.41869872661507845,"8":0.6648945783522101,"9":0.5824641549497871,"10":-0.5596628982196568,"11":0.0664839127848626,"12":-0.2429598397424153,"13":0.17401930288600462,"14":0.4211459547093711,"15":0.28133889287501906,"16":0.5334410687781411,"17":0.21022880879146918,"18":0.8016032560929769,"19":0.40490591057767195,"20":-0.03637784959400312,"21":0.15289022916057673,"22":0.07782714256029402,"23":-0.23759865295844548,"24":-0.08515761786839741,"25":-0.029140998044420763,"26":0.3249271966518226,"27":0.6816496208822379,"28":0.0822921341191482,"29":-0.4053921398414072,"30":0.1262557079407037,"31":-0.15643857991097146,"32":-0.11680933685972487,"33":-0.4624356550272723,"34":-0.34778611855128927,"35":-0.5908263882856082,"36":-0.355295084146517,"37":0.24455563213121648,"38":0.5675510853886514,"39":0.1549691502938558,"40":0.2631217859459981,"41":-0.635081704128369,"42":0.48490376413191144,"43":-0.18585467556204258,"44":0.07162881744480565,"45":0.15129367780007463,"46":-0.030050842814263318,"47":0.5154972999156167,"48":0.11084991961570351,"49":0.609719602131897,"50":0.07185296276399815,"51":-0.49920019959444023,"52":-0.07279493563204908,"53":0.11806607136849938,"54":-0.4029175044372892,"55":-0.7914796337460924,"56":0.6941361958309542,"57":0.6226399594578588,"58":0.5103703503837369,"59":0.6488957674650103,"60":-0.29870507815686226,"61":-0.20889916252851576,"62":0.6526786702406788,"63":-0.07826024200812691,"64":0.09195848458026588,"65":-0.260749227287842,"66":0.1796159863979118,"67":-0.21944964516704454,"68":0.30191620389639084,"69":0.035901288096559,"70":-0.3428892642517598,"71":0.1558024385909589,"72":0.5652486395137482,"73":0.8016308271487445,"74":-0.08638009350010678,"75":-0.4852748051142457,"76":-0.2827360827427815,"77":0.26398105662503735,"78":0.05908443854601159,"79":-0.08820409592112838,"80":-0.09903594640185749,"81":0.3093241953930887,"82":0.19572063040034385,"83":-0.006984037875397123,"84":-0.050995523773165054,"85":-0.641286560371548,"86":-0.028519208102759666,"87":0.08656820754300923,"88":0.18239142619519377,"89":0.3388500395861845,"90":0.5573636472358285,"91":0.3141682456476266,"92":0.33550365255902614,"93":0.15457057603139812,"94":-0.2259165771266813,"95":-0.6542162324088145,"96":-0.22481142714764543,"97":-0.43288670199572116,"98":-0.3418578868824523,"99":-0.02714651920108744,"100":0.16067614456933801,"101":0.48490889737637255,"102":-0.06190411775724482,"103":-0.18705224595719427,"104":-0.07950061753660735,"105":-0.7584795340744503,"106":-0.20819693978581488,"107":-0.5963752620581344,"108":-0.5824498871902397,"109":-0.08545944258294928,"110":-0.5381437057988588,"111":-0.3714545528138257,"112":-0.3023780477433738,"113":-0.1588555267010904,"114":-0.7339083079189654,"115":-0.5083794261931639,"116":-0.19997372982185146,"117":-0.2984044836760029,"118":-0.7975684106858013,"119":-0.21875329931431345,"120":-0.9510556168637543,"121":-0.2820159138157948,"122":-0.6501299833150302,"123":0.14864553959224075,"124":-0.2404485150194402,"125":0.07114509352344262,"126":-0.0884515126377886,"127":-0.6065556153069867,"128":-0.6914030225466444,"129":-0.8823482570184435,"130":-0.892531221467274,"131":-0.6283916244065392,"132":-0.2618585619007136,"133":0.5983486671210149,"134":0.6718827572150932,"135":0.5527069119099088,"136":-0.010988198546905246,"137":-0.6904776844824558,"138":-0.7906077769998071,"139":-1.2247824491172679,"140":-0.2061638245780567,"141":-0.00248788029223524,"142":0.011278313609467292,"143":0.9604950810708409,"144":1.0335432875984074,"145":0.6872547250339788,"146":-0.18252690591061668,"147":0.05762294498407401,"148":0.846534966096451,"149":-0.06948947094751319}},"24":{"bias":0.0042824434632939105,"weights":{"0":-0.12363317863239262,"1":0.28514455462340205,"2":0.2178123035709529,"3":0.472233405796805,"4":-0.21816136390306062,"5":0.05546820678238952,"6":0.46953017495299865,"7":0.5170978277812298,"8":-0.02358497184860211,"9":-0.11925314218180784,"10":-0.21160234425333393,"11":0.11119045688614104,"12":0.1715381893801612,"13":0.0038575756400247413,"14":0.030193552827478747,"15":0.33802461999078887,"16":0.2659236312718405,"17":-0.04747910602886536,"18":-0.4230916303950161,"19":0.15625959296413663,"20":0.28275326363982917,"21":0.2895620420685056,"22":-0.04620586917652463,"23":-0.200914924478856,"24":0.23301472040663807,"25":0.7485010774476173,"26":-0.003740793852859027,"27":0.2477654326737571,"28":-0.009640358416851121,"29":0.05586321635306681,"30":0.31319004873036393,"31":-0.1214311820754425,"32":-0.013102649374085023,"33":0.16744376234491076,"34":0.19720592058412859,"35":0.5273603366488614,"36":-0.11731037628610395,"37":0.41785424720278735,"38":0.2482909488601628,"39":-0.1725781579430357,"40":-0.20721542066237567,"41":-0.05017073529096336,"42":-0.021230763560106142,"43":0.3382761520330658,"44":0.223855009193304,"45":0.0012079706323663564,"46":-0.10440299916568688,"47":0.2755957398604271,"48":0.06784620303531366,"49":0.4192342437540315,"50":-0.2522949433918397,"51":-0.499972639649336,"52":0.04634182571538899,"53":0.17651581332545344,"54":-0.2996840419473762,"55":-0.01323729514258441,"56":0.21967006151906932,"57":0.05485992709928308,"58":0.45960350514936615,"59":0.10206404000527494,"60":0.38992137916110947,"61":0.19321081328110065,"62":-0.5631814397694174,"63":-0.5032298188448545,"64":-0.4218598091847645,"65":0.08607825173281103,"66":-0.15550422294851263,"67":0.043072419691300406,"68":0.25125699034135107,"69":-0.13786677526278374,"70":0.19793592783258324,"71":-0.18217698227005566,"72":-0.41242531191996956,"73":0.08910419999794322,"74":0.07476716608467412,"75":-0.2954145264592479,"76":-0.7443238918575278,"77":0.10600538104485405,"78":0.1601734743355015,"79":-0.23122259920790864,"80":-0.12084947187476729,"81":-0.28466065652917216,"82":-0.2801091747253051,"83":0.279855728381794,"84":0.15946758949474382,"85":-0.9820232382247845,"86":-0.7689465825768909,"87":-0.3690885191841049,"88":0.11558153487598559,"89":0.1363054937596557,"90":0.1525957060184866,"91":-0.18433887780738448,"92":0.00592522542183289,"93":0.17832518186571378,"94":0.1112208877275876,"95":-0.4119549338982414,"96":-0.1766548553795443,"97":-0.9030545335699937,"98":-0.6702930259094408,"99":-0.07885156212383912,"100":0.13665447183131169,"101":0.11902923235580597,"102":0.2133132327282931,"103":-0.19002115039429254,"104":-0.009627452573000805,"105":-0.2912301237326252,"106":-0.45454409998062134,"107":-0.602074982736376,"108":-0.8245467216991506,"109":-0.402351696012934,"110":0.21951280188968417,"111":0.2638542918038352,"112":0.22987299712949114,"113":-0.04235066656115607,"114":-0.34029094727185466,"115":0.005353268757349381,"116":-0.03168432850989965,"117":-0.46341610654195287,"118":-0.8998290188023695,"119":-0.5149845013762029,"120":-0.053219658655403575,"121":0.1739894934241037,"122":0.27530852399026295,"123":0.269242792482036,"124":0.04732138100888587,"125":-0.03531315709231052,"126":0.01077589901724917,"127":-0.3817334898037403,"128":-1.1650695169178693,"129":-0.6525424455093543,"130":-0.09988394402012687,"131":0.2058256214980455,"132":0.2661296309307509,"133":0.32934387478284854,"134":0.46873701050347366,"135":0.3568425075350493,"136":0.10316912735748823,"137":-0.2956990550510394,"138":-1.0111173642234146,"139":-0.9739476354120381,"140":-0.25381350150160875,"141":-0.18405185504774754,"142":0.4910248029449164,"143":0.08710541637342749,"144":0.3201842973008854,"145":0.46105667306216985,"146":-0.1416674098899942,"147":-0.3681570031644151,"148":-0.3802778592658403,"149":-0.2025865601027919}},"25":{"bias":-0.730031153829539,"weights":{"0":0.16002422699409957,"1":-0.1610657324291462,"2":-0.5860729063948746,"3":-0.7075929137837327,"4":-0.6099312195134762,"5":-0.1630399013494672,"6":-0.602970609172414,"7":-0.505525341111965,"8":-0.6724587449108252,"9":0.19725555084072116,"10":0.0410738209803713,"11":-1.1354237321355187,"12":-0.739598787523495,"13":-1.4189770284877372,"14":-0.7769400913171932,"15":-0.9551809605502807,"16":0.12051722875649903,"17":-0.5851931074528609,"18":0.2892511846173071,"19":-0.07633116510226899,"20":-0.8091824411419543,"21":0.2364212675070624,"22":-0.6941658577549376,"23":-0.2818151470843981,"24":-0.2592625043807672,"25":-0.9357005255924699,"26":-0.29944855902986084,"27":0.006738582429412957,"28":-0.4659634858483514,"29":0.13703600753543982,"30":-0.22235287514427018,"31":0.5644309712179372,"32":-0.20281810414088067,"33":-0.9574851877409665,"34":-1.3463346860756316,"35":-0.6138567999117902,"36":-0.5570791035798704,"37":-0.2758020903977421,"38":0.2474847614919122,"39":0.2934173659921533,"40":1.395346960320198,"41":0.047703451190264375,"42":-0.11330527585191683,"43":-0.6444802412586316,"44":-0.7084706633910827,"45":-0.6541550330355655,"46":0.27410394308265423,"47":-0.5776645263736953,"48":0.5550330217306864,"49":0.6340235249340208,"50":1.4746303383052648,"51":0.1741682147966133,"52":-0.41382024764871317,"53":0.37081229521032993,"54":-0.2575064504078858,"55":0.06805802456402886,"56":0.6745591242448574,"57":0.39962103018101347,"58":0.3151598350291603,