{"layers":[{"0":{},"1":{},"2":{},"3":{},"4":{},"5":{},"6":{},"7":{},"8":{},"9":{},"10":{},"11":{},"12":{},"13":{},"14":{},"15":{},"16":{},"17":{},"18":{},"19":{},"20":{},"21":{},"22":{},"23":{},"24":{},"25":{},"26":{},"27":{},"28":{},"29":{},"30":{},"31":{},"32":{},"33":{},"34":{},"35":{},"36":{},"37":{},"38":{},"39":{},"40":{},"41":{},"42":{},"43":{},"44":{},"45":{},"46":{},"47":{},"48":{},"49":{},"50":{},"51":{},"52":{},"53":{},"54":{},"55":{},"56":{},"57":{},"58":{},"59":{},"60":{},"61":{},"62":{},"63":{},"64":{},"65":{},"66":{},"67":{},"68":{},"69":{},"70":{},"71":{},"72":{},"73":{},"74":{},"75":{},"76":{},"77":{},"78":{},"79":{},"80":{},"81":{},"82":{},"83":{},"84":{},"85":{},"86":{},"87":{},"88":{},"89":{},"90":{},"91":{},"92":{},"93":{},"94":{},"95":{},"96":{},"97":{},"98":{},"99":{},"100":{},"101":{},"102":{},"103":{},"104":{},"105":{},"106":{},"107":{},"108":{},"109":{},"110":{},"111":{},"112":{},"113":{},"114":{},"115":{},"116":{},"117":{},"118":{},"119":{},"120":{},"121":{},"122":{},"123":{},"124":{},"125":{},"126":{},"127":{},"128":{},"129":{},"130":{},"131":{},"132":{},"133":{},"134":{},"135":{},"136":{},"137":{},"138":{},"139":{},"140":{},"141":{},"142":{},"143":{},"144":{},"145":{},"146":{},"147":{},"148":{},"149":{}},{"0":{"bias":0.5954024791958992,"weights":{"0":-0.31329069539790594,"1":-0.03889174215309502,"2":-0.3368994214673654,"3":0.3175738002441367,"4":-0.43033805585109436,"5":0.3941964098185354,"6":-0.11355455679068786,"7":0.22353195506479603,"8":-0.1421171386899935,"9":-0.22178761020782417,"10":0.07496952366473017,"11":-0.6844333532642529,"12":-0.1658836355423532,"13":0.16873644146857886,"14":-0.6169035439441185,"15":-0.37665477719552004,"16":-0.8247181556773936,"17":-0.12894302714160444,"18":-1.0384177190944106,"19":0.39164247836994903,"20":0.26530424059677055,"21":-0.6613776344640337,"22":-0.318425503920515,"23":0.13299192718218972,"24":-0.5488431866058581,"25":-0.3206164141420876,"26":-0.717027372843055,"27":-0.004398392740706661,"28":-0.6903675165645221,"29":0.3305199459578378,"30":-0.24262744130750447,"31":-0.3766241342552392,"32":0.6074556687596527,"33":0.3457762930942787,"34":0.10437077125731532,"35":0.5728875478441665,"36":0.8257497770427205,"37":0.625802639900508,"38":-0.018020449799371164,"39":-0.566082779945286,"40":-0.09254418488723827,"41":0.46924778021676883,"42":0.45038764287513194,"43":0.19737606465779048,"44":0.14370144890732514,"45":0.31071088332624447,"46":0.6995490694090286,"47":0.4378330578837787,"48":0.3169243596312101,"49":-0.3242945158251405,"50":-0.41228907423241945,"51":0.5453714826384702,"52":0.18320654883239093,"53":0.236830685379788,"54":0.2907156104541709,"55":0.020419605261955995,"56":-0.06388685147314016,"57":-0.08710193027680978,"58":0.07668694517188707,"59":-0.3171826159635564,"60":0.03129636677266779,"61":0.36859731256136896,"62":-0.8244685654619741,"63":-0.13920562519792865,"64":-0.6139977604343098,"65":0.39203970516395625,"66":-0.3712087799307508,"67":-0.1715404371483197,"68":-0.04633971138506045,"69":-0.13875425923927917,"70":0.5500714763010555,"71":-0.1581310028614234,"72":-0.08842084718633657,"73":-0.24096894259537477,"74":-0.33675981713424813,"75":-0.41174356420621544,"76":-0.7954687638065303,"77":-0.5311399504922469,"78":0.17172766179084725,"79":0.045173258033787675,"80":0.010161581847002853,"81":0.5883755593795121,"82":-0.09793736837125808,"83":-0.2750486512870574,"84":0.04442529531781762,"85":-0.14967724316193412,"86":-0.280228369188611,"87":-0.7769130380945566,"88":-0.31020412257110147,"89":0.11438518409831923,"90":0.1247150821245517,"91":-0.09107758021724148,"92":0.5850916732857511,"93":0.4034135278896155,"94":0.17131029036147147,"95":-0.21064489073585946,"96":-0.4587719723980023,"97":-0.5930696135051314,"98":0.016927772041478596,"99":0.18804716062873825,"100":0.9234555435429536,"101":0.3133685172157416,"102":0.4398989820700687,"103":0.7180428668458327,"104":0.650003101803689,"105":0.010553408521689005,"106":-0.39336750003749466,"107":-0.4021810430547751,"108":0.47071031469369723,"109":-0.444866533133203,"110":0.12632841102298004,"111":0.5280879455720093,"112":0.43961200996079014,"113":0.5485008928533764,"114":0.26296911188220456,"115":0.05829031918196709,"116":0.3391736280393725,"117":-0.23642613826206924,"118":0.8633513630927351,"119":0.43616546295813385,"120":0.2623581773399701,"121":0.6728762803966112,"122":0.8819231404640211,"123":0.15759525832876237,"124":-0.350820268761938,"125":-0.7288019171199112,"126":-0.04624932602194116,"127":0.33831344053161605,"128":0.054371319340742914,"129":0.12379882397855696,"130":0.5615583728145126,"131":0.5705626436274988,"132":-0.1740765431033743,"133":-0.5767117783693608,"134":-0.7725601101076354,"135":-1.015028129019745,"136":-1.2805159458951643,"137":0.4581946425321385,"138":0.5471821011027358,"139":0.21308955949405736,"140":0.25145526969474935,"141":-0.4487801335006304,"142":-0.19197826976641957,"143":-0.19201036870886315,"144":-0.7143287912962288,"145":-0.24145893505180388,"146":-0.41493622475230896,"147":0.16113712753124942,"148":0.05180490216613857,"149":0.7285312425378416}},"1":{"bias":0.09513131773746997,"weights":{"0":-0.35089721623635634,"1":0.23973679891756197,"2":-0.42828520494330985,"3":-0.8467798581113118,"4":0.2636422317913409,"5":-0.8123401931534193,"6":-0.057975570483174005,"7":0.6424989500208078,"8":-0.7148409597286339,"9":-0.49228157739626754,"10":-0.3020196928765726,"11":-1.0593230676899068,"12":-0.39233515071742303,"13":-0.954004892161299,"14":-0.45513419989080534,"15":-0.20665978313894967,"16":0.3099894327185797,"17":-0.364585509530217,"18":-0.6054838669017245,"19":-0.5882129654468056,"20":-0.6658635954431993,"21":-0.651832192271112,"22":-0.3974389588046903,"23":0.06863233276447571,"24":0.38521575626852567,"25":-0.11004147109035482,"26":-0.10912380409228135,"27":-0.13002889176801644,"28":-0.3392965887518978,"29":0.21690190236550125,"30":-0.39193803285571616,"31":-0.045348793582847484,"32":0.29738798299567293,"33":0.7674055017259458,"34":0.35256053371569795,"35":0.4561832195339393,"36":0.46333893443876567,"37":0.04832168474054362,"38":-0.2590764015414588,"39":-0.8992174184586716,"40":-0.7349666527557175,"41":-0.2744058190160443,"42":0.07935708994095408,"43":0.33230558195990156,"44":0.033238757997300625,"45":0.16195353411459765,"46":0.008110571083371312,"47":0.39772322453222275,"48":-0.028499306612913756,"49":-0.7554626980366278,"50":-0.628662975974617,"51":-0.4045227716088643,"52":0.5820461571687633,"53":0.10857390479765917,"54":0.34424245869442593,"55":0.13170929437223328,"56":0.07694851550344403,"57":-0.40004939039510723,"58":-0.978810570694999,"59":-0.13681260700692702,"60":-1.7967863689196952,"61":0.07516731476131099,"62":0.3495702482924094,"63":0.13528230027218827,"64":-0.03790028933575593,"65":-0.2093149306593972,"66":-0.34264029211164115,"67":-0.003750644924865439,"68":-0.8406962801182305,"69":-0.44092734694657737,"70":-0.2585680421303589,"71":0.12941421193578714,"72":0.46691948655600624,"73":0.4552440094319238,"74":0.7965034576421253,"75":-0.31993541941514814,"76":-0.702210605910634,"77":-0.8433631665989162,"78":-0.7218571282389047,"79":-0.23355188356057385,"80":-0.49445997033322153,"81":-0.5902511483632199,"82":0.1758014959241572,"83":0.5850329285175673,"84":0.5352137799267991,"85":-0.06905375884949204,"86":-0.7974597961815676,"87":-0.06647279365822242,"88":-0.08148595369513385,"89":0.24978540808496552,"90":0.03410599193267049,"91":-0.09510117340889919,"92":-0.3980216282411344,"93":-0.14829551565201587,"94":0.21587544170952988,"95":-0.33560371921409,"96":-0.51113296778313,"97":0.29136465225578273,"98":0.1699933838277263,"99":-0.613177507199047,"100":0.23280606311517282,"101":-0.08029447747696863,"102":0.23481770754330414,"103":-0.584368402741014,"104":-0.27400394317565424,"105":-0.6811605374842148,"106":0.6317012756559149,"107":0.1624929939777319,"108":0.031021384476543637,"109":-0.4379999037118043,"110":-0.03302870190954605,"111":-0.037739803733769735,"112":0.5519988874043416,"113":0.648124963862238,"114":0.7314435469944635,"115":0.37736235136500385,"116":-0.05739860971400016,"117":-0.039484437062055115,"118":-0.07649012323343603,"119":-0.11931288465177982,"120":-0.34476830918953355,"121":0.2898010593560271,"122":-0.11465486033292568,"123":0.07791283954171797,"124":-0.5169339469211386,"125":-0.7078516080711872,"126":0.4391451714109229,"127":0.3212270335130031,"128":0.36344286444400836,"129":-0.025223675748812218,"130":0.6449886262713149,"131":0.5481164472192165,"132":0.584023794014355,"133":0.4657626457647117,"134":0.3027592286651904,"135":0.14870729289168028,"136":0.25690966985603825,"137":0.9362743864411612,"138":0.2402728757299862,"139":0.6041330417028724,"140":0.2408043692185732,"141":0.46412997360981023,"142":-0.053122867925498474,"143":0.5252007372187396,"144":0.62439067632386,"145":1.1699985370460124,"146":0.2566161596738706,"147":-0.3021866990841725,"148":-0.0022690063934477133,"149":-0.5956856401234653}},"2":{"bias":0.10442122186741767,"weights":{"0":-0.9674203461726556,"1":-0.3306288968989696,"2":-0.08904849159153001,"3":0.9265897347422534,"4":0.6237243855675921,"5":-0.10304100263045236,"6":-0.40055459700541085,"7":0.5584944384307351,"8":0.23077749512786006,"9":0.27498502293842286,"10":-0.16024742679369727,"11":-0.6198217727996905,"12":-0.23003751530633265,"13":0.5611685278717015,"14":0.4013392559005321,"15":0.039462911216687664,"16":-0.19248836265275368,"17":-0.2973044921714415,"18":0.2266978369622785,"19":-0.01916178710703103,"20":0.2786895766624729,"21":-0.39589255431956366,"22":0.11262129826611046,"23":-0.46936297097809815,"24":-0.41260442387589624,"25":-0.5738405204466711,"26":-0.4568116235485494,"27":-0.6833125015869375,"28":-0.35059589322906315,"29":0.11545111118567192,"30":-0.5830734794472265,"31":-0.33771984760202706,"32":-0.046103263539124605,"33":-0.4676452328821505,"34":-0.36215284330004427,"35":-0.35058355624523907,"36":-0.7248322122712529,"37":-0.3748861271679547,"38":-0.005456828969772978,"39":-0.3377797797235657,"40":-0.02793808069371629,"41":-0.21221565569439263,"42":-0.2624369206492655,"43":-0.41410396345704537,"44":-0.4279602890197139,"45":-0.42774256587861953,"46":-0.02367806627508613,"47":0.2822930190838782,"48":0.3268755048689952,"49":0.07819141820840758,"50":0.10199542834898231,"51":0.4906213005930134,"52":-0.3279761417151924,"53":-0.6398986284165978,"54":-0.26864298373344536,"55":0.09004180713395156,"56":0.3200766882661108,"57":1.0955865208287539,"58":0.5814299288979188,"59":-0.1927422738081747,"60":-0.01928355562715548,"61":-0.2578287825358271,"62":-0.6396261945796703,"63":-0.3224994729482393,"64":-1.0896641122990207,"65":0.03983130866442538,"66":0.5486059375614794,"67":0.43340306685297586,"68":0.17922507720778455,"69":-0.2377350483863468,"70":0.41768664042656367,"71":0.2613698812587326,"72":-0.6022630018863901,"73":-1.0421408048106662,"74":-0.3784978651795324,"75":0.5319784801678767,"76":-0.2174122674098455,"77":0.3734041071739101,"78":-0.10190809319912028,"79":0.07070193143210754,"80":0.37920745061607186,"81":0.9388348251906488,"82":-0.6610541098734611,"83":-0.5593469804910478,"84":0.05622757019502236,"85":1.3656806781526325,"86":0.7183741059116472,"87":0.22148750067381964,"88":-0.29065699334499306,"89":-0.7417014051011585,"90":0.3429625157931789,"91":-0.148809355163197,"92":0.33616985908661395,"93":0.5218198713606371,"94":0.3574274664171661,"95":0.04852813327171306,"96":0.782009849279575,"97":0.03699797732901109,"98":-0.45712935637435176,"99":-0.25132336906931974,"100":0.39294656703728853,"101":0.1258802746466579,"102":0.5254803839640174,"103":0.7015263991557315,"104":0.8551387410242547,"105":0.723947773952379,"106":0.4779869433234889,"107":0.084848239981917,"108":-0.19321481565232537,"109":-0.5254909969861016,"110":0.6527033666980885,"111":0.16845745759445077,"112":-0.3203774472175992,"113":-0.1796722755603445,"114":0.2566365103347246,"115":0.5665334528164178,"116":0.673643221397709,"117":0.25773584054323295,"118":0.34234570505279854,"119":-0.7228363083962142,"120":0.34671356882852944,"121":1.0196951115968336,"122":-0.22554878447094553,"123":-0.39526753495699934,"124":-0.24438646669660166,"125":0.2995082732550416,"126":0.16052188799258593,"127":0.024162828256769336,"128":0.0471729788702546,"129":-0.19933427740514156,"130":-0.4063768466549313,"131":0.1429412467782251,"132":-0.49635202350197005,"133":0.10643986527161019,"134":-0.5704256370587437,"135":0.4414982263316761,"136":-0.5778563634677243,"137":-0.2925560953078591,"138":0.26378751864473515,"139":-0.1430490022470036,"140":-0.43401532892363315,"141":-0.7263045622645788,"142":-0.5291666797060277,"143":0.596861189403633,"144":0.5389642846495164,"145":-1.040417661096923,"146":-0.3780526212520961,"147":0.45908681342214663,"148":0.5721075458466269,"149":0.7689957354090944}},"3":{"bias":1.9702372405694581,"weights":{"0":-0.41054368968230526,"1":0.025091956242687046,"2":0.2581966466379507,"3":-0.7816111379725806,"4":-0.7431723461611672,"5":0.27562441959015577,"6":0.43620219233751684,"7":0.20422736390974489,"8":0.10545712994585706,"9":0.38997464286764183,"10":-0.09226888570867185,"11":-0.997677427480044,"12":-1.2398625132038286,"13":-0.6553790887283156,"14":-0.15282647712100006,"15":0.24979629116199165,"16":-0.07333026535243402,"17":0.8009293321037304,"18":0.12701372582540688,"19":1.3474619872466456,"20":-0.3222365896715273,"21":-0.4124846196784065,"22":-0.6599811206616867,"23":-0.09495033759256837,"24":-0.5055515283950446,"25":0.012177039472934009,"26":0.09290265234804057,"27":0.2473092941730175,"28":0.6573320805092816,"29":0.0007751045704189677,"30":-0.5957973389581319,"31":0.6022842844535282,"32":0.03472049957192623,"33":-0.32127898002775235,"34":0.02095649339549819,"35":0.033539827783862705,"36":-0.6094830554721159,"37":0.04877739107054096,"38":0.4144940025263326,"39":0.00439999945950245,"40":-0.7397248097624131,"41":0.13017458083587213,"42":0.7483141110349398,"43":-0.03195172544466417,"44":-0.0844067663759728,"45":-0.16724971009724784,"46":-0.09532362477975345,"47":-0.16032262063834216,"48":0.7562418131151775,"49":0.14412572907299234,"50":-0.5746166886599369,"51":0.24250063386878845,"52":0.6449899065330323,"53":0.5218478498539217,"54":0.2483333260240998,"55":-0.8978443438976509,"56":-0.6751982992240964,"57":-0.828701567360405,"58":0.4314230237411658,"59":-0.581291829604058,"60":-0.7457042454698631,"61":0.037257786489714124,"62":-0.07147239272443555,"63":0.179155339507379,"64":0.2531304431074928,"65":-0.49602742700659785,"66":-0.5191209015055421,"67":0.1431756879791528,"68":-0.10315234246933447,"69":-1.0221144739559254,"70":0.4208993274940446,"71":-0.029121246099740008,"72":0.19068033416339236,"73":0.02886624718588587,"74":0.7405194573971945,"75":0.029036099448439136,"76":-0.6292503458307498,"77":-0.5632301943511865,"78":-0.3201520743060033,"79":-1.0429219664842855,"80":0.08720214275647685,"81":0.24772852124586112,"82":0.4668820042941368,"83":-0.18163994152642382,"84":0.009657885459333711,"85":-0.2572859111503724,"86":-0.29877837603493496,"87":-0.04542596883587463,"88":-0.7323635740951296,"89":-0.2976703590166267,"90":-0.5376379469302334,"91":-0.25825144769073816,"92":0.6937193259267993,"93":-0.08859136146496131,"94":0.40654752524298865,"95":0.04572350343541372,"96":-0.5660211532214067,"97":0.04901054376845986,"98":-0.8855464953118654,"99":-0.8436112468257027,"100":-0.8097473272141541,"101":0.4158771785332277,"102":0.46051965344842366,"103":0.744482713033182,"104":0.11022397627516549,"105":-0.27328249801189275,"106":-0.22457701458625462,"107":-0.49934470119537616,"108":-0.9048426009273496,"109":-0.8313019498268145,"110":-0.48772136054774257,"111":0.3566463726225673,"112":0.36050659595293444,"113":0.4304889484514305,"114":0.25368356568758005,"115":0.46673092626499935,"116":-0.15753957015856376,"117":-0.15071844483139885,"118":0.06854084776589943,"119":-0.1970084185892187,"120":-0.8831433634354273,"121":0.5651493133701806,"122":0.5384507990642141,"123":0.5647107221162635,"124":-0.523417405607305,"125":0.32877016797445474,"126":0.09707957912890032,"127":-0.1854477109172654,"128":-0.2042900191899806,"129":-0.9910724636348189,"130":-0.2207135872940954,"131":0.11863357174483989,"132":-0.5857314104454565,"133":-0.28585634993041137,"134":-1.084745007423791,"135":0.06475494583213323,"136":-0.31877762513218855,"137":-0.20976692354092996,"138":-0.6553859369681454,"139":-0.5227352772553795,"140":0.21976455295652952,"141":0.5023814408762683,"142":-0.14938710432726074,"143":-0.49295690190531777,"144":-0.2145923743907079,"145":0.3908254555286422,"146":-0.04192084920349333,"147":0.25031536830482204,"148":0.6360392155459182,"149":0.44036216697266567}},"4":{"bias":-0.2855498459265205,"weights":{"0":-0.22901720065944306,"1":-0.26093196554742726,"2":-0.0648765933837556,"3":0.11749270897493416,"4":-0.3169126097013324,"5":0.44423585491025724,"6":0.22463880572129344,"7":-0.42260633010203247,"8":0.2664618784374301,"9":0.6267369279025169,"10":-0.27806663844604895,"11":-0.008770012325210491,"12":-0.38865257282340165,"13":0.3178899460186475,"14":0.752101638482254,"15":0.56417991217121,"16":-0.4476128479017334,"17":0.0035201707681500475,"18":0.4736823422294806,"19":0.7786367623839201,"20":0.27243633332700645,"21":0.20162768671088413,"22":0.21030460686938757,"23":-0.2409934260381392,"24":0.5385090839222543,"25":-0.10296108039245165,"26":0.15534772305549968,"27":0.8051979757130537,"28":0.25001186707721695,"29":0.31843063982531633,"30":0.11786249465834907,"31":0.13180880496671382,"32":-0.4485932875294194,"33":-0.49902730986573757,"34":0.7496574486526305,"35":-0.007325211056465208,"36":0.29697356525903335,"37":0.4211563570995646,"38":0.8073599049476594,"39":0.5369557112412296,"40":0.09249284714986282,"41":0.3225516814002048,"42":-0.021289815978424265,"43":-0.5620639078045324,"44":0.5815955394942074,"45":0.28581470483699895,"46":0.23245503402332554,"47":0.05978013629923863,"48":0.29493801520916857,"49":0.22956090762992246,"50":0.021990464674195964,"51":-0.07028193058828083,"52":0.2617441069514991,"53":0.20654179373947554,"54":0.47051143834904785,"55":0.27797521554809873,"56":-0.005475317451254923,"57":-0.30296938274857343,"58":0.6978023423788727,"59":0.013175422594594524,"60":0.10548416155632355,"61":0.1734996354760476,"62":0.36765080662164096,"63":-0.16082536360311497,"64":0.1932539211085701,"65":0.48392996097572916,"66":0.1916168981895062,"67":0.058611340192455556,"68":0.28768279899966176,"69":0.588214941735887,"70":0.01860769040663889,"71":0.4153704501701241,"72":-0.33114878914772794,"73":-0.0006776771405333892,"74":-0.11553428613342741,"75":0.5433646463521027,"76":0.4701029641763939,"77":0.2719597360072126,"78":0.8050629363348942,"79":0.5409530854148525,"80":0.46927730815429897,"81":0.6892354260614714,"82":0.4053220240209713,"83":0.29627305180740443,"84":0.0018383386644628215,"85":0.371712715908205,"86":0.794330065236109,"87":0.6798076200914984,"88":0.6089139065042785,"89":0.8812406948630702,"90":0.22941620050883968,"91":0.3035216289001699,"92":0.522164603163958,"93":-0.09757263380682037,"94":-0.39417141097080327,"95":0.30838455650793756,"96":0.4034274827483218,"97":-0.17877109589832288,"98":-0.46389540151148567,"99":-0.585279356202309,"100":0.22233961172253766,"101":-0.08986627894120391,"102":0.31675019301925056,"103":0.005724460124349438,"104":-0.6427674271356446,"105":-0.09999191379265034,"106":-0.5150338957428471,"107":-0.04070680864636841,"108":-0.39355821396176716,"109":-0.5284971056563069,"110":-0.7212947094383343,"111":-0.31414093525588627,"112":0.028488230234554473,"113":-0.332129084887229,"114":-0.509080982722178,"115":-0.10861217322117676,"116":-0.1129654597797635,"117":0.1890809803704439,"118":0.10429143671924088,"119":-0.865944757360756,"120":-0.8508462941451126,"121":0.403951908014778,"122":-0.03749785406608199,"123":-0.4650651099865734,"124":-0.4666647417231203,"125":-0.4062192743333212,"126":-0.02895255677557917,"127":-0.026857036697109645,"128":-0.10691394383256698,"129":-0.9875415152106451,"130":-0.47981220921093065,"131":-0.6243643717849423,"132":-1.1164354808520396,"133":-1.3341720903371588,"134":-0.7141301540647553,"135":-0.3585809555751323,"136":0.6392461888226431,"137":0.02417666197947509,"138":-0.2397849600764595,"139":-0.28113158647399084,"140":-0.4044989110535738,"141":-0.3172936995768925,"142":-0.6695486255585023,"143":-0.5704319236612146,"144":-0.349880644957615,"145":-0.04503410637600472,"146":0.1520838802105907,"147":0.4003967211823233,"148":-0.331408541366123,"149":0.04854060499883258}},"5":{"bias":1.2722581717716912,"weights":{"0":0.014451923877424245,"1":-0.32020595534564783,"2":0.6340676297563242,"3":-0.22575298753435738,"4":0.003947708044109882,"5":0.1669677840589142,"6":-0.32914049051240823,"7":-0.2825832280337892,"8":1.0185376711566174,"9":1.1219441331279998,"10":-0.1900030309417619,"11":0.3260310172529539,"12":0.06156592531946946,"13":-0.029092018134986162,"14":0.02332807731304959,"15":-1.1989117190982712,"16":-0.26122491490054484,"17":-0.9495919837544347,"18":0.5163491970742694,"19":1.1851004138380872,"20":-0.30786904266277104,"21":0.09176162696051701,"22":-0.09205441649134659,"23":0.4997973119984555,"24":-0.15588105600696225,"25":-0.0958847346587246,"26":0.5547258374860632,"27":-0.8886912755043287,"28":-0.5395619034015287,"29":-0.25846246128745426,"30":-0.044018829068092576,"31":0.2915842380548465,"32":0.0916420522814517,"33":-0.22449730742749716,"34":0.08884191728202746,"35":0.4486524078705902,"36":-0.19514426713062502,"37":-0.014537001145362447,"38":0.4941650382277313,"39":-0.019197012390234202,"40":-0.3440540698774934,"41":-0.01806809988469023,"42":-0.33192867944942595,"43":-0.2946004154497957,"44":-0.26516934250838836,"45":0.4812107308208008,"46":0.36964935378309255,"47":0.4174226127579727,"48":-0.21462322188206437,"49":0.05372699883891915,"50":0.9288574152353476,"51":0.1788046017600337,"52":-0.030320264960932,"53":0.3753520191508584,"54":-0.1942141263328435,"55":-0.5546628016710873,"56":0.841169564077529,"57":0.26704079588619656,"58":-0.0951389875555983,"59":-0.1893271816992478,"60":0.658431045198899,"61":1.0290528799910346,"62":0.34216951726133205,"63":0.5532872489746439,"64":0.16750849289754915,"65":-0.8591213047250588,"66":0.8321948780506541,"67":0.13948204209784576,"68":0.2700451454899665,"69":-0.23794070016963217,"70":0.7302796253530176,"71":0.42582198257692777,"72":-0.08438271713686542,"73":0.04764099060282693,"74":0.12316308330026035,"75":0.3650531341151926,"76":0.4163473968181586,"77":-0.5267025106333506,"78":0.031314556878528715,"79":-0.41110196454476866,"80":0.6611152878156106,"81":-0.2622639428853015,"82":0.11625802868235144,"83":-0.3114378756133483,"84":-0.08661328075933208,"85":-0.5403880750937821,"86":0.023090750603069567,"87":0.23682999793025478,"88":-0.63347523150779,"89":-0.619803976362622,"90":0.07462507783576101,"91":-0.29693042147931437,"92":0.12134384905402398,"93":-0.284545442412535,"94":-0.3729777048934912,"95":0.28191982447234815,"96":-0.5609439001297533,"97":0.3820146479721561,"98":0.0334470195366126,"99":-0.612195939969164,"100":-1.611780291172132,"101":-0.354083711219434,"102":-0.25141949386538326,"103":-0.590027411138429,"104":-0.6009234603936205,"105":-0.2210926156836277,"106":0.13277580946069106,"107":-0.11240451426385277,"108":-0.2950071099681758,"109":-0.4525370596766761,"110":-1.639366565538573,"111":-1.383863721230783,"112":-0.2337566370255781,"113":-0.42843903033951714,"114":-0.5453688611790344,"115":0.4256867424584338,"116":-0.6631074744133674,"117":0.026410757972386754,"118":-0.6124587993675491,"119":-0.7501051717534327,"120":-1.047154003443594,"121":-0.5344437232930299,"122":-0.9943238928229773,"123":-1.2142263764439833,"124":0.02245594868830892,"125":0.11268730972654907,"126":-0.11878112169373137,"127":-0.4421743534261662,"128":-0.43368300499581625,"129":-0.953434467054795,"130":-0.882408606450371,"131":-0.8773969928693991,"132":-0.7200225610489913,"133":0.2506469063074284,"134":0.730543734880915,"135":0.7856720991904166,"136":0.9607542249017709,"137":0.021665092149525993,"138":-0.5616734802344417,"139":-0.7627609326586327,"140":-0.43454453710042906,"141":-0.052892308568206675,"142":-0.21596627712544902,"143":0.7943629033592073,"144":1.2903621490275896,"145":0.9952544194807633,"146":0.3454282567552792,"147":-0.5975859667866301,"148":1.0039213953092818,"149":0.07083002383206871}},"6":{"bias":-0.493453775186573,"weights":{"0":0.22584273794910426,"1":0.467605332739859,"2":0.04784083396401828,"3":0.052201649642908125,"4":-1.3391855583523988,"5":-0.6287937205230438,"6":0.5726366370206515,"7":0.4248812979441279,"8":-0.47928122903321185,"9":-0.2833496079599958,"10":0.11239064325922035,"11":-0.9503639895091568,"12":-0.7052012236348126,"13":-0.7051580035303459,"14":-0.9004243982438341,"15":0.3199319023626927,"16":0.466314615746865,"17":0.19582632875692832,"18":0.2907272302274455,"19":-0.3954514401462448,"20":0.08875853353764804,"21":-0.568988217497953,"22":0.0428897318355875,"23":0.05986344134024578,"24":0.17740013119862097,"25":0.32941895400249777,"26":0.5050549985271636,"27":0.20249510322851222,"28":0.10668092343150938,"29":0.05239330374297351,"30":-0.2349261748044509,"31":-0.1587174542559982,"32":-0.854768574903232,"33":-0.37029917493203757,"34":-0.511103368394913,"35":0.41898249952817507,"36":0.3275702923877454,"37":0.20643487082074521,"38":-0.33788111961473666,"39":-0.5608466264596591,"40":-0.41538259354947976,"41":0.43718822758230064,"42":-0.8725413409626006,"43":-0.1009922684201567,"44":0.5383852241100194,"45":-0.32572105521891176,"46":0.07246172431388889,"47":-0.20136802138749038,"48":0.30160774657062217,"49":0.35948886888589665,"50":0.041775278392159616,"51":-0.05150111401908772,"52":-0.4810042245144242,"53":0.2920695916243486,"54":0.19911834201278714,"55":-0.14699510746625832,"56":-0.43741171145541163,"57":-0.2259233603838961,"58":-0.48562339232484236,"59":-0.08363236899708423,"60":0.2412243823889674,"61":0.15309933321351907,"62":-0.07698844909371891,"63":-0.4102585784956851,"64":-0.008614881634211273,"65":0.8642550452558,"66":-0.37546351234014347,"67":-0.29425346922126394,"68":-0.0961400362996638,"69":0.28161664620948934,"70":1.0893311783238964,"71":-0.05306137403176541,"72":-0.25039833703529774,"73":-0.25121957424354946,"74":0.21623688512249575,"75":0.01591869364595084,"76":-0.09906935787434187,"77":-0.23667693030479947,"78":-0.1119296014166581,"79":0.4085668070418541,"80":0.5069371404025892,"81":-0.1896557755433052,"82":-1.104742730717055,"83":0.2220718656832281,"84":0.13118182079711097,"85":0.30369189917381156,"86":0.0867651295005122,"87":-0.2828645026542751,"88":0.39486589141140555,"89":0.7644890062869946,"90":-0.30203585531147875,"91":-0.30811298020970096,"92":-0.7101247814063455,"93":0.0434824623750247,"94":1.190661716682231,"95":0.2181414702458708,"96":-0.005596675438191454,"97":-0.6345141752264255,"98":-0.03823912584495816,"99":0.6547273152422513,"100":0.20460648691505112,"101":0.7490412259255489,"102":-0.060482782759602276,"103":0.2852810849237503,"104":0.06928505679224796,"105":-0.04259155556725203,"106":-0.4768868082763921,"107":-0.29596177357946696,"108":-0.32074108479660574,"109":0.49081187345876376,"110":0.9165498255004849,"111":0.40606669782955157,"112":0.1970684219549243,"113":1.0787632864294059,"114":0.5125760129016596,"115":0.3797565551355604,"116":0.14150443840010418,"117":-0.006232727689013483,"118":-0.013092865017125399,"119":-0.16952044553832435,"120":-0.22775150127654958,"121":-0.32365674230284835,"122":1.2428824076332285,"123":1.4174375295700024,"124":0.307096292652419,"125":-0.39997496404695015,"126":0.008983299263726128,"127":0.1015620732541174,"128":0.505267683080415,"129":0.20579779054187503,"130":-0.3655436302236437,"131":0.20175808530597727,"132":1.1359074140839363,"133":0.477345640720783,"134":0.9268100602864633,"135":0.3114669824424007,"136":-0.7104615475352208,"137":0.18290700235749294,"138":0.09038716297669527,"139":0.9203900117424606,"140":-0.02584243394531968,"141":-0.2503801497575812,"142":-0.09579752337743672,"143":0.2147314444917199,"144":0.5822388747099557,"145":0.18555419033716988,"146":-0.36169598918995166,"147":0.3942505052042569,"148":-0.7183723845471387,"149":0.5254667414180123}},"7":{"bias":-0.1585478097981255,"weights":{"0":0.08532589005101751,"1":-0.13690182485249686,"2":0.028220611852839705,"3":0.261216619715469,"4":-0.4205039305482283,"5":-0.586179668191469,"6":-0.01028763319836034,"7":-0.7653934783962721,"8":-0.7877994645451527,"9":0.2277877918351565,"10":0.49140648549038607,"11":-0.9033362776939532,"12":0.24712831208463673,"13":-0.4475987745497706,"14":-0.2989545850163013,"15":-0.6179891852860117,"16":-0.5903209411708144,"17":-0.11750115114375467,"18":-0.9671831758449552,"19":-0.10184110430711259,"20":0.07593395389533808,"21":0.11647201903613306,"22":-0.16075950996493726,"23":-0.04446918856639901,"24":-0.358711797291412,"25":0.014018019100166937,"26":-0.4489509828211302,"27":0.27912442013924466,"28":0.049206886383984266,"29":0.1999527804047835,"30":0.1558291488540173,"31":0.36296047713172425,"32":0.13636790707778226,"33":-0.43703379426751693,"34":-0.5059921916758049,"35":0.13735694483147382,"36":-0.9270040451153604,"37":-0.5832713763010678,"38":-0.47155739628907517,"39":0.14717972086561695,"40":0.4035380535513409,"41":0.1813310130218369,"42":0.7805322702412454,"43":-0.06053593728139898,"44":-0.4164978767135825,"45":-0.6505289542480834,"46":-0.34333110418561863,"47":-0.48089281342953116,"48":-0.0617648359876974,"49":0.31717575309869706,"50":0.8479807262970096,"51":0.549896828663304,"52":-0.5443090303617346,"53":0.8028499688038473,"54":-0.1401652135240632,"55":-0.42017181613244425,"56":-0.16350146550476474,"57":-0.018690727742536797,"58":0.006256029944519954,"59":0.3616139100146925,"60":0.6901069212554309,"61":0.47680244976900216,"62":0.06951655586959084,"63":0.04795501137702768,"64":0.1649018114309058,"65":-0.10808170550075832,"66":-0.17537862481156216,"67":0.8127546554861047,"68":0.5520521596276451,"69":-0.22043529108486015,"70":0.335227707722274,"71":0.3482193926129997,"72":-0.5151319030116257,"73":0.2356771041904287,"74":0.010308315534522706,"75":0.1827569230182225,"76":0.22228973853966952,"77":0.347792047817318,"78":0.2204176543458764,"79":-0.07167395250269118,"80":0.47512558310447867,"81":0.40511706460561536,"82":-0.10451499340818193,"83":0.2750168987938568,"84":-0.4280997933867534,"85":0.26132177502556825,"86":-0.045495711866781655,"87":-0.23694523268015869,"88":-0.40642390539251627,"89":0.18946858504490816,"90":0.20203893182433258,"91":1.0437485372785982,"92":-0.4384024170672795,"93":0.16116317409714498,"94":-0.33773369842353135,"95":0.18129083258595863,"96":0.3574208642501581,"97":-0.8835845078841751,"98":-0.6129557482732175,"99":0.43417625988815434,"100":0.05107283903660894,"101":0.5399651091278758,"102":-0.09022732957401415,"103":0.6100396571049502,"104":0.17705790356604362,"105":-0.15787880427470902,"106":-0.6321507738369788,"107":-0.3459088019223428,"108":-0.05856092131727764,"109":0.704867516226698,"110":0.36696066909511543,"111":0.5583523698487337,"112":0.10913687761708867,"113":0.6896298414047779,"114":0.12651453542198507,"115":-0.47420606944490484,"116":-0.2584294126518318,"117":-0.5998182453773632,"118":-0.04844198547532801,"119":0.4821255831865271,"120":-0.16953752299210065,"121":-0.10738901313336556,"122":0.5420053478673958,"123":0.6467721799650675,"124":0.6049515952932099,"125":-0.5533914266630559,"126":-0.7064340706232278,"127":-0.6367782869451061,"128":-0.02562945944443667,"129":-0.36979924955234794,"130":0.4971506040048617,"131":0.34976546197081804,"132":0.5104522933479844,"133":0.5831587288469972,"134":0.9212230787281457,"135":0.2154803138539681,"136":-0.7035809066571922,"137":-0.7988493039360403,"138":-0.7083216707504685,"139":-0.28385450237696785,"140":-0.09395982247378667,"141":-0.058695331204867265,"142":0.6350757563625098,"143":-0.1131698515302409,"144":-0.14463591008575732,"145":-0.24069225091516697,"146":-0.6414902718165878,"147":-0.31653799402970834,"148":-0.8586176155766855,"149":-0.2955921295173566}},"8":{"bias":0.28657298976060464,"weights":{"0":0.30738298272694725,"1":0.5111266518600588,"2":-0.05272697554354962,"3":-0.7754244104052621,"4":0.4096283233622838,"5":-0.4705310036900897,"6":-0.42212470285964876,"7":0.9478012656222862,"8":0.7133915352172342,"9":-0.02793413287431841,"10":0.5704055286319035,"11":0.34103300083841265,"12":-0.6857703612442086,"13":-0.9681004936277006,"14":0.1021019278316816,"15":0.08589680676920777,"16":-0.04931154627774142,"17":0.8540215205489171,"18":1.1148646504507835,"19":-0.2444801228967497,"20":-0.28615417261117565,"21":0.11394908768997915,"22":0.39978055697350384,"23":-0.3369719976081946,"24":-0.23976010431079364,"25":0.4915470368591333,"26":0.8878727329197957,"27":0.10872157961569476,"28":0.41165957623128546,"29":-0.620104882259333,"30":0.15179112490365188,"31":0.21885988484878002,"32":-0.00924838075163004,"33":0.7442219551221644,"34":-0.11652617816384225,"35":-0.07140684568822221,"36":0.10985281252691038,"37":-0.03350770840481449,"38":-0.27364504139398843,"39":-0.9860279205106085,"40":0.5906557913580534,"41":0.35978586257183165,"42":0.5313509416517004,"43":0.4322503212825711,"44":0.14005328731639893,"45":0.1419861314928827,"46":0.045067717467898706,"47":0.7987398603676565,"48":-0.20524818349708088,"49":-0.3281866307031371,"50":1.3834223433347705,"51":0.41173244742100484,"52":0.18275092869248538,"53":0.11708536927464679,"54":-0.44148951872654346,"55":-0.2712567647714303,"56":0.16942366478493118,"57":-0.5448902116441786,"58":-0.6570469340558078,"59":0.3787748347985265,"60":0.7477545073660238,"61":0.15143249631283268,"62":-0.08366784402961315,"63":0.009129406760263522,"64":0.16488645075497652,"65":0.5324610717186518,"66":-0.533448283086923,"67":-1.044338695337072,"68":-0.3454460258857947,"69":-0.10265871379930182,"70":-0.32306523706032697,"71":-0.1060554430513568,"72":-0.44047286575818867,"73":-0.07307671762916704,"74":-0.18037135258899298,"75":0.25329020436904975,"76":0.13295306808747182,"77":-0.24858592912773902,"78":-0.5757215831776478,"79":-0.40433032253673434,"80":0.22003699716888964,"81":-0.9094207740193986,"82":-0.02578604633989953,"83":0.20915510953024607,"84":0.46591272672758055,"85":0.102139391811097,"86":0.09363887277063564,"87":-0.3078521362745388,"88":-0.8427947001214786,"89":-0.12768010809088948,"90":-0.4622584278701706,"91":-1.35985937466849,"92":0.01784481436207416,"93":-0.07209036128534704,"94":0.97030724618407,"95":-0.03060531732029455,"96":0.019193158440381768,"97":0.3325568466931561,"98":-0.1421569602531264,"99":-0.1763072860654283,"100":-0.02448572857997878,"101":-0.563396282587364,"102":-0.28599960937510044,"103":-0.5123808703025392,"104":0.5517909875954168,"105":0.27235885007592747,"106":0.3206363094212931,"107":0.3708355121394342,"108":-0.2232145942265646,"109":0.3457155350081574,"110":-0.2627710477020467,"111":-0.7319365840678542,"112":-0.26726816799671754,"113":0.10611839704325744,"114":0.36825931127418343,"115":0.13726730948034466,"116":-0.07980653175162747,"117":-0.3483318066404382,"118":-0.15809314064120258,"119":1.0872698229006392,"120":-0.558740406354965,"121":-0.3868388827952672,"122":-0.7181213678271247,"123":0.13011249677739958,"124":-0.06544376953120362,"125":0.056769908791233975,"126":-0.15522087262214312,"127":-0.8882883910082565,"128":-0.25325246746215174,"129":0.565530121141785,"130":0.13809484794807936,"131":-0.2999175207563454,"132":-0.17578770066201999,"133":0.1781887214567796,"134":-0.5654781999994086,"135":-0.14366868310271247,"136":-0.5392546645092985,"137":-0.24831662299646076,"138":0.40761914190918913,"139":0.6505641708862048,"140":0.21701920363785362,"141":0.08580755300600236,"142":0.18143209160888035,"143":-0.4187729422254786,"144":0.20648601781336282,"145":0.462201870480569,"146":0.37625739935877883,"147":1.021681746683066,"148":0.899697342012431,"149":0.004928561351638836}},"9":{"bias":-0.5731844141985425,"weights":{"0":-0.030098981922126407,"1":-0.00354953426282473,"2":0.06063615876090055,"3":0.002832091248970414,"4":0.18043342091646208,"5":-0.05155338007511178,"6":-0.19675265845284726,"7":-0.6902283575096652,"8":0.6301716447381698,"9":0.6807814602325626,"10":0.20292808345576974,"11":0.2546391825473542,"12":-0.24749241001692207,"13":-0.172032969067435,"14":0.17571949448530444,"15":0.43804310716036277,"16":-0.36191002577054326,"17":0.25311741160179224,"18":0.3779930211874044,"19":-0.4992255565161833,"20":0.11127891876085408,"21":0.06162138670395881,"22":-0.05862052747856399,"23":-0.29951875756307256,"24":-0.20264306609659472,"25":-0.42313535278766967,"26":1.1256578222132112,"27":0.5892334036889707,"28":-0.3138649201790896,"29":-0.6010844688910418,"30":0.08778606117274734,"31":0.01669014034972255,"32":0.01747594711101057,"33":-0.20865904955229267,"34":-0.3246925248123485,"35":-0.08435420251650688,"36":0.582187315576521,"37":0.6994817037572686,"38":-0.30172635713273377,"39":0.3380644354238213,"40":-0.33855728771776167,"41":0.0635999301360079,"42":0.025324888232692085,"43":-0.14174326276531649,"44":-0.48639820489636937,"45":0.5737800185077062,"46":0.14467483213853582,"47":-0.03058552192169571,"48":-0.2763518711960407,"49":0.042309929435484554,"50":0.36912350572450175,"51":0.1756323854346894,"52":0.46186214015340304,"53":0.4187787975862125,"54":-0.15644832170014356,"55":-0.48264064903324927,"56":0.7697641963258385,"57":-0.12498156438085388,"58":0.1254503687563574,"59":-0.0067173338630976956,"60":0.00995707656151344,"61":-0.4596332161313889,"62":0.7013085997647067,"63":-0.09955989602472683,"64":0.12030983707398904,"65":0.4780999169861238,"66":0.034411781055455275,"67":-0.18257577424374816,"68":0.518906341472502,"69":0.41584540560115624,"70":0.12867426055285944,"71":-0.05130434932489894,"72":-0.28436650312920303,"73":0.5158449448778724,"74":0.22220697409481133,"75":-0.03787244447935475,"76":0.2379416545654142,"77":0.03604453353608427,"78":0.11121251484101186,"79":0.7746652123346689,"80":0.6641241012782106,"81":0.66684498428196,"82":-0.04892293001892958,"83":-0.13062495285334838,"84":-0.13398470958343436,"85":-0.26734686428763443,"86":0.7416747640512518,"87":0.21138838676934046,"88":-0.10548514707770161,"89":0.6682736008566355,"90":0.06890115124909837,"91":0.3474845123215174,"92":0.5667727637291164,"93":0.23692254654076306,"94":0.030359078633807508,"95":0.13008570251144963,"96":0.19125356715722835,"97":-0.06558669230734325,"98":0.22896273463799502,"99":0.31546072404056796,"100":-0.5828092791808575,"101":0.1497519618844058,"102":0.27080903806214257,"103":0.19110078524557886,"104":0.3859142280517949,"105":-0.16865886764424873,"106":-0.1380049093435821,"107":0.10300274453434483,"108":0.20728980049831378,"109":0.7284746453487146,"110":-0.16123583677908832,"111":-0.4921852540999325,"112":-0.2773115970619618,"113":-0.536192188118715,"114":0.4531401214717097,"115":-0.014936309565210023,"116":-0.2035843183286983,"117":0.1529575897865498,"118":0.28504833465550994,"119":0.5687677043854781,"120":-0.24472876617375228,"121":-0.33465118251450426,"122":-0.7375793922032798,"123":-0.28730888330157145,"124":0.47318428905620036,"125":0.19658675510045626,"126":-0.4073979570004198,"127":-0.6809467578848428,"128":0.36400659107717886,"129":-0.2503693668366231,"130":0.041524603024338795,"131":-1.1533544127709514,"132":-0.7062120352090977,"133":0.004910043554990759,"134":0.5336378608561346,"135":0.076220525740595,"136":0.26142107518982843,"137":-0.8133320698664585,"138":-0.015199043892862535,"139":-0.049461150243526326,"140":-0.529808734824583,"141":0.08771878520605622,"142":-0.46719654062291743,"143":0.25736323792122945,"144":0.3304037046789779,"145":-0.14554584634839787,"146":-0.09015775495425538,"147":-0.14776507816927814,"148":0.10910476697144915,"149":0.3540231744400868}},"10":{"bias":0.25046912533974963,"weights":{"0":0.1458800368088306,"1":0.1324481893300399,"2":-0.3883240335166779,"3":-0.756791480630715,"4":0.07867237485904328,"5":-0.5210460169011341,"6":-0.13227697091543686,"7":-0.37511756664128926,"8":-0.5532999421514332,"9":-0.24827985303258293,"10":0.1826520200799042,"11":-0.8949613319610312,"12":-0.805868206377717,"13":-0.8963286607202509,"14":-0.45204586402508495,"15":-1.1804031640073451,"16":-1.2146276533074982,"17":-0.5728090561107192,"18":-0.5090570573640932,"19":-0.24109636025965125,"20":-0.24099532983237412,"21":-0.9754379180993863,"22":-0.7445111986747388,"23":-0.4184520803806085,"24":-0.4307371373073107,"25":-0.4688402446620235,"26":-0.6776295876304667,"27":-0.8775204173463326,"28":-0.6797279466207732,"29":-0.020511266013135365,"30":-0.18747978638391682,"31":-1.1808142476140868,"32":-0.4429338990555871,"33":-0.1265172964848327,"34":0.1546269658016773,"35":0.546469418673524,"36":0.24936204915534843,"37":-0.3426672289749452,"38":-0.2138617207116077,"39":-0.03708034527775637,"40":-0.2784432546650796,"41":-0.7050867610289402,"42":0.058988388890894514,"43":-0.3371111277671741,"44":0.09634335845883545,"45":0.4374037673096441,"46":-0.6597023820156606,"47":-0.21575776454821805,"48":-0.5900868998680757,"49":-0.37519006702831303,"50":0.04134478004440319,"51":-0.18065254932722608,"52":0.6662137891729405,"53":0.7655474229459205,"54":0.39352128286334304,"55":0.41661084416498323,"56":0.26234997488697204,"57":-0.6693696758903916,"58":-0.2890357468050009,"59":0.5049122729827291,"60":-0.10516517718685812,"61":0.11633579491276658,"62":-0.1133462479719028,"63":0.5900738292627467,"64":-0.08372648553510992,"65":-0.34000185895942014,"66":0.27593637920868697,"67":0.463407660256239,"68":0.02746388854880007,"69":0.0054703643324543255,"70":-0.30774062653441964,"71":0.7608385937869414,"72":0.4537588478694032,"73":0.94597478867948,"74":0.5147518079140175,"75":0.7052324617308992,"76":0.4350956847840126,"77":-0.6063406356837409,"78":-0.04517312289478327,"79":0.3917165950235093,"80":-0.3494656883743654,"81":-0.12811179384897642,"82":0.29180656066106636,"83":0.9962371266336644,"84":0.6071484420287013,"85":0.49309723063338823,"86":0.45345356131519426,"87":-0.08866357162327929,"88":0.5500949699661704,"89":-0.08859759034061734,"90":-0.29386141430516444,"91":-0.06774948088449732,"92":0.4167554523335881,"93":0.5585037196645646,"94":0.7258803726226645,"95":0.49803070052265724,"96":-0.5363454464971297,"97":0.20068737709798667,"98":1.0756648316532587,"99":-0.0681673756207329,"100":0.05715072497997361,"101":0.1966949807075105,"102":-0.4166513145410605,"103":0.4339983830715344,"104":-0.33600552206759265,"105":0.4868326006610294,"106":0.7534735435031799,"107":0.429156429214275,"108":1.1680020987221855,"109":0.41373796087550696,"110":-0.4381922887517802,"111":0.30052543620505323,"112":-0.6014605448587147,"113":0.7998261720776012,"114":-0.23275931685718834,"115":0.0013641811838902083,"116":0.8357432946124133,"117":0.08055918716291392,"118":0.608822947158761,"119":0.1137435503255782,"120":1.5104239679699965,"121":0.12926332680252708,"122":-1.1489468582055262,"123":-1.1478051532625684,"124":-0.28636056038233093,"125":-0.6234525423062823,"126":-0.2945905109053126,"127":0.041094487931512706,"128":0.49648150046730505,"129":-0.10719944673867599,"130":0.24608631508688283,"131":-0.4792022684494423,"132":-0.04524600189096888,"133":-0.6347995186065285,"134":-0.27608422465688115,"135":-0.6091051330794514,"136":0.10144477087822652,"137":-0.3860925624559301,"138":0.14690639178775214,"139":1.2242692216786881,"140":-0.1472870949465382,"141":-0.44415859359377136,"142":0.7754517711694228,"143":0.5022446594369282,"144":0.4762945586383573,"145":-1.1545730372786926,"146":0.7477331021887309,"147":0.1870958111966948,"148":0.07626693068212209,"149":0.2997485285776434}},"11":{"bias":1.4845294668713547,"weights":{"0":0.074432664172329,"1":0.7056018750838513,"2":0.4932704139822929,"3":0.8992732716695812,"4":0.7134745507226015,"5":0.30826347962357314,"6":0.1447379805106611,"7":0.06298920979368923,"8":1.2933373316440318,"9":0.2935150947244405,"10":0.5607511293177626,"11":-0.21828568795125156,"12":-0.1781397576768338,"13":0.03874848643737367,"14":0.15181869976136872,"15":-0.0016720141914227911,"16":0.2219322285440745,"17":-0.18819143322811024,"18":0.9757337754955592,"19":0.5658988424734639,"20":-0.05655495713837476,"21":-0.4391534854416716,"22":0.16696829213949782,"23":-0.8502999844309693,"24":0.03747183930447058,"25":-0.3318905098542442,"26":0.24145115801136488,"27":0.10545175065388974,"28":0.5167448880575165,"29":-0.48026438009367495,"30":-0.7681555049917302,"31":-0.35624939336567046,"32":-0.4139781162362784,"33":-0.6307404823776189,"34":-0.16432353810500083,"35":-0.0930198986809536,"36":0.5884559544325368,"37":0.1781828406367712,"38":0.5215751665210785,"39":0.6954617136396279,"40":-0.961405843263445,"41":-0.18046257502308444,"42":0.06839833225070287,"43":-0.4679060253621958,"44":-0.18549738964793805,"45":0.10513268596659234,"46":-0.4200458865923387,"47":-0.5583107493732458,"48":-0.13022685895472172,"49":0.14641910824754276,"50":-0.37908450385302267,"51":0.25029459563076956,"52":-0.23862477678186522,"53":0.570596577616479,"54":0.1969063268667246,"55":0.1304660591869563,"56":0.08264619439307407,"57":-0.042009430173006124,"58":-0.2345816452214803,"59":0.16023967717419313,"60":-0.7196454463399408,"61":0.022584170883528366,"62":0.1408201004588202,"63":0.21835998451198504,"64":-0.018741167777417217,"65":0.39323294877961823,"66":0.15745092114911277,"67":0.5467659535123758,"68":-0.26536223933471087,"69":-0.4092556661059566,"70":-0.6114104997765223,"71":0.6066906750309295,"72":-0.3352656300890144,"73":1.3268610500463534,"74":-0.01518642208217267,"75":0.11926644162184578,"76":-0.0004955547997091779,"77":0.22738264002704356,"78":-0.3637305892420016,"79":-0.5628231449555726,"80":-0.3932454804280098,"81":0.25114572228731197,"82":-0.296060170608145,"83":-0.07690462136831408,"84":0.23575972205365142,"85":-0.1574871470899231,"86":-0.008807047563418153,"87":0.2603187232928713,"88":-0.15098263606613727,"89":-0.9622671737037343,"90":0.12402687873296844,"91":0.4441546172738885,"92":0.4624809390362681,"93":-0.10491290285576493,"94":0.0588219173114893,"95":-0.3252666531938667,"96":-0.606240086231203,"97":0.06520452870120817,"98":-0.3239760302441944,"99":-0.9670831499464327,"100":0.8030522509250574,"101":0.5508799309233343,"102":0.0993219453711251,"103":0.051736502622717374,"104":-0.6751024652999496,"105":-0.36673781426514673,"106":0.22183676514699333,"107":-0.06247787070799399,"108":-0.40519693854759115,"109":-0.6644551177989858,"110":0.49665222164726835,"111":-0.573179362850754,"112":-0.8103864675185658,"113":-0.5083935432283246,"114":-0.5388747200370668,"115":-0.14543154965131633,"116":0.17888536217205334,"117":0.30482014963574044,"118":-0.20251423453945075,"119":-0.4146164802684328,"120":0.1489400638634908,"121":0.507004463179441,"122":-0.900257833755558,"123":-0.6004000099123001,"124":-0.5688381627909711,"125":-0.7073855092856312,"126":-0.2141645367457749,"127":-0.9087814972738743,"128":-0.4560026527254913,"129":-0.0049711559534829095,"130":-0.7842198025693314,"131":-0.14451842108385,"132":-0.7025412970555168,"133":-0.5455206916745525,"134":0.11848475302764384,"135":-0.9717902336536538,"136":-1.098208316885107,"137":-0.7608742331139222,"138":0.3132839432867077,"139":0.13563049996935947,"140":-0.7796702059686224,"141":-0.12134624513914968,"142":0.8265022707767959,"143":1.0187884670875018,"144":0.7131615507989868,"145":0.2845629931816211,"146":0.7161829920457535,"147":0.3913127402606348,"148":0.7700003268935506,"149":0.38465463662225907}},"12":{"bias":0.36353061794209357,"weights":{"0":0.1181114023556298,"1":0.0045997912044394886,"2":-0.08033033440080505,"3":0.6794050843145878,"4":-0.16297267932343126,"5":0.2053130853942389,"6":-0.6425212880827644,"7":0.1398679625929437,"8":0.7252655288192678,"9":0.5495194662334205,"10":0.062320095816516,"11":-0.4702289399421596,"12":-0.3232583137331915,"13":-0.01648132032112727,"14":0.2240132695067246,"15":0.24435082573289468,"16":-0.1213908943604238,"17":0.5809162303193008,"18":0.8239127928584727,"19":1.349908230089015,"20":0.27524005349849995,"21":-0.28420952504229435,"22":-0.8029839997112237,"23":-0.8308912242357358,"24":-0.03346189544270831,"25":-0.5259242197555307,"26":-0.1452917536420052,"27":-0.18068967828791196,"28":0.08903827354863128,"29":0.696248393684984,"30":-0.23857730933169224,"31":-0.2709338394493916,"32":0.1608227847718668,"33":-0.5496122618557767,"34":-0.5272832977308172,"35":0.21504254754260313,"36":-0.8359653871517462,"37":-0.7239616985771735,"38":-0.18476167408924624,"39":0.059657796971030956,"40":0.08065931245912733,"41":-0.685761027665262,"42":0.23753773644919512,"43":0.4462593527193238,"44":-0.33240741049039907,"45":-0.7837755783143441,"46":-0.4173635521672075,"47":-0.5960824899405288,"48":-0.09490582941661639,"49":0.5402546899394906,"50":-0.34574368152215584,"51":-0.7616608559899556,"52":-0.1290030406110683,"53":-0.12119858934115428,"54":-1.2124072142399636,"55":-0.4669785364656618,"56":0.021260451351461672,"57":0.03849070411847511,"58":0.07672995168187262,"59":0.27196034773546957,"60":-0.2799535536256092,"61":-0.541254161311957,"62":-0.2034445994849911,"63":-0.18367230805030607,"64":-0.37907415607033484,"65":0.05308699569012566,"66":-0.27547300930778346,"67":0.1347393521315156,"68":0.1021769173829935,"69":0.05126824639244273,"70":-0.600736006973764,"71":0.2114811998259988,"72":-0.8105293988794121,"73":-0.25820832014556766,"74":-0.46191717723808334,"75":-0.7289028779758508,"76":-0.4598414212305837,"77":0.32869539872062037,"78":-0.08061989266251796,"79":-0.1547614604036482,"80":-0.15705070921040556,"81":-0.6027067729500198,"82":-0.7751524881245122,"83":-0.18228243972691113,"84":-1.1069761839540042,"85":-0.14108331242417388,"86":-0.05922141100410429,"87":-0.14658401654990408,"88":-0.10766907313492989,"89":-0.8913128222515774,"90":0.8200612382042815,"91":0.4028589191676286,"92":-0.09128842013856783,"93":-0.4521230646123322,"94":0.3963047566801302,"95":-0.027441427088741522,"96":0.6878696909772792,"97":0.22967475280421168,"98":0.7264067880970367,"99":-0.0750664499892661,"100":0.3314371777528166,"101":0.11205053347177249,"102":-0.4492154199449453,"103":-0.2927938006635336,"104":0.07379428240823381,"105":0.27905027248721465,"106":1.1364937148930874,"107":0.9321340981426747,"108":0.5669731608806353,"109":0.22190356767640307,"110":0.556330853862918,"111":0.051930550806363635,"112":0.007643537522537291,"113":0.458160354985886,"114":0.27745951373496824,"115":0.5140458892221131,"116":0.6306485285121891,"117":0.6545570075724763,"118":0.5602002482335309,"119":-0.2723685085936581,"120":0.453909440892137,"121":0.7980404345077045,"122":0.8627306370166131,"123":0.603576925201687,"124":0.5548113525364187,"125":-0.12057155008039985,"126":0.16486658141492283,"127":-0.48445317009040606,"128":0.5486175356930725,"129":0.5801236965642101,"130":-0.4101717157000548,"131":0.7162936295319804,"132":1.4849565826207027,"133":0.7447753787647359,"134":0.6548992795087324,"135":0.10168649461412613,"136":0.3013956799469727,"137":-0.22706922960774178,"138":0.25716863654738836,"139":0.18465020989195788,"140":-0.15785997103770333,"141":0.4089167427482692,"142":0.36125235800933514,"143":0.5713069597789531,"144":-0.24582403468276748,"145":0.6007312802174019,"146":0.022300765198535306,"147":0.2691618566592861,"148":-0.21853853137714405,"149":0.2107093597281769}},"13":{"bias":0.36220801121404594,"weights":{"0":0.26256659186424824,"1":0.5760664311490472,"2":-0.17465648308231,"3":-0.9352726768438517,"4":-0.3695547182201564,"5":-0.3118088479507969,"6":0.01120611425555566,"7":-0.3355725121194626,"8":-0.22166859132815137,"9":0.4456450815567919,"10":1.0752626541418435,"11":-0.016711055840026204,"12":-0.35253128786210997,"13":-1.6705949975436454,"14":-1.2040641226403468,"15":-0.055733423491959894,"16":-0.8035402357265968,"17":-0.08377330039660118,"18":-0.27313723051783073,"19":0.5604210170139041,"20":0.47591092513523303,"21":0.07872412194358058,"22":-0.8623480606371039,"23":-0.9729380912691503,"24":-0.1230951085713223,"25":-0.18871932035171526,"26":0.15410089582419506,"27":-0.26371692445240014,"28":-0.22927278861835892,"29":0.2522401419810296,"30":-0.05410586016585657,"31":0.577368247642215,"32":-0.48925862087331795,"33":-0.8498416780834142,"34":-0.4302707681574288,"35":-0.46913792415288585,"36":0.19744355242564443,"37":0.0971416554898518,"38":0.23572914780969165,"39":-0.28574402445272645,"40":0.4616337842167084,"41":0.6024245222296128,"42":-0.5233531383934928,"43":-0.23973707371556485,"44":-0.2771966739110849,"45":-0.30555309642223566,"46":0.3281417904716559,"47":0.4065783321178623,"48":0.5525321303360672,"49":0.18558799233072365,"50":0.31140326922262307,"51":0.20782455237491743,"52":-0.13669329602806254,"53":0.16793903926371964,"54":0.04050631569992355,"55":-0.16358748243599636,"56":-0.04655700177572377,"57":0.11306364092979031,"58":0.004233894756784217,"59":0.022708478351900856,"60":0.13833339249121446,"61":0.0013139179998381749,"62":-0.37200211232173575,"63":0.11449280308483484,"64":-0.5484971538391765,"65":0.37731843584311103,"66":0.3556148347220893,"67":0.30146129560651325,"68":-0.3393438526815467,"69":-0.35092162774929164,"70":0.12335312266611044,"71":0.045232527194347324,"72":0.23894192224125937,"73":-0.39554155780637357,"74":0.4805406446727867,"75":-0.20518031553797314,"76":0.10921772845580521,"77":0.06147477330531572,"78":-0.0095330350098521,"79":-0.3524899854476525,"80":0.39790023547394304,"81":0.6442137257461443,"82":0.25995138547564256,"83":-0.041778025922873066,"84":-0.36762313030531635,"85":0.11324955611508788,"86":-0.23102217176816497,"87":-0.00015099046725497667,"88":0.1790180970960673,"89":-0.4294042156911394,"90":-0.5478347766062353,"91":0.0952810648827869,"92":0.5190758256937752,"93":0.4119342553669028,"94":-0.002319815634475359,"95":0.16843633318656828,"96":-0.0721547695489605,"97":-0.4459010411725206,"98":-1.2932297246683548,"99":-0.1558753175696908,"100":0.31291577131533216,"101":0.4673205155762317,"102":0.23353927518195375,"103":-0.16955670922764776,"104":-0.4431764517107898,"105":0.4928795677527638,"106":0.028900851241354903,"107":-0.10997896236984935,"108":-0.9393373224193838,"109":-0.06868847174285878,"110":0.5880427796306527,"111":0.6614923288118874,"112":-0.042704133733199146,"113":0.7889712804941812,"114":-0.24002122933580555,"115":-0.16658798911218098,"116":0.18555044233021864,"117":0.09169169986259104,"118":-0.2893423434677467,"119":0.09068052175739365,"120":-0.010482982570595599,"121":0.4065605887416205,"122":0.4261206856250033,"123":0.17265258154938407,"124":-0.12309984602293927,"125":-0.1874375770249638,"126":0.6052166499016907,"127":-0.09923573165412591,"128":-0.34142110328134884,"129":-0.6161629575493578,"130":0.0700997253661139,"131":0.1115544153915591,"132":-0.3862809466251138,"133":-0.6329837134023666,"134":0.13867188273802092,"135":0.009543240120710315,"136":0.30448927780542834,"137":1.0148249779138716,"138":-0.18063071181922558,"139":-0.8861304603686375,"140":-0.17555711950884656,"141":0.5843900100683815,"142":-0.7275507895911237,"143":-0.4901241828355664,"144":0.33972489947169515,"145":0.4130230290332829,"146":1.2617493588104072,"147":0.9562958593880799,"148":0.5026064685303058,"149":0.1568040069730024}},"14":{"bias":-1.2545377271518827,"weights":{"0":-0.19638752749306337,"1":0.07186354960120866,"2":0.06205794884447522,"3":0.32082091111299765,"4":-0.35169052023992836,"5":0.2950477357289832,"6":-0.23367697387245887,"7":-0.3841214812761736,"8":-0.9918264170319537,"9":0.5499088172099462,"10":-0.36465655045955164,"11":-0.022266861566096058,"12":-0.5343557702985081,"13":-0.36067500631132354,"14":-0.3901118751707626,"15":0.2293681159348889,"16":0.5850457256161534,"17":-0.5090919784091031,"18":-0.16506676795778408,"19":0.1063831238009087,"20":-0.14750894370018588,"21":0.1210829304236346,"22":-0.3911788305263469,"23":-0.11409035495163813,"24":0.5391375412759238,"25":-0.3850134773608536,"26":-0.21560557828237584,"27":-0.0783580320058776,"28":0.12632499751780474,"29":0.02734256358515338,"30":0.3385803856564171,"31":0.2869116873537233,"32":-0.533283503866738,"33":-0.17025502685099173,"34":-0.7236141074105609,"35":-0.1989791908304371,"36":-0.5085403130725765,"37":0.33086768177835724,"38":0.27035247318620004,"39":0.18601246693584766,"40":0.0382930470131824,"41":-0.48209046877807266,"42":-0.3191261585152977,"43":-0.08659182288299486,"44":-0.27356778454190717,"45":-0.024638995880401485,"46":0.35561253932316156,"47":-0.6179528307890396,"48":0.15197728913466477,"49":0.7309879190174418,"50":0.07895200865432858,"51":-0.8085829338664827,"52":0.10222410852001741,"53":-0.2414513728820307,"54":-0.1925651111639634,"55":0.839947378355791,"56":0.3875201954581488,"57":0.13764942566973803,"58":0.4622219398840242,"59":0.5144044090772073,"60":0.30484043026665053,"61":-0.34326798785907436,"62":0.5776593637660977,"63":0.04683044295209392,"64":0.20063849087956356,"65":0.41849048720049986,"66":-0.03718565129952015,"67":0.16817140035390515,"68":-0.13706768394346952,"69":0.5300779143298081,"70":-0.17360311289984384,"71":0.5508833003890401,"72":0.9268225404557351,"73":0.3897730861744823,"74":0.5064241970550132,"75":0.46485492607182666,"76":0.07740424323105534,"77":0.10281909279223173,"78":0.09029565934593366,"79":0.14060711852725227,"80":0.33882670043431246,"81":0.22820484132808633,"82":0.5234829228247644,"83":0.8556564811406064,"84":0.17627761734637237,"85":0.09510156120676733,"86":-0.44664396550365354,"87":-0.3489292949589483,"88":0.34915715384917545,"89":0.10746872404341697,"90":-0.4707867881149335,"91":-0.3675573316831908,"92":0.12711324769011578,"93":0.3112299365918174,"94":0.07955098320422041,"95":-0.33513751998955243,"96":-0.08426666371801328,"97":0.2077440479658675,"98":0.25551811086825293,"99":-0.08276844299430935,"100":-0.352413456718267,"101":-0.11408741401802837,"102":0.02278427833481214,"103":-0.10106830997708685,"104":0.2271903184414584,"105":-0.2742212458797653,"106":-0.24106113338090585,"107":-0.3097506737459227,"108":-0.18683312405225586,"109":-0.47960220115606655,"110":0.6293311497918499,"111":-0.21457682804457726,"112":-0.16279866636808812,"113":0.1191273325112698,"114":0.5596352784487211,"115":-0.2158635102588393,"116":-0.3693627045628337,"117":-0.5013173907320371,"118":-0.44003746383152187,"119":-1.0550153020902568,"120":-0.09319027355203988,"121":-0.5741473046046368,"122":-0.04759769339442674,"123":0.7032612836673212,"124":0.4686877402682991,"125":0.7289100095534131,"126":0.2871789457520036,"127":-0.10941170386988866,"128":-0.42614968977301565,"129":-0.2723537797425107,"130":-0.6396513661844991,"131":-0.16049221343388312,"132":0.2665490048332429,"133":0.07675058343678505,"134":0.8704073044129783,"135":1.0979382476071928,"136":1.1923588151700237,"137":-0.22992723052345052,"138":-0.65675312930579,"139":-0.6335430291947485,"140":-0.22169086051542497,"141":0.28458700581329205,"142":0.3740852125407982,"143":0.6100557227911576,"144":0.10234250591172907,"145":0.15843937838303998,"146":-0.016763553869827023,"147":-0.012822067490775387,"148":-0.5563945349164645,"149":-0.4773318077716705}},"15":{"bias":1.2853169126163737,"weights":{"0":0.3213315167837733,"1":-0.5297402227160328,"2":0.6339156172679971,"3":0.7962439693121742,"4":0.4854863289558213,"5":0.3966815854293383,"6":0.761892065322912,"7":1.0221769701999375,"8":-0.10233075948036341,"9":0.4404999452811931,"10":-0.3110355535033226,"11":0.34888658664410127,"12":0.9955532870810734,"13":1.0459574615936436,"14":-0.029146005998886136,"15":0.27821529209763557,"16":-0.044349508842254415,"17":0.259607166155688,"18":0.8629396484008326,"19":0.5044749418756524,"20":-0.9902523663931095,"21":-0.056844280324821986,"22":0.3209948947484049,"23":0.5401794774037217,"24":-0.18841482127802928,"25":0.029684116531487052,"26":-0.2426513772700199,"27":-0.14327469769623383,"28":0.18679109984744824,"29":0.05787579477701225,"30":-0.4090004245897436,"31":-0.7485154825186011,"32":-0.6823307374604292,"33":-0.1496448433472413,"34":-0.25892364536611756,"35":-0.010317942599351463,"36":-0.35901290454497664,"37":-0.5875613405647513,"38":-0.778548870957908,"39":-0.23739076635895445,"40":-0.29638861187414817,"41":-0.709625833418259,"42":0.07284990190319504,"43":0.1195628685628687,"44":-0.25580021870865244,"45":-0.5555227977711895,"46":-0.2650498164930747,"47":0.38499187262374934,"48":-0.412983744883197,"49":0.26200098423108337,"50":-0.1827380373496104,"51":-0.8286871259283691,"52":0.21583090269481525,"53":-0.6332880990881479,"54":-0.7059671177804286,"55":-0.48723099814073695,"56":-0.07075473125393346,"57":-0.06412104034938365,"58":-0.5628480628559523,"59":0.35807634208316996,"60":-0.6404667368667393,"61":-0.2976051109176662,"62":-0.5880002256461523,"63":-0.7567315470386483,"64":-0.2380241560100557,"65":-0.9830805479344413,"66":-0.1742286856754238,"67":-0.4227013616812024,"68":-0.896233251890939,"69":-0.3275749873733964,"70":-1.3383672952448815,"71":-0.9582804177952331,"72":-0.4936887326788629,"73":-0.32911811890258363,"74":-0.15755555412506822,"75":0.151945712054807,"76":-0.024277901755862374,"77":-0.847948410472917,"78":-0.6538340472847062,"79":0.0091055489245071,"80":-0.9156377632734506,"81":-1.6541357708987052,"82":-0.046263768071286966,"83":0.21586286129044838,"84":-0.1389659201632212,"85":-0.3221839745093581,"86":-0.3245634410554694,"87":-0.5615774868486112,"88":0.0035309565206270996,"89":0.12348203257852611,"90":-0.42211372936322233,"91":-0.7871627189112059,"92":-0.21048231305530543,"93":-0.5259494123097413,"94":-0.18347802509412423,"95":-1.147919646604838,"96":-0.7389929044823811,"97":0.1931342757958806,"98":0.5898561953859951,"99":0.8631249861059691,"100":-0.516205191348845,"101":-0.17809615994114106,"102":-0.6366821143414357,"103":-0.6340825169930773,"104":-0.8487656504818358,"105":-0.052679150516552725,"106":0.30688437608522784,"107":0.2944253943635964,"108":0.5872571707064541,"109":0.9100445083231172,"110":-0.23618077535387755,"111":0.7230489728220516,"112":0.3312781099026651,"113":-0.6710196444880684,"114":-0.8874247410578552,"115":-0.21146955849446966,"116":0.4486988099167596,"117":-0.050229590508287236,"118":0.7402109451162402,"119":0.4077786824525074,"120":0.23644936224430865,"121":0.248563557259297,"122":0.9215368607070856,"123":0.14143819142029954,"124":0.5572228261627735,"125":0.2950165000899255,"126":-0.4124209568202053,"127":0.30501872749297765,"128":0.614326676256653,"129":0.5177238186707596,"130":1.0521569270123299,"131":-0.10774228280182378,"132":0.005646044987738492,"133":-0.4283158220810165,"134":0.40358197999030115,"135":1.0899233487481208,"136":1.280930845785653,"137":0.2964588887752896,"138":-0.08249477608666955,"139":0.44860583744465776,"140":0.5987177158594839,"141":0.5545713736229998,"142":0.024605068342894332,"143":0.028651288399255407,"144":-0.31473785015365036,"145":0.8172796216434532,"146":0.8803513476085721,"147":0.46978367072713545,"148":-0.2654372061018726,"149":-0.028350473524203182}},"16":{"bias":-0.6300994450722228,"weights":{"0":-0.4801729575463259,"1":-0.13225336392763667,"2":-1.2982577585627029,"3":0.18439743350070412,"4":0.936768987574365,"5":0.9906707205835945,"6":-0.07849737811549978,"7":0.32182359151555245,"8":1.1865360677447159,"9":0.2080370595751164,"10":-0.11633245460632904,"11":0.40144342867922916,"12":-0.6851173872728151,"13":0.0062094947320423125,"14":0.14584675366181174,"15":1.3860390708933779,"16":0.31304866122292346,"17":0.09316117945268208,"18":0.43490260374743966,"19":-0.6640379489383428,"20":-0.09638430872094575,"21":-0.08125416773366674,"22":-0.23655403644347203,"23":-0.5532136897213902,"24":0.4188542557922968,"25":0.8019586244615363,"26":0.31002753983405273,"27":0.16226739055427308,"28":-0.16151575917469022,"29":-0.5338915077995656,"30":-0.21403023453822267,"31":0.132279627167238,"32":0.846458456067533,"33":0.12555300952998769,"34":0.18724299735726818,"35":-0.31970375547872837,"36":0.6126679009929288,"37":0.08000391138284864,"38":-0.24634787155225985,"39":-1.0399859014181314,"40":0.08730867971074316,"41":0.21097371366089823,"42":-0.3504188962202755,"43":-0.030662478921877477,"44":0.08623119172273566,"45":-0.11465976306795585,"46":0.2404079505182631,"47":-0.4891984911530078,"48":-0.3573079855447031,"49":-0.17736024597330982,"50":0.017768610616664203,"51":-0.5624576407600576,"52":0.2765851271630203,"53":-0.48943741209569863,"54":-0.4851729515671191,"55":-0.5502693942688061,"56":0.28557203735304043,"57":0.015573715087607036,"58":-0.5829924796534998,"59":-0.7310859652372255,"60":-0.3945422105232299,"61":-0.9416216016232754,"62":0.2459911926727389,"63":-0.5822165264902308,"64":-0.44630601544441884,"65":-0.1331535332576004,"66":-0.03038885656466826,"67":0.5865824641737912,"68":0.04548232741892416,"69":-0.6585108763621799,"70":0.26368623844119266,"71":-0.003535688942225093,"72":0.4832277242479158,"73":-0.5870515489075444,"74":-0.4203062167642977,"75":-0.7083504223753649,"76":-0.07784405688346262,"77":0.29889466156739153,"78":0.2189755202782354,"79":-0.23533672823709742,"80":-0.3522682691930428,"81":-0.5278584028616257,"82":0.30916276327344455,"83":-0.27265076491481605,"84":-0.13074251477850796,"85":-0.006924973775117345,"86":0.35162138310251256,"87":0.29568602673263705,"88":-0.36348911698390746,"89":-0.355752931038802,"90":-0.29026974149918583,"91":-0.3495596265115329,"92":0.5835504359865595,"93":-0.5675558521995129,"94":-0.5689099751599548,"95":-0.14890265534262875,"96":0.6313952505597021,"97":0.35904927622862,"98":0.2932850588847914,"99":-0.24313871837771606,"100":-0.06882979445040718,"101":-0.22568700962579208,"102":0.22857900495545186,"103":-0.11381673134710482,"104":0.25225685526571284,"105":0.5381901826401625,"106":-0.14381108828049094,"107":-0.10651656656709677,"108":0.42204831141379834,"109":0.05339226948860565,"110":0.15732743500316893,"111":-0.5535876179082145,"112":0.2076716400937773,"113":0.6533208726877454,"114":0.7610695143286069,"115":-0.14951428223036714,"116":0.3850831649525677,"117":-0.051121255775521686,"118":0.49381023903859556,"119":-0.14324233028701477,"120":0.5725310837969532,"121":0.7317518832150023,"122":0.21433851670747536,"123":0.43925462508300206,"124":-0.1895146285587142,"125":0.5323986273438577,"126":0.3349710540885787,"127":-0.14486028223753675,"128":0.06587217778912403,"129":-0.47649903518031733,"130":1.0331391037140636,"131":1.2664797702656283,"132":0.5589991374934131,"133":1.0387848580534442,"134":0.005719216140645851,"135":0.23528748070184075,"136":0.16483901383173183,"137":-0.09517025500832133,"138":0.30660031390483894,"139":-0.18094329086677582,"140":0.2789539656347143,"141":1.1360206245527105,"142":0.20244325616680986,"143":0.04824015878090623,"144":-0.25515040020363,"145":0.5116844980539039,"146":-0.6293404555061646,"147":-0.11592284329896667,"148":-0.07501392433055473,"149":0.6971208439007699}},"17":{"bias":0.13909635467241546,"weights":{"0":0.5583562042953225,"1":0.19485453988646073,"2":0.07604203183172023,"3":0.4661973688969304,"4":0.13341201942893244,"5":0.3143837706419192,"6":0.37211613973202595,"7":0.8326258535176384,"8":-0.2876941859604837,"9":-0.42354459295913205,"10":0.1449561065626414,"11":0.7554590651651684,"12":0.616576601952154,"13":0.7673521687219382,"14":0.2874294204323922,"15":0.6610435538681024,"16":0.32201900718921006,"17":-0.14889825985566058,"18":0.18935563370881006,"19":0.040345095303276436,"20":0.06713276375889088,"21":0.37144708580032587,"22":-0.5408783262724535,"23":0.26245969526188867,"24":0.03207066833661303,"25":-0.2382980338010905,"26":-0.8812939326602374,"27":-0.2141899366258108,"28":-0.051781367598039675,"29":0.46617731231843995,"30":0.43364916270828124,"31":-0.5121096995162081,"32":-0.2837809049610045,"33":0.2838322841788349,"34":-0.19002414649616417,"35":-0.18883756038120056,"36":-1.0139741549110777,"37":-0.8410172303400937,"38":-0.5338371043521148,"39":-0.022532341297051856,"40":0.2739906717656504,"41":-0.3554445410203134,"42":-0.4150318125494083,"43":-0.578656137432026,"44":-0.12758393900043008,"45":-0.3566148433614126,"46":-0.07231374099587819,"47":0.0749202629458923,"48":-0.5456990130969265,"49":-0.13770870312071823,"50":-0.6885805818415852,"51":-0.8485132904088158,"52":-0.7508537563113252,"53":-0.6805728708399086,"54":0.3239539237240432,"55":0.854344172152932,"56":0.9345003409272983,"57":0.8614642073041698,"58":0.4672599750071505,"59":-0.022470405662351124,"60":-0.15553562230007223,"61":-0.22878939136641527,"62":-0.5260414084351478,"63":-0.37551009148314074,"64":1.3137386578357129,"65":1.1539760337103055,"66":0.5799941621070127,"67":0.390095411717429,"68":0.5299201488203701,"69":-0.12299754382368987,"70":-1.483598541990518,"71":0.0014401391175733979,"72":-0.6439347525369931,"73":0.18023172307224458,"74":0.4140878890503356,"75":-0.03450519085752228,"76":-0.014402262126263327,"77":1.0379416572789664,"78":-0.056700316259924714,"79":0.028590640699994185,"80":-0.7246326411659708,"81":-0.31142711983007415,"82":0.7102850476611504,"83":-0.1261483383927808,"84":0.786377580040126,"85":0.5555816284909403,"86":-0.016050220196822434,"87":-0.1976614470671585,"88":0.15065394855577147,"89":-0.4204975090769116,"90":-0.6980090192553845,"91":-0.401067626364777,"92":0.1053699731144719,"93":-0.46158373400245184,"94":0.8235143463674081,"95":0.5248243316870927,"96":-0.043513221952764435,"97":0.4160729001947666,"98":0.06794453573797536,"99":-0.3194978244891145,"100":-0.4285964422415366,"101":-0.4212355732440251,"102":-0.045842521018901614,"103":-0.06650717486861717,"104":-0.3019101052287401,"105":0.6117222945182934,"106":-0.4249890545180528,"107":0.17803092656826597,"108":-0.15912853570617247,"109":-0.4915871146219145,"110":0.1698445179926061,"111":-0.152813690753921,"112":-0.7360553311672626,"113":-1.0166076732707487,"114":-0.4351468814321485,"115":0.2221114848842435,"116":0.31372326953437635,"117":0.1399814511077019,"118":-0.4358971291268947,"119":-0.1774738320217088,"120":-0.05913726484027808,"121":-0.484232416502915,"122":-0.08436640567306067,"123":-0.15805399601869707,"124":-0.5200463562816426,"125":0.09216095539110133,"126":-0.07436172347657839,"127":0.22944722669620476,"128":-0.283244193945706,"129":-0.6842353007462563,"130":0.1326895741049376,"131":1.0020378710898874,"132":0.6478323871581925,"133":-0.545794605969064,"134":-0.07674809985743515,"135":0.29196175343887515,"136":0.27637950851400817,"137":-0.28127035281390467,"138":0.1731110186005986,"139":-0.36464042317115514,"140":0.25616482299886956,"141":-0.25712453587663997,"142":0.8407834422434873,"143":-0.3219654070363476,"144":0.25451888971182135,"145":0.21074667438084038,"146":0.1792269768361209,"147":0.02691235617470595,"148":0.8778537187810364,"149":0.36465997934716327}},"18":{"bias":-0.6350381369109266,"weights":{"0":-0.21836938747386866,"1":-0.2905598568798496,"2":-0.7039349366147011,"3":-0.12209833480936116,"4":0.20854858282146937,"5":0.28372345412885447,"6":0.06270582465574077,"7":0.8258645149230927,"8":0.06985429424634883,"9":-0.33860517826653824,"10":-0.47328973820997544,"11":-1.0781490662263955,"12":-0.3771777300082478,"13":0.14048559661336318,"14":0.03824652849036871,"15":0.5150111549441793,"16":0.9938393206410858,"17":-0.34552537060609356,"18":-0.1769455994200761,"19":0.4638890950459843,"20":-0.13888767665359233,"21":-1.0041035283613715,"22":0.2676346880430595,"23":-0.20504513658040865,"24":0.6253983095982982,"25":0.45858547243356007,"26":0.6000068430842052,"27":0.46837052626456477,"28":0.5044821330084956,"29":1.0059254180208446,"30":-0.08710553428084006,"31":0.2013511273230648,"32":0.15575952400484752,"33":0.06840947753973525,"34":0.7811641919730375,"35":0.7109781908029845,"36":1.4089518731982527,"37":0.530991140909481,"38":0.8123753122809805,"39":0.7180806270419692,"40":-0.26081975533266655,"41":0.5775420391896461,"42":-0.39788850273813225,"43":0.2919072339095524,"44":0.9071315781569274,"45":-0.22918216954325252,"46":0.13163750727280413,"47":0.6640055695425281,"48":1.0404584651040456,"49":0.629373888388507,"50":-0.7748854745061436,"51":0.01580418531741971,"52":0.5275617904374598,"53":0.17842430898791847,"54":-0.3009555716298466,"55":-0.30662674789645655,"56":-0.1422596794065525,"57":-0.16036432451149663,"58":0.2545916863484281,"59":0.20016333264968766,"60":-0.8325833119776049,"61":-0.4853077989008289,"62":0.2759676848885125,"63":-0.2014168844355185,"64":0.14093880796903394,"65":0.6100636924821028,"66":-0.27422416167001823,"67":-0.283229556443389,"68":-0.05383100385220443,"69":-0.3244982321721696,"70":-0.3312356578641645,"71":-1.1831339834087533,"72":-0.7589270848214859,"73":0.5158628451652726,"74":0.5465246986615359,"75":0.15033063800082838,"76":0.09435029727146654,"77":0.5093609646263425,"78":-0.1320588501739751,"79":-0.7911909731126073,"80":-0.5829390594817738,"81":-0.5658515785053355,"82":-0.21199817255652323,"83":-0.23716257926238746,"84":0.6563002265971577,"85":-0.0700481859786086,"86":-0.7929775167788368,"87":0.13217502914146284,"88":0.010873053091525253,"89":-0.12004278493341154,"90":0.11484682002658672,"91":-0.0022921420012223825,"92":-0.12281341388620087,"93":-0.4956360262335683,"94":0.23382806507390252,"95":0.2624470275665198,"96":-0.7535443668228408,"97":0.3804103127938004,"98":0.4692866788522742,"99":-0.4629512169538189,"100":0.9333878242750033,"101":0.3084997146183665,"102":0.656044841325623,"103":-0.0943411187666304,"104":-0.6839561036063171,"105":0.18794672530379064,"106":0.17332453714133045,"107":-0.03921812069318852,"108":0.29816348027106376,"109":0.14516791768486825,"110":0.07930163638860793,"111":0.2108075005201494,"112":-0.16009157749370193,"113":-0.11876186976065761,"114":0.06343062496135328,"115":-0.22201773864076055,"116":0.5298761096197606,"117":0.6200971167587753,"118":-0.5608673228200349,"119":0.5765087352141031,"120":0.03185529182323606,"121":0.6816447138958215,"122":-0.1888823365303637,"123":-0.1674026985001731,"124":-0.781907670748676,"125":-0.8867380124659979,"126":-0.4914776284160416,"127":-1.0489440357372748,"128":-0.9209690078564773,"129":-0.46295890180537547,"130":0.21613315335727898,"131":0.6604247034882138,"132":0.9891341123155617,"133":-0.22086756965209217,"134":-0.9528874390237835,"135":-1.6052277902254803,"136":-1.0180534757121544,"137":-0.8643194948526214,"138":-0.12678358569596765,"139":0.7555934430984399,"140":0.1087564652425019,"141":0.40156915482936856,"142":-0.28762849478229907,"143":-0.027930596144621376,"144":-0.3063643579368899,"145":-0.3724937200759682,"146":0.20191467863679988,"147":-0.23375347115367842,"148":0.5391173971182526,"149":0.37745200680195873}},"19":{"bias":-0.43628424004529265,"weights":{"0":-0.08093990799304458,"1":0.2305701146283863,"2":0.7462003154621207,"3":0.4487655039550493,"4":0.07866828552766278,"5":-0.11899199939017245,"6":0.4328513757010963,"7":-0.23793312021012478,"8":-0.41174147667631983,"9":0.4121754541131884,"10":-0.11093967082936486,"11":0.6176845349675091,"12":0.6084349477410179,"13":0.25494382802148835,"14":-0.49110898581157636,"15":-0.3237469503124157,"16":-0.7547646040889926,"17":-0.06806246511499574,"18":-0.41978347298369517,"19":0.07338330716666361,"20":-0.09909048331957197,"21":-0.22654625692330121,"22":-0.19045640811050996,"23":0.2677822143603198,"24":-0.7114701725437325,"25":-0.33351756839707636,"26":-0.7779985850726204,"27":-1.0420292435353813,"28":-0.44322501970009437,"29":-0.34947490995947667,"30":0.13328115158221746,"31":-0.8795469502409811,"32":-0.21568688658461094,"33":0.19856786295590292,"34":-0.08129641458692502,"35":0.6101531895789497,"36":-0.5436869690963269,"37":0.4690986394588131,"38":-0.4396998601088108,"39":-0.5997050400956773,"40":-0.45418606238639847,"41":-0.45084535605988785,"42":-0.0921989455156599,"43":-0.7044859396730629,"44":0.049164296318998366,"45":0.2724576367229334,"46":-0.04545684783401433,"47":0.36520458607268624,"48":0.1489058149442639,"49":-0.3211905557185682,"50":0.35010702584794656,"51":-0.557474048342676,"52":-0.6266321711749668,"53":-0.36936443991888424,"54":0.8995528303335766,"55":-0.3043445662664447,"56":0.43972806840462775,"57":0.33554130712549884,"58":0.6963537923598492,"59":0.10494505307449123,"60":0.8646806045080432,"61":0.1084077110177577,"62":0.36528059774299915,"63":-0.9168345882548291,"64":0.37524628230720747,"65":-0.6392791407777922,"66":0.8589034163958295,"67":1.1135990012655255,"68":0.7586526303591575,"69":0.7063873749885032,"70":-0.290044738789056,"71":0.9792284410154929,"72":-0.46910098688519125,"73":0.045522061907433124,"74":0.16753037948184077,"75":-0.34657012329623027,"76":0.16037653479353417,"77":0.13279253560479404,"78":0.8041153919174803,"79":0.5878016477782024,"80":0.649953754759757,"81":-0.34218475620578975,"82":-0.6702062709855867,"83":0.4432817630342248,"84":-0.2408553414498948,"85":-0.14049957480974154,"86":0.8233436405174854,"87":0.42318190888714724,"88":1.5430525136746662,"89":0.6335744045476339,"90":-0.36970175400771954,"91":0.2698653263719509,"92":-0.6384607104917269,"93":-0.6139997330816852,"94":-0.6455251121912101,"95":-0.337357193721269,"96":0.6262379988079011,"97":-0.1937213280749138,"98":0.6725094028626333,"99":0.11865556576680787,"100":-0.48419805001928345,"101":-0.35524119475546756,"102":-0.35533347108823343,"103":0.6155853309120976,"104":-0.49771215513801326,"105":-0.17741570451025132,"106":-0.23199727809588183,"107":0.04237271503294398,"108":0.3378121745524119,"109":0.25201307424894626,"110":-0.5541723118730417,"111":-0.4287151912189856,"112":-0.22857948888935922,"113":-0.01847915188998706,"114":-0.3731685266889967,"115":0.6269499675098272,"116":0.37282855305110324,"117":-0.32638515560565823,"118":-0.39202176557681834,"119":-0.38908305122764214,"120":-0.6012622922675214,"121":-0.3847315435740769,"122":-0.22471762733354322,"123":0.33190727423697225,"124":0.6259859878578392,"125":0.6592918137311454,"126":-0.34784737277058825,"127":-0.42053013856444105,"128":-0.3588824849706418,"129":-0.7033093390872862,"130":-0.8340858608391816,"131":0.13325313833620317,"132":1.0110716005260838,"133":0.8535745325438361,"134":1.28071308882545,"135":0.4925520150657148,"136":0.6342673250901574,"137":0.31223838683534866,"138":-0.652006725610574,"139":-1.1271909522317685,"140":-0.911637307321836,"141":-0.15050748883606593,"142":1.1920985501009609,"143":0.864114769533511,"144":0.06779822572455751,"145":0.8286418173737508,"146":0.10550679861633755,"147":-0.26970031812341927,"148":-0.7371795797066046,"149":-0.5547703944161135}},"20":{"bias":-0.18525183101519013,"weights":{"0":0.3309816658893306,"1":0.13742240910026066,"2":1.0611993565238484,"3":-0.0586540451060468,"4":-0.09229871296103206,"5":-0.24479780714645302,"6":0.05194141983324275,"7":-0.2115026643778928,"8":-0.8857402733296829,"9":0.06262774307324587,"10":-0.3719047383831975,"11":0.10126746971597322,"12":0.7069176313675232,"13":0.3099759094459955,"14":0.13046444150893405,"15":0.39189146358077176,"16":-0.2544830705005004,"17":-0.14235896226017655,"18":-0.13306304605507746,"19":0.612491806234089,"20":0.08730078492199794,"21":0.5464654474072579,"22":0.3738308759335023,"23":0.20957241748852262,"24":-0.3011845636316666,"25":0.31427521534426045,"26":0.20168055934580076,"27":-0.10483767770389914,"28":0.31327122407311964,"29":0.3374502541792357,"30":0.960039216702044,"31":-0.054239648392804575,"32":-0.7942515477312814,"33":0.5365198051596702,"34":0.6078457747114884,"35":0.6995212670661136,"36":0.3308109409167678,"37":-0.034340764256281776,"38":0.19242297695397845,"39":0.5201480230709854,"40":0.05514325508756419,"41":-0.33660137653676686,"42":0.1628063638528205,"43":0.35702404128364207,"44":0.27365391564353553,"45":0.6617935720279319,"46":-0.1093577937296813,"47":0.17260432137908388,"48":0.6700732219366043,"49":0.37077570514077735,"50":0.20029707472169167,"51":0.03376642369488164,"52":-0.12691328500514007,"53":0.30764418164343743,"54":0.19305935312431916,"55":0.43386725394604314,"56":0.26113069027914115,"57":-0.07822661962186789,"58":0.8050626716437218,"59":0.626075891232136,"60":0.03002817643036214,"61":0.3402863310058729,"62":-0.6567635758683849,"63":-0.15181244010704276,"64":0.5201771097905682,"65":-0.05568027596715559,"66":0.3649296892245765,"67":-0.2551898033643221,"68":0.7501570228720184,"69":0.24171377463473115,"70":-0.5206232148688391,"71":0.1405053871404794,"72":-0.8395092642124595,"73":-0.08386575644061894,"74":0.051882549760880595,"75":0.5943364828984257,"76":-0.1543817491697884,"77":0.44280590020975724,"78":0.7340894876934513,"79":0.867593144401464,"80":0.3416043671207272,"81":-0.033748060815259946,"82":0.1732999150981153,"83":0.3225889187840728,"84":0.3709899971647865,"85":-0.40719603181180186,"86":-0.8794140101416913,"87":-0.15065369778698734,"88":0.8559432988530788,"89":1.5715736994880114,"90":-0.8452994383887171,"91":-0.5398382361438206,"92":-0.09702386514431145,"93":-0.15182496863692913,"94":0.6179745305966692,"95":-0.6182887530705253,"96":-0.2564576458651417,"97":-0.0035752392825533588,"98":0.14361272081042736,"99":0.10061181385979406,"100":-0.7672457992332704,"101":-0.5834658339882205,"102":-0.08393570684143879,"103":0.7632345803963324,"104":0.06185066944626192,"105":-0.2968694833857148,"106":-1.0407281873619687,"107":-0.6203850081731471,"108":-0.36369233994930134,"109":0.046272848669876285,"110":-0.9146485131052695,"111":-0.25441433510093975,"112":-0.12789850361372948,"113":0.20364721141394174,"114":-0.285772051513912,"115":-0.885624194649116,"116":0.015981685099206777,"117":0.3143403600107741,"118":-0.4068565431912824,"119":-0.5070847282722409,"120":-0.686180139842764,"121":-0.5397926154621763,"122":0.11717608271066474,"123":0.38040635195563627,"124":-0.2882351167534348,"125":-0.3777848458944199,"126":0.14806436920319,"127":0.36029215677771936,"128":-1.3074140307105233,"129":-1.048622348167587,"130":0.07854961651990883,"131":-0.1565409109626521,"132":0.09822932899809024,"133":-0.5130996968416621,"134":-0.44284735659812235,"135":-0.5782442701902474,"136":-0.03489418082022406,"137":0.2646005959336734,"138":-0.9084085802108909,"139":-0.9927295730260502,"140":-0.553913626307194,"141":-0.3657609378290377,"142":-0.1539141102527207,"143":-0.38938167888616537,"144":-0.772638823757046,"145":0.06459289059360844,"146":0.4964535095194609,"147":0.18547117858205897,"148":0.6866518614448365,"149":0.03356752870380157}},"21":{"bias":-0.8113515274390133,"weights":{"0":-0.156704581052385,"1":0.3982671585955589,"2":0.04347305885566327,"3":0.2819170876754889,"4":-0.14644338024796205,"5":-0.20482909419189968,"6":0.6324593445824315,"7":0.8081305738645874,"8":0.06719444801721455,"9":-0.5843750021171461,"10":0.2713564085608888,"11":0.9343777004029064,"12":0.14452805416503828,"13":-0.5676774057425246,"14":-0.7395116484243793,"15":0.16650903022811617,"16":0.1416457551233741,"17":-0.08360726153030766,"18":-0.22198401095079331,"19":-1.1008646795837962,"20":0.5912662398592957,"21":0.5035082026760023,"22":-0.6002061160190687,"23":0.03013869132622046,"24":-0.22450529189509574,"25":-0.45499987711413903,"26":-0.2673645086590544,"27":-1.449105499064469,"28":-0.7687181497581266,"29":-1.0206658195045013,"30":0.3060516781939971,"31":-0.6795258389296723,"32":-0.2703539942372547,"33":0.12441056373342452,"34":-0.10995426447892112,"35":-1.041147498382011,"36":-0.005637861084383638,"37":-1.3483188701392002,"38":-0.6124260506662998,"39":-1.1514186668170305,"40":-0.03888018830594913,"41":-0.2969122764832536,"42":-0.15264397504866062,"43":-0.7375376171373175,"44":-0.8053989553210319,"45":0.15037260053665097,"46":-0.22081235652914974,"47":-0.8159933596851872,"48":-0.9373595424232208,"49":-1.2134143425953063,"50":-0.5889245794847566,"51":-0.2917814740329687,"52":0.854979689280627,"53":0.32513698156274623,"54":0.10305614473660406,"55":0.861560488313922,"56":0.05463106843848331,"57":0.07912419945849448,"58":-0.45545429131049936,"59":-0.7486341152898602,"60":-0.30267683737627,"61":0.08401083690185371,"62":0.8315796398080558,"63":0.13973245529130404,"64":0.16733691452331115,"65":0.2063540423764109,"66":-0.009575904844054918,"67":0.6223340384140307,"68":-0.889011300987457,"69":-0.36028992780347896,"70":0.22359784082581277,"71":0.23307788173036412,"72":0.6927348252376432,"73":0.06264055626892505,"74":-0.627033742620814,"75":-0.049112588985446376,"76":-0.15512031313820165,"77":0.4590983272569439,"78":0.06612486998767615,"79":0.04179984394254417,"80":-0.13388610970235085,"81":0.2398289705024235,"82":1.0183993690154804,"83":0.24260176255524174,"84":0.17655524271589976,"85":0.33714300628268096,"86":0.015459486533826155,"87":0.8406039772040356,"88":0.5031146678206744,"89":-0.32367626290565515,"90":0.11758501252470561,"91":0.7579626188446432,"92":0.6009573546567473,"93":0.5843259637793311,"94":-0.39633573670456895,"95":0.3119040429602716,"96":-0.2598888660450324,"97":0.5069782834931079,"98":0.2521608752120034,"99":0.22877230444261307,"100":0.3142497601969972,"101":0.6731471918984164,"102":0.17947477359916225,"103":0.3807508928370297,"104":-0.07171379040262017,"105":0.6829032224931968,"106":-0.30380524861836744,"107":-0.009265561122993454,"108":0.3166974526784482,"109":0.39085060238393377,"110":0.37307832491835125,"111":-0.19279504359683053,"112":0.4014354334185872,"113":-0.2764568366477648,"114":-0.21284996080859092,"115":-0.07387594303093564,"116":0.25284316153456304,"117":0.40889976325762034,"118":0.1761837899443101,"119":0.2514063533784319,"120":0.0090022585998006,"121":-0.19956696963868273,"122":-0.054769865920929785,"123":-0.1406541714444458,"124":-0.030979232577979934,"125":0.20458028371879114,"126":0.07461564280880834,"127":0.5521411518725431,"128":0.413304810023808,"129":0.5184490304802185,"130":0.08310556304939457,"131":-0.15522119966553447,"132":0.7163160580921634,"133":-0.5268816759296,"134":-0.11636213335242689,"135":0.24679631505683353,"136":0.12285046851146265,"137":0.4112417479958923,"138":0.695758038508496,"139":0.6476909220648657,"140":-0.5964467377374573,"141":0.24980508444259086,"142":0.1329610566732572,"143":0.005086957186375436,"144":0.16000771662364277,"145":-0.5211941366431705,"146":-0.9185252091640792,"147":0.08918650998155224,"148":0.2916182452221669,"149":0.25125605377953564}},"22":{"bias":-0.6028851475022431,"weights":{"0":0.2235866915886683,"1":-0.16984114155295085,"2":-0.4492155218422222,"3":-0.3703349764707706,"4":-0.7355412633454799,"5":-0.3130508720886194,"6":-0.516196656132094,"7":0.34936113531841967,"8":-0.7028526022999504,"9":-0.02224821467036451,"10":0.17742657253879202,"11":-0.4790869624194989,"12":0.43666320949152987,"13":-0.22981417543266727,"14":-0.33148077296359274,"15":-0.4036531687540878,"16":-0.22971474280301254,"17":0.8914999928086879,"18":-0.09885939421278936,"19":0.34859880369093466,"20":-0.007866159506369265,"21":0.6296852686352306,"22":-0.05054335601689857,"23":-1.1646984092462933,"24":-0.1363085429335163,"25":-0.5751628391318527,"26":-0.6010016761394416,"27":0.5888357818614635,"28":0.7637315997171503,"29":0.19128846417717904,"30":0.7113019207577281,"31":0.25325732943260487,"32":-0.05798206828884709,"33":0.023383876322423926,"34":0.42025450193888114,"35":-0.11139307358987276,"36":-0.008049536418471465,"37":-0.21584780037996845,"38":0.8761993389584473,"39":0.013571014528284214,"40":1.1031009346801357,"41":0.03599863421440216,"42":0.49148551584976347,"43":0.13824258242093543,"44":0.11295066233454372,"45":-0.7482490646352663,"46":0.3679965593600452,"47":0.3874720692574825,"48":0.03607427166337363,"49":0.9120342844694544,"50":0.6199075458013905,"51":-0.5172469866829188,"52":0.6398842163705296,"53":-0.04528494931251435,"54":-0.29298448034337937,"55":-0.35722194512131666,"56":-0.17715608907902466,"57":-0.4357378622760278,"58":-0.27846255326094993,"59":0.658075917379157,"60":-0.2359176882248142,"61":-0.17867122956469714,"62":0.2463681752018021,"63":0.3872487234032036,"64":0.41265872651926844,"65":0.1688866371560865,"66":0.2563898028836902,"67":-0.27418899395969554,"68":0.6852768659351512,"69":0.655358161112418,"70":-1.1976032805686467,"71":0.49140457200116366,"72":-0.621452926938993,"73":-0.1533297041958806,"74":-0.08503824787250142,"75":0.7076747764430844,"76":-0.5231503093103063,"77":0.20875130417335466,"78":0.8425387883434841,"79":1.3736013161554046,"80":-0.44741518721914547,"81":-1.4585761950266751,"82":-0.43873233971766595,"83":-0.07987679623434125,"84":0.971875704729587,"85":0.33804536643962224,"86":-0.6317193337541357,"87":-0.06708609341418094,"88":1.1082393432422595,"89":1.3053180109787046,"90":-1.1133424367071774,"91":-1.8701287759124485,"92":-0.059647890850237674,"93":-0.05432876464628058,"94":0.7853579584727658,"95":-0.5118593159883014,"96":0.23077848307804436,"97":0.18001080883968437,"98":0.935254389452796,"99":0.2163637549709692,"100":-0.7112083258318386,"101":-0.04308386689438713,"102":-0.5864010953477429,"103":0.21736095050603946,"104":-0.0845998181144178,"105":-0.17299901514420088,"106":0.1318125796418495,"107":1.1957782980365501,"108":0.8042719315784095,"109":0.8592798852700209,"110":-0.35796875351226537,"111":-0.27454412840399045,"112":-0.2754240551177887,"113":0.0180103001265352,"114":0.3295294775861026,"115":-0.6130649373381508,"116":0.7909529483973864,"117":0.7618434522456432,"118":0.2210759317439974,"119":0.44619065013727477,"120":-0.2314886988293531,"121":-0.0959503766297712,"122":0.2203890218488649,"123":0.21602340050246055,"124":0.35241359818101187,"125":0.5018434014702473,"126":0.14745296499209093,"127":0.6899689573674332,"128":0.2746697267120399,"129":-0.4600608502520364,"130":0.9561071645831918,"131":0.05973228365272064,"132":0.14225519433327405,"133":-0.7024677736632459,"134":-0.5901748691966331,"135":-0.16726587277212954,"136":0.5987068468085035,"137":0.535509142698561,"138":0.13374779231299014,"139":-0.019146468984561803,"140":-0.030882588353522675,"141":0.009069363647382426,"142":-0.7081727447765638,"143":-0.6623399852237706,"144":-0.9018787584055717,"145":-0.02028614658716908,"146":1.0214718481239777,"147":0.6204137398162,"148":0.8651985509970916,"149":0.36093671619477724}},"23":{"bias":-0.3611823701534759,"weights":{"0":0.45180036917280386,"1":0.09087229778881331,"2":-0.3296559218857796,"3":-0.0026970511018744848,"4":0.22858634040738549,"5":-0.08789671945912192,"6":-0.15370086158256827,"7":0.2638141841259581,"8":-0.01647685318655075,"9":-0.13314080070617013,"10":-0.4960027566520515,"11":0.753400795850763,"12":0.3202644279534701,"13":0.5963036439834282,"14":-0.1407424437229678,"15":0.1598752142919246,"16":-0.2723018645399293,"17":-0.18901211730875594,"18":-0.153183188214921,"19":-0.04370030701608061,"20":-0.1057205781604081,"21":0.5721185292316183,"22":-0.14296011608490922,"23":0.8270425905311721,"24":0.9679857603986126,"25":0.5288887539849321,"26":0.317874186363494,"27":-0.5175815760678018,"28":-0.16566077226828757,"29":-0.1682085934921177,"30":0.20343899189898776,"31":0.6755032125300443,"32":-0.1744879349867301,"33":1.1254646321317074,"34":1.055159216977667,"35":0.5421000618416456,"36":0.22899982639639346,"37":-0.2210300149986736,"38":-0.228262739637681,"39":-0.43632146011435285,"40":0.5373251806062764,"41":0.5479865010057181,"42":-0.007413260405061248,"43":0.11168767621500865,"44":0.20365719415058167,"45":0.7956726216688818,"46":0.19826324285283825,"47":-0.3832542032001511,"48":-0.786551502634419,"49":-0.2416184787356988,"50":0.39639971621328557,"51":0.25735168651800444,"52":0.025697890366742176,"53":-0.49581178152254146,"54":0.10739472312940078,"55":0.08718645272660469,"56":-0.5601057451138298,"57":-0.49957615061198607,"58":-0.2984077137430859,"59":-0.006673649223521092,"60":0.6189176300320961,"61":-0.0411149251431461,"62":0.2642974402211644,"63":0.5742337236773052,"64":1.0278979977710894,"65":-0.553501180232165,"66":-0.07086525562868938,"67":-0.470660843918907,"68":-0.2971850058874196,"69":-0.3178605885461835,"70":0.5533891140129543,"71":0.41211037082322305,"72":0.21353639150173284,"73":0.16065710467488187,"74":0.46994499640030657,"75":0.04485172925707149,"76":-0.5924767296037077,"77":0.3295888061693265,"78":0.32525896212141625,"79":0.061561095650501066,"80":-0.577380701286186,"81":-0.24205101399299717,"82":0.3664635023718609,"83":-0.13262509826532068,"84":0.0018063905247392843,"85":-0.6231182665931587,"86":-0.6006572728142667,"87":0.26693601089516283,"88":0.014637151570227496,"89":0.3367099388187072,"90":-0.6087521363873984,"91":-0.5421682950590515,"92":-0.13346404632852604,"93":-0.9967866646061577,"94":-0.6886861545956615,"95":-0.5089499993749071,"96":-0.12351048056534215,"97":0.40191121436397065,"98":0.9133557271058824,"99":-0.043277482009534185,"100":-0.8498364316834522,"101":-1.2657814497820734,"102":-0.5591397191152171,"103":-1.1078055478022244,"104":-0.4552965316315942,"105":-0.505523747168286,"106":-0.3470128557747894,"107":-0.2738374051527712,"108":0.417273211727615,"109":0.10368653786030917,"110":-0.9134348628484623,"111":-0.6660075680580666,"112":-0.12450668913302389,"113":-0.6270184881651681,"114":-0.0471575623441309,"115":-0.5273095201663764,"116":0.19115008662727814,"117":0.33259561206301563,"118":-0.5327495545289647,"119":-0.06988813527834886,"120":-0.20194448340243545,"121":0.06369287941340669,"122":-0.07043826490166177,"123":-0.07533730383357505,"124":0.0727791334918258,"125":-0.6303550836791857,"126":0.026023696867328163,"127":-0.0720089136528831,"128":-0.2523820441623551,"129":-0.754112573138525,"130":0.49439262950857854,"131":0.046430610197122926,"132":0.40136743916613515,"133":0.25947566267143507,"134":0.7905150997182631,"135":0.25080737389199753,"136":0.17740408501701643,"137":0.25057840047506663,"138":0.054837868853288084,"139":0.08427749631863227,"140":0.285513157217199,"141":0.537059863546076,"142":0.11657127232332407,"143":-0.09276279215794252,"144":0.7011114079134603,"145":1.515602059932386,"146":0.661949670147651,"147":0.035518146391874054,"148":0.14400727100047572,"149":-0.3453635849382586}},"24":{"bias":0.11291977746041354,"weights":{"0":0.2506236316806363,"1":0.5074760348201433,"2":-0.4687733884307332,"3":-0.19936585539867957,"4":-0.540590296509922,"5":-0.07032971807148923,"6":-0.25289550340694444,"7":-0.3070465773141815,"8":0.2608565726738844,"9":-0.7475434966638105,"10":0.8639815966206311,"11":0.6249160544895623,"12":-0.325128424051839,"13":-0.7273887234871339,"14":-0.7983054636332194,"15":0.2988181902587471,"16":-0.16302383940061002,"17":0.30877832177750025,"18":-0.04703764318660601,"19":-0.7817398857702872,"20":0.4845003312471319,"21":0.7585299464441724,"22":-0.4408725659027503,"23":-0.03639234483006682,"24":-0.14140227920131243,"25":0.0037197641815590026,"26":-0.10443748887679503,"27":0.7079000038404499,"28":-0.13417057054668244,"29":-0.28942399021255005,"30":0.22483783890387396,"31":0.06224089566636644,"32":0.4610312456386642,"33":-0.7920589028105952,"34":-0.9389468402390576,"35":0.02686893470424781,"36":0.04578543533309575,"37":0.1759322385564985,"38":-0.17363645578206122,"39":0.13333882861388627,"40":-0.18211949605113179,"41":0.0074203583534227305,"42":-0.29320205980934166,"43":-0.14077495144013602,"44":0.23711754836672402,"45":-0.27603075038150315,"46":-0.04391188976089523,"47":0.18066624472260548,"48":0.31137364347106217,"49":0.14661461672728954,"50":-0.22772063678480944,"51":-0.6678012266963396,"52":-0.7627314107343693,"53":0.10619479253397876,"54":0.11230733961202516,"55":-0.30272830965841613,"56":0.3078363557103397,"57":-0.006998281934834199,"58":-0.28476337855686357,"59":0.22464489752277605,"60":-0.38931791718450176,"61":-0.13059948619834694,"62":0.08383006620522634,"63":0.018218640454715312,"64":-0.9584691259494375,"65":-0.018417559561687415,"66":-0.04294816246511272,"67":0.15168799197160962,"68":0.25973210332811686,"69":-0.19897091914616089,"70":-0.45223834368568794,"71":-0.12515224784030501,"72":0.2983916340653301,"73":-0.07293322508510078,"74":-0.3874305309130398,"75":-0.813932751422975,"76":-0.4429182033567759,"77":0.2129375269290493,"78":-0.07396025739443457,"79":-0.18841052342333167,"80":-0.2551089190149111,"81":0.5198445712858506,"82":-0.1928853597912983,"83":-0.3773094086622056,"84":-0.8502493235899864,"85":-0.4531325197121831,"86":-0.19195921331118607,"87":0.2189369853929324,"88":-0.5097868131731941,"89":0.0499857677029451,"90":-0.14172951865931668,"91":0.45272576729458014,"92":-0.25224447109313086,"93":-0.009993464937683874,"94":-0.48283510615063047,"95":-0.5185503783608333,"96":-0.4482338846416225,"97":-0.7268498208381875,"98":-0.30550629441342225,"99":0.4924828531811941,"100":0.2722535066581565,"101":0.1699282095466306,"102":-0.09010986336115871,"103":0.4361721350957495,"104":-0.43416399902348274,"105":-0.7602017260499031,"106":-0.33166257816854344,"107":0.12470929119554419,"108":-0.01836482373882694,"109":-0.04640551866937444,"110":0.33069468576812366,"111":-0.11602601820475357,"112":0.1275309041251866,"113":0.5703804216868875,"114":0.15664762768565968,"115":0.06865073376592441,"116":-0.265507347405431,"117":0.12915028978409354,"118":0.19751571391302672,"119":-0.13543562003764156,"120":-0.32785138267944364,"121":0.5616968044057036,"122":0.5796538455458388,"123":0.40796938133155985,"124":0.852799031463112,"125":1.090209120733538,"126":0.32058934401214934,"127":-0.1978059301669531,"128":0.6896729737088124,"129":0.846624872487419,"130":0.10294063399567395,"131":0.3288590427185087,"132":0.7059806175035399,"133":0.3906122784118938,"134":1.2471266000788297,"135":1.1309810695092326,"136":0.6066887759480081,"137":-0.048570860160064476,"138":0.924162830240456,"139":0.0682228654900185,"140":-0.21899320933787403,"141":0.496337145010599,"142":-0.18123684265066273,"143":0.20957987186116955,"144":0.5484949405811381,"145":0.5592754520558412,"146":0.19058278256600206,"147":0.6953080084344002,"148":0.3957833028675973,"149":0.5161331239236097}},"25":{"bias":0.3739653975918736,"weights":{"0":0.31546187480147037,"1":0.022834092323089368,"2":-0.04538199429932822,"3":0.6528456216512072,"4":0.2013832142352521,"5":0.31576619128465594,"6":0.31657709488285934,"7":0.26537228790314416,"8":-0.12060274716790324,"9":-1.0093473590960962,"10":0.5695854255453,"11":-0.1661799658452381,"12":-0.6333466172857294,"13":0.17321017810933587,"14":0.5302328578371857,"15":0.29463406203662634,"16":0.39693342556634204,"17":0.6638679664993018,"18":0.5294176120963886,"19":-0.9108731096684287,"20":0.13590287607604212,"21":-0.5133990310646952,"22":-0.17769093490214358,"23":-0.3166981842445897,"24":-0.7283257605083687,"25":-0.45459936696925174,"26":-0.5353536515704675,"27":0.004452970800621972,"28":0.880036846036656,"29":-0.19198268286897605,"30":-0.4212357364173402,"31":-0.33590454951353466,"32":0.5135182447418271,"33":-0.4385035133309808,"34":-0.5652315951565037,"35":-0.7363595350703191,"36":-0.07344170058779795,"37":-0.05646170456679935,"38":0.032036520457530054,"39":-0.03709428561159648,"40":-0.2615685721309105,"41":-0.3188145780871726,"42":0.5015922619815874,"43":0.10776762888048205,"44":-0.11137410811696141,"45":-0.5058456986698862,"46":-0.1791909844197936,"47":-0.028811189577303015,"48":0.33949283032072053,"49":-0.44462526498561794,"50":-0.5352273585243867,"51":0.40929290525671025,"52":0.10988299516816122,"53":-0.22433076976916225,"54":0.1256725805439504,"55":0.3217523941185656,"56":-0.7051428762377401,"57":0.29632231076722015,"58":-0.6281576589757558,"59":-0.5271779786580606,"60":-0.5519621499933923,"61":-0.2586010866408386,"62":0.03108525467922109,"63":-0.3226573119335479,"64":0.11393378946626277,"65":-0.020003315773883465,"66":-0.027720983956257866,"67":0.18695130560096435,"68":-0.9049489430715999,"69":-0.6444191767804942,"70":-0.27411235647105153,"71":-0.23293913734837451,"72":-0.26421787986709155,"73":-0.2716088453738323,"74":0.016840073067010873,"75":0.3616609357967685,"76":0.5676547554609113,"77":-0.6459929605925345,"78":-0.7368740501095061,"79":-0.49852270988280584,"80":0.09679255623152647,"81":-0.6851998487340799,"82":-0.6792697798399389,"83":-0.44555241061883155,"84":-0.5825990406870242,"85":0.17505073108216904,"86":0.48717394763232236,"87":-0.6566952588331773,"88":-0.8298259903458516,"89":-0.9261778315154244,"90":0.704416240733006,"91":0.7388860089058137,"92":-0.6494305797624638,"93":0.4178532540802667,"94":-0.4045373826293489,"95":0.46576378057760476,"96":-0.48827404931909,"97":-0.3860854935093335,"98":-0.06525553471149499,"99":0.5604691039515682,"100":0.09133006790921253,"101":0.15268611470520504,"102":-0.36459793043046346,"103":-0.3831619074926227,"104":-0.005703442186191473,"105":0.82230516409358,"106":0.3633840149655425,"107":0.14102834151344693,"108":0.8876558805673019,"109":-0.017225341827483975,"110":0.44329480472919025,"111":-0.09728685393886284,"112":-0.48031221555694165,"113":-0.18246167653613185,"114":1.220913159653613,"115":0.1252054384448269,"116":-0.32628731301722924,"117":-0.027191306898230547,"118":0.9290396803243626,