{"layers":[{"0":{},"1":{},"2":{},"3":{},"4":{},"5":{},"6":{},"7":{},"8":{},"9":{},"10":{},"11":{},"12":{},"13":{},"14":{},"15":{},"16":{},"17":{},"18":{},"19":{},"20":{},"21":{},"22":{},"23":{},"24":{},"25":{},"26":{},"27":{},"28":{},"29":{},"30":{},"31":{},"32":{},"33":{},"34":{},"35":{},"36":{},"37":{},"38":{},"39":{},"40":{},"41":{},"42":{},"43":{},"44":{},"45":{},"46":{},"47":{},"48":{},"49":{},"50":{},"51":{},"52":{},"53":{},"54":{},"55":{},"56":{},"57":{},"58":{},"59":{},"60":{},"61":{},"62":{},"63":{},"64":{},"65":{},"66":{},"67":{},"68":{},"69":{},"70":{},"71":{},"72":{},"73":{},"74":{},"75":{},"76":{},"77":{},"78":{},"79":{},"80":{},"81":{},"82":{},"83":{},"84":{},"85":{},"86":{},"87":{},"88":{},"89":{},"90":{},"91":{},"92":{},"93":{},"94":{},"95":{},"96":{},"97":{},"98":{},"99":{},"100":{},"101":{},"102":{},"103":{},"104":{},"105":{},"106":{},"107":{},"108":{},"109":{},"110":{},"111":{},"112":{},"113":{},"114":{},"115":{},"116":{},"117":{},"118":{},"119":{},"120":{},"121":{},"122":{},"123":{},"124":{},"125":{},"126":{},"127":{},"128":{},"129":{},"130":{},"131":{},"132":{},"133":{},"134":{},"135":{},"136":{},"137":{},"138":{},"139":{},"140":{},"141":{},"142":{},"143":{},"144":{},"145":{},"146":{},"147":{},"148":{},"149":{}},{"0":{"bias":0.5631269386943352,"weights":{"0":-0.39745021061133273,"1":0.04887026547533086,"2":0.08779608074651565,"3":0.24235939549617608,"4":0.13868088906118003,"5":0.1329626551119011,"6":0.12253757478590313,"7":-0.07866951899389021,"8":0.1127570937100994,"9":0.3455018055896009,"10":0.19664921150141015,"11":0.10583811237347793,"12":-0.05681691011590872,"13":-0.263948937538621,"14":-0.39136680940578816,"15":-0.2757775106077881,"16":0.11231096437334806,"17":-0.21015882815990589,"18":0.4605072608301625,"19":0.3232389627598216,"20":0.12081188473538677,"21":0.12249866221871449,"22":0.10286942263805758,"23":-0.27536916447331394,"24":-0.6316630698306035,"25":-0.21630624689927264,"26":-0.18114620409869306,"27":-0.038349124144134814,"28":0.06252237124558904,"29":-0.35872553166611243,"30":0.09613799298264444,"31":0.1816502650600399,"32":0.09920787828159798,"33":-0.08678183260587903,"34":-0.2464314247228932,"35":-0.44596207809585825,"36":-0.3371293554774519,"37":-0.3300938792860129,"38":-0.07127387253748023,"39":-0.34176188214205444,"40":0.1811890228088244,"41":-0.193865244217253,"42":0.04288587360043036,"43":0.14059817769900013,"44":-0.5729593095675986,"45":0.2881593942036274,"46":-0.08934155589777572,"47":-0.2110235710735889,"48":-0.22290712175503274,"49":0.046622521860124645,"50":0.2948228206251824,"51":-0.14880211689511022,"52":0.23713224713304318,"53":0.044150879026869747,"54":-0.7501930615586965,"55":0.043640587084280924,"56":-0.3770952293289264,"57":0.18423864456515598,"58":0.09352271732398904,"59":-0.17325083200352356,"60":-0.2685916112679475,"61":-0.21903965621716645,"62":0.15092480211612005,"63":0.20124295473193657,"64":-0.17261167337879832,"65":-0.21029544183722174,"66":-0.3705333256620175,"67":-0.42333700075851416,"68":-0.5383662970115988,"69":-0.32824320804685403,"70":-0.022065612165655456,"71":-0.009981462905559804,"72":0.2909718809456439,"73":0.2078207350705648,"74":-0.19310589793102184,"75":-0.1233949332327689,"76":-0.3709778830344494,"77":0.0024393044663646546,"78":-0.4632134341767467,"79":-0.7271392119852286,"80":-0.19487755054021907,"81":-0.08541990382333024,"82":0.19757624593432044,"83":-0.1972137247234734,"84":0.10625871275375863,"85":0.03741651393470238,"86":-0.6485602606682089,"87":0.04100298338179968,"88":-0.3931442755459683,"89":-0.6977004589351583,"90":0.3580043401707388,"91":-0.2201025543428604,"92":-0.13697550325787067,"93":0.2390977337357775,"94":0.8274441908285598,"95":0.25351271973435674,"96":-0.4653959130353124,"97":0.3643847253085472,"98":-0.050257166215049276,"99":-0.18283817080550538,"100":0.021088897831897706,"101":0.012597219202725149,"102":0.09350357636816578,"103":0.02320678416670233,"104":0.7525967992295642,"105":0.28743444887099623,"106":0.301189716164926,"107":0.11191755938757336,"108":-0.04426206968447381,"109":-0.4194749887431061,"110":0.6700472561669483,"111":0.03881193795526001,"112":0.2770184392760179,"113":-0.01515292196707427,"114":0.5005398581954276,"115":0.668991092368074,"116":0.07194623499744285,"117":-0.004002093900966259,"118":-0.23858161230888889,"119":-0.29958352668467786,"120":0.2610664363754355,"121":-0.11121512484456733,"122":-0.13931545472004125,"123":0.19999006521299087,"124":0.17267898144876181,"125":0.5685193327923087,"126":-0.2539883669534614,"127":-0.09383213367743269,"128":-0.22136002950001615,"129":0.028530479909132912,"130":-0.05396489195268622,"131":0.49486389307521617,"132":-0.33094385221544725,"133":0.42230780305408244,"134":0.07944244825821427,"135":-0.15924428309015878,"136":-0.6939027235680945,"137":-0.4718347689349085,"138":-0.11375073990296271,"139":0.23809192125827447,"140":0.43198747890682965,"141":-0.21061339368263107,"142":0.17274882631624086,"143":0.24902754954083087,"144":0.07208218066550286,"145":-0.6355849789542306,"146":-0.6962221998008441,"147":-0.3859223371825158,"148":0.1433435628548921,"149":-0.03294057337130969}},"1":{"bias":0.4263718406717647,"weights":{"0":-0.2959988479681748,"1":0.3965303090223382,"2":0.0498766944553689,"3":0.5527539078599816,"4":0.34723054845596046,"5":0.05529929504178854,"6":0.12450525230296738,"7":0.11303536430664018,"8":0.16031958588610976,"9":-0.17474869289908868,"10":-0.3027719679612153,"11":-0.01628281107502582,"12":0.3451263779258719,"13":0.2964046661741342,"14":-0.19040759169759364,"15":-0.3780165039395752,"16":-0.3754690297639237,"17":0.08132710200317664,"18":-0.005773639811666159,"19":-0.19919612785801852,"20":-0.6132793879041715,"21":-0.01192464529821987,"22":-0.3087319812451373,"23":-0.0808691853671517,"24":-0.2201980674243915,"25":-0.6016628819020917,"26":-0.3298316471878216,"27":0.22240568898944288,"28":-0.545395438022725,"29":-0.41899492500915364,"30":-0.5315796589725531,"31":-0.3896159779583222,"32":-0.21503444615342363,"33":-0.02357936797784241,"34":-0.2970493003878395,"35":-0.17926181747656578,"36":-0.44442087970954913,"37":-0.28145455552062437,"38":-0.3768663219924382,"39":-0.618190107571141,"40":-0.15093248612155424,"41":-0.38450088723187303,"42":-0.09901317424027739,"43":-0.012383586190537572,"44":-0.5385399891261228,"45":0.10150281194616906,"46":0.18681605503566212,"47":0.013044308187466836,"48":-0.43169606240944924,"49":-0.47036081241360894,"50":0.20907338428345337,"51":-0.24822577887618294,"52":-0.03821045991118504,"53":-0.07238646824375602,"54":0.19520625424176122,"55":-0.04868717644616486,"56":0.6069919121512961,"57":0.5247732475144243,"58":-0.1859163826499019,"59":-0.37827406587702894,"60":0.10814723101370742,"61":0.0313082317489883,"62":-0.509784485243045,"63":-0.21103857944534568,"64":-0.09401432938242209,"65":0.5145023211298501,"66":0.27216475385565647,"67":0.7485512138188781,"68":0.13827913033848666,"69":-0.5250680575831144,"70":-0.16355863389479705,"71":-0.34560674450378626,"72":-0.17994381872715648,"73":-0.19265228775968826,"74":0.17356249064828883,"75":-0.08871290782837879,"76":-0.23653808074955895,"77":0.2088385817623413,"78":-0.5241105179779957,"79":-0.2945633122915067,"80":-0.48392149360707537,"81":-0.2662236518580685,"82":-0.06168117907738876,"83":0.2639890363813752,"84":0.5008651163339533,"85":0.52843024634445,"86":0.11332184470005063,"87":0.07602348205497571,"88":-0.30045875414973683,"89":-0.21755160963106973,"90":-0.48702825907746333,"91":-0.2966670048780185,"92":0.23451311800606184,"93":-0.1476372692458792,"94":0.6182888192874871,"95":0.12954608501062478,"96":-0.02480279872361873,"97":0.11357168220289773,"98":-0.2484169035438261,"99":-0.08691172889216121,"100":-0.0858470548629343,"101":-0.2592565803600213,"102":-0.021143983792756144,"103":0.12517875296167488,"104":0.505400000503233,"105":0.747770960857129,"106":-0.016325016889383866,"107":-0.3945914776255721,"108":-0.37541832809277054,"109":-0.487055111195586,"110":-0.040525718588070525,"111":-0.11978268975476847,"112":0.19134518691145416,"113":0.3785817403601119,"114":0.6034395818972453,"115":-0.05124142466107513,"116":-0.11106745834679366,"117":-0.48557297926697784,"118":0.15616926894277464,"119":-0.23330002009245973,"120":-0.39566944034973184,"121":0.28620363266188126,"122":0.18730396936216476,"123":0.2199479140786743,"124":-0.3142871695003552,"125":-0.45765985208437643,"126":-0.3441468480916137,"127":-0.4027271505209002,"128":-0.30153476262884676,"129":-0.4951584451682174,"130":-0.05499781757640446,"131":0.22158539818295975,"132":0.04370723828279023,"133":0.11320264886754457,"134":-0.13741515697184475,"135":0.45263483916727154,"136":-0.23219813245044046,"137":0.037867713920252476,"138":-0.5092358461458554,"139":-0.46899314508461426,"140":-0.07174287943063391,"141":0.0893072312702389,"142":0.03490600499053674,"143":0.1976372206633253,"144":0.2141702588008784,"145":0.6835503721186038,"146":0.09602593646009391,"147":0.07739279069921357,"148":-0.07871416440396452,"149":0.0353053519258376}},"2":{"bias":0.40719091089569287,"weights":{"0":-0.38953539328010905,"1":0.48765547624753197,"2":-0.2098030895364474,"3":-0.13890695729415561,"4":-0.18785791461926085,"5":-0.13185022110210262,"6":0.09169405193419135,"7":0.7944462908135376,"8":-0.5370415744187367,"9":-0.7661749320696081,"10":-0.481796513379766,"11":-0.2666247586789682,"12":0.1601327524852555,"13":-0.6628898859350683,"14":-0.25871655677279154,"15":-0.06323045977414435,"16":0.12279260268911264,"17":0.25528967123289237,"18":-0.5841211855224498,"19":-0.6261698648673664,"20":0.21741263787490053,"21":0.24677259558271059,"22":-0.3995742789423923,"23":-0.5194797846019317,"24":0.11045792079457822,"25":0.31934046128278576,"26":-0.5205504140740438,"27":-0.27175585319946927,"28":-0.34404464233949167,"29":-0.04247665926136407,"30":-0.33069430479254014,"31":-0.11855967281724596,"32":0.027994162205857785,"33":-0.2787714465467031,"34":-0.06433819380068803,"35":0.20379703565910876,"36":-0.04793644457060723,"37":-0.39966262811706155,"38":0.06011935540786935,"39":-0.6130825780882216,"40":0.06811085936009359,"41":0.11615058248964659,"42":-0.13688310481955043,"43":-0.3035762603889758,"44":-0.33970420997843015,"45":-0.30947109106071335,"46":0.11951531726189976,"47":0.09313399388774392,"48":-0.12675958103263948,"49":-0.20353327992440384,"50":-0.2353850882209292,"51":-0.10993309060075955,"52":-0.1767403742338957,"53":-0.19026955558230826,"54":-0.36018872769830323,"55":-0.3726956673330402,"56":-0.31394672706502763,"57":-0.31586674275131454,"58":0.013367187003147566,"59":0.015851885716150135,"60":-0.38156397963760463,"61":-0.2083356065459589,"62":-0.4123533497414066,"63":0.18913903677057925,"64":0.004085479861154467,"65":0.2649832451496668,"66":-0.5323713848596667,"67":0.4439197505015373,"68":0.20206100185908832,"69":-0.16644151776983906,"70":-0.2734087648741791,"71":0.1087150536522595,"72":0.06677804123004369,"73":0.2557257999486125,"74":0.20034822972055624,"75":0.07952204231082063,"76":-0.32834705030856726,"77":-0.06947828043898548,"78":-0.12813580745975506,"79":-0.09139756059722834,"80":-0.13045742234512928,"81":0.0979249170109695,"82":0.07854106638409743,"83":0.17655690633332505,"84":0.23067114933994753,"85":0.5663333714253012,"86":-0.31948626791299006,"87":-0.2230079978493611,"88":-0.486830421792573,"89":-0.3018713482031998,"90":-0.057347193064110714,"91":-0.5115126744985528,"92":0.471368538753894,"93":0.3559873884048618,"94":0.5790508549884433,"95":0.07271529913129902,"96":-0.04150792085177818,"97":-0.09539094678879383,"98":0.1527813909423522,"99":-0.3488960962634263,"100":-0.21102341518698645,"101":0.3200413118480328,"102":0.14315942793050426,"103":0.2545324793555832,"104":0.37999405603423386,"105":0.08608453363967494,"106":-0.036475060074942646,"107":-0.06455881274548596,"108":0.048890348266845025,"109":-0.013951564314716442,"110":-0.1996667541983745,"111":-0.051123393563454606,"112":0.21124401529607056,"113":0.6589176019902455,"114":0.048738903402331654,"115":-0.1158115164731737,"116":0.24286990797650196,"117":0.12302692123569396,"118":-0.10866665645138773,"119":0.3025792868076873,"120":-0.5083810857273949,"121":0.11386590137035112,"122":0.47245681682893187,"123":0.5442969496404694,"124":-0.13285925526088424,"125":-0.5896366326034745,"126":0.03155138877232377,"127":0.19682656094625622,"128":0.08361830503583707,"129":0.3745425993133772,"130":0.14689396451469725,"131":0.3919647701500709,"132":0.09482766002636002,"133":-0.09107595249506105,"134":0.43692357037969015,"135":0.15217282842888594,"136":-0.6052767641228634,"137":0.4152889754271542,"138":0.11795163892700056,"139":0.03298518204170246,"140":0.19472511079291127,"141":0.024175666858105543,"142":0.07561435423392181,"143":0.31428995296866064,"144":0.43894304405828566,"145":0.20974522576213545,"146":-0.038660225593295724,"147":0.6938670652414702,"148":0.4552745509901573,"149":0.25624796676345585}},"3":{"bias":0.06286719463609297,"weights":{"0":0.20418085500412578,"1":0.2185909759353465,"2":-0.5583924261956489,"3":1.0457843767793698,"4":0.4672775114424875,"5":1.087917126033504,"6":0.5783617753461013,"7":0.35721263222011335,"8":0.40533431565040207,"9":0.0396202089323064,"10":-0.02451751539832592,"11":0.4506033060402222,"12":0.41313974615074545,"13":1.0586632453905456,"14":1.1702302886735707,"15":0.6571159503900516,"16":0.2638498458172715,"17":0.3308902635445758,"18":0.12687311604911652,"19":0.2782703016541888,"20":0.19299610457798927,"21":0.33036666516061935,"22":0.16300844966072348,"23":-0.2395874520763287,"24":0.8274119551019119,"25":0.04713263525340664,"26":-0.24292213945679494,"27":0.024164778122497656,"28":-0.38958175415693924,"29":0.03772273114498437,"30":-0.07410392083641891,"31":0.07317859607320468,"32":0.20215134423073303,"33":-0.16926127825594084,"34":0.06097584873486616,"35":0.2537073276026891,"36":-0.319364586597107,"37":0.06780537932074557,"38":-0.0635195521431281,"39":-0.059345943278655576,"40":-0.5723221364382586,"41":0.016994368103188648,"42":0.007878420190697483,"43":-0.18136420247916227,"44":-0.14149177826476736,"45":-0.2700091857774625,"46":0.07206781393346674,"47":-0.4196889380124259,"48":-0.5464549471310622,"49":-0.1324178031714813,"50":-0.5944352378115236,"51":-0.5284948495593612,"52":0.20099049235821534,"53":-0.5886487003266815,"54":-0.17306035021402702,"55":-0.0013781414524093017,"56":0.28775606883790544,"57":0.11241554525415666,"58":-0.30363530706713304,"59":-0.06395157550667832,"60":-0.41160219178240814,"61":-0.3061451766001933,"62":-0.19186318344799114,"63":-0.6388638748683082,"64":-0.1150371330584214,"65":0.41755392531719077,"66":-0.0670239528147847,"67":0.026387437175450505,"68":-0.1421867840615346,"69":-0.28345155187088494,"70":-0.7411073712264867,"71":-0.840861104976583,"72":0.06387483735234596,"73":-0.0952310806829484,"74":-0.31959884084630896,"75":-0.1989092740562776,"76":-0.30854277908481065,"77":0.31176060184851734,"78":-0.2408793704092515,"79":-0.07234752343247766,"80":-0.6380900034791124,"81":-0.5653605161417791,"82":0.7083653994592107,"83":0.0472709346914317,"84":0.0710911521343488,"85":-0.5966656871059869,"86":-0.2915995060963659,"87":0.005779812013588763,"88":-0.3445507562790697,"89":-0.46468378270165817,"90":0.13737886688355422,"91":-0.3458442946714759,"92":0.8475464330281028,"93":0.22533807280644816,"94":-0.1590824886327503,"95":-0.8058642820796001,"96":-0.40127312315237856,"97":-0.4766258936334746,"98":0.3474615042629259,"99":0.4679807572095212,"100":0.1649990667877849,"101":-0.16427009905690995,"102":0.6429292024756376,"103":0.02146802966055405,"104":-0.5789263637245494,"105":-0.10209643865145882,"106":-0.27933571025551446,"107":0.06669604680204139,"108":0.6073600838149148,"109":0.4328044724303432,"110":0.32628892445681845,"111":-0.2395068869397789,"112":0.2652808970784002,"113":-0.20720433231937702,"114":-1.2165834891126939,"115":-0.6537810497909035,"116":0.6601209223654915,"117":0.6754049573626465,"118":-0.039338179352392484,"119":-0.23909216841342035,"120":0.3767959249669349,"121":0.18822425675961282,"122":-0.15591175408323288,"123":-0.3109741166911271,"124":-0.5979028127539818,"125":-0.6469643271316432,"126":0.1387205102554185,"127":0.6459595902439182,"128":-0.5351529832152296,"129":-0.06797327023538935,"130":0.24939276529242604,"131":0.4817998490561237,"132":0.07230471601863281,"133":-0.6539046832250296,"134":0.38933147874101215,"135":0.405974265333578,"136":-0.02112430129016088,"137":0.011846271925964966,"138":-0.028429463340448116,"139":-0.5620693761817421,"140":-0.19354931344000353,"141":0.1548800607669637,"142":0.5087767323323099,"143":0.18814775383223448,"144":0.1178241824729065,"145":0.6065557002716342,"146":-0.008891505158163688,"147":-0.5893357095108709,"148":-0.046526643601864585,"149":-0.18361655791566675}},"4":{"bias":-0.032451938520751254,"weights":{"0":-0.059108155727016824,"1":-0.4019670383118241,"2":0.13836780741899596,"3":0.8894117846089701,"4":-0.11656465303933253,"5":-0.042869984698446696,"6":0.2660626952564894,"7":0.2060034647044238,"8":-0.07764962121092917,"9":-0.10473447018844621,"10":-0.34304470773107687,"11":-0.8182843520827278,"12":0.2585365587643007,"13":-0.2160187871897093,"14":0.19234368945405494,"15":-0.2589525139208614,"16":0.029738370963397653,"17":-0.12028264452712549,"18":-0.0012298831966395243,"19":0.6565920979267583,"20":-0.6239637345446689,"21":-0.9602117150096382,"22":-0.033094327379109625,"23":0.03370699759716273,"24":0.11244163536148999,"25":0.14282439679284575,"26":0.17069079801946316,"27":-0.11910467932236167,"28":-0.10223037590226734,"29":0.18079787672104713,"30":-0.3557494270226261,"31":-0.6208075788583779,"32":-0.17705232097585338,"33":-0.005590120971931185,"34":0.5897729404647368,"35":0.7890370106861883,"36":-0.2491304284137246,"37":-0.11197859533818502,"38":0.03452808434951884,"39":0.3868338845084007,"40":-0.8101125020694574,"41":-1.008254923591946,"42":0.12768134500176967,"43":0.0008320196894104455,"44":0.5399750725934943,"45":0.22457685779310613,"46":-0.5156183277370547,"47":0.4389457524426516,"48":0.16009980490904066,"49":0.23125870208172822,"50":-0.27835475423857303,"51":-0.05144623155812911,"52":0.027493480284730802,"53":0.2393345382450109,"54":0.5049677259148337,"55":-0.1927745150209852,"56":0.005943933041473217,"57":0.5145083815995448,"58":0.6629008134836611,"59":0.01987781864979816,"60":-0.15340927656791545,"61":0.3911651926935253,"62":-0.2803308616220965,"63":-0.46269477575891155,"64":0.0633218638969233,"65":-0.1909344363747693,"66":0.13288331828544384,"67":0.8779262482599709,"68":0.5116399680895467,"69":0.3113044101632214,"70":-0.007464764279231362,"71":0.3159565028561806,"72":-0.05689913479643375,"73":0.37434386767805417,"74":0.06944260584670375,"75":-0.07031781494262862,"76":0.005223319559693901,"77":-0.26453275503471196,"78":0.57825280291016,"79":0.6483321918148796,"80":0.08175973105156464,"81":0.14162807397977314,"82":0.014906013981088958,"83":0.4510077604368523,"84":0.25850203857962334,"85":-0.4487719114059725,"86":-0.26153953040525063,"87":0.009453113800660448,"88":0.7300506555809195,"89":0.5538329807249053,"90":0.5615329825638414,"91":0.4464085808246281,"92":-0.2251083474550996,"93":-0.038276059462237125,"94":-0.08572492778516341,"95":-0.22698887099606754,"96":-0.11587118863856179,"97":-0.2770290714148265,"98":0.31615541300835115,"99":-0.018977720291254413,"100":0.11077982842913318,"101":-0.350553172570472,"102":0.05010031469097666,"103":-0.05411605017498489,"104":-0.37057043847132826,"105":-0.010656144705312152,"106":0.12639528193737604,"107":0.36104162397964806,"108":0.5004807956204173,"109":-0.2328775973860379,"110":-0.3013515431858755,"111":-0.387616979381862,"112":0.32660220424982866,"113":0.10676646876556646,"114":-0.16275631817415556,"115":-0.3690357612290232,"116":0.19417652736326302,"117":0.34708484582577187,"118":-0.10617324844536327,"119":-0.6713377125719084,"120":-0.14671581153596336,"121":-0.06870739766452469,"122":0.058094746317447994,"123":-0.6856170402287738,"124":-0.4496364072432527,"125":-0.5267332720114171,"126":-0.26774693781547143,"127":-0.31753385888055696,"128":-0.5587311851378756,"129":-0.6786870118931195,"130":-0.7859935071971847,"131":-0.24879965633958134,"132":0.2938503695942198,"133":-0.574040363811903,"134":-0.5983609431035969,"135":-0.9356490886623785,"136":-0.2635969967219318,"137":-0.848607697568848,"138":-0.6117282926358869,"139":0.06712406669629853,"140":-0.4041244739938306,"141":-0.25484749878182694,"142":0.3019441530975536,"143":0.1865443938502979,"144":0.04050854186678141,"145":-0.05036971940123772,"146":0.20379129345034713,"147":-0.053158574562155364,"148":-0.2986297207256029,"149":-0.08065443485895932}},"5":{"bias":-0.8499019794201425,"weights":{"0":-0.6262624007004943,"1":-0.44902435240724353,"2":0.27120517682756123,"3":0.803515645205802,"4":0.2358216014908148,"5":0.15556952896943496,"6":-0.064685516246348,"7":-0.07587036738728845,"8":-0.5873623880294491,"9":-0.1440468285448095,"10":-0.5630751295792782,"11":0.07080828788597063,"12":0.42422066575928513,"13":0.8991782443683219,"14":0.0903143619556445,"15":0.18735448341574432,"16":0.1613253818639343,"17":-0.09727280372298595,"18":-0.4306940839116255,"19":-0.21276021085465432,"20":-0.18987870084227235,"21":0.3113861310763988,"22":0.24879111007563598,"23":0.29398259970381196,"24":0.08406293661274336,"25":0.22242519054136298,"26":-0.006319547650763469,"27":0.2784166530612471,"28":-0.3077226142362187,"29":0.37962367392029994,"30":0.17427895016044856,"31":-0.299133392685612,"32":-0.018455878803937415,"33":-0.33556537932376435,"34":-0.37628846399793736,"35":-0.33816765513859454,"36":-0.27844954760294854,"37":0.02015411988141039,"38":-0.04128498128851771,"39":0.02510910779051511,"40":0.07081562069058,"41":-0.18553747198524587,"42":0.03889172055632068,"43":-0.08187218573399097,"44":-0.2932168042260083,"45":-0.0834867287037114,"46":-0.10188236964384588,"47":-0.44135247008159695,"48":0.1788769319252442,"49":0.017885954563550216,"50":-0.032852173127760134,"51":-0.5551910743651848,"52":0.2599325947424342,"53":0.09828299257344146,"54":-0.31270167713921077,"55":-0.2322262014223218,"56":0.4152922378876224,"57":0.057407740030714895,"58":0.3326123147188946,"59":0.3165115296345054,"60":0.6220538162552992,"61":-0.2853444823011978,"62":0.19182523500427703,"63":0.009006926425762665,"64":-0.1255773835812481,"65":-0.17913949338232102,"66":0.2960936148842468,"67":-0.029095706917540553,"68":0.5477671328331033,"69":0.6143785296010958,"70":0.055009458270769834,"71":0.18464072279431923,"72":0.202906013553715,"73":0.09808209362229127,"74":-0.1294177729640456,"75":0.30582555370534437,"76":-0.021916811875097603,"77":0.36864089122587124,"78":0.5059046042595945,"79":0.7050003497565384,"80":0.5418131070042964,"81":0.5220514835936239,"82":-0.09237511283629805,"83":-0.1933632279635309,"84":0.28574686426156143,"85":0.35558663031114746,"86":0.6445269041219343,"87":0.2710044426594,"88":0.43041194733613364,"89":0.8211048297491806,"90":0.0181495800096548,"91":-0.005737548727465637,"92":0.45737700345821103,"93":-0.27711799531991527,"94":0.09403311109538859,"95":-0.19285303630010056,"96":0.9100763475062355,"97":0.16102865930041405,"98":0.11072137993671956,"99":0.4181156399374102,"100":0.1339812740078977,"101":0.22151456062056427,"102":0.06519188158306699,"103":0.3828346639493273,"104":0.28584467070432074,"105":-0.11061872851920052,"106":-0.1588924549393752,"107":0.11661977065333612,"108":0.00428137195722931,"109":0.23812866998566692,"110":0.13677906401783682,"111":0.1563959706336142,"112":0.24380067720257267,"113":-0.29928801402085,"114":-0.3957097066221475,"115":-0.27438673331970653,"116":0.11265844693713255,"117":-0.03803342807044317,"118":-0.006974782051640373,"119":-0.03292876411241598,"120":0.6898439432507425,"121":0.3318570335372663,"122":0.24272135923522684,"123":-0.3744539541245966,"124":0.08446782469907793,"125":-0.5180037010564723,"126":-0.017845057282964212,"127":0.17041199647410676,"128":0.23157413522738374,"129":-0.1483007196941018,"130":-0.16717240787064333,"131":0.15524147266396807,"132":-0.24356256913275195,"133":-0.5300544294888508,"134":-0.6251763823630117,"135":-0.4678573991607641,"136":-0.456367127205849,"137":0.22181248697862987,"138":-0.11313705370268638,"139":-0.2482126135802668,"140":-0.09701739525859526,"141":-0.6718490802681216,"142":0.3878296844273928,"143":-0.08196058604561092,"144":-0.8404874455858419,"145":-0.31745911177654135,"146":-0.37072644030627866,"147":-0.16170474390854211,"148":-0.5448280269019585,"149":-0.41711988661246224}},"6":{"bias":-0.22469674117432464,"weights":{"0":-0.189510094983957,"1":-0.07870767357972554,"2":-0.29592565803395127,"3":-0.5800849978206457,"4":-0.4654629806238115,"5":-0.30210705393994675,"6":-0.29716440036376446,"7":-0.5846843318411706,"8":-0.05094971828736241,"9":0.17696883716370876,"10":-0.03416335010787858,"11":-0.23088381618117862,"12":-0.3909630814901733,"13":-0.5423697197633272,"14":-0.1972024260096885,"15":-0.12279136898377845,"16":-0.22336559597062206,"17":-0.061049814994445964,"18":0.23228263607727168,"19":0.3857948950121386,"20":-0.07627785167604031,"21":0.32065243981398184,"22":-0.13254905395245892,"23":0.021283497045970094,"24":0.256727704141361,"25":-0.2885756822762257,"26":0.3663238360103265,"27":-0.06570620148164064,"28":0.6441458665555398,"29":0.17697101405080898,"30":0.19477332301375305,"31":-0.07126331568145043,"32":-0.2965272119784036,"33":0.2785638735575304,"34":0.22765262053456772,"35":0.041235703795244966,"36":0.20804049970829397,"37":0.4801558302309843,"38":0.5342893355597673,"39":0.261150624011669,"40":-0.15047355086640024,"41":-0.10247856100232525,"42":0.4568458912361952,"43":-0.030491885546751966,"44":-0.29099169770958644,"45":0.4764680026685626,"46":-0.36803945130522564,"47":0.3355268081290455,"48":0.4865619650075632,"49":0.24302745061872633,"50":0.11134553554874604,"51":0.1876908101272176,"52":0.38765677522930614,"53":0.2879308315919258,"54":-0.19243922911086014,"55":-0.3412186287421792,"56":0.0936575900286733,"57":-0.3747701880512291,"58":0.45295451424002947,"59":0.8008930272847862,"60":0.13115307864351053,"61":0.2952342241910854,"62":0.3112545327133515,"63":0.511421343073576,"64":-0.026694689039662895,"65":-0.17940421398938955,"66":-0.221905805541734,"67":-0.01473089603538278,"68":0.28841401921356247,"69":0.2183953933190162,"70":-0.6666286594660575,"71":0.20657290238357617,"72":0.046626538254760125,"73":0.8192572055384767,"74":0.12249426314057879,"75":0.2687145800237218,"76":-0.34835912729850177,"77":-0.06924648248970453,"78":0.5468603835729923,"79":0.6148995451135186,"80":0.047922357819538144,"81":-0.6910145651023527,"82":0.11472941341420322,"83":0.4352256857903874,"84":0.4690696715984858,"85":-0.5176117699259669,"86":-0.5002933083670121,"87":0.33365573918450675,"88":0.7404939135958171,"89":0.5852985900183152,"90":-0.6274257137983257,"91":-0.6495192698136513,"92":0.6063906072158133,"93":0.3607845461126455,"94":0.7266040798975723,"95":-0.499246055843087,"96":-0.2244825855384142,"97":0.756409933247921,"98":1.2420427764420996,"99":0.3306110400706303,"100":-0.8444077970197154,"101":0.07055348984300885,"102":-0.2671758140955604,"103":0.1147210127103743,"104":-0.080164297849678,"105":-0.23509390243904638,"106":0.2141823922596028,"107":0.7006043633414459,"108":1.7743297316978566,"109":0.737029860285659,"110":-0.6165474673178629,"111":-0.684144872732986,"112":0.30728471135911944,"113":-0.14553793939370216,"114":-0.10090383933191235,"115":-0.4764388351919122,"116":-0.12783524878883523,"117":0.3507768108836655,"118":0.803554716165326,"119":0.7518085723623118,"120":-0.39842646926774716,"121":-0.4721313555521464,"122":-0.04144419266835003,"123":-0.44121683696121955,"124":-0.3638617134021446,"125":-0.4657424278412629,"126":-0.4571327006350353,"127":-0.3259101660598525,"128":0.4472794649382396,"129":-0.4146651839885247,"130":-0.052908984429755355,"131":-0.9747930096322828,"132":-0.2729841757816119,"133":-0.4262323448673673,"134":-0.37184562010880146,"135":-0.5607219698787543,"136":0.22479928868855129,"137":-0.6737830843765102,"138":0.09321006484441305,"139":0.6558624573817093,"140":0.05496235902168678,"141":-0.0807809544132722,"142":-0.6396744183506162,"143":-0.34260631724190443,"144":-0.4254652528982843,"145":-0.4352848093944726,"146":-0.28599840435735857,"147":0.06810013219681131,"148":-0.04203027449724812,"149":0.024319023002226225}},"7":{"bias":0.3955844417694351,"weights":{"0":0.7588776266272695,"1":0.719670122347986,"2":0.5361225616942629,"3":-0.05219930081355416,"4":0.07751530996436512,"5":-0.8093881599571595,"6":-0.4363122301086896,"7":-0.4787769751726439,"8":-0.04257242540950321,"9":-0.028051175208063633,"10":0.3263710129847989,"11":0.39685822228217704,"12":-0.45242921498866595,"13":-0.6701569411635296,"14":-0.2781726222602414,"15":-0.4682227377149748,"16":-0.8131550905524035,"17":-0.2187765321472794,"18":-0.2945223144717055,"19":-0.1229800018881117,"20":-0.7086712091843846,"21":-0.1278921143764717,"22":-0.4256483855693986,"23":0.12420436687582648,"24":-0.06621704426219571,"25":-0.39458906274996275,"26":0.5316750054170811,"27":-0.15091008134299805,"28":-0.47847433959396124,"29":-0.8191942368155087,"30":-0.4083977666484117,"31":-0.5512844357983718,"32":-0.3153399407234414,"33":-0.3105708988459827,"34":-0.10473707209815658,"35":-0.24230460266052783,"36":-1.3245251168035856,"37":-0.300598124302458,"38":-0.7135314391638294,"39":-0.31096212897798203,"40":-0.619033539200452,"41":-0.8554602142383032,"42":-0.44329671487168704,"43":-0.25198262254584375,"44":-0.7954252475755489,"45":-0.20017278783838466,"46":-0.5209041683835801,"47":-0.4187320755987484,"48":0.47678161351458115,"49":0.013505689122258418,"50":0.09883391530857707,"51":0.3687612931260589,"52":-0.2119080165368302,"53":0.4188684398837995,"54":0.10669245994537346,"55":0.04859559352325618,"56":-0.14382437321500438,"57":-0.5620909744293694,"58":-0.5562738060757977,"59":0.45595603716480376,"60":0.29162254852124087,"61":0.32607988080562866,"62":0.26616685621177855,"63":0.27761513571959057,"64":0.44113165534952653,"65":0.0082167083371108,"66":-0.09320947423318171,"67":0.08248232972490999,"68":0.19778633132109802,"69":0.26318844030919636,"70":-0.06894126351672933,"71":0.5053336333285412,"72":0.43120460503209845,"73":-0.02793995593053048,"74":0.3771611481589548,"75":0.35011049598546884,"76":0.7061378873471122,"77":-0.7227950400471984,"78":-0.25872454236290876,"79":-0.09291220954009795,"80":-0.1396715473945995,"81":0.11784263404618912,"82":0.020505991652347885,"83":0.06244415265262081,"84":0.1891674345937471,"85":0.16033260809073133,"86":0.6795040813127019,"87":0.13327507041703357,"88":0.4628509357625405,"89":0.04847736026242144,"90":-0.06588356642136559,"91":0.5700032817850652,"92":-0.27102992899757505,"93":-0.23972193288074023,"94":0.05168364602194641,"95":0.41962993479465277,"96":-0.43182376852599186,"97":-0.316759282486093,"98":0.32802821390294723,"99":0.1776596256081276,"100":-0.3198852872450433,"101":-0.2194586142251941,"102":0.0731748469914436,"103":-0.24756056989692937,"104":-0.35015519356421015,"105":-0.05860038732381429,"106":0.3123930033619362,"107":0.254130538352015,"108":0.4683646495421672,"109":-0.025432149267881916,"110":-0.3729996880925392,"111":-0.3672528672757742,"112":-0.20116310043453148,"113":0.07478397468089812,"114":-0.24300951829511894,"115":-0.11486903455777306,"116":0.036954050507893736,"117":0.5039255635827458,"118":0.24540338295212527,"119":0.01913101891103644,"120":-0.20105426231516513,"121":0.03035345948210646,"122":-0.6158679155828436,"123":0.09321645394302601,"124":-0.04674827654740924,"125":0.045350176207141296,"126":0.4381669957505583,"127":0.6260201514577765,"128":0.37555265663516096,"129":-0.2362205199160996,"130":-0.3502159819925335,"131":-0.32610852555709835,"132":-0.24350245493723138,"133":-0.28842387980828704,"134":0.5031908329263505,"135":0.25078880155976707,"136":1.011723355410857,"137":0.20354445269653879,"138":-0.4941062316427396,"139":0.4726864736907346,"140":-0.16131362346945402,"141":0.035047066424063134,"142":0.003292149426163079,"143":0.10805228091359577,"144":0.6282647372029572,"145":0.37115095569415957,"146":0.8726063399523238,"147":0.44730093077697625,"148":-0.14630241891465146,"149":-0.06271645479782945}},"8":{"bias":0.3224770578605397,"weights":{"0":-0.058972321870614575,"1":-0.04766723496617925,"2":-0.3959457018064126,"3":-0.35325583112023135,"4":0.10193175427504972,"5":-0.3663478799420889,"6":0.28782405126796934,"7":0.3568337707873736,"8":0.35023387148983265,"9":0.18494444651567055,"10":-0.44216466811169813,"11":-1.4138677392437682,"12":-0.8872667508943829,"13":-0.9536115123649075,"14":-0.4087755731500481,"15":0.15277818637633675,"16":0.5462866339820804,"17":0.4636292520231751,"18":0.15977430149281574,"19":0.46679515690240586,"20":-0.5734107138795388,"21":-0.45338499546468036,"22":-0.03408324485508703,"23":0.21419572514262764,"24":0.5260389448113915,"25":0.23473768586300497,"26":0.6222117484235357,"27":0.5166992177836469,"28":0.3620054382598552,"29":0.2795075182457066,"30":-0.9585463541887482,"31":-0.08899553880235235,"32":-0.312081956566331,"33":-0.2416353062341963,"34":0.13555149738733832,"35":-0.18655529046496042,"36":-0.27941773413974996,"37":-0.09319804753630256,"38":0.25705045750104777,"39":0.09470093438906851,"40":-0.23388445306906516,"41":-0.16464456881921474,"42":-0.12100737674126665,"43":-0.2948075680699345,"44":-0.3200127620672961,"45":0.04672209619593193,"46":0.008831751413910334,"47":-0.34347699265987114,"48":0.060482547416255,"49":0.5229562122320424,"50":-0.1475555180906694,"51":0.4212593780106143,"52":0.19628338399080944,"53":0.30714895884738175,"54":-0.1665258958107047,"55":-0.1723682471737529,"56":-0.3663476891495065,"57":-0.41523522439463395,"58":-0.3044101740987269,"59":0.40319516040464526,"60":-0.5781693021432104,"61":0.4648869462713701,"62":0.24375484014340076,"63":0.8495503537772771,"64":0.08511511577299209,"65":-0.08694103409213909,"66":-0.6917207110813343,"67":-0.2938425042629798,"68":-0.4070814614908142,"69":0.1683413721543992,"70":0.2677253624186893,"71":0.06951431778638183,"72":0.5430876961880953,"73":1.0451839957787719,"74":0.341167562836128,"75":-0.419124276494367,"76":-0.3807166827629956,"77":-1.110552375324226,"78":0.027320468858032743,"79":-0.2331233599896128,"80":0.08936211684817001,"81":0.17466559802990475,"82":0.5656830113572147,"83":0.6556743798296764,"84":0.203892621648446,"85":0.4748507834136607,"86":-0.8091303101438237,"87":0.14773413694365967,"88":0.04734417578893645,"89":-0.12920346676814481,"90":0.07703714965991243,"91":0.40971621001232184,"92":0.18452399749493414,"93":-0.30217195486923104,"94":0.11791261897872296,"95":0.1936021244731654,"96":-0.7264454134007304,"97":-0.3319454529056661,"98":-0.4068794794418392,"99":0.025420569244173314,"100":-0.05365580693077502,"101":0.7422585671090134,"102":0.6263986572364898,"103":0.16694396664497796,"104":-0.3149707891883787,"105":-0.27475604404042125,"106":-0.03264013475032978,"107":-0.2632067420400599,"108":-0.6587288172797392,"109":-0.24022192388035743,"110":0.14268327201375103,"111":0.4685830865166485,"112":-0.013571350842314775,"113":0.007435636446135658,"114":0.14192134666830056,"115":0.12007854426545883,"116":-0.026525940830967227,"117":-0.0582800171943704,"118":-0.6233276793755298,"119":0.19757198176193053,"120":-0.20997532702526048,"121":0.5470702889869408,"122":0.3375974510103287,"123":-0.5136890465916388,"124":-0.26588804083495393,"125":-0.46365607756837984,"126":0.28280036504715406,"127":-0.3454126344863632,"128":-0.23174724272381633,"129":-0.40863074858822895,"130":-0.08321408765970967,"131":0.5663485794717305,"132":-0.08193577250795685,"133":-0.7125218299320931,"134":-0.037224746158544285,"135":-0.10927890613648397,"136":0.09840444338326086,"137":-0.3771731960631282,"138":-0.5779006377474529,"139":0.13446565663428178,"140":0.029116907458693286,"141":0.06252261539810841,"142":-0.19060647404841716,"143":0.1740663789601638,"144":0.7726532391856288,"145":-0.0051451262187448945,"146":0.5115879020002443,"147":-0.21921185510192825,"148":-0.1843589161658143,"149":-0.04220760286765532}},"9":{"bias":-0.5729303646802308,"weights":{"0":0.3989789716415629,"1":0.36470349614500414,"2":0.293520038853068,"3":0.3915345258918259,"4":-0.3004550597988769,"5":-0.17687317999149219,"6":-0.16652655407368308,"7":-0.6450005628082892,"8":0.6354791025862859,"9":0.05455336428727193,"10":0.4345354393586321,"11":0.451124660363128,"12":0.2958260184692443,"13":-0.5210354060575738,"14":-0.3338313419330987,"15":-0.4174618262784803,"16":0.044078576858097455,"17":-0.14465355929586632,"18":0.1844421521348259,"19":-0.4999331390789714,"20":0.12101838644871808,"21":0.4694243170238459,"22":0.13248378332913738,"23":-0.22940373215951115,"24":0.019701069107923682,"25":-0.07047764425500232,"26":0.36261449755724234,"27":-0.22580789199475162,"28":-0.3161104241855597,"29":-0.5546169063226586,"30":0.3165700777794709,"31":-0.06485848039637887,"32":0.36634466535919524,"33":-0.4365501753787217,"34":-0.10876841808734823,"35":0.07519307965175659,"36":-0.38681561436032563,"37":0.3009532603980313,"38":-0.39847070042605764,"39":-0.307538742432511,"40":-0.1212111473114738,"41":-0.07874809882610938,"42":0.25425893836972013,"43":0.07131935017857509,"44":0.38616030906215143,"45":-0.03701827963887202,"46":-0.2829908083824592,"47":-0.1294555336212149,"48":-0.04349023584156049,"49":-0.05805076758047591,"50":-0.2515791311663917,"51":-0.2479348138079841,"52":0.08199495044705377,"53":0.39954534319293455,"54":-0.03638162332763903,"55":0.15473395247202792,"56":0.006056727053713551,"57":0.04801735385810873,"58":-0.25304824233004486,"59":0.1167129431580182,"60":-0.20469518088171526,"61":-0.19738801747956333,"62":0.7972540681984795,"63":-0.07249548250622936,"64":0.036269205161758584,"65":0.1367264323867458,"66":-0.10845469927458529,"67":-0.06490182234826831,"68":-0.05348734406859584,"69":-0.07356126592006762,"70":0.020601044415850204,"71":0.4115350726940318,"72":0.28918047716128503,"73":-0.2219054432841155,"74":0.19621656395450518,"75":-0.14217072448772028,"76":0.5154959903779992,"77":0.3144075268841002,"78":-0.1285841453265532,"79":0.1800448414393023,"80":0.04868347515476267,"81":0.7990887550453306,"82":-0.09654027604055652,"83":-0.6048933091127092,"84":-0.3342357406371628,"85":0.10700424959792189,"86":0.7398104915594813,"87":-0.02971641105104845,"88":0.19253390206634236,"89":0.09214635955382845,"90":0.60181381590536,"91":0.8483592199429072,"92":-0.0009830152735647128,"93":-0.3968459729379739,"94":-0.19879477484430394,"95":0.4391788765064211,"96":0.0756938510805489,"97":-0.30493133715306286,"98":-0.06427612591546918,"99":0.4782355280242678,"100":0.35535719523514997,"101":0.5615799636157728,"102":0.35274842349404506,"103":-0.21471214066809097,"104":-0.41899800192696196,"105":-0.07093513103653305,"106":-0.14535025926596076,"107":0.03775099589913863,"108":0.19789648181945166,"109":0.43576604888169723,"110":0.5893223369867772,"111":-0.07708803548694661,"112":-0.32091224137591207,"113":-0.5517910133158864,"114":-0.12234207481499768,"115":-0.31193249628421066,"116":-0.41586981230991454,"117":0.24617657925980554,"118":0.13353748761784034,"119":0.22625266820893433,"120":0.6570038363697103,"121":0.013618417198909556,"122":-0.7899646622309746,"123":-0.7211529659321035,"124":0.022554540749291536,"125":-0.14776068585201121,"126":0.1983367409701854,"127":0.22195554382097807,"128":0.44076172930192087,"129":0.546096676374408,"130":-0.4109651399726434,"131":0.09028042274945403,"132":0.17047717712656427,"133":0.23761504263898228,"134":0.8662942594179565,"135":0.00770337849979397,"136":0.02789469600295206,"137":0.2770009861611925,"138":0.11197027716616684,"139":0.2457711369516631,"140":-0.09954023983886434,"141":-0.19752336374184315,"142":0.5954371567652775,"143":0.5266599245844588,"144":0.4921133591685379,"145":0.1766113400070527,"146":-0.150562464189698,"147":-0.5015251059785566,"148":-0.2979478298245869,"149":0.21064341981099438}},"10":{"bias":1.0074308119193145,"weights":{"0":-0.23425801988417153,"1":0.07603139116162749,"2":-0.11865292405142569,"3":-0.24549787858621278,"4":-0.012617281484921826,"5":0.0811942024704269,"6":0.4528144038001512,"7":0.3625928362137378,"8":-0.04799238594149172,"9":-0.16844022866277275,"10":-0.8362631758888411,"11":-0.4051434834048087,"12":-0.5378478804833113,"13":-0.12117101269040473,"14":0.07531729619148225,"15":-0.033205584888334305,"16":-0.27691780416001155,"17":-0.02425042638346163,"18":0.22770741905691302,"19":-0.41192124456636725,"20":-0.7220901783519609,"21":-0.20290813198604896,"22":-0.15400335037775184,"23":-0.5038707606226096,"24":-0.01855476784563475,"25":0.32816674019936415,"26":0.10145373169435849,"27":-0.09933432079338025,"28":-0.1573172940204285,"29":-0.6943579900547674,"30":-0.6059783427166435,"31":-0.3031140826056227,"32":-0.39980069311889765,"33":-0.5813369459975962,"34":0.4213974067642536,"35":-0.0654624819876581,"36":0.3699989878792495,"37":0.3901299360948657,"38":0.409462547170796,"39":-0.06477967109551748,"40":-0.27707695409981764,"41":0.13918310705745368,"42":0.07885712139278728,"43":0.05835113991720533,"44":-0.1839847139716447,"45":0.077370016878278,"46":0.13053743785510455,"47":0.10462295698903147,"48":0.2814346917808022,"49":-0.14030653333371537,"50":0.25584225463582594,"51":0.4175959868321153,"52":0.7965606556694075,"53":0.41020091721522,"54":0.03762081933156,"55":-0.09982744063052158,"56":-0.02842248460202971,"57":-0.3044773927894604,"58":-0.12826566521073696,"59":0.25606274573047466,"60":-0.2712186168537174,"61":0.47074475361879675,"62":0.48140843072898354,"63":-0.08462045114911251,"64":0.43863414722337585,"65":-0.2924806799867907,"66":0.2823713867573801,"67":-0.29928959322251303,"68":-0.22480290869159844,"69":0.0757667118885641,"70":0.09332627762765182,"71":0.2875441705788424,"72":0.5087079400077986,"73":0.1774865721492233,"74":0.23382114195413667,"75":0.39888542710719066,"76":0.021071364555391315,"77":-0.19421035175643758,"78":0.21950977177585806,"79":-0.07750722176848493,"80":0.5978221975369382,"81":-0.12510805847346113,"82":0.6804668755208855,"83":0.07772855946286077,"84":0.26438521899561584,"85":0.2506512804483982,"86":-0.14738993379394913,"87":0.2867856274920339,"88":0.25341874797695985,"89":0.2687196380240152,"90":-0.2737969602228956,"91":-0.08761704517482097,"92":0.3603884345876302,"93":0.13692317281709507,"94":0.017596750491234374,"95":-0.20086742244162445,"96":0.2982079169691565,"97":-0.17013341708721566,"98":-0.19886764833074536,"99":-0.539567009260088,"100":-0.2624598039321778,"101":0.17776550901566637,"102":-0.10736830750344363,"103":-0.10286328371762882,"104":-0.1715312393229678,"105":-0.49427671486434255,"106":-0.14316589333174157,"107":-0.5502319937546747,"108":-0.2951212604290773,"109":-0.12967485378155374,"110":-0.77484009056352,"111":0.11101766419596579,"112":-0.1319548840924004,"113":-0.06382939681624417,"114":-0.25154189742897726,"115":-0.5355987406394438,"116":-0.23563875227451328,"117":-0.23896081098570354,"118":-0.5503341895828368,"119":-0.7012457376159776,"120":-0.2825083198588997,"121":-0.00685187920202856,"122":-0.629099450834427,"123":0.12314406329284656,"124":-0.5342016066338511,"125":-0.514650755872393,"126":-0.340423040594674,"127":-0.9112582093936218,"128":-0.6320665582550153,"129":-0.9379217335341683,"130":-0.09162095831350053,"131":-0.40977364939134436,"132":-0.726541687784622,"133":-0.6546391910832524,"134":-0.4689265648294996,"135":-0.6359330099845952,"136":-0.5740411317344766,"137":-0.618559104566128,"138":-0.01735528041633559,"139":-0.010927093223368189,"140":0.027873477513926232,"141":-0.2405248354656612,"142":0.24937434041042564,"143":0.08337463353350656,"144":-0.31911468945178906,"145":0.2733826700008444,"146":0.43960718511636765,"147":0.36221287806600916,"148":0.3876064794113749,"149":0.23839224487642072}},"11":{"bias":0.742153577151762,"weights":{"0":-0.15903073078216662,"1":-0.09005552606536472,"2":0.020678010944028997,"3":0.49738375011198044,"4":0.5030911378381552,"5":0.43529539743067347,"6":0.47395659746366,"7":0.5744849503806334,"8":-0.03700504054415625,"9":-0.21699036855395762,"10":0.4530086821072218,"11":0.010144734114980866,"12":0.30489456809924287,"13":0.1718189794248529,"14":0.10183065451645171,"15":0.053169914423230345,"16":-0.14182243935467426,"17":0.06415495776956442,"18":0.26226547986637877,"19":0.06047634826638947,"20":-0.018501070018747928,"21":-0.05161883973244875,"22":0.1426853421370384,"23":-0.12819325723138444,"24":-0.3339554228223724,"25":-0.5991226666768605,"26":-0.6184320260117071,"27":-0.28487074414869173,"28":-0.2319473799171012,"29":-0.08623689310390335,"30":0.1951478454272788,"31":-0.5701174265337108,"32":-0.017666524423327962,"33":-0.3391538073677713,"34":-0.06696111985831946,"35":-0.35874537167187603,"36":-0.26959919321034015,"37":-0.6513813910509068,"38":-0.22844236225025247,"39":-0.008070591217828082,"40":-0.03341597735504942,"41":-0.36067848734708347,"42":-0.24515809664018742,"43":-0.24725929846668904,"44":-0.12134486748391135,"45":0.036056129604979316,"46":-0.26694441038371447,"47":-0.3971753104079122,"48":-0.5443957099754199,"49":-0.3141527333515844,"50":-0.33172244754121616,"51":-0.18101333127341526,"52":-0.5117713357599704,"53":-0.5511453581746846,"54":0.1336620284296913,"55":0.012511823474375678,"56":-0.10702174946319494,"57":0.0033083659956819897,"58":0.13607043739603872,"59":-0.44710547723661936,"60":-0.6046858960651419,"61":-0.2565553899175273,"62":-0.575091263383876,"63":0.2551866388091359,"64":-0.019505486405336083,"65":-0.1510326699355816,"66":-0.38036359583248625,"67":0.16721228021652026,"68":-0.18518749145993924,"69":-0.5248019224173079,"70":-0.49732946457215677,"71":-0.13322288306941915,"72":0.01877596433095611,"73":0.11080557531210349,"74":-0.1389333688304348,"75":-0.46965601205839486,"76":0.07843539280718319,"77":-0.021929100544860282,"78":-0.1704642927137097,"79":-0.3329903180560959,"80":0.2267877901751376,"81":-0.09030867721324054,"82":-0.08875747297174919,"83":-0.1931558927086569,"84":-0.01520948503188783,"85":0.12700982089112034,"86":-0.020003126883959804,"87":-0.2532788650552849,"88":-0.592501441202731,"89":-0.4248818335167549,"90":0.044243179850598606,"91":0.019796515770103645,"92":0.29343912000642886,"93":0.32339197027258315,"94":-0.0956334965553365,"95":-0.06077018042622879,"96":-0.46346557312639725,"97":0.27445825806689134,"98":-0.485849332512607,"99":0.13693841911964427,"100":0.2879778058518571,"101":0.10499243101803793,"102":-0.30807010542949537,"103":-0.035833642691016986,"104":0.2778531519515647,"105":0.46894038361400336,"106":0.3110627415083656,"107":-0.05570508035002051,"108":-0.010290679077288256,"109":-0.005330421100654707,"110":0.0524962636095882,"111":0.25186991759549154,"112":0.084874015464484,"113":-0.5274371826632778,"114":-0.18215411203655474,"115":0.2729492065839003,"116":0.35557528934447796,"117":0.11600043496018216,"118":0.3156932989279177,"119":0.2905560146034199,"120":0.5477808241846769,"121":0.12817241548271155,"122":0.14875033215117225,"123":-0.31006917618925917,"124":-0.2862495363333761,"125":-0.20449353358670427,"126":-0.013108059183840821,"127":0.4054973035847493,"128":0.18907106392906578,"129":0.717010080493975,"130":0.7053048382204465,"131":0.03215042343285884,"132":-0.5995219949937732,"133":-0.5119049265479064,"134":-0.15184821325304254,"135":0.4206986214786766,"136":-0.35496123967934656,"137":0.08325756033275092,"138":0.39480509746827464,"139":0.6165901923508162,"140":0.2813709930485362,"141":0.25430996756183216,"142":0.5081539719828927,"143":0.0319037975518685,"144":0.21687144766405378,"145":-0.30539875613003237,"146":0.00496587686622159,"147":-0.2585092881507961,"148":0.03183770802468649,"149":0.10596953532157996}},"12":{"bias":-0.23309597758189837,"weights":{"0":-0.3160853219848043,"1":-0.3124576110802764,"2":-0.557567346458816,"3":0.08256355706206663,"4":0.0030739599160453835,"5":0.1593662190847557,"6":-0.563093388781681,"7":-0.23159055106586993,"8":0.26708902684293073,"9":-0.04420034557833686,"10":-0.10313624612929144,"11":-0.4513131704040519,"12":-0.3503501748759,"13":-0.09877375996308736,"14":0.31882522579466316,"15":0.08960508457920408,"16":-0.32162990978508915,"17":-0.12508329071467278,"18":0.06718821609951386,"19":0.3657362324153579,"20":0.26408447425394554,"21":-0.256460128456477,"22":0.1499501441211132,"23":-0.40131682324909834,"24":0.010817920283702267,"25":-0.09396346608048436,"26":-0.17276439064657978,"27":-0.10741288441026102,"28":0.32725727445358,"29":0.14924178783095618,"30":0.0912091455928178,"31":-0.05930613042633064,"32":0.523041592948478,"33":-0.05718368839089709,"34":-0.015263591417738212,"35":-0.40935950513453584,"36":0.23169226907168056,"37":0.0025050119783130856,"38":0.45333355193569713,"39":-0.14204907841080433,"40":0.6800862405219058,"41":0.29283503683688816,"42":0.01737288366688865,"43":0.09779309796694695,"44":0.124486557670236,"45":-0.2758561862206068,"46":0.650517820204407,"47":-0.03269937496483559,"48":0.2630757838278605,"49":0.27632499037438185,"50":0.4250876784099137,"51":0.30366310173204586,"52":0.24945923016603258,"53":-0.0021667294074510105,"54":-0.005722229715931593,"55":-0.007870739819455073,"56":0.10352565764330193,"57":0.12329756249873516,"58":0.0827464564385977,"59":-0.12647788837352372,"60":0.19565936559571417,"61":-0.3603190736661357,"62":0.12466260831192913,"63":-0.013013940041833894,"64":-0.2985450461828353,"65":-0.008653188699923988,"66":0.27274258428424564,"67":-0.4136118923708626,"68":0.10226290611203812,"69":0.005833564321615913,"70":0.45267645146551,"71":-0.14050040026354882,"72":0.1423997858145337,"73":-0.07549568620561778,"74":-0.07317794060040485,"75":-0.11467025003377594,"76":0.39613701259963713,"77":0.4241671800047562,"78":0.10198837251887806,"79":0.03310302563822249,"80":-0.06518008609020728,"81":0.05700012726575478,"82":-0.24402731792269203,"83":-0.16566722646887755,"84":0.3163140284921711,"85":0.5529731451445813,"86":0.23490798648433775,"87":-0.3511722303665476,"88":-0.3888312295752895,"89":-0.4426284480175559,"90":0.07639868227275072,"91":-0.23850938585218992,"92":0.29439180277134314,"93":0.26114979093027524,"94":-0.04044032655998208,"95":0.3810747508418351,"96":0.03663625239196823,"97":0.0005432899184815028,"98":-0.3088253619479271,"99":-0.15274693438540735,"100":0.7058509439755581,"101":0.473002591376421,"102":0.10634001088363455,"103":0.42751162551160865,"104":0.42840249424758176,"105":0.34231996948870763,"106":0.18165869327856624,"107":0.18013921480910203,"108":-0.30723814688120865,"109":0.04644383262466561,"110":0.4553942130907716,"111":0.5969653126262641,"112":-0.28330460958619913,"113":0.2120447617409094,"114":0.03927733879087602,"115":0.11360292667066894,"116":0.24665488235685568,"117":0.19409147759981552,"118":0.19181564210026109,"119":0.05496468022038443,"120":0.5872820362573729,"121":0.38796103129195586,"122":-0.17568737996139855,"123":-0.4790438220990725,"124":0.007746517954830814,"125":-0.21741164574037708,"126":0.09330889086284602,"127":0.1717957238564066,"128":0.028814381961993586,"129":0.17391242017248593,"130":0.3747321625547253,"131":0.34508277535434073,"132":-0.6918835433088099,"133":-0.7512802478944913,"134":-0.6808994497265393,"135":-0.14705981877361815,"136":-0.659125289215166,"137":-0.3885064196063697,"138":0.41776923756525136,"139":0.183393590908313,"140":0.1604316410438561,"141":-0.35359110823553624,"142":-0.6529651060403122,"143":-0.20684712259467952,"144":-0.4919088585078168,"145":-1.1306635937142786,"146":-0.00019054080594264265,"147":0.14476253613938522,"148":0.28258283140892754,"149":0.4849062879116912}},"13":{"bias":-0.034594278373979166,"weights":{"0":-0.01263068925256766,"1":0.30847752627423497,"2":-0.5469322682800155,"3":-0.3211985107815327,"4":-0.35824261270980295,"5":-0.5021155409522534,"6":0.007568637675427814,"7":-0.05392148728137131,"8":-0.17257278165595336,"9":-0.05982087323142877,"10":-0.14170245105522955,"11":-0.5713207038893698,"12":-0.5222566388293439,"13":-0.5882187811345324,"14":-0.7956327981760308,"15":-0.7360960990384866,"16":-0.37067930661397736,"17":-0.3075044226206876,"18":-0.8122161460672549,"19":0.6879633435718745,"20":0.02613708192336486,"21":-0.36390810955142844,"22":-0.5697273052349842,"23":0.04316274396233502,"24":0.11150308371827691,"25":-0.4708552597034112,"26":-0.40449869935838095,"27":-0.6440920529200526,"28":-0.4304575304840863,"29":0.7856669303843962,"30":-0.04337890282185394,"31":0.1442809308171864,"32":-0.1493606723926454,"33":0.450911777100476,"34":0.27488694615104675,"35":0.4404129557143746,"36":-0.24272228046559446,"37":-0.3406910804435161,"38":-0.37107888043500864,"39":-0.3117396194608452,"40":-0.19757895034816683,"41":0.04601920396581281,"42":0.4967884929967888,"43":0.7738923286495938,"44":-0.26859030958275254,"45":-0.11604134242262054,"46":-0.2150293895593762,"47":-0.16529400352439563,"48":-0.08674968926628429,"49":-0.0024661290272831814,"50":0.17558794610730227,"51":-0.2354610916326497,"52":0.0857372432388316,"53":-0.06898526616582995,"54":-0.08411775602565495,"55":-0.030544238564225622,"56":0.07527311982298789,"57":-0.06582132782445647,"58":-0.2971695278828114,"59":-0.403051912996615,"60":0.15951939124568526,"61":0.05573814875058955,"62":-0.18720309978273256,"63":-0.37640762607826095,"64":-0.18072438659343143,"65":-0.5316079539607281,"66":-0.12063179259199369,"67":0.30160515632067975,"68":-0.36636788458296915,"69":-0.33089292719010094,"70":0.35584411120048576,"71":-0.04531908375416118,"72":-0.3020747764696263,"73":-0.09225251113352288,"74":0.21448371516704892,"75":0.18698198917513933,"76":-0.370891695157036,"77":0.41496298530476683,"78":0.29853138491023923,"79":-0.11056174039509706,"80":0.17575353149747822,"81":0.13246463689605417,"82":-0.17205781523447686,"83":-0.004540613826971869,"84":-0.42225915152330007,"85":0.27676738960428715,"86":-0.41977568870643345,"87":-0.14599003790624068,"88":0.3062162513705484,"89":0.05733703783459649,"90":-0.20738473785138398,"91":-0.07357912427214194,"92":-0.3785979107217774,"93":-0.31640462867352975,"94":0.12871050118585545,"95":0.13309646057047403,"96":-0.2826671997180604,"97":-0.213220089221297,"98":-0.21266914110572477,"99":-0.17923532694668454,"100":0.18350899828534278,"101":0.14026454164276486,"102":0.10290661551323017,"103":0.19861665486263957,"104":0.33395303069455906,"105":-0.14189128613931148,"106":-0.3225316142664153,"107":-0.5823884845182922,"108":-0.11074379545193601,"109":-0.2808425663076741,"110":0.23163159693371627,"111":0.4865570063923912,"112":0.2942753390132406,"113":0.8398885380313702,"114":0.1525333616129888,"115":-0.40622829527913296,"116":-0.0936881378540602,"117":-0.2879575338857984,"118":-0.4567632703146459,"119":-0.535974121384938,"120":-0.040407515247763176,"121":0.43860979266165523,"122":0.7704018113058673,"123":0.3026529280688583,"124":0.28677867350040653,"125":-0.6177516488577273,"126":0.041393443758714246,"127":-0.05932328008547168,"128":-0.08617624509495579,"129":-0.32019807630040353,"130":0.24836326300044878,"131":1.0853621164295768,"132":0.882486627489357,"133":0.7222389979318549,"134":0.7030151953295989,"135":0.19751226810602024,"136":-0.16480851568507207,"137":0.2564265655487654,"138":-0.4874074775252586,"139":-0.19848947549244644,"140":0.04793385506044237,"141":-0.03140097589078929,"142":0.11763152410573145,"143":0.18341012618334127,"144":0.4346106676540862,"145":0.772401836254385,"146":0.03526519871568352,"147":0.07325287725762261,"148":-0.49732218361492486,"149":-0.01271602658257516}},"14":{"bias":-0.8051032643086955,"weights":{"0":0.17988191919884758,"1":-0.09310141045816404,"2":-0.10409067028590452,"3":0.32868041924638786,"4":0.18801894736384364,"5":0.077048768269616,"6":0.4458943429126425,"7":0.13554815590606575,"8":-0.2128047079946018,"9":-0.13932664549324647,"10":0.13650127440919357,"11":-0.5892344970002099,"12":-0.15320114851747327,"13":0.2779258203158772,"14":0.4198528748253557,"15":0.9707769861899277,"16":0.6925100562582956,"17":0.21777020395608493,"18":0.21042724105140012,"19":0.3210960116279099,"20":-0.040403751602767185,"21":-0.43951471110947404,"22":-0.2983242923870237,"23":0.35856813795959896,"24":0.29175985418039524,"25":0.12539519944331226,"26":-0.20707227432164976,"27":0.180636304766324,"28":0.24010627591961753,"29":0.7050078762253382,"30":-0.4779214061032204,"31":-0.3826354755581879,"32":-0.1230201849026043,"33":0.0740666613669672,"34":0.2607862465500011,"35":0.1667645407280123,"36":-0.2368392335414819,"37":-0.0746550877379844,"38":0.420579740321812,"39":0.5270943739125269,"40":-0.45374430058675974,"41":-0.2767315201697129,"42":-0.6638282891012987,"43":0.016273905545409705,"44":0.26325576108091175,"45":-0.47078844842410433,"46":-0.5511511014876094,"47":0.16639263293664971,"48":0.643671303954781,"49":0.22765471938263374,"50":-0.6320044467457366,"51":-0.6608208831006884,"52":-0.05885783006561911,"53":0.23429782169013696,"54":0.1550165985692517,"55":-0.23031014470507924,"56":-0.29455397161467883,"57":-0.7823756136377638,"58":0.31722778114183187,"59":0.22961732293770434,"60":-0.7724686848346705,"61":-0.5309294126477492,"62":-0.3281905997054683,"63":0.09850094516743438,"64":-0.22424448244795497,"65":-0.06403668125977652,"66":-0.4088026277695391,"67":-0.5853196654531747,"68":-0.39442890034935396,"69":0.08317951464482728,"70":-0.6590748496040817,"71":-0.6534585541349298,"72":0.11748625591228588,"73":0.18124655466468365,"74":0.09272555143880741,"75":0.30181800317713237,"76":0.057618161337417935,"77":-0.6044570130377565,"78":-0.010781269355302438,"79":-0.03415451872107556,"80":-0.7269976239974693,"81":-0.1845960515740478,"82":0.07107203606201858,"83":0.31197825816370245,"84":0.4331802334530715,"85":0.5833379260101639,"86":0.290266286034451,"87":0.011987094728859483,"88":0.27152503068228473,"89":0.03430982733545852,"90":0.011467855030252841,"91":-0.09637243139641698,"92":0.038805592279509256,"93":0.16398703931219297,"94":0.4138467216015195,"95":0.38667873520164403,"96":0.07694503977896974,"97":0.011660140498392858,"98":0.17378520955894125,"99":0.07871704570718227,"100":0.6559531909526011,"101":0.27213753589198997,"102":0.653913821465565,"103":0.08959190366302337,"104":-0.3320822889630164,"105":0.46728374517819254,"106":-0.025393033644094346,"107":0.009231112660129095,"108":0.4488631888241706,"109":-0.3564280812802556,"110":0.28488667363966275,"111":0.3325008395987361,"112":0.3939541492174552,"113":-0.1753922036496639,"114":0.027071650983417708,"115":0.24003124059773026,"116":0.40674763035090455,"117":0.11559413089423896,"118":0.43622596068854214,"119":0.49790281667313774,"120":-0.22068223655709282,"121":0.3820344292580497,"122":0.5521119966828015,"123":-0.18247022718066186,"124":-0.49083607030487875,"125":0.20686313950895266,"126":0.16443547318525553,"127":0.44141334313445896,"128":0.29582040639034474,"129":0.008363869528920015,"130":-0.04769097250167222,"131":0.02260824133154341,"132":0.45366170624879243,"133":-0.4688489608701214,"134":-0.7583442494452133,"135":-0.41588198449153213,"136":0.19215207535526124,"137":-0.14214066945326195,"138":0.2829218739705895,"139":0.7971222033281379,"140":0.39453922892439564,"141":0.021832831790169333,"142":-0.27092493955497227,"143":0.08392856288166012,"144":-0.19496453597842994,"145":-0.20688609384132342,"146":0.6908863875724122,"147":0.05171283392271501,"148":-0.07990266311007327,"149":0.05740307845739069}},"15":{"bias":-0.7126455099232603,"weights":{"0":-0.3834243808127733,"1":0.4310109445542185,"2":0.056048717355107275,"3":-0.08231243864807289,"4":0.07081978789995437,"5":-0.10071884150989528,"6":-0.3331740366353065,"7":-0.4011956900641551,"8":0.3438332361534282,"9":0.3022413613338278,"10":0.3610278835573768,"11":0.4615469146360026,"12":-0.6056102626787204,"13":-0.17418683024576165,"14":0.47943175971264373,"15":0.013846032407123666,"16":0.19469557624059608,"17":-0.3421684543288703,"18":-0.05040015692501425,"19":-0.4099985415412383,"20":0.20535872806032754,"21":0.046288962503556325,"22":-0.19683766842365066,"23":-0.04617235719852053,"24":0.10974240490184471,"25":-0.15216677201244352,"26":-0.45063472827618933,"27":-0.45394677074166173,"28":-0.4245794393681592,"29":-0.8924090823176591,"30":0.16972349050580404,"31":0.0829287221034049,"32":0.08173915459224884,"33":0.10833591974722702,"34":-0.5797075144449577,"35":-0.5679127090724141,"36":-0.4545922445823577,"37":-0.3233775953962749,"38":-0.17820835653585226,"39":-0.38467316429767245,"40":0.46652039931851463,"41":0.5588392991257265,"42":0.26925791086753054,"43":-0.008259875613842747,"44":-0.14613956379061027,"45":-0.5057294709863007,"46":-0.3261716937816733,"47":0.030185901868279134,"48":-0.5917746623597882,"49":-0.7463756224059124,"50":0.5342246176757963,"51":0.5331363530219084,"52":-0.20953264919040457,"53":-0.42924980900744125,"54":-0.27939267362468306,"55":0.03983566635699548,"56":0.3802868508644777,"57":-0.01396771412844574,"58":-0.6635185799709253,"59":-0.6202572070113823,"60":0.558082892205925,"61":0.23714146535594932,"62":0.4034423929061,"63":-0.2261405932730563,"64":-0.9512498501800691,"65":-0.09874723598290924,"66":-0.2875614535583237,"67":-0.39274662506271,"68":-0.6524709501205376,"69":-0.09339483903674162,"70":0.2919089054691443,"71":0.40699018414083776,"72":0.1499199348062365,"73":-0.6049085061259134,"74":-0.684911567530105,"75":0.058143421362088714,"76":0.03775954908051085,"77":0.03623410557682529,"78":-0.4050076182055676,"79":-0.26993852798729384,"80":0.533497241376815,"81":-0.25032421538865907,"82":-0.4831880149995654,"83":-0.2988276009139303,"84":-0.23573951207144853,"85":0.2833688022340622,"86":0.77363805209046,"87":0.07048222031852072,"88":-0.6415117661124055,"89":-0.6916888594901277,"90":0.44430316792387436,"91":-0.2613241947006792,"92":-0.15348081900482125,"93":0.37088354223511916,"94":0.2226616460985355,"95":0.0889343291793428,"96":0.26375794951315706,"97":0.38327730536895716,"98":0.10410309230527554,"99":0.12745561546764436,"100":0.2876489692822497,"101":-0.3738345821476749,"102":-0.2394637042320864,"103":0.31259740327602925,"104":0.6693847631206878,"105":0.8193498684662137,"106":0.6904301921177602,"107":0.8479203257062011,"108":0.519606630708327,"109":-0.22624956326437248,"110":0.03158105687441089,"111":-0.7179042689554065,"112":0.006761811390201438,"113":0.23685517405457893,"114":0.8106767316481845,"115":0.8700076545074296,"116":0.1491300518144674,"117":-0.22551393083659485,"118":0.5490192149449112,"119":0.20182396970983865,"120":-0.09305035146592308,"121":-0.3912064233825331,"122":-0.23651904181247008,"123":0.5361410579362009,"124":0.9387865278958726,"125":0.8065485479800591,"126":0.06010513045839102,"127":-0.01887586015549628,"128":0.33653144758878845,"129":0.9941901483441379,"130":-0.5886560976147632,"131":-0.6067425368499629,"132":-0.5306186979424456,"133":0.5906922997094088,"134":0.36540173599622794,"135":0.7643017615763547,"136":-0.16445232808441537,"137":-0.24540305382923683,"138":0.4359945284133126,"139":0.6225257061000651,"140":-0.0603344655221912,"141":-0.7089130899857491,"142":-0.09545230238092262,"143":0.15543457480404074,"144":0.04583265673701333,"145":-0.42154713913062647,"146":-0.3866394013314484,"147":0.5417692687815734,"148":-0.26940920793237577,"149":-0.17513251760809806}},"16":{"bias":-0.35915944158503726,"weights":{"0":0.16638631938685355,"1":-0.2352753936618816,"2":-0.36206008787671295,"3":-0.002989642065149446,"4":-0.1920758438396822,"5":0.09563847027002638,"6":-0.14441912246023011,"7":0.4778551214412074,"8":-0.1955153654415444,"9":-0.5749541584191199,"10":0.08920290302817259,"11":0.017899504718338764,"12":-0.21494435235417034,"13":0.1607690649839324,"14":0.0553676185449257,"15":-0.2834828158657284,"16":0.5916911925972919,"17":0.7251978504617453,"18":-0.40864012473817996,"19":-0.2512717590995544,"20":0.3536605354723281,"21":0.1597036448341954,"22":-0.014850151881895245,"23":-0.0448807922999673,"24":0.293234021360444,"25":0.6506528830547038,"26":0.18840009383783285,"27":0.3521886313247778,"28":0.28858096100840014,"29":0.4939645374920293,"30":0.22177695123708058,"31":0.18930844358400417,"32":-0.07957449401259299,"33":0.20494591891204111,"34":0.8504840220371757,"35":0.7164575540841129,"36":0.3487782045197244,"37":0.12986177580116198,"38":0.3607832572343837,"39":-0.05238660979082479,"40":0.24468048149509358,"41":0.7295041346673193,"42":0.3776326303165703,"43":0.46768656910523154,"44":0.692817715248834,"45":0.3879038782642213,"46":-0.21447980990763515,"47":0.04425498759643727,"48":0.28298402957508106,"49":0.2099889170020812,"50":0.18310163607131,"51":0.8648360109722555,"52":0.39879083417005756,"53":0.11187676934642399,"54":-0.44169249436303576,"55":-0.3243711010665629,"56":-0.9641658318175682,"57":-0.26344976507191287,"58":0.11106852684474823,"59":-0.1266829194867589,"60":0.16330447951282404,"61":0.2526928887611296,"62":-0.1290258133764025,"63":0.14682861808469688,"64":-0.16981310370538574,"65":-0.6399039206800172,"66":-0.30410421738712323,"67":-0.8644808089773649,"68":-0.45739677492344294,"69":-0.09729238345377245,"70":0.30615237118783145,"71":-0.16993836548237248,"72":-0.20241658008255084,"73":-0.40433868408795676,"74":-0.3738721327889902,"75":0.14190936461360523,"76":-0.14476528997282714,"77":-0.13982781221156715,"78":-0.0810846310327289,"79":-0.537758441860802,"80":-0.05774188970423901,"81":-0.15709772673802913,"82":-0.3569061698323441,"83":-0.5837893620127648,"84":-0.05643004551941868,"85":-0.0918683806238586,"86":-0.733880680685507,"87":0.019503092459506013,"88":0.12595311514253837,"89":0.08908605845485279,"90":0.39924326134766897,"91":0.21312456746610967,"92":-0.4659861883228819,"93":0.22895652512176964,"94":0.10918991872166459,"95":0.0676648509495922,"96":-0.16573899869442651,"97":0.16393780816363476,"98":-0.21360784634904478,"99":-0.24672784576558923,"100":0.41931235843379344,"101":-0.1984742596487656,"102":-0.054521260112506555,"103":-0.06034320205870741,"104":-0.19572041602344306,"105":-0.012178165873300312,"106":0.13294156250502198,"107":-0.21954518959245417,"108":0.21871947265376004,"109":-0.20320428701224763,"110":0.02356841316698183,"111":-0.09064711862903392,"112":-0.14695998601826124,"113":-0.030444725699064944,"114":0.23465397165027974,"115":0.33061151260928623,"116":0.0565256648320931,"117":-0.03191133564328186,"118":-0.23454820163619894,"119":0.23999392907000622,"120":0.24510733531309337,"121":0.09874284536240319,"122":0.06790139404005112,"123":-0.029432986323473014,"124":-0.18971188138501938,"125":-0.2297089702768455,"126":0.1845630475654293,"127":-0.01807007742129574,"128":-0.39571884310310773,"129":0.27506077359510406,"130":-0.009662762888503184,"131":0.27465223345028134,"132":0.6321214790363985,"133":-0.14612231344585866,"134":-0.32817622535113605,"135":-0.9708202928320837,"136":-1.0029326817468183,"137":-0.19991123133916294,"138":0.1008551238208612,"139":0.5655501068322402,"140":0.2831426429694381,"141":-0.17326729681804437,"142":0.33091053922389496,"143":-0.11218882640791335,"144":-0.4247947458352625,"145":0.006809609363139394,"146":-0.7950859136200976,"147":-0.3291579747947246,"148":0.17669108066406924,"149":-0.004939747827109419}},"17":{"bias":0.6167118824060946,"weights":{"0":0.402626731045229,"1":0.21124532963721188,"2":-0.05147105977459674,"3":0.38661240763981364,"4":0.28349912046839004,"5":-0.0008917562278544286,"6":0.2414607237865729,"7":-0.07745072648383963,"8":-0.02623165200639316,"9":0.2714323842634467,"10":0.3866038337904531,"11":-0.17027435267904834,"12":0.12863356009097093,"13":-0.5397534850528308,"14":-0.7868422285300176,"15":-0.7398077992258323,"16":-1.1046781672027501,"17":-0.040600957338641656,"18":-0.341436596118629,"19":0.6063790673290351,"20":0.003926953967019053,"21":0.11346268941906108,"22":-0.4521394439063316,"23":0.19485028017380743,"24":-0.8172493022138932,"25":-0.5187023235659034,"26":-0.5268409134895405,"27":-0.3300622481012011,"28":-0.4077595542124635,"29":-0.2593298548781059,"30":-0.3220169314391166,"31":-0.42315311724664295,"32":-0.27766644836362825,"33":-0.2855499171116442,"34":-0.19332652492019045,"35":-0.421526387977743,"36":-0.6231468008265126,"37":-0.317101898742424,"38":-0.31310387625106467,"39":0.0984071010870788,"40":-0.9698182541109194,"41":-0.10001297309331401,"42":-0.9351466157528248,"43":-0.7464320009313722,"44":-0.37359116685738863,"45":0.17757826356391335,"46":-0.3258179750762801,"47":-0.5272203363991922,"48":0.17357719526537035,"49":-0.1012507806072847,"50":-0.7192220424119515,"51":-0.24915810382992412,"52":-0.2059345739185158,"53":0.011599105478008789,"54":0.6004774915781648,"55":0.35088177486187033,"56":0.6155474823973592,"57":-0.11871792834285468,"58":0.030907483343743075,"59":-0.08362649929684376,"60":-0.6482945470199581,"61":-0.07149388914902653,"62":-0.3289818106447679,"63":0.06128184642680552,"64":0.053397970294179635,"65":-0.07398850493382603,"66":0.44592838590391093,"67":0.7809160225867322,"68":0.2653821374603226,"69":-0.035025602733257236,"70":-0.5065104408740057,"71":-0.02043636425689902,"72":0.6827961313800038,"73":1.0413770625124394,"74":0.4524953048806814,"75":0.07737964319684847,"76":0.29050590427594947,"77":-0.5463601506102937,"78":0.4249858434850832,"79":0.40549881994872355,"80":-0.6420378062418837,"81":0.250581305082095,"82":0.5705929662917101,"83":0.6575167774052787,"84":0.33153930643894286,"85":-0.173003696119141,"86":0.4585438423523345,"87":0.24097311405088484,"88":0.6456719625387092,"89":0.4802649943850127,"90":-0.398040864511136,"91":0.5174416647068889,"92":0.27899158379889194,"93":0.32019225832350806,"94":-0.32144525152716197,"95":0.36168528734282396,"96":-0.3430578865527751,"97":-0.3221270894168296,"98":-0.19966790649902216,"99":0.0774837993899895,"100":-0.17787770932701308,"101":0.29628450250975746,"102":0.32363398096821794,"103":0.6692265312028413,"104":-0.4349629314510617,"105":0.0827587106353972,"106":-0.1828803135877896,"107":-0.6492196785902706,"108":-0.3311603472100916,"109":-0.3725436275595695,"110":-0.31524296964598053,"111":0.513267784417696,"112":0.10120344394264473,"113":0.20643770777370288,"114":-0.40969628961770216,"115":-0.5182063038594201,"116":0.13363422371974226,"117":-0.23761939023836898,"118":-0.03940919193132961,"119":-0.2200866631157589,"120":-0.23532442317824998,"121":0.23461111277834995,"122":0.2908282697570009,"123":-0.03230630017635179,"124":-0.1820541584805872,"125":-0.08398572460007162,"126":0.35120431072294667,"127":0.375245565993907,"128":0.27035471212281353,"129":-0.3552549620738185,"130":0.5080430144455867,"131":0.33007518763110316,"132":0.21718441894513343,"133":-0.5786357963282098,"134":-0.21168587045885973,"135":0.4512048938006068,"136":1.0766377924085826,"137":0.3524626809001246,"138":-0.14634062160808436,"139":-0.45315554653329115,"140":-0.26068407062169996,"141":1.0503340425350391,"142":0.20782891606610895,"143":0.3097534730936506,"144":0.10292347616938638,"145":0.07064900780199146,"146":1.120553792739502,"147":0.15489780480946883,"148":-0.14208078120050527,"149":-0.08075995659489081}},"18":{"bias":-0.5903837254045806,"weights":{"0":-0.41436544951793625,"1":-0.4437201013557483,"2":-0.10743806598532978,"3":0.1071182963768502,"4":0.3953425928335423,"5":0.25873454047523525,"6":-0.1987159281954212,"7":0.34679178759918955,"8":0.281109360775112,"9":0.7860233287850352,"10":-0.6146381893522392,"11":0.13667218673004533,"12":-0.29648644035071714,"13":0.8575763534876101,"14":0.5143427719200699,"15":0.4640165175624978,"16":0.2743731272000761,"17":0.20641664137738824,"18":0.2151305329956303,"19":1.4974985574382962,"20":-0.07048436861678611,"21":-0.35065728322255774,"22":-0.07961607979667937,"23":0.1414226506732115,"24":0.665860361705975,"25":0.5771424469870027,"26":0.8286979549375301,"27":0.13260430542010854,"28":0.4844830891682178,"29":0.9879017673690295,"30":0.14803287071200505,"31":-0.03314540903245324,"32":-0.1891185000423328,"33":0.5322953191464144,"34":0.80589686357287,"35":0.39682429201331665,"36":0.07260628733170157,"37":0.41563456088923983,"38":0.14097966611216367,"39":-0.03285884447151914,"40":0.2559892638271685,"41":0.15156738896078856,"42":0.14806976060277988,"43":0.7129963488630846,"44":0.39031592216949795,"45":0.37598386120312977,"46":0.03870027375331139,"47":-0.19448331458565668,"48":-0.12798233973248999,"49":0.2552839671574485,"50":0.34578539197341934,"51":0.4017432273826815,"52":0.851402946235204,"53":0.24840539171758913,"54":0.21242930715104855,"55":-0.18188050145994727,"56":0.06325168565306832,"57":-0.1743543246541167,"58":-0.16753938284343667,"59":-0.48725403203792567,"60":0.23034196575783752,"61":-0.031128029747913944,"62":0.043658678290425024,"63":-0.05178361072662422,"64":0.5278801980402144,"65":-0.3662980962648736,"66":-0.2506726673991241,"67":-0.6329019981421604,"68":-0.39012489467990913,"69":-0.20178083672935893,"70":0.37612846331284894,"71":0.2084436956029309,"72":-0.1214076494452045,"73":-0.09603263380880366,"74":0.05743807051422218,"75":-0.24465066986528647,"76":-0.20186834748123847,"77":-0.2998278319125832,"78":-0.22548029263369593,"79":-0.24483897194368753,"80":0.29404748104214135,"81":0.3218202715111487,"82":-0.21666145026634212,"83":0.03889837234510071,"84":0.024964456895454224,"85":-0.19828866581738208,"86":-0.48288146759691747,"87":-0.11618316561712616,"88":-0.099921610057622,"89":-0.18670567417918163,"90":0.3639509067868194,"91":-0.08280118643392077,"92":-0.43645361001005334,"93":-0.5922818683603035,"94":0.13499659613889659,"95":0.005654746278009988,"96":0.020587037615175146,"97":0.4341317635372235,"98":0.0027750979485950174,"99":-0.42453353840245994,"100":-0.5274884758984474,"101":-0.261575825763441,"102":-0.08757763045077677,"103":-0.4174245949281066,"104":0.3443126490948621,"105":-0.1759132885952792,"106":0.2128850258580116,"107":0.08924036974520397,"108":0.195951086732877,"109":-0.7030691675574138,"110":-0.5449245078195399,"111":-0.5573634031067131,"112":0.10761380540296586,"113":-0.40874771551934885,"114":0.2241813478012095,"115":-0.2919981603295025,"116":0.11160008644038012,"117":0.5568705413689876,"118":-0.3547098025164775,"119":0.10880529800946799,"120":-0.468229544232636,"121":-0.09646722465015395,"122":-0.1924394097027322,"123":-0.17861809761814657,"124":-0.45661891537570715,"125":-0.3409941737134913,"126":0.21574673855236545,"127":0.13588563154504768,"128":-0.8988739863991675,"129":-0.32145136903026716,"130":-0.34785307470220406,"131":-0.1348475082182214,"132":0.40217433043741757,"133":0.1556066236992131,"134":-0.3659339603757022,"135":-0.628416506791268,"136":-0.08305941967308525,"137":0.013156656295378214,"138":-0.06821366327244634,"139":-0.1616198593188285,"140":-0.029178352839700227,"141":-0.17513456947233805,"142":0.02887935735566046,"143":-0.10962602248914706,"144":-0.15937822348886577,"145":0.33148429680552893,"146":-0.5115400504876507,"147":-0.3124317754107391,"148":0.31722560226874774,"149":0.14604805501504028}},"19":{"bias":-0.2416961883901031,"weights":{"0":-0.43369720973196846,"1":-0.29403500785583997,"2":-0.11059434231590623,"3":0.305288277219877,"4":0.4800051466035703,"5":0.21311548671834132,"6":0.10666999613872113,"7":-0.24683610288343008,"8":-0.28657404917415485,"9":0.13434331510902345,"10":-0.33473955283617524,"11":-0.010654163961564954,"12":-0.1050235058063051,"13":0.6112952897175263,"14":0.6276440559547778,"15":0.038874267892838016,"16":-0.25016002934142234,"17":0.19969764043555155,"18":-0.27397436578016615,"19":0.7826030462696125,"20":0.48036214614502326,"21":-0.054529816114762,"22":0.22468508401828607,"23":0.07560940498366088,"24":-0.37318880770724294,"25":0.05648727672531965,"26":-0.09040390791195126,"27":0.12966540829617282,"28":-0.07462329208040062,"29":0.2876850855755943,"30":-0.05456140855216796,"31":-0.03522489565724268,"32":0.13919388548221748,"33":-0.044028154751364415,"34":-0.0667272468104377,"35":-0.19117539892977878,"36":0.009625712838088543,"37":0.15234037230582922,"38":0.20247576532297143,"39":0.02917619175880303,"40":-0.4761837288355892,"41":-0.21777881965414825,"42":0.2488651953442917,"43":0.05481789749270539,"44":-0.05380737344096124,"45":0.8613914296164031,"46":-0.0029682591788921897,"47":-0.2499973656506232,"48":-0.25446757453548086,"49":-0.23006391776961438,"50":-0.46413933719316386,"51":0.13023166841035672,"52":0.48401017820156256,"53":-0.0273400175673497,"54":0.13801966397891308,"55":0.3061308267818415,"56":-0.0734669473042997,"57":-0.018338646031169716,"58":-0.025109041515332345,"59":-0.19825515897870263,"60":-0.0629251938911359,"61":-0.1584697483565187,"62":-0.10046853613368001,"63":0.0859707216938712,"64":0.1024337997602093,"65":-0.5758837704350885,"66":0.041824578761275086,"67":-0.0765750519044493,"68":0.12898983850136037,"69":-0.05376979529339519,"70":-0.0402088689004793,"71":0.1992199755626487,"72":0.5446273695616469,"73":0.2976289883838576,"74":-0.40580419040613164,"75":0.11588401778727639,"76":0.21196107087555158,"77":-0.2825511431071731,"78":0.2224203040844369,"79":-0.0012272146878962214,"80":-0.28825282097111254,"81":0.4393734323982085,"82":-0.03293622487188544,"83":-0.09804628593398647,"84":-0.04403363046736396,"85":0.27125768785145976,"86":0.4185424716986307,"87":0.5707968599556114,"88":0.14036266377112142,"89":-0.16487703660693143,"90":0.04616159601171789,"91":0.16745648144843361,"92":0.19504761271758947,"93":0.39806955512570874,"94":-0.26391978603952093,"95":-0.0981196705632228,"96":0.12491189905906094,"97":0.29270749466917984,"98":0.06814508555463418,"99":-0.5919115627194287,"100":-0.7035964321337521,"101":0.0876351795874646,"102":0.25011971355950013,"103":0.22210812049239734,"104":0.18110271768711064,"105":-0.008732568011557026,"106":-0.13552703377721353,"107":-0.3519983291170359,"108":0.17690791238939252,"109":-0.8162661228021529,"110":-0.6899809213500465,"111":-0.20696145580989672,"112":0.40489451756858846,"113":-0.26332839851745643,"114":-0.29322472728373933,"115":-0.38272436318981773,"116":-0.14009959547196799,"117":0.12665064967542203,"118":0.28208983451049247,"119":-0.1708645540910315,"120":0.07854502531822864,"121":-0.2887735185095231,"122":-0.19937393483033297,"123":0.016685133158111612,"124":-0.2593968268277042,"125":-0.10968625762959937,"126":0.011404183407605498,"127":0.4042520771515636,"128":-0.26321242581259086,"129":0.003163754501450032,"130":0.1031444553287227,"131":-0.46529615578315014,"132":-0.07892638216943089,"133":-0.08486544722285244,"134":-0.17503972421883934,"135":-0.5927798329162913,"136":-0.0004265793410691634,"137":0.00511719050990059,"138":0.012620475627789424,"139":-0.37382104838840924,"140":0.13203643057586756,"141":-0.15917528969531447,"142":-0.013389660809082025,"143":0.06590470989744122,"144":-0.3856217237900257,"145":-0.6002120308524308,"146":-0.7233361212601841,"147":-0.16194664630694647,"148":-0.42934477472752214,"149":-0.13384297869761125}},"20":{"bias":0.5015659596345255,"weights":{"0":-0.26155892601164016,"1":-0.13200511853664415,"2":0.37330646857768285,"3":0.04663430515929355,"4":0.0019103841905515793,"5":-0.2802574215169041,"6":0.6459442380304102,"7":1.3252985533698403,"8":0.3063920708017165,"9":-0.20937405683555307,"10":-0.1117243778789547,"11":-0.07595009542634444,"12":0.45366253033127946,"13":0.6816791417670219,"14":0.05904021260893119,"15":-0.3728589277929804,"16":0.4111604992321463,"17":1.0527261292214616,"18":0.7056761617110964,"19":-0.6520416760347504,"20":-0.13624889340042665,"21":-0.03862601390421085,"22":0.527065267731274,"23":-0.10084849051979063,"24":-1.0416998913287923,"25":0.14520081694673598,"26":0.07764696331112719,"27":-0.03095012821720886,"28":0.32732390782764487,"29":-0.1163244764216983,"30":-0.006020295530315462,"31":-0.5841295381466154,"32":0.19276917470707897,"33":-0.4248581663879981,"34":-0.06271887865027104,"35":0.012604837461020764,"36":0.3836253173127278,"37":0.24896240194720512,"38":-0.015337789721001981,"39":0.05475170659297996,"40":-0.11376538264105068,"41":-0.3247819594762649,"42":-0.3263507867750074,"43":-0.22877401116776447,"44":-0.1190504109714322,"45":-0.3102996319142936,"46":0.800815050630693,"47":0.6056261510392078,"48":0.06271262173597467,"49":0.12284008121834931,"50":-0.1278086219302681,"51":-0.4778919697841777,"52":-0.5259378472509467,"53":-0.1763713427981936,"54":-0.9058193159110381,"55":-0.13459390393879214,"56":0.5507389514320437,"57":-0.09104741398102117,"58":0.31719713879808464,"59":0.037840715793913834,"60":-0.3090482767500744,"61":-0.1363482932663424,"62":-0.7724650475598394,"63":-0.35604836289853437,"64":-0.892839693433915,"65":-0.042724090441654906,"66":0.5293201451538362,"67":0.13211009507225227,"68":0.08965738632866498,"69":-0.16474081113838177,"70":-0.6244394576134404,"71":-0.9898290916734547,"72":-0.6590558467357949,"73":-0.25044994117245206,"74":-0.5625707841597669,"75":0.5148893160353984,"76":0.010104474634404644,"77":0.10468941811963692,"78":-0.29306815046762114,"79":0.15846371374072735,"80":-0.3896189392624552,"81":-0.9517781285663857,"82":-0.4031322699388135,"83":-0.35566371510872963,"84":0.009999740555817146,"85":0.14762215140623072,"86":0.11755998240130545,"87":-0.1585571616931649,"88":0.19873084768652274,"89":-0.35125154645536144,"90":-0.23219975042293123,"91":-1.100623810665715,"92":-0.010120717648837893,"93":-0.4208960310707813,"94":0.22594053834856195,"95":0.13527506575677276,"96":0.0648540298038155,"97":0.18329998656863936,"98":0.7471050897595085,"99":-0.26305244652081883,"100":-0.3093224137045747,"101":-0.33372200602424995,"102":-0.7738562768103653,"103":0.04090800873152789,"104":-0.33027416019031847,"105":0.44871464056400207,"106":0.68250975015371,"107":0.8885908745677952,"108":0.6165815856444669,"109":0.5140931963256014,"110":-0.23377652287219872,"111":-0.10074462166139471,"112":-0.41905803616901216,"113":0.27038957130261176,"114":-0.5143905697878528,"115":0.2798377563751422,"116":0.5955468412982934,"117":0.39874195507979293,"118":0.5893096375324847,"119":0.7446004744702442,"120":0.21429121563684658,"121":-0.027151108741074084,"122":0.6343584814700733,"123":0.00005411959210250705,"124":-0.042249396389216855,"125":0.4151849719334528,"126":-0.08091639183255941,"127":0.0726467555413741,"128":1.1724142386493333,"129":1.0352641155221063,"130":0.16850683603488714,"131":-0.28289947703460117,"132":0.14875710193137903,"133":-0.587579318804503,"134":-0.4309417144113717,"135":-0.7081110727134537,"136":0.05703656571519227,"137":0.2500670354780578,"138":0.8224411011047756,"139":0.45773027160246377,"140":0.3796052567405696,"141":-0.440228552243914,"142":-0.3771156855939216,"143":-0.25056743657610037,"144":-0.1345808654306461,"145":-1.0141857159590448,"146":0.22468211082204012,"147":1.228395092329941,"148":0.8769687123602893,"149":0.382758995160478}},"21":{"bias":0.7247107981166191,"weights":{"0":-0.0810994891095097,"1":-0.29849596329004496,"2":-0.006882681939234409,"3":0.2136191356215626,"4":0.22110908164261,"5":0.20821135028759483,"6":0.2694308632330205,"7":0.30490892566231,"8":0.6559966739037455,"9":-0.2228744189602885,"10":-0.0542563797717938,"11":-0.4822963093210279,"12":-0.2597331412992145,"13":0.6630177647506195,"14":0.6173827272453674,"15":0.75311471551305,"16":-0.12777058750204187,"17":0.7854660824703207,"18":0.37068219967862776,"19":0.42136889641857933,"20":0.08206597014646977,"21":-0.2469851139328636,"22":0.2379727163207474,"23":0.33431126317516424,"24":0.18226141538856452,"25":0.15345513683626277,"26":0.6150091239914062,"27":0.21792025113934543,"28":0.28394198219116523,"29":-0.09290373687790424,"30":0.06828581184848638,"31":-0.5501134790117997,"32":-0.06904804507973086,"33":0.08819905775862527,"34":0.2769580129445001,"35":0.1408398137719135,"36":0.34123028394234617,"37":0.2116114774041817,"38":-0.07347879894302495,"39":-0.11121000738719844,"40":-0.19136163543903792,"41":0.20146294476181545,"42":0.07557512013974359,"43":-0.2702860136243136,"44":-0.003049957902016495,"45":0.018963099849395766,"46":0.21590357117019712,"47":0.07984402123468369,"48":-0.3132408712240456,"49":-0.310125898108571,"50":-0.2751754141819415,"51":0.061820106939613956,"52":-0.269482683204318,"53":-0.46542326402520967,"54":-0.26811343635736734,"55":0.20514133543702873,"56":0.10284825118748502,"57":-0.12191436438964409,"58":-0.22526715704131509,"59":-0.30393457403425855,"60":-0.3901305808525425,"61":0.059146546913744984,"62":-0.6228687497299028,"63":-0.6830840821033184,"64":0.07727111406755394,"65":0.4701407136421272,"66":0.11496580682028834,"67":-0.06058334090910666,"68":0.06492539675674767,"69":-0.3279419655873562,"70":-0.0013903028051269212,"71":-0.4466416146996133,"72":-0.523888291593875,"73":-0.5656174068161488,"74":-0.398089146995012,"75":0.15663369204977298,"76":-0.35016492332847726,"77":-0.01282748549824804,"78":-0.2711643303789457,"79":-0.10950750700108604,"80":-0.1418905590280483,"81":-0.3544816235806685,"82":-0.24327589374601433,"83":-0.4594521744372342,"84":0.13398730900959588,"85":-0.5340293120977198,"86":-0.647152969750192,"87":-0.34353183447239033,"88":-0.3251255996417332,"89":-0.25611709722246984,"90":-0.031715993112092264,"91":-0.23615696526677415,"92":-0.1991491033070701,"93":-0.3774629741748242,"94":0.11319484453824015,"95":-0.4011201272493224,"96":-0.49478852297409187,"97":-0.4069923795923877,"98":-0.09817087882358545,"99":-0.15547429020079226,"100":-0.04662156707850272,"101":0.10206251121021574,"102":-0.19476443654228764,"103":-0.36398172002004636,"104":-0.05222460851218812,"105":-0.22227223865174633,"106":0.12700292233205548,"107":-0.07689872354243658,"108":-0.06836311427954744,"109":0.05370834910886651,"110":-0.039283863461282445,"111":0.1522353970616804,"112":0.12877346048415622,"113":-0.15120891264179298,"114":-0.14436741271010115,"115":-0.19201906922978768,"116":-0.31598131926255024,"117":-0.07758835725733312,"118":0.1597679762233899,"119":0.4009830235226403,"120":0.0796903108625292,"121":0.48416105525851105,"122":0.5618485790038832,"123":-0.28560507123544265,"124":-0.2946298575165095,"125":0.10378708574548866,"126":-0.6348472412391091,"127":-0.13797952335735195,"128":0.2202997085305569,"129":0.11532360600931385,"130":-0.1446535799631718,"131":-0.07914137562971157,"132":-0.13642711405231372,"133":-0.5478419698981686,"134":-0.37559869324690953,"135":-0.42660105597564857,"136":-0.565802256459703,"137":-0.45980875108235436,"138":0.311979711708272,"139":0.015500776823180839,"140":0.23145883506048073,"141":0.0666241512526014,"142":-0.18622238094159577,"143":-0.17543321709945686,"144":-0.07659804381376326,"145":0.30964951761601395,"146":0.38808902470085727,"147":0.23176659778609987,"148":0.5456045314869884,"149":0.4922755642483174}},"22":{"bias":-0.08077103318394875,"weights":{"0":-0.4568972446651989,"1":0.020535150075248185,"2":0.18972076000532306,"3":0.29784551147155064,"4":-0.16195247118319758,"5":-0.570187829219612,"6":0.1354568414788844,"7":0.4877041273328703,"8":0.014427910646802706,"9":0.026682570947721793,"10":-0.03766228014046904,"11":-0.576774302567138,"12":-0.13555952959087797,"13":0.29578783339891646,"14":-0.10390564245172304,"15":-0.12437504137611873,"16":0.15694071282990402,"17":0.8677054840345801,"18":0.8229570221130068,"19":0.25508503757295153,"20":0.12378544508225492,"21":-0.28305124507264046,"22":-0.5574404874422763,"23":-0.5330493503936675,"24":-0.5397650146684125,"25":-0.3880925278138513,"26":0.20925236604725964,"27":0.3593548273068392,"28":0.6619588193969372,"29":0.22226119784212586,"30":-0.05796095259175946,"31":-0.5367602234588711,"32":-0.6021725400755076,"33":-0.35050148673042214,"34":-0.3372776858933935,"35":-0.3593475409536802,"36":0.27392272071001295,"37":-0.10195738175457326,"38":0.0796557771346031,"39":-0.11556892351514056,"40":0.04017962774732393,"41":-0.22107297395881473,"42":-0.3564819516147342,"43":-0.4192757519475161,"44":-0.2849191519239145,"45":0.10366742047248023,"46":0.736287758217091,"47":0.4727160727264823,"48":0.12382720385507937,"49":0.124129854807381,"50":-0.35173155585265037,"51":-0.7576083882025902,"52":-0.6620077533450238,"53":-0.036175567861485965,"54":-0.5553267686114269,"55":0.5031896484427307,"56":0.6125557012196405,"57":0.12351652898340128,"58":0.31093318955899846,"59":0.48645339150483907,"60":0.17439784220761936,"61":-0.2137550675582892,"62":-0.9745253756480479,"63":-0.476457903133481,"64":-0.1295597318945131,"65":0.68505067435102,"66":0.364247036367382,"67":0.1271616923971893,"68":-0.006163990300893153,"69":0.45567349549239217,"70":0.031558443299945005,"71":-0.2063164696070312,"72":-0.21476475380841198,"73":-0.5407496058899738,"74":-0.33802995378273865,"75":0.6052357632476778,"76":0.0921545707747671,"77":0.3339035351473289,"78":0.33157034248969286,"79":0.12628758214955438,"80":-0.11474081301463233,"81":0.06394141643787449,"82":-0.11358925367705026,"83":-0.1701438770575478,"84":-0.3765887336630027,"85":0.6243329724819165,"86":-0.18689126165834122,"87":0.26257176533643234,"88":0.16129604818631374,"89":-0.13096545355932024,"90":0.20191727401911058,"91":-0.33276894488145725,"92":0.2338954106028032,"93":-0.060833776899812085,"94":0.05327944373488265,"95":0.03638172006254854,"96":0.5793604253562639,"97":0.1307836670484748,"98":0.16017479215729644,"99":-0.23394044185525226,"100":0.284917932725238,"101":0.2909991375471361,"102":-0.05868286476412844,"103":0.7377108195270512,"104":-0.11140193386131221,"105":0.3076695186141372,"106":-0.5215262735892862,"107":0.5288774891056339,"108":0.41721854611617337,"109":0.17548890038972378,"110":-0.004039633797803019,"111":-0.31452672843509816,"112":0.1262809212576631,"113":0.36890811001018026,"114":-0.44894081811825765,"115":0.10145491646845756,"116":0.34637532928284365,"117":0.5633117269608445,"118":0.7622585666950373,"119":-0.09916351599241904,"120":-0.08779181153309445,"121":-0.04909718204594717,"122":-0.13915033153495115,"123":-0.02313263075728876,"124":0.004920787675286127,"125":0.3824881923107551,"126":0.009044289190566867,"127":-0.06629215410018707,"128":-0.044332387427324475,"129":0.14994789883325027,"130":-0.8896520975885205,"131":0.3614318059890379,"132":0.24198829329873134,"133":-0.8403560113787961,"134":0.023870064965653512,"135":0.013594560257252584,"136":-0.3668421860272936,"137":-0.3051639510105291,"138":0.017355245024238672,"139":0.13773601661891993,"140":-0.09918856392501355,"141":-0.3345378490020023,"142":-0.12742684901003182,"143":0.10128530517183762,"144":0.18140905427175946,"145":-0.1067854502873073,"146":0.16202569277876755,"147":0.6075850010744531,"148":0.0038886769967939254,"149":0.5877570028594629}},"23":{"bias":0.4079305607402473,"weights":{"0":-0.019305136302477127,"1":-0.2849160949698922,"2":0.22359455728070027,"3":0.04527825852364803,"4":0.199416878264244,"5":0.47327178579493606,"6":0.05999499748495687,"7":0.1894159529838051,"8":-0.09139120353664731,"9":-0.14745550041215894,"10":-0.2491177907570025,"11":-0.4068586031382767,"12":-0.04021686766032922,"13":0.5918543127357595,"14":0.19251493062016123,"15":0.7040426720479287,"16":0.5257575918713346,"17":0.0218481077453047,"18":-0.4035262082179763,"19":0.05349743944084371,"20":-0.5264703719126547,"21":-0.4351059090167639,"22":0.10653139135036639,"23":0.03286867797506669,"24":0.16866272698475945,"25":0.05018085762399764,"26":0.1170799127441348,"27":0.10629843682735585,"28":-0.024921552120431522,"29":0.030197074273364214,"30":-0.3497856814339469,"31":-0.03197417779286616,"32":0.2108254467065783,"33":-0.229409069475063,"34":-0.4795939935366535,"35":0.012769480994243907,"36":-0.37468195770482166,"37":-0.15384415455473563,"38":0.3146083718525729,"39":0.2848205205556952,"40":-0.4577484288611763,"41":-0.5005279091313174,"42":-0.021250815196422086,"43":-0.0647043661253944,"44":-0.193922519082773,"45":-0.23502957718476072,"46":0.13388197309230507,"47":0.34507787773319415,"48":0.5836164617469601,"49":0.5972665555025528,"50":-0.2471910089548818,"51":-0.4446098254401208,"52":-0.21490636727318352,"53":-0.06524990287021808,"54":-0.23360975903482373,"55":-0.10329464842356936,"56":-0.11197877933917855,"57":-0.02032375947541225,"58":0.3646346034560025,"59":0.22234240952592735,"60":-0.48315681693078805,"61":-0.4314728392962028,"62":-0.3766083162019569,"63":-0.14391818802904732,"64":0.05065038335247119,"65":0.13877525995540343,"66":0.25880099132986095,"67":0.014137670633286133,"68":0.03390852457763332,"69":-0.06715003766823623,"70":-0.45157225910885085,"71":-0.7835658226285231,"72":-0.2865546077562533,"73":0.19697879492510478,"74":0.09778307485493222,"75":0.40930627337894543,"76":0.04932051786829722,"77":-0.16018800746760484,"78":-0.46053428442940686,"79":-0.6057950907562263,"80":-0.7294546882822208,"81":-0.8906164185697666,"82":-0.18245311072527814,"83":0.10337045068044479,"84":-0.3814919127564703,"85":0.044173954934583835,"86":-0.19387246063398741,"87":0.05010318464309325,"88":-0.48437064498559607,"89":-0.2581439346863341,"90":0.2503043588191891,"91":-0.4247417438896193,"92":-0.060324207403944674,"93":-0.32474699811737096,"94":0.22547681691876822,"95":-0.375928875670217,"96":0.0007405571985228167,"97":-0.13044825738892016,"98":-0.10505680907199588,"99":-0.2575574620881244,"100":0.04517393154734231,"101":0.11489832287875841,"102":-0.1279330848731419,"103":-0.3996825834340539,"104":-0.15200826626004765,"105":-0.1492681792010895,"106":0.5292195799991338,"107":0.2445106319056222,"108":-0.2171971790709027,"109":0.019510082349058232,"110":0.1081328653202832,"111":0.14054731959251057,"112":0.2005375127784339,"113":0.2530507513841866,"114":-0.027314937211120507,"115":-0.07324737891851837,"116":-0.06088476583144957,"117":-0.3927688578637995,"118":-0.030516632998666412,"119":0.15505496442598438,"120":-0.03675918525183437,"121":0.16625757942311978,"122":0.44952743690065855,"123":0.40028012188417883,"124":0.15922381242156622,"125":-0.08825540974671754,"126":-0.2844230639317285,"127":-0.47163149822596934,"128":0.19149849459624022,"129":0.3180050567038471,"130":0.18741092303687495,"131":-0.36181585052875553,"132":0.12504216169478685,"133":-0.018980691021917052,"134":-0.22958423995539684,"135":0.13176383778666687,"136":-0.19135388014118668,"137":-0.061007796682349756,"138":0.28628066977198796,"139":0.13882265434055047,"140":0.5083639728888174,"141":0.11354224756557345,"142":-0.4884298495842719,"143":-0.3641081642755552,"144":-0.28306217566645636,"145":0.5414926160100256,"146":-0.08697103080644895,"147":0.06923689734744272,"148":0.03046978038390987,"149":0.36802724039884904}},"24":{"bias":0.3708966389193938,"weights":{"0":0.19909532720922254,"1":0.032541645557348904,"2":0.3764998714338143,"3":0.3563477843040276,"4":0.2698733253291423,"5":0.5500243869482259,"6":0.6716244604092457,"7":0.3213122313833995,"8":0.3467912520031709,"9":-0.006280255074554004,"10":0.26481938294687263,"11":0.28897827083160066,"12":0.5387349677821124,"13":-0.01986445448858152,"14":-0.2970892519619798,"15":0.1772074165634041,"16":-0.452054651723613,"17":0.31706257328981197,"18":0.11728885007947328,"19":-0.4515453068149939,"20":-0.1397694412333841,"21":0.262186943371,"22":-0.23761234632000278,"23":0.09020996872981091,"24":-0.8381735733655558,"25":-0.21989615793002026,"26":-0.3627271111162154,"27":-0.1321347073044458,"28":-0.2988120141282044,"29":-0.7719876881164887,"30":0.22205826397043368,"31":-0.4776842240858883,"32":-0.6828599486792962,"33":0.017576094102872853,"34":-0.22178418010554396,"35":-0.7375552525914877,"36":-1.0423672649349218,"37":-0.9148640269191595,"38":-0.7051248330430918,"39":-0.6127123833360398,"40":-0.343235383631637,"41":-0.2611716575668807,"42":-0.20915276098253305,"43":-0.15396266101471626,"44":-0.46036243419851836,"45":-0.0761890217570518,"46":-0.8454566058043924,"47":-0.7360445726383446,"48":-0.7016586685643023,"49":-0.5569622583514541,"50":-0.4542812653716898,"51":-0.2948506676169779,"52":-0.22669285517633722,"53":-0.043083182053920324,"54":0.16052476757524742,"55":-0.29414993400065104,"56":-0.013321034457450687,"57":-0.22931534874775092,"58":-0.29478027030597387,"59":-0.45800871122834613,"60":-0.2979280121874867,"61":-0.298425695479444,"62":-0.6215958785842306,"63":-0.25109822250668296,"64":0.31928570896225916,"65":-0.13410647972077,"66":0.3876954803885235,"67":0.16209220015196535,"68":-0.4087579043086375,"69":-0.6287554106524276,"70":-0.4229077899103941,"71":-0.08063993640307485,"72":0.05086343231717456,"73":0.2666127336983481,"74":0.009034505928225064,"75":0.0367471486988131,"76":-0.06439960909093036,"77":-0.14928237730021246,"78":-0.30443508300899685,"79":0.25146615562284497,"80":-0.1498884576899197,"81":-0.1381789802017579,"82":0.5746373333602383,"83":0.49011464030707397,"84":-0.12475561568285043,"85":-0.229637289712422,"86":0.5437746213312827,"87":-0.23022590143083194,"88":0.05510538885471114,"89":0.23195469176990202,"90":-0.2277932430563885,"91":0.29498799795667463,"92":0.1274115050619292,"93":-0.21041258579527686,"94":0.089277272568969,"95":-0.3124673100807069,"96":-0.170915616843164,"97":-0.029666270840518878,"98":-0.1557996075202718,"99":-0.07171692401054953,"100":-0.30610131902262844,"101":-0.09246965548626701,"102":0.0432263462884307,"103":0.28310437884291395,"104":0.3791578147528104,"105":-0.19727314644998373,"106":-0.4601077055689038,"107":-0.38752513772901764,"108":-0.10631680296825932,"109":0.050998973554357896,"110":-0.5624096100542321,"111":0.21923711382540265,"112":0.3845462993329908,"113":0.25982779710362264,"114":-0.19295559073735524,"115":-0.20708313334036219,"116":-0.27407239309445175,"117":-0.41709481916469887,"118":0.2452127906577668,"119":0.06254253151656161,"120":-0.6629485810537645,"121":-0.07516198480174166,"122":0.25455999287738196,"123":0.2683030055968912,"124":-0.13428338148685542,"125":0.3867866928971369,"126":-0.26457243595484453,"127":0.4035964868105343,"128":-0.08706925722701096,"129":-0.29702917167570886,"130":0.19739513331814917,"131":-0.2680514657767057,"132":-0.2628559812967298,"133":0.17150241379396666,"134":0.19528712460114453,"135":0.5778505029657581,"136":0.24768413977930545,"137":0.35555581920400303,"138":-0.479307723602973,"139":-0.5129179000769558,"140":0.10152960240194224,"141":0.6450237650227949,"142":0.4696472120235716,"143":-0.07355275805572462,"144":0.330568960906795,"145":0.7220088255336711,"146":0.26599543359098365,"147":0.36287154350533934,"148":0.016683242859551667,"149":0.20645833008283695}},"25":{"bias":0.520104014641188,"weights":{"0":0.4537979995544545,"1":-0.06389241563320033,"2":0.18114278818143772,"3":-0.7788538501945677,"4":0.07478549499811481,"5":0.5702978539839827,"6":0.6057153994707574,"7":-0.3092746398666344,"8":0.9148017196558829,"9":0.46210640187200286,"10":0.3169241411109591,"11":0.11647044188470858,"12":-0.48801960969108155,"13":-0.40470463386720695,"14":-0.3657885001700883,"15":0.6005122037044729,"16":-0.0820835612588901,"17":0.029410316769477897,"18":0.7472765328003022,"19":0.8829053139798131,"20":0.404634841237295,"21":-0.17569278490091836,"22":-0.002368236040062375,"23":0.10429523611303049,"24":0.2554659284933879,"25":-0.0767809331967746,"26":0.4623342523308858,"27":0.17924772353674961,"28":0.5195112760299122,"29":-0.07072420179547775,"30":0.17296368887569233,"31":0.18236226527310775,"32":0.028548877096924517,"33":-0.3363294868395108,"34":-0.6069788089260911,"35":-0.04306599830170981,"36":0.754038932442499,"37":0.10608121675115864,"38":0.45148303635843934,"39":0.41336249275912446,"40":-0.13168477727385564,"41":-0.13321520692856142,"42":-0.39817466814889213,"43":-0.02498745571281517,"44":-0.2428199031198878,"45":-0.15763953206614667,"46":0.46380080346151864,"47":0.06369543256808295,"48":0.4796325141823598,"49":-0.010807303921357151,"50":-0.2561102560224731,"51":0.3478889141383363,"52":0.3440474479055578,"53":-0.1895225370150301,"54":-0.2250661061584303,"55":-0.6817438087348721,"56":-0.0576331789456752,"57":0.47076419869862685,"58":-0.049332603730154856,"59":-0.25206184941821336,"60":-0.30329566774520167,"61":-0.25842751132665015,"62":0.17546572317894632,"63":-0.07225477101195206,"64":-1.0019196275919278,"65":-0.3132137024885122,"66":-0.2103672195908089,"67":-0.467135156889073,"68":-0.2649379650495064,"69":0.032097698825951294,"70":0.22740374750569411,"71":-0.026595089513300856,"72":0.008653405931475972,"73":-0.5229914497063693,"74":-0.49642758676588367,"75":-0.7112292979700137,"76":0.16074263606114,"77":-0.1926401462153132,"78":-0.19758579098405585,"79":-0.40022696514619727,"80":0.03541928203723181,"81":0.2604940637727069,"82":0.12513303094367903,"83":-0.7611415547050894,"84":-0.6346486175486076,"85":-0.3483868943588405,"86":0.1933654577461982,"87":-0.1543558231868568,"88":-0.5635928444782189,"89":-0.24729316040253363,"90":0.19499376210445332,"91":0.1642638354662517,"92":-0.17163230904029625,"93":-0.538883049679028,"94":-0.5762601572436784,"95":-0.6885874070882197,