{"layers":[{"0":{},"1":{},"2":{},"3":{},"4":{},"5":{},"6":{},"7":{},"8":{},"9":{},"10":{},"11":{},"12":{},"13":{},"14":{},"15":{},"16":{},"17":{},"18":{},"19":{},"20":{},"21":{},"22":{},"23":{},"24":{},"25":{},"26":{},"27":{},"28":{},"29":{},"30":{},"31":{},"32":{},"33":{},"34":{},"35":{},"36":{},"37":{},"38":{},"39":{},"40":{},"41":{},"42":{},"43":{},"44":{},"45":{},"46":{},"47":{},"48":{},"49":{},"50":{},"51":{},"52":{},"53":{},"54":{},"55":{},"56":{},"57":{},"58":{},"59":{},"60":{},"61":{},"62":{},"63":{},"64":{},"65":{},"66":{},"67":{},"68":{},"69":{},"70":{},"71":{},"72":{},"73":{},"74":{},"75":{},"76":{},"77":{},"78":{},"79":{},"80":{},"81":{},"82":{},"83":{},"84":{},"85":{},"86":{},"87":{},"88":{},"89":{},"90":{},"91":{},"92":{},"93":{},"94":{},"95":{},"96":{},"97":{},"98":{},"99":{},"100":{},"101":{},"102":{},"103":{},"104":{},"105":{},"106":{},"107":{},"108":{},"109":{},"110":{},"111":{},"112":{},"113":{},"114":{},"115":{},"116":{},"117":{},"118":{},"119":{},"120":{},"121":{},"122":{},"123":{},"124":{},"125":{},"126":{},"127":{},"128":{},"129":{},"130":{},"131":{},"132":{},"133":{},"134":{},"135":{},"136":{},"137":{},"138":{},"139":{},"140":{},"141":{},"142":{},"143":{},"144":{},"145":{},"146":{},"147":{},"148":{},"149":{}},{"0":{"bias":0.024481665679910655,"weights":{"0":0.16805321385462327,"1":0.15789688575655833,"2":0.2877509479049735,"3":-0.07507463124779859,"4":0.7027113360684014,"5":0.1672862228240272,"6":-0.09018830945254452,"7":0.17515810552650668,"8":0.5081747224676503,"9":0.1232569640041052,"10":0.3534215276725269,"11":-0.04996300854345233,"12":0.2610490363741475,"13":-0.2885089847917432,"14":0.04559482007250645,"15":-0.20209501899105403,"16":0.3028630472333204,"17":-0.15183679793605478,"18":0.30437997518923066,"19":0.7331397424276993,"20":0.08565045506896893,"21":-0.1261613342183741,"22":-0.23584543846004002,"23":-0.5074907119382611,"24":-0.29634858283316473,"25":-0.09917855612659353,"26":-0.16753254119230648,"27":0.07794597737534756,"28":0.1480414607615521,"29":-0.015321389881806247,"30":0.02561661386895382,"31":-0.11270490761258961,"32":-0.5697682869692953,"33":-0.4475776574294073,"34":-0.472620885300685,"35":-0.11160280317040308,"36":-0.33109792406433464,"37":-0.5059086471889916,"38":0.12612649091906997,"39":-0.2125259768243318,"40":0.6010462102114221,"41":-0.013129551999766264,"42":-0.104995305624703,"43":-0.058007997690505936,"44":-0.329932437130597,"45":-0.4762917320703006,"46":-0.022616550972430958,"47":0.4958234509103798,"48":-0.043282369767468985,"49":0.2105194812936186,"50":0.6102882397063825,"51":0.09591054869579672,"52":-0.2395307014288693,"53":-0.34447460094217097,"54":-0.6149896340416924,"55":0.0153073538541389,"56":0.7716497420900053,"57":0.6798260011418801,"58":-0.27788624554150543,"59":0.10809900054348638,"60":0.5076991088834842,"61":0.5408614951418173,"62":-0.3864103072976581,"63":-0.2717608015656859,"64":0.07205482757197604,"65":-0.017959596189325286,"66":0.13955517061781778,"67":-0.13278368093620513,"68":0.006240238305772192,"69":0.09110230834557578,"70":0.0958524743108758,"71":0.2580066994061061,"72":-0.8143474900095831,"73":-0.2533781227479673,"74":0.043494993772629664,"75":0.06926014258855921,"76":-0.46258814563381134,"77":0.31877585632364835,"78":-0.00953144659786594,"79":-0.07274137817635407,"80":0.44755438009705495,"81":-0.4108722746708725,"82":-0.7814940633144195,"83":-0.02863172838073182,"84":0.3477262133365127,"85":0.1512865677450509,"86":-0.1770642484368818,"87":0.39810316617042585,"88":0.17082459756900992,"89":-0.08364750665617339,"90":0.49779351653698367,"91":-0.1438056184900706,"92":-0.08159295040614412,"93":-0.052297446584238794,"94":0.25076448183528216,"95":0.4791163699868883,"96":-0.05210124988697405,"97":0.38763336458215886,"98":0.10230338548458608,"99":-0.26988729786878746,"100":-0.016958937068336247,"101":0.1795542413780609,"102":-0.20668884996026218,"103":-0.7317819916821793,"104":-0.032260186993530365,"105":0.3171198312960759,"106":0.6188271802143595,"107":-0.010621318512601379,"108":-0.21193839878865747,"109":-0.7047669785438567,"110":0.08421399195059698,"111":-0.49554695412801647,"112":-0.13290490385660705,"113":-0.6845258274062784,"114":-0.11077925957714277,"115":0.540891917743138,"116":0.4032683371548902,"117":0.054992564695093345,"118":-0.17340865078417755,"119":-0.6137883235730728,"120":-0.28755847943374685,"121":-0.2458607538926719,"122":-0.12851390457564682,"123":-0.08896335660394901,"124":0.43147433361721593,"125":0.3035532001377448,"126":-0.10381808340888865,"127":-0.22789190296157033,"128":-0.04349312665323955,"129":-0.1519697681495462,"130":-0.607853819132771,"131":-0.32813608670604627,"132":-0.11332957540499825,"133":0.3917954140218403,"134":0.5034052551960468,"135":0.2214844100983548,"136":0.050636928113541764,"137":-0.14593537425175707,"138":0.38402828796448607,"139":0.3278527490833433,"140":-0.18774118386528446,"141":-0.2681250205032395,"142":-0.09935273235477433,"143":0.6018458187462548,"144":0.6195414472948293,"145":-0.21537844081653054,"146":0.4698104096542555,"147":-0.021208965851446077,"148":0.47573734879708623,"149":-0.01645696193861902}},"1":{"bias":0.7326988181298011,"weights":{"0":0.1950939645421076,"1":0.24361517514550773,"2":0.16048045212355153,"3":0.14962052082508367,"4":-0.10829797147403844,"5":0.048312376247890976,"6":-0.09408895918596073,"7":-0.2884225487899457,"8":-0.41522464690531236,"9":0.0008030844121442207,"10":0.30769453394847845,"11":-0.15668311436925783,"12":-0.07745223901800907,"13":0.10371936680360717,"14":0.021069654357468284,"15":-0.3735370488824049,"16":-0.3207567704239019,"17":-0.6033537134487204,"18":-0.6618337483409706,"19":0.10308488792703378,"20":0.4870432856520928,"21":-0.3725687847398412,"22":-0.18293505344962144,"23":-0.07299438871233274,"24":-0.7978815149782214,"25":-0.8707742654365593,"26":-0.9587706441107664,"27":-0.6224447996791462,"28":-0.5242171468584143,"29":-0.05092374494481083,"30":0.43718356462470964,"31":0.011732327321277028,"32":-0.3379242211269727,"33":-0.40561558971136513,"34":-0.26207606650667714,"35":-0.2103077556093252,"36":-0.8212060983824014,"37":-0.32662701487191875,"38":-0.01730725448831295,"39":0.02995298809921472,"40":-0.41426262295454125,"41":-0.4323028443444699,"42":-0.48419574607525184,"43":-0.4547507938455921,"44":0.11134967159310148,"45":-0.08093104395778901,"46":-0.18538205150654807,"47":0.31018069007298915,"48":0.03269596859850983,"49":-0.23386845731005548,"50":-0.4927699022795675,"51":-0.16769707053759503,"52":-0.40784684267000026,"53":-0.03402027858609202,"54":0.5244381197611736,"55":0.25759209586553483,"56":0.5020919803801225,"57":0.7025781651617574,"58":0.19896060437923174,"59":-0.3378231779738774,"60":0.16238213556389766,"61":-0.4694221207235281,"62":-0.18219054189049286,"63":-0.3402750339084926,"64":0.22323106180266164,"65":0.6633316229151057,"66":0.286374520006254,"67":0.4502957314471743,"68":0.3141656542493944,"69":-0.0801915351639126,"70":-0.11491296164369169,"71":0.46543571241906395,"72":-0.19738622816086818,"73":0.22208117607398678,"74":0.056660688919418965,"75":0.19648178893631102,"76":-0.039820732407823994,"77":-0.21533708713441366,"78":-0.37632014918796663,"79":-0.3022118200327267,"80":0.014694090276156192,"81":0.40370550269177224,"82":-0.18931740837987507,"83":0.028541799106296725,"84":-0.04206205344417399,"85":0.01622254916654768,"86":0.22455041687073127,"87":0.10865250132766886,"88":-0.3770293430976279,"89":-0.28679921868350117,"90":0.16854657524492656,"91":0.5214846629972638,"92":-0.25465251335456557,"93":0.5400244386792754,"94":0.3328691516729423,"95":0.5217591165986857,"96":0.013443092317140292,"97":-0.13374260321962034,"98":-0.9070748973989979,"99":-0.6533615262980321,"100":0.4902679985929803,"101":0.17882580792109537,"102":0.15838221040426134,"103":0.3546062827008517,"104":-0.028762238218851842,"105":0.20422800373722474,"106":0.037391259615450576,"107":-0.301519267610048,"108":-0.7724617387985037,"109":-1.0563920671705893,"110":0.3336577373510042,"111":0.11988253146954346,"112":0.06749691970042268,"113":0.34724963074304027,"114":0.4086366007300445,"115":0.3666439403250651,"116":-0.3158827132601923,"117":-0.38896676679866776,"118":-0.31225224471848456,"119":-0.6547844314381754,"120":0.7287266368779304,"121":0.4464664962644872,"122":0.5082825146362361,"123":0.569095345026122,"124":0.22632073978720899,"125":0.06988141722260187,"126":-0.21479097385077295,"127":-0.1323843374039936,"128":-0.5073297067915343,"129":-0.3002941555271504,"130":0.33512692349689777,"131":-0.05676364919886964,"132":-0.15943563110250308,"133":0.09522972156391174,"134":0.473277106064889,"135":0.15029341158644186,"136":0.09175306994775968,"137":-0.10266112914874861,"138":-0.6585658117392621,"139":-0.7651193354001908,"140":-0.3166270009422028,"141":0.07235710102791384,"142":0.334395826796249,"143":0.04205624996872692,"144":0.33808414963355965,"145":0.20718755549423382,"146":0.13226494430951727,"147":0.07658957603060276,"148":-0.03163854402985674,"149":0.33391342648511185}},"2":{"bias":-0.760571758900452,"weights":{"0":0.11083236094648047,"1":-0.5193574694071601,"2":0.005714132973015999,"3":-0.3342635755686819,"4":-0.14293961020222617,"5":0.19892383637466707,"6":-0.34845802282802996,"7":-0.3540931987689125,"8":-0.0449773284666758,"9":0.2779177583951555,"10":0.23443489232835096,"11":0.3650254450043632,"12":-0.18581361262507534,"13":0.26670910548876664,"14":0.0998783544907876,"15":-0.3564230222327075,"16":-0.2553342069471006,"17":0.19332196519881273,"18":0.9146856293534,"19":0.44931604385073315,"20":0.4616039108086328,"21":0.35193700854756604,"22":-0.3133241453048343,"23":-0.12549775929848364,"24":-0.07089148493179677,"25":-0.5136038632862606,"26":0.0222349407698107,"27":0.36871106659948466,"28":0.9764570556155548,"29":0.44454915382049515,"30":0.23238040953360162,"31":0.6616982898821172,"32":-0.1712431003733353,"33":-0.2443424589000326,"34":-0.08668838329971744,"35":-0.25090936076632275,"36":0.31853073299358337,"37":-0.091330487095284,"38":0.49405166021953706,"39":0.14533419556622898,"40":0.7302580686634226,"41":0.4732537414645545,"42":-0.18052508881753648,"43":-0.05707454332162716,"44":-0.040099783335833916,"45":0.07723888214579452,"46":-0.12272363952037776,"47":0.00496651583766492,"48":0.5227993097358846,"49":0.8183436908548088,"50":1.0820507695601183,"51":0.3212926374601372,"52":-0.13621486118833642,"53":0.24694545542009075,"54":-0.2939254325042671,"55":0.19564622110350774,"56":-0.347639423185763,"57":-0.13154085849366454,"58":0.008517003115830956,"59":0.417379466242114,"60":0.7230566270808589,"61":0.28323035643437744,"62":-0.41943452537020715,"63":0.07843714898037325,"64":0.4935802777248884,"65":0.08060398422393263,"66":0.13391354117492524,"67":-0.3179786632404613,"68":0.20300768639041658,"69":0.8045417594697849,"70":0.36903600586057667,"71":-0.21333303279814567,"72":0.01906725282565127,"73":-0.09474018559257838,"74":-0.14497699214490412,"75":0.30192096258294465,"76":0.0640546231627888,"77":0.15725585565111885,"78":0.472485167796036,"79":0.4505406754624051,"80":-0.021120038463257898,"81":-0.10150878944952547,"82":0.4115922180303644,"83":0.22048515800402044,"84":-0.13266045473771618,"85":-0.03140510490159633,"86":0.30981966077976636,"87":0.4202777201992554,"88":0.3903654438375915,"89":0.21513858744497585,"90":0.3039582410869825,"91":-0.5122048401637088,"92":-0.42405308824272586,"93":-0.216950776902842,"94":0.10973063558922934,"95":-0.04076912306180233,"96":0.38642837325524954,"97":0.6439539031690715,"98":0.2821716046613646,"99":0.5317064002349624,"100":-0.08766445261084568,"101":-0.00596436238538819,"102":-0.44170757409434697,"103":0.004920871704933412,"104":0.06131055060453881,"105":0.5240238344502458,"106":-0.09534914245936649,"107":0.3928109743659216,"108":-0.08585056646194679,"109":0.25668812643161343,"110":0.19586656765396054,"111":0.19363557246707963,"112":-0.44584683053796426,"113":-0.15525185120293647,"114":0.0788615473207278,"115":-0.18835763017323706,"116":0.6564826191274757,"117":0.1533141567141823,"118":0.25411117327915167,"119":0.050623664091946546,"120":-0.14156494869175654,"121":-0.29736101359652,"122":-0.15744316240389672,"123":0.1418526448112142,"124":0.2541258304878469,"125":0.288070316108448,"126":-0.21600489062980313,"127":0.010020289184619861,"128":-0.4723174216705701,"129":-0.7695481795704647,"130":0.16742866600515008,"131":0.4347290912817076,"132":0.25807606918887777,"133":-0.5216948248763449,"134":-0.5967554256364306,"135":-0.2735768933506403,"136":-0.26039878190552246,"137":-0.4563998799473794,"138":-0.11099869418248952,"139":0.21800268038307458,"140":0.23629174713498008,"141":0.3301165954308661,"142":-0.19362720294162802,"143":-0.1925268144486801,"144":-0.2689467156703342,"145":-1.0313660624415346,"146":0.2581652335118513,"147":-0.10255649109294719,"148":0.10020181376597775,"149":-0.2848073008311503}},"3":{"bias":0.6761078857151779,"weights":{"0":-0.00595157185929478,"1":-0.03688146146140091,"2":-0.0005198920224702844,"3":0.053568493521134235,"4":0.09240445386634281,"5":0.07691344338856687,"6":0.09230080520705328,"7":0.12801345412829737,"8":0.0701629820917896,"9":0.05496451402867437,"10":-0.13977201695277022,"11":-0.23289259128949477,"12":0.12647846805013713,"13":-0.04030964014146936,"14":-0.050163447870288966,"15":-0.028400443921263667,"16":-0.08882187495929036,"17":-0.11125827175069748,"18":-0.18554057966460202,"19":0.35942512895178164,"20":-0.32842388212877294,"21":-0.007501764168404836,"22":-0.23591129388259147,"23":-0.30600941959570316,"24":-0.10794568047520528,"25":-0.44217654886149665,"26":-0.5445866027122394,"27":-0.35408906285478564,"28":-0.0237600884458497,"29":-0.05194669921694307,"30":-0.07674439527927186,"31":-0.01964701938964227,"32":-0.35041542421881106,"33":-0.07406200782038787,"34":-0.17600612640784669,"35":-0.38860536816117264,"36":-0.25922671139512976,"37":-0.18816751391133016,"38":-0.26850876428389386,"39":-0.22967742342552627,"40":-0.08126162345646888,"41":0.18575041791414687,"42":0.0007764246472136859,"43":-0.24068121261803263,"44":-0.45976775283968835,"45":-0.08357821051404526,"46":-0.2020240145110782,"47":-0.39044608390597635,"48":-0.30572655730608655,"49":-0.5399923437142551,"50":-0.12236642307431983,"51":0.20361859913233357,"52":-0.31093355527983974,"53":-0.35061692277079215,"54":0.009954063679559502,"55":0.23544981438446935,"56":-0.25279642618413345,"57":-0.10630466000405366,"58":-0.12343093492528652,"59":-0.15329788047543258,"60":-0.20534462322269464,"61":-0.20628061773487355,"62":-0.30257479537881554,"63":-0.31009930637768757,"64":-0.21492722017396299,"65":0.24444070765813114,"66":-0.10108046324787379,"67":0.220537158760941,"68":0.5584540255871377,"69":-0.09367812889992759,"70":-0.5270849071349143,"71":-0.18347316542751368,"72":-0.5990560569785428,"73":-0.025044608630174867,"74":-0.007143764245095494,"75":-0.07380924841270718,"76":0.05385589941815641,"77":0.09764586267881681,"78":0.014567688406104942,"79":0.030030411563400163,"80":-0.15620983591149573,"81":-0.3231029365069127,"82":-0.21350303274083848,"83":0.05650560387726334,"84":0.03316306128076614,"85":-0.052958628844282936,"86":-0.21160153374044,"87":-0.5274441775919714,"88":-0.25351233251662303,"89":0.09633599515009135,"90":-0.4587632338677429,"91":-0.10418369422772794,"92":0.09659457139421425,"93":0.6422765959127869,"94":0.2742538525294983,"95":-0.10138716243594771,"96":0.03766741480718009,"97":0.1708927308295388,"98":0.3495076080371115,"99":0.4075892083772925,"100":-0.2842423817283841,"101":0.30024615805177957,"102":0.3119736859722924,"103":0.3838897584252603,"104":0.2760268817446236,"105":0.2502323455663656,"106":0.24847362217586408,"107":0.2842501174127761,"108":-0.1107871724339792,"109":0.36620680876022843,"110":0.2444373918861337,"111":0.41142574074186705,"112":-0.04449271767017863,"113":0.4340860264469165,"114":0.06028776391764673,"115":0.29113710809501525,"116":-0.06915473249351209,"117":-0.26970109538106146,"118":-0.32212247838312497,"119":0.1832796464279232,"120":0.47749317711570916,"121":0.4435808469293778,"122":-0.0009572779663624745,"123":0.3796753333625464,"124":0.2648555857468102,"125":-0.0178868592887912,"126":-0.3148182101514531,"127":-0.28548503029160144,"128":-0.14973935085905657,"129":0.1642744754888193,"130":0.30017136657660454,"131":0.42973220772666765,"132":0.19414810570471433,"133":0.6514517089978281,"134":0.6452095970615335,"135":-0.0063366683599167676,"136":-0.3709914793125682,"137":-0.03351910697519776,"138":-0.050644386702689115,"139":0.2309632705030798,"140":0.04600386054041958,"141":0.11575047487146581,"142":0.6552324003129973,"143":0.4165473504070537,"144":0.17632567433073615,"145":-0.17635556666440702,"146":-0.1308992486702759,"147":0.34732371016768326,"148":0.3190860792213919,"149":0.35991704252772816}},"4":{"bias":0.14343535144995195,"weights":{"0":0.06979597141963746,"1":-0.38220756850654497,"2":0.12512040850515813,"3":0.2653401642623066,"4":0.10632915324870527,"5":0.08436493811723816,"6":0.07937277082032493,"7":-0.17285513013254689,"8":0.28391117061178717,"9":0.1642925419736761,"10":-0.1770491364977629,"11":0.10299764992731417,"12":0.19669947638465907,"13":0.5360366630384393,"14":0.08257083694579881,"15":0.11429222744337307,"16":0.19291718776315125,"17":0.5269661752276965,"18":0.38010317412595207,"19":0.32380593824263515,"20":0.24309041276989238,"21":0.12005089335297935,"22":0.08519974027268162,"23":0.38743678323378977,"24":0.3996776849718371,"25":0.7381705655697313,"26":0.5418676877704157,"27":0.18206469589267354,"28":0.30709964587092453,"29":0.26031463902166807,"30":-0.07465898778155151,"31":0.19010551152977995,"32":0.1572655591007888,"33":0.7578147400647529,"34":0.8905550720070177,"35":0.6511206630566315,"36":0.16277486453723494,"37":0.3619151862381841,"38":0.023620993319933836,"39":0.07372034630207214,"40":-0.24209712057054852,"41":0.09501077527234117,"42":0.09797519317876059,"43":0.9006440208332803,"44":0.4284903992630482,"45":0.2880928851725892,"46":-0.39950115283767723,"47":-0.07481811750625691,"48":0.16071245850436194,"49":-0.1836688907981625,"50":-0.2041039990739892,"51":0.4073065072260591,"52":0.7258466650599832,"53":-0.0573073455818521,"54":-0.5084156057291992,"55":-0.262077922368617,"56":-0.704168955155273,"57":-0.5028941336920153,"58":-0.132733707449704,"59":0.000666180338424262,"60":0.3019699568272317,"61":-0.2705321235795266,"62":-0.3684684123023123,"63":-0.3269931857132777,"64":-0.31722736551632186,"65":-0.4339110173939073,"66":-0.5621034014659971,"67":-0.32891066912759837,"68":-0.11655562252106928,"69":-0.13919540738390224,"70":0.1579304751966797,"71":-0.40550255902281473,"72":-0.34520873156024934,"73":-0.5186325936927012,"74":-0.05218060662302993,"75":-0.49516411582388375,"76":-0.29079223189101944,"77":-0.1587959503075219,"78":0.19213011521503637,"79":0.08825086191155156,"80":0.21991021217877493,"81":-0.3962103676287593,"82":-0.13479051366675596,"83":-0.677493548082007,"84":-0.006427821799834934,"85":-0.6872101534667862,"86":-0.31345818094992217,"87":-0.20211176251625296,"88":-0.09632575858376281,"89":-0.47335267008712184,"90":-0.07003015566226854,"91":0.035968885479447585,"92":-0.6305687102050742,"93":-0.6734151588429316,"94":-0.2773678328060562,"95":-0.40079050535403077,"96":-0.24836156475228757,"97":-0.09326738190535093,"98":0.0493469749777162,"99":0.2863459891526911,"100":0.2863555697428007,"101":-0.29387194468765754,"102":0.07413110383506973,"103":-0.7248014259785002,"104":-0.38140339691950004,"105":-0.17940662440173644,"106":0.21165367596213602,"107":-0.07015816165177385,"108":0.43035264238693816,"109":0.40656537746868665,"110":0.16489518997730315,"111":0.08719400494671087,"112":-0.06993670232445823,"113":-0.5773692888432749,"114":-0.13770514763871958,"115":0.11842207156682658,"116":0.08975486443985024,"117":0.44957052086163884,"118":0.30616155363637715,"119":0.4404697399477845,"120":0.0043973228718478755,"121":0.3414353099528949,"122":0.14781751234431892,"123":-0.4794139892268876,"124":-0.02678816791296923,"125":-0.5243294552693745,"126":-0.09826829158642729,"127":0.296976792917553,"128":-0.11184981618948102,"129":0.5302414244698936,"130":0.3265284335661125,"131":0.589092026877097,"132":0.13671474391157554,"133":-0.5331316560790809,"134":-0.45912958448312,"135":-0.8970341922673879,"136":-0.31913503379585,"137":-0.027241894107832867,"138":0.2904739651623476,"139":0.4323056154191884,"140":0.005333223648793127,"141":-0.032412838102839854,"142":-0.18632071544910894,"143":-0.7323399287635574,"144":-0.6201753395232441,"145":0.0041927027553512915,"146":0.0024307866433775057,"147":0.22650349741195433,"148":-0.25666471118749096,"149":0.07588925243667656}},"5":{"bias":-0.10219490249852793,"weights":{"0":-0.32934155597569303,"1":0.07863198658543556,"2":-0.10115267251421899,"3":-0.037925724455659456,"4":-0.5893389925268051,"5":0.23687061753536875,"6":0.2962934986530485,"7":-0.7443704884275985,"8":-1.064781925671666,"9":-0.1687051427593559,"10":-0.07110110773879133,"11":0.017867104864289222,"12":-0.09929674998864663,"13":-0.05989018550980522,"14":-0.30496736699844096,"15":-0.0600107228007377,"16":0.009327842164580243,"17":-0.1829768749652424,"18":-0.6431975456577872,"19":-0.24562561532364743,"20":0.6959297541323605,"21":-0.1328903443585477,"22":-0.44615772698146056,"23":-0.4107178865643523,"24":-0.20549997259470545,"25":-0.3134600235553085,"26":0.11565717602150521,"27":-0.04133251787749752,"28":-0.48431041121177404,"29":-0.02912343529856017,"30":0.29417033004453347,"31":0.14509464147354895,"32":-0.3090015960323704,"33":-0.11671296379236845,"34":-0.38303402634576844,"35":0.1477399722756751,"36":0.006982583363664547,"37":0.2175301916692961,"38":-0.6435479678742576,"39":-0.43266341844628203,"40":0.08504078546071943,"41":0.5572231940740962,"42":0.2001277226306432,"43":0.23921253030104694,"44":-0.35672815209216796,"45":-0.11010029477929739,"46":-0.10052037378067714,"47":-0.12778163436119871,"48":-0.1168192614382364,"49":-0.38354733956516346,"50":-0.24053353725349969,"51":-0.09369003471724019,"52":0.014939185677682092,"53":-0.4341279011324889,"54":0.03634797462865456,"55":0.047768172188654395,"56":-0.19977985154708947,"57":0.3701847352496503,"58":0.11843148648291936,"59":-0.15288268320891116,"60":0.18278774819217147,"61":0.12263464210744167,"62":-0.7850387190695957,"63":-0.746573935199439,"64":-0.11224065935637323,"65":0.16889180536481266,"66":-0.057191520502569156,"67":0.41615528832632626,"68":0.04433205420076234,"69":0.09195866663784014,"70":-0.07613771027160107,"71":0.49820837567430376,"72":-0.4060664271326045,"73":-0.30546884065322827,"74":-0.1890757274043078,"75":-0.02763826129841685,"76":-0.5138827232175825,"77":0.014319281019313571,"78":0.3890025826817277,"79":0.43340671670110786,"80":0.23890123175529268,"81":0.3729031797283049,"82":-0.2992366762749661,"83":-0.4110078081971984,"84":-0.41556963890878384,"85":-0.07230324759068346,"86":-0.7400072833777396,"87":-0.11955636494724699,"88":0.20642216672908253,"89":0.1452775916974395,"90":0.21513867675718962,"91":0.645536620990732,"92":-0.03368847143988737,"93":0.00383905437604641,"94":0.1900720728942789,"95":-0.003938298914742458,"96":0.2788906204248386,"97":-0.3275340693549036,"98":-0.3006267552236889,"99":0.3538004096288165,"100":0.27049990191782913,"101":0.1643943708312086,"102":0.32782385893979876,"103":0.5417914837104303,"104":0.2672832114782065,"105":-0.008793154803845692,"106":-0.43898027962227076,"107":0.3979193095018394,"108":0.1420698017730943,"109":-0.2590757078143004,"110":0.8241685623409994,"111":0.2520243340699948,"112":0.5631896331446409,"113":0.6763735676771655,"114":0.8865219151898329,"115":0.4538045208241807,"116":0.23350047643108487,"117":0.07829596306852919,"118":0.45284013764686915,"119":-0.43854373266622326,"120":0.03827726338317501,"121":0.5032562039122677,"122":0.2997724243867389,"123":0.751547100382607,"124":0.5728289364259976,"125":-0.0415999157297018,"126":-0.17657421384610852,"127":-0.29265439406683313,"128":-0.19677644462733382,"129":-0.1162037703908362,"130":-0.21703240677574043,"131":0.5396276329221623,"132":0.25524553186976773,"133":0.008749238221578316,"134":-0.009212773059655323,"135":0.08224531869608533,"136":-0.1741380915784429,"137":-0.39453888307625157,"138":-0.25092857326602663,"139":-0.14945410794195638,"140":-0.5723574415871584,"141":-0.1386955934720471,"142":0.3789092349033706,"143":-0.15302896365485325,"144":-0.7316878171155624,"145":0.19020475726994351,"146":-0.05355549198971545,"147":-0.17130947397713478,"148":-0.2841389887827261,"149":-0.09276729705522607}},"6":{"bias":0.3160036823984372,"weights":{"0":-0.09810342743798142,"1":-0.05434232428004305,"2":0.24528615959562797,"3":0.2734789465171538,"4":-0.2773976216343464,"5":-0.33281409982338783,"6":-0.35990247461939257,"7":0.23384808164735185,"8":0.0055969862774456584,"9":-0.15828884529484938,"10":-0.037118741474689416,"11":-0.6834841171038746,"12":0.24317073474513168,"13":0.22507927123809557,"14":0.34570979806750884,"15":-0.25822019699809257,"16":0.1685458598857058,"17":0.15698648418784625,"18":0.015475117016552385,"19":0.03838137432111644,"20":-0.364837509166336,"21":-0.4554138258566121,"22":-0.25932871505131966,"23":-0.15489909062150606,"24":-0.30097304197994634,"25":-0.54576657592695,"26":-0.11172641739110276,"27":-0.30136055001809786,"28":-0.3417184903842802,"29":0.20445018573038362,"30":-0.5080281961942171,"31":-0.6827829141137371,"32":-0.4418029309544287,"33":-0.2825475821168282,"34":-0.08777285940151675,"35":0.20530776926861216,"36":-0.3638894936150628,"37":-0.44453450908566977,"38":-0.07940948111787036,"39":-0.2180945796916703,"40":-0.4769685206844351,"41":-0.16628104457696577,"42":-0.011476579267506276,"43":-0.13548342220414067,"44":0.12292312372043063,"45":0.0405591472169997,"46":-0.2825022463263941,"47":0.209437220674656,"48":-0.18205709079710344,"49":-0.3937002691080015,"50":-0.17842546118286598,"51":-0.23190008704464235,"52":0.0440687567877024,"53":-0.25240768887345694,"54":-0.24561013203908794,"55":0.17926595445880658,"56":0.12099594250791916,"57":0.4429545578598835,"58":0.2736924117305224,"59":0.3574734325259956,"60":-0.09551075598708052,"61":0.07003977155452237,"62":-0.36095987241915495,"63":-0.47770645671648476,"64":0.22909388003136955,"65":0.31942884378627817,"66":0.14469812408453556,"67":0.3884687409904863,"68":0.22982620205021648,"69":0.47746185952478143,"70":0.13461466657691828,"71":0.3505241982435052,"72":-0.12653274380415,"73":-0.18099592021580985,"74":0.26352560810060316,"75":0.18032563264959073,"76":0.06052030389419318,"77":0.11963391011989488,"78":-0.0963573045273651,"79":0.06408949305908103,"80":0.14898709685069153,"81":0.3198683236972543,"82":-0.2678326957455947,"83":0.000056399062151683,"84":0.4958147973308311,"85":0.3532652899132648,"86":0.22655416918233298,"87":-0.13349851878936958,"88":0.26493514289491954,"89":-0.26116104386376443,"90":0.34153457548215377,"91":-0.20857922714510158,"92":-0.16407384628796648,"93":0.17139946510237944,"94":0.47819748706241816,"95":0.06212370233318521,"96":0.13827873472250216,"97":0.2686849063184548,"98":0.031399037069582615,"99":-0.44965546408929985,"100":0.4868373909424072,"101":0.21503205584671606,"102":0.4008014533537582,"103":0.36079346270936896,"104":0.1258161152496817,"105":0.09032372551719003,"106":0.38210799278446794,"107":0.15834758754927006,"108":-0.12260181217212221,"109":-0.5221455518058298,"110":-0.0682079556757247,"111":-0.2916117163417027,"112":-0.19933512374293905,"113":0.064968263197277,"114":-0.14237530252384462,"115":0.05803617165210291,"116":0.4366178043728296,"117":0.5298018544933956,"118":0.32169726469654725,"119":-0.07072770604785802,"120":0.07208406834094594,"121":0.4764827612612689,"122":-0.16790561310307878,"123":-0.0993439727579093,"124":-0.7133593152141824,"125":-0.7154965844971265,"126":0.23025226740739688,"127":0.016115758044490624,"128":0.4468667871073402,"129":-0.22122057259032815,"130":-0.28964058671297965,"131":-0.028232771515509087,"132":-0.11294807528056082,"133":0.04579404964123033,"134":-0.9083496363095698,"135":-0.6514360614450846,"136":-0.2809376835932307,"137":-0.10842935227574646,"138":0.2264457718352189,"139":0.19838625849850827,"140":-0.46569003566062844,"141":-0.5043079829466686,"142":-0.02437418502302869,"143":0.1782412616512803,"144":0.2910912960108992,"145":-0.4898855158184413,"146":0.42528637850922324,"147":0.14886791471241184,"148":0.35406562339988296,"149":0.6213899391945589}},"7":{"bias":-0.15617248813130685,"weights":{"0":-0.13617513126366837,"1":0.06051952025201227,"2":0.2983021087733611,"3":0.29453812546566543,"4":0.07764772682562186,"5":-0.07703778115074421,"6":0.24861284406146256,"7":-0.045300837921331445,"8":-0.14711553321726542,"9":0.08780025658695106,"10":0.2979129487790819,"11":0.4153784922992613,"12":0.4466479704851149,"13":0.12487994495272903,"14":0.13917891832686666,"15":-0.38223937844571587,"16":-0.3429875599289163,"17":-0.09195708588560146,"18":-0.15823571032099554,"19":-0.2371919604542284,"20":0.16311924260419475,"21":0.47791278351015687,"22":0.30666401641226065,"23":0.20875172094157365,"24":0.23003121724985423,"25":-0.19206363414197605,"26":-0.2143441640069237,"27":-0.2803977214711392,"28":-0.20126832518330165,"29":-0.2742317312238931,"30":0.25050276805053223,"31":-0.08468755993397208,"32":0.17406414797959818,"33":0.31855872124749285,"34":0.09816532532806786,"35":-0.19334542125772222,"36":0.05523286413658884,"37":0.35087151483879453,"38":-0.2657961138114735,"39":-0.16318881611958336,"40":0.03670246550086789,"41":0.007610191970394904,"42":-0.48252002385111636,"43":-0.02481684453250423,"44":-0.0781782985768949,"45":0.2107945086031264,"46":-0.4058767498554965,"47":0.20239941271016912,"48":-0.2855449530369707,"49":-0.30407768383058026,"50":-0.3443546542110634,"51":-0.1597045956458038,"52":-0.34432195046564257,"53":-0.32255840500905564,"54":0.03380598336499679,"55":-0.14620179993612695,"56":0.06698598176087883,"57":-0.22966149560230378,"58":0.04984625782940044,"59":-0.20228217131723783,"60":-0.03412947959256966,"61":-0.07716457964078312,"62":-0.36319962870657096,"63":0.14733850039033605,"64":-0.2752186702749002,"65":0.08720024405593124,"66":-0.2911261846172382,"67":-0.44285515892038985,"68":-0.2500416970146638,"69":-0.08041399671175638,"70":0.2965844846513269,"71":-0.48794570645704577,"72":-0.23416259905975387,"73":0.05723035997688716,"74":-0.36278940715128155,"75":-0.2111687625215953,"76":0.5291993872685244,"77":-0.31409090941917445,"78":0.0398496156272623,"79":0.03163040032957234,"80":-0.0030964878290930626,"81":0.15068645829947055,"82":-0.3969976883387188,"83":-0.09605678494473681,"84":0.0367019275131739,"85":0.01913658058136842,"86":0.2699355414405911,"87":-0.5870646967844448,"88":0.08211466183552149,"89":0.1250824997562556,"90":0.29686098513092746,"91":0.10734334895295115,"92":0.029132522361342637,"93":-0.015218177988064146,"94":0.19944002400167,"95":0.12780630858494146,"96":0.09507913648027723,"97":-0.04727682699439205,"98":0.055850784927656404,"99":0.037859072678543236,"100":0.2825046934395203,"101":0.058327864797813926,"102":-0.12573835657161048,"103":0.5747706742995488,"104":-0.20308878422011162,"105":-0.032875265177988416,"106":0.5316175721666908,"107":-0.047513768786243214,"108":0.4664389310809306,"109":0.2932124190809167,"110":-0.0014998152613723492,"111":-0.006845893475310843,"112":-0.28514865606810397,"113":0.02731506975723887,"114":-0.15578604801707774,"115":-0.19617997953124497,"116":0.2618062218013289,"117":0.47071864520035617,"118":0.09357268816842998,"119":0.30107873888996367,"120":0.4693738433907716,"121":0.048928372836120684,"122":-0.28538338857596945,"123":-0.2134780030378138,"124":-0.3129760824032663,"125":0.08954759827328077,"126":0.19501856706901669,"127":0.6341423084345745,"128":0.36127903598475714,"129":0.7255288481070724,"130":0.40025591651440834,"131":-0.46551687204020703,"132":-0.5129992775639983,"133":-0.375795550953188,"134":0.4444983080347649,"135":-0.30219588481294135,"136":-0.27011317364332404,"137":0.46204253682138785,"138":0.8258092499198172,"139":0.727876635422328,"140":0.5575751810573321,"141":-0.39984786618317325,"142":0.14439884629415525,"143":0.21350823574252828,"144":0.06863857673829193,"145":-0.5579221713683568,"146":-0.016684053619237724,"147":-0.2940621769821159,"148":0.17342651734303835,"149":0.25600484925528105}},"8":{"bias":0.5472518826408962,"weights":{"0":0.3360429396380883,"1":-0.0201984904219282,"2":-0.1839537744613742,"3":-0.6127029811236043,"4":-0.3107191818836177,"5":-0.2301527524219485,"6":-0.13884771837788534,"7":0.6012132778714662,"8":0.33262254898709714,"9":-0.3046629254308506,"10":0.49601847339910654,"11":0.2071611244487191,"12":0.06363866629927793,"13":-0.4262041944295677,"14":-0.29395097818266136,"15":0.4560873801726373,"16":0.07820640619884417,"17":0.023162377931330434,"18":-0.014043803086967252,"19":-0.42207117795866966,"20":0.3756233275988046,"21":0.10884007884358127,"22":0.053721503442272125,"23":0.1706038646644385,"24":0.42748244786073447,"25":0.5925374923063351,"26":0.25697200854108004,"27":0.1772828131005855,"28":0.24800530868528212,"29":-0.22547975226365394,"30":0.06923396688351434,"31":0.5289520069919479,"32":0.07606951886128631,"33":0.1808817799780233,"34":0.32303858011430037,"35":0.42241103584903456,"36":0.7580212035118802,"37":0.1359137677421598,"38":0.2648041895375423,"39":0.4017246646453556,"40":0.39822774266967537,"41":0.23066049627582147,"42":0.1788675908113554,"43":0.3095326850191937,"44":0.10952849227774802,"45":-0.05744416512545257,"46":0.25782957780750954,"47":0.3337807440089571,"48":-0.021575027590526458,"49":-0.19381561616391063,"50":0.28767038599686506,"51":0.1908500967987306,"52":0.3312326087204325,"53":0.4656775025883479,"54":-0.30365187927433984,"55":-0.4813021638417515,"56":-0.09788695426772666,"57":0.2686853688531695,"58":-0.36735934408957727,"59":-0.15658496255259657,"60":-0.06126374957640117,"61":-0.1609723895469505,"62":-0.09715098269738236,"63":-0.0030718423118631733,"64":-0.6652852517393006,"65":-0.19922379867315645,"66":-0.31759768814896877,"67":-0.2761489966757652,"68":-0.3046783764069393,"69":-0.4977954667502963,"70":0.5009360956620931,"71":0.14381189610690195,"72":-0.2988034356338316,"73":-0.34857585006914826,"74":-0.2783830420061546,"75":-0.22147189873047166,"76":0.021446143842772682,"77":0.1059702775338161,"78":-0.108504021797794,"79":-0.6622632406270936,"80":0.20869714741825135,"81":-0.2382412736401547,"82":-0.1172819218937639,"83":-0.5444960990512949,"84":0.014361282116107614,"85":-0.5070068052139534,"86":-0.6116822693023616,"87":-0.3448959379074666,"88":-0.8465714591580503,"89":-0.45238266757484624,"90":0.24949140092357608,"91":-0.4641706686409774,"92":0.2849633555782649,"93":-0.05520125065137673,"94":-0.2402037470567911,"95":-0.587073611088887,"96":-0.6614478930089488,"97":-0.0898974495655961,"98":-0.5229692428861031,"99":-0.6178343972928932,"100":0.41676089224221924,"101":0.05334453752393456,"102":0.13215447594682878,"103":-0.04339277356016173,"104":-0.18963029330871337,"105":-0.5451221773205619,"106":-0.2495136487563936,"107":0.0629617463288649,"108":-0.1640868933958538,"109":-0.3661590863990338,"110":-0.25047328247379197,"111":-0.16223419196237393,"112":-0.054613291562146705,"113":0.6194577779232353,"114":-0.18247609745285132,"115":0.26526156218536434,"116":-0.07712470447778598,"117":0.30154366479154937,"118":0.5753525107731602,"119":0.9556591962091046,"120":-0.1625263389980288,"121":0.5194624671004557,"122":0.048440180180821045,"123":-0.387668692753372,"124":0.43904806045476846,"125":-0.359369857595236,"126":0.19815705892926952,"127":0.01957180170657881,"128":0.6786923727725959,"129":0.4924744336899665,"130":0.24815179127131973,"131":0.013379551597072947,"132":-0.6322711413562278,"133":-0.49552548901314547,"134":-0.7472455179134733,"135":-0.31375644623973153,"136":-0.6181993427300163,"137":0.6085163207384047,"138":0.6601840437913675,"139":0.49619259622051914,"140":0.38225144107207765,"141":0.1562496220860978,"142":-0.804399157914514,"143":-0.9704527361136988,"144":-0.3947076422758795,"145":0.1817578796606693,"146":0.4260694297131074,"147":0.9382302511562924,"148":0.7988819748803684,"149":0.38109514717134074}},"9":{"bias":-0.3675114109625247,"weights":{"0":-0.1844761630284372,"1":-0.05011958281048662,"2":-0.4497109520275727,"3":-0.04732278415724827,"4":0.09178531808180569,"5":-0.4833635520715613,"6":-0.224440395757361,"7":-0.33071360735901695,"8":0.10677601610088522,"9":0.21777418148506192,"10":0.46258502825751024,"11":0.12353787425648105,"12":0.015620500197029012,"13":-0.2058229057139254,"14":-0.5063502731345212,"15":-0.46861928391418717,"16":0.09269113923673257,"17":0.3785485554321041,"18":0.3112541944848961,"19":-0.2732219513471107,"20":0.7360183353054148,"21":0.415045727824849,"22":0.05863680093630911,"23":-0.42174527710140824,"24":0.18985134596564682,"25":-0.21634536213832445,"26":0.10082801821662106,"27":0.268369802445152,"28":0.21020959741600737,"29":-0.10252795227048347,"30":0.3636309544501286,"31":0.2790051730071792,"32":0.48665016419053053,"33":-0.1999351664902719,"34":0.038608863968276,"35":0.4266032804600259,"36":0.38477350204207794,"37":0.7366502799125444,"38":0.49220857684489216,"39":-0.09032808370316936,"40":0.10856153027078196,"41":0.10636820187709094,"42":0.01823056824254328,"43":0.3382793669381571,"44":0.013681447621996943,"45":0.15490569307284258,"46":0.5348905876571276,"47":0.15587097175823136,"48":0.14191334788762874,"49":0.17349231260327555,"50":0.014243812877793032,"51":-0.23506456871333978,"52":-0.09479493969501834,"53":0.12154452968298063,"54":-0.18993761936308218,"55":-0.28678716387782616,"56":0.064787761254405,"57":0.3612760922065503,"58":0.4757438889940326,"59":0.383234962733906,"60":0.16810885978817863,"61":-0.02821911938133562,"62":0.28001184378127125,"63":0.13247044536281974,"64":-0.12090003752828579,"65":-0.30408640533737563,"66":0.36373194951564813,"67":0.3157480914169072,"68":0.31208638527693916,"69":0.28752097216828654,"70":0.413783734309299,"71":-0.014317666684699084,"72":0.11159560147210923,"73":0.2655409493130387,"74":-0.06200606004941749,"75":-0.41306833140185156,"76":-0.22399448031077915,"77":-0.3176795623245907,"78":-0.04426295023576117,"79":-0.18675022397914917,"80":0.07042300190279611,"81":0.18156144581682299,"82":-0.00811628072204475,"83":-0.2553540701946807,"84":-0.5570344598238327,"85":-0.10826089027486624,"86":-0.43947186193546156,"87":-0.27128916119954927,"88":-0.15929153030408527,"89":-0.11298472210619914,"90":0.5327366632764139,"91":0.41502461163938525,"92":-0.36568978502620286,"93":0.04385656518733663,"94":-0.42500527936706833,"95":-0.01392053866769203,"96":-0.26496310679259516,"97":0.031170208168435697,"98":-0.46380852046650894,"99":-0.04724562726591309,"100":0.3595125725853449,"101":0.3072869553940553,"102":-0.5413049483493215,"103":-0.39217450441869334,"104":-0.4340719753988679,"105":-0.49589226699427263,"106":-0.03444978309268167,"107":0.20749575739194362,"108":0.18420927641839588,"109":0.055798933173405466,"110":0.35349725950167094,"111":0.21988946454948266,"112":-0.3040167901928111,"113":0.20272319377755302,"114":-0.3650418904023849,"115":-0.12313181403531835,"116":0.035477986890787336,"117":0.4853267351621063,"118":0.3660505433125263,"119":0.2439020538498321,"120":0.2955037205212663,"121":0.24571437362913606,"122":-0.1473589283337036,"123":-0.09932429973457851,"124":0.29717873150657814,"125":0.3703390993015442,"126":0.09658190113054038,"127":0.03018089915204279,"128":-0.053268886840354815,"129":0.014137170329964154,"130":0.019292839902493402,"131":-0.2558288509930122,"132":-0.38518678716040444,"133":0.12616799897678269,"134":0.13392893803519282,"135":0.13419226901669165,"136":-0.511473424672734,"137":-0.4733498240675048,"138":-0.024779431499908054,"139":-0.08768610924533263,"140":0.07452286525204221,"141":-0.22748119165192585,"142":0.012234647302303557,"143":0.07640837424733639,"144":0.23733544342857696,"145":-0.5990108541566861,"146":-0.2306052997126101,"147":-0.6116397759462792,"148":-0.2847103290185312,"149":0.09873779561199002}},"10":{"bias":-0.23019634166862674,"weights":{"0":0.0899879137898474,"1":0.1237997608435802,"2":-0.22131581749573526,"3":-0.20511224726805483,"4":-0.5182418631673453,"5":-0.1802443188177792,"6":0.3043977666965407,"7":-0.0017732992677267204,"8":-0.3520371173671905,"9":0.37820480331433104,"10":0.38508258686988484,"11":-0.06885841008624227,"12":-0.4162348622965817,"13":-1.1404927844031925,"14":-0.4048219767189102,"15":-0.29540981439599767,"16":0.4112144375196647,"17":0.13754997351856216,"18":0.4724722023677801,"19":0.21635206435414545,"20":0.4600707256829933,"21":0.1157462291534244,"22":-0.2802449441248971,"23":-0.8054833637715823,"24":-0.5826774729326194,"25":-0.3136649373447634,"26":-0.24500147168952463,"27":-0.0037649197663999824,"28":0.2449479532200973,"29":0.061926576663160725,"30":0.6501048917585573,"31":0.4845415605981934,"32":-0.21574386069902826,"33":-0.27595533184843574,"34":0.18362441860890616,"35":-0.31721308983971086,"36":-0.21923090439647477,"37":0.08544036036833103,"38":0.16387780062159313,"39":0.04067389483048471,"40":0.2740905415653213,"41":0.5011400014105042,"42":0.32518185523146165,"43":-0.5164052034619291,"44":0.2010916465607145,"45":-0.05740834415754786,"46":-0.42902451906952044,"47":0.09296712691314722,"48":0.1623022179792532,"49":0.1560069673267733,"50":0.8039630678373122,"51":0.42395001464302273,"52":0.25804603688818084,"53":0.06856059344961972,"54":0.22344567595469392,"55":-0.22958973517766643,"56":-0.2051816726380399,"57":0.16343685818788348,"58":0.2065887570281077,"59":-0.046121534131867654,"60":0.1648424474223383,"61":0.1488634001047723,"62":0.04646952891199905,"63":0.22848619723220537,"64":-0.00005760710947922461,"65":0.0879401492164797,"66":0.2083134107881908,"67":-0.08961243804051298,"68":-0.03470686122112298,"69":-0.2148163597371726,"70":0.290991422891366,"71":-0.1849600618889803,"72":-0.13629177574426,"73":-0.02241923903966098,"74":-0.07760551628891907,"75":0.02612743918653781,"76":0.3841800106786063,"77":0.3963614280138908,"78":-0.07529990613361301,"79":-0.06718681495616653,"80":0.17622758831988405,"81":-0.2574944947406109,"82":-0.20760620902039995,"83":-0.09295343907507826,"84":0.4007559744210568,"85":-0.17705413926840338,"86":0.30794424012010096,"87":0.10580818721059837,"88":-0.6451179362417095,"89":0.1734221388025798,"90":-0.24897042624836213,"91":0.00834387895067274,"92":0.18357062312274042,"93":0.5136875174866088,"94":0.6458087263851066,"95":0.15078075557998638,"96":0.30243639130338534,"97":0.09299944437839891,"98":-0.3011806536030409,"99":0.0733726240470308,"100":-0.3001832262882625,"101":0.0030491196810228756,"102":-0.027880142280708283,"103":0.3239834423915998,"104":0.5495937921706864,"105":0.5279171796892932,"106":0.06007079617820349,"107":0.20918982238545283,"108":-0.1841795423047267,"109":0.4046503355343955,"110":-0.3629925684239362,"111":0.2603524085816558,"112":-0.1786507407993797,"113":-0.05550038390483105,"114":0.1742071520104338,"115":-0.12320763807426258,"116":0.08943278442873158,"117":0.24417700890558022,"118":0.3357635665144013,"119":0.5333494873751702,"120":0.24793862225152644,"121":-0.4247396442218079,"122":-0.13975864466120283,"123":0.25839570653204846,"124":-0.16232241292502206,"125":-0.3749103662295826,"126":-0.7997935252055793,"127":-0.6894099949902399,"128":0.11577385388109276,"129":0.38733684220283576,"130":-0.08343556141844705,"131":-0.010944839221690483,"132":-0.7227757447409464,"133":-0.5655156248908902,"134":-0.7370833735690484,"135":-0.8363320319365882,"136":-0.40493822331579243,"137":-0.43640925482025317,"138":0.1895889980994461,"139":0.5718867137651567,"140":0.08200566102314784,"141":0.11284694889153987,"142":-0.20674157529797874,"143":-0.4253233210594324,"144":-0.3542029694912277,"145":-0.25121272071236456,"146":-0.38160157785858434,"147":0.1818327961755111,"148":0.23713661071550457,"149":0.2581685830067946}},"11":{"bias":0.02925898604250354,"weights":{"0":0.005298770573021731,"1":0.5351036493829036,"2":0.33871328191319766,"3":0.21148790761239952,"4":0.17394919218807553,"5":-0.08954754524609525,"6":0.10343139569096586,"7":0.10529208536629556,"8":0.12364767516479921,"9":0.059956497445894916,"10":0.0072844165647678915,"11":0.04991834673445048,"12":-0.01803339937362798,"13":-0.4413480003723129,"14":-0.3413692980883901,"15":-0.27439942426004443,"16":-0.23291387554637982,"17":-0.0073202053852395275,"18":0.32984667033102644,"19":0.090853794671066,"20":-0.1695639169223145,"21":-0.027867309704973794,"22":-0.27898489447183294,"23":-0.20526150721270964,"24":-0.041764018351189154,"25":0.09664265654252728,"26":0.27229653907460516,"27":-0.10907355462893385,"28":-0.058039556601158275,"29":-0.45007718196644336,"30":-0.08030253395574617,"31":-0.42358435761039126,"32":-0.2052384242686731,"33":0.5194511856873771,"34":-0.032112580687968455,"35":-0.26429989287072414,"36":-0.038812847004018665,"37":-0.3399345666869325,"38":-0.5572867479142466,"39":-0.5304379350983034,"40":0.1367414458891949,"41":-0.061528813001100226,"42":0.08267894384623393,"43":0.34952425706829865,"44":-0.06545604687740772,"45":0.2641626084233413,"46":-0.2065463210261927,"47":-0.5019387327727368,"48":-0.5963318881589765,"49":-0.40144478056082417,"50":0.08087297771455486,"51":-0.09360964184097355,"52":-0.39836749483982015,"53":0.08299303450309184,"54":-0.13594996681089483,"55":-0.01677423991259379,"56":-0.32219789968001783,"57":-0.3614506508575473,"58":-0.832255864185726,"59":-0.05449497794196367,"60":-0.34045540626840626,"61":-0.1540234857024325,"62":-0.14546109171069413,"63":0.5247850281522538,"64":-0.137196659644477,"65":-0.43129428608793896,"66":-0.5541401658652002,"67":-0.5198538888834773,"68":-0.49367148484354395,"69":-0.29888203466183805,"70":0.20089556932145428,"71":0.05960018483713418,"72":0.4127968259292203,"73":0.12871775114250109,"74":-0.4906889741181125,"75":0.23691098245184397,"76":0.28776916957395476,"77":-0.20154152903913314,"78":-0.07812112951236816,"79":0.1384643454760704,"80":-0.025572973484016114,"81":0.19071931785119495,"82":1.0395009085163267,"83":0.4017946381717175,"84":-0.0639390242597751,"85":-0.07215067340633113,"86":0.682026260006568,"87":0.1315872607881079,"88":-0.13905972781704484,"89":0.34086734477179687,"90":0.14689524668420112,"91":-0.003916132422481344,"92":0.44539744439274304,"93":-0.07895452351901998,"94":0.2328580115382389,"95":0.2882087108585813,"96":0.41824164620957865,"97":0.07012169438395856,"98":0.3121853162932304,"99":0.3365224816131048,"100":0.037720507469314185,"101":-0.16447646555619622,"102":-0.06682576962448966,"103":-0.22401240849935306,"104":0.11727789580860423,"105":0.48820610511822704,"106":0.459051900712455,"107":0.08495594909442718,"108":0.1677888908947568,"109":0.2131718502350246,"110":0.3306801407074559,"111":0.10801615388806753,"112":-0.061500442582178044,"113":0.15309686181566587,"114":0.689377895327028,"115":0.16768623696252996,"116":0.02373543773347532,"117":0.26853217283066444,"118":0.18786405154066216,"119":-0.08895937296086674,"120":0.28519792550089934,"121":-0.0584500351573278,"122":-0.5578513758196013,"123":0.5467965074715226,"124":0.01609348086368031,"125":0.2462182282121594,"126":-0.6345036985333811,"127":-0.10887400416963103,"128":-0.047834030873254066,"129":0.09798592740541423,"130":-0.24997775647807466,"131":0.3838055043160682,"132":-0.22659439881818264,"133":-0.07420409997485339,"134":0.5206467400515394,"135":0.5620467419394207,"136":-0.4466288565562931,"137":-0.2849474711159081,"138":0.46553218081960296,"139":0.6660576825850159,"140":-0.0004415285405451164,"141":-0.07625130800075383,"142":0.6232903740645348,"143":0.2215737169157235,"144":0.03279104048599231,"145":-0.09406237730886571,"146":-0.2890833595038305,"147":-0.028882336244361442,"148":-0.2912480455330662,"149":-0.10246324456361117}},"12":{"bias":-0.20194463932007367,"weights":{"0":0.2172102002006709,"1":-0.10254353818163883,"2":-0.2920058638622617,"3":-0.7281287226863034,"4":-0.6217484470294189,"5":-0.29622386507463505,"6":0.2293914155177269,"7":0.30345642955861823,"8":-0.10182097904014692,"9":0.1672150387292664,"10":0.25549146440621395,"11":-0.11113713343874382,"12":0.243107491914924,"13":-0.05319139845359019,"14":-0.5558441606946534,"15":-0.15514879742563267,"16":-0.13879020136035145,"17":0.4503992786674804,"18":0.1986329444643383,"19":-0.018229281027108073,"20":0.09725166363503612,"21":0.3024699419138902,"22":-0.005923732814632452,"23":-0.47794819328130933,"24":-0.5152791206515084,"25":-0.2330611545095273,"26":0.026313434476197817,"27":-0.46868328960308925,"28":0.28307728590270265,"29":-0.45398043044635517,"30":0.9262379423746219,"31":0.7000028123462536,"32":0.0978382404853316,"33":-0.2667053306278209,"34":0.0007651928471608821,"35":0.2674613809595084,"36":-0.11704053635691318,"37":0.18334843805750367,"38":0.24185803675529916,"39":-0.5272327671428281,"40":1.0963196430524258,"41":0.49261772604291837,"42":0.34379592371392426,"43":-0.08648686280742336,"44":0.01250297905479873,"45":-0.10912652903354772,"46":0.20355951206490971,"47":0.44941629945315037,"48":0.35486898744946,"49":-0.012332507537512463,"50":1.1145236151807258,"51":-0.0030546881291645244,"52":0.30110238801143724,"53":-0.1380351713196347,"54":0.03760168756323135,"55":-0.3391055054839637,"56":-0.2775319163120758,"57":-0.15739563155321512,"58":0.19241336030993816,"59":-0.16363553753286347,"60":0.3028741623175831,"61":-0.38300294404223684,"62":0.01327082483235658,"63":-0.04474295979116657,"64":0.174970644667303,"65":0.42883354078979796,"66":0.07055386430653887,"67":-0.6503756222519541,"68":0.1597008414670223,"69":-0.15619574404396866,"70":-0.4404032923481805,"71":-0.38510398364582116,"72":-0.16358755577079653,"73":-0.23735756626272075,"74":0.056201991489029296,"75":0.5175698743312274,"76":-0.4632440689713916,"77":0.22709317112971789,"78":0.38842184808351393,"79":-0.057737664528602226,"80":-0.15605352947472467,"81":-0.9206759654155816,"82":-0.129310926731179,"83":0.2819019753368794,"84":0.48936934487175093,"85":0.11840492117359898,"86":-0.2934858163434705,"87":-0.5258598697454073,"88":-0.13338910510239455,"89":0.45726207215930065,"90":-0.8841993566588598,"91":-1.0758135863847413,"92":0.30472162462965546,"93":0.31391294519164203,"94":0.7791570494846592,"95":0.09943659758167969,"96":-0.09606685890752273,"97":0.028876035955577986,"98":0.04281679723057521,"99":0.46082526910312227,"100":-0.6664619459782134,"101":-0.823527987188063,"102":-0.3630522420203612,"103":-0.0117199372634793,"104":0.7102954763175621,"105":0.7426369916936513,"106":0.03792196910048766,"107":0.3879841969392035,"108":0.02345598151680565,"109":0.19442278074388875,"110":-0.5501695680515664,"111":-0.11418653673057415,"112":-0.27538883079154747,"113":-0.09236392792663795,"114":0.65190635391788,"115":0.05500932773737734,"116":0.20965379784543547,"117":-0.0926374929447176,"118":0.2962295273918673,"119":0.5032549259915486,"120":-0.2652681785552489,"121":0.020095025807403553,"122":-0.008962753958225999,"123":0.24623589531770837,"124":0.3655668213892331,"125":-0.24704581274050993,"126":-0.2968032904394393,"127":-0.7581141214957255,"128":0.25076571344074183,"129":0.014945643812314214,"130":0.6058456688318601,"131":0.09650383490455798,"132":0.06835999982636433,"133":-0.4538914081465789,"134":-0.06021139620290457,"135":-0.23612227088503576,"136":-0.054565883316591485,"137":-0.10534363434932584,"138":0.15393753671069746,"139":0.4517254474986677,"140":-0.13582285955256504,"141":-0.0992782334252184,"142":-0.26498541904792466,"143":-0.5791051186014959,"144":-0.5825598462143893,"145":0.7213204759283283,"146":0.13315017611377128,"147":0.1920053824519652,"148":0.3006349722365909,"149":0.43865443037288493}},"13":{"bias":0.05304799897937754,"weights":{"0":0.008603519129379084,"1":-0.30637879063052603,"2":-0.6897744627056227,"3":-0.20774081936285912,"4":-0.21316189383834905,"5":-0.17551710903160306,"6":0.21065410398199655,"7":-0.3372681612261107,"8":-0.3913358866131272,"9":-0.30220253610033665,"10":-0.13870673266893419,"11":-0.7387854398586936,"12":-0.6976388232737728,"13":-0.6191966183953764,"14":-0.16081075500121475,"15":-0.21580505063379704,"16":0.10752506138709697,"17":-0.2649784991824464,"18":-0.15995167521995354,"19":-0.38327012780453495,"20":-0.11369786735258751,"21":-0.5041318295946193,"22":-0.2186561056137688,"23":0.04840915409240509,"24":0.036350918891987875,"25":0.134261985086358,"26":-0.28606009242554215,"27":-0.5629670082117558,"28":-0.1409623210926598,"29":-0.22318376961932673,"30":-0.023304941561413318,"31":-0.3947633629958835,"32":-0.1136454170437319,"33":0.1518775311862133,"34":0.7687879023312509,"35":0.21922997596325697,"36":0.3172307934163055,"37":0.20314294680996398,"38":-0.20925417406343677,"39":-0.29378703309361626,"40":-0.3549546712562771,"41":-0.4514457963387945,"42":-0.08318600608775945,"43":0.078670430691483,"44":0.3948926429676461,"45":0.09972090352297135,"46":0.5805562875174738,"47":0.10337890403850841,"48":0.26695970883881753,"49":-0.02301009663371889,"50":-0.9683982731060622,"51":-0.5164117264345346,"52":0.5063612717408704,"53":0.021398823209490443,"54":0.34395063780091445,"55":0.09360407637195534,"56":-0.036415357180767625,"57":-0.0795667325804192,"58":-0.6098472171259746,"59":-0.2301288731152723,"60":-1.1198445486323383,"61":-0.527095214040269,"62":-0.079261545585496,"63":0.4975702931014468,"64":0.09552851684638616,"65":0.0186945690559342,"66":0.045857017709747976,"67":0.3464882604572688,"68":-0.7127294580712736,"69":-0.2717826364283618,"70":-0.5391528323255026,"71":-0.465727683241943,"72":0.46767277610041336,"73":0.1371403377038956,"74":0.3088203289387562,"75":-0.24738571260373649,"76":-0.06622631813794704,"77":-0.22694937296440632,"78":-0.391407395336088,"79":-0.07162843867696402,"80":-0.47489460464698524,"81":-0.3802149384577555,"82":-0.16134575903634574,"83":0.4494309875081734,"84":-0.019420333601059384,"85":0.14055039060987792,"86":0.10636295348757108,"87":-0.1549816256130091,"88":-0.0994655274222877,"89":-0.07560709642419666,"90":-0.47891074392022254,"91":-0.20568761461538185,"92":-0.2548598134585755,"93":0.4655543080304461,"94":0.21879376334016146,"95":0.4188330089683847,"96":-0.052334421497483505,"97":0.40466221246641215,"98":0.3873244324425766,"99":-0.30966100385265277,"100":-0.08413951679505197,"101":-0.2904298703500044,"102":-0.1812319715832097,"103":0.0062653750176005964,"104":0.11717670889560249,"105":-0.06336194226747832,"106":0.20900596241708996,"107":0.2635326019920264,"108":0.7350599642730129,"109":-0.1784262317146117,"110":-0.04884027814327598,"111":-0.2354107336817357,"112":0.05083376719216825,"113":0.06230601798050552,"114":0.518133931018038,"115":0.6075223085197494,"116":0.2540362006163443,"117":-0.19625703829495533,"118":0.1869486814315956,"119":0.037961237065693605,"120":0.49776363963228304,"121":0.2787485873580805,"122":-0.02117494682430197,"123":0.10694200989386592,"124":-0.5037637830724799,"125":-0.0014194734420645968,"126":-0.000776983680145115,"127":-0.7042566610431907,"128":-0.07508628041295148,"129":0.14004133396883858,"130":0.5363006397593072,"131":0.571970398211078,"132":0.5613513489851619,"133":0.20424580300638634,"134":-0.1393612563805496,"135":-0.21295180938246222,"136":-0.16295851499043898,"137":-0.11029035867340052,"138":0.38689920223067614,"139":0.7409150801836627,"140":0.19593644837899243,"141":0.46377579321569457,"142":-0.23617203828742384,"143":-0.06378633035529924,"144":-0.3955005790348663,"145":-0.23222301783759616,"146":0.010211613213175886,"147":0.13987919876885663,"148":0.3248069464664301,"149":0.013564178897929312}},"14":{"bias":-0.7548368885960105,"weights":{"0":0.24681148109185638,"1":0.49721859632368703,"2":-0.14237527668307212,"3":-0.24549338482160415,"4":0.30137094966622285,"5":0.22230520610387272,"6":-0.4104351452600364,"7":-0.2756640178009658,"8":-0.04667985925468686,"9":-0.30439399795313515,"10":0.27394766044711444,"11":0.6333082050386107,"12":0.18370969666044634,"13":0.1927910116063975,"14":0.01783422069293086,"15":-0.053253819210948,"16":0.40340874700575813,"17":0.017916958387222768,"18":-0.27921701067043564,"19":-0.7212940027146392,"20":0.2140587603721475,"21":0.2852790607672928,"22":0.47479159295464385,"23":0.2331573753670161,"24":-0.06393966299143883,"25":-0.38514128684634485,"26":-0.2248298460986441,"27":-0.046622039120944606,"28":0.07732461840746394,"29":-0.22787782001109194,"30":-0.36315530650251654,"31":0.05238152956581148,"32":0.3497385023094969,"33":0.11667811037146017,"34":-0.1563953318906985,"35":0.22374132171325456,"36":-0.2587148242879524,"37":0.018647946128054385,"38":-0.10538347687196084,"39":-0.040845698423526006,"40":-0.3616133338849054,"41":-0.09696741270380255,"42":0.1963192159877525,"43":0.24842338579057716,"44":0.13076091278329155,"45":0.5872933118761298,"46":-0.13415204511035164,"47":-0.013124220776014144,"48":-0.5056044905717842,"49":-0.07822770790365763,"50":0.575432543740582,"51":0.05073885362634517,"52":0.20068573999447964,"53":0.26602241823353645,"54":0.17377902383359028,"55":0.36323716291536073,"56":0.40029755072821716,"57":0.1813368057926877,"58":-0.1511176019410414,"59":0.006824384711756138,"60":0.11589001329901573,"61":-0.3764008359780216,"62":0.5984090551949752,"63":0.41975016050341785,"64":0.39606881557726176,"65":0.22765626095526934,"66":0.036062100535673686,"67":0.6976013016226461,"68":-0.3437895265525977,"69":-0.32197128247522827,"70":0.1145539584031209,"71":0.08949765799369815,"72":0.35498323634116685,"73":0.1838400491219882,"74":0.18864562731265602,"75":0.38030570848014744,"76":0.3091848258141115,"77":0.0931956654683471,"78":-0.5067096779605282,"79":-0.4343713838159303,"80":-0.38391193434894744,"81":0.0023826736659297762,"82":-0.32913709047490264,"83":0.18518836190332286,"84":0.03529757359982846,"85":0.2819665721662843,"86":0.3963908712957026,"87":0.20222385735838727,"88":-0.24906211435286632,"89":-0.3987644063953491,"90":0.10199488047507753,"91":0.0066018606340601665,"92":-0.18496018527033714,"93":-0.08986622593372026,"94":-0.15175313421267303,"95":-0.2331977937448475,"96":-0.015732794844011983,"97":0.5415680234996672,"98":0.26331715554287916,"99":0.03077404064262526,"100":-0.3377204904574913,"101":-0.2900351865270947,"102":-0.20205298782489417,"103":-0.3116358615797071,"104":-0.414737112444077,"105":-0.4707081025129104,"106":-0.04530069621210199,"107":0.17360073532148063,"108":0.5506299210361584,"109":-0.0631392564337678,"110":-0.3864801343003546,"111":-0.3601404313859777,"112":-0.42199203210997643,"113":-0.21241862161186936,"114":-0.2700323487327408,"115":-0.06170281729362146,"116":-0.0729250805461266,"117":-0.21566909793880276,"118":0.058684797389634946,"119":0.44726368302598646,"120":0.23364806989802764,"121":-0.13467266592323618,"122":-0.37280108460673195,"123":-0.33329912052391636,"124":0.048974146449384234,"125":-0.3962872282382978,"126":-0.03453037769625158,"127":0.1019955235620525,"128":0.5454716155522977,"129":0.12063137165965189,"130":0.7499788193896927,"131":-0.0801645113987739,"132":-0.2699046828327896,"133":0.5902544950207884,"134":-0.07068648099274846,"135":-0.3136576910856488,"136":-0.20617527285576626,"137":0.4875520391631747,"138":0.806294294605082,"139":0.9252704262197008,"140":0.4902442102367301,"141":-0.0010674111117747285,"142":-0.15566378823286953,"143":-0.17838814453687926,"144":0.06024020310638436,"145":-0.10113299269549272,"146":-0.4145244233753355,"147":-0.2087209069670663,"148":0.15348074136534262,"149":0.23729611681611984}},"15":{"bias":-0.5906350780302094,"weights":{"0":-0.19392313348594836,"1":-0.2597032359137361,"2":-0.20930688219986487,"3":-0.5782510509122548,"4":-0.1294135989722159,"5":0.3461057442265839,"6":-0.10687144472143995,"7":0.2088232624595423,"8":-0.728388544194911,"9":-0.31203578844474283,"10":-0.19451505362946464,"11":-0.4644974847952617,"12":-0.25807258907764175,"13":-0.1016680918025287,"14":0.3603910733549023,"15":0.06930581519552353,"16":0.23781989101194528,"17":-0.05397390541389339,"18":0.013505386823503331,"19":-0.2931992666612904,"20":-0.0023468321269742055,"21":-0.2782214399515965,"22":0.019227479218086575,"23":0.1338276792420552,"24":0.15839773501481677,"25":-0.20434898293269485,"26":-0.15364787958706472,"27":-0.43524032348998964,"28":0.0883301801479306,"29":-0.015328475116550212,"30":-0.10097880698612272,"31":-0.16741091771952946,"32":0.3328199712641623,"33":0.5139528561072951,"34":0.2237125187193219,"35":-0.20801184177931897,"36":0.2632094222170366,"37":0.08986457327059721,"38":0.16889054221894062,"39":-0.09750364583932332,"40":0.4153835548081139,"41":0.08675897308085828,"42":0.0703445577507519,"43":-0.06607200291834184,"44":0.1246921597583195,"45":-0.18215134886348236,"46":0.019768365078068315,"47":0.12699078722545704,"48":0.048156628216947016,"49":0.050168378326522156,"50":0.07591744990427732,"51":-0.2285067012267311,"52":-0.12617703493828622,"53":-0.45952672782923987,"54":-0.4785450051446462,"55":0.35712642764174857,"56":-0.09260495482867451,"57":-0.43763615485371016,"58":0.13934935775840845,"59":0.058663247700164824,"60":0.07648121636220982,"61":-0.2587629133020364,"62":-0.08715584437792821,"63":0.07198551080673715,"64":-0.16278368173228783,"65":0.025077546910801565,"66":-0.3704556746057747,"67":-0.21814678664718534,"68":-0.5506892761879247,"69":-0.023072028602957033,"70":0.4153370485779989,"71":-0.17950745819681097,"72":0.1417253375055358,"73":-0.21230772737472114,"74":-0.22616938234590933,"75":0.35610781057325047,"76":-0.3463259939888113,"77":-0.2592390366198583,"78":-0.05313799570464655,"79":0.15079810048131348,"80":-0.17631866278315594,"81":-0.07561951270015614,"82":0.0321502065022077,"83":-0.24294835440991744,"84":-0.30973450770719463,"85":0.6674687281668572,"86":-0.09803772821517441,"87":0.12444296773634109,"88":0.1912295091355635,"89":0.504593669826717,"90":-0.2778302390953989,"91":-0.30455909228254036,"92":0.5779403421351633,"93":-0.4416342923573291,"94":0.10737495540612982,"95":0.5391944603562905,"96":0.48928074120967346,"97":0.05335126742428686,"98":0.15151255625346238,"99":0.3520610304354964,"100":-0.1504022456235019,"101":0.07593099505997394,"102":-0.015429782278675343,"103":-0.39379010936019265,"104":0.4538549844772172,"105":0.26005256108929875,"106":0.025956026233973212,"107":0.3518958611494369,"108":0.46877638415634165,"109":0.0938426903906371,"110":0.1310930898267838,"111":0.46357236915742017,"112":0.07726470504281066,"113":-0.2964336052278148,"114":0.1155963839235891,"115":0.22274174273081207,"116":0.3906805908284075,"117":-0.13992710811401807,"118":-0.0046990280238462905,"119":0.14711939984422934,"120":0.5068843465302804,"121":0.3919611395854278,"122":0.07032825169875938,"123":0.39195282849906493,"124":0.06162663721744306,"125":0.49768052236397864,"126":0.2788539009558597,"127":-0.07628082400636424,"128":-0.10825366889085324,"129":0.1569159626279912,"130":-0.002549786790630072,"131":0.37886490349087415,"132":0.15624821822286852,"133":-0.2674925055680727,"134":-0.17687833261624986,"135":0.05331176313812042,"136":-0.38323845342887575,"137":0.15700541111705157,"138":0.4571200057007747,"139":0.5793877172700542,"140":0.42851431615697827,"141":-0.0809176860967319,"142":0.27118527007838694,"143":-0.002568750280753658,"144":-0.32604533056459734,"145":-0.5789813158956731,"146":-0.16581679156460472,"147":-0.13359937947699962,"148":-0.4092702652297845,"149":-0.3264452948379573}},"16":{"bias":-0.3619999021323414,"weights":{"0":0.13512323236308266,"1":-0.03029022825767664,"2":-0.0307064215865925,"3":-0.45222647907028424,"4":-0.26343260890586667,"5":-0.5733915016192822,"6":-0.14774305448453304,"7":-0.18544969056363145,"8":-0.25866422476135054,"9":0.25941201093044414,"10":0.13976717292175556,"11":-0.1654087567125746,"12":0.3117791073797064,"13":-0.2179238364844501,"14":-0.35856390398927895,"15":-0.1355651434779652,"16":-0.013527853139275896,"17":0.17864909904751625,"18":0.22593645136262597,"19":-0.194640929956789,"20":0.5988280355213502,"21":0.024639504479110973,"22":0.057874572770218916,"23":-0.03919753712888601,"24":-0.06263466322907275,"25":-0.03496819719601433,"26":0.21565580042333754,"27":0.6176539971791944,"28":0.14905621307373315,"29":0.2736850862539272,"30":0.18115900795310308,"31":0.5298547409967534,"32":0.214346676827441,"33":0.005152494446193868,"34":-0.3487968348875238,"35":0.5237835016786713,"36":0.626396399951619,"37":0.6668439278332267,"38":0.5335845798454909,"39":0.5974686027832409,"40":0.15345956875707528,"41":0.5116346028414372,"42":0.29878999247876453,"43":0.2510177461566145,"44":0.28032811828789606,"45":0.17214749036564342,"46":0.20701507463633448,"47":0.8285015739968726,"48":0.2728378708513621,"49":0.5890147464712515,"50":0.5148612957393932,"51":0.23702600414420683,"52":0.13653537553553344,"53":-0.25894099952334015,"54":-0.0903496634691544,"55":-0.06689110344789344,"56":0.13317822526032172,"57":0.3763140854238175,"58":-0.1741889946147229,"59":0.37384410494434256,"60":0.6086059414656686,"61":0.19191637050566993,"62":-0.09501812966183609,"63":-0.4044216626740334,"64":-0.4219477973858903,"65":-0.33150885960574283,"66":-0.36576169716505647,"67":0.22279500028811713,"68":0.13595361435617453,"69":0.2064455307126333,"70":0.3927583407808444,"71":0.5827537851698779,"72":-0.25751434003581447,"73":-0.40070842599353945,"74":-0.40208434432813245,"75":0.002479304244595423,"76":-0.2612789312747715,"77":0.10487314143695123,"78":0.35761575647330446,"79":0.19478863053154924,"80":0.5807839344870185,"81":0.2817784020028529,"82":-0.21979451482089615,"83":-0.5130992392981688,"84":-0.2034664926350841,"85":0.07932704394370393,"86":0.21132110323499878,"87":-0.17832404906496296,"88":-0.06310272062669475,"89":0.1119166980826441,"90":-0.030393023258699067,"91":-0.04549044662910932,"92":-0.4763732806314536,"93":-0.33300060295393474,"94":-0.614494651402772,"95":-0.09359252203584592,"96":-0.16251195628205226,"97":-0.21873065021676846,"98":-0.23797827668641058,"99":-0.24017670596004165,"100":0.26021955751639864,"101":0.061140051837657965,"102":-0.14405825810858275,"103":-0.29872760143379223,"104":-0.2764697668524124,"105":-0.44109124232137076,"106":-0.1683205041116029,"107":0.06254289336779024,"108":-0.2804123034090807,"109":-0.21768631422186546,"110":0.06445676368513668,"111":0.1073515755618358,"112":0.07455171807155987,"113":-0.1538132855521931,"114":-0.12949748014811047,"115":0.21369149150747752,"116":0.08808858382948005,"117":-0.0015133499413413879,"118":-0.13556982256592584,"119":-0.17924093266913962,"120":-0.13232695749820625,"121":0.17203367832695227,"122":-0.022497201029426837,"123":-0.2597778772082438,"124":0.06970839415710145,"125":-0.001650660410806201,"126":-0.06518900569496076,"127":-0.3009009495288324,"128":0.05797774423316185,"129":-0.39832569367686543,"130":-0.31946795469605777,"131":-0.18516838961950163,"132":-0.9481824593845783,"133":-0.11478268586850031,"134":-0.15473925713775571,"135":0.219061863413722,"136":0.24623231085879202,"137":0.1278604809347665,"138":-0.2757217044241655,"139":-0.09038193329580585,"140":-0.2953649406115366,"141":-0.22010210311411058,"142":-0.3257127306862886,"143":-0.18215792603809083,"144":-0.13910932834943524,"145":0.11088909849712757,"146":0.11995015780170856,"147":0.06055999807054956,"148":-0.03819124730184573,"149":0.3019146075281973}},"17":{"bias":0.1312667506335232,"weights":{"0":0.4892616070550444,"1":0.5467791089163975,"2":-0.07991547889789967,"3":0.23233744307433962,"4":0.28296752274590325,"5":-0.021736909191606032,"6":-0.26516715537052715,"7":-0.0441557083947382,"8":0.39351192176090777,"9":0.3593864705956148,"10":0.7458905208861502,"11":0.46714701541473747,"12":-0.31262187386651646,"13":-0.6039663595747864,"14":-0.1309298670072617,"15":-0.34547042713759435,"16":-0.3111773024458043,"17":-0.4756579534555006,"18":0.46628975956536167,"19":0.566624094456702,"20":0.4265990501134317,"21":0.22951035592407465,"22":-0.651888606318338,"23":-0.33585507845149243,"24":-0.27049203931271776,"25":-0.3849153807459269,"26":-0.4257147600420159,"27":-0.8000685250170035,"28":-0.1801554341887609,"29":0.08532605284379349,"30":0.02825580966555754,"31":0.28086598020181597,"32":-0.3753384044447286,"33":-0.4756306283730877,"34":-0.11011871318172359,"35":-0.39822426407824074,"36":-0.4888068596866376,"37":-0.4949207689859043,"38":-0.08773584016530002,"39":0.046057474295054156,"40":-0.33930447306158645,"41":0.13803201192464695,"42":-0.36716529111786367,"43":-0.509573584014617,"44":-0.3714012012953182,"45":-0.10863830259919456,"46":-0.5007290493325508,"47":-0.3253291460001902,"48":-0.17392425418447385,"49":-0.18332518855610222,"50":-0.011919448540352089,"51":0.7967443900248781,"52":-0.33998021587048843,"53":-0.009183204161027938,"54":-0.03825557903628651,"55":0.037984253824013735,"56":0.05061560044694332,"57":0.1900014026720921,"58":-0.494569986345575,"59":-0.13617655183680485,"60":0.5156013340251199,"61":0.465233629313299,"62":-0.4132006308270571,"63":-0.29174396595639024,"64":-0.03207826590357533,"65":-0.2278951676831317,"66":-0.0608161972188178,"67":0.2495444232753232,"68":-0.26338046604115556,"69":0.12379895744234286,"70":0.21696532397710838,"71":0.36274015638618556,"72":-0.26975036582976625,"73":0.13859748268879962,"74":-0.2879526885702088,"75":0.053266689634402085,"76":0.13754217823725204,"77":0.09575795781201235,"78":0.13901341416536783,"79":-0.014158076777755808,"80":-0.02672874140465567,"81":0.5955423051028776,"82":-0.012317491084912575,"83":0.12219570588506648,"84":-0.10459814253250133,"85":-0.013139674079718243,"86":0.777107490086263,"87":0.3731888159786034,"88":0.21084350536946067,"89":-0.4226763072177698,"90":0.2558708872544109,"91":0.5522576901674605,"92":-0.4539435310135815,"93":0.09335094125768621,"94":-0.427750502507578,"95":-0.11330041997778476,"96":-0.01107522215343893,"97":0.6173755770057116,"98":-0.09084255342450276,"99":0.07689682546962522,"100":0.36204249647993514,"101":0.16823329668904086,"102":-0.17162130422798355,"103":0.11361154486517133,"104":-0.08078614983431946,"105":0.24321089417677388,"106":0.15820464346356203,"107":0.04007789622074575,"108":-0.1749976030054293,"109":-0.38371093461237493,"110":0.028464539880134032,"111":-0.13871616743256368,"112":0.07617217609662176,"113":0.021056454615360307,"114":-0.12005523713949777,"115":-0.052717641563188006,"116":0.35607912629567445,"117":0.31289688868895904,"118":0.026632633288899872,"119":-0.622035039542714,"120":0.11523717157668484,"121":0.475666175230125,"122":-0.1859131311173717,"123":-0.49756601579406284,"124":-0.35713319229645935,"125":0.09347286448191697,"126":0.17014271072599155,"127":0.3893933879103013,"128":0.2897332087977471,"129":-0.16748992480755426,"130":-0.007158206649426529,"131":0.04241140396475704,"132":-0.5794561926656219,"133":-0.4052832570141505,"134":-0.24558462846957788,"135":0.2227842273374397,"136":0.16085553215188808,"137":0.3141741143245025,"138":0.37901721468178273,"139":-0.0017010191180616913,"140":-0.20912998960457102,"141":-0.06736125629827278,"142":-0.15914903957142915,"143":0.027793583720692173,"144":0.23597722068472457,"145":0.24283557582132698,"146":0.33426355109033307,"147":0.18543070062349856,"148":0.3621735134548532,"149":0.30345030054391164}},"18":{"bias":0.31137046000728,"weights":{"0":-0.22821326549927173,"1":0.26684625745002677,"2":0.09614314029751053,"3":0.43187401744567655,"4":-0.018709968455562616,"5":0.22762766406500662,"6":0.053451638299387184,"7":0.4110020400070838,"8":0.4870660639148561,"9":0.1568911815119123,"10":0.17286981311683808,"11":-0.11471105371527966,"12":-0.03704118227843744,"13":-0.24862501329475564,"14":0.3906427867863586,"15":0.1895299612192571,"16":0.5400913736258108,"17":0.8238102817827481,"18":0.4906812840532244,"19":-0.18739263910150003,"20":0.15583333168624539,"21":-0.07710740904255416,"22":-0.2176312830503099,"23":-0.540644954173635,"24":0.3274440025188614,"25":-0.05623950398879627,"26":0.6458224345932566,"27":0.6749129724814722,"28":0.4673093550989657,"29":-0.22727790541500384,"30":-0.34637434587465904,"31":-0.3561536736266934,"32":-0.1962163699327033,"33":-0.44790366308687973,"34":-0.5014041882511583,"35":-0.2412473732623823,"36":0.14662554413426623,"37":-0.13785389526767858,"38":0.40509848320578185,"39":0.18829147969382126,"40":-0.09015067015926918,"41":0.17035678957693087,"42":0.3903251399070603,"43":-0.21544376979343688,"44":-0.13473064402803359,"45":-0.47241010552636353,"46":-0.34754298821979984,"47":-0.09786771057684425,"48":0.2235809563656742,"49":0.06919165149161711,"50":0.12823018260560626,"51":0.19507614753317648,"52":0.18470038031824657,"53":0.31329555323247466,"54":-0.6298514088802527,"55":-0.5981478462451797,"56":-0.5539731284173461,"57":-0.16159260307450593,"58":0.26198657524046604,"59":0.17554345693262569,"60":-0.3398777137845343,"61":0.12395086528952784,"62":-0.149033994208371,"63":-0.06334608345219152,"64":0.06289249080779163,"65":-0.08727042850719902,"66":-0.15396703527272462,"67":-0.1888870957421166,"68":0.07628585236348746,"69":-0.125191372316056,"70":-0.03457698074990774,"71":-0.056440669294010086,"72":-0.3506259661204517,"73":-0.19751380900483567,"74":0.044407215037910557,"75":-0.42805168834677904,"76":0.07716895621815321,"77":-0.1373523270352997,"78":-0.2836970686048728,"79":-0.24081909445342253,"80":-0.23243979541076745,"81":0.4648100079213952,"82":-0.11642278178707983,"83":-0.3417323909309864,"84":-0.020661228088267487,"85":0.04825967759594649,"86":0.11070067686465901,"87":0.07413302365804314,"88":-0.5576021626682031,"89":-0.4991581835883024,"90":0.5920583287359458,"91":0.5527215278379385,"92":-0.18999171795299216,"93":0.2431169342814332,"94":-0.20742016718349565,"95":0.009944386017420941,"96":0.03705367762594834,"97":0.19203624617234538,"98":-0.45920709326982934,"99":-0.31095175249180157,"100":0.41041267493759614,"101":0.5694880461797516,"102":-0.010943283535508498,"103":-0.06150625726203752,"104":-0.08644076068501416,"105":0.32524715347160593,"106":0.3256948934912008,"107":0.1570256944521533,"108":-0.49243577015760587,"109":-0.2854980461102624,"110":0.43163834641597526,"111":0.17129302824304737,"112":0.08033160689821568,"113":-0.09859781108263352,"114":0.2997132737723771,"115":0.10606026534706357,"116":0.02885885422224611,"117":0.15451150743650793,"118":0.3840450411324978,"119":0.4366219957275704,"120":0.13116258621320995,"121":0.40010043125168526,"122":-0.22595960294942893,"123":-0.20397802789309333,"124":0.27871291706386536,"125":-0.2712485643597952,"126":-0.09820318288697144,"127":-0.4775199564729219,"128":0.5466260822109736,"129":0.7170926610754791,"130":-0.008358961801214218,"131":0.11758681077332726,"132":-0.24944536770357242,"133":-0.36533652970518166,"134":-0.25992961962281924,"135":-0.008681926900864025,"136":-0.8951683440868412,"137":-0.644142352757581,"138":0.5539098051376196,"139":0.4194789724856889,"140":0.2200398241446803,"141":-0.19297581582209472,"142":0.08190264023177456,"143":0.1604354272284406,"144":-0.047503881356600205,"145":-0.2251670490248636,"146":-0.39968834978161955,"147":-0.036445567193364746,"148":-0.23992711917227566,"149":0.31151213129036487}},"19":{"bias":0.03704544907999004,"weights":{"0":0.22164588010392403,"1":0.3247241437283141,"2":0.2735916163594096,"3":-0.1249794511481504,"4":0.1573217723714976,"5":0.27459766880018094,"6":-0.3876675175912834,"7":0.0014807456628749703,"8":0.5977353819720835,"9":0.41944661226470636,"10":0.819788833445536,"11":0.3694034137531071,"12":-0.10747290793864157,"13":-0.5874694084003773,"14":-0.3008671099346599,"15":-0.18528979561929704,"16":-0.8138338951776879,"17":0.7213210903633468,"18":1.0273150975341692,"19":-0.2353303602740205,"20":0.20144207451177804,"21":0.44288893992997813,"22":-0.24216019733985414,"23":-0.6846237905744904,"24":-0.6313141300945458,"25":-0.5305129415435371,"26":-0.1318867133268131,"27":0.11336376505185895,"28":0.04464964398668359,"29":-0.7972362880557812,"30":0.34751230508084835,"31":-0.12258131864263992,"32":0.06908924255788025,"33":-0.6328955025907471,"34":-0.8393217086487754,"35":-0.7885090214608342,"36":-0.12979829999737483,"37":-0.3137390378420732,"38":0.14926679451817207,"39":-0.1809531888157511,"40":0.29439107899604633,"41":-0.1936721397335544,"42":0.25261071395743284,"43":-0.36698060286240985,"44":-0.8398450169926451,"45":-0.3390915248508065,"46":-0.5906122743197545,"47":-0.7766006257246011,"48":-0.4727840305814101,"49":-0.4825961996692341,"50":0.17706712909931466,"51":0.340535512028213,"52":0.08263099842832591,"53":-0.457834265689716,"54":-0.5064011818532411,"55":-0.20628183242636244,"56":-0.14346762881562677,"57":-0.45841075468540193,"58":-0.5942431263650833,"59":-0.2229915963171865,"60":0.030209045109678118,"61":0.22550117336777292,"62":0.35671525972778595,"63":-0.09983602134854212,"64":-0.06949317149540109,"65":-0.1029613331461091,"66":0.011954611522201454,"67":-0.3490831157808474,"68":-0.3742970997930619,"69":-0.6320589204054229,"70":-0.22188871806886754,"71":0.016817622109619547,"72":-0.06568092484488368,"73":0.24336591730123597,"74":-0.16947434587035912,"75":-0.07553547142307811,"76":0.23265353142176887,"77":-0.3838419418402472,"78":-0.16288210324447336,"79":-0.39557437295327064,"80":-0.7953988409624353,"81":-0.06207370983884884,"82":-0.00669181996240953,"83":0.019360462158320654,"84":-0.1665535035393521,"85":0.09643741863834915,"86":0.16440195280674952,"87":-0.2101392661044723,"88":-0.3664827423100248,"89":-0.5606581418912082,"90":0.07271249266746056,"91":0.17477505480353078,"92":-0.19973061979386636,"93":0.24205411427912296,"94":-0.05884102125545,"95":0.34968505938496497,"96":0.04391048117530199,"97":-0.3409143530631516,"98":-0.2878805393121538,"99":0.04337027124341419,"100":-0.18918145000001427,"101":0.41212291436423504,"102":-0.18229990364070034,"103":0.21676953148673855,"104":0.2629093631968889,"105":0.3068484383197862,"106":0.4071660179160496,"107":0.11976218064527672,"108":-0.13581902384915356,"109":-0.027612660923276237,"110":0.261712299037991,"111":0.1618648068402215,"112":0.2416059552846663,"113":0.3034013647887433,"114":0.29945872818761093,"115":0.17913041991667755,"116":-0.014051553186959637,"117":0.11564143638014882,"118":0.49390583090584134,"119":0.24699062825425944,"120":-0.46572494810729725,"121":-0.10382382518683161,"122":-0.13333987842397083,"123":0.22217405662936549,"124":0.5006428509090629,"125":0.09969044859696792,"126":-0.04739013075097258,"127":0.17211434994732644,"128":0.7499347566608484,"129":0.5824579473706852,"130":0.10809662192152882,"131":0.03363877612692694,"132":-0.35729897959068513,"133":-0.09284940151349044,"134":0.5338695738873361,"135":0.6375919089377055,"136":-0.1960275553376262,"137":-0.19350738874585552,"138":0.4304015075461497,"139":0.34819234247740666,"140":0.34972820543432287,"141":0.4723182811503576,"142":0.06623146390839577,"143":0.23311446842605218,"144":0.6507824403858133,"145":0.3394670383953092,"146":-0.2610910409336501,"147":0.2010642452369892,"148":0.06848578679427186,"149":-0.17121178008934101}},"20":{"bias":-0.3666449740322335,"weights":{"0":0.11051698215970975,"1":-0.1671190181513343,"2":0.21779600080389633,"3":0.1336293647285851,"4":-0.30285401029611503,"5":-0.009286649426733646,"6":0.27468656386648543,"7":0.5856407734466033,"8":-0.41489645952903786,"9":0.05832524820538362,"10":0.3803569484913579,"11":-0.6848952116074732,"12":-0.10904815534554932,"13":-0.09308028506319821,"14":0.20989701647808787,"15":-0.2599996674215665,"16":0.4887224410774318,"17":0.4806100148342398,"18":0.17953349941932303,"19":0.29225387386916873,"20":0.2841067986172051,"21":-0.11313345232033291,"22":0.07419414071137173,"23":-0.2694430088536467,"24":-0.1432092285230065,"25":-0.3785818481764659,"26":-0.23339361939441475,"27":0.08217488595779457,"28":0.7798824373973335,"29":0.5186804282020405,"30":-0.014417745642377624,"31":-0.14739605606890513,"32":0.41131663705368254,"33":-0.10395064952309303,"34":-0.328251725878013,"35":-0.35026889898608166,"36":-0.33970908307559533,"37":-0.12562935310506104,"38":0.6297974458666719,"39":0.13987452519112684,"40":-0.1984162142168076,"41":0.21773674555066003,"42":0.15855481526275797,"43":-0.04016217551682207,"44":-0.12113569366613189,"45":-0.2916350123844639,"46":-0.5255930361866602,"47":-0.17928826193799793,"48":0.4779235207376267,"49":0.4863020874917898,"50":-0.4407343753388556,"51":0.03569865760864004,"52":-0.38576328281668093,"53":0.04988581134387357,"54":-0.46025366312774996,"55":-0.08357756847637807,"56":-0.11880671890907593,"57":-0.6498702759190482,"58":0.09530958891773761,"59":0.309007289073689,"60":-0.053724428901457996,"61":-0.01829515929887672,"62":-0.8043299655290392,"63":0.0618339453610544,"64":-0.32788178645242594,"65":0.009513575755150855,"66":0.05732214645824276,"67":-0.1861535436738791,"68":-0.22819736627747017,"69":0.25274545650170177,"70":0.028892451919644062,"71":-0.6251689825422206,"72":-0.4891326844752599,"73":0.28933544544111467,"74":-0.17762404780241964,"75":0.09506880250570754,"76":0.034303843411546756,"77":-0.4891521904524258,"78":-0.47078313414600137,"79":-0.03928548589740724,"80":-0.0013403133765045574,"81":-0.5039559743573379,"82":-0.3174024845825115,"83":0.3046152125192004,"84":-0.16080905597172196,"85":-0.07766724463722692,"86":0.287304363485551,"87":-0.5183646662104238,"88":-0.3814877736193436,"89":-0.15448902999945044,"90":0.36108250225801475,"91":0.030495079687787217,"92":-0.08293274457814437,"93":0.2813418202150751,"94":0.01914060595346643,"95":-0.07168002959092014,"96":0.11141505061726369,"97":-0.04870624678527164,"98":-0.5162712416883286,"99":-0.09296138810163218,"100":0.47499866273990266,"101":0.4936566412294684,"102":-0.24186834459053402,"103":0.296078678732649,"104":-0.07026160961746664,"105":0.5551563824283026,"106":0.6043676230783717,"107":0.29050231416428285,"108":0.12900090876619813,"109":0.14945882367942087,"110":0.6161874964552527,"111":0.5361971046777929,"112":0.06143858054937922,"113":0.007242484843340127,"114":0.27391025094698995,"115":0.46069926878183687,"116":0.4825576776542366,"117":0.19563946998807513,"118":0.28242410333511375,"119":0.0356913316146698,"120":0.4645764166994459,"121":0.6419401104091597,"122":0.15730784880276563,"123":0.5144680092213252,"124":0.029874859256807208,"125":-0.11738159119559811,"126":0.0015733243992192786,"127":-0.153199633654605,"128":0.18796812473688715,"129":0.20368616156475866,"130":0.25567163947817534,"131":0.5471045533334712,"132":0.1385568187817895,"133":0.0027035596694924787,"134":-0.5241550096536923,"135":-0.8017671186614381,"136":-0.8977398542113989,"137":-0.4112463570614633,"138":0.0288331357651571,"139":0.44150990437301624,"140":0.12980705315784968,"141":-0.39897633467157095,"142":0.5137966543530931,"143":0.07353134875009501,"144":-0.3788123248172001,"145":-0.9285942562284442,"146":-0.3783017126048708,"147":0.23590256230843962,"148":-0.42863719614929924,"149":0.21309046314610727}},"21":{"bias":-0.9557310552922442,"weights":{"0":0.2869550442933785,"1":0.280532887495028,"2":-0.17346004268499235,"3":0.17130478198190455,"4":-0.03249017851015736,"5":0.253020571917583,"6":0.07025852809202171,"7":0.032388822744522365,"8":-0.27122786577811553,"9":0.38918651254200787,"10":0.1891752454696946,"11":0.5222159411805481,"12":0.19120737175177235,"13":0.14259370127296503,"14":0.07209127280551687,"15":-0.11749487611642956,"16":0.17903907671944777,"17":-0.31242635148124254,"18":0.2495446551820903,"19":0.38568964032845526,"20":-0.06940898429847296,"21":0.5038976744861225,"22":0.1553581358367321,"23":0.3887060940669066,"24":-0.3756810771828759,"25":-0.276294387049296,"26":0.40623883246432535,"27":0.3299734647565527,"28":0.33214354214800385,"29":-0.17247085375014862,"30":0.08314751523836743,"31":0.3066976439164902,"32":-0.6327715270060608,"33":-0.09879363711722804,"34":-0.16844691580172266,"35":-0.12151427619408618,"36":0.42052233740460254,"37":0.20748661626876755,"38":0.33814579471170203,"39":0.052784592350281545,"40":-0.08230452958240268,"41":-0.09481467689409794,"42":-0.3940185070244087,"43":-0.11874619538106537,"44":-0.19916478335999105,"45":0.5165728859641893,"46":-0.04919502567371759,"47":-0.05625915647399412,"48":0.2199619590898093,"49":0.5649247800203765,"50":-0.08175138088717189,"51":0.05130383057367539,"52":0.5074107192228207,"53":0.2725661879421116,"54":0.5094107412110469,"55":0.6033458838093101,"56":-0.0726797614319491,"57":-0.21351945069344863,"58":0.11373131656775451,"59":0.15655505057799632,"60":-0.2306681585417646,"61":0.24716683193687763,"62":0.33030612556421957,"63":0.47062072952488987,"64":0.39716196719930896,"65":0.09781063813975896,"66":0.13377090686880674,"67":-0.7320247704376432,"68":0.4909146123588733,"69":0.842343324976546,"70":-0.23274624786872275,"71":0.295862479334232,"72":0.537067542104044,"73":0.9550142746526522,"74":-0.14309211284920087,"75":-0.0934375588419015,"76":-0.13336332043471713,"77":-0.14472466012208587,"78":0.33494241723957274,"79":0.1526162989038886,"80":0.11892012784019389,"81":0.3271961972202715,"82":0.33912689112538197,"83":0.44675215253960965,"84":0.46468426825744424,"85":-0.24204644608906148,"86":-0.27340839245045956,"87":-0.21297617180772063,"88":0.10685305594507873,"89":0.47904783645577487,"90":0.05214475387749062,"91":0.3806036349456326,"92":0.38320721244069533,"93":0.34494573038121346,"94":0.372523539356243,"95":-0.28247776462976526,"96":-0.5597850394759193,"97":0.15332574059567122,"98":-0.1767564890002401,"99":0.29184592569195317,"100":0.30905039254507854,"101":0.3196946775062515,"102":0.22617581567206563,"103":0.18683869327765362,"104":-0.1969192180543784,"105":-0.009825738793476013,"106":-0.6005066358728555,"107":-0.3368287569528713,"108":0.04680399778319388,"109":-0.09956618767256273,"110":0.47781858699370694,"111":0.3608411837296863,"112":0.16349030329333447,"113":-0.26260943762994915,"114":-0.4213509424385539,"115":-0.4337658175874179,"116":-0.5189277958851215,"117":0.19814694697053825,"118":-0.5523749049994466,"119":-0.4143009699467018,"120":0.1512681175298351,"121":-0.19806221787449518,"122":-0.21222607956118292,"123":0.3628056284515556,"124":-0.3052935885371817,"125":0.0029553629504614335,"126":-0.24924799338045886,"127":0.14265270100442598,"128":-0.2874516527496827,"129":-0.6273914176876497,"130":0.027043072001082753,"131":-0.743763673600939,"132":-0.9241255031960801,"133":-0.15236912640032144,"134":-0.06938896470155818,"135":-0.005997258358087561,"136":0.18510867152208244,"137":0.13715401491786627,"138":0.013891944569480825,"139":-0.2761841376155912,"140":0.07438029690496405,"141":-0.14851390557095637,"142":-0.5224265954326253,"143":0.08158653419938708,"144":-0.4134250035793307,"145":-0.3889705931004816,"146":-0.29111378772438923,"147":-0.06328347004336175,"148":0.04696131607690096,"149":-0.3099318783518668}},"22":{"bias":-0.3059576862377985,"weights":{"0":0.04887047211032571,"1":-0.32795755557470174,"2":-0.194415652608204,"3":-0.15119406399032798,"4":-0.027734288085742805,"5":-0.23763213063444785,"6":-0.38844773695614054,"7":0.25914882959746477,"8":0.8727651402379061,"9":0.4151933363948569,"10":0.33626659732068714,"11":0.27162230498390344,"12":-0.18394964090861948,"13":-0.3221896805199685,"14":-0.45871971984440535,"15":-0.00481248606888503,"16":-0.6715831883456324,"17":-0.11315957686968503,"18":0.637412113575588,"19":0.36840780855364225,"20":0.479317438190983,"21":0.20817370334901797,"22":-0.19224463835846647,"23":-0.3883564098763862,"24":0.05663273553797544,"25":-0.03753532440899754,"26":-0.27357956940798983,"27":-0.13633338254273097,"28":0.15209503954390688,"29":-0.30451529241987274,"30":0.31321629022174824,"31":-0.2028410009957116,"32":-0.007003240633734453,"33":-0.17118332892537447,"34":-0.334685127723409,"35":0.2008850198789846,"36":0.3224376622681771,"37":0.0028380325017350948,"38":-0.530746545464852,"39":-0.6480247843522998,"40":0.23681263293235189,"41":0.07005289547498983,"42":-0.09639686422599733,"43":-0.03135768058481672,"44":-0.23110859773748552,"45":0.3824742984124639,"46":-0.039808329067429836,"47":0.4618618663066033,"48":0.3313592600151056,"49":-0.36057145929459766,"50":0.49020332092256963,"51":-0.03247777938669357,"52":0.001666053542029141,"53":0.05846683519807368,"54":0.056958282696115664,"55":-0.39602211611792704,"56":0.25023963319991377,"57":0.6239474719548253,"58":-0.012055318767474087,"59":-0.040442059962144034,"60":0.03634672832214746,"61":-0.27802061523145033,"62":0.4082011096832196,"63":0.5236759744908783,"64":0.4564906487949099,"65":-0.6541524608441809,"66":-0.09555773109615905,"67":-0.3895134181464211,"68":-0.2591387203549744,"69":-0.07508011546592137,"70":0.12941556338965896,"71":-0.2508513659999994,"72":-0.3506025600443149,"73":-0.4494304891754288,"74":-0.2164713433259522,"75":0.2034773493832844,"76":0.7347108737715554,"77":0.6788085322428361,"78":0.07743537456970619,"79":-0.1602227972628219,"80":-0.2273858215936119,"81":-0.6411030127695457,"82":-0.16293810002790168,"83":-0.15539257297967787,"84":0.2845700114773814,"85":0.7071316360040101,"86":0.7169766249043454,"87":0.24570620520928152,"88":0.2508623850915381,"89":-0.37425988106231306,"90":-0.390014502192612,"91":-0.5032139389919417,"92":0.14288876314697505,"93":0.26617105753776155,"94":0.34564515289611414,"95":0.322025737892672,"96":0.2027403005200848,"97":0.28500182870149127,"98":0.6438080864523785,"99":0.036325654490747046,"100":-0.09144964579729704,"101":0.011527107901867022,"102":0.06921342163630981,"103":-0.054619924524074326,"104":0.17350769760798088,"105":0.8555475012203362,"106":0.536088744477724,"107":0.037095752477374976,"108":-0.19666082683786576,"109":0.12994225789258484,"110":-0.8737140969629222,"111":-0.26221587215641745,"112":-0.1934664023368889,"113":-0.007021990746947018,"114":0.45882310928910497,"115":0.027291229277236182,"116":0.8011666995095896,"117":0.1479533732804676,"118":0.257175036298267,"119":0.2960509756894488,"120":-0.0648911961273902,"121":-0.3069781373592776,"122":-0.30385195126138603,"123":-0.1776194751454022,"124":0.18029127398671174,"125":0.0355431678487949,"126":0.3546851764040097,"127":0.4720853698058638,"128":0.31620321380597627,"129":0.5692159757427011,"130":0.44999605723772307,"131":0.5475986349672918,"132":-0.2292742212198494,"133":-0.09286129318871236,"134":-0.698380131893462,"135":-0.6835141517459686,"136":-0.22396728536359284,"137":-0.06502386690279219,"138":0.035194535537697795,"139":0.25233657247575636,"140":0.32367189806581254,"141":0.4958031623514875,"142":-0.4701951644971512,"143":-0.0843609787818577,"144":-0.2324346649737006,"145":-0.18666268853297957,"146":0.1873530795888642,"147":0.29169825568940566,"148":0.08765148867938724,"149":0.023338067536986796}},"23":{"bias":0.6464360351317207,"weights":{"0":-0.04167255971424963,"1":-0.13364265825911664,"2":0.09382599583352368,"3":0.190335349973655,"4":0.2576564895614152,"5":0.22593687750927607,"6":0.23145664791880677,"7":-0.11353498008440747,"8":0.10081695838366184,"9":0.09402667427231569,"10":0.07463156642810502,"11":0.3321294718066732,"12":0.19428082353951237,"13":-0.27071877895256746,"14":-0.04269252929019779,"15":-0.35464154060919245,"16":0.13389630398400554,"17":0.18436336344075102,"18":-0.26947084065944066,"19":0.0707539820504553,"20":0.16361489816436103,"21":0.01579429590608035,"22":-0.18580309990858562,"23":-0.3692339221319936,"24":-0.05649793043981471,"25":0.011172888900154335,"26":-0.06413438088217853,"27":-0.0809488771657394,"28":-0.24038286676121803,"29":0.11313812980167506,"30":-0.024548881191566164,"31":-0.007364777247089671,"32":-0.15023767650940364,"33":0.15670978967209023,"34":0.13394656470925376,"35":0.028426607455463982,"36":-0.09536440985457847,"37":-0.0859060389908404,"38":0.011616008048938933,"39":0.13790205115015025,"40":0.08210568183664808,"41":-0.1302213007775595,"42":0.1528759857402522,"43":0.31847257943279034,"44":-0.185262158695042,"45":-0.21598924320191631,"46":-0.012933128814711661,"47":-0.30810228657592537,"48":-0.3960510328168681,"49":-0.025803410634097364,"50":0.13567287829309196,"51":0.22098688840940023,"52":-0.09182537866002036,"53":0.08173250528310759,"54":-0.26734688245659755,"55":-0.4414029252628104,"56":-0.37878884463964047,"57":-0.3006992626429901,"58":-0.19199212586631603,"59":-0.4321048667074424,"60":0.1572150967713993,"61":0.23408695329584348,"62":-0.23651142135555037,"63":-0.4761836552934251,"64":-0.12066410891992418,"65":-0.1541774921888596,"66":-0.34292322512332973,"67":-0.3303063312364581,"68":0.0015143307640048927,"69":-0.5834343551861427,"70":0.4821184690682286,"71":-0.0941190021971673,"72":-0.266117796388113,"73":-0.12648443043213883,"74":-0.3292351886052785,"75":0.15033561712338425,"76":-0.07182198119637662,"77":0.213925388650381,"78":0.13069769781798204,"79":-0.3919275144919043,"80":0.3808348213146139,"81":0.007739149986029224,"82":-0.06596340718468237,"83":-0.08921843755311634,"84":-0.45123603010347146,"85":-0.44584832039609046,"86":-0.4884546374802183,"87":-0.44996157659239494,"88":-0.43783502381444156,"89":-0.3607965235961799,"90":0.06507887512568841,"91":-0.021993458917584953,"92":-0.2762275494135666,"93":-0.10933077455204092,"94":-0.6007431176318897,"95":-0.27378444645467076,"96":-0.21707267780264172,"97":-0.581963436802361,"98":-0.2793369502756552,"99":-0.34851623681004473,"100":0.1049436890705429,"101":-0.002809079300935819,"102":0.27135148659530484,"103":0.2687754719667495,"104":-0.33062028985306674,"105":-0.09960797751832928,"106":-0.08909368957322814,"107":-0.280513841563328,"108":-0.6025363759449233,"109":-0.13117240382459494,"110":0.20348746586354882,"111":0.2762926034621976,"112":0.24042098740804743,"113":0.4114495453854977,"114":-0.11142782965135253,"115":0.40130506893906664,"116":-0.7464700125507889,"117":-0.3818853396604508,"118":-0.5712650523114186,"119":-0.09275190514434788,"120":-0.3584874382143915,"121":0.20095831393890012,"122":0.2778856207195527,"123":0.28234101271183515,"124":0.3835489604314842,"125":-0.179477659695952,"126":-0.4597973094568065,"127":-0.2983947624211964,"128":-0.4231242836487057,"129":0.09646351436203558,"130":-0.10609352906524995,"131":0.5216840209530437,"132":0.15789554554567384,"133":0.5870843836823684,"134":0.7575491696362363,"135":0.13986563064292923,"136":-0.34469503711496,"137":-0.11721107042667761,"138":-0.29144379292066175,"139":-0.30047879098046787,"140":-0.15076745399541897,"141":0.24403071855570319,"142":0.5333868772819561,"143":0.39950397678002114,"144":0.2432362709945637,"145":0.30978391798283905,"146":-0.3472550081329096,"147":-0.2654625058779164,"148":-0.3849028940533909,"149":-0.22422042266405207}},"24":{"bias":-0.07122669100000362,"weights":{"0":-0.13940410079289767,"1":-0.19896106957632498,"2":-0.4553831183871908,"3":-0.32228045702061686,"4":-0.07723478969070147,"5":-0.2628615175706318,"6":-0.044549674012388824,"7":0.40510447246302733,"8":0.14068877675878266,"9":0.23338072465880702,"10":-0.1940129657776386,"11":-0.10813272167091385,"12":-0.6678562657322424,"13":0.5196661396917504,"14":-0.4862324585978563,"15":0.2464331862513799,"16":0.19735936717135735,"17":0.18305544307817928,"18":0.3480887201028647,"19":0.39251845848566497,"20":0.3032511739933886,"21":-0.011154990997506492,"22":-0.12960466925689604,"23":-0.014851838128123952,"24":0.07962559753738338,"25":0.29042365834212397,"26":0.5821219156428162,"27":0.2944842397080933,"28":0.4664128788816342,"29":0.17508223801997563,"30":-0.004639501269786653,"31":0.11932521565872624,"32":-0.2338968000547696,"33":-0.3280533508552716,"34":0.11626675533208614,"35":-0.1903815518383982,"36":-0.0004457389656029664,"37":0.07987206896667216,"38":0.06833121442880064,"39":-0.03746083898760413,"40":0.02529541346842006,"41":0.09591222627257945,"42":-0.048680565566222085,"43":-0.4177565958138933,"44":-0.01360609951164725,"45":-0.6378305303348102,"46":0.16605275733238817,"47":0.5318944348327118,"48":0.2830064498215064,"49":-0.0006304126198465831,"50":0.19753969976298597,"51":-0.2667331460538703,"52":0.5249369155663133,"53":-0.2566760220512961,"54":0.0476057408904139,"55":-0.18293444417787114,"56":0.23496776853732823,"57":0.446017324284945,"58":-0.2037556712877539,"59":0.0821204325439248,"60":-0.10300467060058006,"61":-0.05184646715118459,"62":0.31434486290210895,"63":-0.19781205522549622,"64":0.3096642400889208,"65":0.03207312170002541,"66":0.0037588154288348834,"67":0.009047996419135177,"68":-0.09264200335634981,"69":0.34974673333426315,"70":0.13151261866110073,"71":0.03276981947160112,"72":-0.11621407409149576,"73":-0.3399373447748871,"74":-0.22660574401888364,"75":0.31451210330159707,"76":-0.1673421535916763,"77":0.12410726846674448,"78":-0.28864647129197146,"79":0.013390525815739072,"80":0.27057784841911087,"81":-0.05113375142897791,"82":0.1753780895413956,"83":-0.028917799220449243,"84":-0.39234849285003015,"85":0.3011060000537156,"86":0.13529121318740325,"87":0.31267315390208217,"88":0.19857258081740098,"89":-0.4070122139148622,"90":-0.26500473606289704,"91":0.029181235900724998,"92":-0.0017744257901017324,"93":-0.46709045046931724,"94":-0.18237461075404682,"95":-0.11808074653597188,"96":-0.09611123356725944,"97":-0.342747424133994,"98":-0.3021480617721575,"99":-0.38548305266652033,"100":0.06095660710243121,"101":0.47659821432441707,"102":0.2774332780983933,"103":-0.42884214112019087,"104":-0.46008144657447847,"105":0.1169596669393212,"106":-0.5019778756466916,"107":-0.07724683996151324,"108":-0.3249247902541707,"109":-0.13117569675601923,"110":-0.18360302017062707,"111":0.023085154991460615,"112":0.2833904667284605,"113":-0.34550123439441677,"114":-0.3759340797166103,"115":-0.41115355131992765,"116":0.05477104794006237,"117":0.03859418674772415,"118":0.21441571911349955,"119":-0.03397066807728893,"120":-0.6115487890519219,"121":0.24078561509344618,"122":0.44682090475221625,"123":0.03901965930345904,"124":-0.7099728321802962,"125":-0.5091205067596308,"126":0.26584175861694237,"127":-0.005492485541387842,"128":0.4814568590707113,"129":0.12242440397937268,"130":-0.5766769336688666,"131":0.5085626003470026,"132":0.6039226002525668,"133":-0.4566672822429684,"134":-0.4072982241301353,"135":0.44991828846461496,"136":1.1628763239629791,"137":0.6859978816754849,"138":0.09553466056104772,"139":-0.17037827646556014,"140":-0.6557370432255516,"141":0.3542007918832237,"142":-0.5003483874570855,"143":-0.33832730221947244,"144":-0.3581595668444634,"145":0.4163101502231337,"146":0.8357858936221564,"147":0.5017602772468299,"148":0.07278923518915621,"149":0.007970296473154724}},"25":{"bias":0.3149764006646946,"weights":{"0":0.4980866582446181,"1":0.6161645168496518,"2":0.11691722844869291,"3":-0.1774730534550339,"4":0.2884759996513208,"5":0.26736533169391125,"6":-0.06196926393343654,"7":0.1692280046314018,"8":0.9112434496803947,"9":0.3216252588134651,"10":0.8147691126726169,"11":0.6362404140938247,"12":-0.017560555684042224,"13":-0.36217501784861467,"14":-0.02891370384975913,"15":-0.48221618117619974,"16":-0.062940801377207,"17":0.20155572930105614,"18":0.3964138123156091,"19":0.40618236833441507,"20":0.3187049776569397,"21":0.223937685968092,"22":-0.07598060171595362,"23":-0.3806823867807183,"24":-0.22663165301866203,"25":-0.43903572181458433,"26":-0.21846067977527586,"27":-0.06831940186025058,"28":0.16816555895432014,"29":-0.361293787303413,"30":0.4151027714773339,"31":0.5953933995015628,"32":0.3512673377810526,"33":-0.7306463076107269,"34":-0.6450315607760904,"35":-0.3363486126812176,"36":0.3510043425005295,"37":-0.12183835451867134,"38":-0.35206217763728065,"39":-0.29751025743478193,"40":0.1281169974466793,"41":0.5766234170725391,"42":0.11117469309435134,"43":-0.37059697846451606,"44":-0.30208803417090313,"45":-0.2410398741939036,"46":-0.09333924560178473,"47":0.11160229883265098,"48":-0.5586754739513421,"49":-0.12530167759535957,"50":0.460402790473385,"51":0.9554145054421495,"52":0.34249892649077396,"53":-0.24166496153579942,"54":-0.1856676603339631,"55":-0.011568245166538508,"56":0.17689918262760077,"57":0.21685716521463563,"58":-0.35705289777812815,"59":-0.4616060093634134,"60":0.32074594516248023,"61":0.5940831285658619,"62":0.08040897885306404,"63":-0.2645887548344782,"64":-0.31623358618424746,"65":0.1361671722555925,"66":0.5208446649311101,"67":-0.29035333514358097,"68":-0.1726637503856769,"69":-0.6898678732526548,"70":0.17668781677182144,"71":0.23145735695722697,"72":-0.08417886851451209,"73":-0.014073902960564585,"74":-0.16860172820732497,"75":0.07206690849893824,"76":-0.03011002566497018,"77":0.11092929963483464,"78":0.09446585688183705,"79":-0.3078911124307992,"80":-0.4320101275426219,"81":-0.14011994604140043,"82":0.012652274868593919,"83":-0.2734611910831311,"84":0.24180881052057612,"85":-0.9954534342793465,"86":-0.43093793355091603,"87":0.1077715765368752,"88":-0.17368389142870944,"89":-0.054583522281591995,