{"layers":[{"0":{},"1":{},"2":{},"3":{},"4":{},"5":{},"6":{},"7":{},"8":{},"9":{},"10":{},"11":{},"12":{},"13":{},"14":{},"15":{},"16":{},"17":{},"18":{},"19":{},"20":{},"21":{},"22":{},"23":{},"24":{},"25":{},"26":{},"27":{},"28":{},"29":{},"30":{},"31":{},"32":{},"33":{},"34":{},"35":{},"36":{},"37":{},"38":{},"39":{},"40":{},"41":{},"42":{},"43":{},"44":{},"45":{},"46":{},"47":{},"48":{},"49":{},"50":{},"51":{},"52":{},"53":{},"54":{},"55":{},"56":{},"57":{},"58":{},"59":{},"60":{},"61":{},"62":{},"63":{},"64":{},"65":{},"66":{},"67":{},"68":{},"69":{},"70":{},"71":{},"72":{},"73":{},"74":{},"75":{},"76":{},"77":{},"78":{},"79":{},"80":{},"81":{},"82":{},"83":{},"84":{},"85":{},"86":{},"87":{},"88":{},"89":{},"90":{},"91":{},"92":{},"93":{},"94":{},"95":{},"96":{},"97":{},"98":{},"99":{},"100":{},"101":{},"102":{},"103":{},"104":{},"105":{},"106":{},"107":{},"108":{},"109":{},"110":{},"111":{},"112":{},"113":{},"114":{},"115":{},"116":{},"117":{},"118":{},"119":{},"120":{},"121":{},"122":{},"123":{},"124":{},"125":{},"126":{},"127":{},"128":{},"129":{},"130":{},"131":{},"132":{},"133":{},"134":{},"135":{},"136":{},"137":{},"138":{},"139":{},"140":{},"141":{},"142":{},"143":{},"144":{},"145":{},"146":{},"147":{},"148":{},"149":{},"150":{},"151":{},"152":{},"153":{},"154":{},"155":{},"156":{},"157":{},"158":{},"159":{},"160":{},"161":{},"162":{},"163":{},"164":{},"165":{},"166":{},"167":{},"168":{},"169":{},"170":{},"171":{},"172":{},"173":{},"174":{},"175":{},"176":{},"177":{},"178":{},"179":{},"180":{},"181":{},"182":{},"183":{},"184":{},"185":{},"186":{},"187":{},"188":{},"189":{},"190":{},"191":{},"192":{},"193":{},"194":{},"195":{},"196":{},"197":{},"198":{},"199":{},"200":{},"201":{},"202":{},"203":{},"204":{},"205":{},"206":{},"207":{},"208":{},"209":{},"210":{},"211":{},"212":{},"213":{},"214":{},"215":{},"216":{},"217":{},"218":{},"219":{},"220":{},"221":{},"222":{},"223":{},"224":{},"225":{},"226":{},"227":{},"228":{},"229":{},"230":{},"231":{},"232":{},"233":{},"234":{},"235":{},"236":{},"237":{},"238":{},"239":{},"240":{},"241":{},"242":{},"243":{},"244":{},"245":{},"246":{},"247":{},"248":{},"249":{},"250":{},"251":{},"252":{},"253":{},"254":{},"255":{},"256":{},"257":{},"258":{},"259":{},"260":{},"261":{},"262":{},"263":{},"264":{},"265":{},"266":{},"267":{},"268":{},"269":{},"270":{},"271":{},"272":{},"273":{},"274":{},"275":{},"276":{},"277":{},"278":{},"279":{},"280":{},"281":{},"282":{},"283":{},"284":{},"285":{},"286":{},"287":{},"288":{},"289":{},"290":{},"291":{},"292":{},"293":{},"294":{},"295":{},"296":{},"297":{},"298":{},"299":{},"300":{},"301":{},"302":{},"303":{},"304":{},"305":{},"306":{},"307":{},"308":{},"309":{},"310":{},"311":{},"312":{},"313":{},"314":{},"315":{},"316":{},"317":{},"318":{},"319":{},"320":{},"321":{},"322":{},"323":{},"324":{},"325":{},"326":{},"327":{},"328":{},"329":{},"330":{},"331":{},"332":{},"333":{},"334":{},"335":{},"336":{},"337":{},"338":{},"339":{},"340":{},"341":{},"342":{},"343":{},"344":{},"345":{},"346":{},"347":{},"348":{},"349":{},"350":{},"351":{},"352":{},"353":{},"354":{},"355":{},"356":{},"357":{},"358":{},"359":{},"360":{},"361":{},"362":{},"363":{},"364":{},"365":{},"366":{},"367":{},"368":{},"369":{},"370":{},"371":{},"372":{},"373":{},"374":{},"375":{},"376":{},"377":{},"378":{},"379":{},"380":{},"381":{},"382":{},"383":{},"384":{},"385":{},"386":{},"387":{},"388":{},"389":{},"390":{},"391":{},"392":{},"393":{},"394":{},"395":{},"396":{},"397":{},"398":{},"399":{},"400":{},"401":{},"402":{},"403":{},"404":{},"405":{},"406":{},"407":{},"408":{},"409":{},"410":{},"411":{},"412":{},"413":{},"414":{},"415":{},"416":{},"417":{},"418":{},"419":{},"420":{},"421":{},"422":{},"423":{},"424":{},"425":{},"426":{},"427":{},"428":{},"429":{},"430":{},"431":{},"432":{},"433":{},"434":{},"435":{},"436":{},"437":{},"438":{},"439":{},"440":{},"441":{},"442":{},"443":{},"444":{},"445":{},"446":{},"447":{},"448":{},"449":{},"450":{},"451":{},"452":{},"453":{},"454":{},"455":{},"456":{},"457":{},"458":{},"459":{},"460":{},"461":{},"462":{},"463":{},"464":{},"465":{},"466":{},"467":{},"468":{},"469":{},"470":{},"471":{},"472":{},"473":{},"474":{},"475":{},"476":{},"477":{},"478":{},"479":{},"480":{},"481":{},"482":{},"483":{},"484":{},"485":{},"486":{},"487":{},"488":{},"489":{},"490":{},"491":{},"492":{},"493":{},"494":{},"495":{},"496":{},"497":{},"498":{},"499":{},"500":{},"501":{},"502":{},"503":{},"504":{},"505":{},"506":{},"507":{},"508":{},"509":{},"510":{},"511":{},"512":{},"513":{},"514":{},"515":{},"516":{},"517":{},"518":{},"519":{},"520":{},"521":{},"522":{},"523":{},"524":{},"525":{},"526":{},"527":{},"528":{},"529":{},"530":{},"531":{},"532":{},"533":{},"534":{},"535":{},"536":{},"537":{},"538":{},"539":{},"540":{},"541":{},"542":{},"543":{},"544":{},"545":{},"546":{},"547":{},"548":{},"549":{},"550":{},"551":{},"552":{},"553":{},"554":{},"555":{},"556":{},"557":{},"558":{},"559":{},"560":{},"561":{},"562":{},"563":{},"564":{},"565":{},"566":{},"567":{},"568":{},"569":{},"570":{},"571":{},"572":{},"573":{},"574":{},"575":{},"576":{},"577":{},"578":{},"579":{},"580":{},"581":{},"582":{},"583":{},"584":{},"585":{},"586":{},"587":{},"588":{},"589":{},"590":{},"591":{},"592":{},"593":{},"594":{},"595":{},"596":{},"597":{},"598":{},"599":{},"600":{},"601":{},"602":{},"603":{},"604":{},"605":{},"606":{},"607":{},"608":{},"609":{},"610":{},"611":{},"612":{},"613":{},"614":{},"615":{},"616":{},"617":{},"618":{},"619":{},"620":{},"621":{},"622":{},"623":{},"624":{},"625":{},"626":{},"627":{},"628":{},"629":{},"630":{},"631":{},"632":{},"633":{},"634":{},"635":{},"636":{},"637":{},"638":{},"639":{},"640":{},"641":{},"642":{},"643":{},"644":{},"645":{},"646":{},"647":{},"648":{},"649":{},"650":{},"651":{},"652":{},"653":{},"654":{},"655":{},"656":{},"657":{},"658":{},"659":{},"660":{},"661":{},"662":{},"663":{},"664":{},"665":{},"666":{},"667":{},"668":{},"669":{},"670":{},"671":{},"672":{},"673":{},"674":{},"675":{},"676":{},"677":{},"678":{},"679":{},"680":{},"681":{},"682":{},"683":{},"684":{},"685":{},"686":{},"687":{},"688":{},"689":{},"690":{},"691":{},"692":{},"693":{},"694":{},"695":{},"696":{},"697":{},"698":{},"699":{},"700":{},"701":{},"702":{},"703":{},"704":{},"705":{},"706":{},"707":{},"708":{},"709":{},"710":{},"711":{},"712":{},"713":{},"714":{},"715":{},"716":{},"717":{},"718":{},"719":{},"720":{},"721":{},"722":{},"723":{},"724":{},"725":{},"726":{},"727":{},"728":{},"729":{},"730":{},"731":{},"732":{},"733":{},"734":{},"735":{},"736":{},"737":{},"738":{},"739":{},"740":{},"741":{},"742":{},"743":{},"744":{},"745":{},"746":{},"747":{},"748":{},"749":{},"750":{},"751":{},"752":{},"753":{},"754":{},"755":{},"756":{},"757":{},"758":{},"759":{},"760":{},"761":{},"762":{},"763":{},"764":{},"765":{},"766":{},"767":{},"768":{},"769":{},"770":{},"771":{},"772":{},"773":{},"774":{},"775":{},"776":{},"777":{},"778":{},"779":{},"780":{},"781":{},"782":{},"783":{}},{"0":{"bias":-0.10534252486609351,"weights":{"0":0.016339437374502802,"1":-0.18716269749057216,"2":-0.011678137986604054,"3":0.1887328899546849,"4":-0.1042076002227848,"5":-0.046537441284448006,"6":0.11688361784590634,"7":0.10890845531991972,"8":0.1415897420640692,"9":-0.07819780306562452,"10":-0.13174441313197843,"11":-0.08526752763101486,"12":-0.16855497577940018,"13":-0.07591421842358309,"14":-0.021288792247510985,"15":-0.08563968179253428,"16":-0.06074731378127049,"17":0.06129172767655522,"18":-0.0008136829710530813,"19":-0.12207242919434443,"20":-0.1950580564383544,"21":-0.1959277294883676,"22":-0.04127385992879731,"23":-0.12223648740702685,"24":0.11113991688746466,"25":-0.06031414283369366,"26":0.08491095855943553,"27":-0.026335190321663926,"28":-0.13183915846952815,"29":-0.19987684413708495,"30":-0.15850855226381252,"31":0.04597141758373002,"32":0.01717376847361729,"33":0.11337095321159796,"34":0.15180143724798417,"35":-0.03567066126848261,"36":-0.1779212132230188,"37":-0.18856646959792484,"38":0.1750982720174646,"39":-0.11292822302852831,"40":-0.08470145310124731,"41":0.12237127608374566,"42":-0.19436629132151384,"43":-0.03727813337358032,"44":0.1767870998617419,"45":-0.15581891678004986,"46":0.13362455801576203,"47":-0.11884088925181928,"48":0.0673488637424024,"49":0.05539505303894024,"50":-0.18951443786122502,"51":-0.04681072205360265,"52":0.03536714339877109,"53":-0.08629589963398959,"54":0.03535972294569428,"55":-0.172811902013566,"56":-0.10810204759753513,"57":-0.09284823507931589,"58":0.16754880670953515,"59":-0.04364732503250171,"60":0.19443333250353728,"61":0.17964832596622918,"62":-0.10643480215490929,"63":-0.0026000040018374815,"64":0.14225088980797584,"65":-0.017582374044427702,"66":-0.16581882506741952,"67":0.18725298833459988,"68":-0.07123923705674172,"69":0.19182246613109566,"70":0.04828669530685096,"71":-0.18249944433005613,"72":-0.1410179820311511,"73":0.12055179686227542,"74":-0.003345859629093595,"75":0.02737972334854619,"76":0.06939946178348194,"77":0.014816910713229112,"78":0.04186700334329462,"79":0.07872046975803305,"80":0.18865533334673165,"81":0.13416372834152962,"82":0.17538876864973796,"83":-0.1785597830133149,"84":0.026529572497060977,"85":0.06348858469846935,"86":-0.023720414253257438,"87":0.04533008528493648,"88":0.1350958869691923,"89":-0.005304857986328207,"90":-0.1359728075045818,"91":0.18920683566264135,"92":-0.047958826340355774,"93":0.023438961360227734,"94":0.1399397215453732,"95":-0.12172592397637978,"96":0.09089526382250124,"97":-0.1978806819468688,"98":0.11915692055465608,"99":0.11598660939356242,"100":0.14796074445505847,"101":0.18674051011222523,"102":0.006480234699041739,"103":-0.13283746045017283,"104":0.011328208220705552,"105":0.079856772881085,"106":0.13596001578309083,"107":-0.10244503100260359,"108":-0.05808119537273281,"109":0.07255246829788692,"110":0.162702490772483,"111":-0.17930901865485113,"112":-0.07185755155791071,"113":-0.19331055921022122,"114":0.01944089576118921,"115":-0.13681716313822634,"116":0.04930196895997489,"117":-0.06829798451041817,"118":-0.1804737894500454,"119":-0.047628767112359194,"120":-0.04960240842966695,"121":0.09083248508163425,"122":-0.009947980846011168,"123":-0.14292318840184143,"124":-0.1971629316179626,"125":-0.1852516872882625,"126":0.10353308514050638,"127":0.04463926035047485,"128":0.12477366958775994,"129":0.07735637498293517,"130":0.034022940472354914,"131":0.19405109547013888,"132":-0.06391188372921715,"133":0.20474360809552336,"134":0.051888134338615506,"135":0.14643630605117794,"136":-0.12003939145835459,"137":0.004064237362640245,"138":0.12135925668062487,"139":-0.18651636927037363,"140":-0.15453658736629228,"141":-0.010800105734977278,"142":0.1366765478073154,"143":0.13710278185769637,"144":-0.03309447624295981,"145":0.15688309108816006,"146":0.01549554844696091,"147":0.057819018726939196,"148":-0.03191126479739301,"149":-0.22258966386937956,"150":-0.08911751642103474,"151":-0.1356508106858977,"152":-0.23541414501678756,"153":0.09426592423456719,"154":-0.20811270107594834,"155":-0.18007370349931345,"156":-0.04084459279600413,"157":0.1524962473927167,"158":-0.23184189652676676,"159":-0.11033752018990949,"160":0.028294674149927337,"161":-0.03745944085137687,"162":-0.08921355759691718,"163":-0.13421443172533018,"164":0.18414334499428867,"165":-0.14533983461241753,"166":0.010188929656918826,"167":0.1816374504726311,"168":0.06725972922631857,"169":0.1357275186487436,"170":-0.07513852538917154,"171":-0.03216702910555418,"172":0.11026816689988508,"173":0.15088813325902678,"174":-0.019538748998090123,"175":-0.15735933054816753,"176":-0.09348694653483164,"177":0.08064993788305581,"178":-0.04115102773237984,"179":0.09495848555212473,"180":-0.029335293055029733,"181":0.030292548650665736,"182":-0.07939957577880732,"183":-0.009845766505532096,"184":-0.009124438473649557,"185":-0.20806773656390207,"186":-0.246603066179125,"187":-0.09219779201511276,"188":-0.006019258958120078,"189":0.17405437922575454,"190":-0.11954866815695356,"191":-0.010103506397905523,"192":0.05727527944524819,"193":-0.080627578982968,"194":-0.08672561472528868,"195":0.17184227315583256,"196":-0.032068186642694195,"197":0.11740720066136219,"198":-0.09023825504316983,"199":-0.012465865553013563,"200":0.15991864176809822,"201":0.030086900061473312,"202":0.1088654422838729,"203":-0.15142552604742537,"204":0.11324938140458336,"205":-0.1634033025073791,"206":0.0875304604408538,"207":-0.1994910530192253,"208":-0.07695056687543674,"209":-0.1074708744613749,"210":-0.14640889460043713,"211":0.028273494225808122,"212":-0.10436133565950297,"213":0.019450553639645877,"214":-0.09344828193724918,"215":0.16832732795738248,"216":0.11675903404480738,"217":-0.04422650068782393,"218":0.15738460566064508,"219":-0.04362435966662622,"220":0.15576684415213193,"221":-0.03395065023683267,"222":0.04175371258314162,"223":-0.11562550429833682,"224":-0.05313811324888343,"225":-0.1382407801199029,"226":-0.08243057920727499,"227":-0.1310276279686582,"228":0.05032358178045567,"229":-0.19642552852259548,"230":-0.18983931930450001,"231":-0.11301654231298112,"232":0.10203855765855192,"233":0.1413644298036297,"234":-0.09641988270839755,"235":-0.18251830896633064,"236":0.0038346717295963057,"237":-0.20954497643441247,"238":0.15689525808247273,"239":-0.03429672452546506,"240":0.16210722832038,"241":-0.13770127775960536,"242":0.15122960292924034,"243":-0.10473041659377774,"244":-0.11052142123796259,"245":0.26528170650142485,"246":0.15605860121311577,"247":-0.010783872282872666,"248":0.07379641448785398,"249":0.04265333559006896,"250":0.0897116334662136,"251":-0.06433836037451955,"252":0.12167245009688159,"253":-0.159900071658885,"254":-0.1884430246153969,"255":-0.19073754493176526,"256":0.14379168438058576,"257":-0.1801352433014351,"258":-0.0050739825049867585,"259":0.06075482501120611,"260":-0.1338950557390474,"261":-0.151782214298036,"262":-0.21377545085863942,"263":-0.09947322484375934,"264":-0.04799190495123079,"265":0.12914706867245748,"266":-0.051969129424705635,"267":-0.1050808506858526,"268":0.02779113994611183,"269":-0.09983454450017394,"270":0.17640635757677647,"271":0.1474814188157692,"272":0.21299633779324706,"273":-0.12440064189862957,"274":0.13607598749799998,"275":0.163941632438683,"276":0.12420608773361094,"277":0.12588084480315687,"278":0.14639339180333955,"279":-0.0907869096573342,"280":-0.11172085809534371,"281":-0.09005734700978606,"282":-0.17653837811812417,"283":0.08094052641798305,"284":-0.12337108863369319,"285":-0.09532790311953471,"286":-0.13717394099806554,"287":0.05025913592967782,"288":-0.055773176620427585,"289":0.0558149060677136,"290":-0.2101006456909054,"291":-0.14963487855136878,"292":-0.05536408823987612,"293":0.22272429272701239,"294":0.014805340102623686,"295":0.020030903872028546,"296":0.13518451451064428,"297":-0.1168031811006399,"298":0.10257624782267766,"299":-0.11006582379406074,"300":-0.16981250020470784,"301":-0.09531823942767392,"302":-0.060743566575195564,"303":0.1271823965103599,"304":0.1988173168929755,"305":-0.05180911439125014,"306":0.08582426063327006,"307":-0.04770890047944726,"308":0.021422308914903876,"309":0.04337430253780018,"310":-0.10339048046135707,"311":0.16730979239814664,"312":0.1417656218757753,"313":-0.06691790525868534,"314":-0.02627356835484915,"315":-0.042071420647106,"316":-0.1809033350041014,"317":0.11439266735491627,"318":0.14258052713462094,"319":0.04322292954199423,"320":-0.17232877082132597,"321":0.19185076595742354,"322":0.16045183599774915,"323":-0.000007552618637665136,"324":-0.23908047568285012,"325":0.1152236350782324,"326":-0.22347147674479256,"327":-0.10373555075349787,"328":0.06880439428359388,"329":-0.028406901721482292,"330":0.0001758603267527681,"331":-0.12042750697008664,"332":-0.15748519657339424,"333":0.0068759045529024,"334":-0.06806861912384649,"335":-0.18818225124978336,"336":0.15171131019419043,"337":-0.014193105062413482,"338":0.06324305494003929,"339":0.09393726011347966,"340":-0.06605626810784103,"341":0.09156403897474355,"342":-0.20370218778144697,"343":-0.10583178265640165,"344":-0.04051800834502551,"345":-0.023073240604661423,"346":0.016474402491181556,"347":0.1833529019402881,"348":0.18220069407763778,"349":0.20572669946162692,"350":-0.12888613120957382,"351":-0.04683353395001565,"352":-0.05658359147155855,"353":-0.18153825396732987,"354":-0.11370277102532955,"355":0.04931778755450209,"356":-0.24497875535245778,"357":-0.20787452727693811,"358":-0.2222324539481179,"359":-0.16327044280177444,"360":0.03775254815164734,"361":0.08797803957694185,"362":-0.16879708218811124,"363":0.10381632612116647,"364":0.1885274986670636,"365":0.04739094630237538,"366":-0.19779074081380743,"367":0.01769707727436139,"368":-0.07296924166530988,"369":0.06906336453991034,"370":-0.05842947303181039,"371":-0.11027800423514053,"372":0.1467313814518303,"373":-0.0817676590382557,"374":-0.09224522287150921,"375":0.06408716704399034,"376":-0.0559057760206524,"377":-0.09983234845916913,"378":0.13063405100679806,"379":-0.15437159729686586,"380":-0.0030066063409119295,"381":0.046725674420239394,"382":-0.1575017366876591,"383":-0.008870988643545475,"384":-0.15733740578866467,"385":0.11302578491074697,"386":-0.12812038007813506,"387":-0.0994539198157876,"388":0.08459971805199892,"389":-0.18661798042462693,"390":0.08102383638424286,"391":0.13728171732950634,"392":0.11225069909504376,"393":-0.014031141131981924,"394":0.1723837516903495,"395":-0.13149190420190843,"396":0.16748328086109326,"397":0.1786214986213288,"398":0.08391788962410432,"399":-0.20411513002573237,"400":-0.06955541430525626,"401":0.103762690991718,"402":-0.04276192440969835,"403":0.12251691819289325,"404":-0.09880917092643636,"405":0.14926554682745521,"406":-0.14359267486635452,"407":-0.1350336157568516,"408":-0.1491318623449694,"409":0.02539379402716875,"410":-0.08777465723106928,"411":-0.15229062010421965,"412":-0.07841397733336837,"413":-0.15313455336994136,"414":0.09536077554418783,"415":-0.13407148509839803,"416":-0.05310368363875902,"417":-0.004354378818396728,"418":0.09717659013718426,"419":-0.1917050968793917,"420":-0.056250289811905774,"421":0.1614014940769595,"422":-0.054602057177254346,"423":-0.11193200722624565,"424":-0.091760675026556,"425":-0.07036865796414823,"426":-0.20865348413446172,"427":0.13296890563149205,"428":-0.017499653390447744,"429":-0.08027349914740568,"430":-0.04920528760152247,"431":-0.18772218636020324,"432":0.007110784655115156,"433":-0.15019322903570856,"434":-0.06380361029432945,"435":-0.16435240702724496,"436":-0.0511443394857233,"437":-0.15409492501057423,"438":-0.10406570252833544,"439":0.1378615204531749,"440":-0.18504776479566834,"441":-0.11606737757066343,"442":-0.19798806232572777,"443":0.14428560648175104,"444":-0.017657294197217066,"445":-0.18922988265127832,"446":0.16528212740927914,"447":0.019542710701830616,"448":0.04821152657218927,"449":0.016888357806899373,"450":-0.14053067325925056,"451":-0.04532921662487111,"452":-0.11482387150203519,"453":0.13290134617309965,"454":0.10299418091247785,"455":0.09293904737734979,"456":-0.13974702405715175,"457":-0.0435572839774686,"458":0.06241665059051018,"459":0.17217700886072526,"460":-0.052840679810673696,"461":0.0025091511181034006,"462":-0.07270429483918597,"463":-0.12371288307379438,"464":0.11987315535701772,"465":-0.031305383005532206,"466":-0.07510885054589211,"467":-0.22500158130982398,"468":0.12993037936238133,"469":-0.10912142745269382,"470":0.01867972515355304,"471":0.06365977055018415,"472":0.04114580757964996,"473":-0.08697246253077569,"474":0.020558259961834642,"475":0.16033293269497279,"476":0.10972602152688177,"477":-0.18935734464812556,"478":-0.10882346139715508,"479":-0.014103926544297868,"480":-0.19203702847510387,"481":0.040831986190261536,"482":-0.10129241047879997,"483":0.052090967130710014,"484":0.0943517878832266,"485":-0.003916769741593647,"486":-0.01479142079565912,"487":-0.15025583433954065,"488":-0.13382129636929974,"489":-0.09597612686152915,"490":0.17917644842305072,"491":-0.05937388600015275,"492":0.13705218660361437,"493":0.16645575316346728,"494":-0.1827426067193956,"495":0.0027384549553891298,"496":-0.20072007603497438,"497":-0.01413001740575027,"498":-0.018306362867959027,"499":-0.0856312396450523,"500":0.15413661743170334,"501":-0.17972927904684796,"502":0.08746865859410567,"503":-0.09706070217665994,"504":0.15602370278984695,"505":-0.014638520420449552,"506":-0.06975812586814506,"507":0.1136135796855932,"508":0.002294193549562831,"509":0.16924915813622107,"510":0.02679392098355434,"511":-0.023707838100837746,"512":0.007150157178458555,"513":-0.07430257755488223,"514":0.10724539793913054,"515":0.09436547207404107,"516":0.004722394972781103,"517":0.13044473624889258,"518":0.13181512905823492,"519":0.033683599675858183,"520":-0.14580161506897685,"521":0.16046896581560474,"522":-0.19390367477355777,"523":-0.15509023869538344,"524":-0.16519831458449197,"525":-0.12707242135199406,"526":0.16314122258492966,"527":0.08498693421761486,"528":0.07210804062355478,"529":-0.11003343821264197,"530":0.02085273549598065,"531":0.12946875897865073,"532":-0.17277837670142554,"533":-0.11640118514507254,"534":0.08681815289293746,"535":0.1301686714033382,"536":-0.12152694442837778,"537":-0.1855942907940904,"538":0.01725052292607716,"539":-0.11993899841126485,"540":0.014070716947119435,"541":0.21010253449097685,"542":-0.1529377061838943,"543":0.06222773359899355,"544":-0.027460140679753834,"545":-0.026947611074327842,"546":0.2677811203822902,"547":-0.0729628932313337,"548":-0.09618207268058845,"549":-0.08924416552820208,"550":-0.20164132768810367,"551":-0.09591993299388625,"552":-0.06557072861934223,"553":-0.05945318346238584,"554":-0.20806312742331262,"555":0.04506515166520272,"556":-0.1897662706813643,"557":-0.07210637672683995,"558":-0.06888981202406819,"559":-0.16117947773904087,"560":-0.039524014341763,"561":0.15754041185116002,"562":-0.07894326583370571,"563":0.027341329407515165,"564":0.09057453619960142,"565":-0.21723411450045882,"566":-0.18387267970351862,"567":-0.1606400211103001,"568":0.216193480169638,"569":-0.15518995057758322,"570":0.20565872262652854,"571":-0.08000974873569755,"572":0.07260552259459284,"573":-0.10778982665855004,"574":-0.05727832150446454,"575":-0.15305325783884602,"576":0.09597811199532084,"577":-0.08326909746427644,"578":0.014307285784388788,"579":-0.04930634759673341,"580":0.07221560967053844,"581":-0.011834162151151248,"582":-0.11586194567870602,"583":0.08527032213838388,"584":-0.1515499088834623,"585":-0.16305301000505254,"586":-0.16236423679474069,"587":-0.11124697276726189,"588":0.06604702036179788,"589":0.19361665417039958,"590":-0.15909413446099097,"591":0.09128668770332064,"592":0.10985901384513116,"593":0.029120908076725995,"594":-0.16725004413003683,"595":0.08750472583417018,"596":0.11986558240293335,"597":-0.14498857539798113,"598":-0.04397366764772836,"599":-0.12620032750954954,"600":-0.1021506446342518,"601":0.16585450281054323,"602":0.038410004851352104,"603":0.14473554173451567,"604":0.11763610944648893,"605":0.06434654936404852,"606":-0.1694607724457831,"607":-0.1630412593717949,"608":0.10638162923431202,"609":-0.0919635386265746,"610":-0.14356773913964382,"611":0.012278319349167583,"612":0.08176874336010247,"613":0.19483933075440338,"614":0.14046946535153323,"615":0.02663331923233231,"616":0.12139706981381487,"617":0.16216503042739977,"618":0.014548762020607713,"619":-0.010698037178760524,"620":-0.015973673947535554,"621":0.1389325844909932,"622":0.11307613469708598,"623":-0.12305163502561374,"624":0.0836732927021426,"625":-0.18782932819199225,"626":-0.0005120310716266007,"627":-0.19708980182689562,"628":0.007591218122398604,"629":-0.0038779724609108003,"630":-0.15072239168043275,"631":-0.12939894043462447,"632":0.14424692852893298,"633":-0.039825039176424895,"634":-0.19316362611854415,"635":-0.20192020970138333,"636":-0.08587103990957085,"637":0.10814093947812307,"638":0.1442576575710718,"639":0.12993940280808638,"640":0.14744280826488312,"641":-0.020841207588296228,"642":-0.1210560551427777,"643":-0.032628263525305096,"644":-0.1927221746596314,"645":-0.08775326444989445,"646":-0.07304071815798988,"647":-0.1178944289027588,"648":-0.13370209107362482,"649":0.13890406343200634,"650":0.17513145919164996,"651":0.11015874369704456,"652":0.006603753394084151,"653":0.07970116983631512,"654":-0.08312080460645865,"655":-0.01744044314814472,"656":-0.2324479848870272,"657":0.01831772296985979,"658":-0.0945761496399712,"659":0.1303683318550872,"660":0.014162931182968014,"661":0.033913993823483056,"662":-0.15015832228342657,"663":-0.20071599839109386,"664":0.012271545560947787,"665":-0.18777784234772105,"666":0.0226955600337797,"667":0.04394157322302237,"668":-0.054829142052755145,"669":0.13075612977405196,"670":-0.04179686178832526,"671":-0.13664668065063967,"672":0.04798218312150401,"673":0.12003817148396473,"674":0.18195966658516943,"675":-0.14138585834326906,"676":0.045755909935744764,"677":-0.1324631068205076,"678":-0.05713194243015091,"679":-0.19620766283295962,"680":-0.18642725380504419,"681":-0.06507523659760658,"682":-0.024296125422798277,"683":-0.06946432768864638,"684":0.0467631733166788,"685":-0.012597239139474197,"686":-0.08544383181901206,"687":0.09487734632133261,"688":-0.02401986140237025,"689":-0.18103811621802027,"690":0.11888830110194228,"691":0.1690508288156212,"692":0.07104278200109214,"693":-0.1811576138906552,"694":0.05603381645647234,"695":0.069114052376942,"696":-0.11980474162560718,"697":0.14898449135013414,"698":0.17191880864621706,"699":0.19314026106081544,"700":-0.15428933742750806,"701":0.1438670860172344,"702":-0.12181831875807099,"703":-0.1032138772056422,"704":0.17950388464541525,"705":-0.16305413843982847,"706":0.18624990956373808,"707":0.1151902750623089,"708":-0.08665838714959291,"709":-0.13461966482203672,"710":0.0972361100924936,"711":0.1406497409460072,"712":0.005044901025320797,"713":-0.14822002696733538,"714":-0.046089289763316325,"715":-0.1559051716688539,"716":-0.1470621490117243,"717":-0.11299455511813962,"718":-0.016033588568319657,"719":0.0085305587763334,"720":0.10294578316410685,"721":-0.18954683134087488,"722":0.0847235716091625,"723":0.0889523676423385,"724":0.19984595522812587,"725":-0.03313341817951221,"726":0.11618837656527142,"727":-0.10172910049544247,"728":0.01530058068432022,"729":0.15463936748154972,"730":0.10397794677369909,"731":-0.17430677747384254,"732":0.18746604912855758,"733":-0.1097584275829079,"734":0.09344392825750691,"735":0.13354547398177444,"736":0.047632269094438746,"737":-0.07130026614421307,"738":0.006808120392073278,"739":-0.15416348857137332,"740":-0.20041027020222213,"741":-0.17201904508614316,"742":-0.19826737932840355,"743":-0.04894576887947425,"744":-0.10431844926618383,"745":-0.023845140771710002,"746":0.1301537483901459,"747":-0.13583680461688866,"748":-0.16575315960970938,"749":-0.10227148850757636,"750":-0.10536263403470282,"751":0.18236899305959384,"752":0.19013611073344333,"753":0.1816554525661685,"754":0.020716264642457016,"755":-0.12953994146921383,"756":-0.03169613777288696,"757":-0.16041884890014677,"758":0.07175641017485485,"759":0.06902939427812393,"760":-0.11975864564343289,"761":-0.0019688339592594784,"762":0.07562382537254493,"763":-0.0948801795248488,"764":0.03380207206745839,"765":0.17079478781835639,"766":0.009872004891590557,"767":-0.1543249567772562,"768":-0.1999459578098757,"769":0.0400618295737665,"770":0.15442976859601226,"771":-0.1785235791654704,"772":0.12692733460390965,"773":-0.024102315999086923,"774":-0.05577291110300807,"775":-0.06848210395271183,"776":0.1463921851321972,"777":-0.03632030836040792,"778":0.19444261670794405,"779":0.05264959057646318,"780":0.01963438158885414,"781":0.16240878091589322,"782":0.0276784931281214,"783":0.10824965441187145}},"1":{"bias":0.045388791532226226,"weights":{"0":0.10012633483356093,"1":0.1790504938016267,"2":0.07549326807622964,"3":0.07426262773305148,"4":-0.17954448737384815,"5":0.19075653450611008,"6":0.15305453306348732,"7":0.11645543105976658,"8":-0.08871576134456607,"9":0.02977973619542612,"10":0.19549324732787188,"11":0.1432786257885999,"12":0.1897069160509801,"13":-0.05744215197088076,"14":-0.02324400070561855,"15":0.0609576959217743,"16":0.05349266727788632,"17":-0.19140324845075662,"18":-0.04781885333181907,"19":0.03872169304702844,"20":0.1693762107590187,"21":0.10610210501853373,"22":0.1511460254702568,"23":-0.10308007609107053,"24":-0.1344942728870852,"25":-0.10762786711266924,"26":-0.11659065100009824,"27":0.057317086471976864,"28":-0.19824856903587432,"29":-0.02133360353723654,"30":0.07244662082570458,"31":-0.042715586489043555,"32":-0.13824827894117897,"33":0.06485461842756435,"34":-0.08882949170189232,"35":0.17718654774008066,"36":0.024651761952217868,"37":0.04805736127500811,"38":-0.07640571225131051,"39":-0.15547315688085123,"40":-0.008495354855716404,"41":0.04233506156403771,"42":0.12536123016709255,"43":0.04515153640757335,"44":0.07584910748690284,"45":0.06897094318154152,"46":0.1015573881670605,"47":0.07255402007183562,"48":-0.044419246087160566,"49":0.1620403227251519,"50":-0.031246395698235636,"51":-0.17972734807599702,"52":0.036863471671411574,"53":0.03809205006631178,"54":0.1757334260955618,"55":-0.029145483784329157,"56":0.03327993930276127,"57":0.05656135568083098,"58":0.1382264349470625,"59":-0.13351526410657988,"60":0.1145127513201262,"61":-0.024913210245928883,"62":-0.018127696868440804,"63":0.04541230429958691,"64":-0.1684256864562107,"65":-0.05425476595333339,"66":0.09677001698794652,"67":-0.09888862310552424,"68":-0.18531865554667232,"69":-0.0021174223861784728,"70":0.21312514702525914,"71":-0.006837805763366265,"72":-0.1601441032955452,"73":0.0792782405403858,"74":0.1392720479164699,"75":0.10794203277643917,"76":-0.15552374628933632,"77":-0.13829581420378348,"78":-0.03234009438854548,"79":-0.00625919208307129,"80":0.07172385348235698,"81":0.016952020888903185,"82":0.17912779372816195,"83":-0.110325046390152,"84":0.1741038156808255,"85":-0.027056305879426368,"86":0.02601115131446799,"87":-0.12594394418276905,"88":0.12606419121849133,"89":0.15634348819966198,"90":-0.17659361268123175,"91":-0.026235616397923944,"92":-0.11749377977439804,"93":0.040043521052820025,"94":-0.04592649348219595,"95":0.015301841459964757,"96":-0.02002270840175103,"97":-0.1686879497030621,"98":0.12572769800148853,"99":-0.11794266717587654,"100":0.06986362489137883,"101":-0.10073414738875137,"102":0.010507418664532243,"103":0.15554086051888516,"104":-0.14974639821899222,"105":-0.06388146491141783,"106":0.16925041989621586,"107":0.18806824922119267,"108":-0.09939350862800674,"109":0.09069845893451911,"110":0.07009979157945717,"111":-0.18856363367877382,"112":0.1420500527106891,"113":-0.08420245427677626,"114":0.1450968483970373,"115":0.03002527446837883,"116":0.07278251303301339,"117":-0.05484862028559415,"118":-0.17770168911240108,"119":0.17950955147713166,"120":0.06651375728350198,"121":-0.16036972492176904,"122":-0.16170262522063023,"123":-0.23534473651836094,"124":-0.0836879125049093,"125":-0.15789354966205446,"126":-0.04367294528981896,"127":0.14594999523577498,"128":0.040455058738064695,"129":0.17286477249765464,"130":0.10853911632201557,"131":0.021348267125413954,"132":0.07473978400334967,"133":-0.0008139499338439485,"134":-0.12404635527906666,"135":-0.15060814797903913,"136":-0.11525771116671013,"137":-0.009026358985909444,"138":0.10095432435214433,"139":0.07069075565769217,"140":-0.013867587759994138,"141":0.13526811317491927,"142":0.0696910248040467,"143":0.12132634519377947,"144":0.009276139166640612,"145":0.009174224399641882,"146":0.02854797769733085,"147":-0.03574868581099472,"148":-0.12174939131347652,"149":-0.11066499857204759,"150":-0.12349331391525546,"151":-0.031126810957450714,"152":0.10190813982668752,"153":0.10636634877674997,"154":0.1792218581861265,"155":-0.031793380528893245,"156":-0.08460751539235396,"157":0.10066704288573933,"158":0.15186476453414144,"159":0.09434624008130169,"160":0.09114496079520523,"161":-0.05570580063962732,"162":-0.12062618678078846,"163":0.005035836701205161,"164":-0.18456526810413773,"165":-0.05459210378785447,"166":-0.11408527469869821,"167":-0.1480583020011184,"168":0.16851139173578655,"169":-0.16395891622731354,"170":-0.12596128664889145,"171":0.10970125081326006,"172":0.13671284397005856,"173":0.1606964894452658,"174":-0.085590122920581,"175":-0.00523194699085312,"176":-0.07095046369894326,"177":-0.07219902737999942,"178":0.0035613855479075117,"179":-0.1775695815466346,"180":-0.13834071307404414,"181":0.010949233963493439,"182":-0.1415565762749423,"183":0.15691378439678055,"184":0.10982954254603858,"185":-0.14082295727430422,"186":0.13461000479830226,"187":0.16584649774808305,"188":-0.16230543923138913,"189":0.030725482194216,"190":0.13658293511509242,"191":0.1789010007952258,"192":-0.15097418279543426,"193":-0.05682888968191037,"194":-0.1436834452700335,"195":-0.14508540773017695,"196":0.0903789601169464,"197":-0.07042355926654813,"198":-0.09038350683718878,"199":0.026536743991233833,"200":0.05858776945384585,"201":0.1330497522164221,"202":0.1483114428239971,"203":0.07291299923959801,"204":-0.07476850794210643,"205":-0.16980567294288376,"206":0.11870401108132593,"207":-0.10585005884125387,"208":0.11628134504221369,"209":-0.02018885081890322,"210":0.05659148328454446,"211":0.09278294274832047,"212":0.049484316409703855,"213":0.13358159336998401,"214":-0.012410687607194631,"215":0.023291468971501954,"216":0.015074497801586234,"217":0.20986760208521052,"218":-0.13089748717317612,"219":0.03916077133106594,"220":-0.17615821195297737,"221":-0.15134330453900874,"222":0.15096640000751502,"223":-0.0644013383894654,"224":-0.18704411622545417,"225":-0.18399864472481892,"226":0.14419532922124023,"227":0.004394383563537971,"228":0.0701530294505304,"229":0.01800290610452609,"230":0.1437562979587878,"231":0.19770903105012927,"232":0.23983871192229586,"233":0.202839119407242,"234":-0.08881339367333872,"235":-0.012517029271500214,"236":-0.09204902819297722,"237":-0.1578846766296291,"238":-0.11070674571945875,"239":0.16490843244276587,"240":-0.10297034299753935,"241":0.06177999816126854,"242":-0.14753941746615476,"243":-0.14619747867398286,"244":-0.12187862005637493,"245":0.13135980740781172,"246":-0.05075345113554477,"247":-0.12406787571063388,"248":0.01282615802760925,"249":-0.03368913156871505,"250":0.13669136896746897,"251":0.16195890192636161,"252":0.14908726542632347,"253":-0.1753335733876393,"254":0.20037835784625407,"255":-0.15215241487612932,"256":0.13906851293919525,"257":0.002721585481941927,"258":0.14712851200582155,"259":0.16203637438105306,"260":-0.0007372635481709569,"261":0.16302804458631964,"262":0.2604342755385412,"263":-0.018071713693281068,"264":0.04780561436728355,"265":0.22560278501484923,"266":-0.053962299925057224,"267":0.10849006441322873,"268":0.006471418738559463,"269":-0.03283489288614361,"270":-0.059297270033673674,"271":0.19671325718616126,"272":0.1438466168231796,"273":0.20571508207917427,"274":0.16436356544681435,"275":0.19418622017466847,"276":-0.1435623913486545,"277":-0.06745609151787221,"278":0.06239640869501242,"279":0.14425215680821338,"280":0.08325278646119,"281":0.17784656349749273,"282":-0.06831694366186755,"283":0.09764903223108487,"284":-0.10293991037596739,"285":-0.05347857823559522,"286":0.052577785338744576,"287":0.1686616687904515,"288":0.04708977130452528,"289":0.21990641002076508,"290":0.2585884718767514,"291":0.13436340378200273,"292":0.18513696030874713,"293":0.19279061800540465,"294":-0.009278001244619437,"295":0.1411794024883159,"296":-0.15828355970909488,"297":-0.10867967604959985,"298":0.014578785375572932,"299":-0.18234121136634782,"300":0.19729001914571934,"301":-0.13409559544284808,"302":0.22756505234929283,"303":0.14139253491873008,"304":-0.0645238202070467,"305":0.03609697509431922,"306":0.13230441522627387,"307":0.10159676493866651,"308":0.09897435533545196,"309":0.13015706772138458,"310":0.05601457021067704,"311":0.1757693446543399,"312":0.15102867862100086,"313":-0.029534878631784212,"314":-0.09256055310510071,"315":0.12601969118874143,"316":0.2369564728471824,"317":0.22485865386424306,"318":0.045193432929977274,"319":0.20581101307715705,"320":0.06684439016089468,"321":0.318456013890817,"322":-0.03997431915202495,"323":-0.02338477438148978,"324":-0.044461966622764096,"325":-0.05120559534503377,"326":-0.14333248806870305,"327":-0.011560289652337082,"328":0.19663179681554555,"329":0.1797269770642654,"330":0.06922351286451348,"331":0.06375960747023904,"332":0.00011168206327137874,"333":0.16309055177104478,"334":0.1441614002898387,"335":0.05612426046561734,"336":0.05579432872357498,"337":-0.10151395562561757,"338":-0.11474636979652637,"339":0.008366131449666383,"340":0.12861048081542747,"341":0.140121466144138,"342":-0.11565971937474903,"343":-0.07529644116268225,"344":0.0801444347502956,"345":-0.10631736549703694,"346":0.09571521762287338,"347":0.06762420405774038,"348":0.13365449703595292,"349":-0.10464469220993852,"350":-0.046866935957861525,"351":-0.11446446646387139,"352":0.02734575994759664,"353":0.06649079448728494,"354":0.04259309928840893,"355":0.00030164242600678483,"356":0.10295668697090762,"357":-0.06737040580099118,"358":0.23384144017956518,"359":0.05267750942578834,"360":0.13865020741544193,"361":0.1048117004526477,"362":-0.11611170106825361,"363":0.011459533602127378,"364":-0.1067769075051544,"365":-0.09506251311815908,"366":-0.015949408142233702,"367":0.031946614222551586,"368":0.10194297620750394,"369":0.07166120647558136,"370":-0.07711081520939586,"371":-0.004824593461398865,"372":-0.13138383579800278,"373":0.022169680654319266,"374":-0.12887458474100477,"375":-0.016673159306973977,"376":0.07692710595411577,"377":0.04244548614987387,"378":0.15509679228775738,"379":0.04865312949086551,"380":-0.1169297850959659,"381":-0.27832290850403646,"382":-0.23193454571909594,"383":0.09870150282361582,"384":0.13678352185773415,"385":0.11332187112369674,"386":0.08423060597699819,"387":-0.008382406642613742,"388":0.06664755572500819,"389":0.1479498398921702,"390":0.10349096583366965,"391":0.014715616362773354,"392":0.1863831850073412,"393":-0.009069872334534022,"394":0.12027755987845115,"395":0.15719576619804712,"396":0.11972232054875348,"397":-0.024215997120194094,"398":0.011318620971963969,"399":0.1713511023184861,"400":0.03146780823858318,"401":-0.1629837195284203,"402":-0.2073479437733547,"403":-0.05906412610744965,"404":-0.036077955268717155,"405":-0.1726130667015191,"406":-0.0985283465169626,"407":0.13880589190485768,"408":-0.2310617777628137,"409":-0.09334895766030772,"410":-0.2508899012560427,"411":-0.07458400233501478,"412":-0.030896403159135322,"413":0.049483528602866575,"414":-0.12091828905599693,"415":0.15874364760275653,"416":-0.09631805491670807,"417":0.19890669774766176,"418":0.05134484581462895,"419":0.018456654840209197,"420":-0.15870450969715347,"421":-0.030769602506978976,"422":-0.15955726246568017,"423":0.04691562096545983,"424":0.1364601613075203,"425":-0.07456090475134684,"426":-0.04726189683187074,"427":0.09617914490428316,"428":-0.16815872716662636,"429":-0.019259193919628506,"430":-0.1759960618077515,"431":-0.15250747250425967,"432":0.03311842413507428,"433":-0.1373870086022333,"434":-0.12005940304388213,"435":-0.02934631538886331,"436":-0.15584040201473787,"437":-0.1727796735823513,"438":-0.05289068579392126,"439":-0.0733538160297443,"440":-0.1469974131553379,"441":0.10366923113953881,"442":0.14773677825234643,"443":-0.16610882270256447,"444":0.0014284738504909754,"445":0.05571913185988503,"446":-0.05862556165028427,"447":0.09696630595025452,"448":-0.057743595589981295,"449":-0.07309475594645845,"450":0.16226932623317739,"451":-0.15855747889854085,"452":0.07523350630835833,"453":-0.20772734565934678,"454":-0.005102776768198073,"455":-0.06273183760649576,"456":0.0836338021987339,"457":-0.10166627404229515,"458":0.05275098686456791,"459":0.18364877793233833,"460":0.10332443602393741,"461":-0.004323956476384523,"462":-0.05374384529618448,"463":0.1396109819702676,"464":-0.2233702026082882,"465":-0.034698242915079,"466":-0.2650904960804116,"467":-0.10375619569296088,"468":-0.09032468297898125,"469":-0.18712524916015022,"470":-0.1914306581826699,"471":-0.15398457320001996,"472":-0.07007670043109485,"473":-0.11340538106332518,"474":0.10486159852754262,"475":-0.04309300621672427,"476":-0.005117065139485538,"477":0.1767814708297462,"478":-0.15811708298206306,"479":0.18426338954214613,"480":-0.13570346274281467,"481":-0.16142353980756624,"482":-0.17537667800357867,"483":-0.05538990312053349,"484":0.03612151310072172,"485":0.17930870855571046,"486":0.2918350639532139,"487":0.035401664157989614,"488":0.28530928521905,"489":0.04448486117116638,"490":-0.021828118512861382,"491":0.11928733329894128,"492":0.0731256281133536,"493":-0.136158100306949,"494":-0.0010205681137971177,"495":-0.1638171493307261,"496":0.14780241136888472,"497":-0.10479045111523083,"498":0.13355238997204485,"499":0.17607183762055736,"500":-0.11227362722289175,"501":-0.19659800762523522,"502":0.11931775623806269,"503":0.16045457624404152,"504":-0.16646637971694656,"505":-0.016737525917671553,"506":0.05975469459065892,"507":0.17126189849336892,"508":0.1026491339609271,"509":-0.006769160529443007,"510":0.04966160121393128,"511":-0.0878163385679836,"512":-0.10711101559762636,"513":0.21968799724596919,"514":0.024096603760358163,"515":0.001769721622234144,"516":-0.088597949420882,"517":0.2920916091287887,"518":0.15267779048027022,"519":-0.03978845058447776,"520":-0.19877355900128038,"521":-0.2237580247444428,"522":0.1237328992369659,"523":-0.23437070453240805,"524":0.09270379231291465,"525":0.066272428142114,"526":-0.17156612429275714,"527":-0.0673494673783643,"528":-0.10379666000866268,"529":-0.1315978834635046,"530":0.12891808657685191,"531":0.18177189985650435,"532":0.008072597939737136,"533":0.05738096072557636,"534":-0.09856466080723421,"535":-0.022864022170259738,"536":-0.23003877728395913,"537":-0.23346404756314615,"538":-0.20272013643506756,"539":-0.07608142154887008,"540":-0.13515824126889522,"541":0.14564095339454083,"542":0.2787032343608794,"543":0.16763023217720818,"544":0.07733932987739468,"545":-0.11884668419895571,"546":-0.17579826476710206,"547":0.04451850449079138,"548":0.03273323469607297,"549":0.007555521436096861,"550":-0.02032888430146157,"551":0.02749868353214005,"552":0.04585978873640303,"553":0.06575429464297783,"554":-0.11645623121451354,"555":0.10085088291594002,"556":0.0010919688153999214,"557":-0.08666084934769089,"558":0.0070965098023421935,"559":0.1823176737198818,"560":-0.07251716309611789,"561":-0.15881510929551412,"562":0.006578660294845445,"563":-0.08866047535907602,"564":0.07407136739400508,"565":0.0422847489455771,"566":0.10695401609980379,"567":0.17557262674576857,"568":0.048008469821431574,"569":0.2835419595440999,"570":0.2694835645592101,"571":0.056348348073722826,"572":0.056769253907132895,"573":-0.08981418151759157,"574":0.1851702387655793,"575":-0.14627564023778025,"576":0.02268106585716441,"577":0.09992231203054636,"578":0.1561752865234229,"579":0.096610678346235,"580":0.18442247381026458,"581":0.05326297442364724,"582":-0.06526305371622994,"583":0.05886449949581605,"584":-0.10044208442165184,"585":-0.17289267166798158,"586":-0.19180737597111858,"587":-0.14789322617746087,"588":0.16870889268133793,"589":0.10417442060097859,"590":-0.1775336526186292,"591":-0.16498267666879682,"592":0.11968827292922975,"593":-0.12937591730988296,"594":-0.13120248335797124,"595":0.04913069902094972,"596":-0.001976256972357089,"597":-0.06434199023366363,"598":-0.14588383939449875,"599":0.1264258903860522,"600":0.1420949327142731,"601":-0.07283653775410583,"602":0.055210314166527996,"603":0.2023261544316511,"604":-0.07513153589438314,"605":0.06914571556680049,"606":0.052666003917377656,"607":0.18395901983841886,"608":-0.11393222799664801,"609":0.011205110849836768,"610":0.14745349164373062,"611":-0.022735473797419452,"612":0.06902724156871656,"613":-0.14295905402293194,"614":0.00077818833789906,"615":-0.17059877924591166,"616":0.035082149545434926,"617":-0.0712659209279626,"618":0.18726278050947268,"619":0.16098043232634096,"620":-0.10252522320568072,"621":-0.22243176950908602,"622":-0.17992610003958728,"623":-0.013173826568690103,"624":-0.028299072684721788,"625":-0.016235349902575608,"626":0.02897454837935687,"627":-0.015623661088715993,"628":0.19876876961704792,"629":0.08782908671117581,"630":0.1163009597993974,"631":-0.09561193887436317,"632":0.06616983121218749,"633":-0.0753823628735982,"634":-0.1313147639800132,"635":0.21046881304719361,"636":-0.07298554427786066,"637":-0.02991002532376736,"638":-0.09202156683669685,"639":0.1563907807719734,"640":-0.18286196484732542,"641":0.10742158581540591,"642":0.08549486174098891,"643":0.09691146861618344,"644":0.1016305800107225,"645":0.08039716694479165,"646":-0.06455782296283735,"647":-0.17708483917484127,"648":0.015479689288535497,"649":-0.056510446967929104,"650":-0.22285849222915108,"651":-0.22369353104394052,"652":0.04687408587239011,"653":-0.022408221829206258,"654":-0.11666078601869433,"655":0.20679841180863803,"656":-0.015128633657530694,"657":0.28603032000571255,"658":0.11173890507062426,"659":0.020982998321725007,"660":0.1680453215111272,"661":0.25622084388230515,"662":0.10535411006738729,"663":-0.011655093870538796,"664":0.022409055703955984,"665":0.013371047577128248,"666":-0.13701932770655786,"667":-0.08846497641821385,"668":-0.07829790476087865,"669":0.1348116089885017,"670":0.19664269297699635,"671":-0.10495777439136536,"672":0.19459646753756704,"673":-0.04909322934408006,"674":0.10618028004910374,"675":-0.12423759465540389,"676":0.028847801998400133,"677":-0.1738634510274362,"678":-0.15374535501103445,"679":-0.08041650973370221,"680":0.0758212821683462,"681":0.06734976191648442,"682":-0.1255736718921039,"683":-0.09980300014596238,"684":0.004733282182666277,"685":0.004474217253733098,"686":0.1761093363957858,"687":0.16427397873763974,"688":-0.009443564217002034,"689":-0.035727491671739095,"690":0.18364158186945426,"691":0.06165289638734927,"692":-0.05972042435029059,"693":-0.13924041348778995,"694":0.13256603476720036,"695":-0.0074403229983261935,"696":-0.17753585739918554,"697":-0.13803102820619506,"698":-0.05922869899685629,"699":-0.0031049857178265527,"700":0.1638192279912598,"701":-0.1189023194135368,"702":0.0709097316189462,"703":0.02446512601786453,"704":0.17939780820080764,"705":0.1859338520973809,"706":-0.16367841458338592,"707":0.16398311448516215,"708":-0.034228525221984364,"709":0.13257698228242712,"710":-0.2123451529265623,"711":-0.18664374587096588,"712":-0.12257578727102858,"713":0.14735055181114862,"714":-0.19283124127182363,"715":0.07666587696111944,"716":-0.01672689975661536,"717":0.09490151997628296,"718":-0.1249192099277069,"719":0.08485765672049099,"720":0.16828015966447296,"721":-0.05026207632277705,"722":0.14257652846386562,"723":0.06407674488456985,"724":0.18547544381147868,"725":-0.009156189732052594,"726":-0.16080854693160057,"727":0.03163060247602578,"728":0.04740385330956326,"729":0.03681619281470133,"730":-0.1687736018186425,"731":-0.1263694363373653,"732":0.03171381456853886,"733":0.17704223300383123,"734":-0.19273822918255284,"735":-0.18067962311482866,"736":0.1970407968475713,"737":0.09008072770764518,"738":-0.15673292736068553,"739":0.17296385376207596,"740":0.1120352778465519,"741":0.18532628177160337,"742":0.035264352284055785,"743":-0.07728536978259556,"744":0.04989493792586499,"745":-0.04477187427201966,"746":-0.18642906759196937,"747":-0.11988749743848155,"748":0.02988434054943997,"749":0.006805725985979927,"750":0.11689909639050519,"751":-0.08400041017797005,"752":-0.04316988822036666,"753":0.17462100164284022,"754":0.0037528935731727664,"755":0.05396680420332867,"756":-0.011524945226352307,"757":-0.166223633443171,"758":0.027270315935586792,"759":-0.013120843414872407,"760":-0.009903176463472108,"761":-0.14079171766315823,"762":-0.022045849246621917,"763":0.06343044316784233,"764":-0.14076243739671934,"765":-0.17879013280349698,"766":0.09298242175918464,"767":0.09213985548204835,"768":-0.03825462158910261,"769":0.15598374074506474,"770":0.13832599820832578,"771":-0.027638444029022675,"772":-0.10959362470698841,"773":0.0507172320637757,"774":-0.07735947992206232,"775":0.08780520705030263,"776":-0.1645067973257941,"777":-0.020388920424837156,"778":0.14868924216318913,"779":-0.004737421830480676,"780":0.007096534744029714,"781":0.003507305378277259,"782":-0.10705214498118112,"783":-0.09613277776668908}},"2":{"bias":0.012431490327625923,"weights":{"0":-0.09725702865820232,"1":0.17330434755634178,"2":0.14988757158576,"3":0.10047006300461153,"4":-0.04757845424631063,"5":-0.005305331597352414,"6":0.05426728677724285,"7":-0.1836597867134981,"8":-0.026892946692764402,"9":0.12039625481324195,"10":-0.07362661605550133,"11":-0.12682132304011368,"12":0.03248237210492419,"13":0.10283577579229553,"14":0.01410427739408826,"15":-0.09526045455868469,"16":0.17380701513707403,"17":0.014591938957794703,"18":-0.18450091080316788,"19":-0.14089376381075036,"20":-0.08742786357875021,"21":-0.009723510294402882,"22":0.039437993017743006,"23":-0.16445632086189,"24":-0.19177934917653705,"25":0.03890654550644915,"26":0.18415277492108822,"27":-0.12017050855117156,"28":-0.09466571837055558,"29":-0.15898313657155488,"30":0.19268828191211274,"31":-0.12064992594604816,"32":-0.14154266527846665,"33":-0.17525071637073522,"34":0.17824849907509616,"35":-0.14254824808505265,"36":-0.19741720467217727,"37":-0.051398231840500117,"38":-0.06398443769316851,"39":-0.10783321755173775,"40":-0.0953505547352601,"41":0.14778081347825356,"42":0.0484491691784146,"43":-0.007885263686329316,"44":0.0822498074089006,"45":0.011661952367811524,"46":-0.10275507123351718,"47":-0.026931614525208744,"48":-0.14572170736674392,"49":-0.06613272551047096,"50":0.022010990293017833,"51":-0.16193998317978553,"52":-0.1254923258639405,"53":-0.1961888498030594,"54":0.16573700521916407,"55":0.17040038907445476,"56":-0.1969621183038288,"57":-0.0838722614183472,"58":-0.017229095837420966,"59":-0.044670833480681876,"60":-0.017566751410055818,"61":-0.09481957275798521,"62":-0.18856271329498678,"63":0.002465780211518823,"64":0.05788359012862491,"65":-0.1824123770683881,"66":-0.013662730297144876,"67":-0.027427059101394726,"68":-0.03314052559308853,"69":0.07985425207494988,"70":-0.1207469589998647,"71":0.007217964676439547,"72":0.0796456276552639,"73":0.08748685122555837,"74":-0.11995389081489671,"75":-0.190475022907827,"76":0.12771063800229812,"77":-0.1799001036306926,"78":0.12205003603709907,"79":0.15040838848088295,"80":-0.09587018455980867,"81":0.015794245461194567,"82":0.1832237332218511,"83":0.06214440976020813,"84":0.11997089896324209,"85":0.11150293026197694,"86":0.07733993271181899,"87":-0.13069971832484423,"88":0.02606701171449654,"89":0.03616741775640216,"90":-0.15524039650969879,"91":0.16752861514597228,"92":-0.011440428079013657,"93":0.20483902164801926,"94":-0.15293731223576013,"95":0.02609765242016888,"96":0.014508114484049454,"97":0.23196926027331632,"98":0.23327970669737802,"99":0.08183535683206235,"100":0.0725978344155997,"101":-0.03940745365568332,"102":0.1674617516603272,"103":0.1601703971673189,"104":0.08294118283343516,"105":-0.1791965086226621,"106":0.013172331940106271,"107":0.06036655205462769,"108":0.03233487504494444,"109":-0.008540581200046388,"110":-0.05136811974638933,"111":0.18681607643731252,"112":0.0016453281387274754,"113":0.14191749375091173,"114":-0.11917331841028247,"115":-0.11246066838984414,"116":-0.08692090817753338,"117":-0.16790145028820136,"118":-0.12212965927351158,"119":-0.06820597229732693,"120":0.057401800673412176,"121":-0.10432400397322951,"122":0.17059751014801766,"123":0.04837786887529034,"124":0.055490659165020106,"125":0.09335175099590123,"126":0.20094562405192118,"127":0.10982995030949784,"128":0.07838321099391848,"129":0.15329241553630105,"130":0.08848895150341535,"131":0.1247365169037446,"132":0.016955899383514578,"133":0.048354785078015196,"134":0.014929143138778566,"135":0.08310361520987869,"136":-0.04299350236602566,"137":0.14182311923858357,"138":-0.059448920050380216,"139":-0.02904740962709837,"140":0.12607849337990146,"141":0.17077829743541956,"142":-0.034655842077439186,"143":-0.17657906470880863,"144":0.1402154993612031,"145":-0.048531019822287795,"146":0.022666092491785857,"147":0.06846100512052708,"148":0.2805013455209073,"149":0.29032256577928806,"150":0.19655914566673285,"151":0.08506727057263554,"152":0.0373054160030588,"153":0.1365152440728394,"154":-0.16116365183131137,"155":0.04465142725357817,"156":0.010312020691779323,"157":-0.1929817722052686,"158":-0.01949230030587946,"159":-0.18064925395181453,"160":0.04373051513630397,"161":-0.10973879518778949,"162":-0.1709228437745406,"163":-0.23136053863791814,"164":-0.028420183852423873,"165":-0.09469692216628238,"166":-0.012113712470158303,"167":-0.008444635481972381,"168":0.1530959187450191,"169":0.12327779870602934,"170":0.12194599002737264,"171":-0.0030352802949490687,"172":0.017872592055848072,"173":0.15111144878189597,"174":0.2067640235853054,"175":0.20226824998717569,"176":0.2773699018050218,"177":-0.04699967957104751,"178":0.1917230556330652,"179":-0.03342379490511797,"180":-0.0033677700529450606,"181":-0.03138471007566484,"182":0.11904833014855981,"183":0.18112864290209627,"184":-0.0023315440278538044,"185":-0.1361304304316487,"186":-0.03241821275584042,"187":-0.1144202313182774,"188":-0.11926780353319565,"189":-0.24231598183507969,"190":-0.16729745708659924,"191":0.05964474040047156,"192":0.019095777663013954,"193":0.06182300241217373,"194":-0.20160714090901793,"195":-0.1446424508547329,"196":-0.0893366748866048,"197":0.03449977671150862,"198":0.151588487870569,"199":0.013151477545883562,"200":-0.001211121559321219,"201":-0.024988699534338483,"202":-0.034705118918642155,"203":-0.15601914216056084,"204":-0.06112559540923463,"205":-0.2045119094803358,"206":-0.04138192726028599,"207":-0.24154916737607102,"208":0.06124966935311712,"209":-0.005563761550077742,"210":0.2977057833638358,"211":0.08670197221723859,"212":0.23852127962083186,"213":0.16420939599444992,"214":0.1260361581649309,"215":0.2567571000295658,"216":-0.09994033964185885,"217":-0.005037645892307214,"218":-0.18384488534238486,"219":0.08068593804831267,"220":-0.192871483617772,"221":-0.21854128302495984,"222":-0.1154703639624046,"223":-0.005226218975577882,"224":0.01648405240407832,"225":0.006521053861934793,"226":0.07615515730389373,"227":0.19940339599716553,"228":-0.0609129643643825,"229":0.054758393607018944,"230":-0.15179115862642933,"231":0.05589532508348199,"232":-0.09447450919900531,"233":0.04388771787596951,"234":-0.30422892270729446,"235":-0.22001789954026738,"236":0.13086772252455867,"237":0.0007649664062557472,"238":0.13892138792503134,"239":0.2995638360806448,"240":-0.056925622385240085,"241":-0.040983811189617414,"242":0.10944206585010693,"243":-0.1328140531151124,"244":-0.13949488394165052,"245":-0.02043224702601524,"246":-0.14846559837868434,"247":-0.22540609493391098,"248":-0.19515636727059965,"249":-0.013780121507229414,"250":0.1719655672316848,"251":-0.11022470336633175,"252":-0.19752399745882143,"253":-0.13437158604397526,"254":-0.0004178136929987784,"255":-0.11278730178507274,"256":-0.12865452422876994,"257":-0.10870735763739994,"258":0.02218910679409642,"259":0.0549938070179143,"260":-0.27083878679083484,"261":-0.3218271299592977,"262":-0.02375903350926451,"263":-0.24808431069867512,"264":-0.011362733477227917,"265":-0.11057368940475315,"266":0.17509117916603753,"267":0.2143217663360519,"268":-0.012542811555518492,"269":-0.20443669718522572,"270":0.1262246457695927,"271":-0.06527849250828786,"272":0.17330392310200135,"273":-0.05843699638339776,"274":-0.2666976591703693,"275":-0.038838962141741325,"276":-0.02667184147726232,"277":0.030091132357223428,"278":0.1285177466406184,"279":0.13567639928875527,"280":-0.1939142708754302,"281":-0.0026478155343909312,"282":-0.06028889510402216,"283":-0.10324690562260043,"284":0.059219300325959685,"285":-0.010016071436995268,"286":-0.19904148550039574,"287":-0.19716918077223108,"288":-0.364331936506111,"289":-0.10891435087105616,"290":-0.3666499560402243,"291":-0.08949127554431949,"292":-0.2906952295070253,"293":-0.19802195948125834,"294":0.13658653540664048,"295":0.2251650600438192,"296":0.11018618714082563,"297":0.004225770731307678,"298":0.036172292426091254,"299":-0.05258378069175747,"300":-0.09380468903044839,"301":0.09952840804991739,"302":-0.22257942274141315,"303":-0.10970569331327716,"304":-0.041608438611518535,"305":0.1832762519027618,"306":0.07566472329362872,"307":0.19723561218793156,"308":0.1459427576239854,"309":-0.07058766524058072,"310":0.14538068624092654,"311":-0.07202756741131218,"312":0.09370913981308882,"313":0.004575246629327116,"314":0.10130238233315043,"315":-0.25390174588719233,"316":-0.1209813313876428,"317":0.0056797850778958995,"318":-0.08860538362649378,"319":-0.2588829011941596,"320":-0.14762828192364189,"321":-0.2674057790079786,"322":-0.043191773831233175,"323":0.3003156089625663,"324":0.18678261638328167,"325":0.1330837261228909,"326":0.10085111316774102,"327":-0.12680715271497336,"328":0.08846548031234655,"329":-0.14572048718634434,"330":-0.14751280905786993,"331":-0.08724698730947361,"332":-0.1710843951744116,"333":0.06879034749824377,"334":-0.11898437961283657,"335":0.03532515062984915,"336":0.10532189746632314,"337":0.14513139077622794,"338":-0.190113037956804,"339":-0.1126698550867111,"340":-0.11873941740968416,"341":0.13174553604374126,"342":-0.11677799406545616,"343":-0.04408259634590687,"344":0.05182904421317688,"345":-0.0041628588944926945,"346":0.0571022831459063,"347":-0.13434363525252244,"348":-0.2827374773533398,"349":0.11576882541250619,"350":0.2917557539914321,"351":-0.043391925422796386,"352":-0.10932239659075557,"353":-0.014951589007889385,"354":-0.059205874572854075,"355":-0.02667531045052898,"356":-0.014254367721692144,"357":0.04176367606928448,"358":-0.00153439348541046,"359":0.12797097539942318,"360":0.035731519196183045,"361":0.08715655405474781,"362":0.0018064169659282158,"363":0.17079020278464105,"364":-0.03884677929142519,"365":-0.19559896101290375,"366":-0.08483073300171802,"367":-0.031914290235258956,"368":0.058235130046369134,"369":-0.21833747445355867,"370":-0.17601146965885414,"371":-0.12199732389987075,"372":0.11576363517580149,"373":0.028064247587337898,"374":0.03561559273939128,"375":0.05207891195983148,"376":-0.2559123374285613,"377":0.21254640857623874,"378":0.08860362654825378,"379":0.11794634021936273,"380":0.01038861001406288,"381":0.08025026048535318,"382":0.18816813395651405,"383":-0.012408981075366105,"384":0.08196857327626152,"385":-0.020698041273285207,"386":-0.07950821258966936,"387":-0.2028349898271595,"388":-0.19903243045918392,"389":-0.09090839445878761,"390":0.16467187688536916,"391":-0.04575148800967491,"392":0.09767910089887266,"393":0.12253051724971861,"394":-0.09987482361942812,"395":0.04461741001480112,"396":0.07771585605131479,"397":-0.2165636050186599,"398":-0.05828112370031209,"399":-0.03105008082470959,"400":0.0963080531634769,"401":0.011841879617929941,"402":-0.17601771341881528,"403":0.06135565307659835,"404":0.10192927233697034,"405":0.25568514464154457,"406":0.30333633324075265,"407":-0.07411511222272396,"408":0.12622892928523802,"409":0.020660737425249317,"410":0.24146037089080108,"411":-0.1453333194291611,"412":-0.1111395762195995,"413":0.07626007664997206,"414":-0.09574823649518356,"415":0.10914389693666857,"416":-0.020974574902130314,"417":-0.08631066177485497,"418":0.02535083361968789,"419":-0.17734764490442725,"420":0.060429946085625186,"421":-0.13101612138078542,"422":-0.024443068361782217,"423":0.13242343370370363,"424":0.15833403130112098,"425":0.10336359986994252,"426":-0.15412672314436004,"427":-0.08992849175963474,"428":0.09648598165430787,"429":-0.01961947629583702,"430":0.0809117905022154,"431":0.10925682446269576,"432":0.14022444462842473,"433":0.05193807871118661,"434":0.1572300029658898,"435":0.13645996678392971,"436":-0.09351531894040425,"437":-0.09809127965360749,"438":-0.07394044309781655,"439":-0.05545574428144874,"440":0.019708468774238784,"441":-0.17251041231863218,"442":-0.05872674983235448,"443":-0.06823773915802331,"444":-0.11880046716489243,"445":0.026784864002467323,"446":0.10049715916928637,"447":-0.034195984893531775,"448":0.03718721016829757,"449":-0.19470095277783292,"450":-0.0976376500270044,"451":-0.15359532634541503,"452":-0.0820976858917811,"453":-0.14740015471035242,"454":0.2107280664260655,"455":0.1972992146936957,"456":0.1993041300947503,"457":-0.1993313521405299,"458":-0.15209291948710857,"459":-0.028207190846522782,"460":0.1373681064400833,"461":0.17673989015710423,"462":-0.18768068742802824,"463":-0.12829095780498823,"464":0.11990966984282414,"465":0.24204029170254227,"466":-0.1064866271503703,"467":0.13890712304372899,"468":-0.06466333216377915,"469":0.12178593765962975,"470":0.10348998065026581,"471":-0.1643202233029478,"472":-0.10779655139645966,"473":-0.0986469504576232,"474":-0.11463214391863595,"475":0.15179076375708314,"476":0.16752132227422933,"477":0.08129688085585662,"478":-0.022463875781240778,"479":-0.03918140057691174,"480":-0.03601466324015842,"481":-0.12194355162211867,"482":0.19060813958283343,"483":0.16651925952389474,"484":-0.09700665376493972,"485":0.054746364497352915,"486":-0.13066127280980647,"487":-0.26354417424079324,"488":-0.08115094997248319,"489":0.025778654664016545,"490":-0.186425718371518,"491":-0.12024886934051769,"492":0.14130010534600482,"493":-0.05520551874439836,"494":-0.014929749723620244,"495":0.19178781653068913,"496":-0.13106512555361435,"497":-0.06352784190661773,"498":0.05010019360751352,"499":-0.07446248611235641,"500":0.09805030713283205,"501":-0.08474327769346927,"502":-0.09975865667239225,"503":0.056079113428445855,"504":-0.027970459966815298,"505":0.17264891242281938,"506":0.15447441711703755,"507":-0.0715249472247711,"508":0.21813040724248986,"509":0.07563630138929756,"510":0.0910194224255843,"511":-0.120061493196594,"512":0.041684025494054956,"513":-0.16218898710236268,"514":0.010058136093736564,"515":-0.018021043056501682,"516":-0.14843962461382726,"517":-0.04203283067090169,"518":0.10304241051802869,"519":0.18874412324261938,"520":0.03392574362220023,"521":-0.03304728118266104,"522":0.08505534362650127,"523":0.07361012399106998,"524":0.18272512222877085,"525":-0.10829142303378714,"526":0.11264369473562619,"527":0.13086363282622263,"528":0.13092553287876615,"529":-0.032963209101165514,"530":-0.032683201652522115,"531":-0.015907680352825748,"532":0.1367238588853903,"533":0.04919820939956976,"534":-0.02458934912136047,"535":-0.1288621583916409,"536":-0.045123498485097155,"537":0.05391361433383856,"538":0.10177017704575621,"539":0.06757567084903719,"540":-0.1251725256162993,"541":-0.2345500678605989,"542":-0.2177198040224614,"543":0.06561747520755838,"544":-0.003563505227628771,"545":-0.038611512647498535,"546":0.08678736469652965,"547":-0.018466182502671322,"548":-0.12660738920706446,"549":0.08247405641881084,"550":-0.048521819131953615,"551":0.24913220326163776,"552":0.1474820962844056,"553":-0.11614369238739003,"554":0.10066704146065548,"555":0.09341581824695545,"556":0.18117645926055123,"557":0.11313510063972505,"558":-0.1678565507423734,"559":0.1573670651470206,"560":0.16394804558083126,"561":0.04214588300769001,"562":-0.011395600231519558,"563":0.17386039672185408,"564":0.07021747944193901,"565":0.20558546391446397,"566":-0.01659992732358263,"567":0.08921495585868991,"568":-0.09243562497041631,"569":-0.1297773083559019,"570":-0.21167906418653795,"571":0.060832188580153795,"572":0.02988871855021758,"573":-0.17428679510744383,"574":-0.007575500400643903,"575":-0.044205221296527444,"576":0.02466494926895045,"577":-0.0816454676700635,"578":0.07930072862149072,"579":0.24421805947946784,"580":0.09027423188773996,"581":-0.022008484547272025,"582":0.22754241919644608,"583":-0.16302176799776474,"584":0.15276318631961106,"585":-0.050162648629493635,"586":0.20031635023118619,"587":0.019106900170603753,"588":0.011765951606878572,"589":0.0757491214704763,"590":-0.07132870297087039,"591":0.18666506050239443,"592":0.16895750887713243,"593":0.14656973005943078,"594":0.045027372816275966,"595":-0.036814331435745924,"596":-0.19127389440245252,"597":-0.0029202652573452103,"598":-0.12096698925604393,"599":-0.12148981933370269,"600":-0.06288523629557505,"601":0.0573274454736423,"602":-0.05069048684499967,"603":0.2140673382112878,"604":-0.1409478088070125,"605":0.14180074429580747,"606":-0.15966495113709814,"607":0.1793297568770374,"608":0.04625437731569421,"609":-0.04830148866069838,"610":-0.02439140023053236,"611":-0.02076132108927024,"612":0.14770816209662493,"613":-0.11444533806241071,"614":0.18454326436492338,"615":0.10211495945787441,"616":-0.14438057767919307,"617":-0.11413998230678653,"618":0.10918470643072353,"619":0.2159584347830908,"620":0.2533170710903651,"621":0.14286296452384156,"622":-0.02609245306737364,"623":0.2722041145768957,"624":0.13285059462202764,"625":-0.03509808751800749,"626":-0.1858967583699282,"627":-0.32175715653857884,"628":-0.2411576298311027,"629":-0.2611781542624526,"630":-0.008654324877600096,"631":-0.09780920181050082,"632":0.14677111723519587,"633":-0.08131263962135558,"634":0.08547083891617424,"635":0.19376336624576287,"636":0.10381735404468453,"637":-0.13068444617208103,"638":-0.14303730338697626,"639":-0.17699503580851217,"640":0.0976051761220936,"641":0.020421928468908813,"642":-0.1056436127802606,"643":-0.1821994015772683,"644":0.11561474279433626,"645":-0.04507554668247185,"646":-0.1959077018610737,"647":0.19815122208904837,"648":0.19775410415030412,"649":-0.05305317510924493,"650":-0.09495987101262583,"651":-0.06321969732210539,"652":-0.1399495674867901,"653":-0.125760030389995,"654":-0.2218099071177799,"655":-0.28180741231072176,"656":-0.14721918678770277,"657":-0.059560825420252296,"658":-0.2550442128059543,"659":-0.26030746336247224,"660":-0.12783715054109326,"661":0.0735969444111275,"662":0.1213303805752603,"663":0.15119742266544678,"664":0.03554109866051939,"665":0.1304941483249686,"666":0.08929351032816285,"667":0.07193078450925441,"668":0.1973867598915687,"669":-0.15306460589686527,"670":-0.04818281900348165,"671":0.08657220896687645,"672":-0.10139798455220116,"673":0.15867193345391561,"674":-0.11844623269866715,"675":0.029122198243961735,"676":0.1350188781426623,"677":-0.0003884007893374467,"678":-0.05610310851345075,"679":0.10237498653262737,"680":-0.06616012029589946,"681":-0.10561159343485964,"682":-0.22552280594216206,"683":-0.08131140720219143,"684":-0.013686334959039174,"685":-0.05536023234193645,"686":-0.12879738657554207,"687":-0.08801855570185395,"688":-0.1501471547816641,"689":-0.22232625931140537,"690":0.08694855767749332,"691":-0.046255127185248865,"692":0.1277379690091225,"693":0.10857379161678327,"694":-0.10518388891107476,"695":0.02547829799533339,"696":-0.06549293465460398,"697":-0.09845477878018982,"698":0.18422641506482773,"699":0.1561605847666967,"700":0.021536607020755744,"701":-0.14423024539456808,"702":0.13695761077781343,"703":-0.09320439502448206,"704":-0.17339245061254668,"705":-0.06538910625403259,"706":0.16845798715684057,"707":-0.1886544258300112,"708":0.054493795432421256,"709":-0.14972210372929617,"710":0.1415670208493263,"711":-0.09492554952396598,"712":-0.021321718220080887,"713":0.04103436349833913,"714":0.10890602587450017,"715":-0.10372018488078,"716":-0.11206208722227998,"717":0.1266864042462512,"718":0.10598133414167768,"719":-0.08685357719987241,"720":0.018704138659763926,"721":-0.04525263255471695,"722":-0.05380544750844317,"723":0.07372470439760248,"724":-0.02206259562854097,"725":-0.014367543926188192,"726":0.1230937126767137,"727":0.11273707942012762,"728":0.07541908167477585,"729":-0.14780799467119268,"730":-0.14402281851696896,"731":-0.1864811169262288,"732":0.14698359554279442,"733":0.17623688482021235,"734":0.18582788880109216,"735":-0.017106418483191024,"736":0.12143790074754483,"737":0.10126344155385733,"738":0.021316731752940736,"739":-0.015213684558413494,"740":-0.0923610594077155,"741":-0.20115555870272814,"742":0.10699418020376134,"743":0.15731236308247004,"744":0.011936982380670693,"745":-0.06895125103352084,"746":-0.1330387767487338,"747":0.0026322318990018717,"748":0.018505143895828868,"749":0.057894376975223635,"750":0.14826102977508085,"751":-0.14994001520737665,"752":-0.007634986336272742,"753":-0.11771144193805655,"754":-0.06579268561311516,"755":-0.1298442748600775,"756":-0.07675897913787724,"757":0.18012239545512337,"758":-0.10690605725479091,"759":0.14595264962959853,"760":0.021181312405935765,"761":0.015563153093749699,"762":-0.15711374521112817,"763":0.13483321852823366,"764":0.049143251400974475,"765":-0.0088939352113653,"766":-0.07955381180088485,"767":0.028232038624177336,"768":0.07551127452408891,"769":0.13093654514833114,"770":0.0013015461342898616,"771":0.06613586006457518,"772":-0.16300230863517037,"773":-0.012427513656057015,"774":-0.05521185540087138,"775":0.14748594639444906,"776":0.1797363908347626,"777":0.12931323569636277,"778":0.02259068703254784,"779":0.135856623934986,"780":-0.08745741849343079,"781":0.05379255815251682,"782":-0.006383067096047579,"783":-0.1164735012046279}},"3":{"bias":0.08728248703617743,"weights":{"0":-0.17847140442933088,"1":-0.02184221495688901,"2":0.07070647365576271,"3":-0.15105746854802052,"4":0.06978821902412735,"5":0.09796684688498869,"6":-0.07719572808556725,"7":-0.047111667263161294,"8":0.1632646036096218,"9":-0.19638269003491404,"10":0.1554178609265368,"11":0.101517588248967,"12":0.1492731789789225,"13":0.1319076194047032,"14":0.06419673260729697,"15":0.11351609089288361,"16":0.16712569252586967,"17":-0.18164000752237391,"18":0.008357606339028129,"19":-0.1719561289288902,"20":0.19027780090639396,"21":-0.04520227903290372,"22":0.16228996911815702,"23":0.08935044190911529,"24":-0.01811410638476349,"25":0.1601906134392252,"26":0.1289073168693894,"27":-0.08554232638939939,"28":0.08349169489025898,"29":-0.17324414835034718,"30":0.11170370362275178,"31":0.054143074267587465,"32":0.10484313466256129,"33":-0.169278855441923,"34":0.15596383057454294,"35":-0.046060569679425206,"36":0.0698900623798314,"37":0.15375064151261142,"38":-0.05591239972620489,"39":0.12416123392645392,"40":-0.17344923563071676,"41":0.06288122882518477,"42":-0.18326933707301202,"43":0.10737894889139059,"44":0.03921403374187571,"45":0.17291658002913327,"46":-0.16017089897519327,"47":-0.07585723692802075,"48":0.19508040971100707,"49":-0.005908895199145399,"50":0.06655035223958425,"51":-0.11044688115316924,"52":-0.1858362929648293,"53":0.09751959156516332,"54":-0.18065499423653408,"55":-0.09021082238598499,"56":0.16629680723821239,"57":-0.1729893778798739,"58":-0.0942110592802644,"59":0.009794774728386996,"60":0.15369027750575615,"61":-0.14907570190939334,"62":0.06468359221159528,"63":-0.17830194864585994,"64":-0.14841455124862313,"65":0.153277990583166,"66":-0.08882931236395418,"67":-0.09761158424322387,"68":-0.032633477325417826,"69":0.021029116566396285,"70":-0.01881299454644801,"71":-0.14747920404025047,"72":0.18993177818217366,"73":-0.1766157539388699,"74":-0.12721907495200002,"75":0.058165177500032535,"76":-0.11235314791029648,"77":0.1874663377206606,"78":0.12458352873772802,"79":-0.0044401710280973184,"80":-0.0000029353874512572657,"81":-0.1034881718397692,"82":0.03945899760315691,"83":0.1261390434557077,"84":0.1361060206148002,"85":0.19128480321045055,"86":0.1911244916033737,"87":-0.12092405263044821,"88":0.06952565754951287,"89":-0.16682256591916833,"90":0.1894640557701299,"91":0.0477356097552817,"92":-0.09412036453870996,"93":-0.07576777193172111,"94":-0.03511624208481397,"95":-0.1569357528787067,"96":-0.09109438661851232,"97":-0.0006791279030660064,"98":-0.10520014057097617,"99":0.023160192503074842,"100":-0.12808543169366313,"101":0.1666519126052696,"102":-0.003446058523230189,"103":-0.1550517616279944,"104":0.13211909648044412,"105":-0.022304958076992634,"106":-0.1117036639340031,"107":-0.030060891636343803,"108":0.1431766610932387,"109":-0.13624888458333198,"110":0.16372597893037855,"111":-0.08823206212598134,"112":-0.17683039540378456,"113":-0.08694508007322198,"114":0.0027597803913077534,"115":-0.13127449706880057,"116":0.06473990927257377,"117":0.11517148588632474,"118":0.10885472369758475,"119":-0.12205244849660146,"120":0.0179049850458589,"121":0.08823047203143668,"122":-0.16122487902523466,"123":0.03721361795565224,"124":-0.14827595296829837,"125":-0.04704353679331869,"126":-0.17874544630963227,"127":-0.1694670915746708,"128":0.005305100083846335,"129":0.03230432609675806,"130":-0.009870286490036467,"131":-0.07359881432558335,"132":0.13713784926103953,"133":0.1646900808936982,"134":0.15202359453400163,"135":-0.10315473677243156,"136":-0.09827350410765756,"137":0.033751613001406756,"138":-0.14332069842191245,"139":-0.02573237982059498,"140":0.028990547519373855,"141":0.10821421008958582,"142":0.12852945609903593,"143":-0.13099094078825435,"144":-0.027775051739954697,"145":0.15349660993220784,"146":0.12686964062243178,"147":-0.18148335038354865,"148":-0.21311564762879348,"149":-0.14815979091601955,"150":0.06132889033521824,"151":0.06826652838959776,"152":-0.21150375891836168,"153":-0.21333809558249162,"154":-0.16883300395059903,"155":0.04400978787236171,"156":-0.30461071106833704,"157":-0.34559165786688956,"158":-0.2994286071039116,"159":-0.21045632472793663,"160":-0.11996452146751461,"161":-0.08146801059426144,"162":-0.15813747484029503,"163":0.12757902005881,"164":0.04773407664367189,"165":0.1630420729381557,"166":0.18315430150349024,"167":0.08642059556818953,"168":-0.15729429300847794,"169":0.1878127862539456,"170":-0.05554642352114852,"171":0.17440425285850092,"172":-0.07020427854249135,"173":0.07114483257774061,"174":-0.17967705917875607,"175":-0.2149361408347575,"176":-0.09152665069437459,"177":0.001693844803274635,"178":-0.020066458210890446,"179":-0.0536484303125234,"180":-0.22756797761028436,"181":0.029806476684913492,"182":-0.21667744742571826,"183":-0.17796932828891315,"184":-0.008041755440527074,"185":-0.08337374188697781,"186":-0.13043689702211453,"187":-0.06016190867533981,"188":-0.18730175474818644,"189":0.08045954593975993,"190":0.2019401021620672,"191":0.09588829783430183,"192":0.11867035913538919,"193":0.03744293937359284,"194":0.1946564463016143,"195":0.04245497626974562,"196":0.15765040791728938,"197":-0.1314574282491276,"198":0.040768268916076295,"199":-0.12434424265645748,"200":0.07073259036882973,"201":0.1328030418829174,"202":0.11020953802555325,"203":0.03444443301618514,"204":0.061859470668659974,"205":0.18399983204737103,"206":0.026090029721054144,"207":-0.04531594235243788,"208":0.01815783573005985,"209":-0.1427923192175704,"210":0.059153489613642876,"211":0.03692738048623044,"212":-0.009909635482808443,"213":-0.1070196764536211,"214":-0.045533479953897414,"215":-0.050136284383693455,"216":-0.0013842426064068205,"217":0.09614953115575132,"218":0.06640227018538018,"219":0.018244087285367642,"220":-0.09614516271480462,"221":0.16029656555379146,"222":-0.11205593275818067,"223":0.1136534940161865,"224":0.11338450275530734,"225":-0.14595677168078552,"226":-0.012255654866349485,"227":0.05529907067468309,"228":0.005693264147051477,"229":0.1904920304574517,"230":0.14213561694193766,"231":-0.06229732892502468,"232":-0.05949407945901095,"233":-0.04801704359334584,"234":-0.02383059497588479,"235":0.013124676386031478,"236":-0.10355671992551056,"237":0.10409915611591938,"238":0.18893428429381195,"239":0.07628252963509283,"240":0.28347365901164395,"241":-0.06957998067263785,"242":0.2502006252029785,"243":0.2703922939720414,"244":0.28755646429061266,"245":0.24960572616838078,"246":0.07842328343891251,"247":-0.057196035396424406,"248":0.08420446287741723,"249":0.1927746325136661,"250":-0.1504686399302086,"251":-0.004147422546633563,"252":0.11772423689329675,"253":-0.17016774076754676,"254":0.1991111449088329,"255":0.10705086169669553,"256":-0.08415695996961602,"257":0.035334823746522165,"258":0.011118547997960337,"259":0.17058817414254246,"260":-0.018968951049529028,"261":0.06690130627886809,"262":0.01730483681624154,"263":0.08392866046511571,"264":0.05291549822176411,"265":0.2331976897239554,"266":0.061865596375613244,"267":0.32809313253568395,"268":0.39082985633749046,"269":0.2941037297628174,"270":0.19874045936781293,"271":-0.06695364088003875,"272":0.10657849575317861,"273":-0.060292435902382695,"274":0.16369849233089773,"275":0.2401937313459247,"276":0.21644809262134718,"277":0.004710313459044089,"278":-0.15024592299616474,"279":-0.07527043609772224,"280":-0.022553793228161645,"281":0.020822629333314614,"282":0.11657269906617261,"283":0.0384617475908503,"284":-0.05644608282732105,"285":-0.09717453407743543,"286":-0.09416383329734257,"287":-0.1166164284069531,"288":-0.11300149061591723,"289":0.045170417684502015,"290":-0.186414027509511,"291":0.07142924976380484,"292":0.03524079526233382,"293":0.001431264911464092,"294":0.18614426858502003,"295":0.2801902152789094,"296":0.3948555999138874,"297":0.15523536997871157,"298":0.10680267126891047,"299":-0.057175142660674846,"300":0.17344950204612072,"301":-0.016439367142000023,"302":0.1017889663012393,"303":-0.11215530706981286,"304":0.08735194228981356,"305":0.005377077557762857,"306":0.1587186022306723,"307":-0.11956352347565025,"308":-0.13270861345010604,"309":0.07269145593698728,"310":0.1812624235195522,"311":0.22477797169110675,"312":0.05406498280053734,"313":0.12631594249630035,"314":-0.04814712189870259,"315":0.11485204340271844,"316":-0.007688456784854075,"317":-0.16503508561837582,"318":-0.2186014010551639,"319":0.13970489738729816,"320":0.19402486614720335,"321":-0.03249159398704875,"322":0.05897709933006813,"323":0.18425391633147634,"324":0.21310385867903417,"325":0.19459015813043992,"326":-0.05013416726529088,"327":0.020415527542202987,"328":-0.2690444486442186,"329":-0.23006072990858914,"330":-0.23690390617882354,"331":0.05073538573743923,"332":-0.16091155855815567,"333":0.06578021370376566,"334":-0.042041742612916225,"335":0.024406324251519493,"336":-0.16578978789892043,"337":-0.16406833843664595,"338":-0.1127520002511745,"339":0.07025925083322997,"340":-0.13053111486727373,"341":-0.010588027657576491,"342":0.07991153971249676,"343":0.10366248743961382,"344":0.11084473548995145,"345":-0.18887464366550907,"346":-0.1348399351738819,"347":0.016018395898394665,"348":-0.15127082326749347,"349":-0.2366135165963744,"350":0.00591746354552519,"351":-0.29183851898621727,"352":-0.22926057042044792,"353":-0.1170369624956388,"354":0.0395138331068687,"355":0.0683234020273892,"356":-0.1431072209132448,"357":-0.20646927411807614,"358":0.08064198720761223,"359":0.053457690518913054,"360":-0.09909921663499831,"361":-0.16994134812482906,"362":-0.0037948180221226042,"363":-0.07839637800969264,"364":0.14012972199136237,"365":-0.003267325398114455,"366":0.037234878260192845,"367":-0.1798123136357419,"368":0.2180481845404813,"369":0.08794201586826797,"370":-0.16968122568947278,"371":-0.07758655858406885,"372":0.06604783474704011,"373":-0.006669023838464203,"374":-0.17760933131612458,"375":-0.1678547314828577,"376":-0.2654471899470746,"377":-0.3346108856887789,"378":-0.20590073464158729,"379":-0.35875733308583324,"380":0.04560119785201527,"381":-0.2394370025043541,"382":-0.055999335636154224,"383":-0.09318659527626033,"384":-0.19000114201541207,"385":-0.16639050897700025,"386":0.10038521718194442,"387":0.029577743247420282,"388":-0.14434133451404824,"389":0.1612107557628073,"390":-0.18176481732104455,"391":0.18199359523535552,"392":-0.0375552890503526,"393":-0.0446203486670328,"394":0.04594574946980377,"395":0.11856370579959466,"396":-0.08543078755659043,"397":-0.11908001272834089,"398":-0.11316178618469064,"399":-0.1841374206990352,"400":-0.04627386425863319,"401":-0.15066689192429544,"402":-0.33942605665816744,"403":-0.37898218096597497,"404":-0.4173943525344487,"405":-0.1597728466219036,"406":-0.38587514563479863,"407":-0.25934541998854477,"408":0.12307533229530279,"409":-0.26817929367025045,"410":-0.03725833889955795,"411":-0.1377415415600982,"412":0.107273307536685,"413":-0.10511579144721403,"414":-0.028008626415372922,"415":-0.24241117706287643,"416":-0.18362862491247103,"417":-0.1250665344839795,"418":0.14548122714207384,"419":0.10963110403527104,"420":-0.1594553320676383,"421":-0.053761599557081215,"422":0.09513181065380343,"423":0.08581845613311638,"424":0.0707005364100919,"425":0.12693233843738125,"426":0.06519318771232856,"427":0.025146423950947936,"428":-0.16741668813411514,"429":-0.2306282542532575,"430":-0.1122573789969511,"431":0.024118900599869212,"432":-0.029503130995359707,"433":-0.2942882893596042,"434":-0.24061246254535007,"435":0.01183357940850469,"436":-0.19518631329857325,"437":-0.020034120855943055,"438":0.1779245638096064,"439":-0.11262602879080903,"440":0.12208242411806078,"441":-0.13091494854776314,"442":0.026709436085957234,"443":0.04969890388957468,"444":-0.19721255735446347,"445":0.04921073793114301,"446":0.09934143735439567,"447":0.1673856188517206,"448":0.0766959414031046,"449":0.04389863472292399,"450":-0.17523802877236772,"451":-0.11703907005437265,"452":-0.08202410344417622,"453":0.04017229460664178,"454":-0.021320480123308203,"455":-0.1811965039907154,"456":-0.24678047788127622,"457":-0.27264152135968295,"458":-0.19427941775487573,"459":-0.06603019926375929,"460":0.09759085751519232,"461":-0.23125026630171144,"462":-0.10095249701061128,"463":0.08218284790607387,"464":0.07077832094148999,"465":-0.11271905790325822,"466":0.2072161314197151,"467":0.1951921387040744,"468":-0.004274586473854038,"469":-0.16867687658118957,"470":-0.1525318811238275,"471":-0.16812423649969863,"472":0.12293975573875161,"473":-0.09189274474846171,"474":-0.06940606640384982,"475":-0.029621414133922816,"476":0.0706590909354331,"477":-0.19442938552523206,"478":-0.09406369574588683,"479":0.0090310185907969,"480":-0.14611572039014725,"481":-0.05244716211101074,"482":-0.21844664736379968,"483":-0.008323033598993647,"484":-0.03882012467707405,"485":-0.21059623758264578,"486":0.041982148452605055,"487":-0.05657522348360258,"488":0.07688045840147678,"489":-0.12099755982072488,"490":0.09099107711182282,"491":0.1962906569602819,"492":0.008235023032278726,"493":0.023062097798056423,"494":-0.12948083710300928,"495":-0.08720880557659795,"496":0.11647759960125045,"497":0.1491978173513347,"498":-0.192840143386652,"499":-0.10705504612497191,"500":0.14088892028405342,"501":-0.07050796102161387,"502":0.02690134030875555,"503":-0.06443207238575709,"504":-0.1396884269066918,"505":-0.09849657083696446,"506":-0.06615594396502458,"507":-0.05037325905892804,"508":0.12682022675090024,"509":-0.023419716940614094,"510":-0.01428169859232754,"511":-0.1744809101519394,"512":-0.22034001360041736,"513":0.0031439137670811004,"514":-0.18349299724324214,"515":-0.29391909171339736,"516":-0.21105969340177674,"517":0.1543479627704831,"518":0.20975021235143984,"519":0.09091892132469995,"520":0.1705019462173929,"521":-0.18290223497614427,"522":-0.140114662957946,"523":-0.20848634686577228,"524":-0.008632555774757992,"525":0.0848202908921255,"526":0.1415014494098937,"527":0.0534636289266398,"528":-0.19330821933277256,"529":0.0036452616028620215,"530":0.01933748359812824,"531":-0.18300225825428593,"532":0.04932030550631339,"533":0.07514128295456707,"534":-0.19283393085523964,"535":-0.10796993574616667,"536":0.05330373868110596,"537":-0.19855652673009447,"538":-0.05643766109431044,"539":0.10413687248447516,"540":-0.08885045549175785,"541":0.03881342819863223,"542":-0.12839212706950062,"543":0.07884669244490905,"544":0.16872230718827566,"545":0.23769460914166432,"546":0.19875291012405147,"547":-0.13865267442271118,"548":-0.22197327319444352,"549":-0.08086929310388224,"550":-0.21289214917808252,"551":-0.00837381041417149,"552":-0.09631398296708316,"553":0.088614839223391,"554":0.14086761501981368,"555":0.18957476425884967,"556":0.1315634071580692,"557":0.11519447413450738,"558":-0.17950174500400304,"559":0.021416628647409196,"560":-0.11759403793331807,"561":-0.14596037342971277,"562":-0.15041239678002738,"563":-0.17973859421652447,"564":-0.1066386552074912,"565":-0.10825654885309292,"566":0.06032246502336488,"567":-0.044721294103778474,"568":0.19756830214690316,"569":0.0885979118450796,"570":0.17310479014194965,"571":-0.06462356452721149,"572":-0.04495216900742191,"573":0.20462524385651396,"574":-0.1450613883802766,"575":-0.07158044825291082,"576":0.08894364400764997,"577":-0.03144631248768645,"578":0.026126249029053094,"579":-0.23150381673184423,"580":0.005760548698524963,"581":0.06389605973715486,"582":0.1860649745729135,"583":-0.17201809881705865,"584":0.12391200152431935,"585":0.11404433233263353,"586":-0.05603760602163081,"587":-0.08977014328972809,"588":-0.09674204993608378,"589":-0.15480800306080722,"590":-0.14342327293989393,"591":-0.2004453244154571,"592":-0.036152577347916805,"593":0.11548543440893758,"594":-0.03876662164766285,"595":-0.04685898790179649,"596":-0.12159299396912922,"597":0.0699541619890264,"598":0.12662785074191615,"599":0.014051341018887551,"600":-0.031233317366962773,"601":-0.015000410730318185,"602":0.13536677035813144,"603":0.06769047413396993,"604":-0.0944517556213248,"605":-0.1659994362861296,"606":-0.17364459494379514,"607":0.05489717173630573,"608":-0.0023767787527347113,"609":0.06098477659064581,"610":0.1056373154968262,"611":0.11870574409033129,"612":0.03135627789987833,"613":0.1332183517173869,"614":0.05971250597392347,"615":0.0406798458986562,"616":-0.12655331188572932,"617":-0.14311827222920404,"618":-0.09576068953914066,"619":-0.10833824547417902,"620":-0.01902258364272074,"621":0.02996929871539856,"622":-0.11100475994502214,"623":-0.17278298764286754,"624":0.023737471014916346,"625":-0.16580049368509162,"626":-0.02377269170756925,"627":-0.08842414354044921,"628":-0.030677644346507542,"629":-0.048856563909500154,"630":0.08859661962944458,"631":-0.20064699993328955,"632":-0.08900121745788692,"633":-0.05247973330454526,"634":-0.07730204973930349,"635":-0.10241175417824551,"636":-0.17940237746613286,"637":-0.13564371506346734,"638":-0.08603069320086404,"639":0.0825683147786442,"640":-0.0015542962696115724,"641":-0.1313215996972348,"642":-0.0636267559079519,"643":0.170356930758288,"644":-0.10626679749515883,"645":-0.10584084669972907,"646":-0.07166004291352829,"647":-0.17400544156308898,"648":0.03444458951788507,"649":0.06349803399166871,"650":-0.0877336088874593,"651":0.01976960922045156,"652":0.007951540997733682,"653":0.010063446046982623,"654":0.1691132679704434,"655":-0.14141974361559828,"656":0.10538094296935797,"657":0.044890519985693635,"658":-0.1196887731154617,"659":0.09916158027139252,"660":-0.06336635243385852,"661":0.1331066782436508,"662":0.10641396622164108,"663":-0.19813000547052884,"664":-0.16349839032733068,"665":0.06108102796635166,"666":-0.20345031151367252,"667":-0.10600830571569987,"668":-0.10598124799277077,"669":-0.043684830855251607,"670":-0.11861203376449636,"671":0.15491166506927068,"672":0.09754224761926428,"673":0.10159776941596527,"674":0.04244224590878315,"675":-0.09195821678772449,"676":-0.10389530191903207,"677":-0.044536689648029634,"678":-0.16066587607582566,"679":0.15606729865835675,"680":0.18153222495070873,"681":0.18854168717352018,"682":0.2220410518672108,"683":0.026169579411970182,"684":-0.1762693257122871,"685":-0.14326965573345996,"686":0.09832949997869873,"687":-0.03223769183448589,"688":0.02918843014828047,"689":-0.08397351949008869,"690":-0.12941807344269413,"691":-0.03502971643014886,"692":-0.07755587116590207,"693":-0.17938374584917727,"694":-0.08518023358993139,"695":0.18051473415626623,"696":-0.07148158668363765,"697":-0.17122159546295307,"698":0.06827296479985623,"699":0.02815127227700992,"700":0.16758513434988487,"701":-0.12141438264310996,"702":-0.046082871363450184,"703":0.19050231922309438,"704":0.052575976078119646,"705":-0.09539993160049924,"706":0.08006535086978973,"707":0.12895965286656022,"708":0.19767738092306492,"709":-0.013750578685580049,"710":0.1503805593967168,"711":0.2982361734814713,"712":0.0758081578168093,"713":0.236077539722956,"714":-0.08412594376845098,"715":0.018085984953320436,"716":0.20100803012104657,"717":0.11930783550537795,"718":-0.11730200098847733,"719":0.004839214980591434,"720":0.09452215564159877,"721":0.1438335293296134,"722":0.09985220042007918,"723":0.010358476636311073,"724":0.05164160413366729,"725":0.043506121508846196,"726":-0.15566839528590723,"727":-0.17801687531858257,"728":0.14309592964291035,"729":0.15663067438070594,"730":-0.0015779110335557012,"731":-0.15294350678319624,"732":0.11894562464089777,"733":0.13089344338387382,"734":-0.12202109179836729,"735":-0.14293010677929444,"736":0.12155196221781066,"737":0.15216536738212338,"738":0.08286516457677418,"739":-0.05905819136822421,"740":-0.14632244715988682,"741":0.12002415406827652,"742":0.05278699530560843,"743":0.05480530769759547,"744":-0.09375903323217538,"745":0.03939678038230894,"746":-0.02793580151677264,"747":0.10131255387323046,"748":0.14003852023625168,"749":0.030769734202124022,"750":0.17747985216335913,"751":-0.17643611311251742,"752":-0.0022354421989737305,"753":0.1453014649938747,"754":0.1627485126188309,"755":-0.045587081716174704,"756":-0.060120960011218916,"757":0.08656817626003566,"758":-0.13303166331155136,"759":-0.18422453719862528,"760":-0.10143028652528781,"761":0.09049787017028724,"762":0.16043825726139668,"763":0.07088602714429179,"764":0.12682271558000247,"765":-0.13778570991081926,"766":-0.006048793602086417,"767":-0.18430107297553905,"768":-0.0022634277508729,"769":-0.09290075178789728,"770":0.01789576272517879,"771":-0.05746973099188826,"772":0.0008581198631317427,"773":-0.031032785147403864,"774":-0.07913238577963784,"775":-0.14624622684265434,"776":-0.13429846617649965,"777":0.19511494920821743,"778":-0.06293703089328034,"779":-0.16386913116529955,"780":0.1693652219217489,"781":-0.19675336698347845,"782":-0.11530218949601655,"783":0.05535375723973779}},"4":{"bias":-0.04203554861379158,"weights":{"0":-0.19358952234535476,"1":0.0043066923835531346,"2":-0.07406529537565376,"3":0.09719402520080234,"4":0.19750942826682127,"5":-0.1303904530733062,"6":-0.11489424629818848,"7":-0.1059627857589458,"8":0.13069694992012898,"9":0.154077926770401,"10":-0.16393632734279404,"11":-0.019799388167118875,"12":-0.06824491556745996,"13":-0.12952774973899323,"14":-0.08360517902455317,"15":0.18734363203358573,"16":0.19125489234594034,"17":0.19415402318540204,"18":0.1598409109979791,"19":-0.169074030266233,"20":-0.07720612792377342,"21":-0.13616070804577635,"22":-0.16839231399887364,"23":0.13295593065529437,"24":-0.08823205981974401,"25":-0.061904196528696165,"26":0.002985694883297002,"27":0.018805099894255578,"28":0.18752092644007085,"29":-0.15704946391933144,"30":-0.09567870524286173,"31":0.11525935442781776,"32":-0.16259122762079567,"33":0.16732609713489338,"34":-0.19697342217134547,"35":-0.1971733400750864,"36":-0.09688932673691347,"37":-0.07098548094201342,"38":-0.19439108137347288,"39":-0.09976067127573054,"40":0.04459998182359211,"41":-0.19512591314899322,"42":-0.15920440002590938,"43":0.034940577750796765,"44":0.03533104850582548,"45":-0.14500686706224195,"46":0.12654176933874894,"47":0.12299565482200456,"48":0.19656113711529605,"49":-0.19430451730357098,"50":-0.05789007024748119,"51":0.061783465228120615,"52":-0.15748652148709025,"53":0.007496830770984342,"54":0.07046684096067646,"55":-0.12924632995014662,"56":0.15630638068074748,"57":-0.09558918546347953,"58":-0.19693484788211038,"59":-0.1086867544233182,"60":0.17657263983163476,"61":0.007658283892376257,"62":0.12218739845948418,"63":-0.17090752467892276,"64":-0.08543566761119142,"65":-0.17030552067455176,"66":0.04399169094321547,"67":0.010593764708902456,"68":-0.16254878134350323,"69":-0.08196421254768764,"70":-0.07720946421275778,"71":0.1469074249577258,"72":-0.1634401601051034,"73":-0.04515631897660225,"74":-0.04682627622537806,"75":-0.08438531211376757,"76":-0.12889620815770866,"77":-0.019091494173494334,"78":-0.14265236515630075,"79":0.022930059111759625,"80":-0.11295045150242908,"81":0.10816954744734747,"82":-0.025988788024615683,"83":0.0011531774056709188,"84":0.18731913907570635,"85":-0.19122345800224727,"86":0.11446815504146157,"87":0.09427041749452802,"88":-0.0820698504192743,"89":0.12269984638024205,"90":0.06816774722740139,"91":-0.06548659356031919,"92":0.07922465356689835,"93":0.007763438550354595,"94":0.03434359767703316,"95":-0.0609055451628501,"96":0.13421492790176692,"97":0.07403735592557353,"98":-0.20127913149894172,"99":0.045496044969984224,"100":-0.10887859223676662,"101":0.14699186464699732,"102":0.14448841401223775,"103":0.11867881139986097,"104":-0.12577577333916473,"105":0.10617838740329989,"106":0.16540724368479984,"107":-0.060293605745654004,"108":0.0771653650169971,"109":0.19383882058785418,"110":0.014786707784253394,"111":0.19379265018141628,"112":-0.08324026215161046,"113":0.06545811270352198,"114":-0.011938688109981388,"115":-0.12479027576292302,"116":0.04247796620369017,"117":-0.187229516288968,"118":-0.15919979317279964,"119":-0.17310952440897073,"120":0.07172853299199763,"121":-0.1311396763553612,"122":-0.145887131115549,"123":-0.1675517120141119,"124":0.10727305558195264,"125":-0.06924359996848246,"126":0.07383359401006352,"127":-0.1253910746667289,"128":-0.04682656784256542,"129":-0.17027927876574991,"130":-0.055497544740212415,"131":0.16466668480885055,"132":-0.07610773086474795,"133":0.013785226318830193,"134":0.14329828861317775,"135":0.14105035943921576,"136":0.1857661740614853,"137":-0.11019533475387822,"138":-0.18089452422960178,"139":-0.14560655187046906,"140":-0.016805667966603016,"141":0.08806631693918687,"142":0.1518957221949696,"143":-0.1999321396475422,"144":0.14991718493545864,"145":0.17271931112896177,"146":0.01970331325743795,"147":0.17168689416990265,"148":0.10414629179527475,"149":0.12571194368777022,"150":0.07163587770340378,"151":0.09284284883860673,"152":-0.07177532760701805,"153":-0.10658481507501076,"154":-0.2093136163841281,"155":0.0978799818945702,"156":-0.22415668089283397,"157":-0.10290556306179582,"158":0.01629009301291121,"159":0.12361077868968338,"160":0.09139960114787382,"161":-0.19256879672046545,"162":-0.005755795317910294,"163":0.04590010933872911,"164":0.08111823679484721,"165":0.10374929472176425,"166":0.16932307021509072,"167":0.11534972493163666,"168":-0.0686379815235938,"169":-0.18794376889662232,"170":0.0501878954560229,"171":-0.20033618167872774,"172":-0.1569991998166667,"173":-0.0938210000877293,"174":-0.06422744114597445,"175":-0.1949113412989269,"176":-0.009054330307633732,"177":-0.10735916981338041,"178":0.08455826774706729,"179":-0.1592831460374606,"180":-0.15649396588783282,"181":-0.10059790529128394,"182":-0.20522655851046132,"183":0.07312570843140231,"184":-0.15246051767000515,"185":0.05300513093701178,"186":-0.21610504292964652,"187":0.05551522662015635,"188":-0.23055270223244342,"189":0.09713836347704417,"190":0.15429615861807416,"191":-0.17486829724464892,"192":-0.09658817937342909,"193":-0.040198585124182507,"194":0.10445466803867014,"195":0.1726103606324495,"196":-0.12556215520836056,"197":-0.007315571802876636,"198":0.008158039507986166,"199":0.07785113702879787,"200":-0.15063470043442806,"201":0.08810041442158886,"202":0.16489044346311252,"203":-0.008103470434908971,"204":0.03800851029614625,"205":-0.05294465051715227,"206":-0.026496710986762206,"207":0.19459144940389736,"208":0.1818073902754368,"209":-0.08621899194844955,"210":-0.07897551138673466,"211":-0.20576669783305823,"212":-0.10813042264680568,"213":0.013125503621050248,"214":0.13574001909823868,"215":-0.0254479449694638,"216":-0.07098813997996643,"217":0.08840987060092888,"218":-0.12867154284457497,"219":0.16448925638857778,"220":0.06576204490395814,"221":-0.10305469020658116,"222":0.16596342830367453,"223":-0.005549916793423947,"224":0.09018194391169058,"225":0.1836587734191881,"226":-0.030261263964088278,"227":-0.09344698631866893,"228":-0.051186201301352756,"229":-0.1148768320968664,"230":-0.04953181694265423,"231":0.22150280751107396,"232":0.06558429558279233,"233":0.07789789720820368,"234":0.04091232716139089,"235":-0.000605826710500168,"236":0.03427130767252689,"237":0.07609253007448273,"238":-0.10830821131552518,"239":0.0791115790521371,"240":0.21499731151193216,"241":-0.1107666624973582,"242":0.01692749765729117,"243":-0.1550788535367734,"244":0.057540614109813065,"245":0.14521904620873635,"246":0.10369997002226584,"247":-0.050112652479598285,"248":-0.1848699622749926,"249":0.009440729222571437,"250":-0.16822217614974144,"251":-0.08057622897393256,"252":0.05819339960476473,"253":0.03018511915510154,"254":0.1980494811916689,"255":0.051899608767310174,"256":0.1540757837960233,"257":0.08268940702335825,"258":-0.11781115709801741,"259":0.17151105486015666,"260":0.0628024081219978,"261":0.052701917703021656,"262":-0.025087697491064258,"263":0.13311191218150173,"264":0.13619884860513978,"265":0.16102161367532625,"266":0.0021704261263981815,"267":-0.07713380823925317,"268":0.035097894384898326,"269":0.23962880268375436,"270":-0.0718446800503175,"271":0.020278283097784087,"272":0.08473907852651955,"273":-0.17696726873238822,"274":0.19016067646003995,"275":0.06918741058199734,"276":-0.042033980432042074,"277":0.1602471589761595,"278":-0.11354666558819572,"279":0.19799310342247212,"280":0.18439296815722567,"281":-0.09881393930403108,"282":-0.11761966758481492,"283":-0.15640152861924872,"284":0.014658624285554162,"285":0.24910718908084004,"286":0.26188664024058883,"287":0.07986956709317075,"288":-0.05040665039918349,"289":-0.15103979739676726,"290":-0.09067036583346559,"291":0.0445935427487789,"292":0.2334889289216337,"293":0.21554425937402755,"294":0.21228513802555476,"295":-0.04144178378385621,"296":0.22002357967493613,"297":0.15558665729385424,"298":-0.001039065047626283,"299":0.03788610955864944,"300":0.12693159557025477,"301":-0.06684774924831666,"302":-0.1228557168192045,"303":0.16940469289697804,"304":-0.015372592845800002,"305":-0.13735958476109042,"306":-0.02623884452004702,"307":-0.1032862765428471,"308":-0.06542241702640511,"309":-0.12078059676786504,"310":-0.12276283422982416,"311":0.17594692438645113,"312":0.028930129055902164,"313":-0.14783171372718285,"314":0.1065387881967809,"315":-0.09546314255181589,"316":0.06963421946098415,"317":-0.028628920160490005,"318":0.09740262461794288,"319":-0.11860087054065307,"320":0.01913116976012939,"321":0.1603142237296953,"322":-0.11832073306860234,"323":-0.12165784128896062,"324":-0.13972728718876332,"325":0.00003941815182558704,"326":0.22975215033932003,"327":0.1063622078451545,"328":-0.16659313624821298,"329":0.16404535287291178,"330":-0.1753783008056736,"331":0.16322706392868117,"332":0.09588521847902438,"333":-0.1638486998983197,"334":0.040104198798743065,"335":0.1670175522395642,"336":-0.13384289278987022,"337":0.017659719202674194,"338":0.0674390652116971,"339":0.20128627196855894,"340":0.09129424926296743,"341":-0.12152250518149325,"342":-0.02572042208317826,"343":0.0611732069274275,"344":0.19029286990814284,"345":-0.12354396264290572,"346":-0.022964694790957658,"347":-0.007893897875194511,"348":-0.24477418998725972,"349":-0.027447969529257245,"350":-0.3380684872574584,"351":-0.23620646944174853,"352":0.042356419760994,"353":-0.054759096318579364,"354":-0.04954272807041399,"355":-0.0075889967378295845,"356":0.11030657704144264,"357":-0.18771615255536395,"358":0.170795844626144,"359":-0.022756606062572855,"360":-0.09830089277567065,"361":0.029131119133689442,"362":-0.1104578898322248,"363":-0.008899555644478618,"364":-0.07612042811604135,"365":-0.18557547968531504,"366":-0.18086370729292023,"367":-0.1345776368972858,"368":0.1381684903368573,"369":-0.07884203014434372,"370":-0.11378005983966519,"371":-0.18001186905558356,"372":0.01047664548177878,"373":-0.05106238005680056,"374":-0.15407217310773552,"375":-0.3133940332640195,"376":-0.18245224841576319,"377":-0.4409147107952365,"378":-0.3783999016684126,"379":-0.15217171962533133,"380":-0.18809010209781246,"381":0.16908012908656705,"382":-0.07347890341666855,"383":-0.21806095192532182,"384":0.11250323282488028,"385":0.10025670796378137,