{"layers":[{"0":{},"1":{},"2":{},"3":{},"4":{},"5":{},"6":{},"7":{},"8":{},"9":{},"10":{},"11":{},"12":{},"13":{},"14":{},"15":{},"16":{},"17":{},"18":{},"19":{},"20":{},"21":{},"22":{},"23":{},"24":{},"25":{},"26":{},"27":{},"28":{},"29":{},"30":{},"31":{},"32":{},"33":{},"34":{},"35":{},"36":{},"37":{},"38":{},"39":{},"40":{},"41":{},"42":{},"43":{},"44":{},"45":{},"46":{},"47":{},"48":{},"49":{},"50":{},"51":{},"52":{},"53":{},"54":{},"55":{},"56":{},"57":{},"58":{},"59":{},"60":{},"61":{},"62":{},"63":{},"64":{},"65":{},"66":{},"67":{},"68":{},"69":{},"70":{},"71":{},"72":{},"73":{},"74":{},"75":{},"76":{},"77":{},"78":{},"79":{},"80":{},"81":{},"82":{},"83":{},"84":{},"85":{},"86":{},"87":{},"88":{},"89":{},"90":{},"91":{},"92":{},"93":{},"94":{},"95":{},"96":{},"97":{},"98":{},"99":{},"100":{},"101":{},"102":{},"103":{},"104":{},"105":{},"106":{},"107":{},"108":{},"109":{},"110":{},"111":{},"112":{},"113":{},"114":{},"115":{},"116":{},"117":{},"118":{},"119":{},"120":{},"121":{},"122":{},"123":{},"124":{},"125":{},"126":{},"127":{},"128":{},"129":{},"130":{},"131":{},"132":{},"133":{},"134":{},"135":{},"136":{},"137":{},"138":{},"139":{},"140":{},"141":{},"142":{},"143":{},"144":{},"145":{},"146":{},"147":{},"148":{},"149":{},"150":{},"151":{},"152":{},"153":{},"154":{},"155":{},"156":{},"157":{},"158":{},"159":{},"160":{},"161":{},"162":{},"163":{},"164":{},"165":{},"166":{},"167":{},"168":{},"169":{},"170":{},"171":{},"172":{},"173":{},"174":{},"175":{},"176":{},"177":{},"178":{},"179":{},"180":{},"181":{},"182":{},"183":{},"184":{},"185":{},"186":{},"187":{},"188":{},"189":{},"190":{},"191":{},"192":{},"193":{},"194":{},"195":{},"196":{},"197":{},"198":{},"199":{},"200":{},"201":{},"202":{},"203":{},"204":{},"205":{},"206":{},"207":{},"208":{},"209":{},"210":{},"211":{},"212":{},"213":{},"214":{},"215":{},"216":{},"217":{},"218":{},"219":{},"220":{},"221":{},"222":{},"223":{},"224":{},"225":{},"226":{},"227":{},"228":{},"229":{},"230":{},"231":{},"232":{},"233":{},"234":{},"235":{},"236":{},"237":{},"238":{},"239":{},"240":{},"241":{},"242":{},"243":{},"244":{},"245":{},"246":{},"247":{},"248":{},"249":{},"250":{},"251":{},"252":{},"253":{},"254":{},"255":{},"256":{},"257":{},"258":{},"259":{},"260":{},"261":{},"262":{},"263":{},"264":{},"265":{},"266":{},"267":{},"268":{},"269":{},"270":{},"271":{},"272":{},"273":{},"274":{},"275":{},"276":{},"277":{},"278":{},"279":{},"280":{},"281":{},"282":{},"283":{},"284":{},"285":{},"286":{},"287":{},"288":{},"289":{},"290":{},"291":{},"292":{},"293":{},"294":{},"295":{},"296":{},"297":{},"298":{},"299":{},"300":{},"301":{},"302":{},"303":{},"304":{},"305":{},"306":{},"307":{},"308":{},"309":{},"310":{},"311":{},"312":{},"313":{},"314":{},"315":{},"316":{},"317":{},"318":{},"319":{},"320":{},"321":{},"322":{},"323":{},"324":{},"325":{},"326":{},"327":{},"328":{},"329":{},"330":{},"331":{},"332":{},"333":{},"334":{},"335":{},"336":{},"337":{},"338":{},"339":{},"340":{},"341":{},"342":{},"343":{},"344":{},"345":{},"346":{},"347":{},"348":{},"349":{},"350":{},"351":{},"352":{},"353":{},"354":{},"355":{},"356":{},"357":{},"358":{},"359":{},"360":{},"361":{},"362":{},"363":{},"364":{},"365":{},"366":{},"367":{},"368":{},"369":{},"370":{},"371":{},"372":{},"373":{},"374":{},"375":{},"376":{},"377":{},"378":{},"379":{},"380":{},"381":{},"382":{},"383":{},"384":{},"385":{},"386":{},"387":{},"388":{},"389":{},"390":{},"391":{},"392":{},"393":{},"394":{},"395":{},"396":{},"397":{},"398":{},"399":{},"400":{},"401":{},"402":{},"403":{},"404":{},"405":{},"406":{},"407":{},"408":{},"409":{},"410":{},"411":{},"412":{},"413":{},"414":{},"415":{},"416":{},"417":{},"418":{},"419":{},"420":{},"421":{},"422":{},"423":{},"424":{},"425":{},"426":{},"427":{},"428":{},"429":{},"430":{},"431":{},"432":{},"433":{},"434":{},"435":{},"436":{},"437":{},"438":{},"439":{},"440":{},"441":{},"442":{},"443":{},"444":{},"445":{},"446":{},"447":{},"448":{},"449":{},"450":{},"451":{},"452":{},"453":{},"454":{},"455":{},"456":{},"457":{},"458":{},"459":{},"460":{},"461":{},"462":{},"463":{},"464":{},"465":{},"466":{},"467":{},"468":{},"469":{},"470":{},"471":{},"472":{},"473":{},"474":{},"475":{},"476":{},"477":{},"478":{},"479":{},"480":{},"481":{},"482":{},"483":{},"484":{},"485":{},"486":{},"487":{},"488":{},"489":{},"490":{},"491":{},"492":{},"493":{},"494":{},"495":{},"496":{},"497":{},"498":{},"499":{},"500":{},"501":{},"502":{},"503":{},"504":{},"505":{},"506":{},"507":{},"508":{},"509":{},"510":{},"511":{},"512":{},"513":{},"514":{},"515":{},"516":{},"517":{},"518":{},"519":{},"520":{},"521":{},"522":{},"523":{},"524":{},"525":{},"526":{},"527":{},"528":{},"529":{},"530":{},"531":{},"532":{},"533":{},"534":{},"535":{},"536":{},"537":{},"538":{},"539":{},"540":{},"541":{},"542":{},"543":{},"544":{},"545":{},"546":{},"547":{},"548":{},"549":{},"550":{},"551":{},"552":{},"553":{},"554":{},"555":{},"556":{},"557":{},"558":{},"559":{},"560":{},"561":{},"562":{},"563":{},"564":{},"565":{},"566":{},"567":{},"568":{},"569":{},"570":{},"571":{},"572":{},"573":{},"574":{},"575":{},"576":{},"577":{},"578":{},"579":{},"580":{},"581":{},"582":{},"583":{},"584":{},"585":{},"586":{},"587":{},"588":{},"589":{},"590":{},"591":{},"592":{},"593":{},"594":{},"595":{},"596":{},"597":{},"598":{},"599":{},"600":{},"601":{},"602":{},"603":{},"604":{},"605":{},"606":{},"607":{},"608":{},"609":{},"610":{},"611":{},"612":{},"613":{},"614":{},"615":{},"616":{},"617":{},"618":{},"619":{},"620":{},"621":{},"622":{},"623":{},"624":{},"625":{},"626":{},"627":{},"628":{},"629":{},"630":{},"631":{},"632":{},"633":{},"634":{},"635":{},"636":{},"637":{},"638":{},"639":{},"640":{},"641":{},"642":{},"643":{},"644":{},"645":{},"646":{},"647":{},"648":{},"649":{},"650":{},"651":{},"652":{},"653":{},"654":{},"655":{},"656":{},"657":{},"658":{},"659":{},"660":{},"661":{},"662":{},"663":{},"664":{},"665":{},"666":{},"667":{},"668":{},"669":{},"670":{},"671":{},"672":{},"673":{},"674":{},"675":{},"676":{},"677":{},"678":{},"679":{},"680":{},"681":{},"682":{},"683":{},"684":{},"685":{},"686":{},"687":{},"688":{},"689":{},"690":{},"691":{},"692":{},"693":{},"694":{},"695":{},"696":{},"697":{},"698":{},"699":{},"700":{},"701":{},"702":{},"703":{},"704":{},"705":{},"706":{},"707":{},"708":{},"709":{},"710":{},"711":{},"712":{},"713":{},"714":{},"715":{},"716":{},"717":{},"718":{},"719":{},"720":{},"721":{},"722":{},"723":{},"724":{},"725":{},"726":{},"727":{},"728":{},"729":{},"730":{},"731":{},"732":{},"733":{},"734":{},"735":{},"736":{},"737":{},"738":{},"739":{},"740":{},"741":{},"742":{},"743":{},"744":{},"745":{},"746":{},"747":{},"748":{},"749":{},"750":{},"751":{},"752":{},"753":{},"754":{},"755":{},"756":{},"757":{},"758":{},"759":{},"760":{},"761":{},"762":{},"763":{},"764":{},"765":{},"766":{},"767":{},"768":{},"769":{},"770":{},"771":{},"772":{},"773":{},"774":{},"775":{},"776":{},"777":{},"778":{},"779":{},"780":{},"781":{},"782":{},"783":{}},{"0":{"bias":0.05606857750237328,"weights":{"0":-0.025990137475147168,"1":0.12948115951393374,"2":0.1573996391365996,"3":0.025785478464918576,"4":0.17037948418740728,"5":0.026861056581097748,"6":-0.17813326893349002,"7":-0.09440130437276757,"8":0.006009064501188377,"9":0.06001208360252602,"10":-0.11136373808014266,"11":0.1367285365758112,"12":-0.19655230688250197,"13":0.19102006905350555,"14":0.011787584949121938,"15":-0.13443420480804774,"16":-0.11140563114593444,"17":0.15812395693974635,"18":-0.18707378544764375,"19":-0.11449876163678,"20":0.024861199417538504,"21":-0.1309270004893423,"22":-0.006432932801968411,"23":0.1541123597198994,"24":0.1739257179881391,"25":0.18826571408897108,"26":-0.03477327123662813,"27":0.05946103557593785,"28":-0.009394418706186236,"29":-0.05212323883583567,"30":0.0473718308631052,"31":0.05053765255274678,"32":0.08204295841560894,"33":-0.12854246617589665,"34":-0.07189308221390381,"35":-0.1135841211150885,"36":0.1959352734124041,"37":-0.15661159855663703,"38":0.09391300393586127,"39":-0.13807510983734259,"40":0.13992167029569336,"41":0.1388840996727189,"42":-0.07097291696036999,"43":0.0980656540482355,"44":-0.12008046135101058,"45":0.09033141448412083,"46":-0.12252347490967519,"47":0.1584508806777386,"48":0.16461185530930578,"49":-0.12477899177326598,"50":-0.1566676829009348,"51":-0.006042810621114031,"52":0.16965878270410972,"53":-0.19272738925704724,"54":-0.17968058290927882,"55":0.12451511710588553,"56":-0.18397067448977078,"57":0.12889316724745525,"58":0.025575150734694574,"59":-0.011162984470943826,"60":-0.1609117899393376,"61":-0.07976856412539912,"62":0.04056914974322418,"63":-0.09118730598219098,"64":0.0041369414064437605,"65":-0.021613272981340872,"66":0.05182550748580235,"67":0.05162507888911239,"68":-0.07095753975945832,"69":-0.027442318270492417,"70":-0.17467379900470542,"71":0.05952704422874674,"72":-0.08333018222698142,"73":0.08506947257824417,"74":0.2195022454317333,"75":0.17913998672342676,"76":-0.14547021621093595,"77":0.09728534780030493,"78":-0.12942760961746344,"79":0.16965087951090763,"80":0.18544353898206023,"81":0.07213870790237165,"82":-0.1816037148340649,"83":-0.14753426167641503,"84":-0.14938420265776156,"85":-0.06946850121191153,"86":-0.06622285186489041,"87":0.09079078609612179,"88":0.036490539178327536,"89":0.18161805546432783,"90":-0.08627463783157543,"91":-0.15008592509549354,"92":-0.09923975544469874,"93":0.1522568635896074,"94":0.1294508900925873,"95":-0.20396370554505702,"96":0.1551450930189901,"97":-0.07770941016779878,"98":-0.09859016461787394,"99":0.08061753798492777,"100":-0.1645801826371378,"101":0.20946731291933854,"102":0.15922706201448628,"103":0.2996503156915826,"104":0.2001418642421787,"105":0.2038580504874359,"106":-0.012131416621968554,"107":0.107910395878194,"108":0.12638293725357055,"109":0.00007040695836585398,"110":-0.13686239749156517,"111":-0.15724299143879403,"112":0.04532430643178617,"113":-0.1383966625465309,"114":0.05084977717762029,"115":-0.1343036003541373,"116":-0.15602552251180002,"117":-0.022900941452624737,"118":-0.060443712636789895,"119":0.09927717439018025,"120":0.02504725650195733,"121":0.10138092722744516,"122":0.020917598277712633,"123":-0.08562731827813351,"124":-0.09398183848727279,"125":-0.2911925982832571,"126":-0.2238683988240793,"127":0.1160393092512929,"128":0.06650587415723558,"129":-0.027293485013594507,"130":-0.1592751050208507,"131":0.05067832907937856,"132":-0.03514675166026635,"133":0.05863334309597401,"134":-0.09114688185903679,"135":-0.13885144152588547,"136":-0.13900600390812592,"137":0.018850924348179,"138":-0.18800430807029078,"139":-0.15802157486782803,"140":-0.09806744743794954,"141":0.0863899912495742,"142":0.11200453073864448,"143":0.011709122981202538,"144":-0.024268871114936624,"145":-0.08412374209153319,"146":0.04220740250167704,"147":0.025718236619266168,"148":0.0072707700349071485,"149":-0.21684436602954604,"150":-0.19699313551926212,"151":-0.013015973357370772,"152":-0.11145748808431014,"153":-0.3375404499203899,"154":-0.00854061733312184,"155":-0.32976092751291836,"156":-0.19301601248741623,"157":-0.2591541236781288,"158":-0.1531862103790372,"159":-0.0442747495724673,"160":0.09891789525611247,"161":-0.1572693951964046,"162":0.005658245801641679,"163":-0.05923046851486374,"164":0.13347355725305884,"165":-0.16112173668589908,"166":-0.045613048687268745,"167":-0.04968341229678777,"168":0.08459470475289638,"169":-0.11956475269145868,"170":-0.14302589683279887,"171":0.15315223151895394,"172":-0.08629689408549764,"173":-0.1542553033555917,"174":-0.08358255122143364,"175":-0.26318896648326007,"176":-0.28264619546433906,"177":-0.23647391256533623,"178":-0.24911204147298027,"179":-0.0836026886342588,"180":-0.21683126442026343,"181":-0.13941086647581571,"182":-0.053261522456009645,"183":0.2674495207117418,"184":-0.17287023794941764,"185":-0.11533166001748184,"186":0.13873003778151416,"187":0.014511666500774423,"188":0.1894391536177631,"189":0.00893759501927541,"190":0.11621657463571568,"191":-0.07199124442874578,"192":0.1560984248020514,"193":-0.08755978856812768,"194":-0.06975327867377053,"195":0.0713080364059091,"196":0.06090333136643214,"197":-0.0722174835491811,"198":0.13181183720064926,"199":0.04728057557523534,"200":-0.03278348250230837,"201":-0.1944965477012015,"202":0.04320929715693062,"203":0.053518617192418044,"204":-0.06004365196157963,"205":-0.27433502319304803,"206":-0.07982068296466537,"207":0.09245939152501305,"208":0.0246598118015603,"209":0.1802288291004123,"210":0.18005512997280004,"211":0.09112832185478931,"212":0.1947764559689694,"213":0.23481844143734276,"214":-0.025040735240103792,"215":0.09946423984474066,"216":-0.14840391338711575,"217":0.024083026375493366,"218":0.09109332864384968,"219":-0.014257079191879964,"220":0.07888018805469854,"221":0.004637125578550457,"222":-0.19799831962902562,"223":0.020336820258583833,"224":0.12771334714419222,"225":-0.1529063713506733,"226":0.1390235950190991,"227":0.024955139188321273,"228":0.09396758622199844,"229":-0.270417515578209,"230":-0.24094284267177576,"231":-0.27913353998565,"232":-0.02322823987893448,"233":0.008534637766487727,"234":-0.28237957546954323,"235":-0.03543629870474153,"236":0.04758675381433069,"237":-0.06604665027185246,"238":-0.12541660236048074,"239":0.18449233868890336,"240":-0.18491632797201274,"241":0.04065592725496902,"242":-0.19048951058335953,"243":-0.10084171939096377,"244":-0.1114827485606101,"245":-0.15170167900219078,"246":0.07196682776559739,"247":-0.2610855985672617,"248":-0.15121240709970846,"249":0.10242576193745385,"250":-0.05301184012181324,"251":0.12135903093117183,"252":-0.17397126075985614,"253":-0.03481671630554527,"254":-0.01321909629848324,"255":-0.12246333084958062,"256":0.10703353675557378,"257":0.026885816733106978,"258":0.07228636383272062,"259":0.006070263195007615,"260":0.04912880091665149,"261":-0.3094649284686965,"262":-0.1421768460298011,"263":-0.11722277023185398,"264":-0.19405415072730778,"265":-0.1849806144986544,"266":0.24313408361122046,"267":-0.04871007441535546,"268":-0.24349751709095074,"269":-0.33146682075327,"270":-0.333541503714086,"271":-0.20792424135034945,"272":-0.29561299100322264,"273":-0.22262469620960224,"274":-0.15814906028705675,"275":-0.06605495681909412,"276":-0.1430154598169433,"277":0.08340334483540207,"278":0.035105859998555304,"279":0.13725450097893038,"280":-0.07318959473750325,"281":0.0068071993911310415,"282":-0.1984201112273746,"283":0.14984658558216493,"284":-0.04886352266950034,"285":0.037077624785377385,"286":0.056683220466030214,"287":-0.07573806283485492,"288":0.09025301212434761,"289":-0.08559011614484241,"290":-0.22470284625199735,"291":-0.27476881466440706,"292":-0.037319753006281764,"293":0.12874969892413343,"294":0.0328645251865087,"295":-0.050649234894396135,"296":-0.022679998997550424,"297":-0.31703623311327944,"298":-0.1210908965904067,"299":-0.03624311358752285,"300":0.062338227233650956,"301":0.028380896662572666,"302":0.09196328594189154,"303":0.07840629696444255,"304":0.05328711188372992,"305":0.11955925048461757,"306":0.1527777627543953,"307":-0.02075879013421348,"308":-0.06497543941325823,"309":0.08343106999756246,"310":0.11752719402792816,"311":0.04284349064910903,"312":0.1597071568737193,"313":0.09539915723802461,"314":-0.0849636935877645,"315":-0.10652440457993122,"316":0.08682348221530102,"317":0.18719220281352425,"318":0.026685018393054667,"319":0.19356222805321033,"320":0.2291676276714819,"321":0.0028202049938119956,"322":-0.022355393507236303,"323":-0.07909107467940403,"324":0.06556322109389519,"325":0.009875996186459252,"326":-0.280700997151304,"327":-0.3934586274577198,"328":-0.22588422147270132,"329":0.007027635978298869,"330":0.04964605641169816,"331":0.0742270389111211,"332":-0.1231612625956672,"333":0.11924200366829292,"334":0.1849036676119226,"335":-0.1321382386553237,"336":0.02315228918566925,"337":-0.10273901168885607,"338":-0.19068349276491353,"339":0.03817736987314709,"340":-0.007064575918424293,"341":-0.18940763943003888,"342":-0.08448560766933562,"343":0.14954245748287565,"344":0.21957192887458526,"345":-0.04583471445864509,"346":0.11096722337875164,"347":0.2743351836761277,"348":0.20294184674752133,"349":0.07299097621234488,"350":0.11115563590517749,"351":0.012916520121015997,"352":0.077816631649004,"353":0.12237178994270964,"354":-0.2922019810267828,"355":-0.15952504798068565,"356":-0.25189475048876614,"357":-0.20368607932173668,"358":-0.1471580268173237,"359":-0.06418897651535585,"360":-0.046035553113345784,"361":0.05784230911211458,"362":-0.05641255986847266,"363":0.014276337656283137,"364":-0.07490114478603749,"365":-0.05536255806022741,"366":0.038402645042890676,"367":-0.002543728937925532,"368":0.028953869821484936,"369":0.19690305675382502,"370":-0.11268903373027664,"371":0.10575302675986073,"372":-0.17510348278999024,"373":0.16288088883851834,"374":-0.06165400353245782,"375":0.08364528389426282,"376":0.2890703168561122,"377":0.13705643182287014,"378":0.15626658959182235,"379":0.2998187785048935,"380":0.23100786092052122,"381":-0.0021072045248294517,"382":-0.1073678393444624,"383":-0.1451519086743272,"384":-0.12501772807109493,"385":0.08288219302480258,"386":-0.1320639302495789,"387":-0.028729478462252978,"388":-0.10466076415942382,"389":0.044211417388697244,"390":0.17346189131152773,"391":-0.10110282494969809,"392":0.07548487758810679,"393":-0.18796301841760993,"394":0.10633185142529594,"395":-0.014222013487266169,"396":-0.2083083182897031,"397":0.03951146899683109,"398":-0.06467820979949507,"399":0.15882541430769634,"400":-0.18670054813079556,"401":0.036201518743962914,"402":0.12053449845140952,"403":0.21352040233552338,"404":0.269653038684663,"405":0.11821859922712381,"406":0.07368319101783517,"407":-0.0950408917594782,"408":-0.008740137351394056,"409":0.3390656786125774,"410":0.059812895554705967,"411":-0.10433862509398313,"412":-0.05587614291386694,"413":-0.04212917508312898,"414":-0.0102708698479098,"415":-0.04642921164816567,"416":-0.2044072293687686,"417":0.10476524757519373,"418":-0.1448076019433443,"419":-0.08262716051613435,"420":0.009832078568465713,"421":0.12407379836562173,"422":0.12407108384630576,"423":-0.046924440066739216,"424":-0.05741322005301774,"425":0.07327374868481618,"426":0.1285401350529683,"427":-0.18408076010771698,"428":-0.010005992647751271,"429":-0.11825201491261289,"430":-0.07186388272395713,"431":0.20035444648631018,"432":0.0008334543500485296,"433":-0.07221914130663766,"434":-0.0718424270237092,"435":-0.043482093178362734,"436":-0.1925873276335727,"437":0.12959286377737156,"438":0.24138911259756607,"439":-0.09562544227687594,"440":0.15113363613436748,"441":-0.11783861141206213,"442":0.06264550776889594,"443":-0.09171893657053279,"444":-0.14943610378681274,"445":-0.006461676590625301,"446":0.1624282083339427,"447":-0.07602377307694583,"448":0.10704832478581844,"449":-0.19226539452118754,"450":0.03862492351151306,"451":0.061429384505856575,"452":0.09882339621532085,"453":-0.22188099948173848,"454":-0.03715941719137552,"455":-0.3057214987641019,"456":-0.22834335737348752,"457":0.018258008525444663,"458":0.13701757002989434,"459":-0.1401818082005364,"460":-0.15653904310976074,"461":-0.08825463433282285,"462":-0.05874991827181273,"463":-0.04059395563301716,"464":-0.14132251968817774,"465":-0.2541896200568937,"466":-0.09770298126540179,"467":0.06797194707425304,"468":-0.09051507858316492,"469":-0.07235715343054959,"470":-0.06447612712606131,"471":-0.005797250162395948,"472":-0.19386715835812915,"473":0.10262095351447229,"474":0.1342551582206422,"475":0.14506374634317032,"476":-0.17428437942820488,"477":0.11825851035788942,"478":-0.061048064167703135,"479":-0.13580955976932585,"480":0.10821890093481086,"481":-0.19573241079466527,"482":-0.2423704518478434,"483":-0.14756777177985772,"484":-0.18613240276139054,"485":-0.1474227178314312,"486":0.09761507172605706,"487":-0.06392932439699082,"488":0.03524060219298047,"489":0.11497067043335178,"490":0.13087708346599608,"491":-0.20196457642553522,"492":-0.026057518350530263,"493":-0.24457338381126617,"494":0.0010536348799515436,"495":0.057066329127015473,"496":0.057456733946930835,"497":-0.19947144348263166,"498":-0.1443698704605594,"499":-0.11594943192696704,"500":-0.0100145998467658,"501":-0.14923736465317164,"502":-0.2025867874634836,"503":0.1554086037945408,"504":0.10865258652883147,"505":-0.07276848845585465,"506":0.14151191459054924,"507":-0.17790303502922458,"508":0.04981662183364966,"509":-0.09548995466133814,"510":0.07691750430123342,"511":-0.260121793517739,"512":-0.1859209076327001,"513":-0.18165545110779308,"514":0.05757228320042146,"515":-0.14209653114918072,"516":0.1639178115245365,"517":-0.001725721312430449,"518":0.18981479436264348,"519":-0.01791854577070999,"520":-0.07038743475038002,"521":0.09602780565087321,"522":0.010299709537698527,"523":0.019753815632523385,"524":-0.012175933079856404,"525":-0.3575870801455935,"526":-0.08460047688692862,"527":-0.04428296657843657,"528":0.06756832541209137,"529":0.09767763827094479,"530":0.015490924485616524,"531":0.13975085849887528,"532":0.17346656961657497,"533":0.0628792914365216,"534":-0.14085425278701244,"535":-0.1700723279953669,"536":-0.11234503664061418,"537":0.03469375659693369,"538":-0.19822732427168802,"539":-0.20181258898025714,"540":-0.03207620779539498,"541":-0.05969204606798518,"542":0.13941645064192812,"543":0.10620070162379851,"544":0.0274327387691459,"545":0.2580165638135345,"546":0.10928552543788789,"547":-0.10878196172019568,"548":0.06169799556223557,"549":-0.09504596667550613,"550":0.05636323985681515,"551":-0.24654775370867402,"552":-0.11470323811019958,"553":-0.2762700295931356,"554":-0.047922599887086505,"555":-0.05117129723382838,"556":-0.04794430772585934,"557":0.08764423532995165,"558":-0.1185981645311942,"559":0.08664940305451445,"560":0.16192246850575737,"561":0.1477459677513644,"562":0.18253900583656898,"563":0.1539263951878863,"564":-0.1381204317135044,"565":-0.017879761782138896,"566":-0.28551105207532096,"567":-0.13595361174339035,"568":-0.28984818302721777,"569":-0.16943927888438157,"570":-0.2515892380176203,"571":0.010822319521283328,"572":0.09756008637857887,"573":0.20695382827407963,"574":0.07220481926032947,"575":0.11028909958878194,"576":-0.2764451054839653,"577":-0.3148149604292605,"578":0.0355270076351266,"579":-0.05127494038551768,"580":-0.3185873849557021,"581":0.012595446116740967,"582":-0.17185101097049,"583":0.19570225819634035,"584":0.09176411686175696,"585":-0.02621611843728576,"586":-0.12688257138086848,"587":0.055763882413401696,"588":-0.16509944819404368,"589":0.06022358718712051,"590":-0.20006448493920795,"591":-0.0722858261457478,"592":0.02405025510407009,"593":-0.21430006336669102,"594":0.01369551554483749,"595":-0.13519015570804777,"596":-0.22432981696541793,"597":0.05131176281066467,"598":-0.03307400942807111,"599":0.016958836072329238,"600":0.013734978579336986,"601":0.013983600226479731,"602":0.06688061882251939,"603":-0.1753987542483952,"604":-0.24627718299897633,"605":-0.13864584597067015,"606":-0.08052969659644532,"607":-0.1325452838632645,"608":-0.06068885544593553,"609":0.0690485776727919,"610":0.05462471992812913,"611":0.012124419952108776,"612":0.03166180640678463,"613":0.13722196853043306,"614":-0.022188886958666373,"615":0.1278863321256924,"616":-0.1785267374971766,"617":0.11943624312720696,"618":-0.1096181615233227,"619":-0.0623326570237395,"620":0.17670717005516148,"621":-0.05832326985270145,"622":0.08918061180931695,"623":0.12724054809374055,"624":0.13912894366813422,"625":0.20887195085390545,"626":0.023992655276668894,"627":-0.10962481987492828,"628":-0.23203982205884036,"629":-0.12853172111882988,"630":-0.08263045551192451,"631":-0.188049759343021,"632":-0.25127702284660225,"633":-0.31551894075027015,"634":-0.15863809702203058,"635":-0.14751880968120765,"636":0.034073599857943095,"637":-0.1900280126021279,"638":0.0025964314337117507,"639":-0.11351111943271286,"640":0.0848009138372092,"641":-0.19267033271405692,"642":-0.10547428997150446,"643":-0.12021083633683052,"644":-0.09385808442957791,"645":0.16095953676277786,"646":-0.08217635780715699,"647":-0.051666867809712344,"648":0.1863179456639869,"649":0.009753796506455274,"650":0.02016767466094618,"651":-0.10164558422293367,"652":0.222975912164616,"653":-0.032847286238791046,"654":0.14879853097469528,"655":-0.14944873388996688,"656":-0.023240916505000406,"657":-0.13210999073610954,"658":-0.24812567866680363,"659":-0.1894578897306402,"660":-0.18941261005354545,"661":-0.240251220318155,"662":-0.1471322059648253,"663":0.13326053888267367,"664":0.18453535923964592,"665":-0.05239682126084388,"666":-0.11047283624167242,"667":-0.11956037946104446,"668":0.18142556087136483,"669":-0.029013553841787755,"670":-0.10377524932022429,"671":-0.11348311563368424,"672":0.08131254889804335,"673":0.10780340570041441,"674":0.04802763153941339,"675":-0.018383845089995993,"676":-0.10577858421913658,"677":0.03918224041162895,"678":0.15731072234883942,"679":0.06617347232444334,"680":0.02577724909597854,"681":-0.16712747748806564,"682":0.028564533916671797,"683":0.05440881973081769,"684":-0.05009939625608256,"685":0.07499659134030867,"686":-0.21928738231043138,"687":0.03903435576748458,"688":-0.08424087958132634,"689":0.11097247671255928,"690":-0.17711013848821522,"691":-0.06774048651613578,"692":-0.1144925453290768,"693":0.03015078330433971,"694":-0.01796670264665142,"695":0.16893703299640897,"696":-0.015189263537059107,"697":-0.11142062054548714,"698":0.015740766559722008,"699":0.15404283823531773,"700":-0.025847856696487176,"701":-0.0014394204945102074,"702":-0.11098776709585244,"703":-0.027891705670832503,"704":0.029372047612599074,"705":0.11698809508952761,"706":0.09450287204161405,"707":-0.10683346977319358,"708":-0.04663507398838668,"709":-0.09486369498256557,"710":0.08852426180406121,"711":0.27713588315969656,"712":-0.06709810224469334,"713":0.08147871848766591,"714":-0.037014513732483934,"715":0.1681029395469536,"716":-0.15031139793156384,"717":0.015361805431365713,"718":0.09708918375055244,"719":-0.14271045992935255,"720":0.18469150691780242,"721":0.016806733665727065,"722":-0.04999572524082702,"723":0.0433425616732614,"724":0.026279014423611916,"725":0.1430523097072438,"726":-0.039563934461858796,"727":-0.06019478114330354,"728":-0.02120196833502952,"729":0.06975843065096382,"730":-0.014133584826391127,"731":-0.09486994635365283,"732":-0.16354960649152725,"733":0.0564237068847286,"734":-0.13493016350864942,"735":0.09656692050336317,"736":-0.09663551845035465,"737":0.16571325336401027,"738":0.1736297557143759,"739":0.06170419749732849,"740":0.1340455377645532,"741":-0.09166206282239235,"742":0.03115291675151976,"743":-0.15981615471462374,"744":-0.15838312348420922,"745":-0.07303184613366001,"746":-0.16229855352646708,"747":-0.1680385066453778,"748":-0.018096000022791613,"749":0.11611759515087983,"750":0.11391244035632053,"751":0.08159634928321187,"752":0.009959977547044113,"753":0.07450627546210475,"754":-0.17703403760603137,"755":0.07729385378589626,"756":-0.10764691718093432,"757":0.11209775272440714,"758":-0.10693312705775614,"759":-0.06570435046593187,"760":-0.19847902433965353,"761":-0.03317158390333395,"762":-0.0013645202690351728,"763":-0.06175837288187664,"764":0.09702309333717049,"765":0.025837931749423785,"766":0.16744639447793558,"767":0.1405268441838191,"768":-0.07543615908736542,"769":0.10428391165841641,"770":-0.14430376284856083,"771":0.19317145562094942,"772":0.03323076553033067,"773":-0.19287175211838742,"774":0.17250817562511297,"775":-0.1186566615817599,"776":0.020564207593372703,"777":-0.10782571864072667,"778":0.18218602836142675,"779":-0.03723057883513797,"780":0.1390464121446005,"781":0.03583264948809886,"782":-0.07305248229906214,"783":-0.12355207539197527}},"1":{"bias":0.164671795234245,"weights":{"0":-0.13498851278949936,"1":-0.1669027268647148,"2":-0.13965319449061406,"3":-0.06565114070013056,"4":0.11160737758955275,"5":0.04172081523479615,"6":-0.16283341588321446,"7":-0.09290093089860224,"8":-0.15187120138263738,"9":0.17606864666580696,"10":0.039520369155616825,"11":-0.027051698124026385,"12":0.038199816758041905,"13":-0.1269261848741027,"14":0.020730207783110466,"15":-0.0623987210357794,"16":0.08474782906326411,"17":0.048028815338410885,"18":-0.1575218071526946,"19":0.05871835224378252,"20":0.09227543869124621,"21":-0.019316882051434364,"22":-0.16637493941433795,"23":-0.1355955799386142,"24":-0.14980368096936073,"25":0.0014720271262541051,"26":0.18259174473434908,"27":0.1748039957623017,"28":-0.0802164884922707,"29":-0.02892079020805971,"30":0.05416929570898266,"31":0.06200281625543419,"32":-0.17301688563546397,"33":0.15683610376304857,"34":0.11232299465032786,"35":-0.16774061665042114,"36":0.029179937650269182,"37":-0.07505096219680328,"38":0.17330523768962,"39":-0.08657389991040301,"40":0.1666965769349972,"41":-0.06446250900071579,"42":-0.09901495598719569,"43":-0.02813522460327297,"44":-0.1952417057926928,"45":-0.18526380841108378,"46":0.11919312730649295,"47":0.17965691616733392,"48":-0.005341136064764256,"49":-0.17790773742722252,"50":-0.02422467180393788,"51":0.016281895541889913,"52":-0.11945353287495122,"53":-0.11236116564678672,"54":-0.17865719633748134,"55":-0.19288660403474306,"56":-0.11512910085262602,"57":-0.1952627752453812,"58":-0.19154764358196533,"59":0.1571601931149444,"60":0.005636945293240945,"61":-0.052740177400849644,"62":0.07141633176487071,"63":-0.1424017688022831,"64":0.04396192609109781,"65":0.02630214886769308,"66":-0.10304642077408542,"67":0.10464578858790831,"68":0.1392096252971541,"69":-0.1608558651395034,"70":0.036355938799871784,"71":-0.05631423250319273,"72":-0.09680226582248895,"73":-0.07267979541875086,"74":-0.06820982030519682,"75":-0.002018320363964016,"76":0.07145721735576864,"77":0.02101883356350871,"78":0.03008352442334756,"79":0.13869939510467635,"80":-0.1320334865497413,"81":0.1806901757296802,"82":0.1295975710808941,"83":-0.034896872904865706,"84":0.15866562973028236,"85":0.15323354462719857,"86":0.08122717408720953,"87":0.1441372103879523,"88":-0.1757673731965115,"89":-0.06651884517907385,"90":-0.12143966599421066,"91":-0.09440525229093548,"92":0.003210380711136943,"93":-0.13452149771583066,"94":-0.08906442975548583,"95":-0.005182624221221097,"96":0.05624576167521196,"97":-0.2942437543727135,"98":-0.2985671329640121,"99":0.020140649628692987,"100":0.07190515911770866,"101":-0.015334443695860987,"102":0.1410994938014157,"103":-0.11719814344086989,"104":0.0970527116690854,"105":-0.20708062063357557,"106":-0.20478689805780315,"107":-0.11843723180323316,"108":-0.09122373772128467,"109":-0.013725468184052764,"110":0.07551954238944097,"111":-0.023084649791459716,"112":-0.054160373549087204,"113":0.11547458924095472,"114":-0.18250363413567997,"115":0.14294029692227478,"116":-0.007207494421137307,"117":-0.10622167920333776,"118":0.09502964743999395,"119":0.014677942601621462,"120":0.002537051124924164,"121":-0.01971850826443371,"122":-0.0024530789488937032,"123":0.21120217774575625,"124":-0.15435947550346982,"125":0.24755685095148355,"126":0.03271684689080637,"127":-0.030791728495379155,"128":-0.24257286841971848,"129":-0.06641149685332101,"130":-0.1120158646147805,"131":-0.29819572457805943,"132":0.00033906784989552784,"133":-0.05285201632808627,"134":0.15951720009832998,"135":0.09104911909496985,"136":0.08624491548243951,"137":-0.12568844092660458,"138":-0.1371174398955656,"139":0.13898505480834195,"140":0.17250612901211765,"141":0.0510595126125426,"142":-0.016543715043971688,"143":-0.18350373095292966,"144":-0.000673565183915512,"145":-0.055233023591199686,"146":0.23214398952674883,"147":0.05241070056503483,"148":0.016678842878907536,"149":0.13115343470981322,"150":0.17492363641369313,"151":-0.10953515243710157,"152":0.10777386186330946,"153":0.12063908469594589,"154":0.060445882721972134,"155":-0.16606871296537018,"156":0.09749012819517719,"157":0.05700301564382769,"158":-0.3807790262495863,"159":-0.11663668646655113,"160":-0.11681391054039837,"161":-0.1134803147879502,"162":0.11562979700888237,"163":-0.12857662704959003,"164":0.20177959080664512,"165":0.10462658370960054,"166":-0.013006360085784027,"167":0.032307858510269856,"168":-0.1380804054833183,"169":0.17570726234036177,"170":-0.17413620691440437,"171":0.10954109896144877,"172":-0.0810773504341278,"173":0.03761083905907999,"174":0.2832739077661907,"175":0.20466325999790708,"176":0.2310549406330584,"177":0.20635907784478985,"178":0.22055507910700736,"179":0.04706674628432683,"180":-0.18668206326449246,"181":-0.3096500994674324,"182":0.007955840784281678,"183":-0.22438100325654767,"184":0.06147454315165509,"185":-0.20592907716808007,"186":-0.2757492268121262,"187":0.06043808039719983,"188":-0.09966976066965762,"189":0.11911335005433561,"190":0.12362397022488518,"191":0.024518971927676256,"192":0.10787668231131518,"193":-0.1409514173449613,"194":-0.0820973139218675,"195":0.03943642230191992,"196":0.15803952559058237,"197":0.1855554265784438,"198":0.07840941357211527,"199":0.09721789724549997,"200":0.15610803551539443,"201":0.09630898571952563,"202":0.15972854382316026,"203":-0.05434630392829414,"204":-0.12957153707570687,"205":-0.011921480713927008,"206":-0.31217029027445425,"207":-0.2956802307559663,"208":-0.3800133762821087,"209":-0.28088396729528636,"210":-0.20574037091649858,"211":0.11378423066311492,"212":-0.2726316822008135,"213":-0.06163298181095712,"214":0.11353500738055206,"215":0.01694067472234677,"216":-0.320829125144446,"217":-0.23082249212552275,"218":-0.12274187829708812,"219":0.0673386016026347,"220":0.08159710061090264,"221":-0.1035889424463417,"222":0.15703892262957916,"223":-0.16902322522651178,"224":0.07677194411198082,"225":0.10218509969838604,"226":-0.13958337369040327,"227":-0.02796003080986483,"228":0.15467401236766193,"229":0.1765001320798243,"230":0.09883785134704022,"231":-0.15614839267162567,"232":-0.2228820037505787,"233":-0.09160000012583418,"234":-0.32859316263727745,"235":-0.45287076441561636,"236":-0.35216815854306466,"237":-0.31582302243310406,"238":-0.12409424258412563,"239":0.10708666937457664,"240":0.05634583578656666,"241":0.04442543472671405,"242":-0.11034746533204391,"243":-0.1209269648896301,"244":-0.31634541961702417,"245":-0.3472966098256566,"246":-0.09406428731595275,"247":-0.23696653268371265,"248":0.018024404962753152,"249":0.04060385531653921,"250":0.10111211416010119,"251":0.047694712261338326,"252":0.020823826172914818,"253":-0.08679281432191299,"254":-0.13471036625880553,"255":-0.029415567223964243,"256":-0.049467694604939126,"257":0.055100838929066566,"258":0.10140591002774332,"259":-0.05838741892995759,"260":-0.14138322967942205,"261":-0.1408461392767752,"262":-0.11996974418697944,"263":-0.3477264642375772,"264":-0.15298674590141056,"265":-0.23820306626872767,"266":0.16227674954371066,"267":0.2935450591770254,"268":0.34035567136559614,"269":0.14515242846746323,"270":0.11922162064286809,"271":0.06335372339834429,"272":-0.3699177710683645,"273":-0.1076688315831626,"274":-0.17840810888296968,"275":0.030908346282494767,"276":-0.08562630460232559,"277":0.08900031092104997,"278":0.11056744344837897,"279":0.19289932964066298,"280":-0.046419819213250696,"281":-0.024278869379815646,"282":0.1776285207366124,"283":-0.15704322262423587,"284":-0.10233818905536476,"285":0.022775198735226085,"286":-0.1108763342024048,"287":-0.10953711851188605,"288":-0.2588841606388628,"289":-0.1317643880428026,"290":-0.18582174159257242,"291":-0.05654062685884839,"292":-0.4744652949570726,"293":0.005999420559887757,"294":-0.10538981882395776,"295":0.417157405787114,"296":0.4324321364366113,"297":0.32342682457738015,"298":-0.008460863201256039,"299":-0.039553563495940774,"300":-0.435004327605223,"301":-0.20750402493317216,"302":-0.274461094778714,"303":0.17781533009358838,"304":-0.13378382917477244,"305":0.03618139689739614,"306":-0.010816358346508091,"307":0.13207119159533456,"308":0.0926162893698323,"309":0.08132952276723523,"310":-0.1743325315295898,"311":-0.05978774602122916,"312":-0.1715958985387443,"313":0.08827473232002443,"314":-0.26574086936986374,"315":-0.17578649729007564,"316":0.035455033753675605,"317":-0.21657223124954855,"318":-0.31373931517201653,"319":-0.10898408499703395,"320":-0.021264100613328472,"321":-0.07957745533433905,"322":0.1526241876984836,"323":0.307951557720528,"324":0.4576812239202661,"325":-0.07127140027486727,"326":-0.3087488419344748,"327":-0.3146731877002608,"328":-0.3078263821891308,"329":-0.2028123729315332,"330":-0.12280046478775768,"331":-0.09716090164645198,"332":-0.13091626169146944,"333":0.01519842365930692,"334":-0.05765121403876153,"335":0.05252214436796324,"336":0.18814361646052424,"337":-0.11697298318124662,"338":0.13703832815596326,"339":-0.19246171189576372,"340":0.14575346655663127,"341":0.11091431390495238,"342":-0.08948508676732755,"343":0.034123376695576066,"344":0.19372458346460603,"345":0.13179874596874552,"346":-0.29872411642387103,"347":-0.18416321838264668,"348":-0.30281138846694106,"349":-0.0790952942348658,"350":0.08537000819444812,"351":0.08635047917746845,"352":0.00992121214517589,"353":0.047738420606194716,"354":-0.05347848174787792,"355":-0.39628053345559777,"356":-0.12192432677671874,"357":-0.19974344878930494,"358":-0.0419439246972608,"359":0.014793612749585532,"360":-0.127149880173761,"361":0.02002168618101696,"362":0.18760550779165308,"363":-0.08786165903452592,"364":-0.056987750073738214,"365":-0.04792654941356218,"366":-0.08548795242863005,"367":0.18204866552877155,"368":-0.053311101437775975,"369":0.053627067207144254,"370":-0.16033518082963372,"371":0.05717280186837124,"372":-0.02819651234324747,"373":-0.14554166697878093,"374":-0.05087728434557577,"375":-0.09505319126460557,"376":0.10289059220952958,"377":-0.12769728938334837,"378":-0.18408000554360424,"379":-0.2297881813633745,"380":-0.13454681725357961,"381":-0.022242186437972905,"382":-0.18144732789739748,"383":-0.2908355793222383,"384":0.09176358031274645,"385":-0.1379991339078098,"386":0.060022349634978336,"387":0.13895812310016845,"388":0.045633544050963724,"389":-0.16553006614548357,"390":-0.0020317032060014357,"391":-0.009420635159006624,"392":0.10373283461875848,"393":-0.12912795709570613,"394":-0.07594880752777342,"395":-0.011637943707316675,"396":0.010937416982177558,"397":-0.16833195002107534,"398":0.22249940827176837,"399":0.032376010390696264,"400":-0.10564227834821871,"401":0.10088603791361231,"402":0.2325731658138284,"403":0.2079641337169512,"404":0.35002925488822695,"405":-0.1086675187388892,"406":0.0015711127644130421,"407":-0.046981855782683886,"408":0.08686448933513637,"409":0.10337057573415505,"410":-0.16069735510965724,"411":0.19406573569879595,"412":0.017963043784497604,"413":-0.01888416682680293,"414":0.15996483769534892,"415":-0.05935170094984997,"416":0.09462949284818142,"417":0.18686118964751242,"418":0.034459555494552686,"419":-0.18079009559407977,"420":-0.17569610377931247,"421":-0.10081783430482726,"422":0.134785914863607,"423":-0.014842941199144328,"424":0.06813550418939145,"425":-0.015334125093978305,"426":0.32532784788817726,"427":0.09547636477307331,"428":-0.04784867703288481,"429":0.27223952942507534,"430":0.1845499149413896,"431":0.205451160477663,"432":0.315677833065722,"433":0.04378494883527813,"434":0.15451811805623075,"435":0.1916398007222848,"436":-0.028539567062313795,"437":-0.086424564907885,"438":0.06325912544865354,"439":0.0603337603718921,"440":0.18132512208350934,"441":0.014822589769537473,"442":-0.08595289975591686,"443":-0.1299995947441036,"444":-0.0424634236804519,"445":0.2013722539889798,"446":-0.18426197091147337,"447":0.03578762915241969,"448":-0.10417084327190072,"449":-0.19169477736130203,"450":-0.1286871982377731,"451":0.036804284275223136,"452":0.1683967064713605,"453":0.1333073028830575,"454":0.0020533328983354895,"455":0.15460268619646897,"456":0.3891006066183936,"457":0.04000059461267778,"458":0.1615861609378986,"459":0.16361793339411884,"460":0.4845770527524069,"461":0.3486640070794593,"462":0.06311615769181216,"463":0.30893199158464113,"464":0.05758666209929587,"465":-0.12703420780167543,"466":-0.2583885021003043,"467":-0.1028749658096469,"468":-0.13436129694656873,"469":0.14343267872930057,"470":0.061949979582516065,"471":-0.008977067325413094,"472":0.026891544176068427,"473":-0.09440701473416127,"474":0.09237507042310852,"475":0.1593037563491783,"476":0.030689318095973583,"477":0.11596763864142695,"478":0.016150034643926035,"479":-0.1722203682089016,"480":-0.04389822007129138,"481":0.2307351280106312,"482":0.16839475884490485,"483":0.03170921995169494,"484":-0.07731865501419309,"485":0.16949804807053298,"486":0.0781296783337832,"487":0.4088831958932256,"488":0.346572741163357,"489":0.28966329517735695,"490":-0.040778394489277794,"491":-0.10408178624796326,"492":0.06956594339537743,"493":-0.16076249103762236,"494":-0.3760492023124682,"495":-0.404093606083144,"496":-0.28354404460918153,"497":-0.05061612946340676,"498":-0.016426534895569764,"499":-0.09336490985766474,"500":-0.06487569547075987,"501":0.033456849130681275,"502":0.07503912109662514,"503":-0.038560192158539564,"504":0.10486415957358236,"505":-0.11707585605472506,"506":-0.1321052153049668,"507":-0.09787732561163681,"508":-0.11964951695871316,"509":0.10000632511162216,"510":0.18310664617740327,"511":0.10414867145490499,"512":-0.31776785955269876,"513":-0.2259778498947846,"514":0.19475190503346607,"515":0.1614116909547537,"516":0.022056626711790407,"517":0.35312276374738893,"518":0.34818212721089004,"519":-0.037320389509433914,"520":-0.2237126612354586,"521":-0.35204346347422394,"522":-0.31324641952348303,"523":-0.31324988790038977,"524":-0.0023369763150202804,"525":0.07700872402214169,"526":0.15339234815168046,"527":0.1531780778515706,"528":0.05915513679224891,"529":0.035143831197208944,"530":0.17207681827270405,"531":-0.1692038306016172,"532":-0.005789407739717423,"533":0.024447814338538626,"534":0.21083774146783535,"535":0.1944687598288694,"536":-0.11622398919760042,"537":-0.13848531452935428,"538":0.03890504228624924,"539":-0.010163534105082514,"540":-0.07210551554284086,"541":-0.04275632654365029,"542":0.21955574896694569,"543":-0.08165658152507005,"544":-0.02182038154412939,"545":0.363265590989947,"546":0.15581173532955808,"547":0.2620870722100088,"548":0.07295744870425075,"549":0.051982538128968796,"550":0.0971683234904523,"551":0.04671298318591178,"552":0.22332546048462515,"553":-0.06384987625517759,"554":0.134922521227871,"555":0.1216628847583545,"556":-0.03037769676264595,"557":-0.05337396475964139,"558":0.043790729300009684,"559":0.14320205681460166,"560":-0.06056279663736461,"561":-0.15019318460243325,"562":0.04657419588535721,"563":0.11044168891299047,"564":0.039805242294734554,"565":-0.3275782002653007,"566":-0.05637843391120023,"567":-0.20794730029638234,"568":-0.2925388047722313,"569":-0.37520874143697697,"570":-0.052300411854508747,"571":0.06708134223755964,"572":-0.07978785316479645,"573":0.13653601026840215,"574":0.34864074779428855,"575":0.18267030666201742,"576":0.020060502642995675,"577":0.09836025362873059,"578":0.14613502655885152,"579":-0.06878620764263159,"580":0.04534061792891204,"581":0.21344111854904385,"582":0.0643452878771351,"583":-0.06266553971147201,"584":0.12152910792374325,"585":-0.10678572653628098,"586":-0.1470821343546282,"587":-0.14415598997434542,"588":-0.14662832631857414,"589":-0.002395940806855984,"590":0.126005874070078,"591":-0.017990382575079716,"592":0.0827412862361581,"593":0.08460602949080831,"594":0.03161751959916084,"595":-0.19534831678040449,"596":-0.07298712462083298,"597":0.02302344370789107,"598":-0.05063652917271216,"599":0.09751656938914459,"600":-0.1264300370620957,"601":0.2089371158520047,"602":0.007932154844324335,"603":0.08942409109953903,"604":-0.21394040169765038,"605":-0.11134540887364695,"606":0.2847808156007026,"607":-0.00213960152287752,"608":-0.08354559016631236,"609":0.11134542038984731,"610":0.20756583237178733,"611":-0.056371156548136826,"612":0.2426959345869033,"613":-0.18348780891696453,"614":0.16266636413149008,"615":0.0988239469760438,"616":-0.13063391967229238,"617":0.028339700909592563,"618":-0.18607044770337436,"619":-0.09581525143721704,"620":0.0392777623898647,"621":0.09566601190642139,"622":-0.014942020779908015,"623":0.18157531081985465,"624":0.10969375866323068,"625":-0.2041216182801752,"626":-0.22364723592750357,"627":0.18958771154626164,"628":-0.029661017240316296,"629":-0.22088572602225376,"630":0.053664931479299356,"631":-0.07286439991135737,"632":-0.1375769947713397,"633":-0.027087243845967463,"634":0.33259693024747894,"635":-0.032687425747362116,"636":-0.12092321884319752,"637":-0.10537037671145938,"638":0.19230421694313338,"639":-0.035625033692222106,"640":0.20556953309047737,"641":0.050161287734757816,"642":0.10516510550396088,"643":0.05071709303244176,"644":0.19967258697768714,"645":0.10277604794445727,"646":0.13546783181080765,"647":0.18654366316822354,"648":-0.09303894645085635,"649":0.1896867119311395,"650":-0.1790361352762786,"651":-0.15170964933581624,"652":0.08110524885128335,"653":0.11987205836241993,"654":-0.19979567975663667,"655":-0.2416064727337405,"656":-0.07856056023306855,"657":-0.4720501299817242,"658":-0.01931558472397189,"659":0.07020938362814952,"660":-0.023269591664121674,"661":0.001175784301126766,"662":-0.05817953071821631,"663":0.08786531697832053,"664":-0.1642793730945553,"665":0.12374627726685676,"666":-0.12714941303959695,"667":-0.12161148714333744,"668":0.029014650524174287,"669":0.1866768265514092,"670":0.12294014777049811,"671":-0.04755802941457182,"672":-0.08642381323096507,"673":-0.03011643829934804,"674":0.10427133576479869,"675":0.15440227047257926,"676":-0.03836290400342258,"677":-0.05531836469777882,"678":0.11611105883902048,"679":-0.1042377842761821,"680":-0.10438270243535354,"681":-0.16426010230199944,"682":-0.28470964534153353,"683":-0.3024932052826643,"684":-0.24669326955283788,"685":-0.331072640968838,"686":-0.023417355444138612,"687":0.04062194106366582,"688":-0.0017556198866400864,"689":0.05382105113754073,"690":0.1418729377156564,"691":-0.15112373124357917,"692":-0.016374649910813357,"693":0.04215955272217579,"694":0.18493282485660897,"695":0.009438159691832293,"696":-0.19240953062483104,"697":0.12453732443036196,"698":0.057544072054103446,"699":0.09993695740524944,"700":0.022797109897998075,"701":-0.011495766439277244,"702":-0.015364478482123356,"703":-0.012979911694548187,"704":-0.046548632555827855,"705":0.10865440191623131,"706":0.044165675191484115,"707":-0.23346611798769987,"708":-0.10593643254463359,"709":-0.10612658530706927,"710":-0.0296664113397665,"711":-0.24792706496186195,"712":0.037685576396824405,"713":-0.017428523687049394,"714":-0.05977625793952798,"715":0.191181615544502,"716":0.07711487963971761,"717":-0.052155493203674415,"718":-0.1827738235293129,"719":-0.211902280389361,"720":0.022190835663386723,"721":0.04901482327748176,"722":0.06450438188406313,"723":0.20886852287255814,"724":-0.13036600581882113,"725":-0.1556921997677465,"726":-0.0966287050743338,"727":-0.02176879942693377,"728":0.13226598054607724,"729":0.05412141139941867,"730":0.017226923253363502,"731":0.16434868887455345,"732":0.12887754764101209,"733":-0.016782856864399866,"734":-0.0024499496487349333,"735":0.05790902309053978,"736":-0.008179427038663872,"737":-0.002382490047893596,"738":0.06984452239690381,"739":-0.13482856107045263,"740":-0.22863026595648997,"741":-0.07495385913931071,"742":-0.16871948626154254,"743":-0.03327068156502518,"744":-0.0010441429799599,"745":-0.02854366851668646,"746":-0.22035029726201166,"747":0.08866602273542745,"748":-0.15246847983893774,"749":-0.20397218582393428,"750":-0.10016506359591719,"751":-0.17372605759495907,"752":0.05560952037289646,"753":0.14047974156126658,"754":-0.053390162012049464,"755":0.15865714051096397,"756":-0.009724768886599927,"757":0.1776429821224113,"758":0.0719771928021154,"759":0.12422313947020475,"760":-0.09403095413806906,"761":-0.07811767154802314,"762":0.06284938299834597,"763":0.1784580110285948,"764":0.03906953310614103,"765":-0.18182495946745042,"766":-0.1923192390389264,"767":-0.08087092546872669,"768":-0.04355431460421397,"769":0.04531798820038416,"770":0.0058514365989687425,"771":-0.14283967427858202,"772":-0.08675375283078968,"773":-0.14672590386020043,"774":-0.07025087210950305,"775":0.10989052983804957,"776":-0.17850876873124807,"777":0.04307686225567328,"778":0.07966060977348398,"779":-0.18091215160474264,"780":-0.0870052771773052,"781":-0.06953196737314454,"782":-0.17945857087186817,"783":-0.06481758980687147}},"2":{"bias":-0.254013166997141,"weights":{"0":0.1065041783124121,"1":0.10230274619902924,"2":0.000434421411876329,"3":0.03130040844316939,"4":-0.17386641507816825,"5":0.15412971421213095,"6":-0.09476244147272866,"7":0.07271073694172348,"8":-0.16694712829633476,"9":-0.09371491019644945,"10":0.05041038883067789,"11":-0.12259946666330271,"12":-0.15818660549717256,"13":0.05353525891459654,"14":-0.05014181874558252,"15":0.11182856265768487,"16":0.0944485463139011,"17":-0.015854955250108826,"18":-0.19428769009638247,"19":-0.019469205611174545,"20":-0.0500906020964533,"21":0.06767541145897915,"22":-0.13779782749199232,"23":0.1790249090944273,"24":0.165224784988677,"25":0.1102563772794522,"26":-0.05126498218707995,"27":0.1776439502222193,"28":-0.07315505614844584,"29":0.194572920074775,"30":-0.10767109722114095,"31":0.1141988487539165,"32":-0.08179866041541706,"33":-0.028741374415600346,"34":0.09293387553543492,"35":0.13074430196304712,"36":-0.03251010239990779,"37":0.09725247736534468,"38":-0.09194968679335191,"39":0.04434829271722388,"40":0.12911681242101086,"41":0.16469318466985552,"42":0.1646891737168063,"43":0.16479906349550294,"44":-0.0782060034439427,"45":-0.11841351386504324,"46":0.000617645058022974,"47":0.19791443278185086,"48":0.10136532563695948,"49":0.07758794114128253,"50":-0.025106930103427842,"51":-0.10916593562475976,"52":0.06847698055890988,"53":0.09852431733511757,"54":0.08918668579528816,"55":0.1521658710899395,"56":-0.188879924027494,"57":-0.07268276997957254,"58":-0.013805809555912235,"59":-0.055337198400562226,"60":0.012795151742200578,"61":0.07835762996397559,"62":-0.13379333334317578,"63":0.11793959668140779,"64":-0.16968206557218415,"65":0.06676532572746519,"66":0.1669298064648237,"67":-0.04244850114705271,"68":-0.1531460062491141,"69":0.1961091109334518,"70":-0.054851383183358395,"71":0.1987385747050007,"72":-0.13743050477790988,"73":-0.011529746811292721,"74":-0.035077811472149605,"75":0.1091189098668338,"76":-0.029037296901097097,"77":-0.05090723093806613,"78":-0.04345823802645285,"79":0.05046228479031066,"80":0.1517673712663863,"81":-0.06759167056400975,"82":0.007059374765753301,"83":0.18561874627622893,"84":0.17646749000784595,"85":-0.13249336703967013,"86":0.1993472935358221,"87":-0.002635846390405844,"88":-0.1937376420811812,"89":-0.08675731124655325,"90":-0.04310980519111636,"91":-0.053694201369252625,"92":0.1805584934499725,"93":0.2192713404193325,"94":-0.009150173289871815,"95":-0.06502307478831969,"96":-0.06736223444288122,"97":0.03249586523637797,"98":-0.010773517545910789,"99":0.007531526229214192,"100":0.030308297830605527,"101":0.18108724971920545,"102":0.08097773457681416,"103":0.08122798278848363,"104":0.11211152887848995,"105":0.018318848941865033,"106":-0.17523721013187515,"107":0.10308324454939076,"108":0.10978751898277514,"109":0.17295207698470466,"110":-0.15823303022088053,"111":-0.036154283193740616,"112":-0.1448361787672794,"113":-0.17423028236338914,"114":-0.04841172985816469,"115":0.08555114386092731,"116":0.09291011370923498,"117":-0.1373073758857586,"118":-0.1426956709522603,"119":0.1539162423174691,"120":0.16276792976898022,"121":0.06234463519382242,"122":0.19993918809125447,"123":-0.1655717900064662,"124":-0.1356972059534675,"125":0.14608837350580217,"126":0.10092359380125547,"127":-0.018165232172552923,"128":0.14842938611734996,"129":0.10774587407539922,"130":0.09665540052316114,"131":-0.029367150062624928,"132":-0.00414993072097567,"133":-0.13160831406593687,"134":0.04254905632318977,"135":-0.19236725695742238,"136":-0.08475969363360397,"137":0.16340195026123217,"138":0.13197262090812323,"139":-0.06265108415875789,"140":0.02889505417681662,"141":0.13220694921319087,"142":0.05177862355136371,"143":0.03043853230644693,"144":-0.19653151365782412,"145":-0.1886343212841857,"146":0.1612524932055064,"147":-0.04469520753915715,"148":-0.03912095488534498,"149":-0.05406716617660321,"150":-0.17555515930890273,"151":-0.20065326726219598,"152":-0.13201549043602076,"153":-0.17974993546591767,"154":-0.23507215209070306,"155":-0.26906928936780056,"156":-0.06642739525960009,"157":-0.4537533325761653,"158":-0.38489742607921906,"159":-0.3724614389924364,"160":-0.3542793243933242,"161":-0.11599863566725283,"162":-0.10823458698431626,"163":0.14841234891499835,"164":-0.10308056420206599,"165":-0.022751298633742492,"166":0.02521662433115413,"167":-0.11174230068999066,"168":0.15237023007104272,"169":-0.17493960475686887,"170":0.07769619232045347,"171":-0.07526674843584717,"172":-0.1637609889929821,"173":-0.19886035598622107,"174":-0.049814750466398015,"175":-0.14015916370845277,"176":-0.050020012721342995,"177":0.0792457292800426,"178":-0.002164764872292076,"179":-0.19263065645296887,"180":-0.1555906762888827,"181":-0.14696308370769492,"182":-0.14753800083069848,"183":-0.06260235450739142,"184":-0.14731769845419695,"185":-0.1731435269019689,"186":-0.11255761699529067,"187":-0.32745476414109953,"188":-0.3126456825949463,"189":-0.3480833108464542,"190":-0.17171914376104425,"191":-0.10623765082690445,"192":0.01853751125824654,"193":-0.16238762367079176,"194":0.02630047880926999,"195":-0.12419411237957995,"196":0.01236192760323071,"197":-0.04307348488187612,"198":0.03761041753047428,"199":0.09431855537795678,"200":0.10183890807330163,"201":0.13865286292182874,"202":-0.03915915520905389,"203":0.2365630886004735,"204":-0.04610957410044472,"205":-0.1106514779192827,"206":0.025272730884206517,"207":0.04528703010840876,"208":-0.06653936036907152,"209":-0.08576059290357398,"210":-0.09554074977480649,"211":0.10084170121339969,"212":-0.09009632324825384,"213":-0.2438055370356387,"214":-0.12446158782281362,"215":-0.3668040020067058,"216":-0.3569113224446923,"217":-0.14040915829621273,"218":-0.29244382649999406,"219":-0.020089582735023894,"220":-0.19574033027413612,"221":-0.1006798687404761,"222":0.07147940219579255,"223":-0.12040977024304873,"224":-0.016949923379636963,"225":0.0981194596955866,"226":-0.10933973342339456,"227":0.09289585549594137,"228":0.14585980930249412,"229":-0.03319831500612835,"230":0.14331692710159438,"231":0.310495681537092,"232":0.14557158742168008,"233":0.19867094586869924,"234":-0.0004812164720632159,"235":0.12759153682589272,"236":0.1589683851667637,"237":-0.08473190756974015,"238":0.04529733795418925,"239":-0.010540452650600362,"240":0.05552494792170793,"241":-0.20350965010027114,"242":-0.030915017999546192,"243":-0.06423035286544973,"244":0.026097768520525966,"245":-0.269865374611513,"246":-0.1851639329157855,"247":-0.10582999899753444,"248":-0.02401666839769702,"249":-0.04025941673094859,"250":0.1570350689776034,"251":-0.05138482079203893,"252":-0.10002243729067586,"253":0.005818484978138915,"254":0.20151850222172935,"255":-0.1649359390385023,"256":0.07890283219094764,"257":-0.04248564063075624,"258":0.05487632078079711,"259":0.03094315877602805,"260":0.20532238096647,"261":0.02419438179630164,"262":-0.2746988894709382,"263":-0.02353018329495579,"264":0.2015200714627559,"265":-0.05729533094712142,"266":0.054771123483042264,"267":0.2862792326471355,"268":-0.18275009038866272,"269":0.03140604621212877,"270":-0.01843479865480285,"271":0.015923287176111186,"272":-0.12633628923855236,"273":-0.03908444854625375,"274":0.0702543501099,"275":0.020172905929438045,"276":-0.016259812934653214,"277":-0.07893020174830766,"278":-0.009743333786499954,"279":0.13549988925148868,"280":-0.17825166644759616,"281":0.1519826531293038,"282":0.09798424236289137,"283":0.0009303470905813102,"284":0.11126738994255879,"285":-0.031224414975173854,"286":0.018516952789410245,"287":-0.041398831182052113,"288":0.09375429216205897,"289":0.24703440794960685,"290":0.07009217725729412,"291":0.0638265150929607,"292":0.18288661596363429,"293":0.2961574596705497,"294":0.136034712887018,"295":0.06265395349578065,"296":0.12559594211021904,"297":0.021602731725469632,"298":0.16700220861395115,"299":0.0013546994404403305,"300":0.04246696469251609,"301":-0.0927349283257736,"302":0.10004827950708854,"303":-0.04699921057383701,"304":0.08018782684819754,"305":0.10301589259718051,"306":0.06888763466316984,"307":-0.1490469209898545,"308":-0.16390892796816844,"309":0.025778120978843008,"310":-0.02505709120592846,"311":0.19960340798361545,"312":-0.0861092180255011,"313":0.21750847589347733,"314":0.08704551893637559,"315":0.080817981385679,"316":0.029389531678271463,"317":0.09593444299528617,"318":-0.18381518823449733,"319":0.06938760846210806,"320":0.10846695105663577,"321":0.07374647512497746,"322":0.2750938946521068,"323":0.09868334951173452,"324":0.13123578781055234,"325":0.1252308539827361,"326":0.03720002915609221,"327":0.1645659955785803,"328":0.00008511931475684192,"329":0.21883762545579924,"330":0.04096291348750502,"331":-0.011359473367272744,"332":0.06291581091423946,"333":-0.0184971330960918,"334":0.1576817217175533,"335":0.1539456124767561,"336":-0.19524201411485526,"337":0.0958121026086401,"338":-0.062355840513117385,"339":0.16704686513773048,"340":-0.013560942778569602,"341":-0.1997562918883069,"342":0.07988069271996355,"343":-0.21297626489308996,"344":0.06691932445080624,"345":-0.09976344955244144,"346":-0.0917446737267719,"347":-0.02008732128773388,"348":-0.09603638487055413,"349":-0.06465608694404694,"350":0.06896487555773433,"351":-0.028297741147842854,"352":0.2167770631125925,"353":-0.052371484533771384,"354":-0.1767727367049755,"355":0.2132057439815664,"356":-0.0736866219244764,"357":0.0803996126462972,"358":0.16169338969534144,"359":0.11403285238267263,"360":0.05101796875592753,"361":-0.08135415652593952,"362":0.20004736560368275,"363":-0.19919582498269714,"364":-0.10461560120367325,"365":-0.16086186732849994,"366":-0.08956093072480455,"367":-0.07562941207095596,"368":-0.040072393559353305,"369":-0.03338354861706292,"370":0.03875614615463531,"371":-0.21317410737763715,"372":-0.31654918113559793,"373":-0.08323190402688567,"374":-0.3705959529819771,"375":-0.155546739394373,"376":-0.10017235290789296,"377":-0.26203455295463324,"378":-0.27456580500081273,"379":-0.170422418006018,"380":0.20298797095611396,"381":0.05850764033380035,"382":0.1467231819308942,"383":0.1733874501787046,"384":0.1505566950195046,"385":0.20596934139322107,"386":0.006834085018466181,"387":0.06223836290783008,"388":0.07150609318605022,"389":-0.15338561305775522,"390":-0.15828624488032111,"391":0.08035999010513806,"392":0.03669095269662695,"393":-0.012488587148726553,"394":-0.18329297063864836,"395":-0.13514050758254778,"396":-0.16392785744888438,"397":0.12527410240253117,"398":-0.04435126109184261,"399":-0.19410413811935448,"400":0.005897492858984938,"401":-0.024737190745203086,"402":0.06940480163857768,"403":-0.28121647418380147,"404":-0.13173541292924865,"405":-0.13546192300969495,"406":0.015360255352162969,"407":0.04157004075836802,"408":-0.0993325979747637,"409":-0.21187992089182753,"410":0.1386747546489657,"411":-0.10771587094058617,"412":0.14616550542285364,"413":0.19968709920020705,"414":-0.04179742453546371,"415":0.0345301675848453,"416":-0.01641917392464298,"417":0.24291626717291204,"418":-0.11315297673386886,"419":0.1886550653124241,"420":0.14214853497814944,"421":0.18124629378672757,"422":-0.05599227103002058,"423":-0.11569677662507526,"424":-0.043401307568122126,"425":0.014320126616728839,"426":-0.034464182362528836,"427":-0.25684077373918573,"428":0.14662009037268775,"429":-0.05472010492982481,"430":-0.1501244469877281,"431":-0.13192882976663092,"432":-0.14756877121384515,"433":-0.0963693203119454,"434":-0.13904591109318615,"435":0.07458480662726405,"436":-0.20517528585843206,"437":0.16375154696072608,"438":0.30215774747709206,"439":0.27487588849363914,"440":0.15024353609736682,"441":0.3497134741930617,"442":0.23445342804456432,"443":0.030950431446138727,"444":-0.024305005366312554,"445":-0.112060927611977,"446":-0.18671279114634975,"447":0.023961879975455957,"448":-0.08475781668362954,"449":-0.13275611593139952,"450":0.13416097754877762,"451":0.12250038637849492,"452":-0.10972855503362237,"453":0.02924480248815543,"454":-0.04393733255174099,"455":-0.31330807617650364,"456":-0.2242240791093754,"457":0.17275531705337036,"458":-0.06796337735636908,"459":-0.10781013567778622,"460":0.04474896340999622,"461":-0.11971497972325301,"462":-0.0640202939467105,"463":-0.19092767539278066,"464":-0.2411226852293345,"465":-0.07188379529905896,"466":-0.010598726894062594,"467":0.22027870834604224,"468":0.21066793010537824,"469":0.0473594848476457,"470":-0.02328584901325145,"471":0.23026513586250194,"472":-0.026897555683440447,"473":-0.10272175285426113,"474":-0.022352133527304544,"475":-0.16392911713467537,"476":0.13339992313700277,"477":0.0992149344671242,"478":-0.05601578952219177,"479":0.07137419130431723,"480":0.13438499216660163,"481":0.14695488170501594,"482":-0.2164225367397306,"483":-0.1973789826505473,"484":-0.1255358992763217,"485":-0.006785774732890782,"486":-0.03516219501386077,"487":0.16210939285476877,"488":0.17312814624184722,"489":0.038852684498946306,"490":0.19524582363154877,"491":0.21161083577781908,"492":-0.22843546721754804,"493":-0.19186259954867943,"494":-0.0033805933047783266,"495":0.0967645168216791,"496":0.026243896979011617,"497":-0.016298197848935714,"498":0.08527579008898167,"499":0.04935521193400298,"500":0.040476545811551856,"501":-0.09352053962362014,"502":-0.05744542616800109,"503":-0.06049095480055687,"504":0.07767520643228021,"505":-0.10932826376043768,"506":-0.15354477646838585,"507":0.1583112608548884,"508":0.05009744206517453,"509":-0.13866774643279045,"510":-0.05666194517782105,"511":-0.08528309933858008,"512":0.09378336733491648,"513":-0.0961617022610464,"514":0.15148298737844443,"515":-0.027718222466769662,"516":-0.022179581921638658,"517":0.14051888806474286,"518":0.21215968081401546,"519":0.0017541942184683323,"520":-0.0035074675118310413,"521":0.1414804080480067,"522":0.1782887933888685,"523":-0.07087025539007885,"524":0.003639499170446829,"525":0.13653394159389706,"526":-0.040092602190112486,"527":0.0884393843713058,"528":-0.136686054342197,"529":0.08379293579334725,"530":-0.15966748361653435,"531":0.03626773788771805,"532":-0.030807623102320048,"533":0.06102308355005792,"534":-0.1358783014620466,"535":-0.1269162785304624,"536":0.18555429168893373,"537":-0.20976671327328603,"538":0.07956462794844076,"539":-0.11991118750016182,"540":0.13253122153841665,"541":0.12193973088829152,"542":0.14628760929413204,"543":0.36659075450183864,"544":0.0413482339225916,"545":0.17797331477415204,"546":-0.055309083681055964,"547":0.1605166629419194,"548":0.1429554770014962,"549":-0.04916693096485954,"550":0.16226194630179971,"551":-0.06151525758481994,"552":-0.13573506005349964,"553":-0.2093497839417092,"554":0.1824557071192203,"555":0.09552718366538208,"556":-0.0582716549367071,"557":-0.09122107327867886,"558":-0.16409559895043568,"559":-0.15173581124652527,"560":0.022080600031310654,"561":-0.10894440025244796,"562":-0.12257448154413605,"563":-0.1673951231554827,"564":0.11445651165985983,"565":-0.176364487973252,"566":-0.13076934455873482,"567":-0.026875521466951803,"568":0.16946559387178434,"569":-0.05732485232279407,"570":0.02869509346194281,"571":0.08691816304271037,"572":-0.0802416416506486,"573":0.166259897468718,"574":0.07996187233968871,"575":-0.10244188531401063,"576":-0.1275813553932439,"577":-0.03544378166999218,"578":0.1682610041897396,"579":0.00933418541254403,"580":-0.1246134047425981,"581":-0.044584989653606036,"582":-0.06904930092669904,"583":0.1580771001665421,"584":0.13965933690932364,"585":-0.08006395784296733,"586":0.10408306663963822,"587":-0.016731885199853778,"588":-0.005860460411731244,"589":0.14730225059152485,"590":0.05689084286624812,"591":0.05523729429828475,"592":-0.1643394891807489,"593":-0.18500284479138404,"594":0.09366991730097995,"595":0.03288040567436428,"596":0.09055250209581173,"597":-0.0600499146531251,"598":-0.05081969697257879,"599":-0.13095047226072962,"600":0.20274269650793467,"601":-0.16758850910631093,"602":-0.1027462221354324,"603":0.07179679914674353,"604":-0.11508209001476687,"605":-0.09579319680272798,"606":-0.11300433647236222,"607":-0.00036757649977076594,"608":-0.2494470367226207,"609":-0.10737571447411183,"610":0.06268577853037796,"611":-0.003817648696604042,"612":0.11312537861118753,"613":0.15831226578647953,"614":-0.048780221783966175,"615":-0.004870032791236323,"616":0.017776659827622776,"617":-0.05610605279475936,"618":-0.015873001102948908,"619":0.18934837309622762,"620":-0.1383025582095458,"621":0.07812252262012502,"622":-0.17327203152308504,"623":-0.08072584934952363,"624":-0.11561294530089063,"625":-0.171187831845541,"626":-0.16538684642232362,"627":-0.21420410083758126,"628":-0.028069395775539626,"629":-0.20507862059643725,"630":-0.37637324817959,"631":-0.18878672681141848,"632":-0.189839571261292,"633":-0.06325560355448241,"634":-0.14368589628446476,"635":-0.10163951981849723,"636":0.09383487363367114,"637":-0.09000615415911804,"638":-0.15084740111265524,"639":0.023296938486980213,"640":0.1510615852099721,"641":0.08472571943687625,"642":-0.19831836148410897,"643":0.05303791330282415,"644":-0.011366419870884659,"645":0.07468095880901265,"646":-0.1991645224367725,"647":-0.02385773491876373,"648":0.046054703907218324,"649":0.17475124671158715,"650":0.10810097233516351,"651":0.03398658834124983,"652":-0.07219980186972619,"653":0.010541923696434927,"654":-0.23306853315895557,"655":-0.06174209226371871,"656":-0.5445441144033627,"657":-0.34768824818138355,"658":-0.07962516711915467,"659":-0.09230871292281569,"660":-0.064089322114814,"661":-0.24491624008390914,"662":-0.11523681403346589,"663":-0.12210078182106923,"664":0.00658830615457481,"665":-0.19057076006869647,"666":-0.1065286521819133,"667":0.14913069344337956,"668":0.09968610575234506,"669":-0.050079776275446165,"670":-0.05238039308463541,"671":-0.11600204937056136,"672":0.1921528526863951,"673":-0.19238678165258316,"674":0.10073481564278491,"675":0.12966312740014074,"676":-0.15625027404735692,"677":0.127919220463926,"678":-0.10623915427715162,"679":0.08827560821167654,"680":0.25309503301579706,"681":-0.027791091007055433,"682":-0.039669227035334924,"683":-0.20466770864808098,"684":0.00570901468965661,"685":0.11999707681365726,"686":0.011571113653349977,"687":-0.04727417902413818,"688":-0.1635204323015776,"689":0.11735841031009803,"690":0.15092962382090586,"691":-0.11822112892705347,"692":0.16333950246864168,"693":-0.05937481887976712,"694":-0.011131202145980106,"695":0.053236338836568205,"696":0.06350150837862434,"697":-0.09419667398725584,"698":0.14881177735065265,"699":-0.030326787099891478,"700":0.19865104855609633,"701":-0.16492268979729588,"702":0.04301259476324776,"703":0.0377032859503191,"704":0.07310537947426553,"705":-0.13681170646164717,"706":-0.05977539685750338,"707":0.13386322661998637,"708":-0.004656897762914886,"709":-0.04342473780310661,"710":0.3033883051822103,"711":0.2311860295206857,"712":0.17241393043746267,"713":0.08967289122165296,"714":0.1298725231000319,"715":0.22008524067816418,"716":0.06196975900041054,"717":0.21344667754681018,"718":0.20755359022275502,"719":-0.00014340008113243385,"720":-0.09416107391894228,"721":0.19530160574886907,"722":0.029130160540384174,"723":-0.02357163619962109,"724":-0.04932138352604679,"725":-0.033003209629627245,"726":-0.015064207109673683,"727":-0.11874543593014018,"728":-0.015060486713843524,"729":-0.1040011345147744,"730":0.17486092405614623,"731":-0.07549813584149773,"732":0.0886169057452381,"733":0.04032501352975516,"734":0.12053150432939186,"735":-0.09368896175209943,"736":-0.10530219471413854,"737":0.10658325009640054,"738":-0.02466335955931371,"739":-0.058545675556157924,"740":-0.03194228458647968,"741":0.03449656776478036,"742":0.11387843798236398,"743":0.07642372089858983,"744":-0.12068515014908086,"745":0.22717347074689392,"746":0.24714448535612235,"747":0.07634726210574272,"748":-0.005314153571019424,"749":0.004273957812322707,"750":-0.08618242701630803,"751":0.013913931103174437,"752":-0.13779224860010794,"753":-0.15486495481079343,"754":-0.17451757737237417,"755":0.15641021478782274,"756":0.03991929486946369,"757":0.09371844378916105,"758":0.13343533372798116,"759":-0.17187771852007147,"760":0.15925165569624006,"761":0.040449906766228956,"762":-0.08728522021088939,"763":0.09347236399496442,"764":-0.007767592955992527,"765":0.10425202651745634,"766":-0.08802974695694178,"767":0.14907263488803002,"768":-0.18588070991316524,"769":0.053723818630462106,"770":-0.029879969904957813,"771":0.08430794012655458,"772":-0.0046125671584646855,"773":-0.00503799628482082,"774":0.018239043291530543,"775":0.008282608448029125,"776":-0.1976669539799547,"777":-0.07183171722532432,"778":-0.1724697925116979,"779":-0.01936705012682499,"780":-0.06847067052518324,"781":-0.07836448854979682,"782":0.10196446701963063,"783":0.11229067607470755}},"3":{"bias":-0.23731446012041252,"weights":{"0":0.03474413333189777,"1":-0.1796747808328581,"2":-0.03650372308511346,"3":0.10989330064464725,"4":0.13491576098302194,"5":-0.13405360698565696,"6":0.053371889017041596,"7":0.039274819088885055,"8":-0.1650294202971459,"9":0.10585300097239386,"10":0.1102586455222972,"11":0.06607598679690596,"12":-0.11630791119966633,"13":0.053051144892430624,"14":0.050939610662964374,"15":0.02402636707496547,"16":0.174989127919898,"17":0.15625855941695577,"18":-0.06240776389026409,"19":-0.16712901116519074,"20":0.15485640101446974,"21":-0.10601380814465076,"22":-0.1507840497918445,"23":-0.08783588914759007,"24":-0.1782136005517142,"25":-0.014783325973789646,"26":0.055236326563402105,"27":-0.04587200624895421,"28":0.1036926282228417,"29":-0.1951203874726617,"30":0.04979446539971652,"31":-0.054720699114119586,"32":0.14188049609625208,"33":0.1298601309023676,"34":0.05297279795268112,"35":-0.018591272525827214,"36":-0.07764692087204636,"37":0.10845647958235001,"38":0.04412204182982271,"39":-0.16422387027322802,"40":0.1877495703858448,"41":-0.020898793129843392,"42":0.009206210572015453,"43":-0.01984340463711364,"44":0.10317585734520375,"45":-0.07088148247080078,"46":-0.14944354740027588,"47":0.10594004293249573,"48":0.19723065478972013,"49":0.16889819549017238,"50":0.16320438467882753,"51":0.005867980886451185,"52":0.04510635886520439,"53":-0.0673876409527912,"54":0.15443273315072975,"55":0.043621918173267465,"56":0.01231312978875937,"57":0.03444659313227741,"58":0.054276113727664665,"59":0.17803527855106244,"60":-0.07027315365884139,"61":-0.06747405627762744,"62":-0.06145573680492749,"63":-0.13297105081450386,"64":0.012448647032312046,"65":-0.21782343800754067,"66":-0.09667854330430112,"67":-0.17749265793801175,"68":-0.22292386638958486,"69":-0.03305801524734624,"70":-0.1677788430484289,"71":0.07456832113677822,"72":-0.07923896682382342,"73":0.16634391981494737,"74":0.12215708529147437,"75":-0.18284399811913601,"76":-0.037749560920521986,"77":-0.05269057198172937,"78":-0.10457058595791059,"79":-0.05348560897036358,"80":-0.16459158457063616,"81":0.16893161312051097,"82":-0.07845521428503446,"83":0.14419505578427655,"84":0.13421679477891307,"85":0.09366539704353494,"86":0.14773201895374072,"87":-0.08397183234329955,"88":-0.13768034399554005,"89":-0.08681070456996118,"90":-0.11442571783020078,"91":-0.058175234181824145,"92":-0.11786252311850753,"93":0.029082523877284654,"94":-0.3226038523058099,"95":-0.10982699624242996,"96":-0.157950999597955,"97":0.08893688737055058,"98":-0.07516506843169346,"99":-0.1853767373935872,"100":-0.26411355344334575,"101":-0.03718336205450113,"102":0.05079159904580318,"103":-0.08494657919901294,"104":-0.0959107620988481,"105":-0.04332299708747347,"106":0.008906489962017513,"107":-0.07523570473076359,"108":0.10178816619267053,"109":-0.01582169266608585,"110":0.10181899535484329,"111":0.19825867515643447,"112":-0.01013671079419956,"113":0.06499084442221498,"114":0.02278063806471478,"115":-0.1493433013051503,"116":-0.12687962387748805,"117":0.10653719762740085,"118":0.11619355698315999,"119":-0.055647069978831835,"120":-0.16677103250928116,"121":-0.05322588213338312,"122":-0.16680139654614307,"123":-0.0788396154207901,"124":-0.10600257710542535,"125":-0.027974898779790466,"126":-0.22030477282730387,"127":-0.3358787819563427,"128":0.14368076366024526,"129":0.24174677508013132,"130":-0.14306244672181503,"131":0.11484618099143101,"132":-0.13989837023546908,"133":0.09587386829314926,"134":0.016454383637272158,"135":-0.1419816120887213,"136":0.11703529404920296,"137":0.03734418876662946,"138":0.04081924610162104,"139":-0.12980709764785675,"140":0.13413907323639462,"141":0.11823099193968878,"142":0.02447977413934654,"143":0.16396173048804988,"144":0.024535649819541386,"145":0.029891542182184382,"146":-0.09233288478727153,"147":-0.10058671521289023,"148":0.09009858342800955,"149":0.12021659825745848,"150":-0.13388981849948614,"151":0.022378363029378887,"152":-0.059506094403363546,"153":0.1922416236477103,"154":0.04803579623075038,"155":-0.3777477695293627,"156":0.0028554227611943613,"157":-0.073574732225568,"158":-0.08300361427245184,"159":0.024304437846302134,"160":-0.07075889830430118,"161":-0.1287317721991885,"162":-0.14956350189422984,"163":0.047273697123789274,"164":0.1877107143271098,"165":0.21106462777847218,"166":0.0378179168132634,"167":-0.07868936206644339,"168":-0.052051840855665166,"169":-0.02901737003057034,"170":0.06572522855639189,"171":0.0890108976231185,"172":-0.054538376434325346,"173":-0.06788861911512596,"174":0.04547805624534497,"175":0.2190908202179766,"176":0.04650826325361656,"177":0.08417176523802954,"178":0.1603327359284901,"179":0.1425897531451306,"180":0.09826088664489274,"181":0.3598760919356859,"182":0.001186098145886594,"183":-0.09292612835561996,"184":0.005021508273647686,"185":0.3477968039523456,"186":-0.01620865248690525,"187":0.07499840491118803,"188":-0.011348430983473436,"189":0.31135534909636486,"190":-0.016746319309007728,"191":-0.1305840452530279,"192":0.19710915677046084,"193":-0.13049530935168738,"194":-0.000489836692147848,"195":0.12346059677885486,"196":-0.05298503691263687,"197":0.152390033864275,"198":-0.1714037683423983,"199":0.19218476688383254,"200":0.17298225069217132,"201":0.0028499912691970285,"202":-0.0210359327481845,"203":0.3433972965637421,"204":0.33076833043782683,"205":0.2625516809195669,"206":0.29866390619670813,"207":0.328688054980427,"208":0.19219413778350547,"209":0.029044111417764005,"210":0.12063456837911586,"211":0.19104462591802152,"212":0.2371394630154642,"213":0.2801107578733731,"214":0.27508493256874306,"215":0.4040060249688784,"216":0.12995549158474642,"217":0.2739450521942624,"218":-0.12159528338793563,"219":0.26448680075629255,"220":0.09319858027851143,"221":0.23778376739441404,"222":-0.14484952204555443,"223":0.025347317807531116,"224":-0.004388026699529024,"225":0.05058123490056367,"226":0.10055745649444832,"227":0.20545273530959599,"228":-0.0547119453052648,"229":0.10019248559319693,"230":0.08173382277936275,"231":0.29388679663326017,"232":0.09437655857467987,"233":0.36220887516020195,"234":0.30705946287516434,"235":0.18954946886918791,"236":0.25739948883581165,"237":0.02401554131666381,"238":-0.20859602311784187,"239":0.05309428123508081,"240":0.09285453352642806,"241":-0.019159343687617344,"242":0.281382452433721,"243":0.0480105630937097,"244":0.3041928144702918,"245":0.07452787015195765,"246":0.31602737146742926,"247":0.23779449411289788,"248":0.30502555639892387,"249":0.2836409315765563,"250":-0.11073304614136507,"251":-0.1843036212215461,"252":0.17011737769671942,"253":0.07691070687851181,"254":0.05594528898836851,"255":0.14166171420645277,"256":-0.010459230675665794,"257":0.25673694765497995,"258":0.1287684912194113,"259":0.22803171976270264,"260":0.25446743295213936,"261":0.29989587998843453,"262":0.21275507500632546,"263":0.10542395024281906,"264":0.21311621728050958,"265":-0.17571609453970963,"266":-0.23627788696584084,"267":-0.05529023326752553,"268":0.14271353928824768,"269":0.4878870145835233,"270":0.2588854111407684,"271":0.32950835428520975,"272":0.25931911440632166,"273":0.30650281658387685,"274":0.3835019603829879,"275":0.10692867032397291,"276":0.36466625310697726,"277":0.20992416691801447,"278":0.05734503334631837,"279":0.0976408900687752,"280":-0.03372124802052631,"281":-0.01855998385038133,"282":0.022578758272971747,"283":0.14147201079082483,"284":-0.06777642632558567,"285":0.009817743075602122,"286":0.020287165588646384,"287":0.17571206155410055,"288":0.00012527283699097366,"289":0.33919212558098083,"290":0.33310668810090127,"291":0.41288542222104535,"292":0.25415006975060794,"293":0.20657075076762674,"294":-0.0034444365749714484,"295":-0.03718096264975097,"296":0.27539067775445836,"297":0.08837651004100984,"298":0.27206490177320997,"299":0.4172058375304062,"300":0.2736560219548128,"301":0.24480162723076468,"302":0.49321597832872927,"303":0.3677940870783701,"304":0.1965954873472247,"305":0.029739334734362174,"306":-0.11223202556810016,"307":0.026239122307752223,"308":0.05481441497553685,"309":0.09427010116262849,"310":-0.12656002835453073,"311":-0.024330719685672998,"312":0.034198802077686385,"313":0.11484983845245407,"314":0.11017539343510203,"315":0.058617161314464185,"316":-0.08541613605058553,"317":0.3189017783388593,"318":0.24556087755907127,"319":0.26707385157179264,"320":0.19465063594454715,"321":0.40848830252197016,"322":0.0893413676556985,"323":-0.20173310302827632,"324":-0.070471671435977,"325":0.168693573068567,"326":0.1583669279726051,"327":0.2670643246470352,"328":0.279270983840656,"329":-0.10135638892581637,"330":0.12230337409387665,"331":-0.0018850108662788853,"332":0.16338267401771367,"333":0.13677417366163827,"334":0.09900795985754862,"335":-0.19639512812489135,"336":-0.037680727722843255,"337":-0.15641292247619457,"338":0.037958653677682766,"339":0.06286152885044438,"340":-0.06446691622398462,"341":-0.023083294438919905,"342":0.25258669683989293,"343":-0.09111196988413954,"344":0.010269368579228055,"345":0.26347319027303684,"346":0.19345744045934524,"347":0.2840644962659663,"348":0.17878786505333868,"349":0.06819816563483333,"350":0.047668336355904284,"351":-0.07964959327632404,"352":-0.016296420739670258,"353":0.2146950873110539,"354":0.15536200582052317,"355":0.23228639246778743,"356":-0.07928577224075742,"357":-0.03910082408624834,"358":0.16899125248301775,"359":0.07624146619440533,"360":0.07565019417161176,"361":-0.08435575586081598,"362":0.14604929318135373,"363":-0.0835242978609162,"364":0.15142653276908985,"365":-0.19985513609570027,"366":0.135432577270447,"367":-0.0904398102041286,"368":-0.01796017351744209,"369":-0.18524685405710403,"370":0.24968972283182847,"371":0.1185137400390961,"372":0.043513141212066904,"373":0.12412087827820209,"374":0.17274935053026422,"375":0.03729090346980134,"376":0.3356598708353692,"377":0.21453426722173466,"378":-0.1605716554675515,"379":-0.22915213991097294,"380":-0.0811523035155211,"381":-0.021699713579910396,"382":0.028050350672688212,"383":0.0787833578792657,"384":-0.09610792446365715,"385":-0.06260812166061544,"386":0.21645159924650892,"387":-0.08140211758296602,"388":-0.1972822715687415,"389":-0.02298486539957487,"390":-0.16839127174763674,"391":0.10987113791834563,"392":-0.08823530827607869,"393":-0.14984223815787717,"394":-0.13775322201109677,"395":-0.03477025414739674,"396":-0.20579002757197823,"397":-0.07989010715260815,"398":-0.11447465531571138,"399":-0.23640485367517036,"400":-0.1394906178244955,"401":0.026527047069487917,"402":-0.08564645484161898,"403":0.06430013225502143,"404":0.17211330981645281,"405":0.013925096903568674,"406":-0.13824302677217556,"407":-0.21973961507301246,"408":-0.17265231222947136,"409":-0.02805574957294757,"410":0.04037398378147247,"411":0.028671820414449066,"412":0.06705131717323065,"413":-0.1232765940021495,"414":-0.025136382697124312,"415":-0.08438316182946631,"416":-0.03442357834920732,"417":-0.14226454567731464,"418":-0.06661548975801568,"419":0.14445646981965393,"420":-0.019492681170744597,"421":-0.18829161620989923,"422":0.07112560094240092,"423":0.14561511314900785,"424":-0.1337839314610909,"425":-0.14832825663989785,"426":-0.010473024728257556,"427":-0.0873623935158873,"428":-0.4010692675980261,"429":-0.016963670841982317,"430":-0.23296338810129955,"431":-0.04662057939061112,"432":-0.15807472760662689,"433":-0.23242518723952016,"434":-0.3043366063954205,"435":-0.19214344158453017,"436":-0.0656525135294554,"437":0.12870441194973603,"438":-0.024336895777172882,"439":0.025110916331640344,"440":0.23764252770622787,"441":0.01635310683709735,"442":-0.22546849629596397,"443":-0.03348461297118054,"444":-0.17890421439783288,"445":-0.0018860795908626552,"446":0.07653738916866226,"447":0.08412938359240857,"448":-0.03196255531681019,"449":0.16112059065340523,"450":0.01615829920261152,"451":0.1518798356550015,"452":-0.07393201425156809,"453":-0.21957733477523317,"454":-0.1437926617857819,"455":-0.17031484691249701,"456":-0.07212601270120633,"457":-0.3893319807868328,"458":-0.33768099200302726,"459":-0.1739694945462714,"460":-0.3357375292240599,"461":-0.28269224791672015,"462":-0.41806872583636384,"463":0.05310534571474673,"464":0.2540319585103241,"465":0.24304477112977588,"466":0.036584917059600375,"467":0.06985701803101708,"468":0.00823712081829093,"469":-0.150786070326507,"470":-0.20757552617233938,"471":0.12827617950283388,"472":-0.14903399355151373,"473":0.11530198941248909,"474":0.10887198793452807,"475":0.09745216756738352,"476":0.03161728947587897,"477":0.05867535313451472,"478":0.033797416996295356,"479":0.1113398599405625,"480":-0.010290290215191032,"481":0.051607558633823776,"482":-0.03163645384807785,"483":-0.06754474570818461,"484":-0.27272742382481063,"485":-0.2623534250954296,"486":-0.37736126821528354,"487":-0.5280485214688544,"488":-0.2506669341261401,"489":-0.1354498154074188,"490":-0.04202604413873649,"491":0.02923043553051815,"492":0.12017332019089604,"493":-0.04425235607081678,"494":0.464301006290597,"495":0.15129838419622513,"496":-0.2569099489757233,"497":0.05095154900428216,"498":-0.07034214887653553,"499":0.00793873800976143,"500":-0.20509314471135814,"501":-0.14079434679638506,"502":-0.11904903199784653,"503":-0.18664197708453184,"504":0.048339756338247136,"505":0.027625753347034626,"506":0.025112167388427708,"507":0.039466231411663416,"508":0.11648923871052805,"509":-0.051392383113698745,"510":0.32868313822398576,"511":-0.1113715505526758,"512":-0.14448744611376496,"513":-0.19534133921503644,"514":-0.22471619317245908,"515":-0.19084772737864616,"516":-0.46591427964348875,"517":-0.08516786546052049,"518":-0.22957640696412476,"519":-0.3105492060414774,"520":-0.03273861367255096,"521":-0.2204229179459707,"522":0.037419694151533275,"523":0.15106533404544958,"524":-0.3047371979960187,"525":-0.06858544225778138,"526":-0.28718217967280774,"527":0.03109952612356591,"528":-0.2607490872932725,"529":0.09180906467166124,"530":-0.02489860882743189,"531":0.0011139812669187755,"532":0.06846630034274936,"533":-0.12186632045629278,"534":0.00589210446245559,"535":-0.126398061386702,"536":-0.006565416119642536,"537":0.08776774242060137,"538":-0.08457571691952123,"539":0.3744881172667094,"540":0.04521252411833525,"541":-0.28674648558446036,"542":-0.3081690260411278,"543":-0.3745565626920668,"544":-0.07791074158216273,"545":-0.2198464334828386,"546":-0.48186318456379773,"547":-0.2594163227569335,"548":0.015417291374805398,"549":0.08478940740076965,"550":-0.16632831028839035,"551":-0.036535392462516025,"552":-0.18463191941597767,"553":-0.16276760982198102,"554":-0.14910956813212842,"555":-0.023218474275479448,"556":-0.17342372195312064,"557":-0.10044233582975923,"558":0.025117779820309882,"559":0.08277177182745013,"560":-0.0065253574742625275,"561":-0.13046180850035052,"562":0.013886169492849832,"563":0.15180281039712343,"564":0.19324547100292827,"565":-0.058414058102018586,"566":-0.020828330655868307,"567":0.2602662678987702,"568":0.0935927368794086,"569":-0.01638995530193295,"570":-0.1524313253479635,"571":-0.05033569975285539,"572":-0.25103097726922385,"573":-0.28531478938793964,"574":-0.22175123031620939,"575":-0.12831698132251645,"576":-0.021375636865982293,"577":0.1711692489421295,"578":-0.22404182706119977,"579":-0.12571673764947375,"580":-0.08853830048231792,"581":0.07896762950020052,"582":-0.1498770303563619,"583":-0.09086649936549904,"584":0.1355564484357283,"585":0.11382039134656674,"586":0.05180750140658814,"587":0.08007916091759815,"588":-0.11851185671095205,"589":-0.1341162343304581,"590":-0.07579252416589521,"591":-0.05993310204212639,"592":-0.13377722913066054,"593":0.1734322518514074,"594":0.19667667502493458,"595":0.022472283064230276,"596":-0.02555360288256433,"597":-0.24230757090611837,"598":-0.043945977904585466,"599":-0.18668470953959562,"600":-0.12628653126968306,"601":0.20125257291563953,"602":0.04202562042677069,"603":0.27109402843841174,"604":0.051137727328889826,"605":0.007135693836520871,"606":-0.30688908721536723,"607":-0.24475150614572894,"608":0.11466131975766976,"609":-0.06151371032691126,"610":0.05106360861437235,"611":0.037971599797210674,"612":0.13359818863199158,"613":0.1445091694108069,"614":0.16548359186214837,"615":0.06802976667309074,"616":-0.17294650789740632,"617":-0.13513826042425947,"618":-0.11817712446670715,"619":-0.11233832265580877,"620":-0.03539267775262063,"621":-0.058900011732112977,"622":-0.08938325614175804,"623":-0.19677075855011678,"624":-0.02435882409400711,"625":-0.12088185247820198,"626":-0.11117870784676656,"627":-0.016627187532262666,"628":0.21886598600959684,"629":0.22112331684607403,"630":0.2275669363518527,"631":0.38014535789016624,"632":0.29850083763130614,"633":0.17393472792232967,"634":-0.34822463731610875,"635":0.1585999468118407,"636":0.018769144940508194,"637":-0.1229367702452263,"638":-0.09045459122852016,"639":-0.1584954782488529,"640":-0.1805056632765815,"641":0.03165741624583601,"642":-0.015437980355694079,"643":0.17619675677016372,"644":-0.03957400732597788,"645":0.10575034926997223,"646":0.06890608486329078,"647":0.0780321993139382,"648":-0.11730297863889562,"649":-0.12791942908369439,"650":0.06129381754387335,"651":0.13286121487370472,"652":0.037424277120302135,"653":-0.0338276114600847,"654":0.34910686367011545,"655":0.20545603982957825,"656":0.28758692934742947,"657":0.5129351926793574,"658":0.3797912405574691,"659":0.17248805066709944,"660":0.011444537822692094,"661":0.1246305845309666,"662":-0.17681272650116833,"663":0.06395204795397146,"664":0.1346427934704767,"665":0.17760881580425633,"666":-0.06378505418133809,"667":-0.08481300471664148,"668":-0.032849238682029734,"669":0.16985437629719366,"670":0.1280648251487813,"671":0.06929763754400564,"672":0.047036280400704816,"673":0.026293486474420813,"674":0.08798161743027066,"675":0.03396193778943269,"676":0.034667318378667954,"677":0.050444942720367925,"678":0.17015665012468165,"679":0.13424547727366037,"680":0.33118853011127847,"681":0.1733570683498398,"682":0.3724228956192555,"683":0.26873330331515505,"684":0.30158720704153674,"685":0.27519672244524973,"686":0.2980253532880523,"687":0.3399274021708302,"688":0.00895206918101144,"689":0.1132293593694325,"690":-0.08856972715885797,"691":-0.01060081251437142,"692":-0.025051770248736734,"693":-0.20543137687959867,"694":-0.22614068179533126,"695":-0.19493461541972162,"696":0.13708205661396503,"697":-0.18728066443436567,"698":-0.08354158830048695,"699":-0.15537091568978784,"700":-0.12122586361505637,"701":0.13643516310859777,"702":0.0010703315988767892,"703":-0.15299906586232193,"704":0.011299381179770899,"705":0.1249452840049859,"706":0.08915260367064876,"707":0.12229733069751882,"708":0.019044848129638078,"709":0.007917841041936465,"710":0.33711417228698826,"711":0.2229710993112554,"712":0.1103197817970547,"713":-0.027997449562389608,"714":0.04538821532930138,"715":0.2248222404393071,"716":0.23537791690528154,"717":-0.012870798427562983,"718":0.10487578188917475,"719":0.039478245675191585,"720":0.07073068898510862,"721":0.1718778882033705,"722":-0.06834324530669485,"723":0.1479932131375038,"724":0.17194004881367586,"725":-0.05286267135057257,"726":0.18572761978928665,"727":-0.19600469262707723,"728":-0.03270403721717799,"729":0.08699320349448803,"730":0.17043903532684962,"731":0.1491083704347295,"732":-0.048867981895021353,"733":-0.13118166033314846,"734":-0.15794949141872983,"735":0.06194882021741442,"736":0.22456987217987265,"737":-0.10599672005147268,"738":-0.05848785197758166,"739":0.17355557602128455,"740":0.2562729876372525,"741":-0.06591961243657292,"742":-0.03116695792442007,"743":-0.1104090732057216,"744":0.024554079429080486,"745":-0.10807335076073643,"746":0.09609424021102028,"747":-0.009562391299477897,"748":0.030864388941934866,"749":0.024232914606374587,"750":0.1704283155745912,"751":0.16554113875535603,"752":0.07232965484457232,"753":-0.1586598267257327,"754":-0.19366704679814337,"755":-0.11243635635694141,"756":-0.16533745927753163,"757":0.03567718156732963,"758":-0.09960838498368735,"759":-0.15931031406874388,"760":0.16154788433041595,"761":-0.031666821822765576,"762":0.10682225008762271,"763":-0.08362091049459411,"764":0.05546906807330224,"765":0.06155723422145862,"766":0.10648255829304623,"767":-0.04882281318166596,"768":-0.0633262652373673,"769":0.1224990791631153,"770":-0.15525943467024392,"771":-0.02319962343473837,"772":-0.1549486787052735,"773":0.11762063578064046,"774":-0.011880915912431563,"775":0.18577092157046457,"776":0.10711693403162664,"777":-0.1691034132676257,"778":0.12494416845735724,"779":0.07042125046466924,"780":0.18250389277490192,"781":-0.17786088947220868,"782":-0.09891811099114359,"783":-0.08291082736708333}},"4":{"bias":-0.09982329807953853,"weights":{"0":0.06769880753016205,"1":-0.13617917103284605,"2":-0.048535161820091766,"3":-0.14889841822448596,"4":-0.18260749887679842,"5":-0.0903911750823573,"6":-0.16198553457229378,"7":0.15554427817228245,"8":0.1709891621106409,"9":-0.026263306457197377,"10":0.04984965589158846,"11":-0.06040942232837293,"12":0.12096008516847617,"13":-0.11877657052348063,"14":-0.1615396106173247,"15":-0.07080486682178996,"16":0.09101626854065659,"17":-0.1421768081847815,"18":-0.0308308592000765,"19":0.06921361181518815,"20":-0.007547987046391036,"21":-0.12943126546923667,"22":0.08061347008241226,"23":0.17727825184291746,"24":-0.1026077764579239,"25":0.06023736720861006,"26":-0.13514589069780084,"27":0.08385524017002172,"28":0.1598434812770484,"29":0.18775888278682862,"30":-0.13720640706397358,"31":0.16948620057988545,"32":0.11689157426149327,"33":0.19882673749968677,"34":-0.02230650131566944,"35":0.1560626361806263,"36":0.10263492472056819,"37":-0.04338993256493586,"38":0.13720894918015056,"39":-0.18276638285140429,"40":-0.12220371096810419,"41":-0.1732727093687644,"42":-0.19382079314319414,"43":-0.12327204586656478,"44":-0.018648273901634475,"45":-0.010316852328832178,"46":-0.035818643668381264,"47":-0.13939732422275197,"48":-0.19477518002947516,"49":-0.059702903747378765,"50":0.03439904211189315,"51":0.011867036130759956,"52":0.000902483800270748,"53":0.09790531280544484,"54":-0.1891742370308358,"55":-0.04230862277003214,"56":0.0025197585021325963,"57":0.11900369185765047,"58":-0.19147077804677118,"59":-0.06030884110447979,"60":-0.06805458414309089,"61":0.13306747439217514,"62":-0.13605268485545421,"63":-0.0860905298074748,"64":0.10490006197849512,"65":-0.07102608584170365,"66":-0.03170434962043155,"67":0.16588554860405966,"68":-0.12685800320810256,"69":0.026434503274280152,"70":-0.04100832860846306,"71":0.11433263717744171,"72":0.08225666996807707,"73":-0.06107373298184029,"74":0.002654353559036898,"75":0.1502566109567613,"76":0.1686182203823293,"77":-0.012845594471014911,"78":-0.13228193804707647,"79":-0.16988838762362762,"80":-0.06223213313123365,"81":-0.17149983306137467,"82":0.11186576138880344,"83":0.14802758258490334,"84":0.13192879019875242,"85":-0.16932374822497318,"86":0.08672721179153903,"87":0.11265756524760384,"88":0.10220545459210731,"89":-0.07163737321724742,"90":-0.014830682644388029,"91":0.12791656721294972,"92":-0.007864598870124407,"93":-0.05441769309868955,"94":-0.09442637015404381,"95":0.11267108316638422,"96":-0.13269422989646226,"97":0.2121730383087612,"98":-0.13192909240416556,"99":0.023350211952720922,"100":-0.046302636404858245,"101":-0.16080979871174397,"102":-0.26307367592005376,"103":-0.14924913875585735,"104":-0.02672572489319208,"105":-0.15056244624583534,"106":0.12029243952432916,"107":0.06590234906367774,"108":0.16362236656165888,"109":0.03332249710898827,"110":0.1571403059959237,"111":-0.11187778012232226,"112":-0.1806352275931018,"113":0.17826662743838967,"114":-0.00668428313739336,"115":-0.11607085079066073,"116":-0.12243130005267483,"117":-0.16661972183596196,"118":-0.08591381033788335,"119":0.0887308650808922,"120":-0.10397210459328007,"121":0.10711788845114292,"122":0.18152546798638222,"123":0.14609858691475877,"124":-0.08442418264398793,"125":-0.15079860717041865,"126":-0.09687717453350428,"127":0.09950041486058578,"128":0.06539064028669753,"129":0.024179373419115174,"130":-0.046887015486283164,"131":0.11853449010729715,"132":-0.0743475540057899,"133":0.0942929533983806,"134":0.019413132504700406,"135":0.0007891679927008635,"136":-0.03513121360704636,"137":-0.08483837321001395,"138":-0.08975736840000009,"139":-0.14576848144867027,"140":0.05076788526238751,"141":-0.0990996482987395,"142":0.14294714259003397,"143":0.06337593990988569,"144":-0.12050605364052214,"145":0.10465501947071688,"146":0.2107159785410476,"147":0.14040794181858843,"148":0.2629615031667819,"149":0.18958968687498096,"150":0.20437138550103534,"151":0.022554216453232707,"152":0.19665830694870817,"153":0.2145439729848688,"154":-0.050862015820074435,"155":0.3477871114782788,"156":-0.1932827060118236,"157":-0.007807943743915394,"158":0.11522660099803832,"159":0.10223163040009098,"160":-0.18673421779391472,"161":0.12785367157597233,"162":0.030804362108409533,"163":0.03899932526744364,"164":-0.10014607217928376,"165":0.0837648475150359,"166":-0.10042824273762492,"167":-0.03310286806645784,"168":-0.16085343810317632,"169":0.11079736143064123,"170":0.034010120203439353,"171":-0.05578205956948362,"172":-0.18581768662122422,"173":0.0907856632798354,"174":0.11467169473115914,"175":0.2513699254003265,"176":0.3401250063897446,"177":0.23275224789655988,"178":0.4010827693802599,"179":0.07601195548859645,"180":0.0005511223005906952,"181":0.028734043408922313,"182":0.008749046300487364,"183":0.31623753860746673,"184":0.21672376598800638,"185":0.02857428765098469,"186":0.08013472111640489,"187":0.16106681598080178,"188":0.10485704142130413,"189":-0.07175422290018198,"190":-0.2145293392746528,"191":-0.09355088101828492,"192":-0.12481753304822717,"193":0.062179412225132215,"194":0.04703342300079941,"195":-0.1572302642423636,"196":0.11664715936990538,"197":-0.08995444780169527,"198":0.1883990040593637,"199":-0.012632069934537579,"200":-0.17405548405248003,"201":-0.08765597823137174,"202":0.09632296049382494,"203":0.01923206789791683,"204":0.297671215040899,"205":0.26784116262153795,"206":0.40577420373293394,"207":0.2901306479908052,"208":-0.09192638350157215,"209":0.062060449017363004,"210":0.17873348030921385,"211":0.06902104400860488,"212":0.3260277813177128,"213":-0.0161870548029866,"214":0.020582677298306675,"215":-0.12717105557083164,"216":0.006606812824652291,"217":0.06268123267684392,"218":0.13456486520834277,"219":0.027747599796728657,"220":-0.12019877079134345,"221":0.14139167273887152,"222":0.07506426240909023,"223":0.04085642000687477,"224":0.14294218041432669,"225":0.03835580172968437,"226":0.04249646414342681,"227":-0.016806743468216343,"228":-0.021646080463700604,"229":0.06800002018038177,"230":0.011528117982641603,"231":0.1930226938152359,"232":0.2781754754588981,"233":0.1664711463016837,"234":0.2856517599310654,"235":0.11687814307255358,"236":-0.04059665234931592,"237":-0.15179559091673764,"238":0.011634191420964116,"239":-0.027747897230875927,"240":0.07640293273542749,"241":-0.1033071447373459,"242":0.1145502841836256,"243":-0.016779152351483195,"244":-0.031153866140143406,"245":0.089218259416053,"246":-0.14866496097199808,"247":-0.07388079310429804,"248":-0.006266971885784057,"249":-0.11523569343080375,"250":0.003235828385067037,"251":0.1371403598742619,"252":0.13585049664115567,"253":0.12955506223002686,"254":-0.06876969815831328,"255":-0.01228266599222808,"256":0.18812698506351677,"257":0.01195468570152239,"258":0.20245392808225166,"259":0.06668764150730642,"260":0.0658070730422117,"261":0.0796421073864906,"262":0.2245458521278215,"263":0.1799946651532107,"264":0.15475744723020612,"265":0.11145274489037278,"266":-0.12857675894000864,"267":-0.07810872926925155,"268":0.16422966340009212,"269":0.2955228428962693,"270":0.1995930529438893,"271":0.05073917728228633,"272":-0.09874289749947741,"273":0.19402739171769845,"274":-0.017651248531331803,"275":0.20080443995931457,"276":0.003669710230376214,"277":-0.03984425154290005,"278":-0.11236257130979577,"279":0.1216765130963007,"280":0.07932873260995976,"281":0.09450261196052273,"282":0.1580367255646547,"283":-0.16396395652027726,"284":0.03758161104079864,"285":0.0834235835391648,"286":0.022910346901051634,"287":0.23781250956449065,"288":0.07563464828979582,"289":0.29051998627429143,"290":0.34172031963962113,"291":-0.03987974289334618,"292":0.03059760847579724,"293":-0.13357242973861577,"294":-0.39891512379204597,"295":-0.22702752346869245,"296":0.06728808445505183,"297":-0.08174397497599804,"298":-0.011907201404209674,"299":0.00858185377443814,"300":0.13830776218378268,"301":0.1527841855113343,"302":0.0411456447751104,"303":-0.07873518989978741,"304":0.11994156285879533,"305":-0.03625919986632303,"306":-0.16844347788914027,"307":0.0177010876046352,"308":0.12170864937405207,"309":0.12545014902811297,"310":-0.02752832257520832,"311":-0.15354151952373507,"312":-0.028158865531151156,"313":0.20557334896505353,"314":0.16715221039071929,"315":0.22456380320618372,"316":0.16788996254174676,"317":0.09549802201797068,"318":-0.04112970494548835,"319":0.05859828122004556,"320":-0.27323060666131516,"321":-0.38337702323020273,"322":-0.29021945339286914,"323":-0.1944598281221452,"324":-0.06005649203912671,"325":0.14086798639260162,"326":0.21442663489215827,"327":0.3575084739391341,"328":0.46136148424747425,"329":0.030899505567123908,"330":0.22285119427576272,"331":0.036475012989698144,"332":-0.15916601308965145,"333":-0.21501218189547164,"334":-0.042169106012303885,"335":-0.0008564831066248958,"336":0.06292988768777397,"337":-0.1861482809148174,"338":0.007559205086424778,"339":0.13778913662686254,"340":-0.007861809088908336,"341":-0.032695279216307015,"342":-0.1118433496073697,"343":0.2415206733940756,"344":0.22729450976461094,"345":0.028587761191794136,"346":0.08625516670262635,"347":-0.24583985722332927,"348":-0.12430517208287623,"349":-0.2573073024834338,"350":0.07516125590538933,"351":-0.26956331020329566,"352":-0.10785026478618998,"353":-0.005526454018912174,"354":-0.04829866104173305,"355":0.3591147057188442,"356":0.10300933691819242,"357":0.06823845053846027,"358":0.349556162262,"359":0.07286209274240428,"360":-0.13797975410786142,"361":0.154840177717944,"362":-0.18546283341207034,"363":0.1579241241410866,"364":-0.020034292045689572,"365":0.10657714126098064,"366":-0.15115304715932765,"367":0.02447947428677214,"368":0.04918271319283192,"369":0.04949369042297498,"370":0.16696364580987594,"371":0.034045681703107775,"372":0.29219579326467865,"373":0.03473327909942229,"374":-0.10048599830017403,"375":-0.14570189575090015,"376":-0.2726283921612838,"377":-0.20216396890369778,"378":-0.15786008088838685,"379":-0.13938222924124713,"380":0.045688836069846604,"381":0.0190036177023249,"382":0.25328474670401896,"383":0.3632938377184399,"384":0.303146345015693,"385":-0.0016124566008434479,"386":0.3363485711566913,"387":-0.0023027079860234016,"388":0.2083049909871898,"389":-0.026811883246952883,"390":-0.0644056813022974,